nep4 3 Ba Zr S 
cutoff 8 4 150 20
n_max 4 4
basis_size 8 8
l_max 4 2 0
ANN 30 0
  1.2673524e-06
  1.9193347e-05
 -2.4023660e-05
  1.0235390e-06
  1.7557535e-07
  2.4596226e-05
  8.3705800e-06
  1.2110623e-07
  2.5837157e-06
 -1.2328365e-04
 -1.0445458e-05
  3.3946239e-05
 -2.5232396e-06
  6.1093931e-05
  1.9365707e-05
  1.8165971e-05
 -1.0319197e-05
 -1.7842021e-05
  6.1826307e-07
 -9.9521849e-06
 -8.1456966e-07
  6.5846375e-06
 -1.1454448e-05
 -9.8052724e-06
  1.0974498e-05
  1.2942911e-04
 -3.9931765e-06
  1.6795930e-05
 -3.4940570e-07
  2.7133583e-06
  8.3129960e-01
  6.5510726e-01
 -3.9396451e-05
  4.7379650e-05
 -1.7186848e+00
  1.0617318e-05
 -1.2121193e-06
  1.8596992e-02
 -6.0382581e-01
  1.4439453e+00
 -1.8382769e-05
 -1.5337127e-06
  6.1662834e-02
 -5.2501032e-06
  4.7701146e-04
  1.8880581e-05
 -2.2033164e-05
  3.1684309e-01
  2.9936582e-02
 -2.4835113e-01
 -2.1842523e-05
 -5.2063773e-05
  4.6657853e-02
  3.0594018e-01
  3.4869656e-01
  1.6280430e-05
 -6.7374071e-06
  1.9744044e-05
 -3.8886214e-05
  2.6642622e-06
 -1.0906563e-06
  3.3510034e-05
  3.0920455e-05
 -5.7558273e-06
 -3.5542596e-06
  2.6178903e-05
  1.1680306e-05
 -1.9658251e-05
  2.1502424e-04
  1.0087379e-05
  1.2089034e-06
  2.3290242e-05
  4.6424398e-06
 -1.8642118e-05
  7.6870083e-06
 -1.2058416e-05
 -2.3212587e-07
 -1.9732448e-05
 -2.9958778e-06
  3.5807068e-06
  1.4026657e-06
  8.8983816e-06
 -4.5756326e-07
 -8.3677987e-06
 -9.0798230e-06
 -7.6467377e-06
 -1.5967049e-05
 -2.2984605e-06
 -2.3432742e-06
  1.0535920e-05
  6.7448759e-01
  2.3157141e-01
  4.7422945e-06
  2.2011991e-06
  7.0104179e-06
 -2.4867610e-05
 -1.4867209e-05
  3.2129079e-05
  3.2475582e-06
 -5.0419289e-01
 -5.8659080e-06
  3.3202818e-06
  1.6288370e-05
  8.2913095e-07
  1.5843791e-05
 -1.1624774e-05
  3.9871858e-05
  1.3339270e-05
  1.1567921e-06
 -8.0634216e-03
  1.9694181e-07
 -7.0326851e-06
  8.4565661e-05
  2.5856196e-05
  6.6698551e-02
 -2.1878046e-05
  2.2906321e-04
  3.9268211e-06
  1.3921584e-04
  8.5254338e-05
  7.9656576e-07
 -1.1640863e-05
 -9.4236257e-06
  1.0885511e-05
  5.5185119e-06
 -2.8352142e-06
 -4.6548721e-06
 -1.9008976e-05
  1.1058509e-05
 -3.8318640e-06
  2.7126836e-05
  7.6619563e-06
 -5.8252017e-08
  4.0143965e-05
 -2.9137702e-06
 -8.4277017e-06
 -6.2239105e-06
  5.7274428e-06
  4.0958592e-05
 -2.4414050e-05
 -3.3527406e-06
  1.6645386e-05
 -4.4656454e-07
 -5.3753017e-04
 -1.5149715e-06
  8.2831486e-04
  5.4428179e-05
 -4.6946452e-06
 -1.3122182e-07
  9.2301143e-06
  6.6521538e-06
  8.5709080e-06
 -3.8463582e-05
 -4.3509631e-06
  1.1855850e-06
  6.1534943e-06
 -5.3305916e-06
  3.1830521e-07
  1.6275542e-05
  5.8155169e-06
 -2.8541783e-04
 -4.3292921e-06
  4.3872325e-07
 -2.6849225e-06
 -2.9307234e-06
  2.0722246e-05
  1.7131852e-05
  2.4507448e-05
 -3.6773139e-07
  1.4379413e-05
  5.6343447e-06
 -1.5202875e-06
  7.6930978e-10
  3.7034140e-06
 -1.0854565e-05
 -4.2160893e-05
 -1.3530068e-05
 -3.8960126e-05
  7.7715404e-06
  4.2676506e-06
 -1.9323081e+00
 -4.2012785e-04
  7.3500000e-06
  1.8147852e-06
  5.8652306e-01
  6.8955837e-06
 -3.0762378e-06
  3.9087731e-06
  4.5623895e-02
  3.4199013e-05
 -3.1581317e-07
 -1.8450997e-06
 -1.6646014e-05
  4.4673227e-05
 -3.0717874e-05
 -1.5589188e-05
 -1.5100606e-05
 -8.4872532e-08
  2.2057943e-06
  1.9768563e-06
  2.0154152e-05
 -8.3014793e-06
 -2.0967783e-04
 -2.8016157e-05
 -4.2271869e-05
  4.7492981e-06
  4.6840087e-06
 -3.9908714e-06
 -9.4364732e-06
 -1.4753403e-05
 -5.6007797e-01
 -7.8053035e-02
  2.3265808e-05
 -5.3526572e-05
  4.8061594e-01
  1.4082230e-05
  3.9105212e-06
 -2.4442848e-05
  7.2388910e-02
 -3.7750196e-01
 -1.0478112e-04
  9.7715138e-06
 -5.9496576e-04
 -5.6143068e-07
 -3.1119134e-07
 -1.5613627e-05
  3.0307327e-05
 -5.0139774e-05
 -2.6243110e-04
  2.7451295e-02
  1.5373467e-04
 -7.3228794e-06
 -7.7226196e-06
  1.7878573e-07
 -1.5426695e-03
 -6.8450386e-06
  2.8623861e-06
  8.5853969e-07
  3.0649011e-05
  8.6314953e-04
  1.6705093e-01
  9.1472917e-05
 -1.8424953e-05
  1.2292719e-04
 -4.5543325e-06
 -6.8188883e-06
 -9.3332274e-06
  1.1382052e-04
 -3.6336398e-06
  2.4498199e-01
 -1.5092934e-05
 -2.5199216e-07
  6.0462012e-06
  1.3425239e-07
  2.0260716e-04
  2.8306191e-05
 -4.9163514e-06
  1.4340700e-05
  8.1077940e-07
 -2.9205246e-04
 -2.7763886e-06
  6.8727013e-06
  1.5942611e-04
  2.2160291e-04
  1.6288545e-02
  2.5714505e-06
 -4.3373034e-06
 -1.0505560e-07
 -4.0507851e-07
 -1.0907383e-05
 -2.0107874e-01
  2.0399179e+00
 -1.3734459e-05
 -1.3155625e+00
  1.0192182e+00
  3.4238076e-06
 -1.3010241e-06
  1.0750660e-01
 -1.5394904e-01
  7.6000556e-02
  4.6623063e-05
 -4.3429072e-06
  2.6337013e-01
 -1.0672633e-01
  1.3662658e-03
 -1.5910962e-05
  1.8551500e-06
  3.9653218e-01
  1.9536902e-01
 -1.2437835e-02
 -6.3242405e-06
  1.4623896e-05
  1.3749324e-01
  4.5919505e-01
  3.1343937e-01
 -1.7759296e-04
  3.7477930e-05
 -6.8152967e-06
 -3.7648922e-05
 -1.2517843e-01
 -3.1553259e-01
  1.2232589e-05
 -3.1317501e-05
 -8.4489665e-07
 -1.7634362e-06
  3.0852621e-05
  3.7035679e-06
  5.3240715e-06
  6.1123696e-06
 -2.7817517e-08
 -1.4690782e-05
  9.6135745e-06
  5.0967374e-05
  1.5233371e-05
 -5.3493977e-06
  8.2928600e-06
 -1.2434757e-05
 -4.3648515e-07
 -8.5685351e-05
  4.8357110e-06
  1.7315219e-06
  3.7115301e-06
  1.5564597e-06
  3.0462211e-06
 -2.4938770e-05
 -1.5584141e-05
 -6.1690230e-06
 -4.0804425e-05
  6.2512328e-05
  1.6681687e-06
  8.1322405e-06
 -1.7924245e-05
  3.0606395e-06
 -9.7165776e-06
  6.0478440e-05
  3.7799721e-06
 -1.9446679e-05
 -6.7483408e-05
 -7.4265522e-06
 -1.0908245e-05
 -3.0136785e-06
 -1.0618155e-06
  3.9491920e-06
 -2.3608189e-05
 -1.2735647e-07
 -3.7556874e-05
 -1.5496302e-05
 -1.0814852e-05
  4.4940157e-06
 -1.2343881e-05
 -9.2314285e-06
  3.0110828e-06
 -5.7656057e-06
 -2.0414266e-06
 -9.1002139e-06
 -5.0811541e-06
  3.7270247e-06
 -2.7324693e-04
  3.6084796e-06
  2.5073534e-05
 -1.7515519e-04
 -9.3515824e-05
  2.1988521e-05
  8.9683044e-06
 -1.3119740e-05
 -1.5333834e-06
  6.4092055e-06
 -1.4696491e-07
  3.1369314e-06
  3.3553179e-06
 -4.2285157e-07
  5.2104888e-06
  8.1360658e-06
 -9.8366172e-08
 -4.1026571e-05
 -2.4259984e-05
  7.7215702e-07
 -7.0159472e-06
  1.7433718e-05
  4.8298566e-06
  4.3196531e-05
 -3.7998830e-06
 -2.9074815e-06
 -2.2448676e-05
  6.2993936e-06
 -3.1616162e-06
 -6.9572184e-06
  5.0700942e-06
 -2.0022177e-05
  6.4292028e-05
  1.2453903e-05
 -1.0161531e-06
  5.7716919e-05
 -6.8401951e-06
  3.1992455e-05
  3.4096323e-05
 -7.7066597e-06
  5.2936248e-06
 -5.7623020e-06
  3.8377806e-05
  3.8321050e-06
  8.0063883e-06
  2.1191081e-05
  5.6326257e-06
 -1.5566267e-05
  1.3409037e-05
 -2.0234833e-05
 -4.6337468e-06
 -4.3905279e-06
  3.9522103e-05
  3.0467436e-06
  7.7062723e-06
  2.9218520e-05
  1.0176816e-05
 -4.3651733e-05
  3.2596283e-05
  2.5725637e-06
  1.2001057e-05
 -9.4461375e-06
 -7.9144758e-07
  7.9596698e-01
  9.4339329e-01
 -7.0599290e-06
 -1.8342049e-01
 -1.1119064e+00
 -3.8431108e-06
  4.3983714e-06
  1.0628334e-02
 -6.4781797e-01
 -5.5999261e-01
 -1.1944031e-05
 -2.0456754e-04
  1.5231267e-01
 -2.6831269e-01
  9.1214590e-02
  4.1272624e-06
 -6.6677167e-04
  3.8133645e-01
  3.4383947e-01
 -8.1030071e-02
 -1.4203953e-05
  7.2409475e-06
  2.2631781e-02
  3.2267973e-01
  4.3259123e-01
  1.8409219e-05
 -1.2021452e-06
 -6.7937976e-06
 -6.8365516e-05
 -1.6008603e-03
  1.8090235e-05
 -1.4121859e-05
  8.7091503e-06
  2.2682436e-05
 -1.4514323e-07
  7.1433379e-07
 -2.6901866e-06
  4.0779800e-05
 -5.3113105e-05
  6.9750934e-07
 -1.4569668e-05
  6.8005920e-06
 -4.4769972e-06
 -1.3772947e-05
  5.9461404e-06
 -1.3943811e-06
  4.6268391e-07
 -1.2401125e-05
 -7.7878303e-06
  1.9391357e-04
 -1.7080196e-05
  1.7130653e-06
 -1.4621251e-06
  5.6478452e-06
  5.1247343e-07
 -7.9145530e-06
  5.1159882e-06
 -2.4904571e-06
 -3.4211751e-06
 -5.5801875e-06
 -1.3571925e+00
 -2.7931084e-05
 -1.5811664e-05
 -8.1012178e-07
  1.1182143e-01
  3.3802849e-06
 -2.2668298e-06
  1.3937168e-04
  2.5069198e-02
  2.3891403e-01
  3.3098559e-07
  2.2744078e-05
 -8.3832047e-04
  3.1433901e-05
 -5.6584170e-03
  6.3016305e-06
  1.3828709e-05
 -5.4678088e-03
 -7.8792837e-05
  3.3001134e-01
  2.9032640e-06
 -5.8099940e-06
 -1.2774697e-04
 -2.5460429e-02
 -6.0056359e-02
  1.8493589e-05
  5.7827547e-06
  1.9735966e-05
  6.5286686e-06
 -2.5471918e-06
  3.7776244e-05
  3.4215213e-05
 -6.5052717e-07
  6.6150424e-06
 -1.8838611e-05
 -4.1387370e-06
 -5.0100625e-06
 -3.6699032e-06
 -3.0423923e-06
  1.8208832e-05
 -2.1914466e-06
 -1.5594020e-05
 -1.7490432e-06
 -5.9778467e-06
  4.5251779e-04
 -1.9002214e-04
 -4.1731113e-07
  1.6293707e-05
 -9.6076219e-06
 -4.6469886e-06
 -2.6602277e-06
  3.0482959e-06
 -3.1942262e-05
  1.0475033e-04
 -1.5181242e-06
 -3.6693229e-05
  1.4991692e-05
  8.2024417e-06
  3.2865171e-07
  1.9138828e-05
  7.4880904e-01
 -6.4786041e-01
 -2.8023773e-01
  2.7057753e+00
 -3.3549824e+00
 -6.9570029e-07
  4.3580399e-06
  1.1949655e-01
 -3.6100581e-02
  2.1209943e-01
 -1.1457835e-05
 -1.0105740e-05
 -4.8422407e-06
 -2.1916883e-02
 -1.2703413e-05
 -6.9078678e-06
 -1.1212784e-04
  1.7578515e-01
  2.7744209e-02
 -1.3061529e-01
  7.1691971e-07
 -2.9602172e-06
  5.3830076e-02
  2.9604372e-01
  3.3473402e-01
 -2.7694008e-05
  8.8167862e-06
 -3.1691216e-05
 -2.1543383e-05
 -9.8719480e-05
 -2.6347487e+00
 -8.7209493e-01
  3.3400529e-06
  1.2833972e+00
  1.0648742e-01
 -8.5008963e-07
  1.3850001e-05
  7.1322094e-05
  1.5038857e-01
  6.0626322e-01
 -1.2279340e-05
 -1.8608640e-06
 -1.2131109e-01
 -5.1699415e-05
 -1.7631213e-01
  1.4391567e-05
 -5.4510372e-05
 -1.3300946e-01
 -1.2172028e-01
  3.1686734e-02
  2.3169196e-06
 -2.9284586e-06
 -1.6235545e-02
 -3.7301913e-01
 -6.8474814e-02
 -2.0559087e-06
  1.1747306e-05
 -1.8105435e-05
  2.2065544e-05
  6.2181248e-04
  2.5797783e-05
 -4.1293229e-06
  1.0244119e-05
 -2.7013619e-05
  8.4594029e-07
  1.2845444e-06
 -4.9347464e-06
  3.3679032e-06
  5.0571780e-06
  4.0801955e-05
 -1.9045408e-05
 -1.2126200e-06
  6.9782864e-06
  7.7232571e-06
 -5.3766335e-06
  1.1153467e-05
 -1.9886162e-05
  4.8413190e-06
  3.4591860e-05
  1.0261937e-05
 -3.9582792e-06
 -1.4721440e-05
 -1.2035190e-05
 -1.8711141e-06
 -1.1195316e-05
 -4.3400806e-07
 -2.4966499e-05
  8.5113325e-06
 -9.3514785e-07
  3.1420752e-06
  4.9709902e-06
 -4.2163483e-06
  3.7279062e-06
  2.2717555e-09
  1.2138183e-05
 -7.3442484e-06
 -4.2547886e-06
 -7.4669051e-06
 -3.4555862e-05
 -9.5005462e-06
 -9.9998806e-06
  1.2288596e-05
 -2.2184924e-05
  1.6885155e-05
  1.7017122e-05
  7.8765670e-06
  2.8611730e-06
 -4.0903001e-06
 -1.8301720e-06
 -3.3108101e-06
 -2.9205956e-05
 -5.3280510e-06
  4.6116725e-06
  9.6256081e-06
 -2.0260270e-05
 -6.7767601e-06
 -1.5182195e-06
  3.7046243e-07
 -7.7769373e-06
  1.5107479e-05
  2.3527869e-06
 -3.4437944e-05
 -8.3681691e-08
 -8.3905361e-06
 -9.5006926e-06
 -3.0221350e-05
  8.7148786e-05
 -1.7659612e-06
  3.1620796e-06
  1.9681645e-05
  6.6132989e-06
  6.7385968e-06
 -8.6902546e-06
  6.1484150e-07
  9.1921702e-06
  1.9584559e-06
  3.5573985e-06
  3.3708704e-06
  6.4342297e-05
  6.0101561e-06
  7.7958288e-07
 -3.3378683e-06
 -2.4140076e-07
 -2.5921199e-06
 -1.3915719e-05
 -1.0715863e-05
 -5.6640224e-06
  2.0189236e-05
  1.0032846e-07
 -3.6396980e-06
 -2.0600392e-01
 -3.2579696e-01
 -7.7566183e-06
  6.1970073e-05
  1.3631448e-01
  1.1463329e-05
  1.4058262e-06
 -5.8613382e-02
  1.0960294e-03
 -6.7464292e-02
  6.8146364e-05
  3.8589355e-06
 -2.0744519e-04
  1.2302345e-05
 -1.1094852e-06
 -5.8454875e-06
  2.1365267e-06
 -7.6358631e-02
  3.5296242e-05
  1.7583549e-02
 -1.4816641e-06
  4.8061361e-06
 -1.0722395e-03
 -3.6971949e-04
 -2.9666197e-02
  9.3149338e-06
 -2.3400818e-05
 -4.3995885e-07
  5.2116451e-05
  3.8860155e-05
  1.3367274e-04
  1.0565388e-06
  3.0436902e-06
  3.3726971e-04
 -2.9986959e-06
  8.6971286e-06
 -2.7861518e-06
  6.3200278e-06
  4.5793613e-06
 -2.3703600e-05
  8.1916096e-06
  1.1843409e-05
  2.8471702e-06
 -3.8108155e-05
 -3.7655025e-06
  2.3390461e-05
  5.3810145e-06
  1.3847965e-06
 -1.4009178e-05
  2.3559509e-02
  2.3716798e-06
 -2.9216442e-06
 -7.2257637e-05
 -9.8915094e-05
  3.9892373e-05
  5.2382725e-06
  4.1205817e-06
  5.3709264e-06
  6.8647870e-07
  3.5709859e-04
 -2.0107591e-05
  1.1604751e-06
  4.2869979e-06
  3.8991750e-08
  7.5006396e-06
  1.0051917e-05
 -2.4297038e-05
  3.6771535e-06
  8.8451925e-06
 -2.7028418e-05
  6.4851562e-08
 -3.2989023e-04
  3.3071850e-05
 -2.7980996e-04
  1.5492215e-05
  3.8097244e-07
  9.1227666e-06
  4.3134078e-06
  5.0161845e-05
 -2.1179901e-06
  5.8963892e-06
  3.0915573e-05
  7.4774666e-06
 -3.4612988e-06
 -5.1068048e-07
 -1.2548557e-05
  1.7367853e-06
  1.3217831e-06
  3.4370189e-06
  7.3142032e-06
  5.5951681e-05
  1.7284276e-01
  5.4913477e-07
  8.2029346e-06
 -1.3548180e-02
  1.1261280e-05
 -2.4002497e-05
  8.5361979e-05
 -3.2223500e-02
  5.7268625e-01
  4.1029584e-06
 -6.8275517e-06
  5.9289479e-05
  2.7190654e-05
 -1.2244026e-05
 -1.2867947e-05
 -2.0530711e-06
  7.6395781e-06
  1.0403297e-05
 -7.8666417e-06
 -1.4981073e-06
  5.6938661e-06
  1.2336446e-04
  1.6061891e-05
  2.7709048e-05
  1.6170768e-06
 -7.9634656e-06
  9.2025788e-05
 -4.4408562e-06
  3.5859289e-06
 -2.4261631e-06
 -6.8843758e-07
  3.1698414e-06
  3.8025596e-06
  8.4159873e-02
  2.2912052e-05
  4.4502294e-06
 -1.2582985e-05
  1.2546431e-05
  1.3176099e-05
  6.2366444e-06
 -1.0749795e-04
  1.4857809e-06
 -1.7686696e-05
  2.3725559e-06
 -1.0184382e-05
  5.3020892e-07
 -5.1749880e-06
 -1.7893819e-06
 -1.5536196e-05
  2.2243228e-05
  2.7188551e-06
 -1.5944842e-06
  1.9804016e-05
  6.8464046e-06
  6.3922545e-07
  1.4197580e-06
  1.1301637e-05
 -1.5558009e-05
 -2.2497194e-05
 -1.9235145e-04
  7.4453123e-07
 -4.0980367e-06
 -5.7521070e-06
  8.1081853e-05
  3.7997499e-06
 -2.2985208e-05
  3.9484407e-06
  2.2120907e-05
  3.6933881e-01
  2.4870795e-05
 -8.0729342e-06
  2.4875131e-05
  2.4654570e-05
 -9.3028761e-02
  7.4230462e-05
 -9.7887514e-06
 -3.8292853e-07
  6.3220614e-06
 -3.4164320e-06
 -9.8697683e-06
  1.1717205e-04
 -1.6820356e-06
 -1.4479750e-06
 -8.7620019e-06
 -4.8685572e-05
 -2.9047023e-06
 -8.7673116e-06
 -1.8244691e-05
  1.0288579e-06
 -1.3083004e-05
  1.7702514e-06
  6.0240045e-06
  2.0111625e-05
 -2.3659113e-05
 -9.1543225e-06
  9.3828421e-06
 -3.7290465e-06
  2.0194342e-05
 -5.8062404e-05
  4.7178715e-04
  7.4439749e-06
 -8.5962565e-06
  8.2152746e-06
 -2.1781927e-05
  8.5400770e-06
  1.5649818e-04
 -2.3736398e-05
  2.5015064e-05
  2.4225654e-05
  1.0687621e-05
  1.4857829e-05
 -5.5043445e-05
 -2.3011849e-05
  2.4013207e-06
  8.8521811e-06
  3.8396111e-06
  8.1966446e-06
  4.1150120e-06
 -2.1612519e-05
  2.8745253e-06
  2.6625115e-01
 -6.1833562e-04
  1.6778627e-01
 -8.7618982e-06
 -1.3224286e-05
  1.2102183e-01
 -3.2962212e-01
 -8.2390696e-01
  9.1363692e-01
 -2.6137799e-05
 -2.6999660e-05
 -1.6652401e-01
  6.3207640e-06
 -2.2759226e-01
 -2.2100436e-05
  6.9417074e-02
  1.4421453e-01
  1.0097951e+00
  5.6819700e-02
 -2.9629421e-06
 -1.7565026e-05
 -1.2545207e-05
 -5.1969874e-01
 -1.1352819e-05
 -1.3929993e-06
  4.4702217e-01
  1.2139976e-05
  4.4389558e-01
  1.7922292e-05
 -7.8776802e-06
  1.8106166e+00
  2.3321984e-06
  1.0735441e+00
 -9.4221768e-06
  4.2253083e-05
 -8.8936478e-01
 -9.3865031e-01
  1.6671691e+00
  2.9751756e+00
 -9.1711417e-02
 -3.0597350e-06
 -2.7010763e-01
  5.1648203e-06
  2.1794267e+00
 -1.0737322e-05
 -1.2275035e+00
  3.8579503e-01
  2.7944696e+00
 -3.3435943e+00
  4.5209199e-06
 -5.1606279e-05
 -4.6326618e-06
 -1.3093807e+00
  1.7075201e-06
 -1.4408354e-05
  1.0418203e+00
  1.4376553e-05
 -6.2460947e-01
  9.1118054e-08
  1.0344061e-04
  1.8341838e-05
 -5.8356759e-06
 -1.1180824e-05
  3.0895415e-06
  5.8182518e-06
  1.2202629e-05
  8.8773313e-06
 -3.5327826e-06
  5.6507347e-06
  9.7594248e-06
 -1.7950397e-05
  1.2365543e-06
 -6.1518134e-05
  2.0095700e-05
 -2.6905363e-05
 -1.5747471e-05
 -1.7561826e-04
 -1.1600926e-05
 -4.2007136e-06
 -2.9792948e-06
 -1.9470655e-05
 -1.4192497e-05
  3.7625869e-04
 -1.4094877e-06
 -4.5210345e-05
 -1.8111373e-04
  7.0824065e-08
 -1.0124568e-05
  6.0965590e-07
 -4.0423343e-01
  1.6588851e+00
  2.0817485e+00
 -5.2418890e+00
  2.2544453e+00
 -6.2049204e-04
 -5.5592245e-01
  1.9688113e-01
  1.3556426e-04
 -3.1393549e-01
  8.5653387e-02
 -3.7749454e-01
  2.0174014e-03
  8.5430807e-01
  1.1774638e-05
  5.1153690e-01
 -2.7434054e-01
 -2.8323996e-01
 -4.3208891e-01
  3.9270440e-06
 -3.2980743e-01
  1.0952156e-05
 -2.6888189e-01
  4.3795779e-01
 -2.1059539e-06
  9.6023978e-05
 -2.8768197e-02
 -1.1714624e-06
  3.4281757e-02
  1.4776322e-05
  1.1269704e+00
 -2.7560762e-01
 -3.4846923e-01
 -2.3940371e-01
 -1.5502243e-01
 -2.2407908e-06
 -3.6635160e-04
  3.0607656e-01
 -3.4205550e-06
 -5.9855997e-04
 -8.8855237e-02
 -1.8648858e-01
 -2.1898930e-05
 -4.3360397e-02
 -7.4720242e-06
 -5.7585761e-02
 -8.1454282e-06
 -6.0533509e-03
  4.2620182e-02
 -2.0043481e-05
 -1.3925423e-01
  1.4989306e-01
  7.4896266e-06
  1.8451045e-01
 -9.2083635e-04
  1.4922615e-05
 -1.8826082e-04
  2.6939149e-06
  1.5060029e-05
  4.1960889e-06
 -3.1742471e-05
  2.1550275e-01
 -4.5320362e-06
  4.4659484e-02
 -3.1321818e-01
 -1.7009786e-03
 -3.4593311e-01
 -5.1493939e-02
 -6.4244568e-01
  6.9058855e-04
  2.6854611e-04
  5.2505784e-05
 -3.1470721e-05
  1.8163121e-03
 -3.2956930e-05
 -9.0184003e-05
 -6.1122450e-04
  1.0713071e-04
 -2.0289524e-01
  1.7869850e-05
  3.3519638e-01
  3.3619444e-04
  1.6826083e-05
  2.4438120e-04
 -3.0618546e-07
  3.3253091e-06
 -1.3616413e-05
 -8.9816931e-06
 -2.2922410e-04
  6.2552294e-06
 -4.8328635e-01
 -1.2490782e+00
  2.3805809e+00
 -2.3110244e-01
  6.6157532e-01
 -7.9055190e-02
 -1.5066975e-03
  3.3271377e-04
 -2.4562581e-01
 -1.4829080e-01
 -1.2675823e-01
 -1.1841819e-01
 -6.6113129e-02
 -1.0339509e-01
 -7.4667782e-03
 -1.6667651e-01
 -1.5880170e-01
 -1.4954144e-02
  5.5446500e-01
 -3.9390525e-05
 -2.3816243e-02
 -1.7789938e-06
  1.6205560e-06
  4.8150785e-02
 -5.5865287e-03
  1.4105593e-05
  1.4401141e-05
 -8.0998216e-05
  7.8552466e-06
  1.6887649e-05
 -1.5074875e+00
  3.3348680e+00
 -3.1698981e-01
 -2.1951673e+00
  4.0044054e-01
  7.6385349e-02
 -9.3655065e-02
 -2.3325160e-02
 -2.7526361e-03
  3.6954454e-01
  5.6118172e-01
  6.4565527e-01
  6.6629809e-01
  2.8691071e-01
  4.0119690e-01
  1.8481024e-01
  1.5685456e-01
  1.9480495e-01
 -2.6502344e-01
  1.1886885e-01
  9.8554987e-01
 -1.0311792e-01
  7.5623226e-01
 -5.8430076e-02
  6.8351555e-01
 -6.6476455e-04
  1.4900374e-01
  2.2569673e-05
  9.8025866e-06
 -1.3024217e-04
 -2.4137766e-05
  1.1787203e-05
  5.8593814e-06
 -3.0304169e-05
  1.4369555e-05
  1.3251377e-05
  4.2158204e-06
  2.5865747e-06
  1.9258064e-04
  4.0574109e-06
 -2.2561618e-07
  6.9994085e-06
  1.9245446e-05
 -3.0810930e-05
  1.6590215e-05
  9.2335104e-06
 -2.5192608e-06
 -4.0396983e-05
 -1.1003783e-01
  1.8528604e-04
  1.3976676e-05
 -5.5046603e-06
  5.8798068e-06
  1.1085681e-05
  2.2039641e-05
  1.2475031e-05
 -2.1472240e-06
  8.7481621e-06
 -4.3617110e-06
  6.0659693e-07
  1.5699165e+00
 -8.1350580e-03
  9.6220440e-01
 -7.0440525e-01
  1.3629109e+00
  4.4790318e-05
  2.4869780e-01
  2.9156154e-01
 -1.7573087e-01
 -2.7167636e-01
 -1.5729882e-02
 -3.3595306e-01
 -1.4240743e-06
 -1.0061869e-04
 -6.1597741e-05
 -1.0123502e-01
 -2.0578787e-05
  1.0570645e-01
  1.3642295e-01
  6.0417501e-06
 -3.0024624e-01
  7.0564002e-01
 -5.6150198e-01
  1.5774198e-02
 -2.7166012e-01
  1.7264067e-06
 -3.0283045e-03
 -2.8129627e-05
  2.7586382e-05
  7.0463546e-05
  3.0068259e-05
  5.2960419e-05
  6.4054307e-06
  8.2862325e-06
 -6.3215407e-06
  1.1130549e-05
 -8.9066640e-07
  5.8755726e-05
  8.4802168e-06
  2.8260678e-05
 -2.2011380e-05
 -3.7553516e-05
  4.8004208e-06
 -9.9822746e-06
 -1.5198412e-05
 -1.0122376e-05
 -1.6095584e-05
 -3.6410031e-06
 -1.7994293e-05
  1.3498067e-06
  3.2567459e-06
  1.2033473e-05
  1.3669641e-05
 -4.4939883e-05
 -1.0325572e-05
  1.2322297e-06
 -4.1814568e-05
 -1.8644672e-05
 -5.6237690e-07
  1.6474367e-05
 -4.4307420e-05
  1.0965762e-05
  2.9781278e-02
  2.3958239e-05
 -1.9002373e-07
 -3.9124574e-05
  1.6540020e-04
  3.2483727e-05
 -1.0892560e-05
  8.6902428e-06
  7.1031551e-05
  1.1901089e-06
  4.6406412e-06
  2.9991619e-05
  2.8502993e-05
  2.8467843e-05
  3.4466209e-06
  4.0283094e-06
 -4.3831550e-04
 -1.3270725e-06
 -1.6780747e-06
 -2.1011970e-06
 -1.5570506e-05
  3.1399597e-06
 -1.7476696e-05
 -1.3171674e-05
 -1.7959173e-05
 -1.2142174e-05
 -2.9231818e-05
  6.4470987e-06
 -4.1907898e-01
  2.2354195e+00
  1.3428255e-02
 -1.8448865e-01
  5.9074820e-05
  1.8527110e-06
  3.7134171e-04
 -2.6973567e-04
 -1.0367076e-02
  1.0024638e-02
  9.0796930e-06
 -6.3436642e-07
  1.7944197e-06
 -2.2296417e-06
  1.3536327e-02
  3.5637209e-01
  3.9311510e-02
  4.2049538e-02
  4.6131051e-01
 -5.3460896e-04
  8.2003075e-01
  7.6207396e-04
  2.2993424e-04
 -6.2500344e-06
  8.0578297e-02
 -1.1344432e-06
  6.8558603e-07
  8.9642133e-05
 -1.9305210e-06
  1.0094504e-04
 -8.0328673e-06
 -3.4098830e-05
 -1.6602202e-06
 -1.0828398e-06
  1.0328607e-06
  1.9160736e-05
  5.5057981e-08
 -1.5327125e-05
  4.4648255e-06
 -4.4832188e-05
 -1.5805228e-05
  6.4010482e-07
  5.7845477e-06
  4.8098359e-06
  7.0299387e-07
  7.7543709e-06
 -1.3967897e-05
  1.0817178e-05
 -6.3540742e-06
  5.6555982e-06
 -5.7395127e-06
  8.8654843e-07
  4.0426189e-06
 -1.3590423e-05
  1.7579750e-05
 -7.9720839e-06
  9.4572597e-06
  3.4908291e-05
  2.3993718e-05
  3.8192566e-06
 -2.2892887e-04
  2.1200026e-06
  2.8162263e-05
  3.0941944e-04
 -7.1597907e-07
 -1.7702195e-07
 -2.5951802e-05
  1.9750560e-05
  8.1373764e-07
  1.8037287e-04
 -9.9973977e-06
 -2.5428488e-05
  1.1946322e-05
 -5.6015375e-05
 -1.4795706e-04
 -2.0791194e-06
  2.5652169e-05
  7.4433137e-06
 -1.9955856e-07
  4.9489745e-06
  7.7250370e-06
  2.6092886e-05
  1.4690079e-07
  1.4272320e-05
  1.4176740e-05
 -6.2067426e-07
 -2.8616414e-06
  2.2099277e-05
  1.5700972e-06
  1.5139088e-05
 -8.5612237e-06
 -1.3382208e-04
 -1.8061795e-04
  1.6195689e-05
 -3.2557353e-05
  3.3055901e-06
  1.3700797e-05
  1.5585554e-06
 -1.5847249e-05
 -1.2993836e-05
 -1.1779105e-04
 -4.3533851e-06
 -2.9212981e-04
  1.6426684e-05
  1.6566705e-07
  1.2856950e-05
  9.9820509e-06
 -2.6836042e-06
 -7.1051522e-06
  8.9258156e-06
  3.0457040e-06
 -6.7385474e-05
 -2.2546159e-05
  6.6350021e-06
 -9.2365099e-07
  1.4188818e-05
 -2.2600461e-03
  1.7636660e-06
  2.7662107e-05
  3.0330321e-07
  4.0817749e-06
 -8.1837261e-06
  4.8938409e-06
 -5.2273550e-05
 -8.1085554e-06
  1.8927910e-06
 -3.4815806e-05
  1.1947194e-05
  8.6895016e-06
  1.0512480e-04
  2.2183229e-05
 -1.2377558e-04
 -2.4667081e-05
 -9.6554131e-06
 -5.4702750e-06
 -2.2123722e-06
 -1.1601726e-05
  7.5781247e-07
 -2.5231346e-05
 -1.2892844e-05
 -5.7281563e-06
 -1.9073528e-05
  1.5812173e-05
  1.5652762e-05
  1.4050604e-05
 -8.8798488e-06
 -1.9900704e-06
  5.7592888e-06
  2.5284335e-05
 -3.6723141e-06
 -2.3188252e-06
 -5.4634629e-06
 -8.0328764e-06
 -4.6176169e-06
 -9.9549434e-06
  2.5247191e-05
  2.3679942e-07
 -1.1888245e-04
 -3.4522477e-06
  1.5057536e-06
  7.4838613e-06
  1.6217040e-04
 -7.6324136e-07
  1.0251529e-05
 -2.7920080e-06
  7.1241407e-06
 -9.7672782e-06
  5.9818394e-05
 -6.5431632e-06
 -8.0680053e-07
 -7.7334653e-06
 -2.7534663e-06
 -1.1506930e-05
 -3.3648885e-07
 -6.8793770e-06
 -1.4104729e-07
 -8.8947927e-06
 -3.9237875e-06
 -1.1608447e-05
 -3.2341700e-06
  4.9672028e-01
 -8.3509064e-01
  1.2152208e+00
 -3.8847711e-06
 -4.6431828e-01
 -1.9284613e-02
  7.5036514e-01
  2.5922558e-03
 -6.9478832e-02
 -1.2747559e-01
 -2.0406735e-03
 -3.6391422e-01
 -8.5339452e-06
 -6.8455473e-02
  1.7542432e-05
 -2.1794282e-03
 -2.1047710e-04
 -7.1587958e-05
  4.1601270e-01
 -2.9374871e-06
  9.9430828e-05
  1.1127069e-01
 -1.1454345e-04
  1.2012234e-01
  6.8243526e-06
 -2.4903218e-06
 -3.1323292e-05
 -2.6086022e-05
  4.4455730e-05
  3.1011336e-05
 -3.6670560e-06
 -8.8322520e-07
  7.2068265e-06
 -6.8541854e-06
  1.7198274e-05
  1.1257855e-05
  2.5316197e-06
  2.5772847e-06
 -4.4503381e-06
  2.4914184e-06
  1.6891827e-05
  3.2233307e-05
 -5.9438871e-06
 -1.3845718e-05
 -4.8843995e-06
  9.7735456e-06
 -3.1724244e-06
  6.1608281e-04
  5.7913580e-06
 -8.7667569e-05
 -1.1675375e-05
 -5.3826032e-05
  7.1582226e-06
  1.4640094e-05
  1.0302651e-06
 -8.3341793e-06
  1.4519527e-04
  4.0999615e-07
 -8.5522639e-05
 -2.7467726e-05
  8.2648899e-07
 -2.0127673e-06
  1.9296604e-05
  1.4496788e-04
 -3.6926933e-05
 -2.0598627e-06
  7.1910476e-06
  1.1371088e-05
 -1.1188534e-05
 -5.2347218e-06
 -2.7247776e-05
 -1.9018797e-05
  2.0561243e-05
 -2.6562539e-06
  1.0986847e-05
  2.7212793e-05
 -1.5609257e-05
 -8.7062308e-06
  2.4470073e-06
 -1.7572189e-05
  6.8547579e-06
  2.1165981e-05
  6.5901822e-06
 -2.3965529e-07
 -1.2831149e-05
  5.4664997e-06
  7.3296624e-06
 -3.1697227e-06
 -1.9912281e-06
 -8.1117269e-06
 -1.5230387e-01
  1.5734497e-05
 -4.7398430e-06
  2.1035975e-04
 -6.6182188e-06
 -6.9393973e-06
  2.0045278e-05
 -2.9041266e-05
  1.3185099e-04
  9.1513530e-06
  9.7518496e-06
  1.2857947e-06
  7.1149470e-06
  1.7979374e-06
  3.1475249e-06
  1.6103953e-02
  6.4801420e-06
 -3.1802905e-08
  8.0975218e-07
  1.5709018e-05
 -1.5463368e-06
  1.6517924e-05
  3.3588785e-05
 -9.3834706e-06
  9.2416296e-05
 -1.1543762e-04
 -1.9262091e-06
 -2.5818490e-06
 -4.1947284e-04
 -6.0481193e-06
 -3.2407947e-06
  1.5584365e-05
 -1.9119871e-06
  2.9278810e-06
  2.9874784e-06
  1.2919405e-05
 -3.2971613e-05
 -3.2449873e-07
 -1.5868243e-05
  5.6733511e-06
 -1.3257393e-04
  2.8227598e-06
  3.7518872e-05
  2.2424761e-06
 -2.2720305e-04
 -8.1066530e-05
  5.5633118e-06
 -6.5007862e-06
  1.9623567e-05
  1.6685358e-07
  3.9310298e-06
 -3.0807780e-06
 -7.4292852e-06
  4.2496093e-05
  5.5030073e-06
 -4.5593260e-06
  1.0168727e-05
  1.5158365e-05
  5.8518781e-06
 -8.5301423e-07
 -1.9555542e-05
 -4.3241864e-05
  7.6032748e-06
 -6.1408709e-06
  2.2334145e-05
 -1.4657171e-05
 -2.9499652e-06
  6.7463961e-06
 -6.3457126e-05
 -1.1224014e-06
 -3.2595156e-06
 -8.6713250e-08
 -1.9892884e-06
  6.7064657e-06
 -3.4555098e-05
 -1.2207900e-05
  7.9397534e-05
 -1.4802780e-05
  8.0505552e-06
 -1.4786898e-05
  4.8463794e-06
 -7.7469858e-06
  3.9695842e-06
  4.2579877e-06
  2.8307315e-06
 -8.6769069e-06
 -6.4561987e-06
  1.6923999e-05
  3.6277710e-05
  1.9394317e-06
  3.9277878e-02
  9.5526737e-01
  7.1371317e-02
  2.4108231e-01
  3.7541565e-01
  2.1566707e-01
  2.5011328e-01
 -1.7192036e-01
  3.1488802e-04
  2.8436533e-01
  4.8114413e-01
  2.6219890e-01
 -1.0369383e-04
 -3.7289054e-05
 -1.3224482e-06
  1.7250353e-01
  1.9394124e-01
  6.4769305e-02
  1.2466567e-02
  1.6828363e-04
  9.7906995e-01
 -1.1171710e-04
  8.8698027e-05
 -9.9127116e-03
  9.7008480e-04
 -2.6716638e-05
  8.6395623e-05
 -2.9224320e-06
 -8.6268527e-04
  1.1306690e-06
 -1.0280504e-07
 -8.5451880e-05
 -5.1381824e-07
  1.2613436e-05
  7.5782555e-06
  3.0119178e-05
  6.2660397e-06
 -3.3155826e-05
  3.6134591e-06
  1.1089041e-06
  1.0572475e-06
  2.7015001e-05
 -6.1843348e-06
 -4.8918519e-06
  9.2819391e-06
  2.8287277e-05
  3.1243990e-06
 -9.8283026e-06
  3.2232517e-06
 -5.5408411e-05
  2.1138192e-04
 -1.8219094e-05
 -3.4705634e-05
  8.9470130e-05
 -8.5462198e-06
  3.7020181e-05
 -1.8126009e-05
 -2.0294226e-06
  1.2284841e-05
 -6.5652384e-06
 -7.8183373e-05
 -1.1540818e+00
 -6.8672287e-01
  1.0609214e-06
 -8.9530241e-01
  5.2561186e-06
 -1.0374459e+00
  2.5253860e-06
  6.5978211e-03
 -5.7491876e-02
  4.3857737e-05
 -3.8010894e-06
 -3.6070867e-06
 -8.7110238e-06
  7.0240141e-08
 -7.9703063e-01
 -6.3666166e-06
 -6.2020636e-01
 -3.9858007e-01
  7.9802216e-05
 -3.6448333e-01
 -1.1107847e-03
 -1.7737641e-05
 -3.3591250e-01
 -2.1930125e-03
  9.1592955e-07
 -4.2348260e-05
  8.5290167e-06
  5.2891064e-06
 -2.3299033e-05
  1.1515921e-05
 -2.7577609e-05
 -1.4520062e-05
  1.1017692e-05
 -1.1426290e-05
  2.1040367e-05
 -5.8565133e-06
 -3.5543639e-05
  2.3580697e-05
  1.0065396e-05
 -7.6823962e-06
 -1.6202304e-05
 -1.5715814e-05
 -9.7973079e-06
  6.5880276e-06
  6.0720635e-07
 -6.1303239e-05
  1.0939094e-05
  1.1813240e-04
  9.5154592e-06
  5.4441889e-06
 -7.0812753e-06
  1.6151582e-05
 -2.1778473e-05
 -2.8931159e-05
 -7.8739577e-05
  7.2031812e-06
  6.5076829e-06
 -8.3278810e-06
  3.7081468e-06
  7.2363544e-01
  5.1247030e-01
 -3.5046402e-01
  2.1106682e-05
  3.7089014e-01
  7.9032798e-05
 -2.9247778e-05
 -1.3008741e-05
 -1.4263633e-05
  3.1013493e-03
  3.1853504e-06
 -3.8025014e-06
  5.2127248e-06
 -1.9443373e-04
  2.9637940e-06
  9.1736376e-02
  3.0350694e-04
  7.4167598e-05
  9.4048008e-03
  2.5292137e-04
  1.0707219e-02
 -8.3956775e-06
 -2.6855412e-06
 -7.9250790e-04
  1.0643239e-04
 -1.0570401e-05
 -2.7659121e-06
 -6.4243526e-05
 -8.4970079e-06
 -1.2519820e-05
  9.2574781e-01
 -2.2206618e-01
  7.0566103e-02
 -1.9040515e-05
 -5.3004321e-02
  5.0031573e-05
  1.2146317e-03
  7.9307161e-02
  3.6881253e-04
 -3.0922578e-03
 -2.2004743e-01
 -1.5631449e-01
  3.0488038e-04
 -3.0671522e-02
  1.0701144e-06
 -2.6072819e-05
 -2.5867546e-06
 -2.1936521e-06
  1.8860399e-03
 -3.3046963e-06
 -6.0790181e-03
  4.9832915e-06
  2.1929625e-06
  9.5878877e-02
 -6.7818200e-07
  1.4525975e-05
  1.7181433e-06
 -6.3773559e-06
  1.6789940e-05
 -2.1047972e-05
  9.7768092e-01
  2.4038193e+00
  9.4600546e-01
 -2.7792318e+00
  3.5810449e+00
 -2.0340913e-05
 -1.0121978e-01
  1.6218723e+00
 -5.4413181e-02
 -1.2972872e-01
  9.6448675e-06
 -4.8042724e-01
  6.2720082e-04
  1.3405154e-04
 -7.0386422e-01
 -2.6490105e-02
 -2.4947400e-01
  2.3124334e-01
  8.4208447e-01
 -2.5852441e-05
 -7.4771088e-01
  8.6446817e-06
 -2.4215683e-01
  1.8320333e+00
 -2.1397154e-01
  5.6991260e-02
 -2.8849292e-01
 -8.0611781e-06
  4.7891441e-01
  1.8208560e-04
 -3.9415077e-05
  3.1929821e-06
 -1.7743723e-05
  6.6393834e-05
  1.0490058e-05
  9.9300451e-06
  1.9533869e-05
  5.3016258e-05
 -8.9632777e-06
  1.4067256e-05
 -7.2074181e-05
 -4.0495761e-05
 -1.1915587e-05
  4.7776175e-06
 -9.9892923e-06
  1.5026550e-05
 -2.3308055e-05
  2.3801575e-05
 -1.8839395e-05
  1.1673904e-04
 -4.1030471e-05
  1.8042134e-05
 -2.5187221e-03
  5.1719617e-05
 -4.4872231e-05
 -6.4074407e-06
 -1.4687688e-06
  4.3743948e-06
  4.2940146e-06
 -1.7710516e-05
 -7.6716133e-06
  1.0501834e-02
  1.5454227e-01
 -6.8929720e-01
  2.0086728e-01
  5.1060212e-01
 -5.5548452e-07
  2.7634951e-01
 -1.1938002e-05
  5.2422711e-06
  6.8415928e-01
 -4.4620592e-07
 -1.4973915e-01
  5.5316873e-06
  7.7761873e-03
  7.4764084e-06
 -5.0396714e-02
  2.1352404e-05
  2.1732305e-05
 -2.4458525e-01
 -4.9293767e-06
 -6.9237003e-06
  1.9731186e-01
  7.9820311e-06
 -5.1477027e-01
  2.7922131e-06
  4.6950680e-01
 -4.3879014e-01
 -3.1201026e-01
  1.7312870e-03
 -6.9172740e-05
 -3.2466989e+00
 -1.5025842e+00
  1.8922822e+00
 -1.4267792e+00
  3.3759346e+00
  5.8597720e-06
 -2.0288239e+00
 -7.0911424e-06
 -5.2466934e-05
  1.5845416e+00
 -1.1229705e-05
 -1.1959622e-05
 -8.6135960e-06
 -2.9136652e-01
  1.6819709e-05
 -2.1931214e+00
 -5.1111388e-06
 -5.5163546e-06
  2.8617758e-01
 -9.6391241e-06
 -3.1793854e-05
  1.6523325e+00
  1.2186947e-04
 -1.2250984e+00
  1.1872421e-06
  1.0685714e+00
 -1.5192537e+00
 -3.1263287e+00
 -4.2871180e-01
  1.2322568e-01
 -3.4250450e-01
 -3.3781911e-05
 -1.5663987e-01
  4.7094089e-01
  1.2036280e-03
  5.3647935e-02
 -1.6164900e-06
 -1.1225596e-01
 -6.1910415e-01
  1.0063827e-07
  4.2835552e-05
  1.3284888e-05
 -1.1416887e+00
 -7.3876136e-06
  1.4594239e-05
  1.1589310e-05
  2.7634665e-05
  2.3931703e-02
 -5.2999352e-05
  2.8614604e-05
 -6.2757340e-06
 -4.8528491e-06
 -5.3622348e-06
  4.4150485e-05
  5.5652213e-06
  8.2832994e-05
  2.1111598e-05
 -6.9617243e-05
 -2.2405184e-05
  7.2372873e-06
  1.5467780e+00
 -1.4527255e-03
  1.0266283e-03
  3.2823482e-05
  2.8227025e-01
  1.2170854e+00
  2.5881283e-05
  5.7965792e-03
 -2.4506253e-01
  3.7528336e-02
 -3.4821897e-03
  2.1103725e-02
 -1.8788759e-01
 -6.0165936e-01
 -2.4597429e-01
  5.4277259e-01
 -1.6322510e-01
  4.2577115e-01
 -5.5902074e-05
 -9.1707468e-02
 -2.5815339e-04
 -2.7930230e-01
  5.6056803e-07
 -3.1340769e-01
 -6.9539845e-02
 -4.9409893e-05
  7.1899546e-04
  6.7184615e-01
 -1.9493322e-01
  9.6660478e-06
  4.6559937e-05
  4.9427917e-06
 -3.5522862e-05
 -3.6339272e-05
  2.7957307e-05
  1.2544540e-06
 -3.8701648e-05
  1.6650802e-06
  9.5627447e-06
  2.4139044e-07
  1.5698584e-05
  9.3748276e-05
  6.7525994e-05
 -3.0239713e-05
  3.2985452e-05
 -1.3024677e-06
 -1.0318252e-05
 -2.2181372e-05
 -3.0805026e-05
 -2.7167300e-05
  3.3196018e-05
 -5.6904453e-05
 -1.5664227e-05
  1.3120872e-05
 -1.2789833e-05
 -7.2225072e-07
 -3.5952402e-05
 -2.2559407e-05
  5.7508864e-06
 -7.3195920e-06
  1.1164077e-05
 -9.9666192e-07
 -1.8965839e-05
 -3.1066986e-06
 -2.9331491e-06
  3.6396512e-05
 -1.3631317e-05
  3.2499443e-05
 -1.7155147e-06
  1.7165490e-05
 -1.2083226e-05
 -1.0275759e-05
  7.8350859e-06
  3.5458001e-05
 -4.2468080e-05
  3.4984507e-06
 -6.8237110e-05
  4.7623435e-06
 -5.3550439e-06
 -3.4245622e-06
 -2.4982171e-06
  3.1078027e-05
  2.8897590e-05
 -1.8080194e-05
 -2.7600468e-06
 -8.1295493e-06
  1.1334026e-05
 -2.5280138e-05
  2.1265954e-05
 -2.0182607e-01
 -1.5946802e-01
  1.8248889e-01
  8.6741555e-01
  1.3061163e-03
 -1.0129927e+00
  8.8006482e-02
 -1.0791161e-01
  5.1685780e-01
 -5.6018060e-01
  4.1562185e-02
  7.5335383e-01
  8.1902921e-02
 -4.5473358e-01
 -1.2590399e-06
  3.3005165e-06
  3.8772722e-04
 -1.2133603e+00
 -6.8864536e-01
  5.8768524e-06
 -1.4489129e-01
 -3.9810384e-06
 -2.2762294e-01
 -1.4540345e-05
 -3.1286262e-02
 -6.5933753e-05
 -6.2007427e-02
  1.6770656e-01
  1.6128337e+00
 -2.5674554e-03
 -3.2688313e-05
 -6.0510902e-05
 -4.2632055e-05
 -4.5138995e-06
 -2.2247987e-05
 -1.1821530e-04
  2.9677502e-05
  7.0134512e-05
 -3.0482652e-06
  4.4974211e-05
 -2.4058974e-05
 -1.3639740e-05
  3.4529392e-05
  1.5080403e-04
  1.4557368e-04
  7.1110582e-05
 -2.3554685e-05
 -5.1146181e-04
 -3.6791089e-06
  1.7577458e-06
 -6.2518040e-05
  3.1576794e-05
  2.1924823e-05
  8.3182669e-05
 -5.0201066e-05
 -2.3980789e-07
 -2.0495002e-06
  1.5590549e-05
  2.8438377e-05
 -8.8652760e-06
 -1.4050776e-05
 -5.2801150e-01
 -3.7002559e-05
 -9.6461954e-06
 -3.2989290e-05
  8.3229406e-06
  4.5004685e-06
  1.3865436e-05
 -4.1736234e-06
  2.4442943e-05
  1.9651723e-05
 -7.8571802e-06
 -6.7714609e-06
  1.4174037e-01
 -2.9636389e-05
 -6.9695952e-06
 -2.2563770e-05
 -1.0533528e-03
  1.5141895e-01
  1.1971764e-05
 -2.9226145e-05
  5.0730749e-05
 -3.5152447e-05
  5.8276415e-05
  1.2596418e-05
  8.2390707e-06
 -4.7641432e-05
  6.2294137e-05
  1.6989812e-05
  1.1976292e-05
  2.0210423e+00
  8.7567806e-01
 -3.7195107e-01
 -1.5899359e+00
  2.9484982e+00
 -3.9147162e-01
  6.3091211e-02
 -4.2240018e-01
  7.2863206e-02
 -3.9104190e-02
  1.2022640e+00
  8.1044056e-02
 -6.4172953e-01
  8.4356904e-01
  1.0962150e+00
  1.2823963e-01
 -2.5674379e+00
 -7.4094450e-01
  7.1724087e-01
  1.3082784e-01
  2.9466933e-01
  2.7115577e-06
  4.6439764e-01
  9.5937085e-01
  3.1552314e-05
 -1.3938393e-05
 -4.4639143e-01
 -2.2479266e-01
 -6.7642975e-01
 -1.0087273e-01
 -8.5277611e-01
 -1.3375694e+00
 -9.8765761e-01
  9.4758499e-01
 -9.2164779e-01
 -7.3338814e-02
 -1.7466725e-01
 -8.4169529e-02
  1.4062761e+00
 -7.3423773e-01
 -5.8512926e-01
  2.2063906e+00
 -4.6445485e-02
  2.4632616e-01
 -3.8022354e-02
 -3.7005675e-01
 -3.9615571e-01
  4.2066920e-01
 -1.3900577e-01
 -2.9582515e-01
 -1.8452553e+00
  2.9037294e-01
 -1.2013109e+00
 -1.2111268e+00
 -6.0072488e-01
  6.1252195e-01
 -1.9789332e-01
  1.9379431e-01
 -1.0835652e+00
  4.7351792e-01
  1.5903367e+00
 -2.2911626e-01
 -2.0270665e-05
  1.0043896e+00
  1.0809367e+00
 -2.7154246e-01
  1.8952088e-01
  1.7712399e-01
 -5.8554763e-01
  2.0032489e-01
 -5.8831227e-01
  1.4015741e+00
  8.9053619e-01
 -2.3602374e-01
  2.2133414e-01
 -9.1595626e-01
  4.0527329e-01
  1.6341884e-01
 -4.2442527e-01
  1.7129120e+00
  3.0563590e-01
 -5.1980978e-01
  3.7660646e-01
  1.3677768e+00
  1.1305761e+00
 -1.3378099e-02
  8.8535833e-01
 -1.5112677e-02
  1.4454459e+00
 -3.2321215e-05
 -5.3811818e-01
  2.3263443e-02
  1.1388207e-02
 -2.1225734e-01
  1.4640017e+00
 -6.7872679e-01
  7.4071163e-01
  9.8345339e-01
  5.1123679e-01
 -5.7946634e-01
  1.0653111e+00
 -4.0928982e-02
  3.9138767e-01
 -2.0692350e-01
  2.9743922e-01
  9.1118969e-02
  1.3791671e-01
  7.8524685e-01
 -4.5615414e-01
  7.8005695e-01
  9.0670632e-04
 -1.1373487e-04
  2.0662674e-01
 -4.1173759e-01
  5.3669059e-01
  1.1441042e-04
  2.5142584e-04
  2.0467880e-05
 -7.9182081e-02
  2.0584987e-01
 -5.6024387e-06
  2.4053130e-05
 -2.3484508e-05
  7.9190841e-06
  1.1723755e-04
  3.2335636e-05
 -5.8453101e-05
  3.9127040e-06
  1.3581144e-06
 -4.2444335e-06
 -1.0139806e-05
  7.8120393e-06
 -3.7426992e-06
  8.0512547e-07
  1.8441335e-04
  6.8099794e-06
  2.2038660e-07
  1.7374037e-05
 -2.5674540e-06
  5.0147645e-07
 -2.3929317e-06
  5.5505593e-06
  1.6197895e-05
  3.4294148e-06
 -6.9747275e-06
  2.8888708e-05
  2.9711087e-05
  2.4244443e-06
  5.4530650e-05
  6.0490438e-06
  2.5886965e-01
  1.1198378e+00
  8.4804698e-05
 -1.2476040e-01
 -1.6500970e-04
  1.0852976e-01
  7.1728237e-02
 -5.6444633e-01
  1.3501740e-01
 -1.4113257e-06
 -8.6319778e-06
  1.4894083e-04
  1.8196461e-01
 -1.2896681e+00
 -3.1029623e-07
 -5.5932128e-06
  1.5627962e-01
  3.4241730e-06
  4.8555985e-01
  4.3072652e-07
  3.8191323e-05
  4.3551572e-06
  5.8956415e-05
 -1.6044379e-06
  4.0608797e-05
 -1.3443936e-05
  4.8467613e-04
 -1.2254014e-05
 -3.0249825e-01
 -3.0006684e-04
  2.7623573e-01
 -7.1265757e-01
 -8.0389589e-01
  2.8274124e+00
  3.7027311e-02
 -3.0656105e-01
  7.2287351e-02
 -4.2868584e-01
  1.0185089e+00
  9.2463493e-02
  1.0457835e+00
  1.0912658e+00
 -7.5356168e-01
  2.3021243e+00
 -2.5619924e-01
 -9.4102815e-02
  3.1720704e-01
  2.5300708e-01
  8.2640809e-01
  1.2064556e-01
  5.7481194e-01
  5.9801873e-06
  2.0106984e-03
 -2.4440946e-01
  4.7366768e-01
  2.8537077e-01
  6.6956699e-02
 -5.4937482e-02
  5.3560976e-03
 -3.0384353e-01
 -1.7740690e-03
  2.3451014e-03
  1.2767944e-01
 -1.2948283e+00
 -1.1155764e-04
 -4.7532070e-02
 -4.2694498e-02
  5.1616323e-01
 -2.0798920e-01
  1.1885376e+00
  1.1729033e-01
 -1.8694822e-04
 -1.2582362e-02
 -1.1919739e+00
  1.0524015e+00
  4.0790410e-06
  1.2476794e-05
  6.8131507e-05
  1.1209013e+00
  2.9989412e-01
  6.0327011e-06
 -4.5164261e-06
  2.0432624e-04
 -1.4934460e-05
  6.6463900e-04
  1.0092612e-01
  7.8573932e-05
 -2.3576741e-04
 -8.0177709e-02
  5.6295520e-01
  8.1778812e-01
  6.3107568e-01
  1.0703948e+00
  3.4934953e-07
 -1.8859200e-01
  9.3954629e-01
 -1.1527057e-01
 -5.4490483e-01
  3.9115679e-02
  2.5653762e-01
  6.5640879e-01
 -2.4320796e-01
  4.4115422e-05
  9.1066277e-01
  1.3527212e+00
 -3.1675997e-03
 -4.8245536e-08
  7.1110466e-05
 -2.0411919e-01
 -5.2909468e-06
 -1.9982263e-05
  3.7113568e-06
  1.1826692e-05
 -2.8685183e-06
  7.7712641e-05
  2.8821084e-01
  2.0589581e-05
 -1.3873199e-05
 -1.0760638e+00
  1.5859060e-01
 -8.7177932e-06
 -9.4861782e-05
  5.8543301e-06
  1.8641254e-05
 -2.1465854e-05
 -1.7632359e-05
 -3.0501931e-06
 -1.2725875e-05
 -1.3473909e-04
 -2.7409988e-05
 -2.4981351e-05
 -6.1378611e-05
 -8.2569641e-06
  6.6180575e-05
 -2.9124815e-06
 -3.3689888e-05
 -9.3913186e-06
  1.0145931e-05
  1.6326170e-06
  1.6321818e-04
  2.4914907e-05
  8.0281061e-06
  5.5855086e-05
  2.8007371e-06
 -6.4210649e-06
 -1.6345706e-05
 -2.6716614e-05
  5.4054348e-05
 -7.2383162e-05
 -3.0591713e-05
 -1.7708166e-05
 -3.4582433e-06
  3.8042615e-06
 -2.6073008e-05
  1.9044273e-05
  2.4682138e-05
  4.3623422e-06
 -1.8888572e-05
 -1.2687652e-05
 -5.6223042e-05
  4.1477279e-07
  8.6084947e-05
 -1.0788829e-06
  3.5230783e-05
  2.3758257e-05
 -6.1956794e-06
  3.6856625e-05
 -2.8317647e-06
  1.2066252e-05
  5.8443211e-06
 -1.4889258e-04
 -1.0984001e-05
 -1.3019435e-05
 -1.6778121e-04
 -1.9193547e-05
  1.1565772e-05
  1.4428443e-05
  7.0009573e-06
 -1.8953001e-04
 -5.9051731e-06
 -2.3106588e-01
 -5.9712642e-05
  3.5445917e-06
  2.2310121e-01
 -9.1885713e-06
  2.6258054e-01
  2.1229929e-05
 -5.8976722e-05
  1.1755833e-01
  1.5707984e-06
 -2.9633457e-06
  4.1986921e-05
  1.4515001e-06
  8.9479560e-01
 -2.5309488e-05
 -4.2006282e-05
 -3.9668780e-06
 -5.7986501e-05
  1.6878623e-01
  4.3871574e-07
 -1.8592995e-04
  3.1862714e-04
 -9.7632653e-04
  4.3610076e-04
 -1.7960822e-04
  5.8147884e-06
 -1.0582570e-03
 -8.7702101e-06
  2.4931603e-03
  8.9631751e-05
 -1.7799108e-01
  4.9766150e-01
 -3.0469844e-05
  4.0915129e-06
 -2.6959470e-01
 -1.5064751e-06
 -2.9581352e-03
  1.3331006e-01
  1.0048331e+00
  4.3325099e-01
  1.0635715e-06
  2.7216750e-01
 -1.3883338e-05
  1.2368491e+00
 -1.2301022e-05
 -2.3334534e-05
 -3.2266893e-05
 -2.0600806e-05
 -1.0678067e-02
  1.5208517e-05
 -1.9545801e-05
  2.9245446e-05
 -7.4575793e-05
  8.4848245e-05
 -5.7398411e-05
 -1.7873122e-05
 -5.4956177e-05
 -4.5648462e-06
 -5.8935493e-06
  2.7184027e-05
  2.5858980e-04
  1.0776774e-02
  1.1213516e-06
  3.0172761e-05
 -1.7426328e-07
 -2.6646527e-05
  2.2728551e-05
  2.9522334e-05
 -2.3624749e-05
 -1.1739755e-05
  1.3704374e-05
  2.5478579e-05
 -2.9380892e-05
  2.8172858e-06
 -1.0399749e-05
  6.0249317e-06
  2.2193204e-05
 -9.2763639e-07
  1.6351785e-05
 -2.2346714e-05
  2.8450286e-05
  3.0456431e-07
  4.0026993e-05
 -4.7937257e-05
 -1.0426995e-05
 -2.0138892e-05
 -1.2035441e-05
  7.9443489e-06
  9.4802626e-06
 -5.5618370e-06
  1.8455741e+00
  8.6858058e-01
  8.0342859e-02
 -2.2189306e-01
 -9.5949862e-03
  3.6484310e-01
  4.1923782e-01
 -7.0847434e-01
  1.3429107e-01
 -7.7518162e-05
  2.3387229e-06
 -9.9645615e-05
  1.0150491e+00
 -9.5123851e-01
  4.1395142e-03
  2.8653851e-05
  2.1781439e-01
  3.8413960e-02
  5.8657207e-02
  3.8189617e-01
 -1.5153042e-05
  1.5974765e-05
 -1.4126667e-05
 -2.8082079e-01
  3.6101086e-05
 -1.6444532e-04
  1.0057699e-01
 -3.6344738e-04
  1.6745551e-05
  6.0295429e-06
 -1.2012958e-01
 -1.2944800e+00
 -2.0019512e-03
  1.2985754e+00
  1.3389660e-01
  1.3316044e-01
 -5.2778873e-06
 -6.3328862e-01
 -1.2596905e+00
  4.0773210e-01
 -5.5766940e-01
  1.3362342e-05
 -5.1130414e-01
  1.8120754e+00
 -2.3185723e-01
 -8.7513477e-02
  4.1212490e-05
 -4.4518271e-01
  5.5787987e-01
  8.3953353e-08
 -4.4878451e-03
 -4.4004794e-04
 -1.7390344e-02
  4.7980270e-06
 -7.1660135e-05
 -2.6262913e-02
 -1.1448502e-04
  2.3987885e-05
  1.0554202e-01
 -3.2152147e-05
 -2.0944383e+00
  7.8629023e-01
 -5.1107995e-06
  2.4359102e+00
  1.8238649e-02
  2.1993501e-01
  7.7137285e-01
  1.2548497e-01
  3.1113717e-01
 -2.6144117e-01
 -1.6504092e-02
  2.2486558e+00
  1.2953109e-01
  1.4494879e+00
 -1.3951388e-04
  6.6698676e-01
  1.6543241e-01
 -4.8364472e-01
  8.9079893e-01
  6.4412642e-01
 -1.2235341e-01
 -2.2015683e-06
 -2.3661344e-03
  2.5259498e-01
 -1.3142326e-06
 -1.1177513e-05
 -3.8775170e-01
  2.6372916e-01
 -9.5066592e-02
 -8.8185425e-06
  6.9645488e-05
  3.7396426e-06
 -2.0621243e-05
  2.6278241e-05
  3.3792414e-05
  5.4377260e-06
 -5.3730323e-06
 -2.9216271e-06
 -2.3671404e-05
 -2.7758761e-05
 -9.7615521e-06
  1.7980309e-06
  2.8215178e-05
  1.0591949e-06
  3.3565198e-06
 -2.5894205e-06
 -3.9567294e-05
  1.0939127e-04
 -5.2794832e-05
  1.6223845e-05
 -1.1399487e-05
  1.7845703e-05
 -8.5055271e-06
 -1.7189055e-05
  2.7335636e-05
  5.6040326e-06
  3.9417422e-03
 -2.6437598e-05
 -1.3171963e-05
 -2.5058880e-05
  8.7159663e-02
 -2.0613641e-01
  6.2374265e-06
 -1.1299607e+00
  7.1548885e-01
 -3.8750875e-03
 -1.3761629e+00
  2.3757236e-01
  2.4902818e-01
 -1.1131448e-01
 -9.2525132e-02
  1.2446716e-01
 -5.4669905e-01
  6.5328217e-01
  3.9446240e-05
 -6.9859198e-05
 -1.1899632e-01
  8.7204089e-06
 -2.2129519e-01
 -3.9636998e-06
  6.1826628e-05
  8.7801327e-06
  1.5972112e-01
 -5.9759113e-06
  6.7384124e-02
  2.8147902e-05
  1.4568938e-06
 -1.6933087e-05
 -6.0681629e-01
  3.5508826e-02
 -3.9212498e-01
  1.3238068e-01
 -8.4018148e-03
  1.7592730e-01
 -1.0731079e-01
 -9.5027149e-01
 -1.3627024e-02
  1.7704710e-01
  9.5979851e-01
  2.6790513e-02
  4.6971124e-01
  9.5810449e-01
  2.6051423e-03
 -2.9253131e-01
 -3.3014639e-05
  6.9372349e-05
 -1.5076542e-04
 -1.5467747e-01
  5.3022273e-02
  4.3165896e-06
 -6.9674477e-02
 -6.7620499e-06
 -6.1133568e-04
  5.7014811e-01
  1.3221927e-05
  3.4510194e-05
 -3.4723115e-01
  4.3523363e-05
  3.5574019e-01
 -1.3022694e-05
  1.2489430e-05
 -7.6929728e-06
  1.1330959e-05
 -1.6263886e-05
 -4.2362681e-05
  9.7886295e-06
 -3.2377793e-05
 -8.9561927e-06
 -1.7851135e-05
  2.7896791e-05
 -9.7170332e-06
  4.4831932e-06
 -6.7006208e-06
  9.6336524e-05
  2.6647210e-06
 -4.8090401e-06
  6.3170905e-06
 -1.9321724e-06
  3.5341400e-05
  8.6172895e-06
  1.1688746e-05
 -1.1946428e-05
  1.1800362e-04
  3.2900880e-05
  5.9024646e-06
  4.0981515e-05
 -1.4627054e-06
  3.8306302e-05
 -2.6611381e-06
 -6.5262211e-06
 -2.0393445e-05
 -9.8445398e-06
  7.1886240e-07
  2.4350613e-05
 -5.1856819e-06
 -2.3574421e-05
  1.0573303e-05
 -5.0095748e-04
  7.6764900e-06
 -2.4068322e-07
  5.5849174e-05
  5.5108848e-07
 -1.3955544e-05
 -1.9577483e-05
  7.4015752e-06
 -3.0942214e-05
 -8.2418665e-06
 -6.4111031e-05
 -2.1628493e-06
  3.2259977e-05
  1.5899184e-05
  2.2054019e-05
 -7.0018455e-06
 -3.9775960e-06
 -1.4351456e-05
  6.2506465e-06
 -1.9446523e-05
  1.4659290e-05
  1.0399851e-06
 -1.2301777e-05
 -1.9343944e-01
 -7.1218646e-01
 -1.3721423e-01
 -5.2181327e-01
  1.8959675e-02
 -1.6802999e-01
  4.9734635e-06
 -3.1093488e-04
  6.1653927e-02
  5.8538270e-01
 -1.3207692e-04
 -1.0636161e-01
 -4.9343690e-01
  5.3925431e-01
 -5.7229155e-01
 -3.0893003e-05
 -2.9639818e-06
 -2.2234909e-01
  5.6305975e-01
  8.9835179e-05
 -1.3758343e-01
  6.0457678e-04
 -4.2132873e-02
  3.2143739e-06
 -2.4731415e-03
 -1.4891304e-04
 -1.5998651e-01
  6.6217813e-06
  1.2053555e-02
 -6.2901864e-04
  5.6073016e-01
  1.1658062e+00
  1.7983559e-05
  8.3070483e-07
 -3.6085114e-01
 -2.6146261e-05
  2.0513685e-04
 -8.4121960e-01
  1.7929114e-03
  3.6275560e-01
  1.1529318e+00
 -2.3387875e-06
 -2.8480661e-01
  6.0910344e-01
  9.8590368e-01
  1.3502814e+00
 -7.8953990e-06
  1.4870867e-05
 -5.2720469e-01
  8.8416627e-03
  5.2859490e-05
 -4.9032843e-01
 -4.7159266e-01
  3.0813655e-01
 -5.2142905e-06
 -4.7630975e-01
 -1.8210906e-01
  7.1719592e-06
 -1.5356922e-05
  1.8156929e-01
  8.5064697e-01
 -9.2504132e-01
  8.3211072e-02
 -5.6440895e-05
 -7.6610816e-01
 -1.4087760e-01
 -3.6632574e-01
  2.4513712e+00
 -2.0567617e+00
  1.8416245e+00
  1.9215542e+00
  9.1946304e-06
  5.4779834e-01
  1.8768461e+00
  7.8667015e-01
  5.4519367e-01
  3.4860661e-06
  1.8742421e-05
 -7.1415275e-01
 -3.8661659e-01
 -1.8415453e-04
  6.3277602e-01
 -5.3045946e-01
 -1.8598201e+00
  7.1430142e-05
  8.2334340e-01
 -9.1791511e-01
  2.5618016e-05
  3.8420990e-06
 -7.4246436e-01
 -3.3713706e+00
  8.6156732e-01
  3.3450729e-01
 -6.3086450e-01
  5.3664124e-01
 -6.7596751e-01
 -6.2028921e-01
 -1.3486543e+00
  6.5028888e-01
  6.2308196e-02
  7.3555261e-01
  5.5647254e-02
 -7.1610235e-02
 -3.9479587e-06
 -4.7702812e-05
  3.5776481e-02
 -2.0764269e-01
  8.1653070e-06
  1.2387524e+00
 -1.8718122e+00
 -7.9893982e-01
  1.1575974e+00
  7.0734799e-01
  1.3644466e-02
 -1.5231019e-01
  1.0571166e+00
  6.2344754e-01
 -1.1987300e+00
 -2.3575559e-01
  1.4818713e-01
 -1.9526515e+00
  1.8838641e-01
  8.3258444e-01
 -1.0497576e+00
  5.8051592e-01
 -4.0351638e-01
 -1.4676274e-01
  1.1308768e+00
  1.1503011e+00
 -8.2238659e-02
 -7.9660332e-03
 -2.6992443e-01
  1.5016223e+00
 -1.1421920e+00
 -8.8904530e-02
  1.8784835e+00
 -1.2811314e+00
 -2.4873455e+00
  1.7112087e+00
  2.3735096e-01
 -4.4723287e-01
  1.5136800e+00
 -9.4206440e-01
  7.4178314e-01
  8.5390741e-01
  2.9967776e-02
 -5.6932133e-01
  2.1697016e-01
  4.7194636e-01
  7.9864645e-01
 -1.6523701e+00
 -7.8148222e-01
 -1.6677548e-01
 -2.1662960e+00
  1.1353279e+00
 -8.2205820e-01
 -1.6610268e+00
  2.6443854e-03
 -1.9928860e-02
  4.2715862e-01
 -1.4115536e+00
 -2.6799623e-02
 -1.3622947e+00
  5.3215915e-01
  8.8541329e-01
 -3.7160882e-01
 -6.0601983e-02
 -7.0144242e-06
  2.5682702e+00
  3.1019914e-01
  5.5651975e-01
  8.0657989e-01
 -6.1668158e-01
 -5.5247909e-01
  4.1361669e-01
 -4.2863387e-01
 -2.9797437e+00
 -2.7174637e-01
 -1.4551846e+00
  5.9193474e-01
  1.3374299e+00
  6.1198713e-05
  6.1327751e-06
  9.9079466e-07
 -9.9135787e-07
 -9.7166657e-02
  9.2238599e-01
  2.3984026e-05
  5.7833735e-05
  4.0118030e-01
 -5.3594029e-01
 -1.1838209e-01
  3.2404107e-01
 -2.3342925e-01
 -5.6736743e-01
  2.8569722e-01
  2.1545038e-01
  2.9075506e-01
 -9.6468211e-06
 -2.2376920e-01
 -2.0470606e-04
  1.4674045e+00
 -1.1718678e+00
 -2.8664217e+00
  6.8183833e-01
  4.5906105e-05
  3.0726215e-01
  1.1720890e-01
  3.1126408e-05
  3.0648248e-06
 -1.0840291e+00
  2.7395559e-02
  2.2923179e-04
  2.4621735e+00
  4.8421836e-04
  2.6317039e-01
  8.0230725e-01
 -4.1214421e-01
 -4.1405314e-05
  5.9429079e-01
 -7.4696645e-02
 -6.7103779e-01
  1.5605023e+00
  2.6168567e-01
  3.6582237e-01
  7.0108616e-01
 -8.5837543e-01
 -3.3614323e-01
  1.9556697e-01
 -6.0390824e-01
 -3.3696997e+00
 -5.8951393e-02
  4.9413857e-01
 -1.5503694e-05
 -2.0492195e-01
 -2.4864933e-01
 -1.7171250e-01
  1.1383671e+00
 -4.0303133e-03
  2.3789328e-01
  2.7154019e-01
  4.9273154e-01
  2.2321258e-01
  1.6365577e+00
 -1.1721089e-01
  5.7177401e-01
  2.1776780e-01
 -1.7072207e+00
 -2.1651788e+00
  1.7963479e+00
  8.2277739e-01
  1.2411786e+00
 -1.1908748e-02
 -7.1762352e-06
 -1.2644169e-05
 -2.3976231e-01
 -9.3953833e-02
  1.3323438e+00
  9.7277182e-01
  2.0940889e-02
 -2.9019719e-02
 -7.2005522e-01
 -1.2912450e-06
 -9.7957936e-06
 -4.6074424e-06
 -2.0096043e-01
  1.0507911e-04
  1.1344384e-01
  1.1534833e-06
 -4.7132071e-06
  2.0287629e-05
  4.2109759e-06
 -1.6572762e-05
 -1.0273979e-05
  1.0962937e+00
  3.3010179e-01
 -9.0105963e-01
  1.0466971e-04
 -1.9770061e-05
 -4.7716876e-05
  9.7548846e-06
  2.0016496e-04
 -1.0720299e-05
 -1.4161903e+00
 -3.8591984e-01
 -1.0036336e+00
  6.9251612e-02
  6.1382088e-05
  9.5944792e-01
  4.3352006e-06
 -3.1351817e-07
 -6.9436275e-05
 -3.8176429e-02
 -6.5997839e-01
  2.1877782e+00
  1.5377549e-05
  5.4497860e-04
 -6.2610811e-01
 -1.3295191e-06
 -8.2435545e-06
 -5.2161204e-06
  4.0229106e-01
  5.6023955e-01
  1.1747944e+00
  5.7740931e-06
 -2.4945772e-05
 -3.0283136e-03
 -4.3084242e-06
 -3.3790591e-06
 -1.1309348e-04
  1.4703903e+00
  7.4679013e-03
  7.6287442e-01
  1.2498875e+00
  4.8693630e-05
  9.8712071e-06
  2.5854699e-05
  2.4069448e-05
  3.9931866e-03
 -1.6947820e+00
 -1.3958582e+00
  3.6600271e-01
  2.3596785e-05
  1.0491772e-05
  1.1195139e+00
  2.2052425e-05
 -1.3636107e-05
  3.0248380e-06
 -1.0867411e-01
 -4.9715242e-03
  3.9848691e-01
 -4.1400346e-01
 -1.8582246e-04
 -4.3138522e-03
  7.4916631e-01
  1.1299040e+00
 -1.2254690e+00
  1.0597438e+00
  5.7227039e-01
 -1.6323500e+00
 -8.1383443e-01
  1.0977175e+00
  1.1384203e+00
  3.5422725e-06
  9.6019499e-02
  8.6122309e-06
  1.5048765e+00
  5.4644828e-05
 -2.5969810e+00
  6.7820942e-01
  3.9409614e-01
 -8.8526160e-02
  2.5322184e-01
  8.6664676e-04
 -2.8988731e-01
 -2.2596998e+00
  4.6922734e-01
  8.8009059e-01
 -1.5630847e+00
  2.7484301e-01
  4.1459650e-01
  5.0922579e-01
  1.0361168e+00
  4.8371319e-02
  2.2458498e+00
  2.1229680e+00
 -1.9377461e-02
  7.8264529e-01
  1.3943003e+00
 -1.4635769e+00
  1.2316530e-02
  4.5522860e-01
  2.8789872e-01
  5.2917051e-01
  9.9346858e-01
 -1.1673955e+00
  3.6600163e+00
  4.5502228e-01
 -2.9183502e+00
  7.7565312e-02
 -5.6992926e-06
 -8.3985829e-01
 -8.9920372e-01
 -5.1594818e-01
 -1.9251117e+00
 -1.8566242e-01
  9.1467905e-01
 -5.7473230e-01
  6.0397220e-01
  1.2435681e+00
  1.0121740e+00
  2.9002482e-01
  1.2117457e+00
 -1.0084990e-01
 -1.4029413e+00
  5.5551815e-01
 -2.2901677e-01
  2.0638075e-01
  9.1998076e-01
 -3.6139181e-01
  1.7121074e+00
 -3.5138196e-01
  4.4095725e-01
  6.2752438e-01
  6.1149746e-01
 -1.8430765e+00
 -2.8771248e-03
  2.1139681e-04
 -3.2117441e-01
  1.2947688e+00
  1.8438587e+00
  1.1166228e+00
  9.7891164e-01
  8.2255507e-01
 -4.9159876e-01
 -1.4762567e+00
 -6.7701232e-01
  7.5738549e-01
 -1.6578977e+00
 -7.4746960e-01
 -1.9054778e-01
 -2.5906065e+00
 -3.3122227e-01
 -1.3854848e-02
 -2.0045868e-01
 -5.3728718e-01
 -2.5980049e-04
 -8.6600906e-01
 -1.8352721e-06
  1.2180456e+00
 -2.6751181e-02
 -2.7477881e-06
  9.9257004e-01
  3.2690150e-01
  1.9047619e-01
 -3.6434904e-02
  7.5129586e-01
 -1.1831382e-02
 -2.9325813e-01
  1.3961329e+00
 -1.6111960e-01
 -1.6670972e+00
 -2.1206801e+00
 -1.1852587e+00
  1.5213114e+00
  3.2849908e-01
 -2.6979699e+00
  1.3670334e+00
 -5.3799373e-01
 -2.1104705e+00
  8.7134719e-01
 -9.0085733e-01
 -1.2856700e+00
 -6.7612350e-02
  8.5767344e-02
 -4.9101341e-01
  1.3814974e+00
  1.2226756e+00
  4.9419684e-04
  1.3869318e+00
 -5.8446664e-01
  2.1330763e-01
 -9.5159583e-02
  5.1249093e-01
 -2.0952222e-01
 -1.4770890e+00
  1.5750907e-02
 -8.2080650e-01
  6.3627595e-01
 -7.4609184e-01
 -1.1808305e+00
 -1.8748043e+00
 -1.6526493e+00
 -2.7547708e+00
 -1.0951047e+00
 -1.2895197e+00
 -1.1159030e-01
  1.4220110e+00
 -5.8529341e-01
 -1.0271424e+00
 -6.9663441e-01
 -6.8810463e-01
 -1.6587863e+00
 -1.8288276e+00
  7.6152956e-01
  1.0790654e+00
 -9.4753391e-01
 -3.4661943e-01
 -1.1405987e+00
  1.4395378e+00
 -1.1650411e+00
 -5.5666864e-01
  6.4034718e-01
  1.2608589e+00
  1.0726944e+00
 -1.2219818e+00
  3.9532147e-06
 -1.3281116e-05
  7.9765578e-06
  1.5005145e+00
 -8.7143089e-06
 -1.6718727e+00
 -3.7600175e-01
 -1.3758692e+00
 -5.6045819e-02
 -4.3142263e-06
 -1.8214685e-05
  1.0531407e-06
  2.1071951e-06
 -4.0700329e-06
 -5.8948964e-01
 -4.1325131e-04
 -1.0258075e+00
 -2.9501985e-04
 -8.2508550e-06
  1.0796157e-04
 -1.1646509e-05
  1.0690295e+00
  1.9258184e-06
  2.2176136e-01
  7.5290191e-01
  4.5315817e-01
 -1.7395012e+00
  6.6012012e-06
 -3.0485775e-05
 -8.7711151e-06
  4.4309577e-01
 -8.0580729e-05
  1.7051846e-01
 -1.1641624e+00
  6.2889332e-01
 -8.6722702e-01
 -7.5836570e-06
  1.2493113e-05
 -2.5863594e-05
  1.6202426e-02
  1.2562702e-05
 -8.2308882e-01
  1.4193876e+00
 -7.2479002e-02
 -1.0891330e+00
 -1.0533460e-06
  7.0949660e-08
 -9.5687474e-06
  1.5687891e+00
  1.1205585e-07
 -5.3826463e-01
  6.7578405e-01
  9.1703802e-01
 -1.1784953e+00
  3.9156857e-06
 -9.4375076e-07
 -4.2449806e-06
  6.6078678e-06
 -6.0513968e-05
 -4.4046197e-02
  2.2697064e-01
 -1.5650705e+00
 -6.7661119e-01
 -2.5233585e-06
  2.3278833e-05
  2.9014823e-06
  1.2640615e+00
  5.2833411e-06
 -7.4004278e-02
  1.8989241e-01
 -5.0977234e-02
  4.7612613e-01
  1.0134009e-05
 -2.4330652e-06
 -7.3546516e-06
  2.9966936e-01
  1.6552291e-05
 -3.6455831e-01
  7.8305840e-01
  7.1067315e-01
 -2.4203293e-01
  4.1200301e-06
  5.6147328e-06
  4.8566594e-06
 -3.7889400e-05
 -1.7618937e-06
  1.1184914e-01
 -1.1412077e+00
  1.4924184e+00
 -3.6189601e-02
  1.2117085e-05
  5.7234929e-06
 -6.3465218e-06
 -1.0568770e-06
 -2.9747091e-06
 -6.7938890e-06
  2.4945804e-05
  5.4839164e-01
 -9.8492364e-06
  1.9094812e-06
 -1.2398869e-05
 -3.6490001e-06
  3.5182722e-05
 -2.6116691e-06
  9.1098201e-01
 -6.7839581e-01
  1.1649472e+00
 -1.1762269e+00
 -8.3286141e-06
  5.5005512e-05
  5.9969429e-06
 -2.4038591e-05
  1.9058485e-05
  3.2118404e-01
  1.6926620e-02
 -1.2114019e+00
 -3.5018501e-01
  3.8742132e-06
  9.0335971e-06
  2.8965116e-05
  1.2345042e-03
  2.0316152e-06
  1.2075542e+00
 -3.3691771e-02
  1.6738640e-01
  1.3915087e+00
 -7.6949626e-05
  2.2259102e-05
 -2.8603060e-06
 -9.9271056e-05
 -1.0903451e-05
  8.4549356e-01
  4.5961452e-01
  2.2298114e+00
 -6.7394322e-01
 -5.7272875e-04
  2.8842165e-05
  6.1836763e-05
 -5.5895484e-06
  7.2208295e-06
  1.2064436e-01
 -1.0997031e-01
  1.4587417e-01
 -2.7456558e-01
  1.7679719e-06
 -1.8685856e-05
 -1.6587472e-05
  2.2317406e-06
  8.2870492e-06
  1.8910373e+00
 -9.7085588e-02
  3.9158785e-01
  7.4543881e-01
 -3.9120573e-06
  5.4818111e-06
 -3.9657034e-06
  2.7711644e-06
 -2.4011379e-05
  4.8082832e-02
  3.9923567e-01
 -5.6024128e-01
  5.1914525e-01
 -7.1106756e-06
 -6.2534360e-05
 -5.5873781e-01
 -1.3855319e-04
  3.3796841e-05
  3.9430377e-01
  1.8179402e-01
 -6.7118692e-01
 -5.6838870e-01
 -8.1489461e-06
 -1.3603314e-05
  5.4961979e-06
 -2.4976850e-06
  1.8130140e-06
  1.4396576e+00
  2.5567069e-06
  1.4031264e-04
  3.4482484e-05
 -4.4255580e-06
  2.3696641e-06
 -1.2336942e-01
 -2.0030329e-05
 -7.4737482e-06
 -5.5537713e-01
  2.5470054e-01
 -2.4148839e+00
 -1.5024522e-01
  1.1118402e-05
  5.9100012e-07
 -6.1815041e-01
 -2.3273489e-05
 -2.8917850e-05
  1.7392676e-01
  1.4106396e-01
  2.6200998e-01
  2.3224907e-02
  5.1952270e-06
  6.5596792e-06
  6.7621986e-05
  8.6511700e-06
  3.1788095e-05
 -9.8615068e-01
  1.2380033e-01
 -5.1304948e-01
 -1.6669034e+00
 -9.1909914e-07
 -1.5528633e-04
 -5.0891507e-01
 -8.6066619e-02
  3.4908702e-05
  5.7471074e-02
  2.2952552e-01
  8.1722409e-01
 -8.5343421e-01
 -1.2906281e-05
  4.7664112e-06
  3.9091734e-05
  1.3923593e-04
  1.9547797e-06
  1.2655642e+00
  1.2240208e+00
 -8.0112986e-02
 -4.9911228e-01
 -7.9810502e-07
  5.2438800e-06
 -8.2050061e-01
 -1.9571261e-01
  6.9316498e-06
  3.7149116e-01
  3.8537699e-01
 -2.1059237e+00
 -1.5941477e+00
 -1.4594993e-06
 -2.2536104e-05
  1.4492188e-01
  7.9754318e-06
  1.1323408e-05
 -3.9897975e-01
  1.2631194e-01
  5.9411317e-01
 -8.4943426e-01
  2.1842433e-02
  5.5977845e-01
 -8.7389767e-01
 -1.0948382e-01
 -9.1984057e-06
  3.9758500e-01
  7.2450870e-01
  1.0819741e+00
 -7.8875923e-01
  1.1722605e-06
  4.9187832e-07
 -3.7614289e-05
  4.2559444e-05
 -1.5368709e-05
 -1.8004671e-01
 -2.7852686e-05
  6.2499076e-01
  2.2986121e-04
  1.0110184e-02
  5.3364241e-01
 -5.6849331e-01
 -1.9603960e-06
 -3.5523502e-05
 -1.2151246e+00
  4.8488826e-02
 -2.9316241e-01
 -7.1243793e-01
  8.5909769e-06
 -2.9663770e-05
 -1.0146716e+00
 -1.0271177e-05
 -6.0214275e-06
  8.7774658e-01
  3.7269134e-02
  8.6191404e-01
  1.0658233e+00
  1.2723042e-04
  2.4774216e-01
  1.9537622e-01
 -4.4102828e-05
 -1.3531786e-05
 -1.8336007e-02
  8.3244640e-01
  5.7068235e-01
  4.7000360e-01
  6.9970715e-06
  1.1744126e-01
  2.9001412e-01
 -4.7120120e-05
 -3.6744193e-06
 -2.0222769e+00
 -1.0921935e-01
  1.8246920e+00
 -6.6850078e-01
  7.2654901e-04
  7.1068127e-05
 -3.4110453e-02
 -6.1850724e-06
 -7.6922061e-06
 -1.8109217e+00
  2.8496918e-01
  1.3733029e+00
 -6.0222930e-01
  1.7321805e-05
  3.9628884e-01
 -8.1299245e-01
 -4.4780671e-05
 -6.2054517e-07
 -1.7345974e-01
  4.3079677e-01
 -1.8660606e-01
  2.0305136e-01
  4.2166004e-05
  3.1807119e-01
 -4.2998180e-01
 -1.0191109e-04
 -1.0136854e-05
 -6.2638384e-01
  4.3834415e-01
 -3.5247847e-01
  4.6421937e-03
  9.1838501e-06
 -3.2727723e-06
 -9.7062814e-01
  6.7513831e-02
 -3.0842284e-06
 -1.0990030e+00
  9.4809884e-01
  8.1769973e-01
 -8.1833363e-01
  5.1733009e-06
 -1.3558993e-05
 -1.2115052e-04
  1.2040734e-05
  1.5821772e-04
 -3.3832789e-06
  8.5386944e-01
 -2.2960792e+00
 -8.5001688e-05
 -2.0169495e-05
 -2.8762552e-06
 -1.5891943e+00
  3.1151755e-02
  1.1299812e-05
 -7.3606968e-01
  6.7216963e-02
  8.8257402e-02
  7.3978645e-01
  3.8959605e-01
 -1.5291413e-05
 -1.0516661e-01
 -3.4901657e-06
  4.7857025e-06
 -1.0067836e+00
  1.2376198e+00
 -2.1271740e-01
 -8.9801741e-01
 -2.9670757e-05
  5.6007741e-07
 -4.6500310e-01
  1.7641908e-02
  1.4108262e-05
 -1.2049215e+00
 -4.8900118e-01
 -8.9505678e-01
  3.1781936e-01
  1.7268586e-06
 -6.4439992e-05
 -5.4247886e-01
  1.3777257e-06
  1.4827638e-06
  6.0451972e-01
  2.0228927e-01
  7.2494912e-01
  4.5655280e-01
 -4.7179442e-06
  7.9174779e-06
  2.6137817e-03
  5.5166129e-02
 -5.6911908e-06
 -1.9956298e-01
  1.8761481e+00
 -1.7785871e+00
  4.8187721e-01
 -1.2756194e-05
 -4.1349169e-05
 -4.5042801e-01
 -1.2320776e-05
  8.1433082e-06
  7.7731945e-02
 -4.8330948e-02
 -3.6093999e-02
 -2.6558751e-01
  1.2003251e-05
 -1.3406295e-05
 -4.5298365e-01
  1.5418101e-03
  7.6444749e-06
  8.3920062e-01
  2.0956509e-01
 -6.2906295e-01
 -5.6324822e-01
  1.2413758e-02
  1.2413758e-02
  1.2413758e-02
  1.2413758e-02
  1.2413758e-02
  6.7241365e-01
  6.7241365e-01
  6.7241365e-01
  6.7241365e-01
  6.7241365e-01
  1.4738771e-01
  1.4738771e-01
  1.4738771e-01
  1.4738771e-01
  1.4738771e-01
  1.0924964e-01
  1.0924964e-01
  1.0924964e-01
  1.0924964e-01
  1.0924964e-01
  1.6452778e-02
  1.6452778e-02
  1.6452778e-02
  1.6452778e-02
  1.6452778e-02
  1.8038879e-01
  1.8038879e-01
  1.8038879e-01
  1.8038879e-01
  1.8038879e-01
