nep4 3 Ba Zr S 
cutoff 8 4 150 20
n_max 4 4
basis_size 8 8
l_max 4 2 0
ANN 30 0
 -6.9796647e-06
  1.0734768e-05
 -5.8907106e-05
  2.7355343e-06
  2.1095160e-05
  4.3707867e-05
  2.5069792e-06
  1.1661659e-05
  8.7773396e-06
 -1.2794441e-04
  7.8656441e-05
  3.4099321e-05
  2.9011319e-06
  5.8700702e-05
 -2.5433651e-06
  3.1202810e-05
 -8.4108717e-05
 -3.0461235e-06
  5.1961329e-06
  3.6272124e-06
  3.2269161e-06
  7.9634566e-07
 -1.6790618e-06
 -3.4079017e-05
 -5.1432244e-06
  1.2941180e-04
  1.8334829e-05
  9.0172298e-06
 -1.2355532e-05
  2.3923085e-06
  8.3130163e-01
  6.5510529e-01
 -1.3798860e-05
 -1.2710867e-06
 -1.7187557e+00
  2.0999987e-06
 -4.8117530e-05
  1.8592756e-02
 -6.0386753e-01
  1.4439451e+00
 -4.7188863e-05
 -3.0746818e-05
  6.1661288e-02
  8.0208674e-06
  4.5832177e-04
  1.3467217e-05
 -2.1748801e-05
  3.1684116e-01
  2.9959785e-02
 -2.4835834e-01
  5.9336876e-06
 -2.0469024e-05
  4.6658933e-02
  3.0593500e-01
  3.4863257e-01
  2.0847390e-06
  1.2020923e-06
 -4.1059218e-05
 -5.1009269e-05
  6.9489060e-06
  8.6258242e-06
  3.3527318e-05
  4.8406167e-05
  1.9310251e-05
 -7.9444953e-06
  5.7939651e-05
 -8.6081509e-06
 -4.4009172e-05
  5.5246591e-04
  1.0311721e-05
 -4.4207927e-06
 -6.2517947e-06
 -1.6004229e-05
 -5.4847111e-05
 -1.5081321e-05
  3.9012673e-05
 -1.4084845e-05
 -1.9175984e-04
  3.5629382e-06
 -4.2768916e-06
 -5.6392073e-05
 -2.0528956e-05
  6.6839671e-06
  1.5505086e-05
 -4.4587600e-06
  6.5837221e-06
 -5.6238689e-05
  1.3313200e-05
  8.8311640e-07
  9.5345231e-06
  6.7450011e-01
  2.3247817e-01
  2.9603614e-05
  2.0186674e-06
  7.8414405e-06
 -1.0074695e-05
 -7.8929970e-06
  3.3583532e-05
  2.6041191e-06
 -5.0419301e-01
  3.6563097e-06
  1.7872079e-06
  8.3000414e-06
 -6.9986518e-06
  6.0910270e-06
  3.1052232e-06
  3.3780398e-05
  1.1706530e-05
  2.5657817e-05
 -8.0614425e-03
 -6.4857079e-05
  3.5117253e-05
  1.0120151e-04
  1.4698144e-06
  6.6794783e-02
  1.9367337e-05
  2.3011152e-04
 -4.0857889e-05
  3.2730756e-04
  1.0178435e-04
  7.3582112e-07
  1.6941483e-05
 -1.9558247e-05
 -3.0853091e-06
 -3.4635164e-07
 -5.4893494e-06
 -1.3517631e-05
 -5.2249918e-05
 -1.0692147e-05
 -1.2949260e-05
 -5.5866218e-05
  4.8714210e-05
 -4.2397050e-07
  1.6121252e-04
  1.3424289e-05
  1.4338518e-05
 -1.0719373e-05
  4.5639053e-06
 -7.7686918e-06
  7.5442233e-07
 -8.1573453e-06
  1.2543602e-04
 -1.0988781e-05
 -5.5228907e-04
 -3.9776693e-05
  8.2945597e-04
  2.3322664e-04
 -3.9173244e-07
 -1.3353763e-06
 -4.1568575e-05
 -1.7674591e-05
  2.7907956e-06
 -4.5902565e-05
 -3.3910239e-06
 -2.1358013e-05
 -8.8951520e-06
 -1.5613969e-05
  1.9413194e-05
 -4.3365640e-06
  5.0452636e-06
 -3.2420663e-04
 -5.3627999e-05
 -2.0965566e-05
 -1.9610654e-05
 -1.6277129e-06
  6.1447968e-06
 -1.0060779e-05
  2.3928611e-05
 -1.4220821e-06
  2.2456166e-05
  1.6350937e-07
  5.4727448e-06
  3.0378404e-05
 -2.6381807e-04
  5.0307070e-05
 -4.2282711e-05
 -1.3444340e-05
  3.1696687e-05
  9.4541574e-06
 -8.9064833e-06
 -1.9327807e+00
 -4.1355775e-04
  1.6332324e-05
 -5.0709400e-06
  5.8667284e-01
 -3.5592700e-06
 -1.2830405e-05
 -3.6970170e-05
  4.5669720e-02
  4.5816920e-05
 -3.3151387e-06
 -8.6585169e-06
 -6.7852102e-06
  4.3353266e-05
 -3.7339432e-05
 -5.2268092e-07
 -6.8819040e-06
 -1.8311712e-05
  2.4924702e-06
 -1.0932465e-05
 -2.0432706e-06
  4.7336720e-04
 -2.1779101e-04
 -1.7220929e-05
 -1.4576757e-04
  7.2243020e-06
  2.8879633e-06
  2.7490003e-05
 -1.6827988e-05
  1.6377629e-05
 -5.6007814e-01
 -7.7952035e-02
  1.1359268e-05
 -1.3818442e-04
  4.8060426e-01
 -1.2124294e-05
 -3.7340640e-06
 -6.3742940e-05
  7.2446749e-02
 -3.7753206e-01
 -1.0480925e-04
 -7.1933639e-05
 -5.9455738e-04
  8.1187034e-05
  1.2228212e-05
 -8.1921789e-06
  2.8104914e-04
 -2.1606196e-05
 -2.7548731e-04
  2.7452055e-02
  1.5391487e-04
 -9.0073336e-06
  3.1645661e-06
 -1.0198575e-04
 -1.5379505e-03
 -1.0387030e-05
  2.7309014e-05
  5.1924344e-06
  1.1850811e-05
  1.4812067e-03
  1.6703402e-01
  7.5754842e-06
  5.1253795e-05
  1.1711760e-04
 -6.3354387e-06
  1.0003846e-05
  3.3441196e-05
  8.1549078e-05
  3.0271071e-05
  2.4497063e-01
  2.0707970e-05
  2.3383362e-04
  1.0356245e-05
 -9.8591327e-06
  1.9966763e-04
  7.5813227e-06
 -9.8633664e-06
  1.4208187e-05
 -3.9631328e-07
 -2.9161447e-04
  1.4510962e-06
 -4.8623842e-05
  1.5942879e-04
  2.1802211e-04
  1.6307907e-02
 -5.9061244e-06
  3.0931924e-06
 -5.7295728e-07
  4.4955218e-06
 -2.7060407e-06
 -2.0107874e-01
  2.0399179e+00
  7.0820340e-07
 -1.3155625e+00
  1.0192181e+00
 -1.9259965e-05
  8.6684622e-06
  1.0749963e-01
 -1.5395707e-01
  7.5991407e-02
  3.5750068e-05
 -1.6713773e-05
  2.6336706e-01
 -1.0671853e-01
  1.3868329e-03
 -6.5778095e-06
 -1.1488377e-05
  3.9653179e-01
  1.9536562e-01
 -1.2431770e-02
  1.9430978e-07
  1.5639938e-05
  1.3741194e-01
  4.5912278e-01
  3.1343466e-01
 -1.8149448e-04
  3.7502297e-05
 -2.4236265e-06
 -6.6221655e-05
 -1.2512581e-01
 -3.1564367e-01
  1.4469349e-05
 -6.0363996e-05
 -2.7297168e-05
 -6.2946892e-06
  2.1035757e-04
  1.6461066e-05
 -2.5115696e-06
  4.7058396e-07
  2.1571834e-05
  5.5874707e-06
  1.1722167e-06
  5.1811727e-05
  1.2950132e-05
 -7.5699809e-06
  2.1944516e-05
  1.6218205e-06
 -5.0743019e-08
 -1.3043017e-04
  1.1777311e-05
  2.5928671e-06
 -9.6361846e-06
  8.4674219e-05
 -3.8324411e-05
 -2.3909661e-05
 -1.6055619e-05
 -1.6797576e-05
 -5.2438292e-05
  6.4951782e-05
 -1.1490725e-05
 -3.2954886e-05
 -9.5083260e-06
 -1.7692424e-05
 -1.2591158e-06
  2.4188950e-05
  5.3040349e-06
 -1.7463847e-06
 -6.7810550e-05
 -1.2070856e-05
 -1.1817319e-05
 -1.0219528e-05
 -1.3796694e-05
  2.6003912e-05
  3.2358261e-05
 -1.9043728e-06
  1.2637739e-04
  1.5987211e-05
  1.3324447e-05
 -1.0438144e-05
 -4.5809684e-05
  1.5873986e-05
 -4.9862501e-06
  3.7685406e-04
  1.9374695e-04
 -2.0110123e-05
  5.5615139e-05
 -1.5422128e-06
 -2.7458742e-04
  8.7646849e-06
  9.5195201e-06
 -1.4905298e-04
 -9.3401490e-05
  2.2803541e-05
 -1.7928098e-05
  9.2915398e-06
  1.3289474e-04
 -8.6747077e-06
  1.7390004e-05
 -6.9891357e-08
 -5.9205718e-06
 -3.3005163e-05
 -1.4548409e-01
 -2.5300607e-05
  2.8744404e-05
 -4.8741862e-05
 -2.5954421e-05
  4.4486056e-05
  9.8650457e-07
  1.8877703e-05
 -2.8317754e-05
  6.6085762e-05
 -1.0795870e-05
  2.4512088e-05
 -7.4901650e-06
  9.1147040e-06
  2.0495638e-04
 -8.9001132e-06
  7.4222671e-06
 -2.2905704e-05
  6.6932400e-05
 -2.7445723e-05
  5.9899162e-06
  6.6271175e-05
  9.0264526e-05
  1.6787082e-05
  2.0983429e-05
 -1.7120326e-05
 -1.3749122e-05
  3.5855410e-06
  8.0603735e-05
  9.4741354e-06
  1.1650519e-07
  2.0808220e-05
  3.6259593e-05
  1.6206980e-04
 -4.9576129e-06
 -2.9008490e-05
 -2.7659526e-06
  1.2787638e-05
  3.9728075e-05
 -4.0972725e-05
  8.0093596e-06
  2.9313200e-05
 -1.2455464e-05
 -2.0487778e-05
 -1.5086162e-06
 -1.4008342e-05
  5.7680877e-06
 -2.4074985e-05
  2.4462621e-05
  7.9596698e-01
  9.4339329e-01
 -2.0402558e-05
 -1.8356638e-01
 -1.1119149e+00
 -3.8875241e-06
 -2.9339499e-05
  1.0630256e-02
 -6.4782923e-01
 -5.5999410e-01
 -1.5786136e-05
 -2.0214784e-04
  1.5234010e-01
 -2.6830932e-01
  9.1217168e-02
  1.0990322e-05
 -6.6680333e-04
  3.8137209e-01
  3.4388533e-01
 -8.1027858e-02
  7.2603693e-06
  3.8057278e-05
  2.2664228e-02
  3.2263994e-01
  4.3252394e-01
 -8.8764718e-06
  5.7664101e-06
  2.3757711e-05
 -7.9026759e-05
 -1.6607697e-03
 -1.1129170e-05
 -8.5563815e-06
  9.2768547e-05
  9.1202019e-06
  7.4450518e-06
  1.7812637e-05
  6.3048385e-05
 -4.6130353e-06
 -1.6622358e-06
  1.3014051e-05
 -1.3799494e-04
 -9.7951734e-06
 -1.4218898e-05
 -2.6248075e-05
 -2.2968887e-05
 -1.2041764e-05
  7.8523942e-07
  1.5429153e-04
  9.9669087e-06
  1.9368836e-04
 -6.8811596e-06
 -1.2911245e-06
  4.1507203e-05
  3.8442786e-06
 -8.2370838e-07
  1.5693041e-06
 -1.2020134e-05
 -3.5284475e-06
  1.9499344e-05
 -3.3081673e-05
 -1.3571932e+00
 -5.8528626e-06
  1.4775651e-06
  3.5244921e-05
  1.1182196e-01
  2.1392591e-08
  7.6579745e-06
  1.3713690e-04
  2.5070140e-02
  2.3892955e-01
 -1.3164276e-05
  1.1504429e-05
 -8.7483122e-04
  3.6923921e-05
 -5.7004248e-03
 -3.3730503e-06
  3.3493205e-05
 -5.4587843e-03
 -7.2959905e-05
  3.3004501e-01
  4.8459601e-04
  3.2635919e-05
 -1.4087242e-04
 -2.5469342e-02
 -5.9906941e-02
 -3.3332167e-06
 -2.4582059e-05
  3.9790237e-05
  2.3912273e-05
  1.1317002e-06
  2.1015268e-05
  1.2041291e-05
 -1.7906001e-05
 -6.5619847e-06
  1.3182397e-06
  2.1455702e-05
 -1.4864522e-05
  1.5790611e-05
 -1.1121440e-05
  1.2935819e-05
  4.9476424e-05
 -4.0604707e-05
  1.1079935e-05
  7.1048601e-07
  4.5255947e-04
 -1.9750700e-04
 -4.2487472e-06
  7.1358903e-05
 -9.3374401e-06
  1.1266439e-07
  2.0939165e-06
 -3.3500919e-06
 -3.1942254e-05
  1.0477065e-04
  2.9926599e-05
 -9.2967039e-06
  9.1572765e-06
  1.1708746e-05
 -1.2432665e-06
  2.1278958e-05
  7.4881548e-01
 -6.4790720e-01
 -2.8023747e-01
  2.7057407e+00
 -3.3549857e+00
  7.6131677e-05
 -7.5637108e-06
  1.1949741e-01
 -3.6089301e-02
  2.1209915e-01
 -7.4689865e-07
 -1.5503074e-05
 -1.0523327e-05
 -2.1921398e-02
 -1.9469924e-05
 -1.4119882e-05
 -1.1403109e-04
  1.7574054e-01
  2.7752474e-02
 -1.3061798e-01
 -2.4163933e-06
 -2.1699379e-04
  5.3740542e-02
  2.9599988e-01
  3.3468631e-01
 -6.9112116e-06
  1.8965091e-05
 -4.6440138e-05
  7.3049741e-06
 -2.7541380e-05
 -2.6347492e+00
 -8.7209171e-01
 -2.4325266e-06
  1.2833972e+00
  1.0648742e-01
  9.6068479e-06
 -1.7589758e-05
  6.9983842e-05
  1.5039793e-01
  6.0625988e-01
 -2.5775485e-05
  1.0626312e-05
 -1.2131154e-01
 -5.5716941e-05
 -1.7631340e-01
  5.4687316e-05
 -5.1435767e-05
 -1.3295884e-01
 -1.2171438e-01
  3.1686734e-02
 -6.5006242e-07
 -1.6122305e-05
 -1.6282136e-02
 -3.7298965e-01
 -6.8433054e-02
  2.7209067e-05
 -1.7171742e-05
 -2.0983560e-05
  3.6387610e-05
  6.0655543e-04
  5.2099829e-05
  4.1870961e-05
 -6.5402119e-06
  9.3895251e-06
  5.0970798e-06
  1.5111291e-05
  7.8805215e-06
 -1.7152786e-05
 -3.7516361e-07
 -2.8384931e-05
 -2.0322766e-06
  2.2031782e-05
  4.0307128e-05
 -2.7221535e-07
  2.6866350e-05
  2.1355985e-05
  4.5019711e-05
  1.2564384e-06
  2.6930004e-05
  1.0541034e-05
 -6.2972763e-06
 -6.8397793e-07
 -3.3353048e-05
  3.0372787e-04
  2.9045893e-06
 -2.0034799e-05
  2.7186238e-06
 -2.9225092e-05
 -3.8944117e-06
  2.5836620e-05
  5.4319175e-06
 -1.0384824e-05
  2.9244620e-05
  8.1602902e-06
 -5.8151095e-06
  1.3057144e-05
  7.4418267e-06
 -6.0227912e-06
 -3.7537629e-05
 -3.9915500e-07
 -1.1610145e-05
 -3.9056995e-05
 -2.4944154e-06
 -1.0128416e-05
  8.4506784e-05
  1.1733266e-05
  9.3625922e-06
 -4.0880600e-06
  1.8970277e-05
  3.1377338e-05
 -1.5359064e-05
  3.8066111e-05
 -4.9244922e-05
 -1.0639216e-05
 -3.4235657e-06
 -4.3275668e-06
  2.9320576e-05
 -1.2383492e-07
  6.1947994e-06
 -2.7309510e-05
  3.8561091e-05
  9.8003402e-06
  8.5835509e-06
 -2.2388795e-05
 -1.4889692e-05
 -2.4223442e-05
  8.9234760e-05
  7.3012671e-07
 -1.7564027e-05
  9.2247305e-08
 -3.2424217e-04
 -3.4460732e-05
 -1.6411690e-05
  2.1545225e-06
 -1.0972317e-05
  2.6252337e-06
 -8.7209482e-06
 -2.0244850e-06
  6.4354863e-05
 -5.5783771e-06
  7.8185269e-07
  3.1142340e-06
 -1.8803312e-05
  1.9260342e-05
 -1.8987987e-06
 -4.7591857e-06
 -8.5424372e-06
 -2.9091525e-04
 -7.3770398e-06
  2.1174822e-04
 -2.0593245e-01
 -3.2583487e-01
  2.3130218e-05
  6.3876163e-05
  1.3631448e-01
  1.1465761e-05
 -1.2436107e-06
 -5.8645770e-02
  1.1200779e-03
 -6.7467526e-02
  6.8062058e-05
  5.5343348e-06
 -2.1024779e-04
 -6.9747698e-06
 -1.4618117e-05
 -6.6005823e-06
  1.0089378e-05
 -7.6345339e-02
  1.0937907e-05
  1.7581787e-02
  2.0226273e-05
 -6.2005790e-07
 -1.0641087e-03
 -4.4187260e-04
 -2.9674916e-02
  1.2548234e-05
  2.1066477e-05
  6.5984124e-05
  5.3103970e-05
  1.8137436e-05
  1.2964828e-04
  1.1895294e-05
  1.2398406e-05
  3.3859760e-04
 -4.1186900e-05
 -3.3180622e-05
 -2.6538297e-05
  6.2349986e-06
  9.4046212e-05
 -1.2075486e-05
 -9.3455215e-05
  9.8826331e-06
 -1.3740031e-05
 -2.5830539e-05
  4.0827632e-05
  3.1173204e-05
 -5.7310276e-06
 -7.1834926e-05
  1.3195394e-04
  2.3562586e-02
 -2.8110831e-05
 -1.0453882e-06
 -1.2261297e-04
 -9.6979413e-05
  3.7700251e-05
 -2.2238235e-06
 -4.7968431e-05
 -1.3270885e-04
  7.1821182e-07
  3.7211986e-04
  5.8013957e-05
 -1.9281003e-06
 -1.1762812e-05
  2.9446650e-05
 -2.8020300e-05
 -2.9542594e-05
 -3.8469301e-05
  7.9729796e-07
  2.5110321e-05
 -9.3014511e-05
  3.7929847e-06
 -3.3011491e-04
 -1.2787699e-05
 -2.7979419e-04
 -8.9435580e-06
  6.9768039e-06
  3.3370456e-05
 -6.0073662e-06
 -1.7889226e-05
  1.1305424e-05
 -5.0275819e-05
 -1.0747965e-05
 -1.6521439e-05
 -1.8535677e-05
 -7.4390999e-07
 -1.2548319e-05
  2.2648115e-05
 -1.0169155e-05
  7.3388810e-06
  1.5054004e-06
 -1.0015691e-06
  1.7279550e-01
 -2.3979519e-05
 -9.6334725e-06
 -1.3442820e-02
  3.1894849e-06
 -1.0159224e-05
  3.3964054e-05
 -3.2245047e-02
  5.7268637e-01
 -1.4713654e-06
  5.1848492e-05
 -4.4460168e-07
 -2.0149409e-05
  1.9565955e-06
  1.0744920e-05
  7.6372817e-06
 -1.8604240e-06
  2.6162967e-05
 -7.5025149e-05
  3.3917936e-06
 -4.4082182e-05
  1.2288046e-04
  3.7741640e-05
  3.3965713e-05
  6.1597761e-06
  1.0526161e-05
  9.3836396e-05
 -1.4668306e-05
  7.0176147e-06
  2.6321859e-05
  8.8963643e-06
  4.3503900e-05
  1.9866372e-06
  8.4637307e-02
 -2.5266913e-06
 -1.8549185e-06
 -2.4137531e-05
  9.5375538e-07
 -6.0256940e-07
  1.6612303e-05
 -1.2735384e-04
 -3.3219003e-05
 -1.5036412e-05
 -2.1555597e-06
  5.6524714e-05
 -7.9177007e-06
  6.9060570e-06
 -1.4841200e-06
 -5.9297327e-05
 -2.0462707e-05
 -2.2294196e-06
  2.7579339e-05
 -1.5234835e-06
  4.4552071e-06
 -2.5043664e-07
 -1.7364880e-05
 -9.6370488e-05
 -1.9830861e-05
 -2.2616861e-05
 -1.9231820e-04
 -6.5470758e-06
 -2.1669650e-06
 -3.1935749e-06
  8.1237289e-05
  1.9672516e-05
 -1.2856288e-05
 -9.6849544e-06
  1.7578886e-05
  3.6934072e-01
  2.7127720e-05
  2.2420620e-05
  2.2310283e-05
  1.2932968e-04
 -9.3029000e-02
  6.8448047e-05
 -7.9704414e-06
 -6.6092321e-07
  1.2385265e-06
 -3.6960569e-06
  6.8139589e-06
  1.3849635e-04
 -8.1186645e-06
 -1.2241052e-04
 -1.4924086e-06
 -1.1395157e-04
 -2.5841204e-05
  5.6515537e-06
 -8.5495949e-06
 -1.8133238e-05
 -4.2901662e-05
  4.6162666e-07
 -1.7798407e-06
  2.0046529e-05
  3.6923814e-07
 -1.1178572e-05
  9.3567978e-06
  1.4094904e-06
  5.6418628e-07
 -5.8315789e-05
  4.7200455e-04
  6.0282004e-05
 -1.5274929e-05
  2.3981743e-06
 -3.8012127e-05
 -4.2211763e-05
  1.5641139e-04
 -3.8032581e-06
 -1.6616163e-04
  2.1724492e-05
 -3.5427008e-06
 -1.0449634e-05
 -5.2018054e-06
 -5.3332478e-06
 -6.6703437e-06
 -4.3348289e-05
 -4.7163844e-06
 -3.7089212e-05
 -6.4126639e-06
 -3.7751379e-05
  1.4400059e-05
  2.6618955e-01
 -6.1828550e-04
  1.6778627e-01
 -3.3530072e-04
  1.8705363e-05
  1.2102183e-01
 -3.2961512e-01
 -8.2394904e-01
  9.1363692e-01
 -5.8993879e-03
  5.4494689e-07
 -1.6675369e-01
  5.2954430e-05
 -2.2760206e-01
 -2.2098952e-06
  6.9682784e-02
  1.3959736e-01
  1.0097951e+00
  5.6818072e-02
  5.4764714e-06
 -3.1337528e-05
 -8.4032881e-06
 -5.1948601e-01
 -3.7717949e-05
  2.9457940e-05
  4.4699064e-01
 -6.6748098e-06
  4.4392043e-01
  7.6543674e-06
 -2.5107227e-06
  1.8106166e+00
 -1.0068153e-05
  1.0735432e+00
  6.1231258e-06
  3.5728553e-05
 -8.8936478e-01
 -9.3862927e-01
  1.6687099e+00
  2.9751732e+00
 -9.2190929e-02
 -1.4049322e-06
 -2.7024239e-01
 -4.8893289e-06
  2.1794248e+00
  1.2247041e-05
 -1.2275141e+00
  3.8961703e-01
  2.7944696e+00
 -3.3435564e+00
 -1.0876011e-05
 -4.3986649e-05
  6.2144331e-06
 -1.3105274e+00
  1.5759180e-05
  1.0272498e-05
  1.0418211e+00
  1.4394514e-05
 -6.2493378e-01
 -3.8872754e-06
  1.1856353e-04
  6.5641289e-06
  2.4437877e-05
 -1.3508363e-06
  1.2616585e-05
 -2.3899618e-05
 -2.9866062e-06
 -1.2128588e-05
  1.4470198e-05
 -1.4531844e-05
 -7.1952995e-06
 -1.9615585e-05
 -1.1415789e-06
  2.8451386e-06
 -3.4910987e-05
  2.6511365e-05
 -5.2409127e-06
 -1.7590035e-04
  4.1728836e-05
 -2.4912926e-05
 -1.7142778e-05
 -2.0427149e-05
 -3.8618714e-06
  4.8243580e-04
 -2.6514266e-05
 -4.5234709e-05
 -1.8135470e-04
  1.7327732e-04
  2.5239769e-05
 -2.1727608e-05
 -4.0423343e-01
  1.6588891e+00
  2.0817485e+00
 -5.2418890e+00
  2.2544482e+00
 -6.3355593e-04
 -5.5591565e-01
  1.9687943e-01
  1.3667674e-04
 -3.1393510e-01
  8.5678451e-02
 -3.7748361e-01
  2.0167972e-03
  8.5432237e-01
  3.1433025e-05
  5.1153916e-01
 -2.7434263e-01
 -2.8324336e-01
 -4.3209133e-01
  1.5844287e-05
 -3.2980847e-01
  5.8297660e-06
 -2.6888183e-01
  4.3796691e-01
 -2.1225171e-06
  8.5567808e-05
 -2.8775692e-02
 -7.0231890e-06
  3.4285802e-02
  8.0327982e-06
  1.1269673e+00
 -2.7555758e-01
 -3.4855452e-01
 -2.3942778e-01
 -1.5510750e-01
 -1.3958493e-06
 -3.7128633e-04
  3.0607232e-01
  1.0270172e-05
 -6.0816936e-04
 -8.8880867e-02
 -1.8656665e-01
 -4.8441593e-06
 -4.3397821e-02
 -4.8907973e-06
 -5.7600126e-02
 -8.7408455e-07
 -6.0626883e-03
  4.2619921e-02
 -1.6170659e-05
 -1.3925269e-01
  1.4989242e-01
  8.7328190e-06
  1.8451045e-01
 -8.6900551e-04
 -3.0918638e-06
 -1.7937199e-04
 -1.8875488e-05
  2.5133122e-05
 -3.0257363e-05
 -2.6206610e-05
  2.1550527e-01
  2.5138977e-05
  4.4683922e-02
 -3.1321150e-01
 -1.7013142e-03
 -3.4594977e-01
 -5.1484212e-02
 -6.4245081e-01
  6.9205521e-04
  2.6855656e-04
  5.1933610e-05
 -3.9781968e-05
  1.8110110e-03
 -4.1366555e-05
 -9.4165967e-05
 -4.9744069e-04
  1.0689875e-04
 -2.0289686e-01
  2.2590179e-05
  3.3519658e-01
  3.6333301e-04
  2.3006032e-06
  2.3155690e-04
  5.7879322e-07
  1.8969793e-05
  3.0186933e-05
  8.8724501e-06
 -2.2920212e-04
  3.7755553e-06
 -4.8340648e-01
 -1.2490574e+00
  2.3806627e+00
 -2.3112039e-01
  6.6168863e-01
 -7.9074055e-02
 -1.4832235e-03
  3.2959826e-04
 -2.4562375e-01
 -1.4829195e-01
 -1.2679885e-01
 -1.1844436e-01
 -6.6154316e-02
 -1.0339960e-01
 -7.4765938e-03
 -1.6667591e-01
 -1.5880190e-01
 -1.4952047e-02
  5.5446208e-01
 -4.3057567e-05
 -2.3846025e-02
  1.8393213e-05
 -7.3103638e-06
  4.8151273e-02
 -5.6142677e-03
  5.4811494e-06
  1.6204369e-05
 -7.4058102e-05
  1.8184786e-05
 -2.1548021e-06
 -1.5074822e+00
  3.3348682e+00
 -3.1698981e-01
 -2.1951907e+00
  4.0042153e-01
  7.6390333e-02
 -9.3654998e-02
 -2.3322480e-02
 -2.7419343e-03
  3.6951354e-01
  5.6117713e-01
  6.4564723e-01
  6.6629916e-01
  2.8691748e-01
  4.0120268e-01
  1.8481383e-01
  1.5685800e-01
  1.9479252e-01
 -2.6502383e-01
  1.1886273e-01
  9.8555183e-01
 -1.0311772e-01
  7.5625402e-01
 -5.8419481e-02
  6.8348712e-01
 -7.2961568e-04
  1.4855425e-01
 -1.2347670e-06
 -1.1818755e-05
  5.3675531e-06
 -5.0756400e-05
  8.6559648e-06
 -2.2749871e-05
  1.1998249e-05
  1.8039478e-05
 -7.0936621e-05
  2.2964918e-05
  2.0776113e-05
  1.9552204e-04
 -1.0112232e-06
 -8.5249849e-06
  7.2574285e-06
  2.0953836e-05
 -6.8711904e-07
 -2.0738401e-06
  9.6141166e-06
  1.9912161e-04
 -3.3678640e-05
 -1.1436161e-01
  1.8662680e-04
  2.1751750e-05
  4.0741020e-06
 -3.7425109e-06
 -4.4660011e-04
 -7.0485726e-07
  1.2676553e-05
 -8.2885117e-06
  5.5247660e-06
 -8.7598155e-06
 -6.0925544e-05
  1.5699354e+00
 -8.1570093e-03
  9.6221191e-01
 -7.0442355e-01
  1.3629458e+00
  5.1526880e-05
  2.4869823e-01
  2.9154432e-01
 -1.7573044e-01
 -2.7167580e-01
 -1.5718600e-02
 -3.3590329e-01
  7.2401913e-06
 -1.1470726e-04
 -9.9662640e-05
 -1.0123664e-01
 -5.6975900e-06
  1.0571321e-01
  1.3642222e-01
  4.2262545e-06
 -3.0024633e-01
  7.0564002e-01
 -5.6150407e-01
  1.5786275e-02
 -2.7167419e-01
  1.9456342e-05
 -2.9084261e-03
  2.5125641e-05
  1.0550471e-05
  6.4048421e-05
  7.3660890e-06
  9.3112601e-07
  1.3295286e-05
 -3.8880885e-06
  1.2005175e-05
  7.8345583e-06
 -3.8264301e-05
 -5.7859165e-07
 -3.9835381e-06
 -2.8984379e-05
  7.9973368e-05
 -3.7530212e-05
 -3.4314151e-06
 -6.6609500e-05
  8.8163390e-05
 -5.9206445e-06
 -7.9338852e-06
  1.3251348e-05
 -1.1254443e-05
  5.1608004e-06
 -2.5024243e-05
 -9.7590746e-05
 -6.9621217e-07
 -5.6534012e-05
  1.4279653e-05
 -1.5691780e-06
 -4.1957512e-05
 -4.9181917e-04
 -1.8482580e-05
  2.0437827e-05
  1.0663221e-05
  4.9114515e-06
  2.9866342e-02
  6.5509830e-06
 -1.2995675e-05
  2.0662625e-05
  1.6736567e-04
  4.8523134e-06
 -5.3358885e-06
 -1.4369759e-04
  7.4252552e-05
  3.1412776e-06
  1.9253348e-06
 -2.9744422e-06
  2.9391917e-05
  1.2475441e-05
  1.9683372e-05
  4.7769522e-06
 -4.3847534e-04
 -1.9255760e-06
 -3.5818408e-05
  1.9928898e-06
  2.1373522e-05
  9.2605469e-06
  2.2258584e-05
 -2.0874781e-05
 -2.3749314e-07
  5.5882861e-06
  7.6846118e-06
 -5.7998044e-08
 -4.1907716e-01
  2.2354143e+00
  1.3457232e-02
 -1.8449083e-01
  5.8893998e-05
  2.0556777e-07
  3.7879514e-04
 -2.6980342e-04
 -1.0360762e-02
  1.0019534e-02
  1.5009732e-05
  7.8184466e-06
  2.6497298e-06
  1.9758148e-05
  1.3628435e-02
  3.5637382e-01
  3.9292470e-02
  4.2025268e-02
  4.6130735e-01
 -5.3566386e-04
  8.2005441e-01
  7.6941686e-04
  2.0318333e-04
 -2.1236870e-05
  8.0516778e-02
  1.1269716e-05
  2.5780880e-04
  1.1515501e-04
  7.3776147e-07
  1.3321599e-04
 -3.0702306e-06
  1.0096102e-04
 -4.3516284e-05
 -1.6338493e-04
  9.6423091e-06
 -1.1981706e-05
 -1.7189965e-05
  4.7916488e-05
  4.9313085e-06
 -4.4931054e-05
 -1.6375356e-05
  8.0485424e-06
  6.2332151e-06
  5.5523426e-05
  3.4038170e-05
  1.0389640e-05
  1.1619065e-04
  2.3642223e-04
 -1.1713800e-05
 -2.6728843e-05
 -1.9909154e-05
 -8.1083217e-06
 -1.1921536e-05
  1.3635809e-05
  5.0660060e-06
  4.6888699e-06
  1.2384641e-05
  3.4422883e-05
 -2.3932014e-05
 -1.5480786e-05
 -2.2899709e-04
  3.8375915e-06
  1.3258668e-05
  3.2083597e-04
 -1.3039982e-05
 -3.0464864e-06
 -2.8378952e-05
  1.6182898e-05
  1.0288245e-06
  1.9019977e-04
  8.9574951e-06
 -3.8634744e-07
 -6.4524679e-06
 -6.7091969e-05
 -1.6475108e-04
  1.6808746e-05
 -1.1289314e-05
 -2.6918933e-06
  3.1394000e-06
 -2.8591494e-05
  2.0116860e-05
 -2.7062870e-05
 -5.3970831e-05
  7.7135273e-06
  7.4423057e-05
  1.2834645e-04
  1.6822372e-05
  2.9788847e-05
 -1.4037271e-05
  1.4815545e-05
 -3.9218571e-07
 -1.3614412e-04
 -2.2331435e-04
 -3.4404229e-06
 -1.3401620e-04
  3.2294042e-07
  1.9964134e-06
  2.2262918e-06
 -3.5912246e-05
 -1.2170019e-05
 -1.1831868e-04
  2.6470092e-05
 -3.9735227e-04
 -9.3655008e-06
  8.5549709e-06
 -5.9225763e-06
 -4.3153486e-05
  1.3630103e-05
  8.1578601e-06
 -8.0916361e-06
 -4.0984101e-05
 -7.8450474e-05
 -1.7127122e-05
  1.8610415e-05
 -9.7258737e-07
 -1.3424748e-06
 -2.2600740e-03
  1.8175486e-05
  6.1218889e-06
  2.1996411e-05
  3.9417955e-06
 -5.7353263e-06
  1.5814743e-05
 -1.2189380e-04
  8.4659378e-06
 -2.1826894e-05
 -4.3188807e-05
 -1.4071421e-06
  7.3998497e-05
  1.0386777e-04
  2.2752771e-05
 -1.2304954e-04
 -1.7258099e-05
 -3.6589627e-05
 -5.0069484e-06
 -1.4290162e-05
  9.3395856e-06
 -3.1776412e-06
 -3.2585482e-05
 -7.2610374e-06
 -2.0149806e-05
 -6.9175740e-06
  5.2778819e-07
  6.5856930e-06
 -2.0781467e-06
 -1.3552235e-05
  2.6284386e-05
 -5.1585739e-06
 -1.7962779e-05
 -1.1776988e-05
  3.2892327e-05
  6.6195366e-06
 -1.4378091e-04
  6.7051085e-05
  4.3060358e-05
 -5.0571809e-05
 -1.7263567e-04
 -1.0302370e-04
 -4.6194255e-06
 -1.0578502e-05
 -1.6390142e-05
  1.7161884e-04
  1.8675240e-05
  1.3041064e-05
  1.4405406e-05
  8.2681938e-05
 -5.4473735e-06
 -3.1321080e-05
 -1.6542599e-05
 -1.1334834e-05
  6.3080101e-06
 -1.7653356e-05
 -4.1169192e-06
 -4.5475144e-06
 -6.5966618e-05
  1.9282922e-06
 -1.6417571e-05
 -1.6230102e-05
  8.4284193e-06
 -1.0267898e-04
  4.9672627e-01
 -8.3508587e-01
  1.2152274e+00
 -2.4159646e-05
 -4.6433184e-01
 -1.9286929e-02
  7.5036442e-01
  2.5986333e-03
 -6.9488548e-02
 -1.2747502e-01
 -2.0297861e-03
 -3.6390528e-01
 -4.1186340e-06
 -6.8480149e-02
  3.8350872e-06
 -2.1805789e-03
 -2.0670322e-04
 -5.5372770e-05
  4.1601270e-01
  1.9207187e-06
  1.0542234e-04
  1.1126696e-01
 -1.1596362e-04
  1.2009515e-01
  1.1868588e-05
  1.1919747e-05
 -1.7115221e-05
 -6.1005253e-06
  1.1308020e-05
  1.9482326e-05
 -1.2823575e-05
 -1.2034378e-06
 -1.3942764e-05
  6.2140384e-06
  1.8384266e-05
  6.0903483e-05
 -1.9387864e-05
  9.2701419e-05
  2.9147504e-06
 -6.2481895e-06
  8.1860208e-07
  3.4789715e-05
 -4.9549999e-06
 -2.4562836e-05
 -4.5234296e-07
  8.3069745e-06
  4.2711813e-06
  6.1702379e-04
  4.3712516e-05
 -8.7547494e-05
  8.9617322e-07
 -6.6809473e-05
  1.0479983e-05
 -4.3089990e-06
  8.7760563e-06
  1.6245390e-06
  1.4839138e-04
 -1.3227372e-05
 -8.4988409e-05
 -2.8538363e-07
 -3.9686183e-06
 -1.7494591e-05
  1.8180168e-05
  1.7228922e-04
 -6.2399954e-06
 -5.3121776e-06
  2.2266722e-05
 -2.8097481e-06
  1.1596289e-05
  1.2602069e-06
 -9.6794327e-07
  1.5536358e-05
 -4.0022333e-06
  2.1150665e-06
 -7.3977394e-06
  3.7856033e-05
 -2.3942459e-05
  3.1951760e-05
  8.5955971e-06
 -9.0309222e-05
  3.5977218e-06
 -1.1741084e-05
  4.7086364e-06
  1.6005470e-04
  1.8292423e-05
  6.1443870e-06
 -4.3476481e-05
  4.9458026e-06
  1.8691788e-06
 -1.4051107e-04
 -1.5229705e-01
  1.5755510e-05
  2.1272768e-05
  2.1048707e-04
  6.2079620e-05
  3.5436875e-05
  4.8890811e-06
 -2.9387837e-05
  1.3872085e-04
 -2.0757566e-06
  1.2480759e-05
 -1.6424316e-06
 -2.7649679e-05
 -2.1944529e-06
  5.6169631e-07
  1.6173104e-02
 -4.2573294e-05
 -6.7843671e-06
 -5.0677331e-06
  1.1108430e-05
 -2.5635942e-05
  9.6187803e-05
  3.5120520e-05
 -7.7270764e-05
  9.7488672e-05
 -1.1521090e-04
 -8.2471513e-07
 -2.6232422e-06
 -4.2515298e-04
  8.0067344e-05
 -5.1315135e-05
  1.6817956e-05
 -2.9997549e-05
 -2.8428805e-05
  4.6324044e-06
 -3.2593791e-05
  7.2519338e-06
  2.3085828e-05
  2.3967319e-05
 -1.1379613e-05
 -1.4315960e-04
 -9.5676551e-06
  5.7755683e-06
 -5.9153472e-06
 -2.2371062e-04
  1.2934441e-06
 -1.0251392e-05
  9.7671045e-06
  3.7590326e-05
 -1.2608859e-05
 -4.5364064e-05
 -4.8925262e-06
 -7.5712262e-05
 -2.3075228e-05
 -6.4660780e-06
  1.2424338e-04
 -1.2854109e-06
  2.9119099e-05
 -3.6186786e-05
  3.2398346e-04
  1.3563737e-04
 -6.9997317e-05
  1.2940650e-05
  4.2576026e-05
 -1.0007946e-05
 -1.4485121e-05
 -2.5388852e-06
  2.8851458e-05
 -5.3574429e-05
 -1.2783729e-04
 -1.5943856e-06
 -2.2357830e-05
  1.4971328e-06
 -2.0354028e-05
 -1.5221165e-05
 -1.9166273e-05
  8.2041995e-05
  4.5736383e-06
  7.6328333e-06
  1.7897495e-05
  4.2950919e-07
  9.2231858e-05
 -2.8922552e-06
 -4.4420372e-06
  1.7118462e-05
  2.8441395e-05
  3.4451681e-05
  1.6596827e-05
 -7.3072110e-06
 -1.8311421e-05
  3.9273951e-02
  9.5526713e-01
  7.1386553e-02
  2.4103078e-01
  3.7541443e-01
  2.1566662e-01
  2.5011328e-01
 -1.7193000e-01
  3.1961038e-04
  2.8436866e-01
  4.8114389e-01
  2.6219866e-01
 -1.0368379e-04
 -3.3432250e-05
  1.4004416e-05
  1.7250429e-01
  1.9394110e-01
  6.4774476e-02
  1.2451963e-02
  1.6685524e-04
  9.7906792e-01
 -1.1171702e-04
  8.8702487e-05
 -9.9127209e-03
  9.5266011e-04
  1.1613099e-05
  3.0342157e-05
  7.9727442e-06
 -8.5626455e-04
  9.3588727e-07
 -1.7526001e-05
 -1.4165016e-04
 -9.5670373e-05
  2.2259377e-05
  8.0365708e-06
  6.0006282e-06
  3.3387932e-05
 -2.0444806e-04
  7.3916817e-05
 -7.2231552e-07
  1.3095260e-05
  1.5021559e-05
  1.0645728e-05
  2.1097762e-06
 -5.1844610e-05
  2.5796285e-06
  3.7125519e-05
 -1.0610037e-05
  9.8129467e-06
 -5.5806286e-05
  2.0791273e-04
  3.6012545e-07
  1.2359654e-05
  8.8329987e-05
 -3.1559703e-05
 -8.4972253e-06
 -3.1211965e-08
  5.9527488e-06
  8.5302854e-06
 -1.1997224e-05
 -8.2282328e-05
 -1.1540960e+00
 -6.8672287e-01
  1.0964985e-06
 -8.9529902e-01
 -5.5912878e-06
 -1.0374459e+00
 -4.0768518e-07
  6.6021942e-03
 -5.7504281e-02
  4.3748962e-05
 -1.5461586e-05
  1.1536405e-06
  1.2314873e-05
  2.2101305e-07
 -7.9703826e-01
 -2.5316665e-06
 -6.2020320e-01
 -3.9858007e-01
  8.0977741e-05
 -3.6447564e-01
 -1.1063667e-03
 -3.4758787e-06
 -3.3593571e-01
 -2.1969492e-03
  2.8337301e-05
 -9.5467103e-06
  4.9785507e-05
 -7.2611147e-05
  2.3569186e-05
  3.9762446e-05
 -1.5168602e-06
 -1.4559792e-05
 -7.3531766e-05
  3.6778030e-05
 -2.1186199e-05
 -2.8578788e-05
  1.8062121e-06
 -1.3002721e-05
  2.4733170e-05
 -1.8765280e-05
  1.9830044e-05
  1.2512607e-05
  3.1739721e-06
 -1.7970224e-05
  1.7673564e-06
 -6.4565502e-05
  6.1894730e-06
  1.4451222e-04
  1.4556240e-05
 -1.2654770e-04
  4.2078667e-05
 -2.2436594e-05
 -1.1991459e-05
 -2.8910532e-05
 -7.6987417e-05
  2.1212302e-06
  1.2928151e-05
  4.8737867e-05
  7.2266575e-06
  7.2366220e-01
  5.1246023e-01
 -3.5047761e-01
 -7.4833151e-06
  3.7089017e-01
  8.0641374e-05
 -3.3989691e-05
  2.9533014e-05
 -5.9115682e-06
  3.0954250e-03
  4.0067393e-06
 -6.6045118e-06
  4.4345029e-06
 -1.9400996e-04
 -2.1218066e-05
  9.1728374e-02
  3.7076042e-04
  1.0595869e-04
  9.3937628e-03
  2.5552395e-04
  1.0725924e-02
  6.4878832e-06
 -1.3251416e-05
 -8.0243562e-04
  1.0571579e-04
 -4.8179696e-05
  2.4543289e-05
  1.2924243e-05
  9.2460605e-06
  4.4940343e-06
  9.2601722e-01
 -2.2205757e-01
  7.0988804e-02
  4.6482714e-06
 -5.3003542e-02
  4.7075500e-05
  1.2132527e-03
  7.9304956e-02
  3.6816997e-04
 -3.1034374e-03
 -2.2001150e-01
 -1.5628879e-01
  3.0378893e-04
 -3.0679051e-02
 -2.7016185e-05
 -2.8416787e-05
  2.1077203e-06
 -2.4764440e-05
  1.8847634e-03
 -6.8833442e-06
 -6.0936944e-03
 -3.6218610e-06
 -3.7764426e-06
  9.5886961e-02
  1.2398496e-05
  1.4769274e-05
 -6.0869816e-06
 -3.8792168e-06
  2.4854275e-05
 -2.0615385e-05
  9.7768092e-01
  2.4038196e+00
  9.4600511e-01
 -2.7792487e+00
  3.5810449e+00
 -1.8313900e-05
 -1.0122138e-01
  1.6218853e+00
 -5.4412398e-02
 -1.2972777e-01
  3.1360771e-05
 -4.8034683e-01
  6.0432404e-04
  1.3568881e-04
 -7.0388645e-01
 -2.6493087e-02
 -2.4944931e-01
  2.3124272e-01
  8.4208769e-01
 -9.1772763e-06
 -7.4772871e-01
  9.9495378e-07
 -2.4212837e-01
  1.8320373e+00
 -2.1396637e-01
  5.7035778e-02
 -2.8866071e-01
 -9.0309995e-06
  4.7899646e-01
  2.0112754e-04
 -3.9041952e-05
  2.3098050e-06
 -1.7194820e-05
  6.6731991e-05
  1.0641062e-05
 -4.5154220e-06
 -3.4427899e-06
  2.5470736e-05
 -2.7708675e-05
  1.8270866e-05
 -7.8129175e-05
 -3.6477981e-05
 -1.1323394e-05
  1.9934734e-05
 -3.9943840e-05
  1.3390598e-05
 -3.4137113e-06
  3.1625223e-05
 -1.9489471e-05
  1.1618109e-04
 -4.1021238e-05
  2.1071786e-05
 -2.5169475e-03
  5.1615327e-05
 -5.3505955e-05
  7.3631559e-06
 -3.0215733e-06
  3.3398182e-06
  4.2327483e-06
  5.7996313e-05
  6.9061258e-07
  1.0502727e-02
  1.5449785e-01
 -6.8929726e-01
  2.0086814e-01
  5.1060247e-01
  4.1281442e-06
  2.7631283e-01
 -8.7996777e-06
  2.0024911e-06
  6.8418819e-01
 -4.4111594e-06
 -1.4973813e-01
  6.8370869e-06
  1.2680147e-02
  3.9976267e-06
 -5.0430011e-02
  1.8271595e-07
 -3.0842236e-06
 -2.5250614e-01
 -2.1768621e-05
 -2.0274647e-05
  1.9731463e-01
 -1.3735946e-04
 -5.1477033e-01
 -2.3183318e-06
  4.6950659e-01
 -4.3879709e-01
 -3.1201071e-01
  1.7313587e-03
 -7.5698757e-05
 -3.2466826e+00
 -1.5025789e+00
  1.8922904e+00
 -1.4267431e+00
  3.3759363e+00
  6.5904129e-07
 -2.0288239e+00
  5.5011697e-07
 -5.1052630e-05
  1.5845619e+00
 -1.4405470e-05
  6.0028862e-05
 -5.2126561e-06
 -2.9152253e-01
  2.1819191e-05
 -2.1931214e+00
 -2.5301684e-05
  7.1551790e-06
  2.8618005e-01
  2.7810443e-06
  3.2164298e-06
  1.6523327e+00
  1.2187140e-04
 -1.2250944e+00
 -8.2484648e-06
  1.0685714e+00
 -1.5198926e+00
 -3.1263263e+00
 -4.2871180e-01
  1.2322053e-01
 -3.4249923e-01
 -1.6268925e-05
 -1.5663989e-01
  4.7093421e-01
  1.2218750e-03
  5.3606667e-02
  1.0998963e-05
 -1.1224860e-01
 -6.1911231e-01
 -4.6062423e-06
  7.3632647e-05
 -9.6688040e-05
 -1.1417142e+00
 -3.7544762e-06
  1.7579670e-05
  1.4439127e-05
  2.9459647e-05
  2.3912180e-02
 -8.4223393e-06
  2.8685374e-05
 -8.0807731e-06
  2.3874985e-05
 -1.2542346e-05
  7.2003542e-07
 -9.6297435e-06
  7.3501215e-06
  1.3005420e-05
 -6.9764414e-05
  4.7465448e-05
  1.6287553e-05
  1.5467780e+00
 -1.4207414e-03
  9.9998107e-04
  1.1421015e-05
  2.8227279e-01
  1.2170670e+00
  2.5114528e-05
  5.8003790e-03
 -2.4507315e-01
  3.7604123e-02
 -3.4804286e-03
  2.1120941e-02
 -1.8788894e-01
 -6.0165858e-01
 -2.4595983e-01
  5.4277259e-01
 -1.6322523e-01
  4.2577320e-01
 -6.0957085e-05
 -9.1778271e-02
 -2.7768515e-04
 -2.7930209e-01
  4.7394636e-07
 -3.1340441e-01
 -6.9578297e-02
 -4.9361472e-05
  7.1301288e-04
  6.7183548e-01
 -1.9494362e-01
 -1.6547506e-07
  2.1017733e-05
  2.3811746e-05
 -3.5535395e-05
 -7.5411849e-06
  1.5605703e-05
 -1.8428810e-06
 -5.3442573e-06
  1.9670279e-05
 -2.5663583e-05
  4.1999160e-06
  1.0325932e-06
  1.0694607e-04
  5.2572905e-06
 -3.0234129e-05
  3.1136511e-05
 -2.9282414e-06
  1.8116037e-06
  1.3874670e-07
 -3.9764505e-05
 -6.1433529e-06
  5.0970131e-05
 -6.0837254e-05
 -1.0584357e-06
 -9.9145300e-06
 -5.7591174e-06
 -2.4850049e-06
 -3.5920591e-05
 -2.7062461e-06
 -1.8402149e-07
 -3.4025910e-05
 -9.4710464e-05
  1.6645290e-05
 -2.6087953e-05
 -8.7737608e-06
 -8.4009480e-05
 -1.2429867e-06
 -9.3201925e-06
 -1.3321483e-05
  7.8777094e-07
  1.5633206e-05
  2.8379949e-05
 -1.0531551e-04
 -9.9307319e-05
  1.7394668e-04
 -4.3604228e-05
  8.9915433e-05
 -7.0553629e-05
 -2.1495596e-06
 -6.9192561e-06
  1.2747056e-06
 -9.1034990e-06
 -1.8789724e-05
  2.5008545e-05
  1.7608454e-05
 -4.8498947e-05
 -6.6619563e-05
 -5.4243221e-05
 -2.5149948e-05
  1.3702385e-05
 -2.0179722e-01
 -1.5946400e-01
  1.8258671e-01
  8.6739773e-01
  1.2906404e-03
 -1.0129850e+00
  8.8029139e-02
 -1.0790557e-01
  5.1686221e-01
 -5.6018466e-01
  4.1584384e-02
  7.5340241e-01
  8.1853963e-02
 -4.5473278e-01
 -3.6172380e-05
 -5.8451974e-06
  3.9894739e-04
 -1.2133609e+00
 -6.8864202e-01
  9.9411727e-06
 -1.4511068e-01
  1.5931885e-06
 -2.2773281e-01
 -1.5328820e-05
 -3.1326674e-02
 -5.7422261e-05
 -6.1986323e-02
  1.6762465e-01
  1.6128393e+00
 -2.5676715e-03
 -4.9165588e-05
 -6.0677161e-05
 -1.4175603e-06
 -2.5294856e-05
 -1.3784615e-05
 -1.1829440e-04
 -8.5388474e-06
  6.9744485e-05
  7.0524834e-06
  4.5222674e-05
 -2.5039722e-05
  2.0164240e-05
  5.1612566e-05
  1.5092030e-04
  1.3694282e-04
  7.4256779e-05
 -3.5133067e-05
 -5.3394760e-04
 -6.3282723e-06
 -9.4101379e-06
 -1.7200775e-05
  3.2283802e-05
 -1.7604543e-05
  8.4234249e-05
 -4.1806768e-05
 -7.8533740e-06
 -8.7134879e-07
  1.0754523e-04
  4.2545638e-05
  5.2679097e-06
 -1.3654060e-05
 -5.2800524e-01
 -2.2327658e-06
 -7.8389794e-06
  4.0317304e-05
  1.0642513e-05
 -1.6917093e-05
  2.7531893e-05
  2.1311962e-06
  2.7446507e-05
  1.9218294e-05
 -8.7232356e-06
 -1.0036980e-05
  1.4174213e-01
 -2.6896219e-05
 -1.3343038e-05
 -7.9726873e-05
 -1.0574922e-03
  1.5141597e-01
  1.4632734e-05
 -9.4567309e-05
  5.1069772e-05
 -1.0174778e-04
  6.2445302e-05
  9.6184403e-06
 -3.5420933e-07
 -5.0789484e-05
  9.0145231e-06
  6.4056617e-06
  2.2489850e-05
  2.0210423e+00
  8.7567741e-01
 -3.7190944e-01
 -1.5899401e+00
  2.9484982e+00
 -3.9147782e-01
  6.3086599e-02
 -4.2240018e-01
  7.2863244e-02
 -3.9101273e-02
  1.2022820e+00
  8.1005417e-02
 -6.4174539e-01
  8.4356928e-01
  1.0962480e+00
  1.2824194e-01
 -2.5674381e+00
 -7.4093628e-01
  7.1725661e-01
  1.3082828e-01
  2.9465708e-01
  7.8750372e-06
  4.6432298e-01
  9.5936984e-01
  3.8891762e-05
 -1.5426838e-05
 -4.4638559e-01
 -2.2478148e-01
 -6.7643213e-01
 -1.0069038e-01
 -8.5278928e-01
 -1.3375694e+00
 -9.8765874e-01
  9.4758892e-01
 -9.2163837e-01
 -7.3339097e-02
 -1.7466977e-01
 -8.4170848e-02
  1.4062761e+00
 -7.3423773e-01
 -5.8516401e-01
  2.2063906e+00
 -4.6437636e-02
  2.4632798e-01
 -3.8022764e-02
 -3.7005451e-01
 -3.9615411e-01
  4.2067510e-01
 -1.3900448e-01
 -2.9584044e-01
 -1.8452300e+00
  2.9037851e-01
 -1.2013270e+00
 -1.2111248e+00
 -6.0069793e-01
  6.1259836e-01
 -1.9787067e-01
  1.9379392e-01
 -1.0835652e+00
  4.7350410e-01
  1.5903484e+00
 -2.2911708e-01
  2.3879554e-07
  1.0043895e+00
  1.0809518e+00
 -2.7154252e-01
  1.8952414e-01
  1.7713305e-01
 -5.8554476e-01
  2.0032644e-01
 -5.8828050e-01
  1.4015763e+00
  8.9053255e-01
 -2.3602380e-01
  2.2131559e-01
 -9.1596514e-01
  4.0527314e-01
  1.6342722e-01
 -4.2442417e-01
  1.7129128e+00
  3.0564669e-01
 -5.1983607e-01
  3.7661350e-01
  1.3677874e+00
  1.1305672e+00
 -1.3374682e-02
  8.8534456e-01
 -1.5097110e-02
  1.4454584e+00
 -3.0256942e-05
 -5.3811932e-01
  2.3264401e-02
  1.1387108e-02
 -2.1223377e-01
  1.4639683e+00
 -6.7872983e-01
  7.4071044e-01
  9.8345733e-01
  5.1123679e-01
 -5.7946885e-01
  1.0653794e+00
 -4.0929619e-02
  3.9138341e-01
 -2.0691359e-01
  2.9738045e-01
  9.1121994e-02
  1.3792409e-01
  7.8526044e-01
 -4.5615542e-01
  7.8002262e-01
  8.7736105e-04
 -8.7410219e-05
  2.0645536e-01
 -4.1173989e-01
  5.3665662e-01
  1.1270362e-04
  2.5126204e-04
  1.2239296e-05
 -7.9198837e-02
  2.0592821e-01
  1.8031153e-05
  1.9312061e-05
 -6.3694883e-05
 -1.5140238e-05
  2.1819585e-06
  3.2475778e-05
 -2.3993531e-05
  7.7042796e-06
  2.4318237e-05
  2.4002349e-05
 -5.1883881e-06
 -2.7219805e-05
  1.8552610e-05
  2.3064063e-06
  1.8623270e-04
  3.0520355e-06
  3.8355432e-05
 -1.0030551e-05
  2.2281374e-06
  3.1278350e-06
  1.8256598e-05
  1.7040895e-05
  1.5597410e-05
 -2.7403340e-04
 -2.4396769e-07
  1.7436958e-05
 -2.3186940e-05
 -3.8349579e-05
  2.2207273e-06
  1.5682618e-04
  2.5888273e-01
  1.1198266e+00
  4.8892914e-05
 -1.2478947e-01
 -1.6672087e-04
  1.0854051e-01
  7.1731985e-02
 -5.6445146e-01
  1.3501053e-01
  1.4257866e-06
  3.8722615e-06
  1.5647995e-04
  1.8196468e-01
 -1.2896681e+00
 -2.5558993e-06
  7.5085195e-06
  1.5630262e-01
  1.9123181e-05
  4.8555949e-01
  1.7936698e-05
  3.7519316e-05
 -9.1690772e-06
  5.8728161e-05
  1.0757662e-05
  4.0498420e-05
 -1.0384443e-05
  4.7200322e-04
 -3.2816279e-05
 -3.0253977e-01
 -3.0190311e-04
  2.7622887e-01
 -7.1266413e-01
 -8.0387974e-01
  2.8274124e+00
  3.7027258e-02
 -3.0656129e-01
  7.2289892e-02
 -4.2868814e-01
  1.0185093e+00
  9.2465870e-02
  1.0457997e+00
  1.0912613e+00
 -7.5357294e-01
  2.3021243e+00
 -2.5619951e-01
 -9.4099812e-02
  3.1719741e-01
  2.5302622e-01
  8.2640851e-01
  1.2064287e-01
  5.7482427e-01
 -1.9225786e-06
  2.0074658e-03
 -2.4440946e-01
  4.7364077e-01
  2.8541058e-01
  6.6922411e-02
 -5.4907586e-02
  5.3536501e-03
 -3.0385193e-01
 -1.7714237e-03
  2.3513921e-03
  1.2769620e-01
 -1.2948041e+00
 -1.1725912e-04
 -4.7527838e-02
 -4.2693939e-02
  5.1617318e-01
 -2.0798828e-01
  1.1885377e+00
  1.1733492e-01
 -1.8654928e-04
 -1.2583438e-02
 -1.1919894e+00
  1.0524015e+00
  1.6547883e-06
  2.5165793e-05
  7.3918847e-05
  1.1209013e+00
  2.9987708e-01
 -7.0897528e-07
 -5.3996823e-06
  2.5300810e-04
 -1.5137341e-05
  6.5095560e-04
  1.0094264e-01
  7.0257498e-05
 -1.9326278e-04
 -8.0282152e-02
  5.6276381e-01
  8.1789887e-01
  6.3104439e-01
  1.0704404e+00
 -2.8366376e-06
 -1.8858519e-01
  9.3954647e-01
 -1.1527686e-01
 -5.4489869e-01
  3.9116431e-02
  2.5653854e-01
  6.5640897e-01
 -2.4321313e-01
  8.8780162e-06
  9.1067922e-01
  1.3527032e+00
 -3.2808394e-03
 -3.9112482e-08
  1.6854700e-06
 -2.0411980e-01
 -8.0303944e-06
 -1.0469438e-05
  9.1799902e-06
 -1.3112722e-05
 -2.9609761e-05
  1.3990315e-06
  2.8744224e-01
  2.1158856e-05
 -3.2096398e-06
 -1.0760661e+00
  1.5855862e-01
  9.5588266e-06
 -9.6318487e-05
  1.9767174e-05
  2.5424586e-05
 -2.1465228e-05
 -5.1607799e-06
  1.0884068e-07
  1.0192211e-05
 -1.3455248e-04
  2.8007696e-06
  1.0791040e-05
 -3.0233700e-06
 -7.2762473e-06
  8.1925398e-05
 -1.6282362e-05
  1.6799883e-04
 -1.3185844e-05
  1.2526394e-05
  1.0097871e-05
  1.6321818e-04
  1.3599360e-05
  1.9978883e-05
  5.5528548e-05
  5.2133305e-06
  9.2388467e-07
 -4.6352194e-05
  9.5184214e-06
  1.6316013e-05
  3.5782959e-05
 -5.7464576e-06
  1.3215918e-05
  1.1618615e-05
 -2.5563817e-05
  2.0184275e-06
  3.6575759e-05
 -6.9109548e-05
  3.2069652e-06
 -1.5092254e-05
  4.6315014e-05
 -1.8847691e-06
 -1.0877480e-05
  6.0665792e-05
 -3.2701511e-05
  4.2693452e-07
 -2.8101183e-05
  7.7397090e-05
 -4.2615655e-05
  1.2419365e-05
 -1.1883189e-05
 -7.1160775e-06
 -1.4344121e-04
  1.0497502e-05
  5.5637760e-05
 -1.6716147e-04
 -1.9220413e-05
  5.4515449e-06
  8.2879042e-06
  8.4932486e-05
 -1.9225501e-04
 -5.5051069e-06
 -2.3106879e-01
 -8.3834413e-05
  3.5441285e-06
  2.2310396e-01
 -9.0623835e-06
  2.6258403e-01
  3.7836147e-05
 -5.9292175e-05
  1.1755812e-01
  3.8510957e-06
  4.3164537e-06
  3.4257853e-05
 -3.8973045e-05
  8.9482433e-01
 -2.1074517e-05
 -4.4342542e-05
 -4.0900495e-06
 -5.8106467e-05
  1.6878636e-01
  2.4107529e-05
 -1.8256796e-04
  3.1874073e-04
 -9.7619841e-04
  4.3642137e-04
 -1.7478796e-04
 -2.0296728e-05
 -1.0168246e-03
 -9.6838239e-06
  2.5335075e-03
  9.5158823e-05
 -1.7796084e-01
  4.9765399e-01
 -2.5527826e-05
 -6.5751092e-06
 -2.6954517e-01
  4.8620153e-05
 -2.9509049e-03
  1.3327448e-01
  1.0048298e+00
  4.3323028e-01
  8.7861972e-06
  2.7218363e-01
 -5.3290073e-06
  1.2368492e+00
  6.9710478e-07
 -5.5923938e-06
 -2.7968556e-05
 -5.7649640e-07
 -1.0680849e-02
 -2.3316974e-05
 -7.1537870e-06
  2.4799199e-06
 -4.5814908e-05
  1.8580951e-04
 -5.9553735e-05
  9.1424297e-08
 -2.6991795e-05
 -9.9882027e-06
 -6.3775528e-06
  5.3435247e-07
  2.5812245e-04
  1.0791786e-02
  7.1287309e-06
  1.3306229e-06
 -2.6855814e-06
 -2.8322807e-05
  8.5951506e-06
  7.6263832e-06
  4.2308980e-05
  2.4976107e-05
 -1.4747386e-05
 -3.8321264e-06
 -2.9352243e-05
 -2.0897509e-05
  7.3624367e-05
  1.8050567e-05
 -1.4947177e-06
 -2.0897683e-05
  7.6253323e-06
 -2.2536999e-05
  2.1587983e-05
  8.2204106e-06
  4.6211999e-06
 -4.1148655e-06
 -3.1987879e-06
  1.7794830e-08
  1.0617807e-05
  5.8683881e-06
 -2.1547641e-05
  5.2717050e-06
  1.8455741e+00
  8.6849976e-01
  8.0439106e-02
 -2.2188126e-01
 -9.6003423e-03
  3.6486024e-01
  4.1923273e-01
 -7.0846975e-01
  1.3428622e-01
 -8.7292901e-05
  2.2071219e-05
 -1.0327069e-04
  1.0150476e+00
 -9.5125443e-01
  4.1389223e-03
  3.1452008e-05
  2.1781144e-01
  3.8389921e-02
  5.8658324e-02
  3.8189265e-01
 -1.0252526e-05
  8.6996888e-06
 -3.4006447e-07
 -2.8082079e-01
  1.5198318e-05
 -1.6434908e-04
  1.0057347e-01
 -3.5336570e-04
  7.8824260e-06
  4.7803469e-06
 -1.2013317e-01
 -1.2944770e+00
 -1.9792982e-03
  1.2985659e+00
  1.3388833e-01
  1.3314109e-01
 -9.3323791e-07
 -6.3328803e-01
 -1.2596920e+00
  4.0773353e-01
 -5.5775958e-01
  1.4496917e-06
 -5.1129383e-01
  1.8120754e+00
 -2.3189682e-01
 -8.7521538e-02
  4.1201791e-05
 -4.4518995e-01
  5.5790901e-01
 -6.3902562e-06
 -4.4811177e-03
 -4.4262968e-04
 -1.7368723e-02
  8.0963227e-06
 -6.0464286e-06
 -2.6263207e-02
 -1.0167476e-04
 -1.0792134e-05
  1.0553971e-01
 -2.7689290e-05
 -2.0943894e+00
  7.8631103e-01
 -6.5074082e-06
  2.4359102e+00
  1.8283026e-02
  2.1993592e-01
  7.7137589e-01
  1.2548366e-01
  3.1113851e-01
 -2.6145691e-01
 -1.6495947e-02
  2.2486734e+00
  1.2954102e-01
  1.4494892e+00
 -1.5014237e-04
  6.6698676e-01
  1.6542155e-01
 -4.8364359e-01
  8.9079899e-01
  6.4412010e-01
 -1.2237072e-01
 -2.1072165e-06
 -2.3681994e-03
  2.5265509e-01
 -1.5651680e-05
 -1.3722987e-05
 -3.8774851e-01
  2.6373255e-01
 -9.5093720e-02
 -1.2635555e-05
  5.7208090e-05
  3.8652638e-06
  2.3500746e-05
 -3.5489370e-06
  2.8652126e-05
  1.3607094e-04
 -1.7315950e-05
  1.1769198e-04
  9.6233989e-06
  1.3373270e-05
 -2.6524938e-06
 -4.4128985e-05
 -1.0174660e-05
  1.5560096e-06
  5.0272711e-06
 -8.0156201e-07
  1.2008621e-05
  1.1267971e-04
 -6.6522029e-05
 -1.4182716e-05
 -6.0596005e-05
  1.4628353e-06
 -2.0488717e-06
 -8.3373074e-05
 -4.1981490e-05
  5.0025443e-05
  3.9486978e-03
 -1.8953826e-05
 -6.4010369e-06
 -7.1383215e-06
  8.7159678e-02
 -2.0613271e-01
 -5.4243224e-06
 -1.1299856e+00
  7.1546990e-01
 -3.8749089e-03
 -1.3761719e+00
  2.3755731e-01
  2.4902818e-01
 -1.1131293e-01
 -9.2572741e-02
  1.2447610e-01
 -5.4672641e-01
  6.5332562e-01
  7.5995238e-05
 -5.7544268e-05
 -1.1898457e-01
  6.5548788e-06
 -2.2129339e-01
 -2.5405527e-06
  6.6305593e-06
  8.0635436e-06
  1.5960369e-01
 -4.0324099e-05
  6.7365430e-02
  1.0424503e-05
  1.2020481e-05
 -1.6967473e-05
 -6.0681826e-01
  3.5501845e-02
 -3.9212751e-01
  1.3238008e-01
 -8.4144119e-03
  1.7592818e-01
 -1.0733237e-01
 -9.5027113e-01
 -1.3628547e-02
  1.7704231e-01
  9.5980048e-01
  2.6788503e-02
  4.6971992e-01
  9.5811081e-01
  2.6043374e-03
 -2.9253146e-01
 -3.3291079e-05
  9.1637907e-05
 -1.5078313e-04
 -1.5465437e-01
  5.3023044e-02
  3.2064142e-06
 -6.9710977e-02
 -3.1986440e-06
 -7.7199633e-04
  5.7014883e-01
  2.2286689e-07
  7.1770078e-06
 -3.4717545e-01
  3.4875444e-05
  3.5574281e-01
 -6.6309517e-06
  1.3562381e-05
 -1.4915636e-06
  1.0070289e-05
  5.1492345e-05
 -4.2387663e-05
  4.0100063e-06
 -9.7964825e-05
 -1.3988620e-06
 -2.4348234e-05
 -5.1066536e-07
 -7.9291931e-05
  7.7910217e-06
 -1.2929047e-05
  1.1725794e-04
  4.1366660e-05
 -1.2813764e-05
 -5.7906909e-06
  1.5722408e-05
  3.4945933e-05
 -1.1935987e-05
 -3.5919205e-05
 -1.3054399e-05
  1.1933446e-04
  5.9350139e-05
 -7.2505013e-06
  1.4021032e-06
  5.0712270e-06
  3.8657257e-05
 -2.4646826e-05
 -1.2716896e-05
  1.3775199e-04
  1.4402731e-07
  7.5636667e-06
  3.6116930e-05
  2.3986208e-06
 -3.6214220e-05
 -3.5841938e-05
 -5.0070905e-04
 -1.4458929e-05
 -7.7760869e-06
  1.7744146e-04
  3.9037834e-05
 -1.5255415e-05
 -1.1692148e-05
 -3.9566396e-07
  1.3791003e-05
 -2.7629255e-06
  7.9956742e-05
  8.1298093e-04
  1.7635972e-05
  4.0390573e-06
  1.6566921e-05
  6.1060541e-06
 -7.4184054e-06
  5.5261989e-07
  2.4202633e-05
 -5.7559253e-05
 -2.1123885e-06
 -2.1313959e-05
 -2.1147544e-05
 -1.9345526e-01
 -7.1218234e-01
 -1.3723217e-01
 -5.2187198e-01
  1.8966842e-02
 -1.6802511e-01
  5.3098329e-06
 -3.0967977e-04
  6.1660521e-02
  5.8539486e-01
 -1.3270571e-04
 -1.0635897e-01
 -4.9344286e-01
  5.3925514e-01
 -5.7229334e-01
 -3.0501325e-05
 -2.6486921e-05
 -2.2234584e-01
  5.6305975e-01
  9.3309369e-05
 -1.3758157e-01
  6.0535228e-04
 -4.2120304e-02
  6.6051107e-06
 -2.4879335e-03
 -1.4454631e-04
 -1.5991093e-01
  1.0051845e-05
  1.2052518e-02
 -6.2321709e-04
  5.6073838e-01
  1.1658053e+00
  2.1411612e-05
 -1.4983302e-05
 -3.6085239e-01
 -4.5753995e-06
  2.0958309e-04
 -8.4121960e-01
  1.7922515e-03
  3.6275664e-01
  1.1529318e+00
  3.7370442e-05
 -2.8480065e-01
  6.0910338e-01
  9.8590386e-01
  1.3502849e+00
  2.9018538e-06
 -1.0882210e-05
 -5.2720428e-01
  8.8536972e-03
  1.0204097e-05
 -4.9031925e-01
 -4.7162023e-01
  3.0813760e-01
 -1.2459901e-05
 -4.7631058e-01
 -1.8211058e-01
 -5.4056130e-05
  1.6457945e-05
  1.8156154e-01
  8.5062957e-01
 -9.2502612e-01
  8.5260682e-02
 -5.6543558e-05
 -7.6610798e-01
 -1.4087026e-01
 -3.6632264e-01
  2.4513712e+00
 -2.0567617e+00
  1.8416154e+00
  1.9215543e+00
  4.8560764e-06
  5.4779297e-01
  1.8768426e+00
  7.8665757e-01
  5.4517710e-01
  2.9318368e-05
  3.3334756e-05
 -7.1416456e-01
 -3.8661310e-01
 -1.8413394e-04
  6.3277602e-01
 -5.3045905e-01
 -1.8598254e+00
  7.1216135e-05
  8.2334340e-01
 -9.1791338e-01
 -2.6215848e-05
 -3.4425236e-06
 -7.4246436e-01
 -3.3703940e+00
  8.6156732e-01
  3.3450705e-01
 -6.3086450e-01
  5.3663415e-01
 -6.7596751e-01
 -6.2028921e-01
 -1.3486525e+00
  6.5028924e-01
  6.2308196e-02
  7.3555821e-01
  5.5649944e-02
 -7.1610212e-02
 -3.8961025e-06
 -4.7403664e-05
  3.5776470e-02
 -2.0764247e-01
  6.5553281e-06
  1.2387524e+00
 -1.8718079e+00
 -7.9893970e-01
  1.1575974e+00
  7.0733869e-01
  1.3644915e-02
 -1.5231019e-01
  1.0571268e+00
  6.2344754e-01
 -1.1987300e+00
 -2.3575559e-01
  1.4818703e-01
 -1.9526515e+00
  1.8835069e-01
  8.3258522e-01
 -1.0497576e+00
  5.8051735e-01
 -4.0351638e-01
 -1.4676274e-01
  1.1308777e+00
  1.1503011e+00
 -8.2238793e-02
 -7.9602953e-03
 -2.6992339e-01
  1.5016223e+00
 -1.1421963e+00
 -8.8903479e-02
  1.8784835e+00
 -1.2811314e+00
 -2.4873455e+00
  1.7112087e+00
  2.3735498e-01
 -4.4723272e-01
  1.5136800e+00
 -9.4206601e-01
  7.4178314e-01
  8.5390741e-01
  2.9967755e-02
 -5.6932133e-01
  2.1697016e-01
  4.7194725e-01
  7.9864645e-01
 -1.6523701e+00
 -7.8149664e-01
 -1.6677710e-01
 -2.1662960e+00
  1.1353317e+00
 -8.2205820e-01
 -1.6610268e+00
  2.6524933e-03
 -1.9930841e-02
  4.2715862e-01
 -1.4115506e+00
 -2.6799772e-02
 -1.3622947e+00
  5.3215879e-01
  8.8541329e-01
 -3.7160882e-01
 -6.0604881e-02
 -7.4000609e-06
  2.5682702e+00
  3.1020099e-01
  5.5651975e-01
  8.0657989e-01
 -6.1669964e-01
 -5.5247909e-01
  4.1361710e-01
 -4.2863101e-01
 -2.9797437e+00
 -2.7174637e-01
 -1.4551853e+00
  5.9192473e-01
  1.3374324e+00
  6.1343359e-05
  7.0845599e-06
  1.5221190e-05
  4.5402248e-05
 -9.7166926e-02
  9.2238575e-01
  2.8087228e-05
  5.2523937e-05
  4.0117416e-01
 -5.3592384e-01
 -1.1838409e-01
  3.2404113e-01
 -2.3342344e-01
 -5.6736743e-01
  2.8569722e-01
  2.1544912e-01
  2.9077715e-01
 -5.1136867e-06
 -2.2376627e-01
 -2.0541673e-04
  1.4674190e+00
 -1.1718681e+00
 -2.8664217e+00
  6.8183833e-01
  4.4714667e-05
  3.0728078e-01
  1.1720944e-01
 -2.2634654e-06
  1.2167070e-06
 -1.0840243e+00
  2.7372980e-02
  2.3070049e-04
  2.4621735e+00
  5.0057733e-04
  2.6317674e-01
  8.0229843e-01
 -4.1218066e-01
 -3.9268376e-05
  5.9427601e-01
 -7.4716225e-02
 -6.7103779e-01
  1.5605023e+00
  2.6174781e-01
  3.6584345e-01
  7.0108706e-01
 -8.5834557e-01
 -3.3614281e-01
  1.9556525e-01
 -6.0391128e-01
 -3.3696997e+00
 -5.8950853e-02
  4.9427778e-01
 -1.2606716e-05
 -2.0492424e-01
 -2.4864933e-01
 -1.7171222e-01
  1.1383635e+00
 -4.0609958e-03
  2.3789251e-01
  2.7154034e-01
  4.9274459e-01
  2.2317342e-01
  1.6365552e+00
 -1.1724216e-01
  5.7177514e-01
  2.1777076e-01
 -1.7072430e+00
 -2.1651788e+00
  1.7963479e+00
  8.2277745e-01
  1.2411401e+00
 -1.1905099e-02
  5.4389229e-06
 -1.9640407e-05
 -2.4132577e-01
 -9.3953811e-02
  1.3323438e+00
  9.7277182e-01
  2.0941058e-02
 -2.9020017e-02
 -7.2008932e-01
 -1.2682956e-06
 -4.8490925e-05
  1.8918250e-06
 -2.0097502e-01
  1.0461984e-04
  1.1344394e-01
 -5.3618428e-06
 -4.8967822e-06
  2.0464198e-05
 -7.6006327e-06
 -7.9041311e-06
 -9.8583469e-06
  1.0963008e+00
  3.3010179e-01
 -9.0105963e-01
  7.3913279e-06
 -8.0128530e-06
 -1.7655075e-05
  1.9934600e-05
  2.0071039e-04
  1.9675961e-05
 -1.4161892e+00
 -3.8591984e-01
 -1.0036336e+00
  6.9292478e-02
  2.8824234e-05
  9.5946014e-01
 -2.3416285e-06
  4.6957794e-06
 -6.9093388e-05
 -3.8155410e-02
 -6.5997839e-01
  2.1877782e+00
  9.6076419e-06
  5.4511998e-04
 -6.2611264e-01
  2.7894685e-06
  7.3247975e-06
 -1.1206915e-05
  4.0228972e-01
  5.6023955e-01
  1.1747944e+00
  5.8596424e-06
 -9.1259190e-06
 -3.1197809e-03
 -5.1155689e-06
 -1.4967857e-05
 -1.3457153e-04
  1.4703902e+00
  7.4681756e-03
  7.6287442e-01
  1.2498831e+00
  4.4556047e-05
  2.0772100e-05
  2.4250281e-05
  2.5523406e-05
  3.9935187e-03
 -1.6947820e+00
 -1.3958582e+00
  3.6600271e-01
  2.3896846e-05
 -2.3335344e-06
  1.1195600e+00
 -6.1532910e-07
 -2.2962351e-05
  1.7102451e-05
 -1.0867351e-01
 -4.9716784e-03
  3.9848691e-01
 -4.1395122e-01
 -1.8733625e-04
 -4.2566140e-03
  7.4915963e-01
  1.1299140e+00
 -1.2254694e+00
  1.0597438e+00
  5.7227039e-01
 -1.6323500e+00
 -8.1383741e-01
  1.0977094e+00
  1.1384203e+00
  1.5746748e-06
  9.6038103e-02
 -3.1721690e-06
  1.5048550e+00
  5.3889107e-05
 -2.5969810e+00
  6.7818689e-01
  3.9409646e-01
 -8.8522233e-02
  2.5312510e-01
  8.6658966e-04
 -2.8988734e-01
 -2.2596998e+00
  4.6922734e-01
  8.8009059e-01
 -1.5630890e+00
  2.7483344e-01
  4.1459265e-01
  5.0919199e-01
  1.0360630e+00
  4.8363302e-02
  2.2458508e+00
  2.1229682e+00
 -1.9377423e-02
  7.8266084e-01
  1.3942989e+00
 -1.4635704e+00
  1.1982218e-02
  4.5522514e-01
  2.8791705e-01
  5.2917546e-01
  9.9346858e-01
 -1.1673955e+00
  3.6600163e+00
  4.5502585e-01
 -2.9183486e+00
  7.7593319e-02
 -2.4748390e-06
 -8.3984554e-01
 -8.9920372e-01
 -5.1594818e-01
 -1.9251117e+00
 -1.8566255e-01
  9.1468793e-01
 -5.7473302e-01
  6.0397172e-01
  1.2435580e+00
  1.0121610e+00
  2.9002538e-01
  1.2117457e+00
 -1.0084978e-01
 -1.4029415e+00
  5.5550873e-01
 -2.2900525e-01
  2.0637247e-01
  9.1997707e-01
 -3.6137456e-01
  1.7121067e+00
 -3.5138196e-01
  4.4095722e-01
  6.2752312e-01
  6.1148947e-01
 -1.8430771e+00
 -2.8524916e-03
  2.1109641e-04
 -3.2122117e-01
  1.2947663e+00
  1.8438587e+00
  1.1166228e+00
  9.7887552e-01
  8.2255447e-01
 -4.9158186e-01
 -1.4762880e+00
 -6.7701238e-01
  7.5738549e-01
 -1.6578977e+00
 -7.4746960e-01
 -1.9054778e-01
 -2.5906134e+00
 -3.3122119e-01
 -1.3858772e-02
 -2.0045868e-01
 -5.3728718e-01
 -2.5983789e-04
 -8.6600906e-01
 -3.4181105e-07
  1.2180456e+00
 -2.6753150e-02
  7.9388356e-06
  9.9256921e-01
  3.2692268e-01
  1.9047648e-01
 -3.6434792e-02
  7.5129586e-01
 -1.1831473e-02
 -2.9325813e-01
  1.3961310e+00
 -1.6112986e-01
 -1.6670957e+00
 -2.1207123e+00
 -1.1852587e+00
  1.5213114e+00
  3.2849908e-01
 -2.6979699e+00
  1.3670334e+00
 -5.3799069e-01
 -2.1104720e+00
  8.7135607e-01
 -9.0078127e-01
 -1.2856700e+00
 -6.7612551e-02
  8.5766852e-02
 -4.9101341e-01
  1.3814974e+00
  1.2226899e+00
  5.0099264e-04
  1.3869328e+00
 -5.8455205e-01
  2.1330677e-01
 -9.5159680e-02
  5.1249087e-01
 -2.0952220e-01
 -1.4770890e+00
  1.5748540e-02
 -8.2080054e-01
  6.3627589e-01
 -7.4609184e-01
 -1.1808305e+00
 -1.8748043e+00
 -1.6526493e+00
 -2.7547708e+00
 -1.0951047e+00
 -1.2895197e+00
 -1.1158857e-01
  1.4220110e+00
 -5.8527356e-01
 -1.0271422e+00
 -6.9663441e-01
 -6.8810463e-01
 -1.6587864e+00
 -1.8288276e+00
  7.6153082e-01
  1.0790639e+00
 -9.4753474e-01
 -3.4663290e-01
 -1.1405987e+00
  1.4395378e+00
 -1.1650412e+00
 -5.5666864e-01
  6.4034718e-01
  1.2608404e+00
  1.0726951e+00
 -1.2219818e+00
  7.9129895e-06
 -3.4415309e-06
 -6.9583395e-05
  1.5004256e+00
 -3.2608409e-04
 -1.6718726e+00
 -3.7599730e-01
 -1.3758694e+00
 -5.6028955e-02
  5.8188048e-06
 -9.4755123e-06
 -2.3408504e-05
 -5.1193427e-07
 -4.2521962e-05
 -5.8948964e-01
 -4.1093584e-04
 -1.0258459e+00
 -2.9887527e-04
 -2.5274308e-05
  1.1351084e-04
  9.1268777e-07
  1.0689595e+00
 -8.6939315e-07
  2.2176625e-01
  7.5290191e-01
  4.5316380e-01
 -1.7395012e+00
 -1.8934838e-06
 -5.8544253e-04
  8.9123292e-05
  4.4270939e-01
  5.5837836e-07
  1.7051756e-01
 -1.1641165e+00
  6.2889349e-01
 -8.6722189e-01
  1.2095513e-05
 -2.7092553e-06
 -2.5837759e-05
  1.6165206e-02
 -1.6450604e-06
 -8.2309085e-01
  1.4193747e+00
 -7.2521091e-02
 -1.0891330e+00
 -8.8301495e-06
  1.7484519e-05
  2.0737339e-06
  1.5687891e+00
  4.1025069e-06
 -5.3826761e-01
  6.7579341e-01
  9.1703832e-01
 -1.1784866e+00
 -4.8204174e-06
 -5.3592402e-07
 -1.1306989e-05
 -4.5778657e-07
 -6.1346916e-05
 -4.4047534e-02
  2.2694929e-01
 -1.5650717e+00
 -6.7660546e-01
 -1.9140960e-07
  2.1584669e-05
  2.2701975e-06
  1.2637824e+00
 -1.5710481e-04
 -7.3993191e-02
  1.8989109e-01
 -5.0977241e-02
  4.7612613e-01
  7.6717733e-06
 -1.1642568e-05
  4.6998325e-06
  2.9962671e-01
 -9.1718015e-05
 -3.6455408e-01
  7.8302205e-01
  7.1067315e-01
 -2.4203286e-01
  5.0223305e-05
 -2.8952840e-05
 -1.1840907e-05
 -4.0069517e-05
 -4.6811401e-05
  1.1184645e-01
 -1.1412057e+00
  1.4924184e+00
 -3.6189578e-02
  2.2942882e-05
  1.8942184e-06
 -2.1670228e-05
 -3.2225485e-05
 -1.3056235e-05
  1.3764952e-05
 -2.9219258e-05
  5.4839426e-01
 -3.8847038e-06
  6.0572416e-05
  1.2833810e-05
  5.7618904e-06
  2.3888220e-05
  2.0041856e-05
  9.1097492e-01
 -6.7839688e-01
  1.1649472e+00
 -1.1762321e+00
 -7.0002448e-06
  5.5037661e-05
 -7.6195920e-06
 -7.8204021e-06
 -1.1476396e-05
  3.2118231e-01
  1.6941296e-02
 -1.2114042e+00
 -3.5017341e-01
 -2.2726999e-05
  3.3788651e-06
  3.0813517e-05
  1.2304002e-03
 -7.4560376e-06
  1.2075864e+00
 -3.3691332e-02
  1.6738245e-01
  1.3915211e+00
 -6.0866936e-05
 -2.0346470e-05
  2.2163966e-05
 -9.9321784e-05
 -4.7733888e-06
  8.4550214e-01
  4.5961452e-01
  2.2298114e+00
 -6.7394525e-01
 -5.7271030e-04
 -8.7163990e-06
 -9.8023593e-06
  2.9420937e-06
  7.3851961e-06
  1.2063290e-01
 -1.0998442e-01
  1.4587417e-01
 -2.7453822e-01
 -9.3568879e-06
  8.3314706e-05
 -1.5319358e-04
  1.3726733e-05
 -1.2290130e-06
  1.8910371e+00
 -9.7086489e-02
  3.9158818e-01
  7.4543798e-01
  6.8932895e-06
  2.9005118e-06
 -7.1923459e-06
 -1.0986012e-05
 -2.4015138e-05
  4.8082914e-02
  3.9924255e-01
 -5.6024063e-01
  5.1914155e-01
  6.0671455e-06
 -9.7043412e-05
 -5.5873781e-01
 -1.7172094e-04
  6.2863066e-05
  3.9431185e-01
  1.8179402e-01
 -6.7118424e-01
 -5.6837881e-01
 -5.9279926e-05
  9.7420461e-06
  4.7812141e-06
 -2.7871589e-05
  3.9376660e-06
  1.4396390e+00
 -7.9163733e-08
  1.4050660e-04
  2.7359999e-06
 -6.1607561e-06
 -2.8194032e-05
 -1.2334950e-01
 -1.1021633e-05
  2.8097762e-05
 -5.5536908e-01
  2.5471860e-01
 -2.4148839e+00
 -1.5023459e-01
  5.3505746e-06
 -8.6477594e-06
 -6.1812389e-01
 -6.6109044e-07
  8.8391007e-06
  1.7391683e-01
  1.4105508e-01
  2.6201516e-01
  2.3216525e-02
  9.1456866e-07
 -2.3460569e-05
  2.6818976e-04
  9.3989265e-06
  1.4336937e-04
 -9.8613453e-01
  1.2387435e-01
 -5.1303118e-01
 -1.6669034e+00
 -1.1363350e-05
 -1.5426890e-04
 -5.0890481e-01
 -8.6152069e-02
  4.2965767e-05
  5.7472527e-02
  2.2951490e-01
  8.1722492e-01
 -8.5345143e-01
  1.4428363e-05
  2.8358949e-05
  4.2963973e-05
  1.4034804e-04
 -6.6079256e-06
  1.2655607e+00
  1.2240236e+00
 -8.0134995e-02
 -4.9912915e-01
 -4.5731587e-05
 -1.0554929e-05
 -8.2050294e-01
 -1.9588239e-01
  5.1754032e-05
  3.7149635e-01
  3.8536850e-01
 -2.1059072e+00
 -1.5941601e+00
 -4.1273783e-05
  4.3812374e-06
  1.4496349e-01
  6.7279267e-05
  4.3452737e-06
 -3.9897659e-01
  1.2621427e-01
  5.9411985e-01
 -8.4945077e-01
  2.1161513e-02
  5.6002909e-01
 -8.7388778e-01
 -1.0955937e-01
  1.4972306e-05
  3.9758399e-01
  7.2451019e-01
  1.0819741e+00
 -7.8875697e-01
  3.3810616e-07
 -3.3788918e-05
 -2.5664816e-05
 -3.0047818e-06
  8.8831066e-06
 -1.8008287e-01
  7.4120464e-08
  6.2499404e-01
  2.3073202e-04
  1.0329060e-02
  5.3365457e-01
 -5.6849331e-01
  5.3767799e-06
 -3.5262055e-05
 -1.2151259e+00
  4.8491456e-02
 -2.9316241e-01
 -7.1243936e-01
 -7.5932421e-06
  8.3536361e-06
 -1.0146630e+00
 -5.4713819e-06
 -2.4812678e-05
  8.7774998e-01
  3.7288982e-02
  8.6191404e-01
  1.0658233e+00
  3.1620424e-04
  2.4758866e-01
  1.9540982e-01
 -4.3126252e-05
 -1.1485968e-05
 -1.8352041e-02
  8.3243912e-01
  5.7069999e-01
  4.7000548e-01
  9.7363318e-06
  1.1739702e-01
  2.9002234e-01
 -6.9494140e-06
  3.7649361e-06
 -2.0222790e+00
 -1.0921244e-01
  1.8246920e+00
 -6.6850078e-01
  8.7707769e-04
 -6.3327287e-05
 -3.4080561e-02
 -9.4781526e-06
  5.9970807e-07
 -1.8109217e+00
  2.8496879e-01
  1.3733029e+00
 -6.0222930e-01
  4.9703838e-05
  3.9636827e-01
 -8.1298757e-01
 -2.4267870e-04
 -5.8274240e-05
 -1.7345764e-01
  4.3079677e-01
 -1.8660603e-01
  2.0304832e-01
  1.1563815e-04
  3.1857887e-01
 -4.2998323e-01
 -1.0376701e-04
 -2.0881262e-05
 -6.2638652e-01
  4.3834415e-01
 -3.5247850e-01
  4.6407948e-03
 -7.2330578e-05
 -2.4552848e-05
 -9.7062284e-01
  6.7835659e-02
 -5.7794477e-06
 -1.0990030e+00
  9.4809890e-01
  8.1769955e-01
 -8.1833607e-01
  1.5970359e-04
 -1.1058439e-05
 -1.2687234e-04
  1.0806259e-05
  1.5267964e-04
 -1.3109622e-05
  8.5388923e-01
 -2.2960746e+00
 -7.2281939e-05
 -1.1397780e-05
  8.0692307e-06
 -1.5891768e+00
  3.1149462e-02
 -5.7204484e-06
 -7.3606658e-01
  6.7215085e-02
  8.8257775e-02
  7.3978877e-01
  3.8959029e-01
 -5.2094279e-06
 -1.0516780e-01
 -4.7666122e-06
 -2.1234129e-05
 -1.0067836e+00
  1.2376198e+00
 -2.1271805e-01
 -8.9803088e-01
  7.8957946e-06
 -1.7892738e-05
 -4.6500215e-01
  1.7652016e-02
  1.9995212e-05
 -1.2049078e+00
 -4.8894376e-01
 -8.9507276e-01
  3.1780690e-01
  9.6771164e-06
 -6.6156979e-05
 -5.4244828e-01
  4.7671742e-06
  8.7591297e-06
  6.0454863e-01
  2.0229506e-01
  7.2495174e-01
  4.5655465e-01
 -2.3555438e-05
  3.8870450e-05
  2.5829393e-03
  5.5238027e-02
 -4.8044922e-06
 -1.9954409e-01
  1.8761549e+00
 -1.7785872e+00
  4.8187840e-01
 -1.6552460e-05
 -2.1711840e-05
 -4.5042804e-01
 -3.4805410e-06
  7.8891295e-05
  7.7738352e-02
 -4.8328128e-02
 -3.6099978e-02
 -2.6558599e-01
 -1.4234899e-05
  1.4569498e-05
 -4.5298871e-01
  1.2865376e-03
  1.0720777e-05
  8.3920616e-01
  2.0956567e-01
 -6.2906474e-01
 -5.6324822e-01
  1.2413758e-02
  1.2413758e-02
  1.2413758e-02
  1.2413758e-02
  1.2413758e-02
  6.7241365e-01
  6.7241365e-01
  6.7241365e-01
  6.7241365e-01
  6.7241365e-01
  1.4738771e-01
  1.4738771e-01
  1.4738771e-01
  1.4738771e-01
  1.4738771e-01
  1.0924964e-01
  1.0924964e-01
  1.0924964e-01
  1.0924964e-01
  1.0924964e-01
  1.6452778e-02
  1.6452778e-02
  1.6452778e-02
  1.6452778e-02
  1.6452778e-02
  1.8038879e-01
  1.8038879e-01
  1.8038879e-01
  1.8038879e-01
  1.8038879e-01
