nep4 3 Ba Zr S 
cutoff 8 4 150 20
n_max 4 4
basis_size 8 8
l_max 4 2 0
ANN 30 0
  1.1555873e-06
 -9.8417061e-08
 -2.0075282e-05
  8.4054659e-07
  1.7912438e-07
  6.5372551e-05
  8.3706063e-06
 -5.0659033e-08
  2.5869067e-06
 -1.2768383e-04
 -3.2429903e-06
  3.3946239e-05
  1.6356760e-05
  6.1092498e-05
  1.9743820e-05
  1.1582645e-05
 -2.0299773e-05
  1.0022013e-05
 -1.1419094e-05
 -9.0937237e-06
 -2.1911210e-05
  6.6172674e-06
  7.4429422e-06
 -2.8125960e-05
  1.1124056e-05
  1.2942308e-04
  1.1709922e-05
  1.6720462e-06
 -2.1914323e-07
 -3.4505890e-06
  8.3129960e-01
  6.5510726e-01
 -3.9396451e-05
  4.7361991e-05
 -1.7186848e+00
 -5.5989740e-06
 -6.7631464e-07
  1.8596992e-02
 -6.0382575e-01
  1.4439453e+00
 -1.9543320e-05
  2.6995758e-07
  6.1662864e-02
 -5.5780397e-06
  4.7668003e-04
  7.2462553e-06
 -2.2003585e-05
  3.1684300e-01
  2.9936556e-02
 -2.4835108e-01
  3.0645082e-05
  1.4975530e-08
  4.6658963e-02
  3.0594018e-01
  3.4869656e-01
  1.6085307e-05
 -6.7350425e-06
  1.7817432e-05
 -3.8885937e-05
 -6.8024574e-06
  4.6304708e-06
  3.3510030e-05
  3.5940775e-05
 -5.8409319e-06
  2.6138960e-05
  3.0698688e-05
  1.2649098e-05
 -1.9586349e-05
  5.3087535e-04
  1.0294214e-05
 -1.1409203e-05
  2.3244784e-05
  7.7630244e-07
  1.4133408e-05
 -2.2166840e-05
  5.3215058e-06
 -3.9172369e-06
 -1.9155159e-04
 -3.0827027e-06
  3.9344941e-06
 -3.2977186e-05
  8.5231404e-06
  5.2890705e-06
 -1.4564584e-07
 -5.8103465e-06
 -8.0370392e-06
 -6.8453332e-06
  2.3836815e-06
 -2.3772971e-06
 -4.0636514e-06
  6.7448759e-01
  2.3157141e-01
  4.4645412e-06
  2.1442509e-06
  7.0104716e-06
 -2.0460924e-05
 -7.7988634e-06
  3.2129083e-05
  3.9233310e-06
 -5.0419289e-01
 -6.2485819e-06
  1.2870080e-06
  1.6288117e-05
  9.2098196e-07
  1.7646422e-05
  3.1353045e-06
  3.8507409e-05
  1.1245057e-05
  4.1421836e-06
 -8.0631766e-03
 -1.2384774e-05
 -7.1478398e-06
  8.4624699e-05
  2.5784244e-05
  6.6698551e-02
 -1.3569565e-05
  2.3011077e-04
 -1.1584145e-07
  2.1116243e-04
  8.5078391e-05
 -3.8198827e-06
 -6.0683824e-06
  4.6588721e-06
  3.0932842e-05
  2.8496024e-06
  1.0355533e-05
  4.5777124e-06
 -1.7386017e-05
 -5.0512454e-06
  8.5307765e-06
  1.9452627e-05
  3.9231767e-05
  9.4226436e-08
  7.2280454e-05
  6.2025201e-06
  5.0294561e-06
  1.0567201e-05
  6.0604884e-06
  3.6848138e-05
 -2.6761219e-05
  4.1060437e-05
  1.6694032e-05
  1.2080931e-06
 -5.5231946e-04
 -1.5072601e-06
  8.2831283e-04
  5.4554992e-05
  7.2691896e-06
 -8.3227042e-06
  2.7404303e-05
 -6.4287597e-05
  8.6607333e-06
 -4.3051532e-05
 -4.3508303e-06
 -1.7689719e-06
 -9.1186130e-06
 -6.4952842e-06
 -2.3115315e-06
  1.1213283e-05
 -2.4850795e-05
 -2.8674174e-04
  7.2018262e-09
  4.3780202e-07
  2.4775676e-07
 -3.2730168e-06
  2.0961381e-05
 -5.8548108e-06
  2.4512017e-05
 -2.1385638e-06
  1.4983992e-05
  5.8682017e-06
 -1.8197161e-05
 -4.7886015e-06
 -4.5366592e-06
  1.2243925e-05
 -4.2160722e-05
  2.5119409e-06
 -9.4123789e-06
 -1.2626023e-05
  4.0858545e-06
 -1.9323081e+00
 -4.2012523e-04
  8.0218833e-06
  1.8040477e-06
  5.8652306e-01
 -7.6535998e-06
 -1.1252001e-05
  3.9401998e-06
  4.5624293e-02
  3.4202527e-05
 -3.8564514e-07
  1.9979521e-05
 -1.6417822e-05
  4.4674969e-05
 -3.0737378e-05
 -1.5479463e-05
 -1.5018781e-05
 -3.7323267e-07
  2.6473606e-06
  1.3404913e-06
  9.1084557e-06
 -7.7997793e-06
 -2.0952609e-04
 -2.1654922e-05
 -4.2214942e-05
 -8.7580420e-06
  4.7277758e-06
 -2.8781269e-06
 -1.3638330e-05
 -8.5260672e-06
 -5.6007797e-01
 -7.8053035e-02
  2.3304689e-05
 -5.3526142e-05
  4.8061594e-01
  1.2534350e-05
  2.1845799e-05
 -2.7149867e-05
  7.2388791e-02
 -3.7750196e-01
 -1.0474215e-04
  2.6152977e-06
 -5.9516157e-04
  1.4706965e-06
 -7.0246330e-07
 -1.5751613e-05
  3.1067906e-05
 -5.0138980e-05
 -2.6251003e-04
  2.7451381e-02
  1.5376889e-04
  6.8137574e-06
 -7.9503043e-06
  2.3067061e-07
 -1.5439019e-03
 -6.8219542e-06
  2.8079003e-06
  1.4763473e-05
  3.0938030e-05
  8.6315052e-04
  1.6705093e-01
  9.1530528e-05
 -1.8427536e-05
  1.2293807e-04
 -4.5538363e-06
 -4.9591717e-06
 -9.5450068e-06
  1.1385191e-04
 -3.5366991e-06
  2.4498199e-01
  7.0900310e-06
  2.4188068e-05
  5.5147425e-06
  1.0341397e-07
  2.0292425e-04
  3.0100136e-05
 -4.8060242e-06
  1.4421864e-05
  6.7844610e-07
 -2.9254460e-04
 -3.0117196e-06
  6.1189617e-06
  1.5942611e-04
  2.2165227e-04
  1.6289204e-02
  3.0758012e-05
 -7.6580591e-06
 -1.0505666e-07
 -4.8419611e-07
 -4.7657986e-06
 -2.0107874e-01
  2.0399179e+00
 -1.3628441e-05
 -1.3155625e+00
  1.0192182e+00
 -2.1712096e-05
 -3.4030902e-06
  1.0750660e-01
 -1.5394904e-01
  7.6000556e-02
  1.2754305e-06
 -4.1808435e-06
  2.6337013e-01
 -1.0672691e-01
  1.3662279e-03
 -1.5582555e-05
 -1.5846972e-05
  3.9653218e-01
  1.9536902e-01
 -1.2437805e-02
  5.4553570e-06
  1.4194256e-05
  1.3749212e-01
  4.5919579e-01
  3.1343937e-01
 -1.7982378e-04
  3.7478014e-05
 -2.0600904e-05
 -3.7930688e-05
 -1.2518598e-01
 -3.1553259e-01
  1.2617579e-05
 -2.9994522e-05
 -4.6967438e-07
 -1.5612524e-06
  8.7412291e-06
 -8.3038158e-06
  2.3754371e-06
  6.0272396e-06
 -1.0466310e-06
  4.3439880e-07
  9.6122658e-06
  5.0964274e-05
  1.5694954e-05
 -1.2860577e-06
  4.1998669e-06
  1.0916147e-05
  1.7654973e-07
 -8.8068125e-05
  3.3229790e-06
  1.7268854e-06
  3.5457097e-06
  3.6831711e-06
  6.8754789e-06
 -2.8720444e-05
 -1.1706647e-05
 -1.8089333e-05
 -5.3213058e-05
  6.2761028e-05
  1.9741217e-06
  7.2257071e-06
 -6.6764674e-06
  1.4170755e-06
 -7.5501198e-06
  6.0456463e-05
  2.9659413e-06
 -6.9224748e-06
 -6.7543799e-05
 -2.2475708e-06
 -1.0742348e-05
 -1.1624734e-05
 -1.0703950e-06
  2.5301775e-05
 -2.2762733e-05
 -2.6712385e-05
 -3.5898960e-05
 -1.2819223e-05
 -1.0808123e-05
 -2.1550588e-06
 -2.9107043e-06
 -9.2912987e-06
  3.0134220e-06
 -8.1795642e-06
  4.3792384e-06
 -9.1007278e-06
  6.0463630e-05
  2.0070843e-06
 -2.7448623e-04
 -6.7342371e-06
 -6.2264035e-06
 -1.7510129e-04
 -9.3457180e-05
  1.8120991e-05
  8.9666228e-06
 -1.3116197e-05
  9.7562156e-07
  1.2614826e-05
 -1.2501813e-07
  3.1579398e-06
  3.5501319e-06
 -3.2533560e-05
 -1.0659132e-05
  1.9373035e-06
 -1.5837190e-07
 -4.1107960e-05
  8.0474892e-06
 -3.7469079e-06
 -4.7095641e-06
  1.7437576e-05
  4.5682245e-06
  4.8258924e-05
  1.0793931e-05
  2.6829566e-06
 -2.3001223e-05
  7.2927792e-06
 -9.1688190e-07
 -6.9761086e-06
  8.6646332e-06
 -2.2936540e-05
  6.4392530e-05
  3.2381085e-06
  1.3491163e-07
  5.7733534e-05
 -8.3400773e-06
  1.4606318e-05
  9.2489063e-06
 -8.0892114e-06
  5.2485548e-06
 -5.7104621e-06
  3.1242616e-05
  1.5901382e-05
 -1.4466339e-05
  2.1191483e-05
 -6.9400317e-06
 -1.6268426e-05
  1.0471877e-05
 -2.3282522e-05
 -1.0377163e-05
 -4.0988944e-06
  3.9427588e-05
 -9.1118329e-07
  7.6959759e-06
  2.9196573e-05
  1.3622115e-05
 -2.1757020e-05
 -1.3222046e-05
  9.7722677e-06
  4.8222178e-06
 -7.1568734e-06
 -2.5731392e-06
  7.9596698e-01
  9.4339329e-01
 -7.0032311e-06
 -1.8342049e-01
 -1.1119064e+00
 -3.8417302e-06
 -7.6593587e-06
  1.0628277e-02
 -6.4781797e-01
 -5.5999261e-01
 -1.2717030e-05
 -2.0411015e-04
  1.5231282e-01
 -2.6831269e-01
  9.1214605e-02
  1.3683220e-05
 -6.6677091e-04
  3.8133645e-01
  3.4383944e-01
 -8.1030063e-02
 -1.3533534e-05
  3.5661815e-05
  2.2631492e-02
  3.2267973e-01
  4.3259123e-01
  3.4506371e-05
  1.1668110e-05
 -6.7432643e-06
 -5.6347144e-05
 -1.6009861e-03
  1.5336131e-05
 -8.4152070e-06
  2.6746964e-06
  2.2855487e-05
 -4.8130296e-06
  7.1516598e-07
  8.5259544e-06
  3.1449381e-05
 -6.6831149e-06
  7.4117764e-07
  1.0627068e-06
 -1.5401312e-05
 -5.4871161e-06
 -1.3854669e-05
 -2.8643851e-06
 -5.4305892e-06
  4.6320500e-07
 -1.1420561e-05
  7.4244572e-06
  1.9391582e-04
 -1.6890053e-05
 -1.5963600e-05
  3.9718278e-05
  5.2687155e-06
 -9.3425870e-06
  2.0366444e-06
  1.8667214e-06
 -2.3139671e-06
 -5.6430049e-06
 -5.9432336e-06
 -1.3571925e+00
 -2.7932132e-05
 -1.5842765e-05
 -5.2473581e-07
  1.1182143e-01
 -1.4013053e-05
 -4.4965013e-06
  1.3936566e-04
  2.5070291e-02
  2.3891403e-01
 -8.9111916e-07
  2.4794172e-06
 -8.3716196e-04
  3.1448439e-05
 -5.6600063e-03
 -5.0967678e-06
  1.3918704e-05
 -5.4682703e-03
 -7.7223114e-05
  3.3001134e-01
 -8.9188288e-06
 -4.0815164e-07
 -1.2897258e-04
 -2.5461536e-02
 -6.0056414e-02
  5.5828955e-06
  5.5267883e-06
  1.9721707e-05
  6.4930364e-06
 -3.0082390e-06
  3.7767608e-05
  3.4142991e-05
 -3.4222653e-06
  6.4093138e-06
 -1.8714714e-05
  1.2693312e-05
  6.9935152e-07
  5.5946070e-06
 -1.2527445e-05
  1.8164452e-05
 -1.9904269e-06
 -2.6524303e-05
 -1.4513506e-05
 -1.0819860e-05
  4.5252487e-04
 -1.9065973e-04
 -6.2630431e-07
  1.6159935e-05
 -8.8780371e-06
 -2.2029021e-06
  1.3175735e-06
  4.9272825e-05
 -3.1942262e-05
  1.0475700e-04
 -1.4916125e-06
 -2.5442694e-05
  1.5154638e-05
  4.2854513e-06
 -2.3346115e-06
  1.9560910e-05
  7.4880904e-01
 -6.4786041e-01
 -2.8023773e-01
  2.7057753e+00
 -3.3549824e+00
  6.3676716e-06
 -8.5023629e-07
  1.1949631e-01
 -3.6100581e-02
  2.1209943e-01
 -1.9184579e-06
  1.5332760e-05
 -4.9208179e-06
 -2.1915821e-02
 -1.2687412e-05
 -8.6481523e-06
 -1.1256854e-04
  1.7578530e-01
  2.7744174e-02
 -1.3061528e-01
 -2.9454477e-06
 -2.9324895e-06
  5.3830147e-02
  2.9604372e-01
  3.3473432e-01
 -1.4651547e-06
 -1.6566783e-05
 -2.8096832e-05
  5.3818558e-06
 -9.8676574e-05
 -2.6347487e+00
 -8.7209493e-01
  3.3508816e-06
  1.2833972e+00
  1.0648742e-01
  1.1578636e-05
  1.4630888e-05
  7.0897528e-05
  1.5038899e-01
  6.0626322e-01
 -1.2660638e-05
 -9.1947022e-06
 -1.2131116e-01
 -5.1798263e-05
 -1.7631213e-01
  1.5580794e-05
 -5.4514618e-05
 -1.3300946e-01
 -1.2172028e-01
  3.1686734e-02
  2.5749403e-06
 -4.8976190e-06
 -1.6235545e-02
 -3.7301943e-01
 -6.8475142e-02
 -2.3170911e-05
  2.8272650e-06
 -2.4544677e-05
  2.3732357e-05
  6.2181248e-04
  5.3347532e-05
 -7.7028540e-07
  1.1493236e-06
  3.4769593e-05
  9.0104697e-07
 -1.5292091e-05
  9.6437452e-07
 -3.6245472e-06
  7.6434053e-06
  5.3030817e-05
 -3.1599640e-07
 -7.5184153e-07
  2.5314554e-05
  7.7510385e-06
  1.9336485e-05
  4.5333250e-05
  2.3151563e-06
  4.8081633e-06
  2.9821775e-05
  1.0272000e-05
 -5.0944317e-07
  3.8145918e-06
 -1.2567885e-05
  3.9698584e-06
 -1.7870303e-05
 -6.3213429e-06
 -2.4791518e-05
  1.7690689e-05
 -1.2916702e-06
  5.2543569e-06
  4.9716004e-06
 -9.9665758e-06
  6.7901315e-06
  2.2864375e-09
  1.4849212e-05
  1.9036119e-06
 -2.4841772e-06
 -7.4628078e-06
 -3.4525343e-05
 -3.3334563e-06
 -1.1860788e-05
 -5.8094593e-06
 -2.2293547e-05
 -5.7815423e-06
  2.0491916e-05
  1.2059366e-05
 -3.8722315e-05
 -4.0904911e-06
 -5.0914473e-06
  1.5847128e-05
  1.0458313e-05
 -4.3791442e-06
  4.4351850e-06
  7.7859513e-06
 -3.1279041e-07
  6.3566854e-06
  6.0923562e-06
  3.6877768e-07
  5.7471357e-06
 -1.6365750e-06
  3.0982981e-05
  1.2695442e-05
 -2.2978329e-06
 -1.7784070e-05
 -2.3743403e-05
 -3.0221338e-05
  8.9563488e-05
  8.9571104e-06
 -2.1646440e-06
 -2.9970772e-07
  1.7128834e-05
  1.3860177e-06
 -1.3037062e-05
  6.7996052e-07
 -4.1405606e-06
  1.6353023e-06
  8.6848886e-06
 -1.2586083e-06
  6.4354208e-05
  5.2485046e-07
  7.8188668e-07
 -3.2730650e-06
  2.7340820e-06
 -2.8728648e-06
 -1.3529251e-05
 -5.6797253e-06
  6.7979568e-06
  1.1187421e-05
 -3.1036625e-06
 -3.5726018e-06
 -2.0600392e-01
 -3.2579696e-01
 -7.5921262e-06
  6.2290303e-05
  1.3631448e-01
  1.1147148e-05
  1.3950503e-06
 -5.8612965e-02
  1.0960294e-03
 -6.7464307e-02
  6.8038047e-05
  2.5798824e-06
 -2.0774000e-04
  1.2576122e-05
 -1.3298840e-06
 -8.2314154e-06
  2.1320932e-06
 -7.6358281e-02
  3.5426201e-05
  1.7583560e-02
 -2.3620591e-06
  2.6326919e-07
 -1.0758970e-03
 -3.6897117e-04
 -2.9665187e-02
 -7.6474817e-06
  6.3999473e-06
 -3.8474383e-07
  5.1892930e-05
  3.3817847e-05
  1.3409546e-04
  3.7331307e-07
  3.6822019e-06
  3.3727728e-04
 -3.1053426e-06
  8.6979881e-06
 -2.7892572e-06
  6.3189832e-06
  4.7652543e-06
 -2.3282913e-05
 -9.3862509e-05
  1.1823637e-05
  2.9339226e-06
 -3.7191847e-05
 -1.9704537e-06
  2.3548919e-05
  2.2295051e-06
 -1.5029934e-06
  2.4343422e-05
  2.3559544e-02
  1.3996917e-06
  8.4440881e-06
 -7.2170224e-05
 -9.7456388e-05
  3.8618644e-05
 -6.8755448e-06
 -1.3763382e-05
  1.6312124e-06
  6.9253986e-07
  3.7167387e-04
 -1.7491849e-06
  1.1552310e-06
 -2.4185304e-06
 -4.7644999e-06
  1.5254419e-05
 -9.7034754e-06
 -2.3394099e-05
  3.6801705e-06
  8.7825611e-06
 -2.6897813e-05
 -4.9892983e-06
 -3.2986599e-04
  3.2966393e-05
 -2.7979634e-04
  9.5612004e-06
 -8.0284808e-06
  4.5206057e-06
  3.9850524e-06
  5.0219016e-05
  1.8359844e-06
 -9.8023031e-07
  3.0945375e-05
  5.4319744e-06
 -2.3387142e-06
  2.5342856e-06
 -1.2548464e-05
  3.5926839e-06
 -1.7276991e-06
 -4.7399631e-06
  6.8647305e-06
  5.6035598e-05
  1.7284276e-01
  6.8586729e-07
  9.0575541e-06
 -1.3548180e-02
  1.8713217e-06
 -1.2990995e-05
  8.4940300e-05
 -3.2223500e-02
  5.7268625e-01
  4.7397075e-06
 -1.5006232e-05
  5.9291771e-05
  2.4771889e-05
 -1.2485400e-05
 -1.4381592e-05
 -7.2898865e-06
  8.7727531e-06
  9.4241432e-06
 -8.1595454e-06
  1.8458202e-05
  3.0668000e-06
  1.2643436e-04
  1.6153119e-05
  2.7770839e-05
 -4.2763018e-06
  1.1203591e-05
  9.3756884e-05
 -8.0490227e-06
  2.0102077e-06
 -2.4819251e-06
  3.9427919e-06
  2.8932152e-05
  3.3848667e-06
  8.4160373e-02
  3.1251845e-06
 -2.2721559e-05
  1.2470159e-05
 -9.8038720e-07
  1.3134096e-05
  2.6437743e-05
 -1.2760931e-04
  7.0015467e-06
 -1.5987593e-05
 -2.9768676e-06
 -4.8185439e-06
 -1.0110329e-05
 -3.5058501e-06
  1.9935671e-06
  3.3648287e-06
 -4.2264459e-05
 -1.4958129e-05
 -1.5630754e-06
  1.3524924e-05
 -2.8775155e-06
 -1.0023537e-05
  7.8160252e-07
  2.9701155e-06
 -5.7783313e-06
 -2.2537202e-05
 -1.9228160e-04
  7.4453123e-07
 -4.3452924e-06
 -5.5862461e-06
  8.1018763e-05
 -8.1125118e-06
 -1.2717446e-05
  3.0508770e-06
  2.1687389e-05
  3.6933881e-01
  4.0782052e-05
  4.5123575e-06
  2.8454720e-05
  2.5974734e-05
 -9.3028761e-02
  7.4694013e-05
 -2.4703138e-05
 -3.6433244e-07
  6.3105858e-06
 -3.4133559e-06
 -1.5806660e-05
  1.1844507e-04
 -1.0318870e-05
  4.9828623e-06
 -6.3365005e-06
 -7.6840624e-05
 -2.9104424e-06
 -8.6283435e-06
 -8.3667182e-06
  1.1124861e-06
 -6.8983977e-06
 -2.6403937e-05
  4.5246029e-06
  2.0111625e-05
  8.9033829e-06
 -1.9420729e-06
  9.3878225e-06
 -9.5091800e-06
  4.1258507e-05
 -5.8082867e-05
  4.7167359e-04
 -3.9896572e-06
 -8.8572988e-06
  8.2601518e-06
 -1.9991321e-06
 -4.5704561e-05
  1.5649143e-04
 -2.3469005e-05
 -1.9028070e-06
  2.4092156e-05
  3.4523468e-06
  1.4859539e-05
 -1.8286291e-05
  7.5477906e-06
  2.4077885e-06
  9.0814019e-06
 -2.9861096e-06
  8.1865965e-06
  2.0733451e-06
 -2.1631970e-05
  1.4877856e-05
  2.6625115e-01
 -6.1834883e-04
  1.6778627e-01
  2.9667724e-05
  6.2051993e-07
  1.2102183e-01
 -3.2962212e-01
 -8.2390696e-01
  9.1363692e-01
 -2.6118349e-05
 -1.9894826e-05
 -1.6652401e-01
 -1.1041204e-05
 -2.2759226e-01
 -7.5850239e-06
  6.9417074e-02
  1.4421453e-01
  1.0097951e+00
  5.6819700e-02
 -7.2064126e-06
 -1.6697977e-05
 -1.2583668e-05
 -5.1969874e-01
 -2.9959065e-05
 -2.6817263e-06
  4.4702217e-01
  1.3081381e-05
  4.4389558e-01
  1.7000804e-05
 -1.0045269e-05
  1.8106166e+00
  5.3918957e-06
  1.0735441e+00
 -9.3676135e-06
  4.0133615e-05
 -8.8936478e-01
 -9.3865031e-01
  1.6671691e+00
  2.9751756e+00
 -9.1711417e-02
  1.2385483e-06
 -2.7010763e-01
  1.3539303e-05
  2.1794267e+00
 -1.0655620e-05
 -1.2275035e+00
  3.8579503e-01
  2.7944696e+00
 -3.3435943e+00
  6.8661652e-06
 -5.1887626e-05
 -4.2197253e-06
 -1.3093807e+00
  3.8872773e-07
 -1.7437047e-05
  1.0418203e+00
  1.4373351e-05
 -6.2460947e-01
  1.4632069e-08
  1.2236314e-04
  1.2737754e-05
 -5.8352125e-06
 -1.0011752e-05
  2.9442313e-06
  6.4912538e-06
  1.3942648e-06
  4.3180330e-06
  1.0596441e-05
  5.6472441e-06
 -1.3905336e-05
 -1.7569311e-05
  1.6970149e-06
 -1.0501702e-05
 -3.5241494e-06
 -6.7901487e-07
 -1.5610891e-05
 -1.7563453e-04
 -1.1584803e-05
  3.5594526e-06
  1.0276681e-06
 -1.9475041e-05
 -1.1308281e-05
  4.4921620e-04
 -1.4135106e-06
 -4.5190100e-05
 -1.8113927e-04
 -4.0378087e-08
 -1.0917061e-05
 -1.0265005e-05
 -4.0423343e-01
  1.6588851e+00
  2.0817485e+00
 -5.2418890e+00
  2.2544453e+00
 -6.2049075e-04
 -5.5592251e-01
  1.9688104e-01
  1.3545177e-04
 -3.1393549e-01
  8.5653387e-02
 -3.7749454e-01
  2.0171686e-03
  8.5430807e-01
  1.1774854e-05
  5.1153690e-01
 -2.7434054e-01
 -2.8323987e-01
 -4.3208891e-01
  3.9761044e-06
 -3.2980743e-01
  1.0963168e-05
 -2.6888189e-01
  4.3795779e-01
 -2.1072485e-06
  9.7641831e-05
 -2.8769966e-02
  9.2490939e-07
  3.4280736e-02
  8.7010676e-06
  1.1269704e+00
 -2.7560762e-01
 -3.4846923e-01
 -2.3940371e-01
 -1.5502243e-01
 -2.0449543e-06
 -3.6601844e-04
  3.0607656e-01
 -3.3958549e-06
 -5.9857097e-04
 -8.8855237e-02
 -1.8648858e-01
 -2.1892121e-05
 -4.3360397e-02
 -5.8155033e-06
 -5.7585761e-02
 -8.1454309e-06
 -6.0554920e-03
  4.2620026e-02
 -1.9544423e-05
 -1.3925423e-01
  1.4989306e-01
  7.4869572e-06
  1.8451045e-01
 -9.2083839e-04
  1.0722571e-05
 -1.8834551e-04
  4.7634439e-06
  1.3953462e-05
  1.0292783e-05
 -3.1755015e-05
  2.1550275e-01
 -4.5321090e-06
  4.4659484e-02
 -3.1321818e-01
 -1.7009492e-03
 -3.4593311e-01
 -5.1494148e-02
 -6.4244568e-01
  6.9062866e-04
  2.6854611e-04
  5.1685143e-05
 -3.1441788e-05
  1.8163119e-03
 -3.2956930e-05
 -9.0323905e-05
 -6.1127788e-04
  1.0734770e-04
 -2.0289527e-01
  1.7929868e-05
  3.3519638e-01
  3.3621784e-04
  1.6700664e-05
  2.4439779e-04
 -3.0718149e-07
  3.4228699e-06
 -1.1585254e-05
 -8.9109571e-06
 -2.2914156e-04
 -2.8083719e-05
 -4.8328635e-01
 -1.2490782e+00
  2.3805809e+00
 -2.3110244e-01
  6.6157532e-01
 -7.9055190e-02
 -1.5070188e-03
  3.3275798e-04
 -2.4562585e-01
 -1.4829080e-01
 -1.2675832e-01
 -1.1841851e-01
 -6.6113129e-02
 -1.0339509e-01
 -7.4669910e-03
 -1.6667651e-01
 -1.5880170e-01
 -1.4954144e-02
  5.5446500e-01
 -3.9390525e-05
 -2.3816243e-02
 -1.7786800e-06
  1.6206519e-06
  4.8150785e-02
 -5.5865287e-03
  1.4585721e-05
  1.4620329e-05
 -8.1483704e-05
  2.6222772e-06
  1.1227313e-05
 -1.5074875e+00
  3.3348680e+00
 -3.1698981e-01
 -2.1951673e+00
  4.0044054e-01
  7.6385409e-02
 -9.3655065e-02
 -2.3325352e-02
 -2.7526596e-03
  3.6954454e-01
  5.6118172e-01
  6.4565527e-01
  6.6629809e-01
  2.8691071e-01
  4.0119690e-01
  1.8481024e-01
  1.5685454e-01
  1.9480495e-01
 -2.6502344e-01
  1.1886885e-01
  9.8554987e-01
 -1.0311792e-01
  7.5623226e-01
 -5.8430076e-02
  6.8351555e-01
 -6.6485093e-04
  1.4900394e-01
  2.5157735e-05
 -1.1724219e-06
 -1.3099849e-04
 -2.4119703e-05
  1.1799706e-05
  5.8608530e-06
  1.0862470e-06
  1.4093520e-05
  2.9131698e-07
  4.3000682e-06
  3.0011490e-05
  1.9293698e-04
  5.0925119e-06
 -2.3077098e-07
 -1.4761094e-05
  1.9234261e-05
 -6.3866905e-06
 -4.5942093e-06
  9.5017058e-06
 -4.2748403e-07
 -4.0552899e-05
 -1.1036565e-01
  1.8660592e-04
 -3.9545039e-06
  4.5481552e-06
  1.1218132e-05
  2.5672045e-05
  2.3273127e-05
  1.2462739e-05
  1.5720079e-07
  7.3941460e-06
 -2.6960097e-06
  4.4358032e-07
  1.5699165e+00
 -8.1350580e-03
  9.6220440e-01
 -7.0440525e-01
  1.3629109e+00
  4.4800690e-05
  2.4869779e-01
  2.9156154e-01
 -1.7573087e-01
 -2.7167642e-01
 -1.5729856e-02
 -3.3595306e-01
 -1.2093490e-06
 -1.0058539e-04
 -6.1597013e-05
 -1.0123509e-01
 -2.0584426e-05
  1.0570874e-01
  1.3642280e-01
  6.7746832e-06
 -3.0024624e-01
  7.0564002e-01
 -5.6150198e-01
  1.5774198e-02
 -2.7166012e-01
 -3.2389448e-07
 -3.0244251e-03
 -3.0539235e-05
  2.7791240e-05
  6.9057984e-05
  9.9098870e-06
  2.7857432e-06
  2.5831996e-06
  8.0484870e-06
  3.9877773e-06
  1.1148083e-05
 -8.7425690e-07
  2.3314455e-05
 -2.7890110e-07
  3.0145491e-05
  8.0862796e-05
 -3.7553731e-05
  1.5269592e-05
 -9.9817080e-06
 -1.5234588e-05
  2.2289053e-06
 -1.4262879e-05
  1.6965947e-06
 -1.8134186e-05
 -7.1511372e-06
 -8.4917556e-06
  5.2810346e-06
 -7.1174668e-06
 -4.4949626e-05
  1.0449354e-05
 -3.2854045e-06
 -4.2194933e-05
 -7.3148954e-06
  4.4448834e-06
  1.6406006e-05
 -4.4296030e-05
  1.0960484e-05
  2.9781194e-02
  2.4237472e-05
  9.9673507e-06
 -1.8670689e-06
  1.6533842e-04
  1.3443624e-05
 -6.3861939e-06
 -1.4299832e-04
  7.0799280e-05
 -5.8465298e-06
  4.0261089e-06
 -2.4347233e-05
  2.8807252e-05
 -1.1976111e-05
  1.6533969e-06
  3.4332490e-06
 -4.3862080e-04
  1.3764815e-06
  2.7967344e-05
 -2.6431246e-06
 -1.8800089e-05
  2.6235232e-06
 -5.6536587e-06
 -2.2165681e-05
 -7.5394905e-07
  1.6422380e-05
 -5.1945253e-06
  3.9483998e-06
 -4.1907898e-01
  2.2354195e+00
  1.3428255e-02
 -1.8448865e-01
  5.9074759e-05
  1.8501404e-06
  3.7097774e-04
 -2.6963107e-04
 -1.0366417e-02
  1.0024319e-02
  9.0796930e-06
 -6.0285561e-07
  1.7262320e-06
 -2.2170118e-06
  1.3536327e-02
  3.5637209e-01
  3.9311510e-02
  4.2049520e-02
  4.6131051e-01
 -5.3478923e-04
  8.2003075e-01
  7.6207728e-04
  2.2993036e-04
 -6.2507602e-06
  8.0578297e-02
 -2.8402062e-06
  7.3085113e-07
  1.0365590e-04
 -1.5355870e-06
  1.0253714e-04
 -9.0553840e-06
 -3.6102501e-05
 -1.6758077e-06
  3.8499371e-07
  2.5237084e-06
  1.9195119e-05
 -4.7253425e-06
  4.5926332e-05
  4.7307626e-06
 -4.4936041e-05
  2.2808341e-05
  6.1336568e-06
  4.0532050e-06
  4.0086798e-06
 -3.3162297e-07
  7.7132836e-06
  1.1768107e-04
  1.0825065e-05
 -4.0752270e-06
 -1.8901876e-07
  8.7049229e-06
  1.3414573e-05
  1.3635276e-05
 -1.2655795e-05
  1.4253751e-05
 -7.9065267e-06
  3.2223226e-05
  3.5211160e-05
  2.3682007e-05
  4.0715322e-06
 -2.2892887e-04
 -4.0005943e-05
 -8.9341465e-06
  3.0521900e-04
  3.4453248e-07
 -1.8302630e-07
 -2.5949239e-05
  1.8445973e-05
 -1.0661408e-06
  1.8038129e-04
 -1.2566441e-06
 -5.8711576e-06
 -7.1100685e-06
 -5.6018584e-05
 -1.4778155e-04
 -2.4899352e-06
 -2.4177794e-05
  7.1155541e-06
 -2.7206312e-07
  2.0339419e-05
 -2.6660140e-05
 -2.9844890e-05
 -3.8445484e-07
 -7.7851446e-06
  1.4317782e-05
  2.2661441e-06
 -2.7478409e-06
  2.2076872e-05
 -2.5806895e-07
  1.5138479e-05
 -1.6670150e-05
 -1.3642380e-04
 -1.6911962e-04
  4.4400404e-06
 -1.5190894e-05
  2.7965648e-06
 -6.9384178e-06
 -1.7120103e-06
 -9.7622760e-06
 -3.4721688e-05
 -1.1875244e-04
 -4.4328087e-07
 -2.8013368e-04
 -1.3896929e-06
  1.6578019e-07
 -1.5832327e-07
  1.2091097e-05
  3.6633730e-06
  6.4114734e-06
  9.0522362e-06
  2.4667052e-05
 -6.7330795e-05
 -2.9131145e-06
  3.8702806e-06
 -9.2364951e-07
  8.9608602e-06
 -2.2600461e-03
 -3.1173528e-05
  4.2571983e-06
 -4.2263096e-06
  4.0781879e-06
 -8.1835078e-06
  4.9088630e-06
 -5.2275285e-05
 -8.1069111e-06
  1.9374036e-06
 -4.0251656e-05
  1.1962758e-05
  1.0569834e-05
  1.0618402e-04
  2.2781973e-05
 -1.1490787e-04
 -2.4652283e-05
 -9.5629557e-06
 -5.0886683e-06
 -3.0606700e-06
 -1.2407229e-05
  1.1484482e-05
 -2.5263178e-05
 -2.0593012e-05
 -5.7280063e-06
 -1.9144047e-05
  1.2235318e-05
  1.5914913e-05
  1.4069645e-05
  3.1256664e-06
 -1.2427717e-05
  1.5077160e-06
 -3.8875382e-06
 -1.4213618e-05
 -2.3190116e-06
  2.6455934e-06
 -3.1190614e-06
 -4.6189371e-06
 -9.9072959e-06
  7.0318754e-07
 -1.1599506e-06
 -1.0278211e-04
 -3.4600814e-06
 -6.2863196e-06
 -1.6610382e-05
  1.6444075e-04
 -2.0028941e-05
 -8.0035568e-07
 -2.7618398e-06
 -1.2203132e-05
 -3.9311653e-06
  2.0113546e-06
 -6.5692957e-06
  2.3231010e-07
  1.4678634e-06
 -2.7503372e-06
 -5.7243519e-06
  7.5316043e-06
 -6.6394641e-06
  9.3056514e-07
  3.5551045e-06
 -2.2028260e-06
  1.0732560e-05
  1.4101275e-05
  4.9672028e-01
 -8.3509064e-01
  1.2152208e+00
 -3.8849571e-06
 -4.6431828e-01
 -1.9284613e-02
  7.5036514e-01
  2.5912977e-03
 -6.9478832e-02
 -1.2747534e-01
 -2.0406735e-03
 -3.6391422e-01
 -9.6254716e-06
 -6.8455443e-02
  1.8030840e-05
 -2.1794322e-03
 -2.1048139e-04
 -7.0075068e-05
  4.1601270e-01
 -3.0868655e-06
  9.9444274e-05
  1.1127069e-01
 -1.1453487e-04
  1.2012234e-01
  6.8161089e-06
 -3.5492433e-06
 -2.1356493e-05
 -2.5923337e-05
  4.4105156e-05
  3.0009727e-05
  6.8425243e-07
 -8.6937598e-07
 -3.5180676e-07
 -1.6321035e-05
  1.7583676e-05
 -9.3486636e-07
 -2.0788318e-06
  2.7627987e-06
 -7.2812227e-06
 -5.2268970e-06
  1.6771710e-05
  3.2251643e-05
  2.6549069e-06
 -1.3853637e-05
  2.0086654e-06
  9.5509367e-06
 -3.2088794e-06
  6.1644550e-04
  5.7574266e-06
 -8.7557666e-05
  3.2872410e-06
 -5.3829157e-05
  1.0698938e-05
 -3.7129462e-06
  1.5436113e-07
 -8.2581892e-06
  1.4518673e-04
 -6.0012849e-07
 -8.5207699e-05
 -2.6792284e-05
  8.2652724e-07
  1.2203880e-06
  1.9296103e-05
  1.6775978e-04
  4.3395999e-06
 -2.0615946e-06
 -9.2151510e-07
  1.1102539e-05
 -5.7817175e-07
 -1.3724355e-05
  3.6660492e-06
 -1.6256843e-05
  1.6548454e-05
 -1.3934133e-06
  1.6043174e-06
  2.7212800e-05
 -1.7142203e-05
 -2.5162149e-06
  2.4719188e-06
  9.0665435e-06
  6.8878944e-06
 -3.5990006e-06
  6.5901895e-06
  5.3288881e-05
 -1.2133109e-05
  5.3388758e-06
  8.1890494e-06
 -1.3691550e-05
 -1.5226971e-05
 -8.7469789e-06
 -1.5230387e-01
  1.5776248e-05
 -4.7399049e-06
  2.1033568e-04
 -6.6132220e-06
 -6.9667008e-06
  1.8402727e-05
 -2.9042534e-05
  1.3161779e-04
  6.5299146e-06
  6.8910899e-06
  1.2913341e-06
  1.1228352e-05
 -8.4355257e-08
  2.7086305e-06
  1.6103934e-02
  7.0569049e-06
  1.1641973e-06
  1.0213954e-06
  1.5708298e-05
 -1.5884756e-06
  1.6525171e-05
  3.3579254e-05
 -9.3834706e-06
  9.2983391e-05
 -1.1543762e-04
 -8.0444133e-06
 -2.3907935e-06
 -4.1946064e-04
 -3.1776442e-06
 -1.9400493e-05
 -3.9713077e-06
  4.0546962e-07
 -1.2268189e-05
  9.9508418e-07
 -5.7152656e-06
 -3.2970973e-05
 -3.2454889e-07
 -2.0588690e-05
 -2.7547037e-06
 -1.3167624e-04
 -1.1549371e-05
  8.3199766e-06
  2.2900037e-06
 -2.2685061e-04
  1.2203887e-05
  4.6156565e-06
 -5.7868633e-06
  2.0035845e-06
  1.6693447e-07
  5.3807806e-05
 -4.9800815e-06
 -8.6512100e-06
  5.2166074e-06
 -9.0164958e-06
 -1.3238547e-05
  2.2008667e-06
 -2.6541329e-06
  4.4807757e-06
  3.1526588e-04
 -8.2834458e-06
 -5.3191041e-05
 -4.2091433e-05
  1.3174098e-05
  4.5602030e-07
 -1.4656877e-05
 -2.9497735e-06
  4.6076543e-06
 -6.5851826e-05
  2.1139576e-05
 -4.9251685e-06
  2.3076416e-06
 -7.8158126e-07
  1.3176492e-05
 -3.4653589e-05
  1.1374022e-05
  7.9384699e-05
 -1.4815952e-05
  1.0606581e-07
 -1.4652356e-05
  2.1879907e-06
 -2.1221515e-05
  3.9407801e-06
  1.2356065e-05
  3.2708006e-06
 -1.9794663e-06
 -4.2276511e-06
  1.6924829e-05
 -6.3884718e-06
 -5.4241741e-07
  3.9277878e-02
  9.5526737e-01
  7.1371317e-02
  2.4108231e-01
  3.7541565e-01
  2.1566707e-01
  2.5011328e-01
 -1.7192036e-01
  3.1396313e-04
  2.8436527e-01
  4.8114413e-01
  2.6219890e-01
 -1.0369441e-04
 -3.6946440e-05
 -1.2965312e-06
  1.7250353e-01
  1.9394124e-01
  6.4769305e-02
  1.2466567e-02
  1.6826573e-04
  9.7906995e-01
 -1.1171702e-04
  8.8672226e-05
 -9.9127116e-03
  9.7007782e-04
 -2.6725062e-05
  8.6395587e-05
 -1.2227350e-05
 -8.6281146e-04
 -5.0486096e-06
  5.4321199e-06
 -1.5180555e-04
  1.4526267e-05
  1.1245769e-05
  7.5777220e-06
  3.0765415e-05
  2.3708371e-06
 -7.5494409e-06
  6.9784846e-07
 -5.6180829e-07
  1.9463141e-06
 -6.9840003e-06
 -6.1488950e-06
 -3.1041336e-06
  1.3832352e-05
 -2.9113382e-05
  5.7315133e-06
 -1.0261038e-05
  4.5020497e-06
 -5.5410008e-05
  2.1115300e-04
 -2.3042863e-05
  1.7505183e-05
  8.9470130e-05
  7.7258579e-07
  1.2679056e-05
  6.5759268e-06
  3.1856598e-06
 -4.4527364e-06
  5.8612818e-07
 -7.8189958e-05
 -1.1540818e+00
 -6.8672287e-01
  1.0609263e-06
 -8.9530241e-01
  5.2225887e-06
 -1.0374459e+00
  2.5393263e-06
  6.5988996e-03
 -5.7492249e-02
  4.3857737e-05
 -4.8953311e-06
 -3.6610677e-06
 -8.6817736e-06
  1.0920529e-06
 -7.9703063e-01
 -6.3659713e-06
 -6.2020636e-01
 -3.9858007e-01
  7.9806341e-05
 -3.6448333e-01
 -1.1107847e-03
 -1.7746359e-05
 -3.3591250e-01
 -2.1930125e-03
  1.0552294e-06
 -2.4400597e-05
  8.5144702e-06
  5.4510488e-06
  1.1281364e-05
 -2.8449449e-06
  6.5418737e-07
 -1.4517524e-05
  7.7644027e-06
 -1.4058513e-05
 -8.4553476e-06
 -1.4896817e-06
 -3.5303321e-05
 -5.4685297e-06
  1.8259078e-06
 -5.2837868e-06
 -8.2083388e-06
 -2.1879528e-06
  1.6017713e-06
 -1.3502113e-06
 -1.0136664e-05
 -6.1230341e-05
  1.1387995e-05
  1.1812333e-04
  6.9491152e-06
 -4.8329716e-06
 -9.4436773e-06
  1.6086957e-05
 -2.1752619e-05
 -2.8931436e-05
 -7.8008969e-05
  7.8042358e-06
 -2.3156615e-06
  4.9394275e-05
 -2.8154122e-05
  7.2363544e-01
  5.1247030e-01
 -3.5046402e-01
  2.1071461e-05
  3.7089014e-01
  8.0612554e-05
 -2.9244129e-05
 -1.2522951e-05
 -1.4802820e-05
  3.1016627e-03
  3.6197498e-06
 -3.7796667e-06
  5.2115379e-06
 -1.9443153e-04
  2.9399334e-06
  9.1735341e-02
  3.0341712e-04
  7.4168296e-05
  9.4049089e-03
  2.5467831e-04
  1.0707219e-02
 -8.4541261e-06
 -2.9007670e-06
 -7.9251011e-04
  1.0631329e-04
 -1.3217385e-05
 -5.4245497e-06
 -6.4186999e-05
 -1.0956612e-07
 -3.6241393e-06
  9.2574781e-01
 -2.2206618e-01
  7.0566103e-02
 -1.9018389e-05
 -5.3004321e-02
  4.7598303e-05
  1.2146714e-03
  7.9307213e-02
  3.6678117e-04
 -3.0922804e-03
 -2.2004803e-01
 -1.5631449e-01
  3.0487683e-04
 -3.0671656e-02
  9.8531046e-08
 -2.5968129e-05
 -2.4931260e-06
 -4.0284867e-06
  1.8856801e-03
 -3.2958560e-06
 -6.0790707e-03
  4.9537966e-06
  2.5774557e-06
  9.5878877e-02
 -6.6964503e-07
  1.4312210e-05
  1.7962672e-06
  3.0418342e-08
  1.6361730e-05
 -2.1030555e-05
  9.7768092e-01
  2.4038193e+00
  9.4600546e-01
 -2.7792318e+00
  3.5810449e+00
 -2.0315085e-05
 -1.0122005e-01
  1.6218723e+00
 -5.4413181e-02
 -1.2972872e-01
  9.6414597e-06
 -4.8042724e-01
  6.2723510e-04
  1.3400485e-04
 -7.0386428e-01
 -2.6490204e-02
 -2.4947400e-01
  2.3124310e-01
  8.4208447e-01
 -2.5853034e-05
 -7.4771088e-01
  8.6467426e-06
 -2.4215683e-01
  1.8320333e+00
 -2.1397154e-01
  5.6991260e-02
 -2.8849620e-01
 -1.9109511e-05
  4.7890827e-01
  1.8090617e-04
 -3.9407456e-05
  3.2581152e-06
 -1.7742725e-05
  6.6822678e-05
  1.0490415e-05
  1.0579965e-05
  1.9438039e-05
  5.3017578e-05
 -9.0649755e-06
  1.4008439e-05
 -7.2080526e-05
 -4.0728490e-05
 -1.1522215e-05
  4.7799431e-06
 -6.9555977e-06
  1.5228963e-05
 -2.5239899e-05
  2.7057848e-05
 -1.8839093e-05
  1.1662270e-04
 -4.1022191e-05
  1.8042943e-05
 -2.5206124e-03
  5.1719515e-05
 -4.4403831e-05
  8.9602408e-06
 -6.2710092e-06
  4.2311399e-06
  5.4407124e-06
  9.3719482e-06
  1.9679283e-06
  1.0501834e-02
  1.5454227e-01
 -6.8929720e-01
  2.0086728e-01
  5.1060212e-01
 -2.3010969e-06
  2.7634951e-01
  1.3665363e-06
  4.3414784e-06
  6.8415928e-01
 -4.5851064e-07
 -1.4973915e-01
  5.5212627e-06
  7.7761873e-03
  1.0058397e-05
 -5.0396714e-02
  1.3897952e-05
 -1.0750666e-06
 -2.4458525e-01
 -9.8452051e-07
 -7.9848196e-06
  1.9731186e-01
  1.3920134e-05
 -5.1477027e-01
  1.0352284e-05
  4.6950680e-01
 -4.3879014e-01
 -3.1201026e-01
  1.7312731e-03
 -7.0317219e-05
 -3.2466989e+00
 -1.5025842e+00
  1.8922822e+00
 -1.4267792e+00
  3.3759346e+00
  5.8600508e-06
 -2.0288239e+00
  3.5267672e-06
 -5.2475214e-05
  1.5845416e+00
  1.5888744e-06
 -1.1943610e-05
 -1.4696773e-06
 -2.9136717e-01
  1.6846074e-05
 -2.1931214e+00
 -2.4459566e-06
 -1.6717011e-06
  2.8617758e-01
 -1.1451417e-05
  1.5622172e-05
  1.6523325e+00
  1.2187054e-04
 -1.2250984e+00
  4.3296664e-06
  1.0685714e+00
 -1.5192537e+00
 -3.1263287e+00
 -4.2871180e-01
  1.2322568e-01
 -3.4250450e-01
 -3.3893768e-05
 -1.5663987e-01
  4.7094089e-01
  1.2036280e-03
  5.3647935e-02
 -1.5727318e-06
 -1.1225598e-01
 -6.1910415e-01
  1.0272881e-07
  4.2835924e-05
  1.3285010e-05
 -1.1416887e+00
 -7.3213464e-06
  1.4167829e-05
  1.1605489e-05
  2.7342421e-05
  2.3931643e-02
 -5.2998963e-05
  2.8204628e-05
 -6.2926042e-06
 -4.9036685e-06
 -5.3584154e-06
  4.4159700e-05
  5.5689266e-06
  8.2833081e-05
  2.1103708e-05
 -6.9613161e-05
 -2.2421422e-05
  7.2309258e-06
  1.5467780e+00
 -1.4527256e-03
  1.0266261e-03
  3.2737811e-05
  2.8227028e-01
  1.2170854e+00
  2.5881118e-05
  5.7965629e-03
 -2.4506253e-01
  3.7528336e-02
 -3.4821897e-03
  2.1103725e-02
 -1.8788759e-01
 -6.0165936e-01
 -2.4597368e-01
  5.4277259e-01
 -1.6322526e-01
  4.2577115e-01
 -5.6115019e-05
 -9.1707528e-02
 -2.5822723e-04
 -2.7930230e-01
  5.6045906e-07
 -3.1340790e-01
 -6.9539845e-02
 -4.9388305e-05
  7.1899476e-04
  6.7184615e-01
 -1.9493322e-01
  1.0007556e-05
  4.6560082e-05
  4.9432388e-06
 -3.5526107e-05
 -3.6344973e-05
  2.7969778e-05
  1.2213027e-07
 -3.8862981e-05
  2.2225511e-06
  9.7249122e-06
  2.0117285e-07
  1.5615673e-05
  9.4440809e-05
  6.7523055e-05
 -3.0239198e-05
  3.2109787e-05
  6.6572989e-07
 -4.5310971e-06
 -2.2196424e-05
 -3.1701657e-05
 -2.7447426e-05
  3.2732525e-05
 -5.6904664e-05
 -1.5448864e-05
  2.9757509e-06
 -7.1628947e-06
 -4.1840685e-06
 -3.5920530e-05
 -2.1340278e-05
  3.9991164e-06
 -3.2695450e-05
  1.3363565e-05
 -1.0223960e-06
 -1.9032732e-05
 -2.3433731e-06
  5.6909778e-07
  2.8867125e-05
 -2.8308809e-06
  3.6445246e-05
  2.2436725e-06
  2.6796406e-06
 -1.2659331e-05
 -3.4026123e-06
 -3.2964279e-05
  3.6121121e-05
 -4.2224703e-05
 -2.7019951e-05
 -6.8237110e-05
  4.7622484e-06
 -5.3549752e-06
 -3.6967383e-06
 -3.8354386e-07
  3.6455254e-05
  2.8896944e-05
 -6.5587769e-06
 -1.4419198e-05
 -6.1982769e-06
 -7.6793676e-06
 -2.5293110e-05
  2.9963774e-05
 -2.0182607e-01
 -1.5946802e-01
  1.8248889e-01
  8.6741555e-01
  1.3061152e-03
 -1.0129927e+00
  8.8006482e-02
 -1.0791161e-01
  5.1685780e-01
 -5.6018060e-01
  4.1561980e-02
  7.5335383e-01
  8.1902921e-02
 -4.5473358e-01
 -1.2602380e-06
  2.9718371e-06
  3.8767315e-04
 -1.2133603e+00
 -6.8864536e-01
  5.8918768e-06
 -1.4489129e-01
 -3.9567462e-06
 -2.2762294e-01
 -1.4536033e-05
 -3.1286262e-02
 -6.5931832e-05
 -6.2007431e-02
  1.6770656e-01
  1.6128337e+00
 -2.5676740e-03
 -3.2704254e-05
 -6.0503899e-05
 -4.1941163e-05
 -4.6347977e-06
 -2.2132559e-05
 -1.1826107e-04
  2.9828050e-05
  7.1269358e-05
 -3.3200279e-06
  4.6177382e-05
 -2.4060453e-05
 -1.3639466e-05
  3.4554359e-05
  1.5065934e-04
  1.4552688e-04
  7.1108065e-05
 -2.3565713e-05
 -5.1146664e-04
 -4.2964607e-06
  1.7160570e-06
 -3.3216980e-05
  3.1576794e-05
  2.2845314e-05
  8.1312064e-05
 -6.1686631e-05
 -1.0203800e-07
 -1.4579379e-06
  1.3617807e-05
  2.8696059e-05
 -8.8729676e-06
 -1.3894260e-05
 -5.2801150e-01
 -3.7035807e-05
 -9.6392805e-06
 -3.2689230e-05
  8.1206372e-06
  4.5005991e-06
  1.3861500e-05
 -3.9773709e-06
  2.4604566e-05
  1.9287178e-05
 -7.8568874e-06
 -6.7766841e-06
  1.4174037e-01
 -2.9640933e-05
 -7.0294473e-06
 -2.2510259e-05
 -1.0543015e-03
  1.5141895e-01
  1.1972084e-05
 -2.8980035e-05
  5.0833973e-05
 -3.5066820e-05
  5.8279755e-05
  1.2514816e-05
  1.2385081e-05
 -4.7641235e-05
  6.2042047e-05
  1.6949887e-05
  1.2251252e-05
  2.0210423e+00
  8.7567806e-01
 -3.7195107e-01
 -1.5899359e+00
  2.9484982e+00
 -3.9147162e-01
  6.3091211e-02
 -4.2240018e-01
  7.2863206e-02
 -3.9104007e-02
  1.2022640e+00
  8.1044056e-02
 -6.4172953e-01
  8.4356904e-01
  1.0962150e+00
  1.2823920e-01
 -2.5674379e+00
 -7.4094445e-01
  7.1724087e-01
  1.3082784e-01
  2.9466933e-01
  2.8635707e-06
  4.6439764e-01
  9.5937085e-01
  3.1603249e-05
 -1.3344162e-05
 -4.4639143e-01
 -2.2479308e-01
 -6.7642975e-01
 -1.0087273e-01
 -8.5277611e-01
 -1.3375694e+00
 -9.8765761e-01
  9.4758499e-01
 -9.2164779e-01
 -7.3338807e-02
 -1.7466725e-01
 -8.4169529e-02
  1.4062761e+00
 -7.3423773e-01
 -5.8512926e-01
  2.2063906e+00
 -4.6445485e-02
  2.4632616e-01
 -3.8022354e-02
 -3.7005675e-01
 -3.9615571e-01
  4.2066920e-01
 -1.3900577e-01
 -2.9582515e-01
 -1.8452553e+00
  2.9037294e-01
 -1.2013109e+00
 -1.2111268e+00
 -6.0072488e-01
  6.1252195e-01
 -1.9789332e-01
  1.9379431e-01
 -1.0835652e+00
  4.7351792e-01
  1.5903367e+00
 -2.2911626e-01
 -2.0270385e-05
  1.0043896e+00
  1.0809367e+00
 -2.7154246e-01
  1.8952088e-01
  1.7712399e-01
 -5.8554763e-01
  2.0032489e-01
 -5.8831227e-01
  1.4015741e+00
  8.9053619e-01
 -2.3602374e-01
  2.2133414e-01
 -9.1595626e-01
  4.0527329e-01
  1.6341893e-01
 -4.2442527e-01
  1.7129120e+00
  3.0563590e-01
 -5.1980978e-01
  3.7660649e-01
  1.3677768e+00
  1.1305754e+00
 -1.3377805e-02
  8.8535833e-01
 -1.5112646e-02
  1.4454459e+00
 -3.2342959e-05
 -5.3811818e-01
  2.3263443e-02
  1.1388216e-02
 -2.1225734e-01
  1.4640017e+00
 -6.7872679e-01
  7.4071163e-01
  9.8345339e-01
  5.1123679e-01
 -5.7946634e-01
  1.0653111e+00
 -4.0928982e-02
  3.9138767e-01
 -2.0692351e-01
  2.9743922e-01
  9.1118969e-02
  1.3791671e-01
  7.8524679e-01
 -4.5615414e-01
  7.8005695e-01
  9.0671337e-04
 -1.1375176e-04
  2.0662674e-01
 -4.1173759e-01
  5.3669059e-01
  1.1343713e-04
  2.5134109e-04
  2.0249106e-05
 -7.9182081e-02
  2.0584959e-01
 -5.9550957e-06
  1.8211589e-05
 -2.3432855e-05
  4.2429983e-06
  1.8886561e-06
  3.2500193e-05
 -2.2050268e-05
  2.3773186e-05
 -5.8158284e-06
  1.7157368e-05
 -1.1645118e-05
  7.8153817e-06
  3.1070658e-06
 -3.3947986e-06
  1.8645525e-04
  1.1657094e-05
  7.0467358e-06
  1.3942632e-05
 -2.5681593e-06
 -4.2627635e-06
  8.8618244e-06
  2.9732706e-05
 -1.4105058e-05
 -3.5907811e-05
 -3.2574651e-05
 -3.5785280e-05
 -1.3730907e-05
  3.8176997e-05
  1.1741684e-05
  1.2379641e-05
  2.5886965e-01
  1.1198378e+00
  8.4730957e-05
 -1.2476040e-01
 -1.6501895e-04
  1.0852976e-01
  7.1728244e-02
 -5.6444633e-01
  1.3501740e-01
 -8.9239433e-07
 -8.9297764e-06
  1.4894083e-04
  1.8196461e-01
 -1.2896681e+00
 -3.1438086e-07
 -5.5930982e-06
  1.5627962e-01
  2.0375385e-06
  4.8555985e-01
  1.9268955e-07
  3.8119502e-05
  4.3552182e-06
  5.8979866e-05
 -1.5296077e-06
  4.0604944e-05
 -1.3449863e-05
  4.8468763e-04
 -1.2428549e-05
 -3.0249825e-01
 -3.0010444e-04
  2.7623573e-01
 -7.1265757e-01
 -8.0389589e-01
  2.8274124e+00
  3.7027311e-02
 -3.0656105e-01
  7.2287358e-02
 -4.2868584e-01
  1.0185089e+00
  9.2463493e-02
  1.0457835e+00
  1.0912658e+00
 -7.5356168e-01
  2.3021243e+00
 -2.5619924e-01
 -9.4102815e-02
  3.1720704e-01
  2.5300708e-01
  8.2640809e-01
  1.2064556e-01
  5.7481194e-01
  6.0313355e-06
  2.0104335e-03
 -2.4440946e-01
  4.7366807e-01
  2.8537074e-01
  6.6956699e-02
 -5.4937482e-02
  5.3560850e-03
 -3.0384353e-01
 -1.7740690e-03
  2.3451014e-03
  1.2767941e-01
 -1.2948283e+00
 -1.1155764e-04
 -4.7531292e-02
 -4.2694498e-02
  5.1616323e-01
 -2.0798920e-01
  1.1885376e+00
  1.1729033e-01
 -1.8694822e-04
 -1.2582362e-02
 -1.1919739e+00
  1.0524015e+00
  3.6640370e-06
  1.2477153e-05
  6.8123802e-05
  1.1209013e+00
  2.9989412e-01
  4.4614012e-06
 -4.6915093e-06
  2.0352883e-04
 -1.4889915e-05
  6.6441478e-04
  1.0092612e-01
  7.8599616e-05
 -2.3423931e-04
 -8.0177546e-02
  5.6295520e-01
  8.1778812e-01
  6.3107568e-01
  1.0703948e+00
  4.8625952e-07
 -1.8859200e-01
  9.3954629e-01
 -1.1527027e-01
 -5.4490483e-01
  3.9115701e-02
  2.5653762e-01
  6.5640879e-01
 -2.4320795e-01
  4.4112054e-05
  9.1066277e-01
  1.3527212e+00
 -3.1675063e-03
 -5.0005251e-08
  7.1114358e-05
 -2.0411903e-01
 -5.2910400e-06
 -1.9801024e-05
  3.7628295e-06
  1.2053650e-05
 -2.8700420e-06
  7.7712641e-05
  2.8821084e-01
  2.0584432e-05
 -1.3841781e-05
 -1.0760638e+00
  1.5859114e-01
 -8.0483534e-07
 -9.4841060e-05
 -2.3057610e-06
 -3.4280027e-05
 -2.1466221e-05
 -1.7632039e-05
  7.5208438e-05
 -2.5732605e-05
 -1.3474034e-04
  7.4229497e-06
 -5.7342533e-07
 -6.3174972e-05
  8.0804839e-06
  6.6123604e-05
 -3.0196838e-06
 -1.2502210e-04
 -9.1778920e-06
 -2.9159897e-05
  3.7877860e-05
  1.6321818e-04
  2.5133351e-05
  1.6703154e-05
  5.5855162e-05
  1.1944873e-05
 -4.2441379e-06
 -8.1075314e-06
 -3.5274705e-05
  1.3821453e-05
 -4.3736753e-05
 -4.6807086e-06
 -1.7748958e-05
 -1.7342151e-08
  5.8594642e-06
 -2.7203163e-05
  1.8992670e-05
  3.2306958e-05
  2.1977601e-06
 -1.8883209e-05
  3.5147605e-06
 -7.7462528e-07
  3.7757312e-07
  8.6006206e-05
 -4.5629122e-06
  4.1998977e-05
  2.3521021e-05
 -5.1330990e-06
  1.8931345e-05
 -2.8316870e-06
  7.8124627e-05
 -3.1559189e-06
 -1.4942845e-04
  1.3112999e-05
  2.7707996e-05
 -1.6771974e-04
 -1.9228346e-05
 -3.8157677e-06
  1.3652474e-05
  3.6879926e-05
 -1.8952336e-04
 -5.7452617e-06
 -2.3106588e-01
 -5.9712493e-05
  3.5445923e-06
  2.2310121e-01
 -9.1885022e-06
  2.6258054e-01
  2.1225167e-05
 -5.9057093e-05
  1.1755833e-01
  1.5776158e-06
 -2.8610843e-06
  4.1987136e-05
  1.4119921e-06
  8.9479560e-01
 -2.4547246e-05
 -4.2010146e-05
 -3.9669176e-06
 -5.7985064e-05
  1.6878623e-01
  4.9591785e-07
 -1.8595130e-04
  3.1857612e-04
 -9.7644300e-04
  4.3609916e-04
 -1.8109308e-04
  4.3872483e-06
 -1.0582570e-03
 -8.8479428e-06
  2.4931603e-03
  8.9579116e-05
 -1.7799108e-01
  4.9766150e-01
 -3.0440548e-05
  4.1052585e-06
 -2.6959440e-01
 -1.4340004e-06
 -2.9581354e-03
  1.3331006e-01
  1.0048331e+00
  4.3325108e-01
  1.2510636e-06
  2.7216750e-01
 -1.4092512e-05
  1.2368491e+00
 -1.2648328e-05
 -2.4489651e-05
 -3.2267995e-05
 -2.0380618e-05
 -1.0678067e-02
  1.5213906e-05
 -1.9544716e-05
  2.9245950e-05
 -7.4624040e-05
  8.4846055e-05
 -5.7827510e-05
 -1.0020221e-05
 -5.4946391e-05
 -5.6166832e-06
 -5.9037998e-06
  2.7853708e-05
  2.5861402e-04
  1.0793507e-02
  1.0368982e-06
  2.4278756e-07
  9.9312474e-06
  2.8068982e-06
 -1.9539899e-05
  1.4281773e-05
 -2.3024701e-05
 -2.1902872e-05
  1.4348084e-05
  2.5521480e-05
 -2.9349610e-05
  5.7475927e-06
 -1.8037196e-07
  5.0268945e-06
 -2.7795941e-05
  2.8072005e-05
  2.2919363e-05
 -2.2469167e-05
  2.8407112e-05
 -6.5418599e-06
 -2.0835623e-05
 -9.7215898e-06
  9.4723546e-06
 -2.0145379e-05
 -1.2516823e-05
 -1.2951478e-05
  1.6708700e-06
 -5.7739608e-06
  1.8455741e+00
  8.6858058e-01
  8.0342859e-02
 -2.2189306e-01
 -9.5949844e-03
  3.6484310e-01
  4.1923782e-01
 -7.0847434e-01
  1.3429107e-01
 -7.7488425e-05
  2.3395933e-06
 -9.9652025e-05
  1.0150491e+00
 -9.5123851e-01
  4.1392227e-03
  2.8492619e-05
  2.1781443e-01
  3.8412664e-02
  5.8657207e-02
  3.8189626e-01
 -1.5152165e-05
  1.5973577e-05
 -1.3446248e-05
 -2.8082079e-01
  3.6101272e-05
 -1.6436970e-04
  1.0057699e-01
 -3.6344738e-04
  1.6745529e-05
  6.0239272e-06
 -1.2012958e-01
 -1.2944800e+00
 -2.0020220e-03
  1.2985754e+00
  1.3389660e-01
  1.3316040e-01
 -5.2858986e-06
 -6.3328862e-01
 -1.2596905e+00
  4.0773210e-01
 -5.5766940e-01
  1.3361397e-05
 -5.1130414e-01
  1.8120754e+00
 -2.3185720e-01
 -8.7513119e-02
  4.1223091e-05
 -4.4518265e-01
  5.5787987e-01
  8.4939124e-08
 -4.4878144e-03
 -4.4004823e-04
 -1.7390344e-02
  4.7931903e-06
 -7.1360861e-05
 -2.6262926e-02
 -1.1437012e-04
  2.4477655e-05
  1.0554201e-01
 -3.2158452e-05
 -2.0944383e+00
  7.8629023e-01
 -5.1123529e-06
  2.4359102e+00
  1.8238649e-02
  2.1993501e-01
  7.7137285e-01
  1.2548500e-01
  3.1113717e-01
 -2.6144117e-01
 -1.6504090e-02
  2.2486558e+00
  1.2953110e-01
  1.4494879e+00
 -1.3951388e-04
  6.6698676e-01
  1.6543241e-01
 -4.8364472e-01
  8.9079893e-01
  6.4412642e-01
 -1.2235261e-01
 -2.1777050e-06
 -2.3656236e-03
  2.5259498e-01
 -1.3348354e-06
 -1.1218379e-05
 -3.8775170e-01
  2.6372916e-01
 -9.5066592e-02
 -9.7077036e-06
  6.6870220e-05
  3.7449076e-06
 -1.2493912e-05
  2.6344647e-05
  4.3107011e-05
 -1.6013937e-06
  2.8815175e-05
 -4.5034994e-06
 -5.8566671e-05
 -1.0156847e-06
 -2.7601443e-05
  1.2798693e-06
 -1.4551289e-05
 -4.7948220e-06
  2.5276736e-06
 -2.5903660e-06
  3.1972391e-05
  1.1371297e-04
 -6.7762558e-05
  1.7877124e-05
 -1.3649141e-05
  1.7196626e-05
 -8.5065230e-06
 -1.2720470e-05
 -1.3585070e-05
 -6.9915236e-06
  3.9582136e-03
 -2.5035873e-05
 -1.3209103e-05
  1.8196384e-05
  8.7159663e-02
 -2.0613641e-01
  6.2528579e-06
 -1.1299607e+00
  7.1548903e-01
 -3.8750919e-03
 -1.3761629e+00
  2.3757239e-01
  2.4902818e-01
 -1.1131448e-01
 -9.2525043e-02
  1.2446716e-01
 -5.4669905e-01
  6.5328217e-01
  3.9495706e-05
 -6.9625072e-05
 -1.1899636e-01
  8.4579387e-06
 -2.2129519e-01
 -3.9417273e-06
  6.1826853e-05
  8.7849294e-06
  1.5971601e-01
 -5.9747872e-06
  6.7386143e-02
  2.8189952e-05
  1.4567963e-06
 -1.6254986e-05
 -6.0681629e-01
  3.5510343e-02
 -3.9212498e-01
  1.3238068e-01
 -8.4018158e-03
  1.7592730e-01
 -1.0731073e-01
 -9.5027149e-01
 -1.3627027e-02
  1.7704710e-01
  9.5979851e-01
  2.6790515e-02
  4.6971059e-01
  9.5810449e-01
  2.6051395e-03
 -2.9253131e-01
 -3.3005599e-05
  6.9772577e-05
 -1.5076443e-04
 -1.5467747e-01
  5.3022239e-02
  4.3207333e-06
 -6.9674619e-02
 -6.7365536e-06
 -6.1134459e-04
  5.7014811e-01
  1.3225214e-05
  3.4480308e-05
 -3.4723115e-01
  4.3548320e-05
  3.5574022e-01
 -1.3293737e-05
  1.2358014e-05
  5.2983642e-06
  1.1791209e-05
  1.1773126e-05
 -4.2362171e-05
  1.4739716e-05
 -6.5935914e-05
 -1.1762348e-05
  2.2472890e-05
 -2.6506132e-05
 -9.0935901e-06
 -6.6899293e-06
 -7.0861761e-06
  9.6290336e-05
  2.1822154e-06
 -1.0327247e-05
  1.8157169e-06
  3.4442232e-06
  3.5341422e-05
  8.3281593e-06
  1.5052006e-05
 -9.0776748e-06
  1.1788730e-04
  3.8048060e-05
  1.1956065e-06
  4.1386917e-05
 -1.3606666e-05
  3.8306302e-05
  1.2652087e-05
 -2.7679494e-05
  1.4213113e-05
  8.8561328e-06
 -1.1264077e-06
  3.2765103e-05
 -1.1375174e-05
 -2.6601614e-05
  1.0059975e-05
 -5.0051225e-04
  7.6708111e-06
 -1.5290546e-08
  5.5577621e-05
 -3.9864422e-06
 -8.1852176e-07
 -2.0649362e-05
  1.4780562e-05
 -3.0970237e-05
  1.8530422e-06
  4.8041056e-05
  3.2075975e-05
  1.0235171e-05
  2.1775892e-05
  3.1183547e-05
 -6.8198615e-06
 -1.4030574e-05
  2.4237581e-05
  2.5527053e-05
 -9.0774656e-06
 -2.6731598e-06
 -9.2882792e-06
  9.4732404e-06
 -1.9343944e-01
 -7.1218646e-01
 -1.3721423e-01
 -5.2181327e-01
  1.8959703e-02
 -1.6802999e-01
  4.9734290e-06
 -3.1093965e-04
  6.1653927e-02
  5.8538270e-01
 -1.3251473e-04
 -1.0636161e-01
 -4.9343690e-01
  5.3925431e-01
 -5.7229155e-01
 -3.0464094e-05
 -3.0839685e-06
 -2.2234924e-01
  5.6305975e-01
  9.1286449e-05
 -1.3758343e-01
  6.0459814e-04
 -4.2134885e-02
  3.1943082e-06
 -2.4730738e-03
 -1.4632380e-04
 -1.5998651e-01
  6.7563915e-06
  1.2053484e-02
 -6.2864739e-04
  5.6073016e-01
  1.1658062e+00
  1.8048770e-05
  3.4034585e-06
 -3.6085114e-01
 -2.6192882e-05
  2.0513822e-04
 -8.4121960e-01
  1.7929114e-03
  3.6275560e-01
  1.1529318e+00
  3.2719419e-07
 -2.8480661e-01
  6.0910344e-01
  9.8590368e-01
  1.3502814e+00
 -4.5440834e-06
  1.5222789e-05
 -5.2720469e-01
  8.8416627e-03
  5.2943713e-05
 -4.9032843e-01
 -4.7159266e-01
  3.0813655e-01
 -5.1230872e-06
 -4.7630975e-01
 -1.8210906e-01
  7.1115815e-06
 -2.7531798e-05
  1.8156929e-01
  8.5064697e-01
 -9.2504132e-01
  8.3211072e-02
 -5.6542820e-05
 -7.6610816e-01
 -1.4087737e-01
 -3.6632574e-01
  2.4513712e+00
 -2.0567617e+00
  1.8416245e+00
  1.9215542e+00
  7.5947692e-06
  5.4779834e-01
  1.8768461e+00
  7.8667015e-01
  5.4519367e-01
 -3.1961843e-06
  5.5567991e-05
 -7.1415275e-01
 -3.8661659e-01
 -1.8414787e-04
  6.3277602e-01
 -5.3045946e-01
 -1.8598201e+00
  7.1448434e-05
  8.2334340e-01
 -9.1791511e-01
  1.5104149e-05
  1.0519860e-05
 -7.4246436e-01
 -3.3713706e+00
  8.6156732e-01
  3.3450729e-01
 -6.3086450e-01
  5.3664124e-01
 -6.7596751e-01
 -6.2028921e-01
 -1.3486543e+00
  6.5028888e-01
  6.2308196e-02
  7.3555261e-01
  5.5647243e-02
 -7.1610235e-02
 -3.9350462e-06
 -4.7707901e-05
  3.5776481e-02
 -2.0764269e-01
  8.1654853e-06
  1.2387524e+00
 -1.8718122e+00
 -7.9893982e-01
  1.1575974e+00
  7.0734799e-01
  1.3644462e-02
 -1.5231019e-01
  1.0571166e+00
  6.2344754e-01
 -1.1987300e+00
 -2.3575559e-01
  1.4818713e-01
 -1.9526515e+00
  1.8838641e-01
  8.3258444e-01
 -1.0497576e+00
  5.8051592e-01
 -4.0351638e-01
 -1.4676274e-01
  1.1308768e+00
  1.1503011e+00
 -8.2238659e-02
 -7.9659615e-03
 -2.6992443e-01
  1.5016223e+00
 -1.1421920e+00
 -8.8904530e-02
  1.8784835e+00
 -1.2811314e+00
 -2.4873455e+00
  1.7112087e+00
  2.3735094e-01
 -4.4723287e-01
  1.5136800e+00
 -9.4206440e-01
  7.4178314e-01
  8.5390741e-01
  2.9967763e-02
 -5.6932133e-01
  2.1697016e-01
  4.7194636e-01
  7.9864645e-01
 -1.6523701e+00
 -7.8148222e-01
 -1.6677549e-01
 -2.1662960e+00
  1.1353279e+00
 -8.2205820e-01
 -1.6610268e+00
  2.6443854e-03
 -1.9928860e-02
  4.2715862e-01
 -1.4115536e+00
 -2.6799623e-02
 -1.3622947e+00
  5.3215915e-01
  8.8541329e-01
 -3.7160882e-01
 -6.0601983e-02
 -7.0130454e-06
  2.5682702e+00
  3.1019914e-01
  5.5651975e-01
  8.0657989e-01
 -6.1668158e-01
 -5.5247909e-01
  4.1361669e-01
 -4.2863387e-01
 -2.9797437e+00
 -2.7174637e-01
 -1.4551846e+00
  5.9193474e-01
  1.3374299e+00
  6.1141902e-05
  6.1017645e-06
  9.8974647e-07
 -9.9142358e-07
 -9.7166657e-02
  9.2238599e-01
  2.3975106e-05
  5.7836052e-05
  4.0118030e-01
 -5.3594029e-01
 -1.1838209e-01
  3.2404107e-01
 -2.3342925e-01
 -5.6736743e-01
  2.8569722e-01
  2.1545038e-01
  2.9075506e-01
 -9.6475360e-06
 -2.2376920e-01
 -2.0473557e-04
  1.4674045e+00
 -1.1718678e+00
 -2.8664217e+00
  6.8183833e-01
  4.5905726e-05
  3.0726215e-01
  1.1720890e-01
  3.1327963e-05
  2.8637060e-06
 -1.0840291e+00
  2.7395559e-02
  2.2942615e-04
  2.4621735e+00
  4.8421344e-04
  2.6317039e-01
  8.0230725e-01
 -4.1214421e-01
 -4.1393261e-05
  5.9429079e-01
 -7.4696645e-02
 -6.7103779e-01
  1.5605023e+00
  2.6168567e-01
  3.6582237e-01
  7.0108616e-01
 -8.5837543e-01
 -3.3614323e-01
  1.9556697e-01
 -6.0390824e-01
 -3.3696997e+00
 -5.8951393e-02
  4.9413857e-01
 -1.5595140e-05
 -2.0492195e-01
 -2.4864933e-01
 -1.7171246e-01
  1.1383671e+00
 -4.0302980e-03
  2.3789328e-01
  2.7154019e-01
  4.9273154e-01
  2.2321258e-01
  1.6365577e+00
 -1.1721089e-01
  5.7177401e-01
  2.1776780e-01
 -1.7072207e+00
 -2.1651788e+00
  1.7963479e+00
  8.2277739e-01
  1.2411786e+00
 -1.1908748e-02
 -7.8736675e-06
 -1.2639103e-05
 -2.3976231e-01
 -9.3953833e-02
  1.3323438e+00
  9.7277182e-01
  2.0940889e-02
 -2.9019672e-02
 -7.2005522e-01
 -9.8878454e-06
 -9.7421507e-06
 -4.2836182e-06
 -2.0096043e-01
  1.0516638e-04
  1.1344384e-01
  1.1096067e-06
 -4.8918778e-06
  2.0277485e-05
  4.3787891e-06
 -1.7574579e-05
 -1.0273684e-05
  1.0962937e+00
  3.3010179e-01
 -9.0105963e-01
  1.0467230e-04
 -1.9784706e-05
 -4.7712030e-05
  9.6920930e-06
  2.0065428e-04
 -1.0843952e-05
 -1.4161903e+00
 -3.8591984e-01
 -1.0036336e+00
  6.9251612e-02
  6.1381827e-05
  9.5944792e-01
  4.3438563e-06
 -2.5243159e-07
 -6.9612208e-05
 -3.8176429e-02
 -6.5997839e-01
  2.1877782e+00
  1.5377518e-05
  5.4496527e-04
 -6.2610811e-01
 -1.3207599e-06
 -7.8871972e-06
 -5.4214524e-06
  4.0229106e-01
  5.6023955e-01
  1.1747944e+00
  5.7564230e-06
 -2.4937044e-05
 -3.0283136e-03
 -4.3033983e-06
 -2.5211489e-06
 -1.1236632e-04
  1.4703903e+00
  7.4679013e-03
  7.6287442e-01
  1.2498875e+00
  4.8710375e-05
  9.8691271e-06
  2.5830079e-05
  2.3348179e-05
  3.9930497e-03
 -1.6947820e+00
 -1.3958582e+00
  3.6600271e-01
  2.3603050e-05
  1.0493050e-05
  1.1195139e+00
  2.1703101e-05
 -1.3634967e-05
  2.9596524e-06
 -1.0867411e-01
 -4.9715661e-03
  3.9848691e-01
 -4.1400346e-01
 -1.8581962e-04
 -4.3138522e-03
  7.4916631e-01
  1.1299040e+00
 -1.2254690e+00
  1.0597438e+00
  5.7227039e-01
 -1.6323500e+00
 -8.1383443e-01
  1.0977175e+00
  1.1384203e+00
  3.5422590e-06
  9.6019499e-02
  8.6124746e-06
  1.5048765e+00
  5.4644352e-05
 -2.5969810e+00
  6.7820942e-01
  3.9409614e-01
 -8.8526160e-02
  2.5322184e-01
  8.6663052e-04
 -2.8988731e-01
 -2.2596998e+00
  4.6922734e-01
  8.8009059e-01
 -1.5630847e+00
  2.7484301e-01
  4.1459650e-01
  5.0922579e-01
  1.0361168e+00
  4.8371319e-02
  2.2458498e+00
  2.1229680e+00
 -1.9377461e-02
  7.8264529e-01
  1.3943003e+00
 -1.4635769e+00
  1.2316744e-02
  4.5522860e-01
  2.8789872e-01
  5.2917051e-01
  9.9346858e-01
 -1.1673955e+00
  3.6600163e+00
  4.5502228e-01
 -2.9183502e+00
  7.7565312e-02
 -5.6866807e-06
 -8.3985829e-01
 -8.9920372e-01
 -5.1594818e-01
 -1.9251117e+00
 -1.8566242e-01
  9.1467905e-01
 -5.7473230e-01
  6.0397220e-01
  1.2435681e+00
  1.0121740e+00
  2.9002482e-01
  1.2117457e+00
 -1.0084990e-01
 -1.4029413e+00
  5.5551815e-01
 -2.2901677e-01
  2.0638064e-01
  9.1998076e-01
 -3.6139181e-01
  1.7121074e+00
 -3.5138196e-01
  4.4095725e-01
  6.2752438e-01
  6.1149746e-01
 -1.8430765e+00
 -2.8770913e-03
  2.1141008e-04
 -3.2117441e-01
  1.2947688e+00
  1.8438587e+00
  1.1166228e+00
  9.7891164e-01
  8.2255507e-01
 -4.9159876e-01
 -1.4762567e+00
 -6.7701232e-01
  7.5738549e-01
 -1.6578977e+00
 -7.4746960e-01
 -1.9054778e-01
 -2.5906065e+00
 -3.3122227e-01
 -1.3854848e-02
 -2.0045868e-01
 -5.3728718e-01
 -2.5979758e-04
 -8.6600906e-01
 -1.8515620e-06
  1.2180456e+00
 -2.6751181e-02
 -2.7498306e-06
  9.9257004e-01
  3.2690150e-01
  1.9047619e-01
 -3.6434904e-02
  7.5129586e-01
 -1.1831382e-02
 -2.9325813e-01
  1.3961329e+00
 -1.6111960e-01
 -1.6670972e+00
 -2.1206801e+00
 -1.1852587e+00
  1.5213114e+00
  3.2849908e-01
 -2.6979699e+00
  1.3670334e+00
 -5.3799373e-01
 -2.1104705e+00
  8.7134719e-01
 -9.0085733e-01
 -1.2856700e+00
 -6.7612350e-02
  8.5767344e-02
 -4.9101341e-01
  1.3814974e+00
  1.2226756e+00
  4.9419684e-04
  1.3869318e+00
 -5.8446664e-01
  2.1330763e-01
 -9.5159583e-02
  5.1249093e-01
 -2.0952222e-01
 -1.4770890e+00
  1.5750907e-02
 -8.2080650e-01
  6.3627595e-01
 -7.4609184e-01
 -1.1808305e+00
 -1.8748043e+00
 -1.6526493e+00
 -2.7547708e+00
 -1.0951047e+00
 -1.2895197e+00
 -1.1159030e-01
  1.4220110e+00
 -5.8529341e-01
 -1.0271424e+00
 -6.9663441e-01
 -6.8810463e-01
 -1.6587863e+00
 -1.8288276e+00
  7.6152956e-01
  1.0790654e+00
 -9.4753391e-01
 -3.4661943e-01
 -1.1405987e+00
  1.4395378e+00
 -1.1650411e+00
 -5.5666864e-01
  6.4034718e-01
  1.2608589e+00
  1.0726944e+00
 -1.2219818e+00
 -6.4507021e-06
  1.2379219e-05
 -3.3506105e-06
  1.5005145e+00
 -4.8254615e-06
 -1.6718727e+00
 -3.7600175e-01
 -1.3758692e+00
 -5.6045819e-02
 -4.8197576e-06
 -1.7067148e-05
  3.5660275e-06
 -6.7659681e-07
  6.6195780e-06
 -5.8948964e-01
 -4.1316819e-04
 -1.0258075e+00
 -2.9680561e-04
 -8.2033730e-06
  1.0799421e-04
 -1.2623247e-05
  1.0690295e+00
 -7.2936126e-07
  2.2176136e-01
  7.5290191e-01
  4.5315817e-01
 -1.7395012e+00
  5.7272223e-06
 -3.1464343e-04
  3.1052652e-05
  4.4309628e-01
  2.1720223e-05
  1.7051846e-01
 -1.1641624e+00
  6.2889332e-01
 -8.6722702e-01
 -8.6727987e-06
 -9.5646001e-06
 -2.5886950e-05
  1.6202495e-02
  1.3970104e-05
 -8.2308882e-01
  1.4193876e+00
 -7.2478883e-02
 -1.0891330e+00
  1.4688680e-05
  1.6337408e-06
  9.2649962e-06
  1.5687891e+00
 -3.3052538e-06
 -5.3826463e-01
  6.7578405e-01
  9.1703802e-01
 -1.1784953e+00
  1.1761142e-05
 -3.8246634e-07
 -2.6697160e-06
  4.3464979e-06
 -6.0513670e-05
 -4.4046197e-02
  2.2697064e-01
 -1.5650705e+00
 -6.7661119e-01
 -2.9139067e-06
  2.1759637e-05
 -1.1165802e-05
  1.2640615e+00
 -2.9860089e-06
 -7.4004278e-02
  1.8989241e-01
 -5.0977234e-02
  4.7612613e-01
  1.0116939e-05
 -2.3410888e-05
 -1.8845411e-05
  2.9966936e-01
  1.1095162e-05
 -3.6455831e-01
  7.8305840e-01
  7.1067315e-01
 -2.4203286e-01
  1.1957442e-06
  5.2237665e-06
  1.5745827e-05
 -3.6605441e-05
 -7.5884627e-06
  1.1184914e-01
 -1.1412077e+00
  1.4924184e+00
 -3.6189601e-02
  1.3348636e-05
  6.1285214e-06
 -6.3464900e-06
 -1.4346693e-05
 -4.4699038e-07
 -6.7924475e-06
  2.4920577e-05
  5.4839164e-01
 -9.6990861e-06
  2.0119953e-06
 -2.9825826e-06
  1.8919553e-05
  3.8225287e-05
  3.6323845e-06
  9.1098201e-01
 -6.7839581e-01
  1.1649472e+00
 -1.1762269e+00
 -8.3407458e-06
  5.5005385e-05
  5.8597166e-06
 -1.3254686e-05
 -4.4509620e-06
  3.2118404e-01
  1.6926594e-02
 -1.2114019e+00
 -3.5018501e-01
  2.2569955e-06
 -3.3871072e-06
  2.6703834e-05
  1.2336307e-03
  7.9749643e-06
  1.2075542e+00
 -3.3691771e-02
  1.6738640e-01
  1.3915087e+00
 -6.2896703e-05
  3.5455250e-05
  8.2001516e-06
 -9.9267498e-05
 -2.9115497e-06
  8.4549356e-01
  4.5961452e-01
  2.2298114e+00
 -6.7394322e-01
 -5.7272846e-04
  4.2061645e-05
  7.1523273e-06
 -3.6018780e-06
 -7.1174773e-06
  1.2064436e-01
 -1.0997031e-01
  1.4587417e-01
 -2.7456558e-01
  2.7936869e-06
  6.0269945e-06
 -1.6297659e-05
  2.6112031e-07
 -2.1615836e-06
  1.8910373e+00
 -9.7085588e-02
  3.9158785e-01
  7.4543881e-01
 -5.2748355e-06
 -1.8677819e-06
 -4.1069884e-06
  5.8816988e-07
 -2.4012021e-05
  4.8082832e-02
  3.9923567e-01
 -5.6024128e-01
  5.1914525e-01
 -5.3645499e-06
 -6.1926941e-05
 -5.5873781e-01
 -1.3854234e-04
  3.3796823e-05
  3.9430377e-01
  1.8179402e-01
 -6.7118692e-01
 -5.6838870e-01
 -1.9661824e-05
  2.3973746e-06
  5.4852039e-06
 -9.3987446e-06
 -6.7808463e-07
  1.4396576e+00
  2.5411655e-06
  1.4031264e-04
  3.4488807e-05
  4.7614130e-06
  2.0209900e-06
 -1.2336942e-01
 -2.0030102e-05
 -9.5258865e-06
 -5.5537713e-01
  2.5470054e-01
 -2.4148839e+00
 -1.5024522e-01
  4.6815831e-06
 -1.7326855e-06
 -6.1815041e-01
  4.1716422e-07
 -6.1267820e-06
  1.7392676e-01
  1.4106396e-01
  2.6200998e-01
  2.3224907e-02
  3.0398112e-06
 -1.0794970e-06
  6.7455461e-05
  8.6562841e-06
  2.6950391e-05
 -9.8615116e-01
  1.2380033e-01
 -5.1304948e-01
 -1.6669034e+00
 -1.1476070e-06
 -1.5059923e-04
 -5.0891507e-01
 -8.6066298e-02
  3.4897745e-05
  5.7471074e-02
  2.2952552e-01
  8.1722409e-01
 -8.5343421e-01
 -2.0972307e-06
 -7.5688977e-06
  3.9091276e-05
  1.3885120e-04
 -5.7041002e-06
  1.2655642e+00
  1.2240208e+00
 -8.0112986e-02
 -4.9911228e-01
 -2.1678596e-07
  1.0190138e-06
 -8.2050061e-01
 -1.9571151e-01
  4.8150828e-06
  3.7149116e-01
  3.8537699e-01
 -2.1059237e+00
 -1.5941477e+00
 -7.1017621e-06
 -2.2539394e-05
  1.4492188e-01
  8.2911811e-06
 -6.5564923e-06
 -3.9897975e-01
  1.2631194e-01
  5.9411317e-01
 -8.4943426e-01
  2.1842636e-02
  5.5977690e-01
 -8.7389767e-01
 -1.0948382e-01
  1.6030086e-06
  3.9758500e-01
  7.2450870e-01
  1.0819741e+00
 -7.8875923e-01
  1.4706523e-06
 -2.1437666e-06
 -3.7367576e-05
 -2.2785523e-06
 -1.7572398e-05
 -1.8004671e-01
 -2.7788476e-05
  6.2499076e-01
  2.2986121e-04
  1.0150707e-02
  5.3364241e-01
 -5.6849331e-01
 -1.9604324e-06
 -3.5517722e-05
 -1.2151246e+00
  4.8488826e-02
 -2.9316241e-01
 -7.1243793e-01
  8.6076225e-06
 -2.0962339e-05
 -1.0146716e+00
 -1.0311027e-05
 -6.3340626e-06
  8.7774658e-01
  3.7269134e-02
  8.6191404e-01
  1.0658233e+00
  1.2271032e-04
  2.4774164e-01
  1.9537622e-01
 -4.1488285e-05
 -1.3478171e-05
 -1.8336173e-02
  8.3244640e-01
  5.7068235e-01
  4.7000360e-01
  6.5593513e-06
  1.1744205e-01
  2.9001412e-01
 -4.7381640e-05
 -1.8983694e-06
 -2.0222769e+00
 -1.0921935e-01
  1.8246920e+00
 -6.6850078e-01
  7.0314837e-04
  7.1561873e-05
 -3.4110516e-02
 -6.4256938e-06
 -7.6128395e-06
 -1.8109217e+00
  2.8496918e-01
  1.3733029e+00
 -6.0222930e-01
  1.7327911e-05
  3.9628714e-01
 -8.1299245e-01
 -4.4630480e-05
 -4.8930569e-06
 -1.7345974e-01
  4.3079677e-01
 -1.8660606e-01
  2.0305136e-01
  5.1473282e-05
  3.1806856e-01
 -4.2998180e-01
 -1.0325196e-04
 -5.6648819e-06
 -6.2638384e-01
  4.3834415e-01
 -3.5247847e-01
  4.6421937e-03
 -1.6085454e-05
 -7.3050506e-07
 -9.7062814e-01
  6.7513511e-02
  4.2987367e-06
 -1.0990030e+00
  9.4809884e-01
  8.1769973e-01
 -8.1833363e-01
  1.2422349e-04
 -1.3563101e-05
 -1.2115064e-04
  1.2114986e-05
  1.5832923e-04
 -3.3801180e-06
  8.5386944e-01
 -2.2960792e+00
 -8.6803586e-05
 -1.8146371e-05
 -2.2511233e-06
 -1.5891943e+00
  3.1149508e-02
 -1.9678414e-06
 -7.3606968e-01
  6.7216963e-02
  8.8257402e-02
  7.3978645e-01
  3.8959605e-01
 -3.1959280e-05
 -1.0516661e-01
  2.1373444e-05
 -1.3468890e-05
 -1.0067836e+00
  1.2376198e+00
 -2.1271740e-01
 -8.9801741e-01
 -4.3238456e-06
  5.5945560e-07
 -4.6500310e-01
  1.7641827e-02
  2.7844690e-05
 -1.2049215e+00
 -4.8900118e-01
 -8.9505678e-01
  3.1781936e-01
  4.9575760e-06
 -4.1616313e-05
 -5.4247886e-01
 -2.8440654e-06
 -3.1739955e-06
  6.0451972e-01
  2.0228927e-01
  7.2494912e-01
  4.5655280e-01
  3.0343401e-05
  7.0839292e-06
  2.6130066e-03
  5.5166129e-02
 -2.9187522e-06
 -1.9956298e-01
  1.8761481e+00
 -1.7785871e+00
  4.8187721e-01
 -5.1822371e-06
 -4.4027922e-05
 -4.5042801e-01
 -7.4861773e-06
  9.2541486e-06
  7.7731945e-02
 -4.8330948e-02
 -3.6093999e-02
 -2.6558751e-01
  1.7946468e-06
 -3.1777920e-05
 -4.5298365e-01
  1.5420526e-03
  1.5160067e-05
  8.3920062e-01
  2.0956509e-01
 -6.2906295e-01
 -5.6324822e-01
  1.2413758e-02
  1.2413758e-02
  1.2413758e-02
  1.2413758e-02
  1.2413758e-02
  6.7241365e-01
  6.7241365e-01
  6.7241365e-01
  6.7241365e-01
  6.7241365e-01
  1.4738771e-01
  1.4738771e-01
  1.4738771e-01
  1.4738771e-01
  1.4738771e-01
  1.0924964e-01
  1.0924964e-01
  1.0924964e-01
  1.0924964e-01
  1.0924964e-01
  1.6452778e-02
  1.6452778e-02
  1.6452778e-02
  1.6452778e-02
  1.6452778e-02
  1.8038879e-01
  1.8038879e-01
  1.8038879e-01
  1.8038879e-01
  1.8038879e-01
