nep4 3 Ba Zr S 
cutoff 8 4 150 20
n_max 4 4
basis_size 8 8
l_max 4 2 0
ANN 30 0
 -7.5107168e-06
  1.8364057e-05
  1.6044288e-04
 -5.7316702e-06
 -2.3262007e-06
  6.5582085e-06
  2.9674500e-06
 -1.0689784e-05
  1.1635800e-05
 -6.9913449e-06
 -6.6817647e-06
 -2.3581622e-06
 -1.0124500e-06
 -3.6963738e-06
 -1.3739741e-05
  6.2746335e-06
 -2.1161127e-04
  1.1144051e-06
 -9.7104370e-05
 -1.5073877e-06
  3.4014251e-05
 -3.4557320e-06
 -8.8437364e-06
 -5.1635467e-05
 -7.1144132e-06
 -5.4968950e-06
 -8.7920518e-05
  2.2078123e-06
 -7.1971630e-07
  2.2331554e-04
  5.5554390e-01
 -1.7944980e-05
 -1.8211335e-01
 -1.1535805e-01
 -1.8115242e-01
  2.9504195e-06
  1.9469364e-06
 -1.9084233e-05
 -4.7680351e-05
 -3.8378996e-01
 -8.7104245e-06
 -1.5178031e-05
 -4.6166710e-06
  6.7352004e-05
  6.3746229e-02
 -3.2728200e-05
 -5.8897524e-07
  4.6088016e-06
  1.0956830e-04
  2.1902324e-05
 -3.6095573e-06
 -6.6819339e-06
  4.9675127e-06
  7.3046313e-06
  1.1191721e-01
 -2.7772630e-06
  6.1677215e-06
 -1.8531364e-05
 -7.8934412e-05
 -8.1972876e-06
  7.4017524e-05
  5.3225704e-06
  4.3557798e-06
 -1.1720329e-07
 -9.5387313e-06
  2.8014068e-05
 -1.5418176e-05
 -2.2157751e-06
 -2.3149338e-05
 -6.4716596e-07
 -2.7151438e-05
  1.7042094e-06
  1.1666717e-06
 -1.1159955e-07
 -1.4608977e-06
  1.4030219e-05
 -1.8643779e-05
  1.7773487e-05
 -1.2952954e-05
 -6.5104906e-08
 -4.7460013e-05
 -1.6467902e-05
  1.9173062e-06
  1.9586299e-05
 -4.2496094e-06
  1.0982180e-06
 -7.2597900e-06
  4.9968949e-06
 -9.6117174e-06
  1.7175338e-06
  1.3927687e+00
  1.1736767e+00
 -1.4235399e+00
 -5.7878159e-03
 -2.6194155e-01
  2.8440225e-04
  1.5917758e-05
 -1.5010478e-04
 -2.4762554e-01
 -6.8895203e-01
 -1.6710213e-05
  5.8535912e-05
 -6.1639490e-05
  3.8403203e-05
  2.5152221e-01
 -5.9092268e-05
  3.4655783e-05
  4.1351566e-05
  7.5749770e-02
  8.0071963e-02
  1.8464652e-04
 -8.2178913e-06
  4.6082005e-06
  5.1161658e-02
  3.7049556e-01
 -1.9337009e-05
 -3.3020765e-07
 -3.0948857e-05
  1.8962868e-05
 -6.3879547e-06
  1.4432309e-06
 -9.1645506e-06
  5.1871303e-04
  4.5249610e-05
  2.3478265e-04
 -1.8880210e-05
 -6.4592714e-06
  4.9338720e-05
  1.8600965e-04
  2.5105232e-04
  1.0526807e-05
 -6.0809136e-04
 -2.1066878e-06
  1.5159455e-05
  4.6989956e-04
 -6.1408778e-06
  4.1550525e-06
 -3.2839325e-06
 -1.0900996e-05
 -3.9411629e-05
  1.4882356e-05
  6.0977700e-06
 -1.8413543e-06
 -8.0446907e-06
 -2.7431530e-05
  1.1303053e-05
  1.1459819e-06
 -4.0865882e-05
 -1.3576284e-05
 -1.0305153e-05
 -5.0068080e-05
 -3.0595509e-04
  2.9914154e-04
  1.5164983e-04
  6.9203891e-04
 -3.1989966e-05
  1.2353618e-05
 -1.4731115e-04
  2.1994418e-04
  1.4030070e-07
 -2.7325286e-06
  9.7638358e-06
 -5.8147139e-06
  3.6713409e-06
 -2.5777752e-05
  6.6882544e-06
  7.3310030e-06
  7.9963556e-06
 -9.5976156e-06
  1.3917028e-05
 -3.5176924e-04
 -4.0010200e-06
  1.3808315e-06
 -2.6835435e-06
 -1.8918066e-04
 -1.7876684e-04
  2.3595858e-06
  3.5706704e-05
  3.4520581e-06
  7.0737397e-06
 -7.9758847e-01
 -5.9673986e-03
  5.0429714e-01
  7.6511916e-04
  2.7627910e-05
 -1.3805078e-03
 -1.4406801e-05
 -1.4528393e-05
  1.8537714e-03
  9.0072928e-03
  1.6847503e-06
 -3.4925094e-06
 -2.3224718e-06
  6.2445601e-05
 -1.3338619e-04
  1.1438503e-06
 -1.4477837e-06
  2.3697005e-05
 -2.0489251e-04
 -3.8474745e-06
 -1.0716150e-05
 -3.1580621e-06
  4.2087768e-06
 -5.8210537e-07
  3.7344648e-07
  2.2451650e-06
 -8.0682294e-06
 -2.7540411e-06
  1.0008515e-05
 -8.9264986e-06
 -1.4143629e-01
 -1.8720488e-05
  3.1171402e-01
  1.7189748e-05
  9.1696156e-06
 -1.1135664e-05
  2.1453956e-05
  6.0561342e-06
 -7.9925603e-06
  1.6629143e-05
  7.9731781e-06
 -3.6145542e-07
  9.3247778e-05
 -7.1738486e-06
  2.6318728e-05
 -3.9084061e-06
  7.8467902e-04
 -6.0058579e-07
 -7.7514460e-06
 -1.7231563e-06
 -1.6766133e-04
 -1.5542824e-06
 -8.3392051e-06
 -3.5841972e-06
 -2.5525189e-05
  1.8445759e-07
  6.7591793e-07
  2.2917750e-06
  4.4498458e-05
 -1.5303787e-06
  1.9987461e-05
  1.8963625e-06
 -1.5905602e-01
 -3.2587259e-06
 -2.8205612e-08
  2.9268196e-07
  7.3414651e-07
  1.2663895e-05
 -2.4341000e-06
 -9.9479712e-06
  1.1941045e-06
  5.7699444e-06
  4.9966019e-08
 -9.5083160e-06
 -6.1933206e-06
 -1.8085907e-06
 -5.1815437e-06
  4.9380847e-05
  3.6755398e-06
  9.4085672e-06
  2.0491077e-06
 -1.2344934e-04
 -6.8698077e-06
  1.4977552e-06
  4.5337933e-04
  9.1815427e-06
 -1.0052267e-05
 -2.7053331e-05
 -2.3049054e-06
  2.1542976e-06
 -8.4658750e-05
  7.0903414e-05
 -2.7997339e-01
 -3.0118382e-02
 -9.5224672e-04
 -9.4831275e-06
 -2.9689882e-06
  2.8252116e-06
 -7.4716081e-07
 -7.5625826e-06
  1.1239701e-05
  7.0906083e-07
  1.0956901e-05
  9.5102660e-06
  1.7515609e-05
 -3.6049409e-05
 -1.2219446e-07
 -5.9905977e-07
  4.5857723e-05
  5.4308533e-04
  4.6664572e-05
  6.9423586e-06
  8.0288382e-06
  4.9523643e-04
  3.6335643e-02
  1.5382706e-05
 -1.6006225e-06
  3.0722238e-06
 -2.5195310e-05
 -2.3484265e-05
 -6.0191172e-01
 -7.8896206e-04
  4.4198322e-01
  4.1187164e-01
  5.0424576e-01
 -2.2973990e-01
  1.3185980e-05
 -3.2600875e-07
  1.4199194e-01
 -1.8200197e+00
  2.2524396e-06
 -1.3592202e-06
 -4.4040858e-06
  2.6330992e-04
 -3.6887436e-03
  8.7778571e-05
 -1.3252537e-05
  2.5580865e-05
 -4.1314601e-05
 -4.0408365e-02
 -8.0630910e-03
 -1.9960240e-05
  1.3853180e-05
 -7.4017341e-03
 -3.2805830e-01
  1.5010902e-06
  2.5072171e-05
 -2.5967418e-06
  2.1335816e-06
  2.2656803e-05
  2.3006534e-05
 -1.2996592e-05
 -8.2729548e-06
  5.4693868e-05
  4.4718909e-05
  2.7921503e-06
 -1.5194169e-05
  8.5351967e-06
 -1.1272748e-05
 -1.4958875e-06
 -1.2169164e-05
 -1.4379426e-05
  2.8973724e-05
 -4.0561836e-06
  1.1330352e-06
 -1.6578846e-05
 -2.4964782e-05
 -1.9815854e-05
 -4.1530056e-06
 -4.0665433e-05
  6.4945907e-06
 -4.8648513e-07
 -1.4741474e-05
 -6.8986592e-05
 -4.4363169e-06
  4.0114475e-05
 -1.9033065e-05
  1.6108133e-05
 -9.6203585e-06
 -2.4543822e-06
 -4.4847166e-06
 -1.0085417e-04
  1.5131840e-01
  2.0969743e-02
  3.7608625e-06
 -1.0451138e-01
  2.9382295e-06
 -7.2521252e-06
  6.2614813e-04
 -1.5221530e-06
  6.9720867e-05
 -9.9455692e-06
  1.3327502e-05
 -2.0429060e-04
 -1.1908654e-05
  4.3770621e-04
 -5.6793083e-06
 -1.1985045e-04
 -3.9175935e-05
 -2.5147013e-04
 -7.5049909e-05
 -1.7461814e-05
  1.2866498e-04
 -2.6626019e-05
 -2.1723194e-04
  4.7425365e-06
  4.0470601e-05
 -2.2793058e-06
 -8.9163266e-05
  5.3291992e-06
  5.2989279e-05
 -2.1318006e-06
  7.9308375e-05
 -1.3616329e-05
 -9.1867059e-06
 -1.9978434e-06
  3.6644228e-06
  3.3174867e-05
  1.1915398e-05
 -6.8662976e-06
  3.0049291e-06
  8.6439320e-07
 -9.4453731e-05
 -8.3736468e-06
 -1.0161891e-04
 -1.3479171e-05
  9.1415328e-05
  1.7141319e-05
  7.1873590e-05
  3.4534760e-06
 -9.1961600e-05
  1.7680873e-05
 -4.9346545e-06
  7.3533172e-08
 -3.5062976e-06
  2.0161609e-05
  4.6226328e-06
  5.2054042e-06
 -2.6462692e-05
  1.2614127e-08
  7.4588132e-01
  1.0266891e-01
 -9.7235775e-01
 -9.8507690e-01
 -1.2733786e+00
  5.3689084e-03
 -4.3938908e-06
 -2.4373794e-06
 -9.1891003e-01
 -9.9307364e-01
 -1.5478381e-05
 -2.8561848e-05
 -2.8332715e-06
  2.1238247e-06
  1.4577240e-01
 -3.1043479e-01
 -1.6472314e-06
 -4.0227786e-07
  1.3596110e-02
  8.8012248e-02
  1.3328604e-01
 -2.0428981e-06
 -4.6603482e-06
  9.5176309e-02
  4.5760515e-01
  2.3675751e-05
 -2.7420654e-07
 -2.7410597e-06
 -1.8656085e-05
 -1.7520488e-05
  1.0793559e-04
 -1.1289369e-05
  8.4161766e-06
 -1.1965717e-05
  1.4136661e-05
 -3.6016456e-06
  1.0834816e-05
  3.6022684e-05
 -3.0524986e-06
  1.3297285e-05
  3.6135473e-04
 -5.7411908e-06
 -1.1985061e-04
  8.3097266e-06
 -5.6638703e-05
  7.7846307e-06
  1.2058383e-05
 -1.1681140e-05
  1.1262151e-05
  1.3000760e-06
 -1.4986157e-05
  1.9371342e-05
  2.7682242e-06
 -5.9696417e-06
 -4.2444667e-06
  4.4807894e-05
 -7.1294635e-06
 -9.1474185e-06
  8.8881527e-05
  1.2745618e-05
 -2.7516591e-05
 -2.7764565e-06
  5.2567877e-05
  3.4602708e-04
  1.6869895e-05
 -1.5424946e-05
  4.9190380e-06
  5.5070454e-06
  6.6621242e-06
  5.4715224e-06
  2.5217127e-04
  3.9208917e-06
 -8.6355240e-06
  3.8833700e-06
 -1.4890964e-05
  1.0814143e-05
  7.2959774e-06
 -2.8393345e-06
 -3.8280177e-08
  5.1434286e-06
 -1.2863220e-06
 -1.5239818e-04
  2.0206350e-04
 -3.5319890e-06
 -1.0704122e-05
 -2.3052256e-05
  4.1971357e-06
  3.8619695e-05
  1.5639793e-06
  1.8851056e-06
  7.4268282e-05
 -1.8452420e-05
 -1.4541699e-05
 -7.0518695e-06
 -1.8005034e-05
 -4.1985895e-06
 -6.4142619e-06
  4.9208220e-06
 -1.7841123e-05
  2.9460366e-06
 -4.2231263e-06
 -2.7119680e-05
  2.6160067e-06
  9.7154989e-06
  1.8549692e-04
  4.1288781e-06
  2.8624731e-06
  8.3174011e-05
  9.2560796e-05
 -6.9970802e-06
  4.4525199e-04
 -4.3210624e-05
  1.3373079e-04
  2.5116476e-06
 -1.5081278e-05
  1.2880354e-05
  1.1403990e-05
  7.0423550e-05
  9.0726890e-06
  3.2699634e-05
  1.3039328e+00
 -3.0786712e+00
  1.4188780e+00
  6.5167731e-01
 -4.0195708e+00
  1.8078806e-01
  3.0881979e-06
  3.4850516e-06
 -9.1374256e-02
  1.8245639e-01
 -1.5703410e-02
  2.7686103e-06
  2.6288094e-06
 -1.4593025e-01
 -1.3503945e-05
 -6.7627311e-01
  3.3439061e-05
 -4.2964266e-06
  9.7940443e-05
 -4.0656868e-02
  7.8079902e-05
 -8.3831765e-06
  2.2316901e-05
  1.9102279e-06
  1.5110451e-01
 -1.1751820e-06
 -3.2584785e-06
  1.8313683e-06
  4.9314672e-06
  2.3900875e-06
 -1.7308037e+00
 -7.8312320e-01
  4.1065484e-01
  8.8972074e-01
  6.7740709e-01
 -1.0516765e-01
  4.6133133e-05
  5.5142294e-07
  4.2025471e-01
  1.1466215e-01
  1.8038784e-04
  1.3559186e-06
 -3.6028370e-05
  1.3926250e-05
 -7.7001140e-02
  5.4239005e-01
  7.5143929e-05
  4.0355053e-06
 -4.9885657e-01
 -5.8532625e-01
 -3.5103780e-01
 -8.3574405e-06
 -2.0703253e-06
 -3.4911311e-01
 -1.0383416e+00
 -2.1719246e-05
 -1.4903574e-05
  1.4469947e-06
  1.2241831e-04
  8.6665399e-02
  2.9244831e-05
 -3.6530066e-06
  3.2013327e-06
 -5.6770835e-07
  1.8941326e-04
  4.9689706e-06
  6.8871217e-05
  1.4464232e-05
 -1.8743909e-04
 -4.0992360e-05
 -8.6848522e-06
  5.0656534e-05
 -4.3559753e-06
  1.1282976e-05
 -4.0250924e-07
 -3.0765008e-05
 -4.4245172e-07
 -6.2263911e-07
 -7.3829251e-06
 -5.4563643e-06
 -2.1531716e-05
 -1.2382870e-05
  2.6967557e-06
  2.5607929e-05
  1.2331806e-05
 -3.6492434e-05
 -3.8625322e-07
  1.6385595e-05
  4.4733538e-06
  7.2800935e-06
 -5.2927508e-06
  5.6254939e-06
 -1.0791673e-05
 -8.8740890e-08
  5.4410462e-05
  1.2383390e-05
  5.7941397e-06
 -2.0716903e-05
  2.3943421e-08
  1.7958700e-06
  1.4199827e-05
 -2.6387970e-05
  1.8270197e-06
 -2.3628370e-05
  1.3165768e-06
 -9.3766212e-06
  2.5152431e-06
  5.1308230e-06
 -2.0990269e-06
  8.7383287e-06
 -5.9448403e-06
 -1.9030766e-05
  1.4706874e-05
 -2.9861989e-05
 -1.2695197e-06
 -5.4016300e-07
 -3.2896075e-06
 -1.7218922e-06
  1.7142967e-05
 -2.2075101e-05
  7.3428691e-07
 -8.2601855e-06
 -1.9765590e-05
 -6.1659682e-07
  5.8387141e-06
 -4.1473122e-06
  5.2448218e-06
  6.2968436e-05
  1.4722576e-04
 -1.4278659e-05
 -4.7635447e-07
 -3.8440908e-06
  1.3081474e-05
 -3.2785060e-06
  2.7857254e-06
  8.1909748e-06
  9.9167096e-07
 -1.2115704e-05
 -2.2559675e-06
  4.1359608e-06
  9.0470832e-07
 -4.7111271e-06
 -5.4105055e-07
 -5.4340485e-06
 -4.0092476e-05
  1.8905977e-05
 -4.6877944e-04
 -1.2604882e-05
  9.9154267e-06
  1.2925134e-06
  2.5941186e-05
 -6.0158673e-06
  3.1979619e-07
  2.1919197e-06
  5.7191588e-05
  3.0029739e-06
  6.4741162e-06
  1.1248114e-05
  2.8989960e-05
  5.8999135e-06
  7.3749493e-06
  1.2170100e-05
 -2.7805559e-06
  8.5745396e-06
 -2.9232633e-06
  1.4633115e-05
 -1.0641910e-05
  6.0418524e-06
  1.0606838e-06
  4.7108424e-06
  1.7844495e-05
  4.7801982e-06
  9.2510372e-06
  1.1319818e-05
 -1.4947914e-05
  1.8425118e-05
 -1.0517806e-06
  8.1206716e-05
 -4.9979808e-06
  8.1655671e-06
  5.8909591e-06
  1.3023731e-05
  4.5786743e-07
 -9.7367083e-05
 -9.9558056e-06
  4.2804710e-05
 -1.3277442e-04
 -3.3167996e-06
 -1.1010843e-05
 -6.8203353e-06
  2.4560978e-07
  1.8120792e-05
 -4.0878031e-06
 -3.4255493e-06
  2.1585965e-06
  1.0679709e-06
  1.1192968e-05
 -2.0322865e-05
  1.1684775e-05
  1.4589669e-05
 -6.5347763e-08
 -2.7698055e-05
 -7.9802421e-06
  9.3319024e-05
  3.5855442e-06
 -4.7660687e-06
 -7.8395033e-06
 -1.1226207e-06
  2.2728934e-06
  4.0420971e-05
  2.8652451e-06
 -8.9166127e-07
  1.0316108e-05
 -7.6399760e-05
 -1.2503534e-07
 -1.2700592e-05
  7.9717993e-06
  8.1399103e-06
 -8.2711093e-05
 -9.9586377e-06
  1.3548261e-05
 -7.0323435e-06
  1.4988310e-05
 -1.0815473e-04
 -1.7302498e-05
  3.8552880e-05
  2.8771788e-04
  7.1539750e-07
  6.9631707e-05
  1.8895820e-06
 -1.7631008e-05
  7.0664969e-06
 -2.7918973e-06
 -5.4701377e-07
 -5.6593076e-06
 -3.0559161e-06
 -9.6365659e-07
 -5.8809510e-06
 -2.5161236e-05
  5.3409917e-06
 -2.1581508e-01
 -1.8429148e-05
 -2.8556931e-01
 -9.0803027e-01
 -2.5054485e-01
 -1.4592196e-02
  1.3982437e-05
  1.9970732e-05
 -9.4955817e-02
  1.8691069e+00
 -1.7347676e-04
  3.0430119e-06
 -3.6693052e-06
  1.3700291e-05
  3.9609678e-02
 -1.2702192e-06
  1.4112762e-05
 -2.1519970e-06
  7.8033721e-03
  1.1858658e-02
  1.1001981e-05
 -6.3247826e-05
 -3.0546200e-06
  3.7357045e-04
  1.8726058e-01
 -7.9532210e-06
  4.4815872e-07
  7.5816661e-06
 -7.6419283e-06
 -7.7968002e-07
  4.1763706e-06
 -1.2931132e-04
 -1.5573425e-04
  8.4222411e-05
  1.1075858e-04
 -7.2389212e-06
 -3.4097452e-06
 -1.0886606e-05
  2.9868583e-05
  2.1886110e-05
  4.1716913e-07
  6.1339224e-06
 -2.8935874e-06
 -3.5861729e-05
  1.0663952e-06
 -8.9304835e-05
 -3.1748175e-06
  3.2676660e-05
  1.0712881e-05
  1.9573046e-05
  5.9169906e-06
  2.1431529e-06
 -1.7731611e-05
  8.7443159e-06
  1.2220379e-06
 -1.1269882e-05
 -3.2670055e-06
  2.7676731e-05
  1.8025631e-04
  2.1369183e-06
 -1.1259523e-05
  1.8555605e-05
  3.6920690e-06
 -3.0599366e-04
  1.7135708e-05
  1.3807936e-05
  7.4795757e-06
  5.4488368e-07
 -6.1503265e-06
 -3.3707474e-06
  2.3456110e-04
  1.1652628e-06
 -1.8132765e-07
  1.1803273e-06
 -1.3440399e-05
 -4.4037674e-06
 -7.0721831e-06
  1.8390471e-06
 -3.2554271e-05
 -1.5879222e-07
 -7.1008221e-06
 -1.2258759e-05
  1.6139611e-05
  7.4345453e-06
  8.1587656e-05
 -7.8922130e-06
 -9.7949487e-06
  1.0777625e-05
 -2.4631427e-06
  1.1254631e-04
  1.3006468e-04
  1.4172528e-05
 -9.9427551e-02
 -7.0025626e-04
 -2.2267981e-04
  9.3419530e-06
 -3.4962306e-06
  4.9775440e-06
 -3.1071093e-05
 -5.7150063e-04
  8.7974018e-05
 -1.1209879e-06
  4.4752028e-07
  6.9405751e-06
 -8.0917744e-06
 -2.3898574e-06
 -6.7929545e-06
 -1.0584828e-05
  1.3462146e-05
  2.8448889e-04
  1.0053741e-03
  2.7821320e-06
 -3.1018109e-05
  1.2916303e-04
  1.3319022e-05
  1.1217571e-06
 -6.2727992e-07
  5.9791437e-06
 -1.0023386e-05
  5.7665227e-05
  1.4021824e-05
 -8.2189724e-02
  6.3083144e-06
 -2.2578863e-02
 -5.1524156e-01
 -3.9611042e-01
 -4.0368423e-02
 -1.9218910e-01
 -7.3677045e-01
  1.1402398e+00
  2.1129701e-01
 -3.2042775e-01
 -3.0851051e-01
 -8.4629920e-07
 -2.9943472e-01
  2.2041639e-05
 -2.8358477e-01
 -1.1256187e-05
  6.6970354e-01
  2.9033229e-01
  2.1230062e-05
 -7.3679558e-07
 -1.7982698e-05
  2.7592983e-05
  6.5837753e-07
  5.8849623e-06
  6.6272408e-01
 -5.1179924e-04
 -7.1953245e-06
  3.1414139e-01
 -3.4934465e-06
  7.1358573e-01
  1.0021929e-05
  1.8203717e+00
 -5.3747374e-01
 -7.7401263e-01
 -6.9116867e-01
 -4.0938836e-01
  8.7890327e-02
  2.5623302e+00
 -1.2718407e+00
 -6.5475579e-06
 -7.1134228e-01
 -7.6157794e-06
  2.2782123e+00
 -8.1912731e-06
 -5.1582628e-01
  3.0552030e-05
  3.2385864e+00
 -2.5035965e+00
 -3.6604363e-06
 -3.8858316e-06
  2.4762999e-06
  1.7325464e-06
  2.9037185e-06
 -2.8229791e-05
  1.4535817e+00
 -1.3314956e-01
  1.3571349e-06
  6.0389864e-01
 -1.1736335e-01
  1.3137436e-05
 -4.1984090e-01
 -2.5515888e-06
  1.5713958e-06
  7.6469332e-06
  1.2310396e-05
  9.6794691e-05
 -1.1897294e-04
  2.3996294e-05
  1.0201275e-05
  7.0135045e-04
  1.0732287e-05
 -3.1832249e-05
  1.8726465e-05
  8.1068483e-06
 -1.2287762e-05
  6.4481951e-02
  3.5991270e-02
  5.1127527e-06
  6.8150302e-07
 -1.8403388e-07
  9.9400160e-05
 -6.4746433e-05
  1.2768384e-05
  4.4544727e-06
  5.8342208e-05
  5.1212705e-06
  8.3856103e-06
  7.0861768e-07
 -7.8614491e-01
  2.3573158e+00
  1.8685468e+00
 -5.4471426e+00
  1.9182676e+00
  1.3200701e+00
 -1.2691835e-01
 -3.9891651e-01
  1.3126996e-04
 -1.9582359e-01
  1.0963715e-04
 -6.5713966e-01
  1.1722581e-01
  4.8209140e-01
 -7.1165259e-06
 -6.2570333e-02
 -7.7264071e-02
 -9.5524073e-01
  8.2688820e-01
 -8.0155768e-03
  7.4147356e-05
  1.3747689e-01
  4.1633766e-04
  1.8354071e-02
  1.1941866e-05
 -1.8522139e-04
 -2.1832819e-04
 -1.1738728e-01
  3.2943821e-01
  1.2108159e-06
 -2.5146997e-05
 -2.0805068e-05
 -2.7630740e-06
  2.3415389e-06
  4.8233182e-06
 -1.2572924e-05
  2.3114282e-07
 -2.6572799e-05
  3.5843943e-05
  3.2971486e-05
  2.0644820e-06
 -3.2500386e-05
  1.7380929e-05
  1.5084891e-04
  3.1181182e-06
 -8.0581667e-06
  2.8039503e-05
 -2.5461419e-05
 -3.2182430e-05
 -1.0543547e-05
 -1.0107038e-05
 -2.5702715e-05
  1.0784287e-05
  2.1259848e-05
 -5.8438072e-05
 -6.2870158e-06
 -2.4821392e-07
 -8.3670766e-06
  5.4479260e-06
  1.4319196e-05
  9.5524410e-07
 -1.9177514e-05
 -3.6086792e-01
  9.2749515e-06
  1.0144946e-05
  3.7600927e-05
  1.7535909e-05
 -1.4524408e-04
  7.0788392e-06
  1.6576887e-05
  4.7232047e-06
  1.5429700e-04
 -5.0417311e-06
 -7.2789567e-06
  8.5955498e-06
  1.3550233e-06
  1.3575099e-06
  5.3802648e-07
  1.1381507e-05
 -1.0096555e-05
 -4.1660016e-05
 -1.9832880e-05
  1.0321624e-05
  4.9192477e-07
  2.2254686e-05
  2.6026953e-05
  5.9415606e-06
  1.5277250e-05
  1.2818015e-05
 -4.4028666e-06
  7.4341512e-01
 -1.3088331e+00
  9.6271038e-01
 -2.1217946e-02
 -4.6483222e-02
  5.6013357e-02
 -1.8334007e-01
 -1.1067414e-01
 -2.9752705e-06
 -5.6466153e-03
 -1.0371629e-04
 -1.1243314e-01
 -4.6512678e-01
  2.3313323e-05
 -2.3917055e-05
 -6.5347835e-02
 -3.3748872e-04
 -1.4156492e-01
  5.5387515e-01
 -1.8772497e-04
 -1.1076394e-05
  5.0499626e-02
 -9.3076646e-01
  2.2029774e-03
  1.1509595e-05
  2.0111955e-05
 -1.0611038e-05
 -2.0814469e-04
  2.6250995e-05
 -3.2726794e-06
 -2.4300472e-01
  1.1302960e+00
 -6.6455615e-01
 -5.2923065e-02
 -1.1976087e+00
 -3.5148375e-02
  2.3361693e-01
 -6.8353780e-02
 -5.6427851e-02
  2.2528553e-01
  5.1182294e-01
  4.7313643e-01
  7.7996433e-01
 -3.9358976e-01
  4.6378893e-01
  3.7694874e-01
  6.9644320e-01
  2.1311907e-01
  1.8771099e-01
  1.4017352e-01
  2.7576531e-04
  1.1477390e-03
  2.1601510e+00
  5.7440906e-05
 -8.3251807e-06
  1.1747430e-05
  1.9110634e-04
  4.4758382e-04
 -4.7352463e-05
 -8.6639695e-05
  5.6872964e-01
  9.7847903e-01
  3.4658572e-01
  6.9728017e-06
 -4.4187255e-02
  1.8535312e-02
 -4.2155166e-06
 -3.4825087e-02
 -3.2161905e-05
 -2.0504520e-05
  2.1335431e-05
 -8.2664136e-03
  5.2315085e-07
 -3.0930187e-06
  8.2512570e-06
 -1.1844036e-05
  2.0757760e-05
 -3.7274065e-05
 -1.4462327e-03
 -6.1453745e-04
 -3.4017589e-06
  1.0444992e-06
 -7.9726502e-05
  3.0469566e-04
 -2.0276625e-06
 -1.8469051e-05
 -1.2557396e-05
  1.3475885e-05
  4.1313095e-05
  1.2385344e-05
  1.0358415e+00
  1.1055766e+00
  1.7136259e+00
  4.9253740e-05
 -1.1964752e-03
  2.2196227e-01
 -6.3389820e-08
  3.2820460e-01
  4.4152279e-05
 -1.5414227e-05
  9.4530842e-06
 -2.6982964e-04
 -3.5247517e-06
 -4.3746981e-01
  2.2146634e-05
 -2.0835703e-05
  2.0772462e-04
 -4.6093710e-06
  9.6442403e-05
  5.5821151e-06
 -2.3426594e-05
  1.7223342e-01
 -5.6950481e-05
  2.3838468e-02
  2.4594178e-07
 -4.2179829e-05
 -1.6323558e-05
 -1.7084798e-05
 -2.5123720e-07
  1.6047399e-05
  9.6349104e-05
 -5.0984159e-05
 -1.4633934e-04
  5.3659855e-06
  4.8614966e-05
 -1.3794879e-04
 -6.2248273e-06
  1.5957738e-04
 -1.2097443e-05
  1.6466447e-05
  5.9127348e-07
 -2.5190076e-07
  2.4036613e-06
 -1.1166818e-05
  6.4149579e-05
 -5.8169016e-06
 -5.9525621e-07
  1.6223024e-05
 -1.2545465e-05
 -6.7038554e-06
  9.6526746e-06
 -4.3976877e-07
 -1.8794262e-05
 -9.4517663e-06
 -1.3220180e-05
  1.9658981e-05
  2.4947987e-04
 -1.9590987e-05
 -1.4186064e-05
 -1.9958748e-05
 -3.8312010e-06
  1.7636325e-05
  2.2710831e-06
  1.3910651e-05
  3.9430488e-06
  1.4595823e-07
  7.8199228e-06
 -3.2744228e-07
 -2.8015218e-06
 -6.9901439e-06
 -4.9162454e-06
  1.2878348e-05
  1.8499416e-04
 -5.4481411e-06
 -6.5717968e-06
  1.9237227e-06
 -1.3825897e-05
  8.0311620e-06
  7.2255796e-05
  9.3432236e-06
  3.9403956e-05
  4.1053659e-06
  4.8493412e-06
 -5.6832919e-06
 -5.8850208e-07
  6.7670153e-05
 -6.9375499e-05
 -1.1790814e-04
 -1.9943111e-05
  7.5141879e-06
 -7.3066634e-01
  3.5687945e+00
 -2.9436582e-01
  4.6230722e-02
 -2.1223617e-01
 -2.4181692e-02
  4.7995758e-01
  1.4359326e+00
 -1.2578252e-01
  2.3486957e-02
  2.6240112e-02
  3.0727355e-05
  2.2530727e-01
 -6.0257703e-01
  5.3238749e-05
  1.1780264e-01
 -1.5515350e-05
  5.7893378e-01
  2.9523375e-02
  1.5951162e-05
  1.5839760e-05
  8.6060063e-06
  1.2876427e+00
 -3.6561638e-01
  4.2640113e-05
  3.2295425e-06
 -2.2085416e-05
  1.5654191e-02
  3.8221511e-05
 -4.6582327e-06
 -1.4316884e-05
  7.1027171e-05
  3.7643697e-06
 -1.8214336e-05
 -3.5508114e-04
 -8.9108416e-06
  4.7362792e-06
  1.5635724e-06
  5.2134203e-07
  1.5365731e-05
  1.6149768e-05
  1.9341345e-05
 -1.6503926e-05
 -1.1448330e-06
 -3.4809838e-07
  1.4944096e-05
 -1.2174229e-06
  5.8854781e-05
 -7.1932373e-06
  2.2545883e-06
 -2.5230687e-04
 -5.5808629e-05
  3.1823034e-05
  2.8115749e-06
  1.2737585e-05
 -6.1019396e-06
  5.5192544e-07
 -3.9959391e-06
  1.5074477e-06
 -5.0163490e-05
  8.4224623e-01
 -9.2201313e-05
  3.6324671e-01
 -1.0005092e-05
 -1.0762931e+00
  3.1595424e-02
  3.9080442e-05
  4.1066956e-02
  1.6870243e-05
  1.4937493e-04
 -8.5303109e-05
 -3.4134369e-05
 -1.9337314e-05
 -3.5598769e-05
 -5.4356402e-05
 -1.4000549e-04
  2.1354110e-05
 -4.4498440e-02
  2.2045393e-05
 -6.4070991e-05
 -2.2680321e-04
  1.6854887e-01
 -2.0939611e-05
  8.0062327e-04
 -6.1764267e-06
 -1.4139297e-05
 -5.1598458e-05
  1.7692937e-06
  8.5393067e-06
 -3.7033537e-06
  1.2494860e-05
  1.1188396e-06
  2.8615593e-04
  1.5559078e-06
 -8.6959808e-08
  2.6073316e-05
  2.4076617e-06
 -4.4410328e-07
 -7.6742526e-06
 -8.1724420e-06
  5.8017463e-06
 -1.3844711e-05
  8.5394531e-06
 -1.2070298e-05
 -1.9099023e-05
 -6.9026314e-06
 -7.4218423e-07
 -2.3627827e-06
  1.1833064e-05
  3.1230393e-05
 -4.7212798e-05
  1.7390941e-05
  1.5787880e-07
 -1.2386617e-05
 -2.4121300e-04
  8.0306978e-05
  1.6244164e-07
 -1.7341943e-05
  7.7512630e-07
 -8.6131804e-05
  1.3686701e+00
 -1.9638665e-01
 -5.4703462e-01
 -1.8836114e+00
 -7.0760143e-01
  3.4998965e-01
 -5.7106733e-01
 -1.6325547e-01
  3.2824339e-04
 -1.6996089e-01
 -9.9721223e-02
 -5.5032182e-01
 -4.4384214e-01
 -5.0983166e-05
 -1.2110423e-04
 -1.7652567e-01
 -9.7094998e-02
 -9.3582541e-01
 -2.9293841e-01
 -4.8679717e-02
 -4.5736544e-04
  8.2844205e-02
 -1.6173023e+00
  4.9282396e-03
 -7.9579095e-06
  4.1205653e-06
 -1.8535786e-05
 -5.2325253e-04
  4.2749317e-03
 -5.9692193e-06
  5.9477180e-01
 -1.3495996e-03
  6.8775184e-02
 -1.4169102e-05
  1.3458339e-05
  3.7108308e-05
 -1.4889130e-04
 -2.3835487e-04
  1.1710988e-05
 -3.3485433e-06
 -2.6232279e-05
 -3.9923977e-04
  2.4421415e-05
 -3.9196282e-05
 -4.5478595e-07
 -2.5514283e-04
 -2.4534613e-04
 -7.2451040e-02
 -8.4213853e-02
  7.6629085e-08
 -2.2819018e-05
 -6.7434936e-05
 -2.6116055e-01
  7.4889906e-02
  2.6087380e-05
 -1.4446596e-05
 -3.1698348e-06
 -5.2212035e-06
  4.1431467e-05
 -1.1347179e-06
  7.4173284e-01
  4.8545608e-05
  9.1221136e-01
 -2.3086378e-04
 -7.5072294e-01
  5.0000723e-05
 -2.5274833e-06
  8.2570970e-02
  2.3468465e-06
 -3.6540753e-04
 -2.7316890e-05
 -5.6655807e-03
 -1.4637614e-06
 -4.9793569e-04
  1.4227512e-05
 -8.7374012e-04
  2.5358275e-04
  9.1279635e-06
 -9.9348828e-05
 -3.0344866e-06
  6.2688209e-06
  5.1268060e-02
 -9.4916744e-05
  8.9384383e-05
 -2.3652346e-06
 -1.0617819e-05
  1.5754953e-05
 -3.6238247e-04
 -4.0502100e-06
 -5.3414915e-06
  3.6022946e-06
  1.0916747e-06
 -7.9590842e-05
 -2.0483498e-05
 -8.5689007e-06
  1.4630973e-06
 -1.6297828e-06
  1.5640624e-05
  9.1305683e-06
  2.8110870e-05
  1.4670140e-05
  2.2446714e-06
 -2.7123976e-06
  5.5377990e-05
 -2.1764907e-05
  4.9711575e-06
 -1.8709485e-04
  2.1324544e-05
  3.1136486e-05
  7.4332507e-05
 -1.0754171e-05
 -2.6500986e-06
  3.6400314e-05
 -2.9515613e-06
 -3.3156237e-05
 -9.4528568e-06
 -6.3048506e-06
  1.3050781e-05
  9.3026043e-05
  6.4078831e-06
 -1.5842775e-04
  1.4742542e-05
 -8.2530185e-08
  2.1325734e-05
  9.6996496e-07
 -5.9454796e-06
  1.1735685e-05
  4.0349814e-06
  8.2260576e-06
  8.7528806e-06
  4.6199143e-06
 -2.4976240e-05
 -6.6457451e-06
 -3.2307933e-06
  1.1258975e-05
  2.4532862e-06
 -1.8553075e-05
  7.0117225e-05
  7.5947596e-06
 -1.6317697e-05
  3.6565887e-06
  3.5671824e-06
 -1.4911002e-05
  1.0490532e-05
 -3.5833932e-07
 -4.9628211e-06
 -3.5223758e-05
  1.6404150e-05
  4.7909680e-06
  1.0205164e-06
  1.8975661e-05
 -7.6496353e-06
  2.4126818e-04
 -1.3804520e-04
 -4.9430426e-05
 -1.8828607e-04
  3.7504512e-07
  1.8121724e-06
  6.0550174e-06
 -4.6652267e-06
 -1.5127890e-05
  1.4750522e-05
  1.9902060e-05
  1.6297598e-05
  2.9301751e-04
  5.1999382e-06
  8.7781755e-06
  9.0263275e-06
  6.0239265e-05
 -5.8057562e-06
 -3.0701693e-05
  2.1939786e-05
  4.9555885e-05
  7.9450620e-06
  2.9695980e-06
 -1.6259362e-05
 -2.8774346e-04
 -1.0340024e-05
  1.6826110e-05
  3.4187346e-05
 -1.9966328e-06
  3.5005587e-06
 -1.1532102e-05
 -1.1221634e-04
 -2.1079866e-05
 -2.1713215e-05
 -1.6102149e-06
  1.1977175e-05
  6.4805713e-06
 -2.9911120e-05
 -3.0252971e-07
 -8.3059067e-06
  8.2046890e-06
  1.4762226e-07
  4.3882751e-06
 -5.9354588e-06
  3.1113264e-05
 -8.8573524e-06
 -1.1336842e-07
  8.7723647e-06
  2.1135664e-05
 -1.8107319e-06
 -3.3296681e-05
  1.1591553e-05
  1.1430849e-05
 -1.4168749e-05
  1.8441027e-05
 -9.4782024e-07
  1.1157193e-05
  2.2338011e-06
 -3.1030522e-06
  2.0644875e-05
  8.4867177e-05
  3.5933706e-05
  4.9401915e-06
 -8.3863772e-05
 -1.7775794e-06
 -2.1491334e-05
 -2.4873038e-05
 -2.9605093e-08
 -2.5721361e-06
  4.4377430e-07
  1.1171293e-05
 -8.6282898e-06
 -6.5878926e-06
 -1.7123539e-05
 -5.8323349e-06
  1.8063378e-05
 -3.2987418e-07
 -8.5012181e-07
  7.0651495e-06
  2.0719535e-06
  1.4374123e-05
 -3.5653684e-05
  3.6001566e-06
 -3.5431825e-07
 -6.8973191e-06
  3.1538121e-07
  5.8362812e-06
  8.1631797e-06
 -6.3724953e-01
  1.4215126e+00
 -4.8835680e-01
  8.6940959e-02
  1.6574530e-02
 -2.2936647e-01
  1.1604520e-02
  3.5428407e-04
 -1.1932856e-06
  1.9584570e-04
  4.1583454e-04
  2.8880751e-01
  3.0423558e-01
  2.5811862e-05
  5.5326826e-05
  6.1010155e-03
  2.2478734e-01
  5.9197988e-02
  8.4000103e-02
  1.1988084e-04
  3.6862555e-06
 -3.4504310e-06
  2.2143590e-01
 -8.2522035e-03
  2.0542971e-06
 -1.2935525e-04
  1.7732121e-06
  1.9561344e-04
 -1.5238776e-06
 -2.0777654e-06
  1.1362966e-05
 -4.7127123e-06
  5.1187420e-05
  3.7845009e-06
  7.1623988e-05
  9.0261074e-06
  1.2948948e-05
  8.8644134e-07
 -2.9112002e-06
  1.4242878e-06
  8.7004773e-06
 -2.1875310e-05
  5.3746617e-06
  1.1850052e-05
 -3.7786201e-06
 -1.6308933e-05
 -5.7782759e-06
  2.7452315e-05
 -2.4146054e-06
 -4.0007794e-06
  1.1099423e-04
  2.4975570e-05
 -5.4695120e-06
  4.1852663e-06
 -7.0034353e-06
  3.7418213e-05
 -9.0444610e-06
 -9.4556917e-06
 -9.7936449e-05
  1.5889044e-07
 -1.2862422e-05
 -1.3660499e-05
 -2.1029384e-05
  4.4773785e-08
 -3.6473622e-05
  1.3654658e-06
 -3.6520985e-06
  1.7351113e-05
  3.9203087e-06
 -9.4021391e-07
  2.7333281e-06
  1.2501093e-05
 -1.8267998e-05
 -3.6373087e-06
 -4.3959339e-05
 -4.4054400e-06
  2.1168051e-05
  2.1076859e-05
  1.3712653e-05
 -1.5792428e-05
  2.2179058e-06
 -8.2277702e-06
  1.2179280e-06
  1.5929654e-06
 -1.5634342e-07
 -6.3665299e-05
  4.7577269e-06
 -9.4701918e-06
  4.1208596e-06
 -2.6364987e-06
  4.7969193e-06
  2.0168259e-06
  4.8057043e-08
  1.6781643e-05
 -6.0669136e-06
  5.7545735e-06
  2.9694081e-07
 -2.4769628e-05
  2.2692015e-07
 -1.7157285e-05
 -1.4273433e-05
 -2.3696319e-05
 -1.4215735e-05
 -3.4987281e-07
  1.2083325e-06
  2.3620578e-06
  1.1686055e-05
 -1.9902329e-06
 -1.4266844e-05
  6.9551020e-06
 -8.6035334e-06
  7.8994717e-06
 -5.9373883e-06
  1.5562391e-05
 -9.3900035e-06
 -8.2898558e-05
  4.9295209e-05
  3.4263005e-05
  9.9095769e-06
  8.4289775e-07
 -4.3692912e-06
  1.2863694e-04
  1.2369384e-05
  1.9864485e-04
  6.5772243e-02
 -7.1833379e-06
  1.2853176e-05
  7.7021730e-05
 -2.0266649e-05
  1.4592914e-04
  1.9049376e-07
  1.3898351e-05
  1.3541120e-05
  2.7258582e-06
 -1.0270952e-06
  1.4885279e-04
  5.1551680e-05
  4.7272933e-05
  4.9428705e-02
 -2.6521566e-05
  7.8144858e-06
 -4.9132751e-07
  5.2455645e-05
  2.8243742e-06
 -5.1856273e-07
 -4.2056777e-06
 -3.7872053e-06
 -3.3077838e-05
 -8.7364551e-06
 -1.0307973e-05
  8.9999628e-01
 -2.4697430e+00
  1.5540433e+00
  2.7402997e+00
 -1.0195823e+00
  9.1522413e-01
  4.8732236e-01
 -1.0665166e-04
 -1.0714831e-02
 -1.2113529e-01
 -2.4296872e-04
 -1.1106378e+00
 -1.0191908e+00
 -5.7206899e-01
 -2.7478327e-05
 -1.2746751e-01
  1.8760283e-01
  1.7996248e-02
  3.8610077e-01
 -1.4256798e-03
 -1.0413086e-05
  1.8142270e-01
 -8.3717996e-01
 -5.3515092e-02
 -4.4493838e-05
  4.1293797e-06
 -1.0312349e-03
 -6.4787857e-02
  2.8321275e-02
 -1.5138685e-05
  9.9552178e-01
  2.7385383e+00
  1.1038984e+00
 -2.9052985e+00
  3.8981440e+00
  2.4629620e-01
  1.8611967e-05
  9.0587437e-01
 -1.0933201e-01
 -3.8087010e-01
 -2.9972063e-05
 -4.7073990e-01
 -5.8093444e-02
  4.3054226e-01
 -2.4924603e-01
  5.3760730e-05
 -3.1356740e-01
  8.5782290e-01
  4.7225279e-01
 -9.5787838e-02
 -1.4902110e-04
  2.5844976e-01
 -3.9783314e-01
  1.8455867e+00
  2.6996458e-06
  1.8693983e-05
 -2.7028003e-04
 -7.2785445e-02
  1.1161497e-01
  4.9052222e-05
  2.9254641e-06
 -5.5166083e-06
  3.9576065e-05
 -1.8277676e-06
  1.4379609e-01
  1.1370997e-05
  1.0196030e-05
 -1.8192547e-04
  8.0653072e-06
 -5.5039043e-05
  3.3149019e-05
  1.5349370e-07
  1.0724537e-04
 -2.4234678e-04
  9.2890747e-05
  4.3930845e-06
  6.9171663e-05
 -5.1929771e-07
 -3.7096161e-06
 -6.2791200e-06
 -9.1286218e-08
  6.5998438e-07
 -4.1857347e-06
 -3.1704309e-05
  2.7327822e-05
 -3.4824661e-06
  1.7682760e-04
 -1.1961609e-05
  7.9639194e-06
  8.5173242e-06
 -6.0220021e-01
  3.2143381e-01
 -1.2432904e-06
 -2.1701251e-05
  3.1863835e-01
  1.0484980e+00
  1.2891002e-01
  2.6871553e-01
 -5.4628948e-05
  7.7956378e-05
  1.0613155e+00
 -4.2510493e-08
  2.3010889e-01
  4.7874305e-06
  3.1744459e-01
  1.5223996e-01
  2.4420932e-01
 -1.6205018e-05
 -2.5214208e-06
 -1.8656157e-05
  1.5834072e-06
 -4.8338661e-06
  1.0159893e-02
 -1.3597449e-05
  3.8435253e-05
  4.1316475e-06
  1.2378494e-01
 -1.9257651e-01
 -3.7934324e-01
  2.0361105e-05
  6.3532531e-01
 -3.2674186e+00
 -3.0264709e-05
  3.4454970e-05
 -1.7616496e+00
  2.7956958e+00
 -9.7100490e-01
 -1.7868848e+00
  8.1267953e-03
  1.1309819e-04
  1.9036571e+00
  2.6337233e-05
 -1.4527611e+00
 -1.5623185e-05
 -2.1720006e+00
 -4.7994289e-01
 -1.3379894e+00
  5.5399755e-07
  9.3763711e-06
 -1.2814140e-04
 -4.3381851e-06
  2.0513509e-05
  1.6405758e+00
 -4.3610257e-01
  6.1839382e-06
 -1.3129494e-05
  8.3073556e-01
 -3.5627139e+00
 -3.1148977e+00
  8.6323321e-02
  6.3145276e-06
 -5.3854458e-02
 -5.5310901e-02
 -2.4371423e-01
  1.4164677e-01
  7.2624326e-02
 -7.3471420e-02
 -7.4068740e-02
 -1.2568812e+00
 -2.4785243e-01
 -8.8605491e-05
  1.8199111e-05
 -5.6056103e-07
 -4.7783142e-01
  5.0533024e-05
 -4.5698665e-02
 -7.5612098e-02
 -5.1712736e-06
 -6.7366712e-02
  3.0705123e-05
  2.7949915e-05
 -2.3957631e-05
  2.7779961e-05
 -1.0889582e-01
  4.8079914e-05
 -4.3514419e-06
 -5.7458265e-06
  6.3914176e-06
 -6.0134899e-04
  8.9642584e-05
  3.9658850e-01
  4.1394827e-01
  1.4527820e+00
  6.6925907e-01
  4.2061332e-01
  2.7445930e-01
  3.6842056e-02
 -3.7051675e-01
  6.1767751e-01
  3.5691655e-01
  8.4661394e-03
 -2.0362947e-02
  9.7996985e-05
 -6.1660910e-01
 -9.0560251e-01
 -3.3392289e-03
  5.7484818e-01
  1.5938951e-01
 -9.9625193e-02
 -1.6838062e-01
 -1.9322546e-01
  4.0463146e-06
 -5.1048666e-01
 -2.9253410e-02
 -6.7887729e-01
  6.9182492e-03
  7.8503206e-02
 -2.1409782e-05
  3.8755956e-01
  8.2495280e-06
  7.5222080e-05
 -1.4911378e-05
 -6.9393182e-06
 -1.3161580e-05
  9.9087983e-06
  2.8360371e-05
 -4.9251703e-06
  5.3558910e-05
  1.0719707e-05
  8.0065529e-06
  2.7012534e-06
  4.3241234e-05
 -1.2428718e-05
  2.0613394e-08
 -9.7540351e-06
  1.1942669e-06
  8.7745007e-05
 -2.3639241e-06
  4.7685830e-06
  1.4124841e-05
 -1.0013003e-05
  1.7787638e-06
  4.4869347e-07
 -4.4363060e-06
 -1.9839886e-06
  2.1462938e-06
 -2.5206560e-07
 -1.5679834e-06
  1.4778560e-06
 -7.0558272e-06
  9.9281863e-07
 -1.3356374e-01
 -8.0228994e-05
  3.1850806e-05
 -5.6137007e-05
  6.3333253e-05
  1.2045082e-02
  3.1041470e-01
  1.7708460e-05
  4.7843649e-05
  4.5269239e-06
  4.4237007e-05
 -6.2722531e-05
  7.4123433e-03
 -6.6967611e-03
 -9.7326883e-06
  2.1650052e-05
 -3.1810300e-04
 -5.2246665e-05
 -2.6373044e-03
 -2.5775037e-06
  8.4409636e-05
 -1.1916582e-05
  6.9243149e-03
 -1.0272750e-03
  5.1960214e-06
 -1.4367189e-04
  5.2603795e-05
  4.1353539e-02
  1.3563507e-05
 -7.1440488e-01
 -3.8150972e-01
  1.0941788e+00
 -1.7386008e-05
  3.9629242e-01
 -7.2746289e-01
  3.6697295e-01
  4.0811902e-01
  2.1021758e-01
 -1.0059607e+00
 -3.6830503e-01
  9.6778011e-01
  3.9061310e-05
 -8.0220491e-02
 -1.0802433e+00
 -1.3293854e-04
  2.7659720e-05
  8.7567516e-02
  1.3995381e-01
  3.7189570e-01
 -9.4458155e-05
  5.7335797e-05
 -3.4635720e-01
 -1.4405398e-04
 -6.2390107e-05
  9.0931214e-02
 -3.3345971e-01
 -1.5955435e-06
  3.4878787e-02
  4.6164412e-05
  7.1940885e-05
 -3.4207638e-05
 -5.3321878e-06
 -1.8466221e-06
  1.4435255e-07
  8.2402721e-07
  9.3262997e-06
 -9.5439200e-06
  8.6218366e-05
 -4.2081851e-06
 -1.1760711e-05
 -6.6261946e-06
  3.6318904e-06
  1.2801390e-04
 -6.8758814e-06
 -3.7505372e-06
 -1.0366433e-06
  9.3918803e-05
 -3.1975233e-06
  1.6425826e-06
  3.3513061e-05
  2.4217325e-05
 -2.4494311e-06
 -8.3588502e-06
  1.2101564e-04
  3.7543459e-06
  4.5920556e-06
  1.2933526e-05
  2.1120595e-06
  8.0433665e-06
  2.8334400e-06
 -5.0042013e-06
 -3.5837511e-05
  2.8320359e-05
 -3.0277002e-05
  6.8274830e-06
  8.1362709e-02
  2.5727300e-05
  7.5513094e-06
  1.3746398e-05
  7.7287159e-06
  1.6043352e-06
  1.3749195e-06
 -1.4057217e-05
  2.3754206e-05
  2.0542999e-05
  6.3668303e-06
  2.1153189e-06
  5.9128270e-06
 -7.2571042e-06
  7.2031464e-05
 -2.8292072e-05
 -4.2956977e-05
 -9.6847043e-06
 -6.6819321e-06
  8.1676089e-06
  8.0692684e-05
 -3.0535980e-06
  1.1010390e-04
  1.4809418e-06
  9.9863899e-01
  2.4848979e+00
 -8.8802451e-01
 -1.4581614e+00
  1.7220060e+00
 -2.6440561e-01
 -1.2413601e-02
 -4.2442331e-01
  4.2915601e-01
 -1.1715281e-01
  5.7712752e-01
 -2.6334509e-01
  1.0779217e-01
  7.2961181e-01
  1.4532436e-01
 -5.9849620e-03
 -1.4565037e+00
 -1.8936085e-02
  6.9888252e-01
  8.1046617e-01
  1.0583415e-01
 -4.4445610e-01
  1.7036006e-01
  1.2960710e-01
 -1.0913336e-05
 -1.4876365e-03
 -1.6512445e-01
  1.5968378e-01
 -2.0340519e-01
 -3.6414554e-06
 -7.3272049e-01
 -1.4944830e+00
 -3.6314946e-01
  8.9076918e-01
 -1.0713266e+00
 -1.5265353e-01
 -2.4912950e-01
 -1.3570690e-01
  1.3269463e+00
 -4.8432213e-01
 -3.3998165e-01
  1.2089796e+00
 -5.9320128e-01
  9.7837812e-01
 -5.5668342e-01
  5.8015871e-01
 -3.0935349e-02
  5.3270888e-01
 -4.4179708e-01
  5.0257499e-05
 -3.6380851e-01
  1.3300712e+00
 -1.4351410e+00
 -1.4794368e+00
 -7.0537591e-01
  1.1713390e+00
  1.1545660e-01
  1.6877566e-05
 -2.9301026e-01
  4.4845849e-01
  1.0795221e+00
  3.4670725e-01
 -2.0324677e-01
  2.6279804e-01
  9.5185256e-01
 -8.1350645e-03
  2.2450950e-02
 -3.1254426e-01
 -2.8077608e-01
  3.7964147e-01
  1.0596255e-01
  4.9280480e-01
 -1.4254437e-03
 -4.0266997e-01
 -1.9449119e-01
 -6.4471781e-01
 -3.4418485e-01
  1.2254207e+00
 -1.2592105e+00
  1.1915373e+00
  1.7112555e-01
 -7.0908105e-01
  8.2817197e-01
  6.1724007e-01
  1.1308249e+00
 -1.9504745e-01
  5.3522002e-04
  2.0283794e-04
  3.0305123e-01
 -3.4412337e-03
  2.8949621e-01
 -7.1689171e-01
  4.3206075e-01
  9.5626026e-01
  1.5802836e+00
 -4.7752060e-02
 -2.9371843e-01
  2.3711592e-01
  7.2353762e-01
 -9.1599412e-02
  9.5047808e-01
 -1.4024064e-01
  1.4152053e-01
  2.1095870e+00
 -7.3302400e-01
  4.7113839e-01
  1.5269370e+00
 -3.1043829e-02
  7.5619632e-01
  1.6077902e+00
 -1.0487627e-05
 -5.6710283e-05
  1.4534909e-01
 -1.1205462e-01
  5.4012626e-01
  3.7755374e-02
  1.3814765e-01
 -7.5105704e-02
 -4.8320625e-02
  1.7672488e-01
 -2.5836889e-05
  7.3521631e-05
 -7.0184628e-06
  1.0517991e-05
 -1.5727163e-06
  2.1598245e-05
 -2.1522943e-05
 -1.2711138e-05
 -5.5929923e-01
 -2.1337116e-06
 -9.8460732e-06
  5.0620306e-06
 -4.0079613e-06
 -1.1135205e-05
 -9.6845361e-06
 -4.9968924e-07
 -4.9088305e-07
 -1.2244705e-04
  4.0727373e-05
 -4.8785300e-06
 -7.4897248e-06
 -4.4692577e-05
 -3.2910866e-05
  1.9854934e-04
 -5.2767591e-06
 -1.2929081e-06
 -3.6331290e-05
  7.8964767e-05
  3.6784382e-05
 -8.0532581e-04
  1.8038067e-05
  2.8010238e-06
 -2.1017457e-03
  3.2075372e-05
  7.3653180e-05
 -2.5513686e-05
  2.7093315e-06
  2.9342243e-06
  5.4927152e-02
  7.8970279e-06
 -1.6807621e-04
 -4.3543823e-05
 -4.2951768e-04
 -4.6383533e-01
  1.8774572e-05
 -6.9484791e-05
  1.3298664e-04
  1.5436514e-06
 -2.2644510e-05
  4.6530186e-05
 -2.0277841e-06
 -7.5177821e-05
  6.0574216e-06
  9.9832243e-07
  7.2213352e-06
 -7.8519341e-05
  7.7552890e-05
  8.8543871e-08
  2.2551082e-07
  6.3160223e-07
  3.5503197e-01
  9.3043327e-02
 -7.1717548e-01
  3.9932990e-01
 -1.0162009e+00
  9.5510542e-02
 -2.6647195e-01
 -9.8852128e-01
  3.1679901e-01
 -2.6324168e-01
  1.1473907e+00
  1.3841912e-01
 -1.3685501e-01
  2.0466423e-01
  6.9030516e-02
 -4.7035892e-02
 -8.5907263e-01
  2.4815739e-04
  6.6603380e-01
 -1.6242640e+00
  5.2885451e-05
 -4.4528615e-02
  3.2892683e-01
  1.8441116e-05
 -2.8429472e-06
 -4.3674619e-03
  1.7470509e-01
  9.2273098e-05
 -1.4003715e-01
 -1.9892607e-02
  4.2858094e-01
  2.9699993e-01
 -5.2143726e-02
 -8.8549602e-01
  4.4537799e-05
 -2.2220767e-01
 -4.1048493e-02
 -4.9989399e-02
 -2.4329859e-01
  4.2394480e-01
 -6.7508854e-06
 -2.3623933e-01
 -7.5718239e-02
 -9.6304417e-01
 -5.3687342e-03
 -3.0877816e-06
 -4.2320895e-03
 -1.1947646e-04
  2.6150158e-01
  3.3709363e-04
 -3.5501264e-06
 -2.1031115e-06
  2.3081851e-04
  8.9370715e-06
  1.3718554e-03
 -2.4682569e-05
 -1.3381979e-05
  2.6342695e-06
 -3.5894677e-04
  2.6116165e-06
 -3.0909230e-06
 -3.9926722e-06
 -3.1439195e-05
  4.9088529e-05
  1.7588600e-05
  1.5569938e-05
  1.4992809e-04
 -6.9922603e-06
  1.0243454e-05
 -1.0261807e-05
 -1.2614354e-04
 -1.6111484e-05
 -3.2999502e-05
 -6.3139050e-06
  3.0618470e-05
 -1.5279129e-05
 -6.6366251e-06
 -6.3456217e-05
  2.4928690e-05
 -3.1075197e-05
  1.8832810e-07
  3.8547773e-06
 -4.1421088e-05
 -1.1015003e-06
  9.3044364e-06
 -4.9016899e-06
  5.0358262e-06
  2.6287320e-05
 -1.8272275e-06
 -4.5422883e-07
  1.5755775e-05
  1.1763377e-04
 -1.2056899e-05
 -1.5086438e-05
  3.5001347e-05
 -3.2737078e-06
 -3.5538571e-05
 -5.2668591e-05
  1.2191342e-05
  2.0694662e-05
 -1.2778955e-05
 -1.2668092e-05
  2.5811630e-06
 -7.5780241e-05
  4.4374462e-04
  1.8667016e-06
 -3.3766595e-05
  1.7346818e-05
 -2.9848177e-08
 -9.5139455e-07
  7.4203299e-06
 -1.0782571e-05
 -1.8869588e-07
  1.2608170e-05
 -1.5796331e-04
  1.0749899e-05
  2.2687102e-06
  9.7611650e-05
  1.0162047e-05
  6.0497719e-06
  1.2082633e-04
 -2.4900377e-05
 -4.3195992e-05
  3.5194204e-05
  2.8576374e-05
 -2.2575887e-05
  2.8888266e-05
 -1.9296129e-05
 -5.9363319e-05
  2.5498384e-04
 -5.9833508e-07
 -8.9961541e-06
  2.8688970e-05
  2.5859847e-05
 -1.3036827e+00
  2.3165761e-05
 -2.0803953e-05
 -3.9316452e-05
 -1.0915587e-05
 -8.4569649e-05
 -3.8686398e-05
  9.6211206e-06
 -1.3632489e-04
  2.9556270e-06
 -5.1959694e-05
  5.1603794e-05
 -4.2788051e-05
  1.3265526e-05
  4.7254453e-06
  6.4291351e-07
  1.4215121e-05
  5.3175240e-06
 -1.9567651e-05
  1.4289151e-05
 -1.8083127e-05
 -6.9847206e-06
  3.9362370e-05
 -2.0594307e-06
 -8.5427891e-06
 -3.6097967e-06
  6.6631304e-07
 -8.4561898e-06
 -1.3993093e-05
 -2.7946635e-05
  3.6774301e-05
 -5.4736688e-06
  1.0470408e-06
  4.0381910e-06
  5.0039807e-06
 -1.0485678e-05
  2.1606670e-06
 -1.3239565e-05
  3.9303663e-06
  4.6032357e-05
  3.1796192e-06
 -2.7174458e-06
  7.1548925e-06
 -2.9107887e-05
  2.1294304e-04
 -4.3668238e-06
  9.1784141e-06
  5.2973646e-01
  1.7088219e-05
 -2.2926684e-05
  8.8837696e-05
  2.0365645e-05
 -6.3628983e-04
 -4.5670575e-05
 -3.1173338e-05
 -2.1990582e-01
  2.2243087e-06
  1.5387586e-05
  6.6011971e-06
 -1.0151583e-06
  1.8934468e-04
  6.3255211e-06
 -1.4075683e-05
  7.0789385e-05
 -3.0220677e-05
  3.2123324e-05
  1.1051889e-05
 -3.3213499e-05
 -5.4843272e-06
 -4.6657883e-06
  2.4366850e-06
 -7.4875388e-05
 -9.9309216e-07
 -1.1068941e-05
 -6.9446495e-04
  7.6415912e-05
 -4.2956118e-03
 -8.0351293e-01
 -7.4248421e-01
 -5.3659552e-01
  2.0664684e-04
  7.0003225e-03
 -8.0879629e-01
 -1.8514185e-01
  1.3065249e-01
  8.4940851e-01
  3.4898738e-05
 -8.5428655e-02
 -2.4024432e-04
  9.5396535e-03
  2.1043623e-02
 -5.8322580e-06
 -1.1460974e-05
  4.2151889e-05
 -4.3922544e-02
  4.0445848e-06
  5.1514075e-05
 -5.7886835e-05
  1.3628487e-05
 -2.9254466e-05
  1.0983278e-03
  1.0795785e-04
  1.1812287e-05
 -8.2108709e-06
 -2.8592084e-02
 -2.3484802e-06
  1.8655516e+00
 -1.8509075e-01
 -5.2592474e-01
  4.3235028e-07
 -3.5143279e-02
 -1.3657588e-01
 -1.0091982e+00
  5.6150949e-01
 -2.2789906e-03
 -1.8743653e-02
  3.5437527e-01
 -2.9977731e-02
 -3.6884050e-04
 -1.0470804e+00
 -1.0394131e-02
  1.3624325e-04
  3.1125604e-05
  4.5609452e-02
  3.4954515e-01
  4.4431734e-01
  4.7876279e-07
 -6.8269610e-02
  1.9960748e-06
 -2.0201950e+00
  3.5634363e-01
 -9.3100242e-02
  3.1214131e-02
 -8.6478894e-06
 -4.0537277e-03
 -3.2668058e-03
 -1.2623827e-04
 -1.1695117e+00
 -3.6444113e-01
  2.6427102e+00
  1.1981346e-04
  3.8183488e-02
 -3.7855563e-01
 -2.5066152e-01
 -3.0277669e-01
  1.9885714e-01
 -8.9133167e-01
  1.0014597e+00
  3.8605133e-01
  2.1602914e+00
 -8.0646873e-01
 -1.3721564e-05
 -2.2938268e-02
 -4.0677906e-04
  4.3301138e-01
  1.5731748e-04
 -4.3476548e-04
  1.0047495e-01
 -2.8168276e-01
  3.6066830e-01
 -2.9574314e-01
  7.1443617e-05
 -1.1179325e-01
 -5.3432606e-02
  2.1683036e-05
 -4.3485556e-02
 -5.5375636e-01
 -2.2995788e-04
 -1.1828529e-04
  8.9133355e-05
 -8.4725187e-05
  4.6921381e-05
  1.3327143e-02
 -1.1258491e+00
 -3.8702422e-01
 -3.2918554e-02
 -3.8623995e-05
  1.8710449e-06
  2.5199963e-05
  1.2810190e-01
 -7.5197709e-03
 -2.6528544e-06
 -1.8187889e-04
  1.9208970e-05
 -3.2528073e-03
 -8.4131612e-03
 -3.9539835e-04
  2.0059391e-05
 -1.7703671e-04
  5.8939308e-06
 -1.9014248e-04
 -1.4825156e-06
 -7.9652156e-05
  6.6297553e-06
  1.5127509e-03
 -1.5261750e-05
 -1.2073297e-05
  3.4467655e-04
 -1.9090589e-02
 -3.0598734e-03
  1.0995389e-05
  4.2933729e-01
 -8.2444996e-02
 -3.0005190e-01
 -2.2854383e-01
  6.3121080e-01
  3.5386684e-06
 -7.0982287e-06
  4.9557515e-05
  3.8689971e-01
  6.8590357e-03
  3.5785263e-06
 -8.8733541e-06
  2.6280110e-05
 -9.8384783e-02
  8.5691072e-06
  7.5766872e-07
 -1.6149490e-05
 -1.8394983e-05
 -1.9006322e-01
  1.1110359e-05
 -3.0256913e-04
  9.4274319e-06
  8.2165461e-05
  2.0047739e-04
 -2.8391134e-06
  4.5531087e-06
  1.4702237e-05
  6.9017929e-05
  2.3550952e-05
 -2.3546011e-06
  2.7982528e-06
  1.3683258e-05
  1.2574908e-04
 -5.0061371e-05
 -6.7298815e-06
 -4.5713487e-06
  2.2666638e-05
 -1.6946180e-05
 -4.6771238e-06
 -1.0195310e-05
 -4.9393329e-06
 -1.4253517e-05
  7.2227244e-06
 -1.2178611e-08
 -4.6914578e-05
 -1.9616304e-05
 -5.3245276e-05
  5.8909387e-07
 -1.3798048e-06
  3.9194718e-05
 -2.0695166e-05
 -7.2345056e-06
  2.2335747e-05
 -1.3303241e-05
  3.4794914e-05
 -3.1591817e-03
 -4.8364881e-02
  7.5068909e-01
  1.1826978e+00
  3.2541798e-03
 -4.2673966e-01
  2.7701342e-01
 -6.4945747e-03
  1.0153457e+00
  4.8615944e-01
 -1.6232908e-01
  1.9547364e+00
  2.5205439e-01
 -6.0078317e-01
  3.2452472e-02
  4.2628369e-01
  1.2403220e-01
 -7.0619786e-01
  5.9312993e-01
  3.0045646e-01
  8.7659955e-06
  4.7983390e-01
 -1.1646552e-01
  1.3013134e+00
  1.7368498e-05
  6.3580992e-05
 -3.4402668e-01
  4.8235198e-04
 -4.8627323e-01
  2.4436566e-04
  2.5159579e-05
  1.3477772e-05
 -3.5198389e-06
 -1.1287379e-05
 -1.7154095e-04
 -1.7755162e-06
  4.0306268e-06
 -2.3196024e-07
 -2.0194537e-04
  1.7631866e-05
  7.8590252e-05
  8.1960143e-06
 -5.3175972e-06
  2.0852674e-06
  6.1111255e-06
 -1.7452072e-05
  5.4322845e-06
 -1.2357558e-05
  2.5275845e-06
  9.9717225e-05
  2.5443982e-05
  2.7811525e-06
 -7.0336541e-06
  6.3319831e-06
  8.8183169e-06
 -4.6486575e-06
 -6.6268667e-06
  4.0659630e-05
  2.6592839e-04
  4.8670961e-07
 -8.1066646e-06
 -3.2165064e-04
 -6.8378918e-02
 -5.6833465e-05
 -1.0485410e-05
  6.8701897e-06
 -2.1312471e-06
  5.0827159e-05
 -2.0789433e-01
  6.4850688e-02
  4.5706628e-08
  5.9640974e-01
 -5.5142740e-05
  7.0327216e-05
  9.4673087e-05
  4.2114257e-06
 -5.7677522e-07
 -1.6498225e-05
  3.1598614e-05
 -7.7359700e-06
 -5.3113454e-06
  1.7491366e-05
 -9.7990152e-05
  8.6025166e-06
 -1.4213890e-04
  6.1061619e-06
 -3.7351969e-05
 -6.2584084e-05
  1.0835145e-04
  2.5579630e-04
 -6.4924651e-01
 -5.5646926e-01
 -2.8640383e-01
 -3.7954795e-01
  3.8836011e-01
  3.4924650e-01
  6.3236237e-02
 -2.7522495e-01
  4.2876297e-01
  7.6718062e-01
 -3.1921616e-05
  5.2098949e-05
  1.9225539e-04
 -1.3204475e-03
 -8.5003984e-01
  1.2072106e-05
  5.6714375e-06
 -5.9105062e-01
 -5.8937829e-04
  3.2377709e-05
 -1.0624647e-06
  7.6113291e-05
 -2.1719770e-03
  3.7747118e-04
 -2.5374265e-04
  5.2957894e-05
 -3.8836275e-05
  1.8715749e-04
  6.6627458e-02
  1.8473146e-04
  4.2465585e-01
  1.4595120e+00
 -6.6565262e-05
  2.8634597e-02
 -4.9657741e-01
  2.0097086e-07
  5.7818888e-06
 -8.0468291e-01
  3.6986481e-02
  3.5797673e-01
  1.6369808e+00
 -3.0384477e-05
 -5.2929274e-05
  8.6891443e-01
  7.7131945e-01
 -6.8875202e-06
  3.2571057e-05
  3.6595193e-05
 -4.0196748e-05
 -4.1816643e-06
 -7.7067816e-01
 -5.2483302e-01
 -4.4286722e-01
  1.7426150e-04
 -6.6321016e-05
 -1.9694037e-04
 -3.6813621e-03
  3.5088458e-06
 -3.6977292e-06
  7.4335098e-01
  5.0132322e-01
 -2.0934758e+00
  1.4278250e-05
 -3.9279085e-01
 -1.0857525e+00
  1.1509039e-06
  4.1192790e-05
  2.5685303e+00
 -1.7206297e+00
  1.5453312e+00
  1.4957114e+00
 -2.5614917e-01
  1.3442105e-01
  1.7071557e+00
  7.9186487e-01
 -2.2834952e-06
 -9.4636607e-06
 -2.0170395e-01
 -8.3867330e-05
  2.8891030e-01
  4.5881110e-01
  9.5862311e-01
 -1.3689066e+00
 -4.3382609e-01
  3.7534058e-01
  1.3774597e-04
 -1.1567367e+00
 -1.8258702e-07
 -2.0902164e-01
 -9.0641534e-01
 -2.0965528e+00
  7.3041481e-01
  3.7020329e-01
 -5.9729803e-01
 -2.4337271e-02
  1.7407160e-02
 -4.9968013e-01
 -9.7983247e-01
  1.5741516e+00
  3.8304675e-01
  2.4923596e-01
  9.3647458e-02
 -6.3243550e-01
 -9.5531374e-05
 -2.0196883e-05
  3.1337366e-01
 -1.3033087e-05
  1.4406525e-05
  1.3492225e+00
 -9.8130387e-01
 -6.3367325e-01
  8.3977777e-01
  8.7833554e-01
  6.0806209e-01
 -1.0554512e+00
  5.3903663e-01
  4.6165049e-01
 -9.1708511e-01
 -1.7165561e-01
  9.8004647e-02
 -2.4116747e+00
  4.1327780e-01
  1.8643968e-01
 -1.1004658e+00
  1.5055696e+00
  2.8721955e-02
  3.7006471e-02
  3.1804803e-01
  9.6661079e-01
  5.9475434e-01
 -2.3043631e-03
 -5.5376697e-01
  1.3436311e+00
 -1.5297361e-05
  1.6648482e-01
  1.5567355e+00
 -1.3096970e+00
 -1.8167751e+00
  1.8141062e+00
  1.0022415e+00
  1.6501893e-01
  1.6700324e+00
 -7.7588475e-01
  1.1237328e+00
  6.5137583e-01
  2.3878077e-02
 -1.2844069e-01
  1.9393270e-01
 -4.1397498e-03
  2.1031559e-01
 -5.0322074e-01
  6.5224349e-01
 -1.7099643e-01
 -1.6589586e+00
  1.0414020e+00
 -7.0505661e-01
 -1.7440453e+00
  9.1114715e-02
 -1.0485702e+00
 -1.1929507e-01
 -4.6618325e-01
  7.7432267e-02
 -1.2631825e+00
  2.8992113e-01
  5.8979118e-01
 -6.5918291e-01
  5.6629401e-01
  1.4671890e-01
  1.8176572e+00
 -3.0364525e-03
  1.2800716e+00
  9.8861116e-01
 -9.7282702e-01
 -1.3285756e+00
  1.1232818e-01
  3.9541817e-01
 -3.4866242e+00
 -1.5037465e-01
 -2.0989845e+00
 -2.5166416e-01
  1.0468551e+00
 -7.0008053e-04
 -9.0213411e-02
  1.7091792e-05
  3.2480395e-05
 -2.5603578e-03
  1.3663043e+00
 -1.0063668e+00
 -3.8628084e-05
  8.0786496e-01
 -7.5641371e-02
  2.4337805e-05
  4.4900009e-01
 -2.3559991e-01
 -4.7951317e-01
  5.5556726e-01
  5.0941509e-01
  1.1396618e-01
 -9.1461307e-01
 -5.5052763e-01
 -1.4826095e+00
  6.5101546e-01
 -1.1638114e+00
 -2.6425574e+00
  4.8658490e-01
 -1.0335202e+00
 -8.3088303e-01
  3.8702545e-01
 -1.1404510e-01
 -3.3871216e-01
 -9.5430797e-01
  2.4486282e-03
  4.1672534e-05
  2.7532032e+00
 -7.2654420e-01
  4.2168576e-02
  1.2537953e+00
 -8.6467236e-02
  1.2522352e-04
  9.6197003e-01
 -9.6623329e-03
 -4.4544557e-01
  1.2777225e+00
  6.3101880e-02
  4.4876990e-01
  7.1702339e-02
 -7.4395269e-01
 -1.4863418e+00
 -9.2706475e-03
 -2.3786354e-01
 -2.8738012e+00
 -5.4769778e-01
  1.2903666e-01
 -4.6461794e-01
 -3.4038970e-01
 -9.9912614e-02
 -5.6396973e-01
  7.4542367e-01
  2.8958658e-04
  2.9760969e-01
 -9.8362312e-02
 -8.7113118e-01
 -1.6697995e-02
  1.3872403e+00
 -2.1858038e-01
  3.2038748e-04
  6.7764908e-01
 -1.2514399e-05
 -2.0960112e+00
  2.1164591e+00
  8.3412153e-01
  4.1424203e-01
  1.2404470e+00
  5.8550388e-01
  7.3683411e-01
 -7.9899704e-01
  1.1123098e-01
  1.3492161e+00
  1.2190183e+00
  1.4617485e-01
 -9.1216825e-02
 -1.7874216e-01
 -1.2368371e-05
  6.5664695e-05
  7.5495215e-03
 -2.4604627e-05
  3.3453896e-05
  6.4743555e-01
  2.1290740e-01
  8.7109256e-06
 -4.8524603e-02
  6.8957794e-01
  1.0663015e-01
 -4.0363947e-01
  1.4282992e+00
 -9.4417042e-01
 -8.1974614e-01
 -1.8440381e-01
  7.3291844e-06
  8.6430854e-01
  2.4835335e-01
  3.9224291e-01
 -2.5538498e-01
 -1.7900729e-01
 -2.5091712e+00
 -1.1814947e+00
  2.0625758e-01
  3.3358967e-01
  1.2785501e+00
 -4.9370541e-05
 -3.0083720e-06
  2.2106848e+00
  3.4501460e-01
 -6.5658021e-01
  1.8995095e+00
  1.0458361e+00
  3.9700513e-05
 -1.8593373e+00
  8.2223874e-01
  7.7361474e-05
 -6.2244087e-01
  1.2183753e+00
  6.7517191e-01
  1.1721392e+00
 -1.8013042e-04
  1.6214047e-03
 -2.0733509e-02
  7.3641229e-01
  3.7392822e-01
  1.0375527e-01
  1.8232933e+00
  1.1342852e+00
  3.1077978e-01
 -2.1069314e-01
  2.3584369e-01
  7.2643805e-01
  3.4781051e-04
  1.7848735e-01
 -1.0131129e+00
 -1.9240183e+00
 -1.9655507e+00
  2.4315734e-01
  8.4234887e-01
  3.8403748e-05
  1.1667204e+00
 -5.0550830e-01
  7.0679612e-06
 -8.4432918e-01
  4.4115049e-01
 -6.3538551e-02
  9.4705313e-01
  3.0684802e-01
  1.8123473e-01
  1.0282445e+00
  1.4570265e+00
  6.2066201e-02
 -9.4642872e-01
  4.5024928e-01
  4.1737625e-01
 -1.0282778e+00
 -5.6785822e-01
  1.6867003e+00
  1.4798242e+00
  2.1549151e-07
  5.0198919e-06
  4.2297850e-07
  2.1179585e+00
  3.2267049e-02
 -3.5546868e+00
  6.0384160e-01
  6.4112939e-04
 -6.1759645e-01
  6.0921329e-01
  6.0020678e-02
 -3.1932205e-02
 -2.1359355e+00
  1.1962692e-01
 -1.6873477e-01
 -9.6551114e-01
  1.7333262e-01
  6.5667063e-01
  5.1921349e-02
 -4.2171282e-04
  6.8796277e-02
  2.7316263e+00
  1.9202001e+00
 -6.4195937e-01
  1.6679708e+00
  1.0000254e+00
 -1.5866642e+00
 -6.9398220e-07
 -2.0840060e-05
  4.0021792e-02
  5.1468813e-01
  9.7160393e-01
 -1.1618155e+00
  1.6103609e+00
  9.6312848e-05
 -1.4236166e+00
  8.1942135e-01
  6.0590664e-05
 -3.5051573e-02
 -6.7326838e-01
 -2.9772803e-01
 -1.8473092e+00
 -1.2291087e+00
  8.1456935e-01
 -7.6651173e-05
  5.5998236e-01
  3.6326284e-03
 -9.3930459e-05
  3.3157653e-01
  1.7378745e+00
 -5.4138247e-02
 -5.5707181e-01
  2.5744036e-01
 -2.9876083e-01
 -5.9653954e-05
  7.8990430e-02
 -8.9951825e-01
  1.3163679e+00
 -7.3691577e-01
  6.2176287e-01
  3.6682183e-01
  2.2186475e-01
 -1.2532057e+00
 -1.0785220e-02
  1.0237324e-05
 -2.4745186e-01
  1.4006246e+00
  5.4690772e-01
  1.5674610e+00
  1.9190763e-01
  4.5765522e-01
  2.4036841e-01
 -7.4111843e-01
 -9.0221781e-01
  1.4656260e+00
 -2.4641702e+00
 -9.5391917e-01
 -5.6327236e-01
 -1.4771430e+00
  4.5746389e-01
 -3.5617584e-01
 -2.6952422e-01
 -4.8311055e-01
  1.0780153e+00
 -4.1985983e-01
 -7.3647348e-04
  1.3448313e+00
  3.0177476e-05
  1.7840799e-05
  6.0593509e-05
  1.3685767e-02
  3.8491645e-01
 -2.9912577e-03
  8.8472618e-03
 -4.0985745e-01
 -1.0316553e+00
  5.4835577e-02
  9.6422691e-06
 -1.2319623e+00
 -1.9858005e+00
 -1.8775762e+00
  8.9026886e-01
 -9.9445447e-02
 -1.6147220e+00
  1.4132255e+00
 -3.9320597e-03
 -1.0123210e+00
  1.4739934e+00
 -7.5013906e-01
 -1.4647136e+00
  3.0241996e-01
  5.3194106e-01
 -3.2538128e-01
  7.9952317e-01
  2.5960931e-01
  2.9791075e-01
  5.8928814e-02
  3.2974139e-01
  1.3521113e+00
 -8.1260008e-01
  1.1267241e-05
 -4.7118157e-01
 -1.4913044e+00
 -5.4810699e-02
  3.3032790e-02
  8.2617623e-01
 -7.9571205e-01
 -3.4768343e-02
 -1.2181530e+00
 -1.3607695e+00
 -1.6058698e+00
 -9.5465016e-01
 -5.4985261e-01
 -3.5245758e-02
  1.4740034e+00
 -1.3030936e+00
 -1.4913193e+00
 -7.0388293e-01
 -7.7542233e-01
  1.0532829e-01
 -1.7081236e+00
  1.2520485e+00
  1.3442321e-01
 -8.3801699e-01
 -5.2487439e-01
 -1.8795151e+00
  1.1629198e+00
 -1.5851604e+00
 -9.6602583e-01
  6.1617661e-01
  1.7675650e+00
  1.4334245e+00
 -1.3931421e+00
  5.5242253e-06
  4.7976717e-02
  1.2617110e-01
 -1.4444526e-01
 -7.4267123e-06
 -2.9789671e-01
 -2.2843561e-01
 -1.3284158e+00
 -3.4985077e-01
  1.9489107e-06
 -5.2392147e-06
  6.8298723e-05
  1.1966031e-05
  2.7239319e-06
  1.2212218e+00
  2.1156773e-06
 -7.1450031e-01
  5.2899727e-06
  1.4173006e-05
  8.7078810e-03
  1.3501829e+00
 -1.3759351e-01
  6.9927769e-06
 -4.9223682e-01
  6.7309397e-01
  4.6952069e-01
 -1.3088574e+00
 -6.3599379e-07
  4.6260184e-06
 -4.2787361e-01
 -9.4278330e-06
 -5.0313571e-05
  1.8975424e+00
 -6.9046986e-01
  3.8656735e-01
 -4.0867051e-01
  9.8639384e-06
  7.0631945e-06
  6.7996365e-01
 -8.8779218e-03
  1.4397764e-05
 -6.2441862e-01
  1.3824730e+00
  7.1706355e-02
 -1.2027421e+00
  1.7250492e-05
  5.0034130e-04
  7.4166155e-01
 -4.2235079e-06
 -3.1195101e-05
 -1.2301726e+00
  7.6492649e-01
  8.6555243e-01
 -6.1044598e-01
 -3.6485196e-06
 -6.9091320e-06
  3.7234697e-01
 -3.3266697e-05
  4.1632888e-06
 -2.2152552e-01
  3.0606240e-01
 -1.6843829e+00
 -3.4813295e-04
 -4.9230703e-03
  5.3460845e-03
  4.1732517e-01
 -7.9926422e-06
  1.5353443e-06
  1.2568969e-01
 -2.1065052e-01
  2.6017031e-01
  1.3157491e-02
  1.8633364e-05
 -7.8776675e-06
  7.4272579e-01
 -4.8223192e-06
 -1.9943413e-05
  6.6040501e-02
  9.3695439e-02
  7.4702609e-01
 -5.1064652e-01
  3.3755518e-06
 -8.5100504e-07
 -1.4100117e-05
  5.5258606e-02
 -4.8705301e-06
  4.2394146e-01
 -6.8761629e-01
  1.1197708e+00
  3.8885459e-01
  4.6288101e-06
 -1.8156429e-04
  2.5906866e-05
 -4.6534428e-06
  1.9067684e-05
  1.0543356e-05
  1.0902873e-04
 -5.4964097e-05
  4.6535046e-05
 -1.8829721e-06
  1.5553860e-05
  1.7968761e-05
  1.6116035e-01
  1.3415916e-05
  8.2664382e-01
 -1.5244462e+00
  1.1085044e+00
  3.4527026e-02
  8.6060281e-06
 -6.6020748e-06
  1.2967771e-06
  1.8303106e-04
 -1.3019126e-06
  8.3045441e-01
  4.6291023e-01
 -1.2651342e+00
 -2.7166378e-01
 -1.1447077e-07
  1.6212753e-05
  1.0496570e-05
  9.8960169e-02
  6.6938524e-06
  1.5567309e+00
 -2.5165671e-01
  8.7022643e-05
  1.2286495e+00
 -1.0492474e-05
  2.4768290e-06
 -2.7774893e-05
  2.5763061e-06
  4.2705465e-04
  2.9029191e-01
  6.0250789e-01
  2.3824692e+00
 -3.8501620e-01
 -1.9909492e-06
  9.4734551e-06
  1.1242982e-05
  2.7053957e-03
 -5.0175695e-06
 -2.1388839e-01
 -5.7157259e-02
  3.3374426e-01
  6.3953787e-02
  6.2711194e-07
 -2.9031573e-06
 -7.0763861e-07
 -6.9848397e-07
  1.6694073e-06
  1.7497044e+00
 -4.3111685e-01
  7.2428113e-01
  1.1052772e+00
  6.4924056e-06
 -8.6542732e-06
  6.6332332e-06
  7.4888662e-06
 -1.7607454e-05
  5.4446023e-02
 -1.5913014e-01
 -5.4109842e-01
  6.8382519e-01
 -2.0117570e-05
  7.6375118e-06
  1.3721730e-05
 -1.1148467e+00
  1.6778415e-05
  9.6886528e-01
  1.9038883e-01
  5.4078883e-01
 -1.2488470e+00
 -1.9791865e-07
 -7.1819682e-05
 -7.2777046e-05
 -1.8706440e-06
 -1.6561482e-05
  3.2978389e+00
  1.2187511e-04
  1.2567054e-04
 -4.7829940e-06
 -9.4225652e-07
  4.2182295e-05
  5.6063109e-06
 -6.4113009e-01
 -5.7253870e-05
  1.8954875e-01
 -3.7167651e-05
 -2.0613259e-01
 -1.5689220e-01
  1.2012903e-05
 -8.5199463e-06
 -7.2648613e-06
 -1.9482979e-01
 -9.1328502e-07
 -5.9136611e-01
 -2.7324473e-02
  6.1285067e-01
 -1.0181829e+00
  5.4522716e-06
  6.5022141e-05
  9.0086509e-08
 -9.5102847e-02
  3.0990268e-05
  5.0216377e-01
 -2.0095237e-01
  6.0295214e-08
 -1.3461050e+00
 -1.0405351e-05
 -2.4297519e-06
 -2.1310630e-06
 -6.8230546e-01
  1.1220659e-05
  2.7606389e-01
 -3.1678244e-02
  8.8249469e-01
 -1.1473337e+00
  7.2195967e-06
  5.1145553e-06
  2.6079528e-05
 -1.4566752e-04
  5.1742568e-06
  1.2940366e+00
  7.0455201e-02
 -4.1073370e-01
 -1.6698060e+00
  2.0678210e-05
 -2.4387158e-05
 -4.2063780e-06
 -1.1029172e+00
 -6.8832169e-06
  5.1284474e-01
 -3.3348396e-03
 -5.7567811e-01
 -9.7301924e-01
 -1.1865821e-05
 -3.9472925e-06
  2.3481807e-04
 -3.0673561e-01
  6.1229171e-06
 -3.4018964e-01
  7.4285701e-05
  3.7671116e-01
 -4.5491794e-01
  1.0493937e-01
  5.5374825e-01
 -5.8776206e-01
 -1.4940262e-01
  5.8595192e-06
  3.4372723e-01
  6.5731043e-01
  8.5567993e-01
 -7.1453661e-01
  8.0267973e-06
 -3.2640742e-06
 -4.7599201e-04
 -1.0243501e-06
 -2.7444850e-05
 -1.0941270e-01
 -1.6807297e-05
  4.7861099e-01
  1.9310179e-05
  1.0791430e-01
  4.6165645e-01
 -1.0272925e+00
 -1.4727915e-04
  1.9640788e-06
 -9.5051318e-01
  5.7441980e-01
  1.7630026e-01
 -9.9297756e-01
 -1.3113030e-06
 -2.3551058e-05
 -5.3422123e-01
 -2.3653009e-05
 -1.8399843e-06
  1.0171475e+00
 -2.3492837e-01
  1.0407535e+00
  1.1045214e+00
  7.7434458e-02
  2.6243916e-01
  4.7822565e-01
 -1.3112413e-05
  9.1717557e-06
  2.2163673e-05
  9.4585896e-01
 -5.5168167e-02
  3.8118762e-01
  6.2601839e-06
  4.7085760e-03
 -9.9736666e-03
 -5.3826877e-04
  2.5803567e-05
 -1.7081383e+00
 -2.5507501e-01
  1.7823374e+00
 -3.6389673e-01
  1.2206357e-02
  2.2823254e-03
 -2.4971910e-01
 -3.7867245e-05
 -1.0276533e-04
 -1.8612759e+00
  2.4705936e-01
  1.4457012e+00
 -2.3858526e-01
 -2.1559144e-05
  2.3876897e-01
 -8.9825356e-01
 -1.6753518e-03
  1.3015242e-06
 -7.0804620e-01
  6.0317081e-01
 -2.4297246e-01
  2.0021020e-01
  1.6425227e-04
  1.4086982e-05
 -5.4161674e-01
  2.1173462e-06
 -7.8758952e-05
 -6.7911166e-01
  6.4436418e-01
 -4.1305342e-01
 -2.4063021e-01
 -1.7744909e-06
  1.1913408e-05
 -5.8488226e-01
  2.6024243e-06
 -2.6452287e-06
 -3.4053406e-01
  9.6399778e-01
  6.2363660e-01
 -4.2652896e-01
  1.3980904e-05
  1.4691516e-04
 -9.5453026e-05
  1.9942207e-05
  9.0572703e-06
 -2.4123180e-04
  8.5236812e-01
 -2.1796203e+00
  4.4077378e-06
 -1.3832089e-06
 -4.6899613e-06
 -4.5286137e-01
 -6.2503414e-06
 -1.1945424e-05
 -4.7413273e-06
  4.9969263e-02
  1.2444241e-01
  5.9080231e-01
  2.2636397e-05
 -9.6519452e-06
 -7.5825322e-01
  2.7217775e-05
 -3.6566237e-06
 -3.4491420e-01
  1.3448014e+00
 -3.5873434e-01
 -6.4895465e-04
  5.6678778e-06
  3.4347842e-05
 -7.3958233e-02
  1.2197855e-05
  6.1228670e-06
 -3.9923501e-01
 -2.8821381e-05
 -9.3902595e-02
 -6.5148442e-06
 -7.3751635e-06
  1.6516160e-05
 -4.8902839e-01
  1.1412120e-05
 -2.9727407e-05
  6.5566099e-01
  3.2867789e-01
  3.9433837e-01
 -3.9717931e-02
 -2.5839286e-06
  4.1517319e-06
 -8.5448414e-01
 -5.4405891e-06
 -2.0556461e-05
 -4.8970586e-01
  1.9833169e+00
 -1.7568927e+00
  4.0714011e-01
  1.2786217e-05
 -2.8822360e-06
 -1.6124911e+00
  4.0633249e-06
 -3.6635669e-05
  1.1218146e-05
  1.3651627e-02
  5.1740724e-01
 -5.5029577e-01
 -1.2730816e-05
  1.0124450e-05
 -4.6085998e-01
  1.4818972e-04
 -1.1380279e-05
  4.2331317e-01
  1.8767931e-01
 -6.4696771e-01
 -2.6438010e-01
  1.2413758e-02
  1.2413758e-02
  1.2413758e-02
  1.2413758e-02
  1.2413758e-02
  6.7241365e-01
  6.7241365e-01
  6.7241365e-01
  6.7241365e-01
  6.7241365e-01
  1.4738771e-01
  1.4738771e-01
  1.4738771e-01
  1.4738771e-01
  1.4738771e-01
  1.0924964e-01
  1.0924964e-01
  1.0924964e-01
  1.0924964e-01
  1.0924964e-01
  1.6452778e-02
  1.6452778e-02
  1.6452778e-02
  1.6452778e-02
  1.6452778e-02
  1.8038879e-01
  1.8038879e-01
  1.8038879e-01
  1.8038879e-01
  1.8038879e-01
