nep4 3 Ba Zr S 
cutoff 8 4 150 20
n_max 4 4
basis_size 8 8
l_max 4 2 0
ANN 30 0
 -1.3740639e-01
  4.6590707e-04
  7.3807861e-04
  1.6418021e-02
 -1.8848024e-02
  1.2989511e-04
 -3.6108014e-03
 -3.6320316e-03
  1.9781812e-04
 -2.2028196e-01
  1.7643225e-04
 -3.4091709e-04
 -2.0466679e-04
  2.1095746e-03
  2.5385211e-04
  7.7019591e-05
  2.9831377e-04
 -6.2868564e-04
 -5.8841595e-04
  1.7508678e-04
  2.9434159e-04
 -1.7036771e-04
 -2.3385108e-04
 -1.1744910e-04
 -1.6729619e-02
  2.3708158e-04
  2.8303423e-04
  4.4671481e-04
  1.1884984e-04
  4.4070775e-04
 -9.5222116e-04
 -4.1666740e-04
 -5.2504783e-04
  1.2298384e-03
 -2.2925372e-04
 -9.5769370e-05
  2.7188204e-05
  3.3248510e-04
  3.1203555e-05
 -3.6684395e-04
 -3.3493785e-04
  1.4670465e-04
  1.4643118e-04
 -5.3013861e-04
  4.4740026e-04
  3.0158329e-04
  1.2192508e-03
 -1.9091722e-05
 -5.8061472e-04
  2.9522756e-05
  5.6644832e-04
  5.8135734e-04
 -3.8158498e-04
  7.6659588e-04
 -5.3589593e-04
 -3.8422225e-04
 -4.4167347e-04
  7.8869396e-04
 -7.1188650e-04
 -2.8882983e-05
  3.7414975e-05
 -1.0996445e-04
 -8.1426369e-06
 -1.4814857e-04
 -6.7498500e-04
 -2.1234392e-04
 -3.1153092e-04
  5.3365546e-04
 -3.0624314e-04
  1.7348918e-04
 -3.7845928e-04
 -1.0341832e-05
 -9.0756177e-05
  5.4679251e-05
  4.0185874e-04
 -1.5650249e-04
  2.0426139e-04
 -2.7921834e-04
  2.0739023e-04
  1.9006344e-05
 -4.1437644e-04
  2.8857583e-04
 -2.9246107e-04
 -6.0559025e-05
 -1.1005871e-04
  9.9604431e-06
 -3.0382082e-04
 -4.5223678e-05
 -6.4413302e-04
 -6.8362235e-05
  1.8662497e+00
 -2.8161516e-02
 -1.3945240e+00
  4.2521802e-01
 -1.5811241e-01
  6.0377212e-04
  1.2558611e-01
  6.3697092e-02
 -4.4212702e-01
 -5.0518399e-01
  9.9566942e-06
 -1.4161269e-04
  1.1133603e-05
 -1.1207332e-01
 -3.3032566e-01
 -3.0255096e-04
 -9.7603959e-05
  2.2444594e-01
  1.7193380e-01
 -5.0108147e-01
  1.1501808e-04
  1.9709229e-04
  1.1478243e-01
  3.9417082e-01
  4.3959323e-01
  5.8550609e-04
 -2.1594553e-04
  5.7823669e-05
 -1.5279226e-03
 -1.1547680e-03
  5.0067978e-05
  1.4041906e-04
  1.1972655e-04
 -5.3580402e-04
 -2.5651325e-04
 -1.5353272e-04
 -1.3860300e-03
 -2.9286864e-04
 -2.7475832e-04
 -4.5440356e-05
  2.5148026e-04
  1.6930701e-04
  5.9285208e-05
  3.1909804e-04
 -9.9652773e-04
  7.5081618e-05
  2.1741647e-04
 -1.0383831e-04
 -3.2732188e-04
 -1.0094891e-04
 -8.2464190e-05
  3.9270750e-04
 -7.4023014e-04
 -1.4418992e-03
  9.7596185e-06
 -1.9417887e-04
 -1.2625879e-04
  3.9171427e-04
  8.2959541e-06
  4.2817558e-04
 -7.6527125e-04
 -2.0087497e-04
  5.9137202e-04
  8.3626486e-02
  8.2791870e-04
 -4.4215060e-04
  1.8162321e-04
  1.6884490e-04
  4.5411281e-05
 -2.5583073e-01
 -3.2287868e-04
  1.6047439e-04
 -2.4193004e-04
  2.9519052e-04
  1.4603789e-05
 -4.6493241e-04
  3.3893445e-04
 -6.3972530e-04
 -2.3384134e-03
  2.9499019e-05
 -2.5545745e-04
 -1.2203988e-03
 -8.3179708e-04
 -3.6805708e-04
 -7.2224975e-05
  1.1033934e-04
 -3.1680462e-04
  2.2145771e-04
 -1.4250835e-03
  1.9982109e-04
 -2.5633695e+00
  6.4683193e-03
  1.2771678e-01
 -9.0508151e-01
  1.7285149e+00
  7.3173025e-04
  4.3598080e-05
  4.1065607e-04
  2.1730149e-03
  2.8968114e-02
 -2.8039969e-04
  1.1960084e-03
  5.1849089e-05
  2.3642189e-03
 -2.8871762e-04
 -4.4378193e-04
  1.7274347e-04
 -3.4241792e-04
  1.4886224e-04
  3.5388514e-03
 -3.0283793e-05
 -7.4322983e-05
  1.5345303e-04
  2.6320742e-04
 -3.4318824e-04
 -1.4799796e-03
 -9.9524616e-05
  9.2173426e-04
  4.4865455e-04
 -4.6249488e-04
 -1.6675835e+00
  8.0473852e-01
  1.6122042e+00
 -1.1471786e+00
  8.3182937e-01
 -1.0465503e-04
 -1.8387645e-03
  6.2213857e-03
  3.0334732e-01
 -7.3534745e-01
 -1.9218570e-04
  1.7471700e-04
  2.5652774e-04
  2.9684938e-02
 -1.1823579e-04
 -3.1494581e-06
 -8.2052674e-04
 -8.5392766e-02
 -1.1706747e-01
  1.0043308e-01
  7.0910883e-04
 -1.6082211e-05
 -1.7534235e-03
 -1.0150869e-01
 -1.8380086e-01
  8.5186824e-05
  2.4094466e-04
  2.7845771e-04
  5.0768745e-04
  1.9182332e-03
  1.1972690e-01
  8.3416037e-02
 -2.4854066e-04
 -2.5124982e-01
 -2.0136669e-01
 -2.6447202e-05
  1.8120540e-03
  3.0162826e-01
  2.3942856e-02
  7.7265161e-01
  4.8569540e-04
 -3.3643526e-05
 -6.1101717e-05
 -9.3865590e-03
 -5.7296606e-04
 -9.2684377e-06
  3.2883370e-04
  3.2627184e-02
  9.3071042e-03
 -1.5138022e-03
 -5.0158874e-04
 -1.7487326e-05
  7.5387545e-03
  9.6205905e-02
  1.1781174e-01
 -2.0456742e-04
 -2.3469309e-04
  4.8719617e-06
 -2.2396495e-04
 -2.7639905e-03
 -1.0028657e-04
  4.1138669e-04
 -5.2651759e-02
 -1.3165474e-01
  7.0964696e-04
  3.6262165e-04
  1.2688300e-03
 -2.2120493e-04
 -2.6906468e-04
 -1.6113216e-02
 -7.1200158e-04
 -2.6634088e-04
 -4.1874108e-04
 -4.0213243e-04
 -5.3637172e-04
 -5.5527507e-04
 -2.1978421e-04
  1.9371906e-02
 -1.8834068e-04
 -3.6312353e-02
 -9.5793177e-05
 -1.1987892e-03
  2.0917621e-05
  6.5387343e-04
  1.1630430e-02
 -1.3545816e-04
 -8.0664213e-05
 -1.3905225e-04
 -4.2808423e-04
 -1.3257632e-04
 -7.8108430e-01
 -1.4338139e-04
  9.7243860e-04
  3.0495776e-04
  7.6662487e-01
  1.4455499e-04
 -8.9442893e-04
  4.3035474e-02
 -3.3108768e-04
 -8.6522847e-02
 -8.1900664e-04
  7.2542345e-04
 -2.7703287e-04
  2.4545339e-03
  5.8205327e-04
 -1.9332083e-04
 -3.0304084e-04
 -3.2058134e-04
 -1.8126912e-04
  2.1957672e-04
 -4.5259675e-04
  6.3929503e-04
 -4.0372944e-04
 -1.2351437e-04
  7.5881707e-04
  2.9059805e-05
  2.1502744e-04
  9.2141423e-04
  4.0955193e-04
 -2.7438064e-04
  4.7715026e-04
 -1.3604714e-04
 -6.5561058e-04
 -4.4413106e-04
 -2.8271909e-04
  2.8842228e-04
 -9.6382899e-04
  1.8033177e-04
 -6.8424805e-04
 -4.1972232e-04
  9.4845024e-04
 -1.4749859e-04
  6.4470187e-05
  1.8104944e-04
  4.4386121e-04
 -1.9155872e-04
 -4.5460291e-04
 -2.4755066e-04
  4.4604883e-04
  5.4084702e-04
  1.8479246e-04
 -3.0631878e-04
 -4.7931753e-04
 -6.0913223e-04
 -3.3727879e-04
  6.9664727e-04
  1.1409405e-03
 -1.8594116e-04
  5.9376494e-04
  3.4869692e-04
 -4.6916326e-04
  1.0491654e-04
  5.8929905e-02
  5.7358867e-01
 -5.4498458e-01
 -1.4339261e-04
 -3.9569885e-04
 -8.3306157e-05
  6.0399693e-02
  1.0494022e-04
 -9.3570845e-05
  2.0366855e-04
 -4.3290995e-05
  3.6527461e-03
  2.5729090e-04
  2.2751899e-04
  3.1314010e-04
 -3.3963405e-02
 -1.7128056e-03
 -8.2858751e-05
 -1.3046719e-03
  9.6607127e-04
 -6.7780336e-04
 -5.3866720e-03
 -4.0332831e-02
  3.1227824e-05
 -4.2078304e-05
  2.9527195e-04
  1.8014294e-03
  2.1422467e-05
 -3.9946121e-05
  1.1709388e-04
  2.2467368e-04
 -2.3412322e-05
  2.9302191e-04
 -6.5296242e-04
  3.6853645e-04
  1.4931137e-04
  5.5891928e-06
  4.1725938e-04
 -3.8486114e-04
  2.8767601e-05
  1.0754642e-04
  1.3838851e-04
  9.3286981e-05
  3.6697622e-04
 -2.5511376e-04
  4.9210561e-04
 -4.6315763e-05
 -1.4827517e-04
 -5.1143841e-05
  4.0436629e-04
 -4.5233470e-04
  1.0336172e-04
  3.9123610e-04
  1.8022749e-04
  2.3888092e-04
 -2.0498090e-04
  1.8817559e-04
  1.0383705e-04
  5.5513483e-01
  1.1998144e+00
 -1.0155183e-01
 -2.4069118e+00
 -4.7302264e-01
  1.5611986e-04
  1.3931772e-01
  6.2894218e-02
 -5.4932052e-01
 -7.6597720e-02
 -6.0005649e-04
  3.3496773e-01
  2.6366875e-01
 -3.4932747e-02
  4.7953692e-01
 -2.8596877e-04
  3.0130745e-04
  3.7407830e-01
  1.2163762e-01
 -1.0855108e-01
  3.1155595e-04
 -3.0576187e-04
  2.3694162e-01
  6.0572791e-01
  7.8167975e-01
 -7.1230526e-05
  7.4869278e-04
 -1.5629494e-03
 -7.4171447e-03
 -1.7562212e-01
 -1.3284036e-04
  6.6583118e-05
 -3.5824183e-01
 -2.3760450e+00
 -2.4632955e-01
 -7.7033293e-04
  1.0852428e-03
  3.4142619e-03
 -4.0706405e-01
  3.6514739e-03
 -2.3028562e-05
  9.1594364e-04
 -7.2034902e-04
 -1.0207311e-03
  9.1966841e-04
 -2.7517256e-04
 -3.7871410e-05
  2.0600852e-01
  1.2564746e-01
 -3.5280269e-04
 -2.3472238e-04
  4.9573119e-04
  3.9152702e-04
  1.2567742e-01
  1.8424694e-01
  1.8339336e-04
 -5.5178296e-04
  1.3759132e-05
 -2.8459728e-03
  1.9287219e-04
 -1.4415268e+00
  7.9776120e-04
  8.1818993e-04
  6.4900273e-04
  1.0374105e-02
 -7.7822559e-05
 -3.2485762e-04
 -7.8355341e-05
  1.9160683e-03
  1.3134656e-04
 -1.0180093e-04
  1.2515635e-04
  2.5271741e-04
  2.3655544e-04
  4.7847570e-05
  1.6666410e-04
 -4.5601136e-04
  9.8440432e-05
 -1.8653207e-04
  3.0348694e-04
 -1.9364621e-04
 -6.5508339e-04
 -3.0416639e-03
 -1.0322877e-04
  3.1535543e-04
  3.7516515e-05
 -2.8457027e-04
 -2.5358308e-05
 -4.3949316e-04
 -6.6489403e-05
 -1.0680593e-04
  3.3935663e-04
  3.6261443e-04
 -3.2218182e-04
  2.7844941e-04
 -1.6689210e-04
 -2.6359578e-05
 -3.8202357e-04
 -4.9847047e-05
 -2.5089417e-04
  8.5888460e-04
 -2.2649216e-03
 -2.1300098e-04
  1.1626720e-04
 -2.9853598e-04
  2.9785294e-04
 -2.9031956e-04
  2.7531361e-05
 -4.3617070e-04
  9.3102637e-05
 -3.3034966e-04
 -2.6107722e-04
  2.2224871e-04
 -5.3455668e-05
 -2.5666342e-04
  3.5628662e-02
 -1.0153898e-04
  4.3503189e-04
  1.7124117e-07
  6.6942378e-04
  1.9282575e-01
 -1.1872684e+00
 -3.4156576e-01
  1.8843235e+00
 -2.3922231e+00
 -1.3555432e-04
  1.6763825e-02
  2.6742157e-03
 -1.9885738e-01
  5.8975667e-01
 -2.1553671e-04
 -9.1753079e-04
 -2.7418998e-04
 -3.5882825e-03
 -1.5357464e-04
  5.1828468e-04
 -6.9276604e-04
  3.6706254e-02
  7.8616962e-02
 -4.5602977e-02
 -5.3583132e-04
  1.4243832e-04
  3.3165866e-03
  1.0856546e-01
  3.0129182e-01
 -5.5901382e-05
  1.0333394e-03
  4.4132670e-05
 -1.2361786e-03
 -2.3256324e-03
 -2.7522471e+00
 -4.1247973e-01
  1.3122060e+00
  1.4534571e+00
  1.7753228e+00
 -1.6016273e-04
  2.0841240e-05
  1.9052354e-01
  8.7298371e-02
  6.3230795e-01
  8.6183113e-04
 -1.7316802e-04
 -1.1722402e-03
  2.4666828e-03
 -1.8203466e-01
 -3.2893763e-04
  4.2924902e-04
  3.4839639e-05
 -4.3230597e-04
  1.0530529e-01
 -2.6230485e-04
  8.9487236e-05
 -7.5747754e-04
 -1.0144634e-01
 -1.6161419e-01
 -9.9382843e-05
  2.9151759e-04
 -3.8731674e-04
  2.8742457e-04
  5.4169260e-04
  5.4753269e-04
 -3.1527775e-04
 -7.3274614e-06
 -1.8496704e-04
  1.2092351e-04
  8.4206426e-05
  4.1677820e-04
 -5.6132856e-05
  3.9982211e-04
 -9.1821176e-04
  2.9574943e-04
  1.4648830e-04
 -1.8424491e-04
 -2.7828637e-04
  2.9903015e-06
  3.1523762e-04
 -5.4739753e-04
  3.6981003e-04
 -1.9551635e-04
 -2.0410787e-04
 -1.5147668e-04
  4.3620367e-04
  2.5262809e-04
 -3.3426969e-04
  1.0376841e-04
  1.2620068e-05
  8.6967146e-04
 -2.5050488e-04
 -4.1655547e-04
  1.7142111e-03
 -3.5365330e-04
  1.1395846e-03
 -5.7191076e-04
 -2.0107799e-04
 -7.3663330e-05
 -9.4352948e-04
 -3.9506536e-05
  3.6689074e-04
 -3.0607960e-04
 -6.4229878e-04
 -9.8648854e-04
  1.5570071e-04
  4.5908443e-04
 -5.9681619e-04
 -7.1029167e-04
 -3.1807192e-04
 -2.7858126e-05
 -3.2014665e-04
  1.3924959e-05
 -3.5608589e-04
 -3.3891131e-04
  1.4798020e-04
  3.1111729e-05
 -3.1684726e-04
 -3.6787961e-04
  2.1335819e-04
  1.1498965e-03
 -4.9421669e-04
 -4.2683748e-04
 -9.5612239e-05
  1.1118536e-03
 -5.6077080e-04
 -1.2633330e-03
 -1.0522868e-04
 -2.1983866e-04
  5.4299593e-04
  1.8929256e-04
  7.3530519e-04
  6.0357121e-05
  3.7065602e-05
 -2.5546859e-05
  4.5145083e-05
  3.9203718e-04
 -2.3771809e-04
 -8.2264829e-04
 -5.4906326e-04
  1.9642829e-04
  9.9020748e-05
  4.3660228e-04
 -6.3508138e-04
  2.5649721e-04
  2.2269163e-04
  7.6868129e-01
  2.1316853e-04
  2.2107837e-05
  1.0789843e-04
  8.0384413e-04
 -1.7040603e-04
 -2.3133853e-03
 -2.1740433e-03
  2.0669965e-02
  5.1073593e-01
  3.8737738e-01
  5.7430011e-01
 -2.6447454e-01
 -1.3754764e-04
 -8.3626423e-04
 -1.8812314e-01
  1.9369993e-02
  5.8468532e-02
  1.1592123e-04
  5.6008849e-04
  3.5115803e-04
  6.6519380e-02
  2.7399421e-02
  3.2093859e-04
  2.2280816e-04
 -4.2225182e-01
 -4.6741268e-01
  9.4386557e-04
  4.4240750e-04
  4.1374008e-04
  7.0632937e-05
 -1.3766693e-01
 -2.6850095e-01
 -8.4061874e-05
 -2.1665788e-03
 -5.7726860e-04
 -1.9992007e-05
 -4.7948642e-04
 -6.0836971e-04
 -2.6304790e-04
  2.1562728e-04
  4.6786529e-04
 -6.3407213e-05
 -3.1835266e-04
  4.8465218e-04
  5.5524538e-04
  8.1244251e-04
 -1.2186095e-04
  6.7107921e-04
 -1.2119319e-05
 -1.8981978e-04
  2.1717357e-04
 -1.2915587e-04
 -5.2916841e-04
 -2.4703849e-04
  5.5331277e-04
  7.9581246e-04
  7.0670922e-04
 -1.2703138e-04
 -9.4605470e-04
  1.3265882e-04
  1.7317827e-04
  1.8764471e-06
  1.7062071e-04
 -1.9224182e-04
  1.2129593e-04
  1.8813647e-04
  1.2785970e-04
 -1.2310194e-04
  7.2152657e-04
 -9.7074622e-04
  5.6116929e-04
 -2.3641136e-04
  3.5345336e-04
  3.3429899e-04
  7.6836394e-04
 -4.8774647e-05
 -2.2982141e-04
 -6.7929890e-05
 -4.6711657e-04
 -1.0080756e-04
  1.5374187e-04
 -2.9804343e-01
  2.6861642e-05
  3.4940775e-04
  3.1952889e-04
 -1.7467675e-04
 -5.3038390e-04
  7.6216711e-05
  9.9986535e-04
 -4.4355087e-04
 -5.1600439e-04
  3.9267298e-04
  7.9669575e-05
  1.2449903e-03
 -1.1720741e-03
 -5.3539098e-04
 -1.3104624e-04
  5.6574255e-04
 -6.5581196e-05
 -3.3235981e-03
 -3.2057773e-02
  9.9538907e-04
  8.7135116e-04
  3.6741371e-04
  5.0397910e-04
 -1.3613324e-03
 -4.9003441e-04
  4.5602428e-05
 -7.7975751e-04
  2.1381390e-04
 -2.4023186e-05
 -3.0351480e-04
  4.0852878e-04
  1.2992295e-03
  1.3663238e-03
  1.9015605e-03
 -3.8626100e-04
 -4.6258894e-04
 -3.2059327e-04
  2.6886358e-03
 -2.6364558e-04
  1.3711911e-03
 -1.7237572e-04
 -1.2575911e-03
 -8.1112928e-04
 -1.2480969e-03
  2.9023562e-04
  3.8050831e-04
  2.0093705e-04
 -4.2838755e-04
 -1.0528543e-03
  6.3737482e-04
 -2.3611158e-04
 -1.3112942e-04
  2.8443272e-04
 -6.2518154e-04
 -3.4121351e-04
  1.1457409e-04
  7.1466580e-05
  3.0635310e-05
  5.3968467e-04
  1.7916845e-04
  6.5494480e-04
 -1.5242388e-03
  2.7458582e-04
  3.6384849e-06
  5.4756517e-04
 -1.7128645e-03
 -4.1940634e-04
  5.4855604e-04
  9.8846096e-05
 -1.6486589e-04
 -1.8740511e-04
 -9.5327687e-04
  3.6270976e-05
 -8.2537933e-04
 -2.5296537e-04
 -2.7204209e-04
 -3.5561380e-04
  3.9140756e-05
 -8.1838494e-05
  7.5630625e-05
 -4.1108666e-04
  1.6359586e-04
 -3.5959910e-04
 -9.8339688e-06
  3.6913432e-05
  1.3774632e-03
  8.8938599e-04
 -5.6373398e-04
  2.4808195e-04
 -3.7779825e-04
 -2.0233957e-01
 -2.8857989e-03
  5.9582700e-04
 -6.9856737e-04
 -3.1005836e-04
 -1.6515156e-04
 -1.5627083e-05
 -2.1806492e-04
 -3.1109562e-04
  8.2729828e-05
 -2.0332767e-03
 -2.9791638e-04
 -8.5432250e-05
  4.0969859e-05
  1.1245563e-03
  3.3823785e-04
 -1.7257289e-04
  8.0861739e-04
 -1.0467565e-03
 -1.6219595e-04
  9.3143048e-05
 -2.2945319e-04
 -9.4926152e-05
 -7.1418610e-05
  1.0105168e-03
  1.5748989e-04
 -6.2020816e-05
  1.5497595e-04
 -9.8583277e-04
 -3.5685120e-04
 -1.1942696e-03
  2.2076199e-05
 -6.7693487e-05
  1.2819575e-03
 -1.4654922e-04
 -4.4675346e-04
  1.8787196e-05
 -6.5869215e-05
  3.8709994e-05
 -1.6522058e-04
 -3.1345262e-04
  4.6608820e-05
  3.5573684e-02
 -3.2639695e-05
 -5.0434046e-05
  6.3196713e-01
 -8.7927110e-05
  6.2101684e-04
 -1.6955961e-01
 -4.3030599e-01
  2.8924364e-01
 -7.6113150e-02
 -5.5485404e-01
 -9.2887604e-01
  1.2731518e+00
 -2.5633696e-04
  4.7006732e-04
 -1.7602091e-01
 -3.4291722e-04
 -2.4229024e-01
  4.1193742e-01
 -1.0223790e-01
 -1.0996418e-03
  1.3518273e+00
  1.1511005e-01
  4.2620272e-04
 -1.6986878e-04
 -4.7425082e-01
 -5.8007127e-01
  1.0557414e-05
  1.0195039e-04
  5.1941597e-01
 -9.9438592e-04
  5.6074136e-05
 -2.1917152e-03
 -1.0715647e+00
  2.7478772e-04
 -2.4259811e-02
  1.5288688e+00
 -3.6867291e-01
 -5.1561946e-01
 -1.1073070e+00
 -1.6603941e+00
  2.0079148e+00
  2.9859581e+00
 -5.9662998e-01
 -6.1634602e-04
 -9.2853761e-01
 -1.5845822e-04
  2.4081149e+00
  1.4711674e+00
 -7.3658687e-01
  3.7532922e-05
  2.1701250e+00
 -2.2397225e+00
 -1.6498429e-03
 -6.2779267e-04
  3.9213583e-01
 -1.3773485e+00
 -1.1332203e-01
 -6.3842259e-02
  9.0810102e-01
 -1.5893266e-04
  3.2875035e-04
  3.7057878e-04
 -4.3356951e-05
  1.0945833e-01
 -1.4292898e-02
 -2.2603384e-04
  1.1620549e-04
 -1.6401986e-04
  1.7675997e-03
 -5.0210854e-04
 -1.6313263e-05
  5.9842151e-03
  5.9959781e-04
  1.0007117e-03
 -8.4643660e-04
 -5.6588865e-04
 -5.5692912e-05
  4.1635195e-04
  6.0374872e-04
 -4.4341807e-04
 -1.0473641e-03
  1.0858758e-04
  1.9660717e-04
  1.0131433e-04
 -3.3568755e-05
 -7.7298326e-05
  5.0342351e-04
  2.2458605e-04
  3.5695566e-04
  1.5397425e-03
  6.0365157e-05
  1.1976351e-04
 -6.5139621e-03
  1.0192410e+00
  2.7952919e+00
 -4.4076643e+00
  1.5056711e+00
  2.9508540e-01
 -1.5517898e-01
  3.1989425e-01
 -1.6428706e-01
 -2.3122950e-02
 -1.6579662e-01
  3.1986463e-01
  6.3571495e-01
  4.7639914e-02
 -2.5924101e-01
 -2.7506652e-01
  1.9909259e-05
 -8.1524557e-01
  1.1559934e-01
 -1.9087850e-01
  1.5862646e-02
 -4.7366980e-01
 -3.4212630e-02
 -4.9655966e-05
 -1.7163793e-02
  1.2305452e-03
 -1.8622981e-03
 -1.1518478e-04
  1.4107008e-04
  5.7987095e-04
  2.2065957e+00
  1.4713365e+00
  1.6222525e-02
 -2.2445381e+00
  6.0015804e-01
 -7.3505092e-01
 -6.5390067e-04
  2.4238427e-01
 -1.1496364e-04
  2.5129141e-04
  2.2183054e-05
 -3.2050717e-03
  7.2181097e-04
 -2.2303083e-04
 -1.1019970e-03
 -2.9568851e-04
  1.9864918e-04
 -1.3871765e-03
  3.7761228e-04
 -1.5761773e-04
  1.5018074e-02
  2.3781197e-04
 -3.7176069e-05
  1.6315193e-01
 -1.3244024e-03
 -6.7267982e-05
  2.1470012e-04
 -3.0040654e-04
  1.2289634e-04
  6.6958152e-04
 -2.9058967e-02
  3.0513012e-01
 -8.7920679e-03
  5.2812863e-02
  3.3764876e-02
  1.4064779e-02
  1.8623583e-03
 -5.5110190e-02
  4.7363817e-05
  1.4661456e-02
  6.7048497e-02
  7.4961002e-04
  1.9192521e-03
  1.2661358e-03
  6.7892759e-03
  1.5288751e-03
 -5.4384128e-04
  5.4315425e-04
 -1.5037412e-04
  2.4260562e-03
 -1.1123229e-03
  1.4810405e-05
  1.1025872e-03
  3.5858087e-04
  2.2900918e-02
  2.1505878e-04
 -9.0463145e-05
  6.7322591e-04
 -3.2218496e-04
 -8.6207896e-02
 -1.7263379e+00
 -1.4233817e+00
  2.6012268e+00
 -7.0833522e-01
  1.2008654e-01
 -5.8027095e-01
 -2.2116046e-01
 -7.2437769e-01
 -1.1298206e-01
 -3.4365934e-01
 -4.4632202e-01
 -7.8399025e-02
 -2.8675225e-01
 -5.5098426e-05
 -1.7452714e-01
 -1.0552881e-02
 -4.2048985e-01
 -5.1603717e-01
  4.1498968e-01
 -1.6875376e-01
  1.6360645e-01
 -2.4570748e-01
 -8.0452991e-01
 -4.4490540e-01
 -3.5411713e-01
  3.6423537e-04
  2.3286631e-04
 -5.1858701e-04
  1.4870962e-04
  9.5719093e-04
 -7.2117388e-01
  1.6044087e+00
  3.8794595e-01
 -6.1894482e-01
  8.8669891e-03
 -3.9053929e-01
  2.0721437e-02
 -2.9449670e-02
 -3.4231762e-04
  1.6918075e-01
  3.3452573e-01
  5.7207778e-02
  1.2472937e-01
  2.7115512e-01
  7.2644246e-01
  1.5372445e-01
 -9.6677955e-05
 -1.7885946e-01
  3.5780780e-05
  1.1353707e-01
 -1.4951448e-03
  2.0787513e-01
  3.0709493e-01
  1.7509883e-02
  4.4222638e-01
 -5.0250470e-04
  1.7473709e-03
  6.5128913e-04
 -1.4516122e-03
 -1.7491683e-04
  9.1605418e-04
 -2.2969334e-01
 -1.6032312e-04
 -1.5543334e-04
 -5.0183148e-03
 -3.0941495e-01
 -4.0534776e-04
  1.9911777e-04
  7.4521755e-05
  1.8035862e-04
 -1.9728411e-03
  5.1443195e-03
 -4.2955206e-05
 -1.0507106e-05
 -6.3726841e-04
 -4.0969279e-04
 -4.7160735e-05
  3.4504759e-04
  6.7691406e-04
 -4.9549929e-04
  5.4660061e-04
 -8.8394294e-04
 -4.7943302e-04
 -4.9283961e-04
  3.3405930e-04
 -1.3869566e-04
 -5.2819814e-04
 -7.8889221e-04
 -1.0358863e-05
 -4.6190794e-04
  1.8628290e+00
 -9.8721331e-01
  1.7420018e-04
 -3.6593458e-01
  9.1117859e-01
  3.5738769e-01
 -7.6265223e-02
  3.5159421e-04
 -3.8538061e-04
 -3.2505703e-01
 -4.1356036e-01
 -5.7544652e-03
 -2.3381406e-02
 -3.2316789e-02
 -3.9619100e-03
 -1.9770086e-01
 -1.4961995e-03
 -9.1177793e-03
 -2.3804569e-04
 -2.6808116e-01
  4.4409364e-02
 -3.1324661e-01
 -1.4337561e-01
 -7.9069018e-02
 -1.1130434e-01
  1.8978870e-03
 -1.2274652e-03
  1.0319371e-04
  4.0400511e-04
 -5.2335218e-04
  3.0235169e-04
 -1.4637797e-01
  2.4150554e-04
 -5.7265797e-04
 -6.0792774e-02
  9.7305672e-03
 -7.1602571e-04
  3.2725136e-04
  1.7441755e-05
 -4.1095023e-03
  3.6404028e-05
 -1.4846127e-04
  3.0589855e-04
  2.0336627e-04
 -3.8136868e-04
 -4.4516948e-04
 -7.4029865e-04
  7.4078003e-04
 -1.0261090e-03
  1.3591505e-04
  7.0415634e-05
 -4.7048021e-04
 -7.9472695e-05
  2.4409583e-04
 -1.1395313e-04
 -1.5082622e-03
  4.7230576e-05
 -6.5496948e-05
  6.4008735e-04
  7.0122082e-04
  4.4023782e-02
 -1.4959441e-01
 -3.6933910e-04
 -1.3496730e-04
 -5.2878087e-05
 -1.4891934e-03
 -1.3820116e-03
  4.6104658e-02
  1.4956667e-04
 -1.9698047e-04
 -9.6928712e-04
 -3.5739306e-04
  8.7190670e-04
  5.4465159e-04
  1.0606300e-03
 -4.6378898e-04
  1.2962036e-04
  4.5125876e-04
 -2.5758723e-04
  3.6403580e-04
  6.5747714e-05
  1.2169754e-04
 -3.2852634e-04
 -4.3452843e-04
 -9.7835378e-04
  1.9104025e-04
 -4.8310292e-04
  3.5274579e-04
  9.4357115e-04
  4.8157509e-04
 -6.2080485e-01
  4.2273226e+00
  6.2662266e-02
 -3.0866611e-01
 -2.0610592e-01
  2.9072392e-01
 -3.0308941e-04
 -6.1654631e-04
 -3.9181329e-02
  1.0699852e-01
  2.4977489e-01
 -2.9836109e-04
  2.5467274e-01
  8.9365873e-05
  5.8463645e-01
  9.9044643e-02
  3.8379937e-02
  1.0516595e+00
  1.5563888e-02
  1.8378872e-01
 -1.4887522e-01
  6.4999592e-01
  9.4424701e-01
 -1.6231959e+00
  6.2296569e-01
 -6.1332784e-04
  3.0379265e-04
 -5.7831076e-05
 -1.2243327e-04
 -8.0604688e-04
  6.6512101e-04
  6.6386152e-04
 -1.8445594e-04
  5.7664565e-05
 -1.0235000e-04
 -6.6687338e-05
  4.0299800e-04
  2.6588919e-04
  1.2485670e-04
  6.3937809e-04
  3.4528342e-04
 -2.5642480e-04
  1.2319277e-04
 -1.4965198e-03
 -6.6876222e-05
  1.3358830e-04
 -1.5517871e-04
 -3.3308973e-04
 -3.7603552e-04
 -1.0392274e-04
  3.3179412e-04
  6.6518267e-05
  1.3850920e-04
 -9.7907650e-05
 -6.0756676e-05
 -3.9953442e-04
  5.4959155e-04
  1.7467512e-04
  4.5332327e-04
 -2.2176158e-04
  2.2324266e-04
 -2.8452624e-04
  2.2807602e-05
 -8.7579456e-04
 -9.6884277e-04
 -6.6882517e-04
  1.6550638e-03
 -5.5451674e-04
  2.3957263e-03
  7.8282994e-04
  7.3669027e-05
 -7.2913252e-05
  2.0911735e-04
 -1.6412839e-04
  8.3948858e-04
 -2.7990562e-04
  1.0152608e-04
 -2.3944560e-04
 -2.2011620e-04
  5.1815420e-01
  3.8168862e-04
  4.4425103e-04
  1.2435233e-04
  3.1578657e-04
  1.2925969e-04
 -3.3775088e-04
  3.5380342e-04
  2.7815241e-04
 -6.3576095e-05
 -1.4745900e-04
  9.2792977e-04
 -2.0631363e-05
 -6.8832407e-05
 -6.4056990e-04
  7.3970732e-05
  1.3374344e-04
  1.8850622e-04
  6.3327438e-01
  2.0107724e-04
 -1.6907821e-03
 -1.8826974e-04
 -8.1815687e-04
 -5.6779227e-05
  1.4740309e-04
 -2.9976762e-04
 -1.7590701e-03
  7.8590725e-05
 -3.3456812e-04
  3.3006472e-05
 -4.4305890e-04
  6.0390914e-05
 -4.0554308e-04
  3.5514194e-04
  1.7909160e-04
  3.6272875e-05
 -1.8642246e-04
 -4.7890551e-04
  1.1427210e-03
 -2.3126072e-04
 -1.5487305e-04
  1.2696700e-04
  4.7231861e-04
  7.5273187e-04
 -2.6464076e-07
  7.5702657e-05
 -3.5252306e-04
  6.7112618e-04
  2.9857334e-04
 -1.6009375e-04
 -6.3292217e-04
  7.7739247e-04
 -2.0298503e-04
 -9.7100670e-04
  2.8225992e-04
  3.3370432e-04
 -2.0460039e-04
  5.7345669e-04
  1.5073468e-04
 -4.1019134e-04
 -7.1974828e-05
  3.7380957e-04
 -3.1714333e-04
 -8.8105808e-05
 -2.5845633e-05
  4.1766177e-04
 -1.6073532e-04
 -4.2873165e-03
  2.1854432e-05
  6.3065432e-05
 -4.4356592e-04
  2.2558222e-04
  3.1638163e-04
  2.3275458e-03
  3.1849503e-04
  9.8840756e-05
 -6.8039156e-04
 -5.0678611e-04
 -8.9869153e-04
 -2.2617112e-05
 -9.0557837e-04
  3.5940087e-04
  1.2795323e-03
 -1.2206713e-03
  1.9261660e-04
 -3.3522226e-04
  5.4363591e-05
  1.4454272e-03
 -2.6601723e-05
  3.7904750e-04
  1.5123656e-04
  3.0357018e-05
  3.8725004e-04
 -1.6117598e-04
  3.5783224e-04
  7.2611583e-05
 -3.3746037e-05
 -2.9885964e-04
  4.2089683e-05
  1.0409755e-04
  1.0697194e-04
  8.6581933e-01
 -1.3063004e+00
  4.4529569e-01
  1.4489682e+00
 -1.4961449e+00
  2.1199644e-01
 -7.1475178e-02
  6.8562210e-02
 -1.4637394e-03
 -2.3778452e-01
 -5.0158632e-01
 -5.7767946e-01
 -1.6672745e-01
 -3.8204393e-01
  1.1192450e-04
 -1.9727885e-03
  6.7588739e-02
  4.6872279e-01
  1.3915067e+00
 -6.1095663e-05
  5.9101200e-01
 -8.8304635e-03
 -7.2637402e-02
 -1.4181036e-02
 -9.7666064e-04
  7.9245836e-04
  3.0379352e-04
  5.3200271e-04
  3.7398751e-04
  1.2108666e-04
  7.7991129e-04
 -1.0668589e-04
 -1.3176088e-03
  1.3840494e-04
  1.7387008e-04
  2.1583818e-04
 -6.5412605e-05
  8.4938668e-04
 -4.2675738e-04
  1.2089658e-04
  2.8849035e-04
  1.3989364e-05
 -4.2576544e-04
  6.5076724e-04
  7.0386333e-04
 -4.3874941e-05
  6.3725323e-03
 -2.5335146e-04
 -2.3499603e-04
  1.4400257e-04
 -1.2240212e-03
  1.5856531e-05
  2.2088270e-05
  3.8516527e-04
 -1.0041194e-03
  2.2071485e-04
 -1.3775085e-04
  2.3583144e-04
 -1.1624357e-04
 -1.0632611e-04
 -1.5695716e-04
  2.3641821e-04
 -8.9946378e-05
  1.0630575e-04
  3.2484578e-04
 -5.9081292e-05
 -2.7850582e-04
 -2.3885228e-04
  2.1851753e-04
  2.4882201e-04
 -1.3273097e-04
  1.1158049e-04
  5.2788889e-04
 -2.9431304e-04
 -2.4809834e-04
  9.6485886e-04
 -1.0119555e-04
  2.9077244e-04
 -5.7160639e-04
  3.7994617e-04
  6.1982567e-04
 -2.7478236e-04
  2.1822142e-04
  1.2154666e-04
  9.7632037e-05
 -7.0766493e-04
 -6.4588274e-04
  2.6726691e-04
 -6.1237236e-04
 -8.7519834e-04
 -7.0143980e-04
  4.7391485e-02
 -1.0075471e-03
 -2.2968923e-04
  3.4605904e-04
  1.4613414e-03
 -1.7451659e-04
 -1.6647392e-04
 -4.9308841e-05
  9.3675358e-04
 -2.2448569e-04
 -2.2463375e-05
 -4.4788798e-05
 -9.7193384e-05
 -6.8871872e-05
  3.3353971e-04
 -1.3648094e-04
 -4.5120405e-04
 -8.2123728e-04
  1.0769815e-04
  1.1308768e-04
  4.8526612e-04
 -1.9692413e-04
  1.5842411e-04
  1.0587811e-03
  2.0684011e-04
  8.3427277e-04
  4.3441154e-04
 -4.8459074e-04
  1.2573155e-03
  3.6036927e-05
 -1.4750980e-04
 -5.7883264e-04
 -3.1400161e-04
  4.3901816e-04
  8.9584981e-05
  5.2551241e-05
 -6.7500025e-04
 -3.1330404e-05
 -7.9963205e-04
 -3.4910958e-04
 -8.0692902e-05
 -6.2167383e-05
  3.4759560e-04
  2.3550035e-04
  1.4326737e-04
 -3.7708681e-04
 -1.7066632e-04
 -5.1781084e-05
 -3.4685709e-04
 -1.1179541e-04
  7.3137599e-05
  2.7841015e-04
  6.7977671e-04
  1.1826368e-03
  2.1160010e-04
 -3.4525554e-05
  1.0545977e-04
  1.2433462e-04
 -2.2984234e-04
 -2.6156698e-04
  3.9759019e-01
  3.7761204e-04
  1.4616346e-03
 -1.4169518e-03
  1.1515210e+00
  1.3443617e-04
 -6.2960695e-04
  2.7588694e-04
  1.8885186e-04
  1.1958031e-03
 -5.0400489e-04
 -3.1270544e-04
  2.4380588e-03
  1.0644332e-05
  7.8983058e-04
  2.9080245e-04
  2.4478877e-04
  3.6068290e-05
  1.6360311e-04
  4.0861496e-04
 -3.5994904e-04
  1.4580225e-03
 -4.0192824e-04
  1.0675495e-03
 -2.3646542e-04
 -1.8205773e-04
  1.0103862e-03
  9.8594326e-05
  1.9812664e-04
 -4.0317867e-05
  9.8111612e-01
  9.3947547e-03
 -3.7378911e-04
  5.6032729e-01
  1.4345764e-01
  1.1088419e-02
 -4.9580860e-01
 -7.3789415e-04
  3.6726994e-04
  3.9920066e-03
  5.3007869e-05
  7.6365483e-01
  3.7438501e-04
 -3.1220011e-04
 -1.6726913e-04
  5.4570792e-05
  2.8283423e-04
  2.2412596e-04
 -6.8112230e-04
  1.9389552e-05
  8.5115746e-02
  3.0478355e-03
  2.8571591e-04
  5.6370366e-03
  3.0750566e-04
  1.1208123e-03
 -2.9266806e-04
  1.9896624e-04
 -1.3264493e-03
 -1.0551692e-04
 -4.2768064e-04
 -7.7505007e-05
 -1.4009420e-04
  5.8603036e-05
 -4.4079885e-04
  1.7340209e-04
  2.7655786e-05
 -8.1190607e-05
  2.0516483e-05
  3.7915685e-04
  1.2505229e-04
 -1.0480581e-04
  6.1437575e-04
  4.5034292e-04
 -1.7495084e-04
  4.1078143e-05
  2.1128038e-04
 -4.7599999e-04
  4.1652017e-04
  2.8761388e-05
  6.0722778e-05
  2.1705146e-04
 -1.7100629e-04
  3.0852694e-04
  3.9128985e-04
 -1.3209746e-04
  3.4729590e-05
 -3.3301543e-04
 -4.8056158e-05
 -8.7959446e-02
 -1.2906022e+00
 -8.1301165e-01
 -5.5268803e-03
 -1.2945522e+00
  1.1530941e+00
 -9.4370276e-02
  5.1426578e-01
 -1.3027817e-02
 -1.3581416e-01
 -2.0739113e-01
  1.4100900e-04
 -1.4347288e-01
 -1.9617560e-03
 -1.8671703e-03
 -4.5465663e-01
 -4.4709108e-05
 -6.7294225e-02
 -8.1870317e-01
 -4.8817612e-02
  3.7585579e-02
 -2.0213424e-01
 -4.0137330e-01
  7.6329379e-05
 -1.9180514e-01
 -4.4822991e-05
 -1.6553905e-03
  5.1273313e-05
  2.9874677e-04
  6.9973228e-04
  1.3964424e-05
 -2.6211661e-04
  1.0107268e-04
  5.6502316e-04
 -4.2841530e-05
  1.0356249e-05
 -3.7157963e-04
  1.2991860e-04
  3.4052672e-04
 -7.5074338e-04
  1.8193537e-03
  9.3647325e-04
  4.6749861e-04
  2.2138025e-04
  3.9912591e-04
 -6.4923574e-04
 -1.4216951e-04
 -2.4220439e-05
  8.6130814e-05
  4.9224316e-05
 -4.1175057e-04
 -4.0453911e-04
 -1.3901595e-04
  1.4535165e-04
 -6.1304553e-04
  1.6384540e-04
 -2.6680841e-04
  9.3535615e-05
  7.4133241e-05
  2.4350921e-03
  7.5294654e-04
  2.7565678e-04
  4.2222319e-03
 -4.0123159e-05
  3.1251274e-04
  3.2024016e-04
  5.6114583e-05
 -1.1059672e-04
 -1.4120729e-04
 -1.3544422e-05
  3.6930715e-04
 -2.4107797e-04
  1.4143210e-04
  1.6120598e-02
  1.4234504e-03
 -4.5996351e-04
 -1.0912279e-03
 -1.4808981e-04
 -7.7174476e-04
 -2.7190417e-04
 -4.7051694e-04
 -1.1582251e-04
 -1.6010138e-04
 -2.2901381e-04
  4.9881183e-04
 -8.8713638e-04
 -2.2130867e-04
 -4.5665033e-04
  8.9636287e-06
  1.0829948e-04
  1.1295996e+00
 -2.0021424e-01
  6.6307318e-01
  3.8974842e-01
 -5.3556663e-01
  1.3606144e-02
  2.9820506e-04
  4.6202657e-01
 -7.0203666e-04
 -4.3517104e-03
 -1.3745792e-01
 -3.0780047e-01
  3.3256624e-04
 -2.2113947e-02
  2.2548731e-04
  6.4407229e-02
  7.2190732e-01
 -7.1124006e-05
  8.0814615e-02
 -2.6327526e-04
  2.0205772e-01
 -2.9595548e-04
 -8.1118871e-04
  2.1305017e-04
 -3.0172899e-04
 -2.2071715e-04
 -3.8433238e-04
 -3.3989685e-04
 -6.0361795e-05
  3.3551958e-05
  1.3899291e+00
  3.3900371e+00
  8.3670700e-01
 -2.9277759e+00
  3.6764784e+00
 -2.2645701e-01
 -3.6470670e-01
  1.1603442e+00
 -1.9528780e-02
 -1.3754867e-01
 -8.4699994e-01
  1.7466013e-01
  5.5205417e-01
  3.0275479e-01
 -8.4376013e-01
 -6.4879811e-01
  6.1285728e-01
  9.5140177e-01
  2.6558420e-01
 -2.5344414e-01
 -4.0907142e-01
 -1.6586688e-01
 -2.3803800e-01
  2.6308575e+00
 -1.0088772e+00
 -1.4695254e-05
 -1.9738394e-01
 -6.8986781e-05
  2.1201025e-01
  4.9050064e-03
  3.0019676e-04
  6.4611631e-05
 -6.4323376e-06
  6.3181127e-05
 -8.0878672e-04
  2.4957149e-04
 -9.0391998e-04
 -7.0360472e-04
  5.7462847e-04
 -1.4756051e-04
 -2.2880414e-04
 -2.8841707e-04
 -2.6564050e-04
  8.1812643e-04
 -8.5690095e-05
 -1.7765451e-05
  7.0442431e-05
  7.4290612e-04
 -1.4241725e-04
 -8.5876265e-04
 -1.0270993e-04
 -1.2774356e-05
 -9.2025963e-05
  3.7205074e-04
 -1.9464923e-04
 -4.9108014e-05
 -4.5905133e-05
 -3.6139721e-05
 -1.6744935e-04
  2.2136001e-04
 -1.6755828e-01
  1.3151196e-01
  8.8578165e-02
 -8.8088769e-01
  2.1154308e-01
  6.2838209e-01
 -2.7325648e-01
  3.2279375e-01
 -4.6832010e-01
  1.1506768e-01
  6.4104503e-01
 -7.0308422e-04
  5.9224574e-05
 -1.6053078e-04
 -4.4534905e-04
  1.3585209e-03
  1.3064782e-01
  1.1479850e-04
  5.2624337e-02
 -5.2731884e-01
  2.6865858e-01
  9.3810119e-02
  2.1372122e-01
  1.1195627e-03
 -1.6891339e-01
 -3.5393084e-04
  4.1582087e-01
 -3.6762294e-01
 -5.6760705e-01
  3.8553754e-04
  4.5638552e-01
 -2.7316291e+00
 -1.7607304e+00
  2.1202114e+00
 -1.8762600e+00
  2.1669240e+00
 -6.3832283e-01
 -1.6878181e+00
 -7.9322714e-01
 -6.1099368e-01
  1.8009661e+00
 -1.3662491e-04
 -8.5044376e-05
 -4.2624839e-04
 -2.1161154e-01
 -1.1556497e-05
 -2.1715269e+00
 -1.3628587e-04
 -2.4938336e-04
  6.8878227e-01
  1.5279854e-04
  6.4435524e-01
  1.0632564e+00
 -5.3972407e-04
 -1.3393104e+00
  3.2864281e-04
  3.8576362e-01
 -3.3421998e+00
 -3.7337728e+00
 -2.5250899e-04
  1.2471824e-04
  6.7879132e-04
 -9.9591527e-04
 -5.3178280e-04
 -9.9443103e-05
  2.0449274e-04
 -8.0095779e-04
  2.0428695e-04
  8.3353974e-02
  5.3547887e-04
  1.2792468e-04
 -3.0389894e-04
  5.5413763e-04
 -4.0812299e-01
  7.2349132e-05
  5.9167214e-05
  7.6319280e-05
  6.0318440e-04
  2.5919606e-05
  4.6407167e-04
  1.9724965e-04
  1.6978940e-04
  2.4820460e-04
  8.4870466e-05
  2.6607577e-04
  6.4641703e-05
  1.0931171e-03
 -5.2031904e-04
 -1.1652485e-03
  4.2283935e-03
 -4.3907696e-01
 -1.4481130e-02
 -8.2215447e-05
  1.8906346e-02
  2.5029518e-05
  3.4948677e-04
  4.3702773e-03
 -1.2234085e-01
 -1.1601235e-03
 -9.4794877e-02
 -3.5212175e-05
  1.0925335e-01
  1.6110297e-03
  3.5969710e-03
 -2.2488702e-02
  8.3502958e-04
  5.1344541e-04
 -1.4342211e-02
 -2.6358324e-01
 -1.3662127e-01
 -1.3608382e-04
  4.6176679e-04
 -1.5396003e-01
  3.4331661e-04
 -4.2910475e-01
 -4.4804816e-05
 -1.4763093e-03
  2.2958599e-03
  7.2823420e-02
 -2.0170121e-03
  2.9799950e-04
  1.5714258e-04
  1.2057894e-05
 -2.2875676e-04
 -3.6546792e-04
 -6.1868793e-01
 -1.3411425e-04
  1.5366296e-04
  1.9644191e-05
 -1.3040534e-04
  5.9861033e-03
  4.7203986e-04
 -6.4862426e-05
  1.5088260e-04
  2.7061782e-03
 -2.4208417e-05
  5.2297738e-04
 -1.5269518e-03
 -1.3307234e-03
 -5.9389271e-04
  4.6379925e-04
 -1.2899489e-03
  2.2991044e-05
  5.1848474e-04
  3.2192710e-04
 -7.0656206e-05
  1.1291505e-05
  3.1858130e-04
  3.0815465e-04
  8.5035143e-05
  8.0844463e-04
  1.1089018e-05
 -2.2559753e-04
 -1.2825082e-04
 -4.8801256e-04
  4.1632375e-05
  1.1612663e-04
  1.5824309e-03
 -2.5819245e-04
  9.1726077e-05
 -9.0510194e-04
  5.5115653e-04
  1.3112740e-03
 -3.4726108e-04
  3.9384249e-04
  1.5128027e-05
  4.9846363e-04
  8.2635599e-01
 -4.2899876e-04
  2.8995506e-04
 -2.2626269e-04
  1.7789011e-05
 -1.9858431e-05
  1.1058672e-04
 -4.4095777e-05
 -3.7847701e-04
  2.0013467e-05
  1.9448233e-04
 -3.8493916e-05
  6.7287486e-04
 -5.8063155e-01
  1.6653063e-02
  8.5704595e-01
  4.2358920e-01
  4.5711471e-04
 -8.1533962e-01
  1.8877892e-01
 -6.5891646e-02
  1.1756515e-01
 -3.9719084e-01
 -9.7390842e-01
  1.4513285e+00
  1.7626873e-01
 -5.9516788e-01
  4.3618139e-03
 -1.1159731e-01
  2.3835482e-01
 -8.2644325e-01
 -8.6788130e-01
  3.2456562e-01
 -1.9373816e-03
 -8.1842329e-04
 -2.9392105e-01
  9.8399198e-01
 -3.0833488e-02
  1.2547290e-04
  7.4208358e-05
  3.8523262e-04
  1.4241772e+00
 -7.7631831e-02
 -4.7457486e-04
 -8.3982263e-04
  3.2689780e-04
 -7.0435774e-01
 -5.4063391e-02
  3.8713224e-06
  3.0547791e-04
  5.0967239e-04
 -1.4927385e-03
  1.3773172e-04
  5.9841659e-05
  4.8052498e-05
  4.9492612e-04
 -2.0494183e-06
  4.5910161e-05
  7.1487193e-05
 -1.9321173e-04
  3.0767065e-04
 -9.9527191e-05
 -6.4066057e-03
 -3.6264659e-04
  2.8023595e-04
 -5.9893390e-04
  6.6936693e-05
  1.9757535e-04
  8.6492008e-05
 -3.5937730e-04
 -1.8757726e-04
 -2.6513389e-04
 -1.1365167e-05
  3.4479159e-01
 -2.7647173e-01
 -3.4201541e-04
  1.2388097e+00
 -4.6906304e-01
  8.4120178e-01
  1.9558224e-01
 -5.3140962e-01
  6.7015040e-01
  2.9114369e-01
  1.0704147e-03
 -2.0688011e-01
  2.1497089e-04
 -6.7697644e-01
  5.1255989e-01
  1.0525417e-03
  4.0326774e-01
 -1.4147745e-04
  3.3271730e-02
 -1.3214897e-01
  1.2498227e-04
 -2.4028268e-04
  1.8656672e-05
 -3.5107890e-04
 -5.0901962e-03
  1.6157891e-04
  3.5211441e-04
  8.1052841e-04
  6.7315918e-01
 -7.2518515e-04
  2.4543004e+00
  9.1587174e-01
 -2.8360674e-01
 -1.6819794e+00
  2.9380407e+00
 -2.4944292e-01
 -4.6735041e-02
 -4.5778799e-01
  1.4562806e-01
 -3.4467253e-01
  4.6267384e-01
 -8.7573841e-02
 -2.5393569e-01
  1.0238065e+00
  3.7557539e-01
 -4.0881700e-04
 -2.3952665e+00
 -3.5877112e-01
  1.0576140e+00
  4.9806169e-01
  6.2894728e-03
 -6.9414120e-05
  9.0483706e-03
  8.7467062e-01
  1.8196985e-04
 -3.7979876e-04
 -1.3295732e-01
 -1.0158451e-01
 -5.7372516e-01
 -1.4724853e-04
 -8.9771223e-01
 -1.5689955e+00
 -3.9531884e-01
  1.1316482e+00
 -1.1666449e+00
 -2.8597903e-01
 -1.5081035e-02
 -3.2669157e-01
  1.3658581e+00
 -3.3557782e-01
 -4.6884558e-01
  1.8428035e+00
 -6.9631733e-02
  3.8803181e-01
 -4.4235852e-01
  9.0879423e-04
 -1.2688115e-01
  5.7417160e-01
 -6.1135847e-02
 -1.6027571e-01
 -1.1059750e+00
  5.1378411e-01
 -1.7814773e+00
 -1.4246652e+00
 -8.0846423e-01
  5.5462308e-04
 -3.4063408e-01
  4.9253574e-01
 -7.6353079e-01
  4.5771956e-01
  1.4825430e+00
 -5.8019672e-02
  4.9714493e-03
  6.9695932e-01
  5.7713068e-01
 -1.6309890e-01
 -8.2311872e-04
 -3.5288319e-01
 -7.1018898e-01
 -6.4479142e-02
 -3.4855598e-01
  1.5056705e+00
  7.4334431e-01
 -4.2988899e-01
 -3.8031171e-04
 -8.7878233e-01
  4.4550854e-03
  1.1528139e-01
 -8.1005746e-01
  1.5264913e+00
  4.4086585e-03
 -5.3775740e-01
  1.3381156e-01
  5.5157936e-01
  1.1264400e+00
  3.7035745e-04
  5.0442600e-01
 -7.5004876e-02
  8.7358773e-01
  2.2161946e-02
  6.5436610e-04
 -2.8275966e-04
  2.7636238e-04
  8.5961929e-04
 -3.3500692e-05
 -2.2908507e-05
 -8.7041437e-05
  1.6757736e-03
 -2.8459856e-02
 -3.4774982e-04
 -6.7327509e-04
 -5.8377651e-04
 -6.7949324e-05
  8.1295002e-05
  3.7233488e-04
 -1.4347868e-04
  1.1234645e-03
 -1.5549223e-04
  1.0703873e-04
  2.2468144e-04
  3.3817597e-04
  4.5615161e-04
  9.6176605e-05
 -5.3569756e-04
 -6.1697894e-05
 -3.4618406e-06
  2.6223497e-04
 -2.9777115e-05
  3.0589395e-04
 -2.4172970e-05
  5.4263797e-05
  1.0438574e-03
  1.0940680e-04
 -7.6151697e-04
  3.9732899e-04
  1.2112238e-04
  3.1272873e-06
  1.8815487e-04
  5.9016614e-04
 -3.0454624e-04
  1.3593235e-04
 -5.3307891e-04
 -1.2975010e-03
  4.4595356e-05
 -1.6518847e-04
  3.6611345e-06
  5.5930874e-04
  2.7315948e-06
  9.7841106e-04
  2.3603094e-04
  5.2842828e-05
  1.0309312e-04
 -2.2378241e-04
  3.7740322e-04
  1.4393146e-05
  9.0552130e-05
 -8.9865888e-04
 -1.8682823e-04
 -7.5358496e-04
 -7.9110678e-06
  4.2239478e-04
  8.5652286e-01
 -6.8914676e-05
 -1.6699107e-01
  3.1663999e-02
  2.5052113e-02
  1.4216960e-02
 -7.2494888e-01
 -1.2841393e-01
 -4.7403704e-05
 -5.1365304e-01
  2.2670596e-05
  1.0089503e-02
 -1.1017327e+00
 -6.5694321e-03
  1.3216822e-04
  8.5771299e-04
  2.9130520e-03
  8.5770470e-01
  3.1943075e-02
  3.5583484e-04
 -3.1569332e-04
  5.4081609e-03
 -3.6125229e-04
  4.7727421e-04
  4.0019437e-04
  1.4119447e-03
 -1.3711354e-04
  4.6266876e-05
 -4.6434032e-04
 -2.8191468e-01
 -2.3316306e-01
 -4.8334643e-01
  2.3694229e+00
  5.8581732e-02
 -3.8978368e-01
  2.7312290e-02
 -3.3811930e-01
  1.3240259e+00
  7.1085021e-02
  1.9473497e+00
  1.2816266e+00
 -3.4257028e-01
  1.8013760e+00
  3.3794636e-01
  6.7049353e-03
  1.9227307e-02
  1.0922601e+00
  6.9649976e-01
 -3.8842469e-01
  3.6374450e-01
 -1.8704998e-03
  5.6140208e-01
 -1.3704798e-01
  4.7818139e-01
 -2.6228449e-03
  8.2672000e-02
 -7.4349970e-02
  3.0283096e-01
 -2.3206033e-01
  3.3481431e-04
 -1.4434837e-01
 -1.5255550e-01
 -7.9686970e-01
  3.0454695e-01
 -1.4833166e-01
 -1.6205320e-01
  1.5917209e-01
  2.5433170e-02
  1.6660441e-01
  1.0833590e+00
 -9.6633293e-02
 -5.4125702e-01
 -1.1162164e+00
  2.9967564e-01
  6.4098342e-05
 -1.6686466e-01
 -1.1435284e-04
  1.9374623e+00
  7.1495128e-01
 -7.9653240e-05
 -4.3318646e-06
  1.1775128e-03
  6.2599283e-04
 -1.0865507e-04
 -1.5237629e-04
 -5.4248341e-04
 -1.5411713e-03
 -1.5556160e-03
  6.8257129e-01
  7.8377150e-02
  7.4815238e-01
  1.2213600e+00
  3.5375492e-03
 -3.2891720e-04
  3.4093440e-01
 -3.1794211e-01
  5.3939408e-01
  6.7573071e-02
  1.4446491e+00
 -5.2586466e-01
  1.2376427e-01
 -1.0891943e-01
  2.4497943e-01
  1.4729351e+00
  1.1716322e-03
  4.7403693e-04
 -4.7013111e-02
 -2.2451796e-01
  1.2303712e+00
 -2.5143559e-04
  8.3623556e-05
 -1.3300260e-04
  1.7308876e-01
  2.0335303e-01
  6.0940081e-05
 -6.4383866e-04
 -1.9002662e-04
 -4.6037417e-04
  4.8130628e-04
  1.5368449e-04
  2.2291395e-04
 -9.5745447e-05
  1.3290002e-04
 -4.5063462e-05
  1.7307236e-04
  3.9426632e-05
 -4.8120412e-05
 -6.9600838e-04
  3.7911223e-04
  4.4071249e-04
  1.1130796e-04
  4.8023121e-05
 -2.7971598e-04
  1.9222150e-04
  8.0748508e-04
  1.9114953e-04
 -1.9308439e-04
  6.3125172e-04
  9.0954371e-04
  1.5593229e-01
 -1.8003023e-04
  1.0063401e-03
  5.3737505e-04
  3.2255158e-04
 -7.5769878e-04
  1.9213333e-04
  3.5847843e-04
 -2.4813667e-04
 -2.0740732e-05
  1.4155883e-05
  4.1914303e-02
 -3.8199426e-04
  3.3787221e-01
 -3.1519908e-04
 -3.6206152e-04
  1.0155894e-01
 -5.6104176e-03
 -1.9362056e-01
 -2.3610282e-05
  1.6695193e-03
  4.9771965e-01
  7.0541626e-04
  4.7932371e-02
 -6.6814950e-04
 -6.8622158e-04
 -5.3419045e-04
  1.4917522e-05
  6.4150789e-03
 -1.8871833e-02
 -7.6102122e-04
  3.0627285e-04
 -1.0830607e-03
 -2.7392392e-05
 -3.0146989e-03
  2.2278187e-05
 -5.7974533e-04
  2.3171565e-04
  4.7603548e-02
 -9.7935256e-03
  3.6673243e-03
  5.1985983e-02
 -3.3080360e-04
 -1.0377360e-01
 -3.3314043e-04
  2.4734230e-05
 -5.7385809e-04
  3.8097315e-02
  2.3656315e-01
  3.9514393e-02
 -2.7200988e-02
 -4.7874406e-02
 -4.0978258e-03
 -4.8522264e-02
 -1.5192004e-03
  1.9412098e-04
 -3.6041404e-03
  5.3331787e-03
 -1.3507344e-01
  1.7114326e-01
  1.1435750e+00
 -1.1276596e-02
  2.6806805e-01
  1.1348540e-04
  3.2702616e-01
  1.9672390e-03
  4.3181852e-02
 -3.8770523e-02
 -1.2079506e-02
  5.7566233e-02
 -1.6320159e-01
  1.0975834e+00
  2.9124948e-01
  1.0718135e+00
 -1.6322818e+00
  6.9608837e-01
 -6.6724569e-01
 -2.2024049e-01
  6.6177088e-01
  2.3885748e-01
 -1.2900176e-02
  4.8856047e-01
  2.9523161e-04
  3.1354818e+00
 -9.2688240e-02
  6.2405597e-03
  9.4348164e-03
 -1.6846970e-02
  1.8588244e-05
  3.5126072e-01
 -1.6185026e-05
  2.5579003e-03
 -2.6851641e-03
  3.2460815e-01
 -5.7354802e-04
  8.6557775e-05
  2.2129976e-04
  2.1316905e-03
  6.4730988e-04
 -1.6604395e-03
 -3.3278088e-04
 -2.1680440e-04
 -3.8050627e-04
  4.6318356e-04
  3.3652646e-04
  2.8736785e-04
 -2.3883003e-04
  6.0999830e-04
 -2.6494684e-04
  1.2021434e-05
  7.1420404e-04
 -6.3579861e-04
 -7.1815611e-04
  4.4470927e-04
  2.0731574e-04
  1.3477497e-05
  8.5483589e-05
 -2.9912070e-04
 -3.1562007e-04
 -2.7430120e-05
  6.5567365e-06
  4.4417009e-04
  5.4485118e-04
  2.8794120e-05
  7.6775457e-04
  4.3911007e-04
  5.5803458e-04
 -3.2722126e-04
  1.7577398e-05
  1.9984288e-04
  2.4382060e+00
  1.0060441e+00
  9.0425462e-01
 -1.4187369e-01
 -2.5630984e-01
  2.0995593e-01
  8.0912215e-01
 -7.7625299e-01
 -1.8588798e-01
  2.5265314e-02
 -1.0609243e-04
 -2.0441467e-01
  9.1628212e-01
 -1.6261790e+00
  1.0267564e-02
  1.0488105e-02
  8.9540493e-01
 -8.8089480e-05
  1.4831461e-01
  6.6069812e-01
  2.3155976e-03
 -6.3317735e-04
  4.0580989e-03
 -1.5277293e+00
  3.9993725e-03
  2.7482163e-05
  3.0295032e-01
  8.9148962e-04
  8.5357646e-04
 -6.1390921e-05
 -1.6504410e-03
 -1.2708472e+00
 -1.7361797e-01
  2.0858953e+00
  7.9184574e-01
 -7.1004432e-01
  6.8873584e-01
 -1.0379577e-01
 -6.8137276e-01
  4.0519434e-01
 -4.2313758e-01
  2.8031433e-01
  2.4394509e-04
  4.7867748e-01
 -2.6636451e-01
 -4.9095985e-04
  4.7189616e-02
 -1.9532068e-02
  3.3500347e-01
 -4.9868855e-03
 -1.0132319e-04
  3.2276802e-03
 -1.6218122e-03
  1.4371036e-01
  1.2183838e-04
  2.8445144e-04
 -1.2389375e-04
 -1.2170379e-04
  5.9882354e-02
 -2.8831616e-01
 -2.0361307e+00
  5.7932556e-01
  1.9072527e+00
  2.0834737e+00
  9.5917553e-02
  3.6128896e-01
  9.3851995e-01
 -4.7566241e-01
  5.1769996e-01
 -4.5940953e-01
 -6.6528523e-01
  2.8605261e+00
  7.4090056e-02
  2.4489996e+00
 -8.4022427e-01
  4.4215456e-01
  2.5238195e-01
 -6.9023043e-01
  1.7809390e+00
 -2.4704707e-01
 -9.3174394e-04
 -9.4192888e-05
 -2.7729768e-01
  4.1311726e-01
  4.4059881e-04
 -3.9506565e-05
 -5.4196201e-02
  4.1496205e-01
 -7.1793228e-01
 -2.0385833e-05
  2.2378029e-01
  6.5133191e-04
  4.9599792e-05
 -1.2527778e-03
 -2.1832706e-05
  3.5286689e-01
 -7.0056366e-04
 -1.7717695e-04
  5.4315452e-02
  8.0552891e-02
 -3.9180560e-04
 -1.3332760e-03
 -1.1368827e-05
 -1.3674945e-01
 -8.2883300e-05
  1.0014438e-05
 -3.7861004e-01
  1.1227380e-04
 -7.5937173e-04
  1.1311600e-03
 -1.9321733e-04
 -4.3187938e-05
  1.0162595e-03
 -2.9843761e-05
  5.8812206e-04
 -1.9454901e-05
  3.9484951e-04
 -6.4405112e-04
 -4.9377009e-01
 -2.8219867e-05
  6.3720898e-04
 -3.0079630e-04
 -3.6306703e-04
 -8.5627502e-01
  8.5431099e-01
  1.5863219e-04
 -8.2901150e-01
  3.0595594e-04
  2.3796396e-01
  3.1469867e-01
 -2.2806948e-02
  5.8383774e-04
 -3.4215799e-04
  1.2562052e-02
 -3.9413494e-01
  3.3600777e-04
 -1.3400103e-01
 -5.4851946e-05
 -1.4194998e+00
  1.1838757e-01
 -1.9272513e-04
  1.7987929e-04
  1.3946218e-06
  1.3015639e-03
 -2.3546718e-05
 -1.4464004e-04
 -2.3040747e-04
 -1.5614982e-01
 -5.9317157e-02
  6.3950436e-05
  4.3128148e-02
  4.6296051e-01
  5.7259059e-01
 -8.9851600e-01
  2.8670141e-01
 -1.1820852e+00
 -5.0402570e-01
  7.4906185e-02
  9.5139778e-01
  2.0922061e-02
  1.5570162e-01
  1.5596622e+00
  4.9022621e-01
 -1.2991252e+00
  1.0116272e-01
  7.5039722e-04
 -3.2362077e-04
  6.6901244e-02
  6.7615338e-02
 -1.2683049e-01
  5.8804109e-04
  1.4741540e-04
 -7.7668719e-02
  6.0406542e-01
 -2.3437358e-02
 -1.1954845e-05
 -1.8160343e-01
  8.8670231e-02
  1.1800790e+00
 -1.5145804e-04
 -5.3931679e-05
  3.2340418e-04
  1.5118637e-04
  4.6946073e-04
 -2.1219201e-04
 -1.3146222e-04
  7.4017979e-04
  5.8933252e-05
  3.3333001e-04
 -4.1913114e-05
 -1.4882356e-04
  1.0895493e-03
 -1.0021679e-03
 -2.1630879e-01
 -9.4705792e-05
 -3.5676933e-04
  6.4433221e-04
  1.1285912e-04
 -5.5636716e-04
  1.0517698e-04
  1.4734292e-05
 -1.1132688e-04
  1.5513004e-04
 -1.1927306e-04
 -2.1713450e-04
  8.1414983e-05
 -5.3714344e-04
  6.6819898e-04
 -2.4965269e-04
 -8.0900470e-05
 -1.6136712e-04
  2.6024572e-06
 -1.7133418e-04
 -1.3508621e-04
  4.2671725e-04
 -2.4591756e-04
  2.9018219e-04
  9.9626253e-05
 -1.4956940e-04
  1.2537763e-04
  1.2904110e-04
 -1.6039361e-04
 -2.2483058e-04
  1.9661199e-04
  3.8678828e-04
  7.3879457e-04
  9.1977257e-05
 -6.0403330e-04
 -1.2039972e-04
 -4.0896650e-04
 -5.1397312e-04
  2.2610642e-04
  6.9025547e-05
 -3.7338340e-04
  3.4135720e-04
  7.6986629e-01
 -2.7279081e-04
  1.2017759e-03
  1.1371492e-04
  1.0360555e-03
 -2.4082545e-02
 -2.6576945e-01
 -1.4449888e-01
 -6.0831249e-01
  5.9490956e-02
  2.1405001e-01
  1.0203778e+00
 -3.2314140e-01
  2.2177551e-02
  3.7796059e-01
  1.0287942e-01
  3.6944678e-01
 -8.6299580e-01
  3.4987966e-03
 -6.4166337e-01
  2.4990626e-02
  8.4604484e-01
 -4.3696982e-01
  9.2520475e-01
  5.3489050e-05
 -2.9346975e-02
  5.7097088e-04
 -2.7054670e-01
 -3.0185378e-01
 -1.9194010e-01
  2.8011456e-04
 -3.3486166e-04
 -1.3016911e-04
  6.8525620e-02
 -5.8239219e-03
 -2.6821482e-04
  1.4831306e-04
  3.7337522e-04
 -1.1302280e-04
 -1.2056957e-01
 -1.0638900e+00
  3.9126292e-02
 -9.1009063e-01
 -4.4804391e-02
  3.0381772e-01
 -8.4810417e-05
  3.5333150e-04
 -3.3954284e-01
  6.8040138e-01
  9.8249567e-01
  1.3037796e+00
 -4.3749220e-05
  5.1132019e-04
  1.5197733e-03
 -2.1477714e-01
  4.1698833e-04
 -6.0436600e-01
 -1.4430875e+00
  1.4190464e-01
 -1.1149728e-04
 -5.3947812e-01
 -8.3599433e-02
 -4.0301308e-04
 -3.3935718e-04
  5.4750371e-01
  1.9406967e-01
 -6.7442840e-01
 -3.1940054e-04
  9.4629452e-03
 -7.3359090e-01
 -1.1099408e+00
 -5.5379176e-01
  2.4490709e+00
 -2.0660644e+00
  1.4102490e+00
  8.3084621e-02
  9.0467255e-04
  5.6587684e-01
  2.3065989e+00
  7.5179029e-01
  4.9698168e-01
 -3.1717584e-04
 -5.2655846e-01
  8.8564491e-01
 -8.4083354e-01
  1.5620354e-01
  9.1906595e-01
 -6.3139135e-01
 -1.4446276e+00
  3.2362232e-01
  4.7675392e-01
 -9.8419541e-01
  1.6650770e-04
 -6.1434905e-05
 -8.6940545e-01
 -3.0132868e+00
  8.5253298e-01
  1.1763161e+00
 -6.4037222e-01
  5.9470942e-04
 -5.5244669e-02
 -5.0855231e-01
 -1.1611011e+00
  1.1649272e+00
  1.8768421e-01
  3.9936817e-01
  2.5302693e-01
 -3.9103040e-01
 -1.5270633e-04
 -2.4602012e-04
 -7.7432842e-04
 -3.5245948e-02
  7.6109066e-04
  1.5797201e+00
 -1.7664669e+00
 -5.8036131e-01
  9.0455478e-01
  1.0104686e+00
  2.4268007e-01
 -3.8096469e-03
  1.9929901e-01
  9.9827212e-01
 -1.6080332e+00
 -2.5945142e-01
  6.8499273e-01
 -2.7484879e+00
 -1.2881343e-01
 -1.8343337e-02
 -1.1611488e+00
  1.2333795e+00
 -9.8941869e-01
  4.5905674e-01
  1.1170753e+00
  2.0713234e+00
  4.0870264e-01
 -2.9654544e-02
 -6.0304666e-01
  1.8236785e+00
 -4.3421701e-01
  3.2263657e-03
  2.0072072e+00
 -1.2072663e+00
 -2.7206707e+00
  1.1667249e+00
  3.3307588e-01
 -1.2942816e+00
  1.5539732e+00
 -6.4606982e-01
  1.0970685e+00
  9.3751127e-01
 -1.5257879e-01
 -6.0368754e-04
  2.3814948e-01
 -6.3518673e-01
  6.0382473e-01
 -8.1722260e-01
 -3.0366129e-01
  5.3511608e-02
 -1.8375362e+00
  1.1316472e+00
 -1.3586553e+00
 -1.6443894e+00
  2.8959206e-01
 -1.1178663e-01
  1.5283735e-01
 -1.7198833e+00
 -2.1944863e-01
 -1.5455216e+00
  1.0277622e-01
  3.2100763e-02
 -3.3353630e-01
  8.3000261e-01
  7.5146192e-01
  2.1817827e+00
  1.9547498e-01
  3.6406159e-01
  1.0455655e+00
 -3.4120905e-01
 -8.3047473e-01
 -2.2326060e-01
 -7.1065682e-01
 -3.7296402e+00
 -2.3864642e-02
 -9.7613287e-01
  2.2435784e-01
  1.0818256e+00
  1.8395753e-04
  3.6844262e-06
 -2.9236730e-04
  1.0464875e-03
 -6.6879801e-02
  2.4625545e+00
  5.6662508e-03
  5.4640882e-03
  2.3877779e-02
 -2.6307825e-04
 -4.8591257e-03
  2.8370877e-04
 -3.9642680e-02
 -5.2741206e-01
  1.5850894e-01
  8.7196750e-05
  6.9284958e-01
 -7.8295690e-01
 -3.9243598e-02
 -6.0067976e-01
 -1.2073804e-01
 -1.1354175e+00
 -2.2914639e+00
  5.8542019e-01
 -5.7032555e-01
  4.5673892e-02
 -3.8979205e-01
 -1.1079490e-05
 -4.1027871e-04
 -6.3917547e-01
  1.4814045e-02
 -7.1988237e-04
  2.0969257e+00
  9.2558897e-01
  7.2243029e-01
  1.6785003e-01
 -3.9532725e-03
 -1.2612371e-03
  4.2717099e-01
 -1.2176166e-01
 -4.9594587e-01
  1.4839631e+00
  1.2779939e-01
  1.5514241e-01
  5.6225562e-01
 -1.5179679e-02
 -3.6912733e-01
 -7.2187251e-01
 -4.5055899e-01
 -4.2069068e+00
 -5.1675759e-02
  1.3081374e+00
 -2.5750414e-01
 -7.5676292e-01
 -7.0486718e-04
 -2.9195920e-02
 -2.3274165e-02
 -1.7129681e-04
  3.2062888e-01
 -2.0279004e-01
  1.0827248e+00
  1.0543146e-01
  1.5093297e+00
  1.7496082e-04
 -8.0347257e-03
  7.1902294e-04
 -1.0811514e+00
 -2.6081908e+00
  1.2918532e+00
  5.4044652e-01
  2.0021453e+00
 -5.8710939e-01
 -1.5298384e+00
 -1.7629856e-01
 -1.4017984e+00
 -2.8915727e-01
  5.9830779e-01
  8.4743589e-01
  4.9545288e-01
 -2.9137996e-01
 -7.8498393e-01
 -3.7264707e-03
 -1.7811945e-02
 -2.1211284e-03
 -2.1798095e-01
  3.0838285e-04
  4.6252000e-01
  2.0021434e-01
 -3.3346063e-04
 -3.5470510e-01
  5.3932589e-01
  4.2812605e-03
 -9.3677357e-02
  1.1792499e+00
 -1.6381743e-04
 -6.4192438e-01
 -3.7905440e-02
  7.8811504e-02
 -2.6815611e-01
  1.5593635e-01
 -5.9478748e-01
 -5.9952457e-02
 -1.2614709e+00
 -3.6911845e-01
 -1.0843859e+00
  6.6869527e-01
  1.9041139e-01
  1.1410053e+00
 -2.2271173e-01
 -4.4158158e-01
  2.1851516e+00
 -1.4367655e-01
 -9.1688293e-01
  2.0332785e+00
  2.9641789e-01
  8.9947498e-05
 -1.0640638e+00
  6.0350543e-01
  6.8870238e-03
  6.0790598e-01
  6.8845129e-01
  2.6494128e-01
  1.3475782e+00
  3.4759039e-04
  1.4868239e+00
 -8.2733303e-01
 -7.7003574e-01
  4.0528363e-01
 -5.1447505e-01
  1.9034141e+00
 -7.5467072e-02
  1.3026756e-01
  9.7114564e-04
  6.6030967e-05
 -2.4076273e-01
 -3.2114768e-01
 -1.6538119e-01
 -5.1425445e-01
 -2.1511602e+00
 -1.0470958e+00
  3.7120891e-01
  1.4332970e+00
 -6.8098731e-02
  1.6943997e-02
 -1.2170113e+00
 -5.4689741e-01
  5.6328148e-02
  1.9946443e-02
  1.8718188e-01
  3.7950963e-01
  3.4781601e-02
  9.8276114e-01
  1.0293761e+00
  2.4090958e+00
  2.5657089e+00
 -1.1176207e+00
  1.4236696e+00
  4.3913547e-02
 -1.5943712e+00
 -8.4371448e-01
  9.1802752e-01
  1.2266624e+00
 -1.3551333e-04
  1.8456404e-01
  3.4720905e-03
  1.8505390e+00
  5.2789648e-05
 -2.8877327e+00
  1.3581657e+00
  1.7064048e-01
 -3.6856130e-01
  7.4768841e-01
  4.4053310e-01
 -1.7525852e-01
 -2.4077885e+00
  5.6303144e-03
  6.2449789e-01
 -1.6759474e+00
  1.8237461e-01
  2.7452362e-01
  9.7682057e-03
  1.0198023e+00
  6.1032408e-01
  2.3546932e+00
  2.0095887e+00
 -3.6812887e-02
  1.0702089e+00
  1.4244058e+00
 -1.3850490e+00
 -3.5521790e-04
  9.7371038e-04
  7.2533739e-01
  1.9762234e-01
  2.1578732e+00
 -9.8509222e-01
  2.7898581e+00
  5.5867624e-02
 -2.7243361e+00
  1.1133246e+00
  1.0877673e-01
 -2.1494498e+00
 -4.1447440e-01
 -1.2986499e-01
 -1.5129288e+00
 -1.0742693e+00
  4.3410167e-01
 -1.4649262e-01
  9.7962743e-01
  2.1997066e+00
  3.0064771e-01
  2.2819799e-01
  7.0388216e-01
 -4.3887693e-01
 -2.0488319e+00
  2.5260416e-01
  1.2933263e-01
 -2.2626932e-01
  1.8829963e-01
 -1.0197328e+00
  1.6962636e+00
 -2.1730635e-01
  3.7282869e-01
  3.7065294e-01
  5.6167608e-01
 -2.2252543e+00
 -2.5564316e-04
 -1.1613457e+00
 -1.0273520e+00
  1.2848150e+00
  1.5011013e+00
  1.0390804e+00
  1.1595464e+00
  1.3398498e-01
 -4.0814617e-01
 -1.1554270e+00
 -7.8502458e-01
  1.3836720e+00
 -1.4810112e+00
 -5.8089828e-01
 -4.1896406e-01
 -2.3905697e+00
 -3.8527960e-01
 -5.1503852e-02
 -1.9248675e-01
 -3.6746436e-01
  7.8052375e-03
 -5.3527635e-01
 -4.8636599e-03
  6.8083543e-01
 -7.9690766e-01
  4.3988570e-05
  9.3541312e-01
  1.0327586e-03
  3.2332522e-01
 -6.0960358e-01
  5.3001843e-02
 -7.8726711e-04
 -3.2878917e-01
  7.7267838e-01
 -2.0230293e-02
 -1.0563082e+00
 -1.9043140e+00
 -5.4616410e-01
  1.3310268e+00
 -1.1138586e-02
 -2.2488747e+00
  1.3268288e+00
 -2.6654834e-01
 -2.6251900e+00
  6.6871762e-01
 -4.3754664e-01
 -9.0546006e-01
  2.6670963e-01
  2.1912576e-01
 -1.6177593e-01
  7.0305705e-01
  1.9443786e-01
  4.8630047e-04
  1.0425290e+00
 -1.4317667e+00
  8.1726938e-01
 -5.3863263e-01
  6.2328410e-01
 -7.8627145e-01
 -1.4503441e+00
 -3.3452377e-01
 -2.9633641e-01
  7.3735170e-02
 -1.3048099e+00
 -1.2443621e-01
 -1.8094233e+00
 -1.6427201e+00
 -2.9780667e+00
 -6.9649535e-01
 -1.9705125e+00
 -9.6196800e-01
  1.9868661e+00
 -9.7417742e-01
 -1.1290931e+00
 -7.1642226e-01
 -8.5654956e-01
 -1.9559729e-01
 -1.3792245e+00
  5.5576807e-01
  9.9341959e-01
 -4.5708615e-01
 -1.5765086e-01
 -1.7145386e+00
  1.9119908e+00
 -1.4094878e+00
 -2.7687675e-01
  6.3590354e-01
  1.1844006e+00
  6.8036425e-01
 -9.1172183e-01
  8.8306835e-05
  1.1247174e-04
  2.1720002e-04
 -8.0000706e-02
  1.5452881e-04
 -2.3100441e+00
 -7.9432464e-01
 -1.2570297e+00
 -3.2959753e-01
  3.8029262e-04
  1.8475681e-04
 -4.1516588e-04
 -7.0199101e-05
  2.6494141e-05
 -1.1626625e-04
  3.2429904e-05
 -7.0960069e-01
 -1.4417921e-03
  4.6796813e-05
  1.3658433e-04
 -4.1640492e-04
 -3.4768131e-02
  1.1133588e-04
 -1.2526125e+00
  8.5571331e-01
  5.2866131e-01
 -1.1897568e+00
 -6.0437096e-04
 -1.3545812e-03
  6.6733983e-04
  7.7149423e-04
  4.5698829e-04
  1.5759945e+00
 -1.0889704e+00
  5.9675384e-01
 -5.3787333e-01
 -1.2971624e-04
  7.1951596e-04
 -7.6583464e-04
 -3.2357350e-02
 -1.0339907e-04
 -7.1234018e-01
  9.2506528e-01
  5.9272355e-01
 -6.6537505e-01
 -1.1871764e-06
  2.7304399e-04
  3.6882461e-04
  9.2418701e-04
 -6.4437823e-05
 -9.8040119e-02
  7.0256299e-01
  1.0414525e+00
 -8.4982389e-01
 -1.7534681e-04
  2.9246797e-04
  2.1498103e-04
 -3.6185637e-02
 -2.2596763e-04
  4.2849120e-01
  4.0166789e-01
 -1.7346979e+00
 -5.5404925e-01
  6.2309188e-04
 -3.9627901e-04
 -4.9546064e-04
 -2.5974603e-03
 -4.8808259e-04
 -1.4462547e+00
  1.4729966e-01
 -3.4497678e-02
  2.3137701e-01
 -7.2991045e-04
  1.0031777e-04
 -1.2198940e-04
 -3.2030800e-04
 -1.6621176e-04
 -2.6579264e-01
  5.1178479e-01
  7.4364376e-01
 -2.8748128e-01
  3.2520521e-01
  4.6681536e-05
  2.5326223e-04
 -4.6679363e-01
 -8.7918878e-01
  1.2014610e-01
 -7.6621759e-01
  1.2655882e+00
  5.1843300e-02
  8.9307822e-04
 -3.3796593e-04
 -4.6411771e-04
 -4.9249543e-04
 -7.7051147e-05
  2.1881078e-01
  6.9506926e-04
  9.0927459e-02
 -3.8193815e-04
 -3.4382654e-04
 -5.7359104e-04
 -5.0859171e-04
 -1.8715377e-01
  2.3223431e-04
  2.7481836e-01
 -7.2105271e-01
  4.8004037e-01
 -8.7676299e-01
  5.1871210e-04
  6.3361476e-05
 -4.5811920e-04
 -6.9462333e-04
  4.4655372e-04
  1.1763864e+00
  4.5475551e-01
 -1.1556948e+00
 -7.3175001e-01
 -1.7543024e-04
  1.6852100e-04
  2.6320020e-04
 -3.9438110e-02
  7.3377497e-04
  1.4838178e-04
  7.6727651e-02
  3.2043925e-01
  6.5267235e-01
 -2.4062846e-04
 -1.9725389e-04
  4.0590568e-04
  4.3540371e-05
  1.8941087e-01
  7.3382664e-01
  5.9342235e-01
  2.5488780e+00
 -9.3130541e-01
 -1.3015042e-03
 -2.5861184e-04
  1.2406172e+00
 -1.0859004e-03
 -4.2800442e-05
  1.5534393e-01
  8.4824897e-02
  1.8596169e-01
 -1.1171431e-01
  1.4602658e-04
  1.4185006e-04
  5.4174132e-04
 -8.3568670e-02
  1.5840762e-04
  9.0359193e-01
 -4.7472018e-01
  7.0393658e-01
  8.7188703e-01
 -1.6833290e-03
 -2.6623379e-06
 -2.7591668e-02
 -1.3346914e+00
  2.0829722e-04
  3.0122625e-02
  1.8107665e-01
 -5.7692862e-01
  3.3726066e-01
 -5.5788558e-05
 -1.6102855e-03
 -1.0734911e+00
 -5.8299392e-01
  1.0617593e-03
  6.3888800e-01
  2.8440690e-02
 -4.5247486e-01
 -5.0750977e-01
  5.3605816e-04
  3.1249896e-05
 -1.7582584e-03
  3.6020923e-04
 -2.6796477e-05
  1.6587939e+00
 -8.2138099e-04
 -1.7145977e-04
 -8.4253654e-05
  1.2095488e-04
  5.2423199e-04
 -5.6407925e-02
 -2.0012483e-01
  5.8826565e-05
 -4.6525010e-01
  1.0772099e-01
 -2.4139056e+00
 -1.2148304e-01
  1.2784320e-05
  1.2027975e-04
 -8.4488970e-01
 -1.7296617e-04
  2.4908301e-04
  1.0636251e-01
 -5.4281223e-01
  4.8546225e-01
 -5.2720332e-01
 -5.8647100e-04
  5.5476505e-04
  1.0673206e-01
 -2.0156649e-03
  5.8548845e-04
 -9.0585804e-01
  2.2836451e-01
 -4.4833863e-01
 -1.1222761e+00
  1.2194215e-03
 -3.7587891e-04
 -7.5422412e-01
 -4.4595850e-05
  3.4229420e-04
  3.0851641e-01
  1.0431214e-01
  7.4860561e-01
 -1.1419611e+00
  3.9951166e-04
 -2.1099339e-03
 -4.2754624e-04
  2.6656303e-06
 -1.6865417e-04
  1.1117831e+00
  5.5669385e-01
 -4.9496296e-01
 -1.4079521e+00
  5.0221548e-05
  3.1609013e-04
 -4.0782633e-01
 -5.8033174e-01
  1.3957660e-04
  3.4569702e-01
  6.7509300e-01
 -1.0665909e+00
 -1.4473113e+00
  3.7033233e-04
 -5.9778158e-05
  6.1139125e-01
 -7.6298558e-05
 -2.8611728e-04
 -3.1539059e-01
  1.0638113e-01
  6.1464036e-01
 -5.3343314e-01
  1.6393627e-03
  7.9053622e-01
 -1.0495059e+00
 -5.3613502e-01
 -8.2700753e-05
  7.5071633e-01
  8.2384294e-01
  9.5950454e-01
 -6.5466982e-01
  5.4168463e-04
  4.0462753e-04
  1.7733786e-04
 -3.9321405e-04
  6.6088709e-05
 -1.4384003e-01
 -3.4072238e-04
  7.1086013e-01
 -3.6301273e-05
  6.5242327e-03
  6.9874847e-01
 -6.5358025e-01
 -1.6867277e-01
 -5.1525814e-05
 -1.1434528e+00
  3.6226872e-01
 -9.0681434e-01
 -6.2794811e-01
  2.2630574e-04
  1.8202530e-02
 -5.4483950e-01
 -2.0084273e-04
 -8.1477978e-05
  8.0295235e-01
 -2.0578592e-01
  8.2126004e-01
  7.1708173e-01
  8.2787219e-04
  6.6355526e-01
  1.0578400e+00
 -2.4747925e-02
  2.9877046e-04
 -3.2939065e-01
  7.9028636e-01
  2.2840247e-01
  1.3241956e-01
  1.9182000e-04
  1.3120222e-02
  1.8502462e-01
 -3.3479396e-02
  2.4027660e-04
 -1.6781150e+00
 -4.0002603e-02
  2.1513934e+00
 -3.9368498e-01
  1.8054463e-03
  9.1020897e-02
 -2.0427285e-01
 -7.7576842e-04
 -3.6526922e-04
 -1.7950326e+00
  5.1425165e-01
  1.4640371e+00
 -2.4921082e-01
  8.9794528e-05
  3.6385778e-01
 -7.9868650e-01
 -2.0557252e-01
 -1.1302999e-03
 -8.5049170e-01
  3.0033341e-01
 -1.1032141e-01
  1.4275667e-01
  9.2663418e-04
  1.1842740e-03
 -3.4784058e-01
  3.4686053e-04
  2.3309140e-04
 -4.1915327e-01
  5.1462644e-01
 -4.7891560e-01
 -1.5300162e-01
 -2.4966830e-05
 -5.0321478e-02
 -6.4547718e-01
  1.2390374e+00
  5.3541065e-05
 -1.2913173e+00
  1.0262085e+00
  8.4127456e-01
 -6.4121300e-01
  6.3237450e-05
 -6.1457220e-05
 -2.3135866e-04
  5.8520172e-04
  2.3919711e-04
 -2.0831580e-01
  7.6369929e-01
 -2.4002686e+00
 -1.6937392e-03
 -2.2203482e-03
 -9.1110393e-03
 -1.6546894e+00
  7.1608245e-01
 -4.0280225e-04
 -1.5504320e-01
 -2.4836192e-02
  5.6071049e-01
  1.1049808e+00
 -4.0464647e-04
 -1.0978751e-04
 -2.3646954e-01
  2.9915810e-01
 -4.2653762e-04
 -1.1187797e+00
  9.0460598e-01
 -2.6053497e-01
 -5.0847155e-01
 -1.3449499e-03
  6.1611980e-05
 -2.7408472e-01
  3.8441680e-02
 -4.0688331e-04
 -1.0524104e+00
 -9.0416723e-01
 -2.8937671e-01
  1.7200274e-02
 -1.3511340e-03
 -9.9041732e-04
 -4.7385603e-01
  1.5221262e+00
  6.1504071e-04
  5.6164604e-01
  1.8454626e-01
  6.4924586e-01
  1.5549803e-02
  7.7321296e-05
 -1.7686652e-04
 -2.1454296e-03
 -5.3194031e-05
  2.1285146e-04
  1.6378610e-01
  2.2015386e+00
 -1.8592997e+00
  8.0597574e-01
 -5.3611142e-04
 -1.0568427e-02
 -5.2049172e-01
  1.0373085e+00
 -4.0740869e-04
 -3.9742315e-01
 -6.2771030e-03
  4.1007611e-01
 -4.4260475e-01
 -1.7630334e-04
 -1.4194909e-04
 -5.2906799e-01
  1.4792210e-02
 -8.6332839e-05
  6.8829936e-01
  4.0873903e-01
 -6.4589721e-01
 -1.0321014e+00
  1.2413758e-02
  1.2413758e-02
  1.2413758e-02
  1.2413758e-02
  1.2413758e-02
  6.7241365e-01
  6.7241365e-01
  6.7241365e-01
  6.7241365e-01
  6.7241365e-01
  1.4738771e-01
  1.4738771e-01
  1.4738771e-01
  1.4738771e-01
  1.4738771e-01
  1.0924964e-01
  1.0924964e-01
  1.0924964e-01
  1.0924964e-01
  1.0924964e-01
  1.6452778e-02
  1.6452778e-02
  1.6452778e-02
  1.6452778e-02
  1.6452778e-02
  1.8038879e-01
  1.8038879e-01
  1.8038879e-01
  1.8038879e-01
  1.8038879e-01
