nep4 3 Ba Zr S 
cutoff 8 4 150 20
n_max 4 4
basis_size 8 8
l_max 4 2 0
ANN 30 0
 -1.2835027e-01
 -2.9205294e-06
  2.2667597e-04
  5.3418335e-05
 -1.7893454e-02
  2.3416526e-04
  4.1263265e-06
 -6.7376284e-05
  1.7189242e-04
 -2.2357982e-01
  5.9226369e-07
  1.6907138e-07
 -5.9821221e-05
  8.6932687e-07
  6.6836571e-07
  2.4807914e-05
  4.4222807e-06
 -1.0376799e-04
  1.4629538e-05
 -9.4040604e-07
  1.2307272e-05
 -8.4132816e-06
 -5.1858351e-06
  4.4554679e-05
 -3.7710456e-04
 -1.3650639e-05
  1.1823317e-05
  3.0811177e-06
  6.5288000e-06
 -2.3989225e-05
  2.3533673e-06
 -1.1121045e-05
  1.1784452e-06
 -1.4544339e-06
  6.3707234e-06
 -1.2927218e-05
  4.0680987e-07
 -4.8128750e-05
 -5.9315848e-06
 -1.0108153e-05
 -1.5628070e-06
 -9.7670854e-06
 -9.6630283e-06
 -3.0982044e-06
 -3.1809188e-06
 -6.1026607e-05
 -3.9206948e-06
  6.3863704e-06
  1.2387322e-04
 -1.1727857e-05
 -2.5361091e-05
 -6.5934745e-07
 -4.8812191e-05
 -1.3091471e-05
  8.5233933e-06
  1.7304917e-06
  1.4111790e-05
 -2.6823245e-06
 -1.7560832e-06
 -2.1046146e-05
  2.8920942e-04
 -3.3064857e-06
 -1.4495349e-05
  5.1025669e-05
 -1.3949770e-05
  1.0903927e-05
 -6.4386833e-05
  1.0472257e-05
  2.0101503e-05
  8.5115225e-06
  1.7641589e-05
  1.8027511e-05
  7.5440753e-06
 -1.5222029e-05
  1.3668538e-05
 -8.5697393e-06
  1.3212053e-05
  1.9124433e-05
 -2.1893975e-06
 -3.7120237e-06
  2.9471721e-05
  1.1059225e-05
  2.3279840e-06
 -8.1290109e-06
 -1.1490351e-06
 -5.2524098e-07
 -6.7766750e-06
 -1.2650655e-05
  1.2972287e-06
  1.1414610e-05
  1.7066977e+00
 -6.1267053e-07
 -1.1088849e+00
 -7.2727851e-03
 -1.4896572e-01
 -1.1525482e-05
 -1.5869142e-05
  6.0228858e-02
 -4.1563025e-01
 -5.0392187e-01
 -5.1561251e-06
 -1.0334499e-05
  2.4637957e-03
 -1.1026571e-01
 -6.1341401e-02
 -1.5978155e-06
 -6.1921260e-06
  2.2442515e-01
  1.4771330e-01
 -3.0849096e-01
  4.6792185e-05
  2.1173903e-06
  1.3240345e-01
  1.8652537e-01
  3.3820707e-01
 -2.0184232e-05
 -8.1660519e-06
 -2.8348768e-05
  6.4973997e-06
 -7.2950599e-05
 -1.5160691e-05
  5.8265596e-06
  2.0140654e-04
  1.6112164e-05
  1.9467214e-05
  1.3778733e-04
 -2.2305567e-05
 -4.5911423e-07
 -1.7279277e-05
  2.9187507e-04
  1.3655563e-05
  1.0330227e-05
 -1.0643696e-06
  1.5544820e-05
 -1.3272122e-05
  2.4858693e-05
  1.2164161e-05
 -4.3780037e-06
 -6.0501319e-05
 -3.4231551e-05
  4.0167834e-05
 -1.3902098e-06
 -4.1137253e-05
 -3.8235874e-05
  9.0389352e-07
 -2.6640046e-04
  2.4589090e-05
  3.0305733e-05
 -3.6922126e-04
  2.9860948e-05
  3.2056778e-05
 -7.3142763e-07
 -4.7254971e-06
  7.7244658e-06
 -2.2707909e-06
  7.3354502e-05
  5.2755297e-07
  2.7867702e-06
 -1.3097310e-05
  3.1138486e-06
  3.5741592e-05
 -1.9598710e-06
 -1.6206004e-05
  1.3896246e-05
  7.1840486e-06
  7.3565709e-05
  9.9353092e-05
 -2.2556813e-04
 -6.6062632e-05
  2.8026190e-07
 -5.5085088e-06
 -7.6052343e-06
  7.4957611e-06
 -1.5760364e-05
  1.3119171e-06
 -7.9407313e-05
  6.8136696e-06
 -6.0625566e-06
 -1.5618813e-06
 -1.8350460e-05
 -1.9953511e+00
  2.2080811e-05
  1.2106347e-01
 -4.7277361e-01
  1.3622718e+00
  2.1825972e-05
 -1.3253273e-05
  1.5961883e-05
  9.2641689e-02
  2.2291495e-02
 -1.0760113e-05
  1.6012228e-06
 -2.0383768e-05
  5.5315861e-05
 -6.4274260e-05
 -1.0823646e-05
  1.4152625e-04
  5.7804944e-05
  1.7047362e-06
  1.9057143e-01
 -7.8945476e-07
  8.0756371e-07
  1.0116053e-06
 -2.4387808e-05
 -5.0723447e-05
 -6.6994057e-06
 -7.0153335e-05
 -5.7024849e-06
 -7.8572357e-06
 -2.7120106e-05
 -1.3971118e+00
  3.3503601e-01
  1.5260640e+00
 -1.1403457e+00
  8.7065923e-01
  8.5820786e-05
 -8.0367863e-05
 -2.1312169e-05
  3.8559338e-01
 -7.0443249e-01
 -2.6569660e-05
  8.7082963e-06
 -3.1110647e-04
 -1.9100808e-06
 -1.4911441e-07
 -5.5401160e-06
 -1.2480845e-06
 -1.1585886e-01
 -1.6086427e-02
  8.5125670e-02
 -1.1585628e-05
  5.5526823e-07
  1.7689320e-06
 -1.1262749e-01
 -1.5687811e-01
 -5.5660407e-06
  9.1058564e-06
  2.9559758e-06
 -7.4028314e-05
  1.3982992e-05
  1.3493727e-01
  1.9497625e-04
  1.1903046e-06
 -2.1504578e-01
 -5.3623620e-02
  1.4253239e-07
  4.0453665e-06
  3.1002766e-01
 -6.9076367e-07
  8.0102324e-01
 -1.1579873e-05
  2.4986496e-06
  1.5723589e-04
 -7.3275520e-03
  3.6219004e-05
 -6.1283517e-06
 -1.5452726e-05
  7.4168622e-02
  5.7064593e-03
  4.2716556e-06
 -6.9386560e-06
  1.2783674e-05
  7.3051318e-03
  7.8134336e-02
  1.8797512e-01
  2.1608683e-05
 -3.4024772e-06
  4.0408260e-05
 -1.9523720e-06
  1.3937877e-04
  1.3414043e-04
 -1.7966695e-05
 -2.2215646e-02
 -1.2169893e-01
  5.9544682e-06
  3.8400135e-08
 -6.7791370e-07
  7.5473072e-05
 -5.3834192e-06
 -1.4937647e-02
  5.1551792e-06
 -6.7734209e-06
  2.2933362e-05
 -2.3640912e-05
  1.4385401e-05
  2.7967683e-06
  2.1869691e-05
  1.5210103e-04
  1.3480360e-06
  1.2755449e-05
  2.6900459e-06
  4.5687443e-07
  2.4818597e-05
  4.7958697e-06
  2.0550249e-02
 -3.2387613e-06
  3.1321149e-06
  5.9314078e-07
  8.4960966e-06
  5.2388450e-06
 -5.0164169e-01
  8.4910771e-06
 -8.8365032e-06
 -2.1168671e-05
  3.0002058e-01
 -9.6118924e-07
 -2.2901859e-05
 -1.4619721e-06
  7.2335089e-05
  2.0563925e-06
 -1.2159802e-06
  5.0190165e-06
 -1.1656087e-05
  2.9080044e-05
  1.5174056e-05
 -4.9310038e-06
 -1.6656706e-05
 -1.6159432e-06
 -8.4298781e-06
 -2.5051797e-06
  9.6159765e-06
 -4.2447300e-06
  2.7842636e-06
 -1.8789777e-05
  2.0594421e-06
 -3.7427468e-05
  1.8544641e-06
  1.1091221e-05
 -2.2365333e-05
  1.2145777e-05
 -3.2295800e-05
 -3.1458851e-05
 -9.7328677e-07
 -2.7205628e-05
  6.0523334e-06
 -1.6613285e-05
  1.0267845e-06
 -5.0197952e-05
 -1.9656470e-06
 -1.7719152e-06
  2.9999121e-05
  4.1643325e-06
 -1.2373634e-05
  1.8216122e-06
 -6.5748995e-06
 -4.4279545e-06
  3.6996148e-06
 -1.1074999e-05
  4.5609667e-07
  7.3441261e-06
  7.3201381e-06
 -6.1008323e-06
  1.1769190e-05
 -2.8366330e-06
  1.6826634e-05
 -4.2898023e-06
 -9.1625446e-07
  3.6374018e-05
 -2.0261665e-05
  2.5661232e-06
 -1.1240710e-03
 -1.8269600e-05
  5.0274577e-02
  3.6444256e-01
  6.6892553e-06
 -1.4188600e-05
 -2.8865372e-07
 -1.0127930e-03
  4.1818470e-02
 -6.1626146e-03
 -6.2327090e-06
 -1.5839711e-06
 -1.4164686e-04
  5.7563429e-06
  3.8890972e-05
  3.5356097e-06
 -1.6569697e-06
 -3.9194342e-02
 -1.3465981e-03
 -1.5943040e-06
 -2.6735979e-05
  4.6745041e-05
 -3.8896600e-05
 -4.1488998e-04
 -1.2197719e-02
  2.1255260e-06
 -1.6742068e-06
  7.0272631e-06
  2.1008647e-05
  3.2113279e-05
  2.8365163e-05
 -4.1212005e-04
 -1.7139168e-05
  7.9389210e-06
 -7.7304558e-06
  2.2037208e-05
 -4.6860503e-05
  1.3971149e-06
 -9.7373268e-06
  1.4063115e-05
  4.0176592e-06
 -3.3262866e-06
 -2.5641029e-05
 -4.4728868e-06
  2.2310429e-05
  8.7186563e-06
 -7.5270691e-07
 -2.4370822e-05
  5.1918455e-06
  4.5954980e-06
 -6.5633117e-07
  9.9908366e-06
  2.0383632e-06
  3.1518746e-06
 -5.5267519e-05
  6.6111288e-06
 -2.0808206e-05
  5.3269114e-06
  1.3322859e-06
  9.2454920e-06
  6.0666293e-01
  1.1946133e+00
 -7.6801240e-02
 -2.7446959e+00
 -2.4421398e-01
  4.6533078e-06
  1.9732727e-06
  4.9627226e-02
 -5.5247128e-01
 -5.8069717e-02
  1.5254196e-05
  1.2998722e-05
  2.3473665e-01
 -9.4577201e-02
  3.0860734e-01
 -3.8383209e-06
  8.5700058e-06
  3.6347172e-01
  1.2110220e-01
 -1.3090667e-01
  8.3947016e-05
 -1.6699820e-05
  2.7171576e-01
  5.3096908e-01
  6.3478488e-01
 -1.5054453e-05
  3.2757337e-06
 -1.3140518e-05
  2.0930676e-05
 -1.7876594e-01
  1.2067319e-06
  5.1991152e-05
 -3.5506886e-01
 -1.8468356e+00
  1.7555466e-02
 -6.0620609e-05
 -4.0499795e-06
  6.8631463e-02
 -2.9531950e-01
  1.4379586e-02
  2.6370648e-05
  8.4952335e-06
  4.9446936e-04
 -7.7780476e-03
 -1.2330062e-05
 -4.1194521e-06
 -1.4329792e-05
  2.0972635e-01
  1.4347899e-01
  3.1467982e-05
 -5.1629188e-05
 -3.4531358e-06
  6.2451478e-02
  2.2511245e-01
  2.9769975e-01
 -8.7813432e-06
  4.1193534e-06
 -1.3912264e-06
  1.2336240e-05
  1.2480946e-05
 -1.4336830e+00
  5.3432825e-05
 -1.0551347e-07
  1.3778409e-05
  1.0419570e-02
 -9.6567701e-06
 -1.8385375e-05
 -1.0542039e-05
  1.0260781e-04
  8.0402700e-05
 -3.6273325e-06
  4.8116588e-05
 -8.0132222e-06
 -2.1565654e-06
 -1.2338870e-05
 -1.5340664e-05
 -1.8457200e-05
 -1.8707645e-06
 -1.0643844e-05
 -1.9376103e-05
  2.5117210e-05
  3.4042189e-06
  8.0480677e-06
 -8.9241985e-06
 -1.1048994e-05
  5.1634702e-06
 -2.3735538e-05
  1.7095970e-04
  3.5825017e-06
 -1.5839329e-05
 -7.7148634e-06
 -3.9125216e-06
  1.5697749e-05
  7.0021383e-06
  9.2280907e-06
  1.2617004e-05
  4.3777322e-06
  2.4489028e-08
 -3.7892787e-05
 -1.0853635e-05
  1.3953052e-05
 -5.4611353e-04
 -2.3039336e-06
 -5.1486768e-06
 -3.2621596e-04
 -1.2279248e-06
 -1.9145314e-06
 -3.4568154e-06
  6.4981114e-06
 -1.8082141e-05
  5.8091437e-06
 -2.2583720e-06
  2.7018443e-05
  5.9760303e-05
  5.7663174e-06
 -8.2705374e-05
  2.0174211e-06
  1.6700646e-05
  3.1858101e-04
 -1.6976359e-05
  2.0051940e-01
 -1.1720721e+00
 -3.4463644e-01
  1.9702896e+00
 -2.3922987e+00
 -1.3326446e-05
 -6.9343178e-06
  1.3433173e-05
 -2.4397078e-01
  5.7466549e-01
  2.4275809e-05
 -1.1119813e-05
  1.6624572e-03
 -5.9536728e-04
  5.8113119e-06
 -8.3255312e-05
  6.5800782e-06
  1.7843518e-01
  6.1936982e-02
 -3.3987972e-03
 -3.9952760e-05
 -3.6917629e-06
  8.7664187e-02
  1.2663120e-01
  2.9802704e-01
  9.4153031e-05
  4.7347872e-05
 -4.7337999e-06
 -7.0908736e-06
 -4.5225614e-05
 -2.6658459e+00
 -7.4457407e-06
  1.2666161e+00
  1.2999399e+00
  1.7299352e+00
 -1.1497470e-05
  1.3307913e-05
  1.4087649e-01
  1.1267421e-01
  5.3887612e-01
  1.5217432e-05
  3.9715105e-06
 -2.3575649e-03
 -9.3946852e-05
 -1.1305369e-01
  9.4883253e-05
 -4.1263735e-05
  1.6966675e-06
 -3.4372937e-05
  2.6665130e-01
  1.4431782e-04
 -1.1441211e-05
 -9.2651480e-04
 -6.7982629e-02
 -8.6048365e-02
 -2.4366077e-06
  1.8713832e-05
 -1.0581033e-05
 -1.1916011e-07
  5.7660651e-07
 -1.6915410e-05
  2.4768912e-07
 -3.1397790e-06
 -8.9049372e-06
 -1.2512593e-05
  2.2333405e-05
 -1.9439956e-05
  7.5278522e-06
 -8.1987639e-07
  1.6165644e-05
  6.7957421e-06
 -3.3706610e-06
  9.0423218e-06
  1.7953460e-06
 -1.0683159e-05
  6.7249704e-07
 -8.0455120e-06
 -6.2351719e-06
  1.1835074e-05
 -3.0669886e-05
 -1.2043891e-05
  4.3253676e-06
  1.3767524e-05
  1.6463929e-04
 -5.4357912e-07
 -1.1474656e-05
 -3.5474791e-06
  5.1627226e-06
  5.2540092e-04
  1.0679273e-06
 -4.9904024e-06
 -8.5202637e-06
 -1.4011775e-05
 -1.1838024e-06
  6.7059926e-05
 -4.2289827e-05
 -4.4622283e-07
 -2.6137693e-06
 -9.1270576e-06
 -9.3332901e-06
 -6.8707515e-05
 -1.6438104e-05
  1.6147479e-04
  1.1289951e-05
  1.8594168e-05
  1.3238646e-05
  4.0187516e-07
  1.1644889e-04
  5.2067946e-07
 -1.0888780e-05
 -3.7279106e-06
 -1.0061010e-05
  3.7290301e-06
  2.4070467e-08
 -1.3489069e-05
 -1.0051459e-06
  1.0200555e-05
  3.2426676e-06
 -1.1044760e-05
 -1.3560376e-05
 -9.2158116e-06
 -1.1125815e-06
 -1.7056635e-07
  2.9527622e-05
 -6.5978465e-06
 -5.4704460e-06
 -2.3700393e-06
 -4.7797125e-06
 -5.3537584e-05
  1.7482508e-06
 -2.2285871e-05
  2.3140237e-04
 -1.2306770e-05
 -1.7175720e-05
  2.8287001e-05
 -3.4653690e-06
  1.1320353e-05
 -1.1735829e-05
 -6.5731797e-06
 -6.9602179e-06
 -6.8786721e-06
 -9.1958333e-05
  7.0192900e-06
  1.0092697e-05
 -1.6287298e-05
  2.3428452e-06
 -2.4820576e-05
  6.1588898e-06
 -7.0090946e-06
 -3.6960068e-06
  1.9042919e-04
  3.1575888e-05
  3.8877341e-01
  2.3139146e-01
 -1.2554690e-01
  1.3908018e-05
 -3.8382629e-07
 -1.8549779e-01
  3.9803613e-02
 -1.7494319e-02
 -4.5900288e-06
 -6.2680233e-06
 -6.6162320e-05
  6.0389164e-05
  7.0879343e-03
 -9.1479396e-06
  4.4245604e-05
 -3.4686345e-01
 -7.7686913e-02
  4.6949139e-05
  7.3105097e-05
  1.9098473e-04
 -1.2335188e-02
 -8.5680492e-02
 -1.6309108e-01
 -5.6205718e-06
  4.6001926e-05
 -1.8024735e-06
  3.8610659e-05
  1.9142982e-04
  1.2488819e-04
 -3.2739237e-05
 -1.0313664e-05
  8.1614080e-06
 -2.9776113e-06
 -6.2498191e-07
 -6.8807662e-05
 -3.2291620e-05
  1.3311583e-04
 -1.0300869e-05
 -4.3876330e-06
  1.3109497e-05
  3.6959620e-05
 -2.4040369e-06
  4.1074804e-06
 -3.7531481e-05
 -2.2435280e-04
  7.9401152e-06
  4.9850300e-06
  8.7200438e-05
 -1.0406696e-04
 -3.5905905e-06
 -6.9054990e-06
  2.4614314e-06
  1.0798999e-04
  1.8155934e-05
 -1.2021637e-06
  3.0001067e-06
 -4.1083290e-06
  1.3313355e-05
 -2.4867750e-05
  2.9883045e-06
 -2.6046457e-06
  3.4408268e-07
  1.2774530e-06
 -2.1395259e-04
  2.8162161e-05
  2.8467721e-07
  2.6350683e-05
  2.3590524e-06
  9.7898255e-06
  3.1318372e-08
  1.5556172e-05
  4.6921508e-05
 -2.9308352e-01
  3.4565071e-06
  7.5807816e-06
  1.1481891e-05
 -8.4019011e-06
 -1.6482074e-05
  1.1798586e-05
  1.5988640e-04
 -2.2431966e-06
 -1.0153924e-05
 -1.2175135e-05
 -6.9091452e-06
 -1.9935094e-06
 -2.9371383e-06
 -2.4611283e-05
 -4.1037442e-06
  2.9180261e-05
  7.0515066e-06
 -7.3395792e-04
 -2.3852697e-05
 -1.2934524e-05
 -2.6040892e-05
  3.1689084e-05
 -1.3856509e-06
 -2.0133932e-05
  2.4928332e-03
 -2.8999837e-06
 -7.0038445e-06
 -1.9093338e-06
 -5.6400227e-06
  3.7740213e-06
  1.8939877e-06
 -8.2823071e-06
  6.1598897e-05
  1.3214034e-04
  1.2069663e-06
  4.1217290e-06
  1.5479887e-05
  4.1801904e-06
 -2.7876686e-05
 -8.1468983e-07
  3.1321404e-05
 -1.0532348e-05
 -1.2540796e-05
 -3.2096912e-05
  5.0019121e-06
  1.7086398e-06
  8.8270490e-06
 -8.2771430e-06
  2.2792276e-05
 -6.7209567e-06
  1.2484614e-06
  1.4108386e-05
 -1.3144019e-05
  1.2789710e-06
 -6.5390691e-07
 -1.6177226e-05
  1.6466280e-05
  4.3037699e-06
 -3.5715884e-06
 -9.6538133e-06
  4.2179156e-05
  2.1466537e-06
  6.9708449e-06
 -2.3763421e-06
 -1.4147467e-04
 -1.4659806e-05
  2.2832381e-05
  5.5903874e-05
 -9.7827397e-06
 -4.3429454e-06
 -4.0348832e-06
 -8.6617174e-06
 -2.4772166e-06
 -3.3641666e-06
  6.4249948e-06
 -1.9656210e-05
  6.0952771e-06
 -2.7981785e-06
  6.0434159e-06
 -1.1544004e-05
  2.2628463e-05
 -1.4182029e-05
 -1.2877733e-05
  1.6386361e-05
  1.9177050e-05
  2.1670987e-05
 -6.1626139e-05
 -3.3513234e-06
  1.0288997e-05
 -4.8768008e-05
 -1.9305882e-01
  3.4431279e-05
  6.1775769e-05
  1.3978271e-05
 -1.0401895e-06
 -6.7896872e-07
  6.8645672e-06
 -5.8718947e-06
 -1.0690592e-06
 -2.0854191e-05
 -9.5108144e-06
 -5.4970383e-06
  5.9858543e-05
  3.9591960e-06
 -1.2329057e-05
 -3.3573546e-08
  6.2567492e-06
  4.9935388e-06
 -4.4513061e-05
 -1.3471387e-05
  2.7825437e-05
  1.0084576e-05
  1.0115507e-05
 -7.2946079e-07
  5.9020877e-06
  4.2464835e-06
  3.1933763e-05
 -2.0516683e-05
 -2.0187741e-05
  4.5510416e-05
  2.7516242e-06
  6.9738626e-06
  5.8083569e-05
 -1.9070183e-05
  2.6101099e-05
  2.0667900e-05
  2.0380961e-05
 -1.8225826e-05
  1.0650654e-05
 -1.5379655e-06
 -4.4582148e-06
  4.9364148e-06
  3.3473630e-02
 -3.5677099e-06
  1.2336993e-04
  4.0749592e-01
  2.0128425e-06
  1.9687670e-05
 -1.5655760e-01
 -5.3225358e-06
 -2.1875442e-06
 -6.4534396e-02
 -5.3879464e-01
 -8.2917857e-01
  1.2151886e+00
  3.1053220e-05
  4.6505134e-05
 -1.7635541e-01
  7.4714585e-06
 -2.1368010e-01
  3.9238375e-01
 -1.0162536e-01
 -1.5312195e-04
  1.3496602e+00
  1.1136787e-01
 -3.0839419e-06
 -3.8467933e-05
 -4.7268003e-01
 -5.3828901e-01
 -1.8198842e-05
 -2.2428098e-05
  3.7636739e-01
 -8.8472079e-06
  4.6277746e-05
 -7.7722005e-05
 -7.8397512e-01
 -6.1730301e-05
 -1.9758954e-05
  1.5242797e+00
 -2.5604284e-01
  1.2260751e-05
 -1.1848915e+00
 -1.7482587e+00
  1.7660235e+00
  2.0576196e+00
 -4.2476691e-05
 -1.9251489e-08
 -8.8456112e-01
  1.0293248e-05
  2.4618573e+00
  1.6433554e+00
 -6.8005967e-01
  1.3795086e-05
  2.2649758e+00
 -2.3140757e+00
  7.1456402e-06
 -6.0917437e-06
 -2.0510101e-04
 -1.3016255e+00
  2.2542627e-06
 -5.0688690e-05
  4.3009016e-01
  3.2776814e-05
  1.1691649e-05
 -6.0226718e-08
  9.8522851e-06
  1.0461261e-01
  1.3653369e-06
  4.4926878e-06
  6.5567610e-06
  5.0899735e-06
  1.3170637e-05
  1.6698459e-05
  1.1063963e-06
 -1.0584122e-05
 -6.5563081e-06
  7.2315556e-06
 -2.6309324e-06
  1.2049488e-05
  5.7791171e-06
 -1.1992405e-05
  1.0432337e-04
 -5.5552940e-05
  4.7647668e-06
  7.8758200e-07
  2.0070433e-05
 -2.9781265e-06
 -1.7074284e-05
 -5.4123907e-06
 -1.2601498e-05
 -4.0498373e-05
  1.1846842e-06
  9.3534045e-06
  3.2452288e-06
  4.7956760e-06
 -3.7454237e-04
  1.2208775e+00
  2.7813830e+00
 -4.2784543e+00
  1.4502470e+00
  1.6638546e-01
 -1.4446612e-01
  2.5983271e-01
 -2.7175600e-02
 -6.1451225e-05
 -7.5443670e-02
  3.1330255e-01
  6.3233006e-01
  1.8472561e-01
 -1.0588004e-01
 -2.4559882e-01
  2.3143066e-02
 -5.5402309e-01
  8.9322358e-02
 -1.8917029e-01
 -1.6655274e-04
 -4.5647184e-04
  5.2476204e-05
 -1.0533522e-05
  4.5050228e-07
  2.2359267e-05
 -7.5384625e-04
 -1.2027212e-05
  3.4539138e-05
 -2.3892253e-05
  1.3138766e+00
 -4.7764462e-01
  1.3315132e-04
 -1.1242592e+00
  3.8438985e-01
 -6.6612506e-01
  3.6775979e-05
  1.7416626e-01
 -1.9475644e-06
 -1.2472688e-02
 -9.3167936e-03
  9.1399750e-05
 -2.9695855e-04
 -1.9097726e-05
 -7.4486136e-02
  1.4683399e-04
  1.6968037e-04
 -3.7589641e-03
 -2.2340399e-04
 -8.5274986e-04
  3.9819988e-06
 -3.4604986e-05
 -1.4314715e-04
  2.2469269e-05
 -4.2676418e-03
 -4.1081585e-06
 -7.6310476e-05
 -1.6640330e-05
  2.5184543e-04
  4.0333630e-06
 -5.2971970e-03
  1.2583883e-02
 -1.7708426e-02
 -1.1919329e-05
  1.9103844e-02
  2.7858319e-03
  4.5862826e-06
  3.7684863e-08
 -5.0862582e-06
  1.4047270e-02
  3.6434099e-04
  2.8213183e-06
  1.5521835e-05
 -4.7047538e-07
 -1.4067346e-05
 -7.8972713e-05
  2.5532801e-05
  1.2109883e-04
  5.4537836e-06
  2.6961465e-04
  6.9431253e-06
  4.5894212e-06
  7.7905834e-06
  1.5576976e-05
  2.2579532e-02
  8.7964845e-06
 -9.3462577e-06
 -7.5859207e-06
 -2.2702479e-05
  1.0518351e-05
 -1.6498379e+00
 -1.3904599e+00
  2.4418523e+00
 -3.6603925e-01
  7.2252550e-03
 -5.8088803e-01
 -1.8614851e-01
 -3.3603793e-01
 -4.9494520e-02
 -3.3756509e-01
 -5.5292290e-01
 -4.6339985e-05
 -1.6809969e-01
 -6.6348533e-05
 -1.7851198e-01
  1.1904095e-05
 -3.3561459e-01
 -4.5416003e-01
  2.6458448e-01
 -2.2221257e-01
  5.5900356e-03
 -4.2705402e-02
 -5.2128673e-01
 -3.8811499e-01
 -3.2486144e-01
  2.5392566e-05
 -4.2737389e-05
  1.2007055e-05
  8.9993034e-07
  1.7448488e-03
 -6.8723798e-01
  2.2506361e+00
  3.6351860e-01
 -6.0726929e-01
  8.7269852e-03
 -3.6289307e-01
  3.4133052e-03
  8.6776027e-04
  3.9994813e-04
  3.8932195e-01
  3.4779400e-01
  1.7233953e-04
  2.4018559e-01
 -5.6366822e-05
  7.7520305e-01
  2.5628608e-01
 -6.3616040e-05
 -1.6192840e-01
  2.3476770e-02
  1.4516738e-01
 -1.3261670e-04
  2.6591271e-01
  3.5924485e-01
 -1.7696754e-03
  6.0753709e-01
 -4.0847099e-06
  1.3183454e-05
 -1.6955578e-06
 -2.9752988e-04
 -1.0080566e-04
  8.7255548e-04
  3.8504466e-05
  9.5404866e-06
  3.0070905e-06
 -1.6408715e-06
  2.0201669e-05
 -1.5143266e-05
  4.0632134e-05
  9.5045980e-06
 -6.8006984e-06
 -2.2946963e-06
 -1.7177445e-05
  5.5055639e-06
 -9.0497288e-06
 -1.3016107e-06
  6.4161184e-05
  2.5117492e-06
 -1.6004884e-05
  1.2414863e-05
  1.7705406e-06
  1.2553713e-04
 -1.0036459e-05
  9.8688488e-06
  1.2514237e-06
 -9.0850837e-05
 -3.5556900e-06
 -2.0895084e-06
  1.0129878e-06
 -4.6318701e-06
 -7.8634832e-05
  1.4885502e+00
 -1.0290238e+00
  3.5741976e-03
 -3.4145868e-01
  8.7516111e-01
  3.3880210e-01
 -5.9986528e-02
  4.3732181e-04
 -2.5951301e-04
 -1.8142267e-01
 -3.8366792e-01
 -1.6912367e-05
 -6.2160683e-03
  3.4892009e-06
  6.1094988e-07
 -1.3301006e-01
  5.1231797e-05
 -1.4050602e-04
 -4.3081911e-04
 -1.4544402e-01
 -2.3020868e-04
 -2.4609360e-01
  2.3549105e-06
  3.6351848e-02
 -5.1066574e-02
  7.9651852e-04
 -3.9543988e-06
 -1.1244275e-06
  2.6429003e-05
  3.0838062e-05
  1.5462067e-06
  1.4667189e-05
  5.9288386e-06
  1.9724971e-06
  2.8855626e-05
  2.5379326e-05
 -7.6987171e-06
  1.0076453e-05
  5.3177932e-06
 -2.9917967e-06
  1.4509895e-05
  7.5899834e-06
  8.6219379e-06
  1.5718539e-05
 -1.0385175e-03
  8.0482150e-06
 -1.4616815e-05
 -8.5716874e-06
  5.6605200e-05
  1.2295361e-05
 -1.4263148e-05
 -1.5438408e-06
  1.3950516e-05
 -1.7553906e-05
  1.6881023e-06
  2.3621049e-05
 -5.7829812e-04
 -2.8045649e-06
  8.6205095e-05
 -4.1437881e-05
  3.1628504e-02
 -2.0812424e-06
 -8.6521750e-06
 -1.2785892e-05
 -1.3866137e-05
 -3.6156980e-05
 -1.1390047e-05
  7.0587416e-06
 -3.3278458e-05
  8.0162954e-07
  1.1342503e-06
 -3.9045804e-06
 -6.6219313e-06
  5.8021010e-07
  6.0506136e-06
  1.0116993e-05
 -3.4133425e-06
 -1.8330387e-05
  1.7488166e-05
 -5.7000061e-06
 -3.5742729e-04
 -3.5921494e-06
 -4.4591757e-06
 -5.9700096e-06
 -2.3716793e-06
 -4.2150095e-06
  4.4217059e-06
 -7.3185336e-05
 -1.1017883e-05
 -1.1785407e-05
 -6.0585570e-01
  3.6590233e+00
 -5.6823844e-04
 -5.5933576e-02
 -9.8200776e-02
  2.7199715e-01
 -2.1781325e-02
 -3.0105380e-02
 -4.8195042e-02
  8.9703470e-02
  1.2653047e-01
 -3.2911546e-04
  2.9284427e-01
 -2.7884620e-03
  6.3787341e-01
  1.2300131e-01
  2.3239038e-03
  9.9882746e-01
  1.4789749e-02
  2.0575680e-01
 -1.3763438e-01
  7.1805233e-01
  9.2793143e-01
 -6.9237393e-01
  7.9905194e-01
 -6.2030824e-07
  5.5730845e-05
  7.4040886e-06
 -1.7113704e-04
  9.3321171e-07
  8.4969415e-06
 -2.1248252e-06
  3.7533005e-06
 -6.2439170e-07
  1.3615550e-05
 -3.2864642e-05
  2.8789125e-05
 -4.9300554e-05
 -6.7601222e-06
  5.5305576e-05
 -1.0358807e-06
  2.5730422e-05
  1.0413058e-05
 -4.2420152e-06
  6.9847652e-06
 -5.7571361e-07
 -1.5864869e-05
 -5.5892448e-05
  5.5500277e-06
 -3.1289844e-06
  5.8081878e-06
  6.7997507e-06
  3.9733522e-06
 -2.6858268e-05
 -1.4526935e-05
 -1.4637936e-06
  4.5846073e-06
  1.0043786e-05
  1.7781289e-04
 -1.6129652e-06
  8.0682821e-06
  3.0292535e-05
 -4.2863808e-06
  1.1893351e-06
  1.0140446e-06
  6.8022337e-07
 -2.5708814e-05
 -9.2465867e-05
  9.7264623e-04
 -1.5532267e-05
 -9.9101217e-06
  1.8181339e-05
 -1.3324855e-06
 -1.1078119e-05
 -1.2210572e-06
  2.6990642e-06
 -8.8717761e-06
  3.7357211e-04
  5.2024188e-05
 -3.6693723e-06
 -2.6802693e-08
 -2.4029252e-05
 -2.3996439e-04
  4.4519725e-06
 -2.3389173e-05
 -1.0515894e-05
 -5.0094288e-05
 -5.1349662e-06
  1.2563602e-05
 -1.5209916e-04
 -5.5591005e-07
  2.4477506e-05
 -9.7899820e-06
  8.6603713e-06
  1.5006518e-06
 -2.4517751e-06
  1.8703409e-05
  1.9009376e-05
 -1.2821963e-04
  4.0111531e-06
 -4.5310203e-06
  4.9478122e-06
 -1.4579657e-05
 -2.2160168e-06
  1.8785628e-06
  9.2918481e-06
 -4.3271470e-05
 -1.7803347e-07
 -3.9008683e-05
 -1.5539496e-05
  1.5129810e-06
 -2.8050988e-05
  4.1796120e-06
  7.5459584e-06
  1.0070920e-05
  1.4525947e-06
 -1.1998309e-06
  8.0394248e-06
  7.3622932e-06
  1.4879012e-05
 -3.3990684e-05
  8.0603177e-06
  1.9576107e-06
 -2.9116945e-06
  5.0449003e-06
  1.8465840e-06
 -4.2689412e-06
  2.0351246e-07
 -5.4070601e-06
  7.6003689e-06
  6.6471381e-07
  3.7668046e-06
 -1.0080910e-05
  9.8345799e-07
 -4.8796492e-06
 -1.3527870e-05
  1.1781269e-05
 -1.0363365e-05
  1.0652802e-05
 -5.3278884e-05
  1.8540577e-05
 -4.2683187e-06
 -9.4597808e-06
  1.4460476e-06
  1.0395051e-05
 -6.7244205e-06
  3.0398055e-06
 -1.2925731e-05
  2.0396799e-05
 -1.7025933e-06
  3.8354243e-05
  1.5477861e-05
  1.6795171e-05
 -4.5500474e-06
 -7.2679654e-06
  1.7843269e-06
 -8.7216435e-08
 -9.9525982e-07
  2.0784998e-06
  1.0295596e-04
  1.1942898e-06
 -5.7365137e-06
 -1.6736883e-05
  4.8513384e-06
  1.9053579e-06
  1.3456757e-04
  3.2354505e-06
 -2.0633597e-06
 -1.8559618e-06
  6.1777901e-06
  1.3713963e-05
 -7.6830429e-06
 -7.6244437e-06
  9.1567872e-06
 -1.4865922e-05
 -1.3822494e-05
  3.4432553e-05
 -4.4691214e-06
 -4.4893213e-06
 -9.1205338e-06
  8.4418678e-01
 -1.2789851e+00
  4.1224253e-01
  1.3726592e+00
 -1.4019880e+00
  2.2328292e-01
 -6.9312699e-02
  4.5377463e-02
 -3.9837477e-03
 -2.3797923e-01
 -4.8930439e-01
 -5.8980417e-01
 -1.7666325e-01
 -3.3509743e-01
 -6.3746603e-04
  4.8711492e-05
  1.7067747e-01
  4.0571091e-01
  1.2669621e+00
 -3.9753513e-04
  5.8045429e-01
  1.5488082e-06
 -1.3893112e-02
  3.5532977e-02
  1.9322586e-06
  3.1247109e-07
 -5.3500105e-04
 -1.3773015e-04
 -1.6460258e-07
  9.0586102e-05
 -7.3392875e-05
  6.4326100e-06
 -6.7602346e-06
  2.6199481e-05
 -5.7543862e-06
  2.5993825e-06
 -5.2802434e-06
 -7.7555451e-06
 -1.0965821e-05
  5.2378605e-06
 -8.9724736e-06
  4.0912473e-05
  6.6121424e-06
  6.4335916e-05
  3.4171183e-06
  2.2037797e-05
 -4.5733154e-06
  2.6442160e-06
  8.4966678e-06
  3.4785382e-06
  1.0856194e-05
  1.5106493e-05
  8.1922235e-06
  2.9529616e-07
  4.1702456e-06
 -1.0638023e-06
 -3.0445050e-05
  3.1044744e-06
  9.0306366e-06
 -4.8301017e-06
  2.7662047e-06
 -7.0887713e-06
  5.2756781e-07
  4.6337841e-06
 -4.5666620e-06
  1.0959016e-05
 -2.8518090e-07
 -2.5841021e-07
 -4.2194920e-06
 -6.1429716e-07
 -1.7322358e-05
  5.3280284e-05
 -3.3317015e-06
 -3.7176964e-05
  1.0729924e-06
  3.2845783e-04
 -5.6191828e-07
  3.3043700e-06
  4.4617536e-06
 -3.0900712e-06
  5.8539601e-05
 -8.6269629e-06
 -9.7331767e-06
  9.8339202e-05
 -7.4290592e-06
 -3.0319334e-05
  7.4496616e-06
  1.4395570e-06
 -5.7629601e-05
 -9.1707380e-04
 -2.5797886e-08
 -7.3810079e-06
 -6.3232310e-06
  2.9545849e-05
 -2.5859239e-07
  1.2498426e-04
  2.5946922e-06
 -2.4175561e-05
 -4.7414235e-07
  2.7270353e-06
 -5.4104845e-07
  3.8378533e-07
 -6.1317123e-06
  2.8846085e-05
  3.0685703e-06
 -8.9911993e-08
  1.3940718e-06
 -6.6139917e-05
  3.5216871e-07
 -1.5585414e-05
  1.1300255e-05
 -1.7985712e-05
  6.3175926e-06
  1.0148712e-04
  3.6762729e-06
  2.1014355e-05
  3.2472039e-05
  1.5584161e-05
 -5.1733778e-06
 -1.0801555e-05
  1.2565146e-05
 -7.6358765e-06
  5.9358314e-05
 -2.0169056e-05
 -1.0546742e-05
  1.4087764e-06
 -1.1443633e-05
 -1.1153907e-05
  1.0725897e-06
 -8.7922066e-04
 -2.2220277e-06
 -1.7890423e-05
 -7.9001684e-06
 -9.0897538e-07
 -2.3460555e-06
 -1.0834419e-05
 -1.3188421e-04
 -6.6462562e-05
 -3.4056927e-06
 -9.2547856e-07
  5.9885001e-06
  7.3013138e-07
  8.6586454e-08
  5.4488366e-05
  4.9588079e-06
  9.3180756e-07
 -2.0023986e-06
 -1.5865496e-06
 -4.8733918e-06
  1.1543808e-05
  4.1356223e-05
  1.0988984e-01
 -6.3601196e-06
  1.6763665e-03
 -6.0210550e-05
  1.1184227e+00
  5.2855830e-06
 -9.1794289e-05
  2.5800084e-06
  4.1914125e-05
  3.1907050e-05
 -4.0394048e-06
  2.3441504e-04
  8.4970025e-06
  4.0971640e-06
 -3.7606282e-04
 -7.6480537e-05
 -3.5235596e-05
 -1.7698021e-05
  2.4532588e-04
  1.0622652e-05
  5.1187715e-07
  2.1578339e-06
 -9.2545568e-05
  1.2130904e-04
 -1.2008958e-05
  1.4936448e-05
 -3.0191073e-05
  6.0631728e-06
 -2.7476367e-06
  1.1466971e-05
  9.7076458e-01
  3.8186376e-05
 -8.5292020e-05
  3.4770691e-01
  1.3094884e-01
  2.9409039e-06
 -4.6764520e-01
  3.8707535e-06
  1.0208915e-03
  3.3746390e-03
 -1.2192417e-06
  3.1736463e-02
  1.3776998e-05
 -1.1960598e-05
  1.6372200e-06
 -1.9019529e-06
  1.9429428e-04
 -5.1526207e-04
  1.7050431e-03
  1.9981284e-05
  6.0251653e-03
  2.9910274e-04
 -2.2957502e-04
  8.9121470e-03
  4.7969470e-06
  7.0443100e-05
 -1.1517261e-05
 -3.4513501e-05
 -5.8163341e-06
 -5.3982594e-06
 -2.8594693e-06
 -9.8068731e-06
  1.5629405e-05
  2.3381815e-04
 -7.2648834e-07
 -4.3447085e-06
  3.9668339e-06
  8.1634844e-06
  5.7465793e-05
 -3.2393343e-06
 -2.9221987e-05
  2.9004962e-06
  2.6821472e-06
  7.6091928e-05
  1.2859293e-05
 -8.5231886e-07
  1.7199643e-04
 -3.5373840e-05
 -1.2268758e-05
  1.0765743e-07
 -3.2770051e-05
 -7.5479616e-06
 -2.1405965e-06
 -1.7994735e-05
  5.0130166e-06
 -1.1635889e-05
 -1.4900703e-05
  1.4685763e-05
  5.5280158e-05
  2.8249996e-03
 -1.2246785e+00
 -8.1300122e-01
 -4.1172043e-05
 -9.0621889e-01
  1.1240684e+00
  3.4482423e-06
  3.5108444e-01
 -4.6202731e-05
 -1.4125738e-01
 -1.0918340e-01
  8.7639510e-06
 -1.8883983e-04
  4.4532819e-05
 -1.4929140e-06
 -2.2312301e-01
 -4.4392837e-05
 -5.0065801e-02
 -8.0486405e-01
 -5.0819613e-02
  3.6015779e-05
 -1.1498737e-01
  1.5525609e-05
 -1.8192652e-05
 -1.7516539e-01
  1.5686484e-05
 -8.9119712e-06
  8.3799441e-06
  9.3056624e-06
  4.8529218e-06
  2.4823996e-07
  4.8175684e-07
 -2.5277230e-04
 -2.7649478e-06
 -2.0853502e-05
  2.5877889e-06
  8.1523031e-06
 -1.9416570e-05
  4.7769468e-06
  6.7245223e-06
 -3.4031950e-06
  4.9813034e-06
 -4.5590828e-06
  2.5831066e-06
  3.6639037e-06
  6.4853530e-06
  8.3211397e-08
 -5.7243658e-05
 -8.8731831e-06
  4.4321373e-06
 -7.3206934e-06
 -1.0299179e-04
 -9.5017995e-06
  4.0776135e-06
 -2.9752362e-05
 -1.2330844e-05
  1.6898211e-05
  3.0354349e-06
 -9.9117926e-07
  1.6396290e-06
 -5.1447951e-05
  2.6268890e-06
 -1.7147948e-05
  3.6275607e-05
  1.8818757e-05
 -4.8972339e-07
 -1.3274431e-05
  6.5333697e-05
  2.9446031e-05
  6.5394692e-05
  2.5444240e-06
 -9.5956848e-06
  2.7935273e-06
  1.3925405e-02
  1.1295294e-05
 -9.6853510e-06
 -1.9333804e-04
 -1.4242821e-07
 -1.4257099e-05
  1.2791141e-04
 -3.1642865e-06
  7.4866066e-06
 -2.2298926e-04
  8.2566299e-07
  1.6025424e-05
  6.1209148e-06
 -9.5950656e-07
 -9.4219722e-06
 -3.8494283e-05
 -4.3253362e-06
  1.0731919e+00
 -1.5517665e-01
  5.6025618e-01
  3.7441674e-01
 -4.1323888e-01
  2.9617408e-03
  7.8005738e-05
  3.5189965e-01
 -1.9013320e-05
 -2.2587862e-03
 -3.0248317e-01
 -3.7452513e-01
 -6.1066159e-05
 -1.0570238e-01
 -1.4923584e-01
  1.5442217e-04
  6.0892624e-01
 -1.7833211e-04
  1.7249119e-02
  4.2907427e-06
  2.0040834e-01
  3.4757511e-04
  7.8331657e-05
  2.1948431e-02
 -1.0465950e-03
  5.3307907e-05
 -5.1324446e-06
 -4.6077425e-06
  5.6237550e-05
 -6.0037682e-06
  1.3498709e+00
  3.6250498e+00
  8.4863424e-01
 -3.1616173e+00
  3.6749728e+00
 -2.3586260e-01
 -2.9906562e-01
  1.1166989e+00
 -7.2056964e-02
 -1.3523942e-01
 -7.4862051e-01
  1.9523641e-01
  6.7607492e-01
  2.4193959e-01
 -7.2511977e-01
 -5.8645147e-01
  6.1103624e-01
  8.0488592e-01
  2.0059480e-01
 -2.8183597e-01
 -4.2804393e-01
 -1.4664127e-01
 -2.3097399e-01
  2.5523880e+00
 -1.0090927e+00
  4.4230875e-02
 -2.6087609e-01
 -1.4146310e-05
  2.6988479e-01
  5.5224985e-02
  1.4468193e-05
 -1.0767870e-06
  1.2900800e-04
 -2.4001685e-05
 -1.1329565e-05
 -2.2473987e-05
 -5.3421531e-06
 -2.7965891e-04
 -4.1767933e-05
 -1.0020543e-05
 -7.3234136e-05
 -1.4249755e-05
 -1.1369584e-05
  1.4317686e-05
  9.1760267e-06
 -1.6003571e-05
  1.4028901e-05
 -2.1929887e-05
  3.6028752e-05
  2.3914155e-05
  6.3563557e-06
 -4.6319983e-08
  1.3239533e-04
 -2.2522034e-04
  3.0654899e-06
  1.5346111e-06
  3.9116265e-05
  1.4179726e-05
  2.0698202e-05
  5.2676000e-06
 -1.4168462e-05
  9.9267505e-02
  8.1621863e-02
 -8.6068952e-01
  1.9909911e-01
  6.2037826e-01
  1.4663483e-05
  3.2034606e-01
 -2.1812270e-06
  1.1361917e-01
  7.0114887e-01
  4.9140668e-05
 -2.6130332e-05
  7.8161484e-06
  4.4632598e-06
 -6.8513987e-06
  9.7390510e-02
  6.0990260e-06
  5.1011932e-07
 -4.5963790e-07
 -1.0394593e-05
  3.0878499e-02
  2.0424327e-01
  1.6577116e-06
 -1.6826044e-01
  2.2540009e-06
 -3.5025409e-06
 -2.1919164e-01
 -5.6611371e-01
  6.5150507e-06
 -2.5191196e-06
 -2.8567679e+00
 -1.7381699e+00
  9.9500924e-01
 -1.9444011e+00
  2.4114218e+00
 -4.2467823e-06
 -1.6900953e+00
 -1.0856650e-05
 -3.9815655e-05
  2.0042739e+00
  4.7708863e-06
  1.7807681e-06
  1.4723718e-05
 -1.4108306e-05
  2.2908853e-05
 -2.1756620e+00
 -1.7445986e-06
 -3.2669275e-06
 -9.3874123e-06
  6.2443642e-06
  6.4021641e-01
  1.0264071e+00
  5.0632243e-06
 -1.3390958e+00
 -1.0109578e-05
  3.3796436e-01
 -3.0035026e+00
 -3.8938339e+00
 -1.3519305e-05
  2.0876348e-04
  1.6528918e-05
 -2.4145788e-06
  1.1900311e-06
  1.5833450e-05
  2.4361691e-05
 -5.3008112e-05
  1.0634313e-04
  3.5103942e-05
 -1.8337210e-05
  4.1473768e-06
 -2.2735487e-06
 -2.0770084e-04
  2.5530846e-05
  6.0844817e-05
  9.6056019e-06
 -4.8952174e-06
  5.5557884e-05
  2.0356698e-05
 -6.2412555e-06
  3.6421385e-05
  7.6816359e-05
  1.3193766e-04
 -1.5761539e-04
  3.3500135e-05
  9.7922866e-06
  4.0701929e-05
 -3.3316869e-06
 -2.6952834e-05
 -3.0568783e-05
 -3.3172616e-01
 -1.0100819e-02
 -4.2304623e-06
 -5.3087517e-04
  1.0803511e-05
 -1.4749865e-04
  4.5339155e-05
 -9.0948015e-02
  3.1781348e-04
 -7.3967271e-02
 -3.1027246e-06
  8.9934312e-02
  7.4550808e-05
  6.0394810e-05
  7.1379986e-06
 -2.9328216e-05
 -8.2578699e-05
 -1.2063439e-06
 -2.6466927e-01
 -7.2070032e-02
 -2.2287089e-05
 -1.5657139e-05
 -3.6707803e-05
  5.5149198e-06
 -7.8979701e-02
  5.9723880e-07
 -4.6795473e-04
  7.0170067e-06
  5.6198005e-02
 -3.2909850e-07
 -2.5455029e-06
  9.3001900e-06
  3.6228573e-06
  2.5450296e-05
 -3.5731613e-05
 -3.1509467e-06
 -9.9227154e-06
  5.9114183e-05
  3.7423124e-06
  1.8871010e-04
 -7.4779496e-06
 -4.4636645e-06
  7.5529482e-05
 -4.6759003e-05
  3.6211884e-06
  1.2671736e-05
  2.9901566e-05
 -4.2749849e-05
 -7.2276221e-06
 -7.0918752e-05
 -2.1939390e-05
 -7.6903161e-06
  6.8248919e-06
  1.9914167e-05
  2.0624298e-05
 -3.0236176e-06
 -9.0450607e-07
 -3.3977474e-06
  8.6496642e-05
 -3.8692956e-06
 -2.2204023e-05
 -3.7614241e-06
  4.1726054e-07
  7.4783889e-06
 -2.4364168e-05
  3.5437020e-06
  1.2081803e-05
 -2.0432224e-05
  2.8201699e-05
 -8.8125771e-06
  9.2299251e-06
 -1.9060727e-06
  5.8888702e-07
 -3.6637709e-04
  1.1021489e-05
 -3.0215555e-05
  2.3824101e-05
 -2.2163468e-04
  1.1740074e-06
  1.4272570e-06
  2.1486932e-05
 -3.8809769e-05
 -1.8531697e-05
 -2.1907119e-06
  1.2207061e-05
  2.1662270e-05
 -2.7607455e-05
  1.1900303e-05
  4.8256616e-06
  3.4505690e-06
 -5.4117864e-01
  6.1106673e-03
  5.5362487e-01
  3.1794634e-01
  1.7920458e-04
 -8.1198567e-01
  2.1716674e-01
 -6.4521648e-02
  1.2679763e-01
 -3.8043845e-01
 -3.1923574e-01
  8.6007035e-01
  1.5756775e-01
 -5.9285259e-01
  1.3713269e-03
 -5.7757553e-02
  1.4654335e-01
 -6.8590897e-01
 -8.2415622e-01
 -1.8512901e-04
 -3.6227782e-04
 -5.5535781e-07
 -9.5085427e-02
  3.4057787e-01
 -8.9425445e-02
 -2.3886347e-05
 -1.2956802e-05
  4.5090642e-06
  1.3809149e+00
 -5.2840453e-05
 -3.5983644e-04
 -5.9801042e-03
  1.0473037e-04
 -3.7943575e-01
  2.9289912e-04
 -1.9656852e-02
  2.5545361e-03
 -3.1562389e-03
 -7.1707116e-05
  2.4676681e-05
 -2.0749401e-03
  2.8010670e-06
  7.7467870e-05
  1.6118646e-04
 -4.7780345e-03
 -8.2296312e-05
 -1.1259820e-03
 -2.2806274e-04
 -1.8539602e-02
  1.4888357e-05
 -2.9199752e-03
 -5.3569244e-07
 -7.9424836e-04
  3.2105883e-05
 -8.0497179e-04
 -7.3188217e-05
 -5.8965638e-02
  8.0386910e-04
  5.0610460e-02
 -1.3910553e-04
 -2.2376686e-05
 -2.4866562e-01
  3.1421150e-05
  1.1723441e+00
 -6.4580679e-05
  7.4400115e-01
  9.9293359e-02
 -5.3788352e-01
  6.2579006e-01
  2.1357282e-01
 -4.3185726e-05
 -2.0402631e-04
  6.0196649e-06
 -6.8195081e-01
  3.4562525e-01
 -3.6820435e-05
  1.8819252e-01
 -4.3932893e-04
 -5.8407197e-03
 -2.0229985e-05
 -1.3678102e-05
 -1.1678574e-05
 -7.6089182e-06
 -2.0439458e-05
 -3.5145745e-06
  2.5015665e-06
 -1.8678074e-05
  1.3733062e-05
  7.1120924e-01
 -1.5101624e-04
  2.3177958e+00
  6.8646604e-01
 -2.5566778e-01
 -1.6466424e+00
  2.9701066e+00
 -2.1854720e-01
  9.7197577e-02
 -4.3159872e-01
  4.7966769e-01
 -3.3628032e-01
  5.2390152e-01
  5.2227318e-01
 -1.1021069e-01
  9.3463451e-01
  5.3327250e-01
 -2.7878550e-05
 -2.3226852e+00
 -2.4347210e-01
  8.0982065e-01
  5.1552480e-01
  3.7416928e-02
 -2.3280024e-06
  2.2984450e-01
  8.1419903e-01
  3.9883815e-02
 -7.6853994e-06
 -3.3079138e-01
 -1.9175267e-02
 -5.3763390e-01
 -3.6226577e-04
 -8.4441805e-01
 -1.5706604e+00
 -3.3810750e-01
  1.1180419e+00
 -1.1305108e+00
 -1.9891284e-01
 -1.7805589e-02
 -3.0180830e-01
  1.3422816e+00
 -3.0181152e-01
 -2.9541561e-01
  1.7591065e+00
 -2.6959296e-02
  3.7657502e-01
 -3.5606587e-01
 -1.0394687e-04
 -1.2738192e-01
  4.4524437e-01
 -6.3277051e-02
 -1.6207615e-01
 -1.1276530e+00
  1.8143357e-01
 -1.7713777e+00
 -1.2316240e+00
 -8.0373114e-01
 -7.8144041e-04
 -3.0691606e-01
  3.2861644e-01
 -7.1967596e-01
  1.3823624e-01
  1.4362226e+00
 -5.6406327e-02
  9.4180746e-07
  7.7281737e-01
  5.7627285e-01
 -1.5610635e-01
  7.1100990e-04
 -3.4671587e-01
 -6.8719256e-01
 -6.6731367e-03
 -3.0757123e-01
  1.2382658e+00
  7.3261964e-01
 -4.1497618e-01
  2.5609558e-04
 -6.0851717e-01
  1.0598184e-01
 -3.8841348e-02
 -8.0279827e-01
  1.3815491e+00
  3.9677098e-04
 -4.9052451e-02
  1.7125036e-05
  4.3973431e-01
  1.0168508e+00
 -1.1799643e-04
  5.5829310e-01
 -2.3465873e-06
  8.2094681e-01
  1.7098060e-05
  6.4578940e-06
 -2.2041822e-06
 -1.9851952e-05
 -1.3871984e-06
 -1.1442100e-05
 -1.2544616e-05
  4.2618343e-05
  2.3779473e-06
 -4.7385001e-06
  9.0033609e-06
 -2.0426883e-06
 -5.1958195e-05
 -2.0630770e-05
 -6.8004892e-06
  2.5744155e-06
  8.3454415e-06
 -4.2698026e-05
 -5.0053441e-06
 -3.5980142e-06
 -2.8072423e-05
 -5.3642002e-06
 -3.5113976e-07
 -1.7648279e-06
  1.5363703e-05
  9.3250019e-06
  1.4678288e-04
  3.5915743e-06
  5.1501257e-07
  4.9342993e-06
  1.8519708e-05
 -8.3599770e-07
 -1.9873585e-05
 -2.0394953e-05
 -1.3482843e-06
  1.6548742e-05
 -3.7245805e-05
 -1.0923487e-05
  9.3489225e-06
  2.9435871e-05
  1.4201526e-06
  5.4303750e-06
  1.0692300e-05
 -5.2949821e-05
 -3.2830321e-05
 -3.0979390e-05
  2.8741890e-05
 -9.3459266e-06
 -8.7357557e-06
  1.2236776e-05
  2.1615851e-06
 -5.0443923e-05
 -4.2663601e-06
  9.7669135e-06
  2.0981055e-05
 -3.5592950e-06
  4.6654859e-06
  3.6996564e-06
  4.8646266e-06
  2.3056738e-05
  6.1653300e-05
  3.3947334e-05
  9.0690058e-01
  1.7842787e-05
  1.6019228e-04
 -2.6797489e-04
  7.1610315e-03
  8.8105865e-02
 -3.5311458e-01
 -1.2840243e-01
 -1.1976444e-02
  1.2120787e-04
 -2.9023844e-05
  4.2644022e-03
 -1.0995814e+00
  7.1293493e-06
 -9.6220156e-06
  1.3375988e-04
  1.3580875e-04
  8.3216614e-01
  3.9428916e-05
  9.4860516e-05
 -1.0911081e-05
  6.2988704e-07
  1.1562529e-04
  9.0327094e-06
 -2.0075071e-04
  1.5347986e-04
  2.6090447e-06
  2.4111337e-06
 -9.6545091e-06
 -3.2138667e-01
 -1.9447961e-01
 -4.2848656e-01
  2.4039681e+00
  2.1816118e-02
 -3.8166377e-01
 -3.1195320e-03
 -3.0963588e-01
  1.3304158e+00
  6.5872736e-02
  1.5493464e+00
  1.2229180e+00
 -3.3395237e-01
  1.7786119e+00
  3.3891237e-01
  2.1080045e-02
  3.0950900e-02
  7.1933872e-01
  6.8634313e-01
  2.4412507e-02
  4.2816004e-01
  1.0733384e-02
  4.2052457e-01
 -1.0311724e-01
  9.3627733e-01
 -1.9022091e-05
  1.0070116e-01
 -1.3410236e-01
  2.2759368e-01
 -1.2392624e-01
  5.0396111e-06
 -7.0181340e-02
 -3.4574725e-05
 -7.4915487e-01
  2.8422338e-01
 -5.6206461e-02
 -1.8571259e-01
  1.9014847e-01
  6.8113795e-06
  1.5635949e-01
  2.3421323e-01
 -1.3013563e-05
 -9.8451853e-02
 -1.0004742e+00
  5.5061694e-02
  6.6567145e-06
 -1.3200964e-05
  2.7779422e-05
  1.8658462e+00
  6.4556688e-01
 -3.6943056e-06
  7.9033307e-06
  5.9807269e-05
 -1.1932028e-04
  6.2873201e-05
  6.5642271e-06
  7.0084056e-06
 -3.7580423e-05
 -1.9410039e-01
  4.6049020e-01
 -2.0261707e-03
  7.5794518e-01
  3.9353323e-01
  4.1659898e-03
 -1.5096263e-03
  1.1365628e-01
 -1.0018068e-01
  6.0437316e-01
  3.4861621e-02
  1.2834657e+00
 -5.1439708e-01
  1.0886140e-01
 -3.6887963e-05
  1.9564401e-01
  1.4253427e+00
  9.4365751e-06
  4.0597792e-05
 -2.3336592e-05
 -2.5389880e-01
  9.3089473e-01
  7.9183883e-05
  8.6181353e-06
 -5.1613661e-06
  1.2498765e-01
  6.7958893e-04
  2.2614482e-05
  1.0840790e-05
  7.3269330e-06
 -8.0112531e-04
  1.2782437e-04
 -2.0113885e-05
  1.3668509e-04
 -4.6623249e-05
  2.4652747e-05
  4.6241098e-06
 -1.6489112e-05
 -1.9334659e-06
  5.7567136e-06
  1.5207953e-05
  4.7941397e-05
 -3.1776581e-05
 -4.0901514e-06
  6.1820019e-06
  1.2026084e-06
 -1.7155954e-04
 -4.1613599e-05
  1.0446858e-07
  5.4975924e-05
 -9.7275133e-06
  1.9734465e-05
  1.3749537e-05
 -7.1727527e-06
  3.5547364e-06
  6.5095442e-06
 -3.7617554e-06
  7.9303327e-06
  1.4902462e-06
  6.5420711e-05
 -4.4774288e-06
 -7.7622626e-06
  1.0970070e-06
 -5.2420863e-05
  1.9105953e-04
  5.0063346e-02
 -6.9590997e-06
 -7.5025884e-05
  4.8787771e-03
 -1.7363481e-03
 -1.5032536e-01
 -5.8049454e-06
 -3.9720213e-05
  4.9546441e-01
 -1.5375899e-06
  1.9685261e-02
 -1.0413291e-05
 -8.8665502e-07
 -2.9254127e-06
 -2.2571417e-06
 -6.4515630e-03
 -1.9450143e-05
 -2.3348317e-05
 -1.0271711e-04
 -1.0079545e-04
  2.6660404e-05
 -1.3097827e-05
  2.2019176e-05
 -1.2505453e-05
  1.0235188e-05
  4.7724538e-02
 -3.0921301e-04
  4.7077895e-03
  2.5221551e-02
  1.1628420e-05
 -5.0175115e-02
 -9.6056092e-04
  2.6728896e-02
 -1.2061363e-03
  4.0440500e-02
  2.1961698e-01
  2.6796928e-02
  8.0945566e-03
 -8.3798759e-02
  3.3470951e-05
 -4.4598352e-02
 -7.7495879e-06
  1.2045455e-03
  1.9970696e-04
 -8.7761355e-06
 -1.0590735e-01
  1.5733284e-01
  3.0266780e-02
  1.6841672e-05
  2.4196814e-01
 -9.2820521e-04
  3.0910388e-01
 -1.0454239e-05
  4.3233082e-02
 -3.2139057e-03
 -2.0774394e-02
  1.4896393e-02
 -1.4982611e-01
  1.1757709e+00
  2.8550875e-01
  9.9535954e-01
 -1.6315100e+00
  6.5565515e-01
 -6.7482954e-01
 -3.3544692e-01
  6.6066605e-01
  4.5564044e-01
 -2.6284641e-01
  4.8047391e-01
 -9.1814883e-07
  2.6074824e+00
 -1.0039411e-02
  7.6041757e-03
 -3.9229376e-04
 -3.6793696e-03
  1.8640185e-06
  5.8586586e-05
  3.6734834e-06
  1.5616555e-04
 -1.3329998e-04
  3.2961440e-01
 -6.7020221e-05
 -1.1904086e-06
 -1.3889966e-05
  8.4101390e-05
 -7.3191150e-05
 -4.1147265e-05
  7.7323959e-05
  3.2639287e-05
  5.2120979e-04
  3.3408560e-06
  1.4066957e-06
 -2.3072345e-05
  1.2163657e-07
  1.6003609e-05
 -2.7140695e-05
  2.3948944e-04
  1.6499605e-05
  1.0154830e-05
 -1.4176337e-05
 -2.7767981e-05
 -6.3085567e-06
 -1.2740339e-05
  4.0660943e-05
 -1.1366320e-05
 -5.9294683e-07
  1.9396954e-05
 -5.5822675e-06
  4.6243346e-07
 -3.6807705e-05
 -6.4162926e-08
 -4.0364671e-06
 -1.4090901e-05
  5.0244266e-06
 -3.8545444e-05
 -8.5010661e-06
  6.2588319e-06
  2.4383030e+00
  1.0564885e+00
  7.7367431e-01
  3.0244187e-02
 -6.0638171e-01
  2.2815564e-01
  8.1789291e-01
 -7.1467125e-01
 -1.4062491e-01
 -1.5764104e-02
  6.6136403e-05
 -2.2675389e-01
  7.2228509e-01
 -1.5175313e+00
  8.0189547e-03
  1.3845900e-01
  8.4461612e-01
 -3.9511897e-06
  1.5249699e-01
  3.3661917e-01
 -7.2345892e-06
  5.1998184e-05
 -4.2586239e-06
 -1.2462888e+00
  2.3961604e-04
 -3.7637103e-06
  3.3995584e-01
  4.0988944e-05
  3.6231824e-04
  6.9982252e-07
 -6.0703966e-04
 -1.2685230e+00
 -8.9381263e-02
  1.4198540e+00
  8.2701743e-01
 -2.7354622e-01
  7.4552333e-01
 -1.0414363e-01
 -6.1604136e-01
  7.4525908e-02
 -3.6100581e-01
  2.0418134e-01
  1.5323016e-02
  2.0853253e-01
 -2.5010997e-01
 -9.4520357e-05
  2.1056481e-02
 -1.9440113e-04
  3.0151853e-01
  6.7472865e-06
 -1.7433582e-04
  3.7827986e-06
 -2.7713457e-05
 -2.7230695e-05
  2.4857759e-06
  1.7302649e-05
 -3.4792384e-04
  2.5207378e-06
  5.9925519e-02
 -1.4930601e-01
 -1.8333803e+00
  5.2841115e-01
  1.9297863e+00
  2.6749871e+00
 -3.4705624e-01
  2.4742745e-01
  7.4930847e-01
 -2.1578246e-01
  5.2489924e-01
 -4.3151379e-01
 -6.1794943e-01
  2.3952925e+00
  2.7436870e-01
  2.4238412e+00
 -5.9603792e-01
  4.4860294e-01
  2.7757451e-01
 -6.8016195e-01
  1.3675830e+00
  1.7317468e-03
 -2.7514147e-02
  1.0890883e-05
 -5.1093614e-01
  4.2805290e-01
  1.6927981e-05
 -6.6414026e-07
 -1.3927006e-03
  6.4098704e-01
 -2.6561591e-01
 -1.0124132e-05
  2.0066786e-01
  6.5224153e-06
 -4.4610537e-05
  1.0234999e-06
  5.5516507e-06
 -1.0832307e-05
  1.8157654e-05
 -2.8024465e-06
  1.6104577e-05
  6.3974291e-02
 -9.6740960e-06
  1.1744265e-05
  3.6909347e-05
 -8.1217028e-02
  4.1864692e-05
  1.9055153e-05
 -4.5527737e-05
 -8.3920531e-06
 -8.5856322e-05
  3.8236357e-07
 -3.9780780e-06
  7.1460413e-06
 -8.3004968e-05
 -1.3614298e-05
 -4.4976267e-05
 -4.0138981e-05
  1.5225587e-05
 -8.0187938e-06
 -6.7481419e-06
  9.2673845e-06
  5.0360309e-06
  6.2993822e-05
 -1.8695619e-07
 -5.1274300e-01
  6.8917125e-01
  9.0613830e-06
 -5.9784621e-01
 -1.2769417e-05
  2.3824039e-01
  1.3471377e-01
  4.4243527e-04
  2.5942167e-05
 -8.7937624e-05
  8.1067774e-03
 -3.6509970e-01
  7.2290983e-05
  3.5499965e-04
  2.4598139e-06
 -1.3513460e+00
  3.2144296e-06
  1.1369141e-04
 -6.5944773e-06
 -7.7672421e-06
  4.2503461e-06
  1.7704826e-05
 -2.2559102e-04
 -1.6808636e-07
 -1.7141410e-05
 -4.8356708e-02
  2.0150555e-05
 -2.4730630e-02
  3.9310479e-01
  4.6596110e-01
 -8.0849010e-01
  1.2773718e-05
 -1.2040365e+00
 -3.9790973e-01
  1.9076543e-01
  9.1043735e-01
  3.8525101e-02
  3.6649861e-05
  1.2541264e+00
  4.5975235e-01
 -1.2702868e+00
  7.1316391e-02
 -2.1892496e-05
 -1.0882595e-02
 -1.4292101e-04
  6.6775031e-02
 -1.6761953e-02
 -9.3072362e-04
  8.9890282e-06
 -1.2120635e-01
  3.8966557e-01
 -2.6859815e-04
  2.2939392e-07
 -1.9410519e-01
  3.3228572e-02
  9.8166233e-01
 -2.9085861e-05
 -2.6464159e-05
  2.4421121e-05
  1.2241650e-05
 -2.2112722e-06
 -2.0238701e-06
  1.2055894e-04
 -1.0854917e-05
 -1.7035469e-06
 -1.4557339e-05
  7.6496050e-05
 -2.6728580e-04
 -3.7423325e-07
  8.8375418e-06
  2.1918213e-05
  3.2613163e-05
  6.6852072e-06
 -4.6616064e-05
  2.0353726e-05
  5.7898278e-06
 -2.3527495e-05
 -1.5469272e-05
 -5.8714859e-06
 -3.9786395e-05
 -1.4206945e-05
 -2.7535685e-05
 -1.8147474e-06
 -1.1828524e-05
 -2.2689965e-05
  6.9340294e-06
 -1.0845060e-06
 -3.5397802e-06
 -8.7200997e-06
  1.8692988e-06
 -1.4180741e-05
  1.1200740e-06
 -1.6586217e-06
 -1.2927453e-05
 -9.1475431e-06
  3.3082215e-05
  3.5874065e-05
  7.3624392e-06
  6.0840803e-06
 -7.5047110e-06
  1.9199020e-05
 -1.7959057e-05
  9.6016425e-05
  2.8387706e-06
 -3.4243054e-05
 -3.0424926e-07
  9.6596459e-06
 -1.1772505e-05
  2.3555294e-05
  1.2530983e-04
 -3.6042672e-06
  1.0074643e-05
  2.8270040e-05
  7.6092388e-06
 -4.7870697e-05
  5.4695402e-06
 -9.0662448e-05
 -7.6145157e-02
 -1.4153324e-01
 -1.8397333e-02
 -5.9463924e-01
  7.3220387e-02
  8.4666684e-02
  1.0100039e+00
 -2.8682730e-01
  7.8018457e-02
  3.8170940e-01
 -5.0521091e-02
  3.5516793e-01
 -5.9741902e-01
  2.4079051e-02
 -5.6051534e-01
 -7.8200124e-04
  8.4053934e-01
 -4.0881211e-01
  9.2019600e-01
 -5.9560141e-05
 -4.9246498e-03
 -1.3482709e-04
 -2.1485119e-01
 -2.5874065e-06
 -2.5237378e-01
 -2.4604312e-06
 -7.6954416e-04
  1.5476932e-04
  9.2889629e-02
 -7.3237177e-03
  2.8871451e-04
  2.6866549e-04
 -1.3281201e-06
  1.1086703e-04
 -1.5024224e-01
 -4.9565374e-06
  4.1592624e-02
 -9.0816253e-01
  1.3863935e-02
  2.8690794e-01
  1.0297874e-05
 -5.9354443e-05
 -3.3931446e-01
  6.8038422e-01
  9.8196644e-01
  1.2277449e+00
  1.3949529e-05
  4.1363589e-04
 -9.9734498e-05
 -1.8717487e-01
  4.5893477e-05
 -5.8947849e-01
 -1.3675196e+00
  1.5906458e-01
  5.8885060e-08
 -5.4720902e-01
 -7.6227792e-02
  3.5207221e-04
 -1.1462435e-05
  5.2976757e-01
  1.8473420e-01
 -6.6111231e-01
 -5.3826002e-06
  1.1369093e-05
 -7.3993403e-01
 -9.8069435e-01
 -5.6719816e-01
  2.4492211e+00
 -2.0698106e+00
  1.4029713e+00
  2.9779585e-05
  1.7622233e-05
  5.9508854e-01
  2.2982728e+00
  7.6582384e-01
  5.9831369e-01
 -6.6014768e-06
 -5.0535792e-01
  8.5239136e-01
 -8.7885338e-01
 -2.0133106e-05
  9.6862400e-01
 -6.9792998e-01
 -2.0092223e+00
  3.5786531e-06
  4.7476706e-01
 -9.9592245e-01
 -3.6049041e-04
  1.7936500e-05
 -8.7657034e-01
 -2.4314096e+00
  8.5212213e-01
  5.5254191e-01
 -6.3061517e-01
  1.4248137e-04
 -3.8145848e-02
 -5.1072592e-01
 -1.1611148e+00
  1.1485112e+00
  1.9719839e-01
  3.8591981e-01
  2.2944546e-01
 -3.5229331e-01
 -3.1022602e-04
 -1.1286882e-04
 -6.2731525e-04
 -4.2806931e-02
 -8.6899754e-06
  1.3898057e+00
 -1.7576480e+00
 -8.1633091e-01
  8.8522738e-01
  9.4561958e-01
  9.0250596e-06
 -1.6269449e-03
  2.2471595e-01
  8.3205867e-01
 -1.5621675e+00
 -2.5652277e-01
  3.7141624e-01
 -2.6725545e+00
 -8.7334074e-02
 -5.8286620e-05
 -1.1625857e+00
  8.6117387e-01
 -9.8153818e-01
  4.5934743e-01
  8.6154932e-01
  1.6872513e+00
  3.9848462e-01
 -3.8081858e-02
 -5.6767619e-01
  1.7786038e+00
 -5.1888108e-01
 -3.8731272e-05
  1.9607124e+00
 -1.2034867e+00
 -2.0618618e+00
  1.1524994e+00
  4.2003462e-01
 -1.2451013e+00
  1.5452700e+00
 -6.2282151e-01
  9.9689108e-01
  9.0196013e-01
 -1.0842270e-01
  5.6327455e-05
  2.8265101e-01
 -4.6087584e-01
  3.3155555e-01
 -8.1423587e-01
 -2.7272865e-01
  4.7436583e-06
 -1.7846718e+00
  1.1638521e+00
 -9.5881027e-01
 -1.6400788e+00
  2.5182825e-01
 -1.8773341e-01
  8.7992914e-02
 -1.6355830e+00
 -2.1358229e-01
 -1.5095881e+00
  1.3030776e-01
  4.9536027e-02
 -3.2824674e-01
  8.2965344e-01
  3.6001539e-01
  2.1738369e+00
  1.8693389e-01
  3.4574509e-01
  1.0089785e+00
 -3.3214191e-01
 -4.7625956e-01
 -2.1327040e-01
 -7.0110238e-01
 -3.6240211e+00
 -2.6833983e-03
 -9.6237677e-01
  3.6234257e-01
  1.0631231e+00
  1.0978520e-05
 -4.7114636e-06
 -1.2194801e-05
 -1.6144533e-05
 -1.1711548e-02
  1.9753187e+00
  5.6528980e-03
  1.3031961e-02
  4.7928549e-02
 -9.1256620e-04
 -4.5464584e-03
  1.2973069e-05
 -1.9798979e-01
 -5.2681178e-01
  1.5284157e-01
 -1.0790935e-05
  6.3008481e-01
 -7.6227552e-01
 -1.7754862e-01
 -4.0447116e-01
 -1.0273615e-01
 -1.1298950e+00
 -2.3620958e+00
  5.5163765e-01
  6.2165771e-02
  1.1352150e-01
 -3.6432046e-01
 -1.7614842e-04
 -2.6112622e-05
 -4.0750489e-01
  1.5499093e-01
 -8.3725463e-05
  2.2371192e+00
  4.7620100e-01
  6.4818043e-01
  1.7785528e-01
 -1.0651944e-01
  6.4234268e-06
  1.3412566e-01
 -2.6410690e-01
 -7.8312457e-01
  1.4638735e+00
  1.4809331e-02
  1.8292306e-01
  5.5858082e-01
 -1.7056058e-01
 -3.0762783e-01
 -6.0658997e-01
 -4.5685968e-01
 -3.9640591e+00
  2.9195242e-03
  1.2673575e+00
 -4.5941831e-03
 -7.5863373e-01
  7.9805304e-06
 -1.6492423e-01
  4.1888566e-03
  1.2799043e-05
  2.1780273e-01
 -6.1438065e-02
  1.0506741e+00
  5.9283161e-01
  1.5094194e+00
 -1.8368337e-05
 -2.0763180e-06
 -2.6250955e-02
 -7.1517915e-01
 -2.2813077e+00
  1.2795974e+00
  5.4174489e-01
  1.9975435e+00
 -6.3192910e-01
 -1.3100830e+00
 -1.6646963e-01
 -1.3648014e+00
 -1.9782431e-01
  5.8478451e-01
  8.4675312e-01
  4.7095630e-01
  9.2990294e-02
 -7.2529447e-01
 -1.8014860e-03
 -2.3353016e-02
  1.1635316e-05
 -2.7356225e-01
 -9.0135154e-06
  2.1705897e-01
  9.3775399e-02
  7.3623651e-04
 -3.1294751e-01
  2.1269082e-01
  3.9096933e-02
 -3.4864806e-05
  1.1371181e+00
  1.3929895e-05
 -6.2801379e-01
 -3.5016075e-02
  6.5021872e-05
  3.0187008e-05
 -3.0597353e-02
 -3.1097248e-01
 -1.2768091e-01
 -1.1268054e+00
 -2.8386578e-01
 -1.0811452e+00
  5.1924443e-01
  2.6593262e-01
  1.0784904e+00
 -2.6338693e-01
 -3.6279723e-01
  1.3242257e+00
 -2.2714515e-01
 -7.7693212e-01
  1.9913452e+00
  6.3992107e-01
  2.6618080e-05
 -1.0520934e+00
  5.9698462e-01
  1.2088736e-01
  3.8788876e-01
  6.9154787e-01
  2.7986610e-01
  1.3442476e+00
  1.6855871e-08
  6.6403043e-01
 -3.8638893e-01
 -7.0654130e-01
 -2.5130596e-05
 -5.3948587e-01
  1.6802006e+00
 -6.9556087e-02
  1.1117965e-01
 -2.8788435e-04
  1.7169348e-05
 -6.2257767e-02
 -3.2560760e-01
 -2.4332523e-02
 -4.6758461e-01
 -2.0055988e+00
 -9.0848976e-01
  3.7115246e-01
  1.0405395e+00
  6.3071889e-03
  2.0094187e-05
 -1.1202509e+00
 -5.3900754e-01
  3.2654844e-02
 -1.9071470e-03
  1.4481618e-01
  3.7445882e-01
  1.7124937e-01
  9.4639182e-01
  9.3478340e-01
  2.3493629e+00
  2.1806509e+00
 -1.0760739e+00
  1.4309938e+00
  6.0291447e-02
 -1.5936021e+00
 -7.7254403e-01
  1.2523458e+00
  1.1668953e+00
  4.2506290e-05
  1.3644926e-01
  2.0671625e-06
  1.6508389e+00
 -1.1469670e-05
 -2.8389823e+00
  1.2347192e+00
  2.0461056e-01
 -4.2991292e-01
  9.1971594e-01
  4.9376968e-01
 -2.4461338e-01
 -2.1101797e+00
  1.4703227e-02
  6.1920542e-01
 -1.6370333e+00
  2.2381778e-01
  1.6662252e-01
  2.9495558e-02
  1.0378261e+00
  6.0654032e-01
  2.3718941e+00
  1.8655384e+00
 -1.7164903e-02
  1.0685691e+00
  1.4581140e+00
 -1.4230156e+00
 -8.6557820e-06
  2.1124976e-03
  7.6883888e-01
  2.0354192e-01
  2.0577068e+00
 -9.9612284e-01
  2.7780206e+00
  8.5040189e-02
 -2.5739329e+00
  1.0834143e+00
  2.1215603e-01
 -2.1212969e+00
 -4.4075784e-01
 -1.2550555e-01
 -1.5114737e+00
 -8.7490243e-01
  4.4145548e-01
 -2.4023317e-01
  1.0217317e+00
  1.9080307e+00
  3.1338823e-01
  2.3594581e-01
  7.0595628e-01
 -4.3294901e-01
 -1.9039000e+00
  3.1348529e-01
  2.2639245e-02
  1.6076342e-04
  2.3356694e-01
 -9.9334824e-01
  1.6326097e+00
 -1.6062215e-01
  3.7231430e-01
  4.2194629e-01
  6.7414546e-01
 -2.2053711e+00
 -8.1734746e-05
 -7.6235151e-01
 -1.0221267e+00
  1.2931701e+00
  1.4962189e+00
  1.0491807e+00
  1.2576025e+00
  1.7691530e-01
 -6.4530718e-01
 -1.1435742e+00
 -6.8491483e-01
  1.3252515e+00
 -1.4765111e+00
 -5.9830076e-01
 -4.1908216e-01
 -2.3466611e+00
 -4.1942406e-01
 -4.1554347e-02
 -1.8415247e-01
 -3.3157629e-01
 -4.4424269e-05
 -5.2863735e-01
 -6.3367297e-06
  6.3452649e-01
 -7.6323187e-01
 -5.9106301e-06
  8.6782205e-01
  1.0404814e-04
  3.5444826e-01
 -5.1929832e-01
  8.6366236e-02
 -1.4307724e-02
 -3.2565084e-01
  7.8930128e-01
 -1.8851142e-02
 -1.0447829e+00
 -1.8264308e+00
 -6.3384712e-01
  1.1453081e+00
 -1.0485490e-01
 -2.1949780e+00
  1.3045236e+00
 -3.3855179e-01
 -2.4039009e+00
  6.7141038e-01
 -5.2162915e-01
 -9.3800831e-01
  1.9277778e-01
  9.6405558e-02
 -4.0633142e-01
  7.0324206e-01
  2.8432686e-02
  1.1681610e-04
  9.8329061e-01
 -1.1200837e+00
  6.5477097e-01
 -4.8999947e-01
  3.4903523e-01
 -7.6566058e-01
 -1.4500382e+00
  7.6301978e-03
 -3.1019840e-01
  8.5101075e-02
 -1.1269039e+00
 -1.0332888e-01
 -1.8250854e+00
 -1.5927937e+00
 -2.8311145e+00
 -6.9300145e-01
 -1.9787136e+00
 -8.6776704e-01
  1.9861985e+00
 -1.0132362e+00
 -1.0003107e+00
 -6.9393218e-01
 -8.1433088e-01
 -1.7893107e-01
 -1.3749802e+00
  5.6568599e-01
  4.8268709e-01
 -4.4788596e-01
 -1.7426428e-01
 -1.4271021e+00
  1.8911771e+00
 -1.4353701e+00
 -2.8782460e-01
  6.3055712e-01
  1.1585085e+00
  4.5238072e-01
 -8.4162313e-01
  1.8319522e-05
 -2.2072757e-06
 -5.5464266e-06
 -2.1549303e-03
  1.3184471e-05
 -2.2285480e+00
 -6.9236618e-01
 -1.2366328e+00
 -4.9046046e-01
  1.4246888e-05
 -1.9684718e-07
  1.5925127e-05
  1.1077841e-05
  2.6681402e-05
  5.0937763e-04
 -7.4997871e-07
 -6.9082564e-01
  2.2521546e-05
  1.1057920e-05
 -7.1063282e-06
 -1.5229479e-05
 -3.4729470e-02
  4.9728228e-06
 -1.2777410e+00
  8.5226965e-01
  5.2785420e-01
 -1.2540860e+00
  1.0403907e-05
 -1.3209200e-06
 -1.6155129e-05
 -1.3138041e-05
 -2.2020693e-05
  1.4726360e+00
 -1.0199442e+00
  5.9764582e-01
 -5.7354838e-01
 -1.1881099e-05
 -1.5333555e-05
  3.9081118e-05
 -3.2909669e-03
  7.1284053e-06
 -5.5174959e-01
  9.0558225e-01
 -4.3331303e-05
 -6.3354796e-01
 -4.8234347e-06
 -1.4412767e-04
  6.2150998e-06
 -5.9528829e-05
 -7.6510169e-06
 -1.9506252e-01
  6.9819427e-01
  1.0369964e+00
 -8.8533610e-01
  1.6180965e-06
 -2.8779414e-06
  5.8601368e-06
 -5.1569268e-06
 -5.2112641e-06
  4.0181950e-01
  2.6545498e-01
 -1.7154145e+00
 -6.6326654e-01
  2.0231269e-06
 -4.1530543e-06
 -2.0745996e-05
 -9.9752389e-02
 -2.1877972e-06
 -1.5297327e+00
  1.0738146e-01
 -1.6226489e-02
  1.2973230e-01
  2.8205732e-06
  6.3289728e-05
 -2.4667746e-05
 -3.9104660e-07
 -1.7947434e-05
 -2.3951991e-01
  4.9698421e-01
  7.4354333e-01
 -3.7160149e-01
  7.3307434e-05
  6.8359814e-06
  5.7233869e-05
 -2.7164865e-01
 -1.2262391e-05
  1.2684509e-01
 -7.3275459e-01
  1.3453981e+00
  3.2512896e-02
  5.3509511e-06
 -1.2033533e-05
  1.8110836e-06
  1.5476589e-05
 -9.5866908e-06
  1.9617116e-01
  4.5425750e-06
  2.8637251e-01
 -1.0913116e-05
 -4.2318279e-06
  4.7705544e-06
  7.9975672e-07
 -2.0945019e-01
  7.7891227e-06
  3.0557191e-01
 -7.1540248e-01
  7.0646220e-01
 -8.5576731e-01
 -1.8670306e-06
 -6.0643370e-06
  2.5775347e-07
 -2.4456190e-06
 -9.0251524e-05
  1.2229944e+00
  3.6685508e-01
 -1.1237382e+00
 -7.2476423e-01
 -2.4018673e-06
  1.2255654e-05
 -2.4274002e-06
 -1.5459946e-04
 -1.4595854e-05
  1.8309697e-04
  5.9768178e-02
  3.2400319e-01
  5.4690224e-01
  5.1639516e-05
 -5.0742179e-05
  4.3523969e-06
 -8.4280819e-06
  1.7065787e-01
  7.5178373e-01
  5.9085464e-01
  2.5641098e+00
 -9.1073775e-01
  6.5786899e-06
  1.1655021e-05
 -1.9990725e-06
 -1.4646724e-04
 -6.8920504e-06
  1.6923670e-01
  3.2101452e-02
  2.0140593e-01
 -1.5299690e-01
  1.6444115e-05
 -8.3376844e-06
 -2.8761681e-06
 -4.3391155e-06
  2.2271151e-05
  6.9178981e-01
 -4.7284579e-01
  7.0396376e-01
  8.5951930e-01
  2.1164586e-05
  8.0233576e-06
  1.5406951e-05
 -4.6777204e-06
 -6.8644003e-05
  1.0820170e-01
  1.2846944e-01
 -5.5418295e-01
  3.5597542e-01
 -2.6083964e-05
 -1.0884956e-05
 -1.0300342e+00
 -3.8255405e-01
 -6.1763598e-07
  6.5084857e-01
  5.8939550e-02
 -4.3240395e-01
 -5.8179939e-01
 -3.1655120e-05
 -1.0086387e-05
 -2.2985913e-04
  6.3278523e-05
 -3.5734698e-07
  1.2834154e+00
 -1.0831472e-05
  2.0944863e-06
 -2.3690836e-05
 -1.1968446e-05
 -7.3951510e-06
 -5.1741272e-02
 -2.5314221e-01
 -8.2884872e-06
 -7.0412767e-01
  1.1136313e-01
 -1.8866707e+00
 -5.3017074e-01
 -1.3684268e-05
 -1.8414590e-05
 -8.1388164e-01
 -1.0894748e-06
 -1.6589131e-05
  2.5797498e-01
 -5.2528214e-01
  4.0174133e-01
 -5.1493031e-01
 -6.3007151e-06
  3.2631360e-05
  8.4424231e-05
 -2.1023718e-03
  2.0243197e-06
 -9.3566197e-01
  4.2605558e-01
 -4.6976826e-01
 -1.2722647e+00
  3.9657425e-06
 -4.5734910e-06
 -8.4642887e-01
 -1.2332880e-02
  4.9227069e-06
  3.0853069e-01
  6.4082399e-02
  4.4652370e-01
 -1.1087341e+00
 -5.5705473e-06
  1.0295060e-05
  3.3514785e-05
  2.9421369e-06
 -3.7505006e-06
  1.1149981e+00
  3.2948327e-01
 -4.5094448e-01
 -1.1363052e+00
 -8.4254798e-06
 -2.1344303e-04
 -6.0512000e-01
 -3.1939197e-01
  3.7207562e-06
  3.5503548e-01
  5.7016712e-01
 -1.3171979e+00
 -1.3145089e+00
  3.6123938e-06
 -1.7944152e-05
  2.3630705e-01
  6.0920520e-06
  6.3151892e-05
 -2.9968786e-01
  1.8584074e-01
  6.2151080e-01
 -5.8488381e-01
  4.8734605e-02
  7.9082179e-01
 -1.0596037e+00
 -4.3591639e-01
  3.9892561e-06
  6.5078288e-01
  8.2277322e-01
  1.0053822e+00
 -6.2894928e-01
  7.7901805e-06
  6.9133566e-06
 -1.1766568e-05
  3.6980626e-05
  4.1864373e-06
 -1.1754667e-01
  1.0237603e-04
  6.9098663e-01
  3.8808797e-05
  4.1233860e-02
  6.3862783e-01
 -6.4408016e-01
 -3.0830011e-01
  6.3871353e-06
 -1.1113887e+00
  4.2752728e-01
 -8.1353796e-01
 -6.1618555e-01
 -3.7405528e-06
 -2.0210262e-05
 -6.4378554e-01
 -2.7929229e-05
  1.0238646e-05
  7.5157952e-01
 -8.8809215e-02
  8.2206041e-01
  5.2163696e-01
  1.6266475e-02
  3.9099365e-01
  7.7079874e-01
 -2.9545620e-02
 -3.6079247e-05
 -1.8587697e-01
  8.4406918e-01
  2.5451270e-01
  1.2181145e-02
  1.2202513e-05
 -1.3799997e-06
  1.6603810e-01
 -4.0972088e-02
  4.6587174e-04
 -1.6629697e+00
 -5.0030085e-03
  2.1603231e+00
 -3.7441513e-01
  4.2742093e-05
  1.3326211e-01
 -1.3670684e-01
 -8.0112855e-05
 -1.9155048e-06
 -1.7986125e+00
  4.9119776e-01
  1.4641435e+00
 -2.5230598e-01
 -2.1238729e-05
  2.9009753e-01
 -7.9883075e-01
 -1.4959696e-01
 -4.7884441e-06
 -6.9831061e-01
  3.0326411e-01
 -7.8718230e-02
  1.2962177e-01
  8.3931940e-07
  4.5418196e-06
 -3.5852629e-01
 -6.1825279e-04
 -1.2742804e-06
 -4.4100565e-01
  4.5587105e-01
 -4.7580004e-01
 -1.5466620e-01
 -1.9604508e-05
 -1.3813624e-01
 -7.6768208e-01
  1.2041832e+00
 -4.4723845e-05
 -1.3605382e+00
  1.0280336e+00
  7.9280478e-01
 -6.0311943e-01
 -8.9869936e-06
  1.3797629e-05
 -4.3670745e-05
 -8.6849650e-06
 -1.4320423e-06
 -4.0139356e-01
  7.5027752e-01
 -1.9612622e+00
  1.6700784e-06
 -3.2059161e-05
 -3.1008383e-02
 -1.5032911e+00
  6.9869000e-01
  8.4492940e-06
 -2.2204262e-01
 -3.1240065e-02
  5.0943017e-01
  1.0862799e+00
 -4.2485435e-06
 -1.6611590e-05
 -2.6978365e-01
  4.9582055e-01
  7.8342339e-07
 -1.1373496e+00
  9.3502855e-01
 -2.6497713e-01
 -6.0366702e-01
 -4.3868640e-06
 -2.0964233e-06
 -2.9365891e-01
 -5.2810981e-05
 -2.3065734e-08
 -1.1669942e+00
 -7.1538979e-01
 -2.7931321e-01
  3.7825581e-01
  2.4842711e-05
 -7.3539471e-04
 -5.4802960e-01
  1.2736971e+00
 -6.4030223e-07
  5.3205115e-01
  1.8427500e-01
  5.5218405e-01
 -5.7552103e-02
 -2.5461000e-05
  1.3187611e-05
 -9.2242219e-02
 -1.4911308e-05
 -7.0109604e-06
  1.5352459e-01
  2.2420223e+00
 -1.8586448e+00
  4.8450065e-01
  3.3505020e-07
 -5.0919041e-02
 -5.9379798e-01
  8.5106200e-01
 -1.8077129e-06
 -4.1859025e-01
 -1.8567614e-03
  1.9622871e-01
 -4.1996074e-01
  1.3469185e-05
 -6.9828704e-05
 -5.2065343e-01
  3.8656178e-01
  3.1953384e-06
  5.8619106e-01
  4.0292320e-01
 -6.5033454e-01
 -7.7936941e-01
  1.2413758e-02
  1.2413758e-02
  1.2413758e-02
  1.2413758e-02
  1.2413758e-02
  6.7241365e-01
  6.7241365e-01
  6.7241365e-01
  6.7241365e-01
  6.7241365e-01
  1.4738771e-01
  1.4738771e-01
  1.4738771e-01
  1.4738771e-01
  1.4738771e-01
  1.0924964e-01
  1.0924964e-01
  1.0924964e-01
  1.0924964e-01
  1.0924964e-01
  1.6452778e-02
  1.6452778e-02
  1.6452778e-02
  1.6452778e-02
  1.6452778e-02
  1.8038879e-01
  1.8038879e-01
  1.8038879e-01
  1.8038879e-01
  1.8038879e-01
