nep4 3 Ba Zr S 
cutoff 8 4 150 20
n_max 4 4
basis_size 8 8
l_max 4 2 0
ANN 30 0
 -1.3550068e-01
 -4.7650795e-07
  9.2424511e-05
  1.9571569e-02
 -1.7895894e-02
  3.2987111e-05
 -1.1673020e-04
 -1.4207319e-04
 -1.5302752e-04
 -2.2095847e-01
  3.2152460e-04
  2.4352117e-05
 -1.5293987e-04
  1.9504770e-03
 -3.9773298e-04
  2.5693133e-05
 -3.5327845e-05
 -3.8145665e-02
 -5.8321544e-04
  7.0383780e-05
 -4.8060268e-05
  2.7982620e-04
 -1.2980188e-03
 -3.7235115e-04
 -2.7112829e-04
  2.4715674e-04
 -2.6894206e-05
  4.0074745e-05
 -1.2330707e-04
  7.1999057e-05
 -1.1262998e-04
  2.7097316e-05
 -2.9921675e-05
 -2.4203393e-05
 -2.0776557e-05
 -3.2271873e-04
 -1.3127175e-04
 -6.0130260e-04
  1.5969730e-04
  9.6299525e-05
  2.6641947e-05
  5.4636475e-05
 -5.4088046e-05
  2.7132768e-05
  7.3197109e-05
 -1.9317376e-04
  1.6757225e-05
 -3.7688624e-05
  1.2873685e-04
 -2.9166422e-05
  6.6499735e-05
 -5.0177063e-05
  4.7053349e-05
  1.5107049e-04
  1.4561650e-05
 -4.9840114e-06
  1.7702143e-04
  5.0522205e-05
  1.2720164e-05
  8.1696653e-06
  2.9657708e-04
  3.2023730e-05
 -3.8474020e-05
 -9.2797682e-06
 -4.2608567e-04
  3.5865400e-05
  1.9561476e-04
 -7.4769086e-05
 -9.5452386e-05
 -5.0313109e-05
  5.5496042e-05
  3.1268260e-05
  1.1607385e-05
  2.7704480e-05
 -4.5988018e-06
 -7.2338073e-05
  7.8102840e-07
  2.0130120e-04
  1.5549442e-05
 -3.7249444e-07
  8.8348861e-05
  8.5065323e-05
 -6.4274151e-05
 -2.2133323e-04
  4.2653381e-05
 -6.0124726e-06
  1.5261956e-04
  3.1513300e-05
 -6.7324781e-06
 -1.5685943e-04
  1.7106258e+00
  2.6920165e-05
 -1.3397076e+00
  4.2484030e-01
 -1.4726333e-01
 -1.3053196e-04
  8.1787832e-02
  5.9778810e-02
 -4.2905059e-01
 -5.0455666e-01
 -6.2279425e-05
 -4.6490910e-05
 -1.2064286e-04
 -1.3423419e-01
 -8.6693689e-02
 -3.7015037e-05
 -8.7389155e-05
  2.2426723e-01
  1.6719908e-01
 -3.5587585e-01
  1.5119165e-04
 -3.1260602e-04
  7.3323637e-02
  2.5460005e-01
  3.4409314e-01
 -1.1443844e-04
 -3.6598012e-05
  3.6656937e-05
  5.0970971e-06
 -4.2236429e-03
 -4.5105186e-05
  8.0443431e-05
  1.2385302e-06
  2.9937219e-04
  3.3099230e-05
  4.8919745e-05
  1.7176018e-04
  1.6179471e-05
 -1.0159887e-04
  3.1544932e-04
  7.9965848e-06
 -8.9902787e-05
 -4.2705164e-05
  9.6698583e-05
 -1.6521725e-04
 -5.3711196e-05
 -4.9910654e-04
  5.5768910e-06
 -6.4618478e-05
  2.5215519e-05
  3.3614600e-05
  9.6654512e-05
  4.4784141e-05
 -1.2717349e-04
 -2.1797206e-04
  3.7216018e-05
  1.8252751e-04
  4.6730966e-05
 -3.7301134e-04
 -1.8133052e-05
  1.3722241e-04
  1.4989026e-04
  2.0286387e-04
  1.6003964e-04
  1.1207917e-04
  2.4076287e-06
  1.6709393e-05
 -1.2548779e-04
 -7.1652571e-06
 -2.2825629e-01
 -7.8416902e-05
 -1.2338583e-04
  4.6679870e-05
  7.5556381e-05
 -3.5081768e-05
 -4.3031733e-04
  5.8579294e-06
 -9.4869763e-05
 -4.2158394e-05
  1.8220964e-04
  2.0670335e-04
  1.2714449e-04
 -3.9978164e-05
 -9.3197967e-05
 -1.2799262e-03
 -7.2122380e-06
 -2.8765086e-05
 -4.7257308e-05
  1.6448734e-04
  9.7021220e-05
 -2.3044019e+00
  1.7968672e-05
  1.3165419e-01
 -6.6535044e-01
  1.4228522e+00
 -4.7255262e-06
 -1.6973673e-04
  4.1867699e-04
  8.7397173e-02
  2.7575403e-02
  3.2624623e-05
  1.4211744e-04
  2.0911555e-06
 -1.3507924e-06
 -3.6944507e-04
 -6.8775211e-05
  1.3219652e-04
  4.3565844e-05
  2.0121447e-04
  1.7638776e-01
  1.0263946e-04
 -3.5314693e-05
 -3.1479354e-05
 -1.6379490e-05
 -5.5505490e-05
 -8.4590967e-05
 -1.2696802e-05
 -3.3095878e-04
  7.9451223e-05
  6.0580227e-05
 -1.5089254e+00
  4.8657212e-01
  1.5408163e+00
 -1.1469253e+00
  8.4729129e-01
  7.5617929e-05
 -1.1862448e-04
 -9.2299684e-05
  3.4725821e-01
 -7.2370839e-01
 -3.3507393e-05
  4.2815482e-05
 -2.5199429e-04
  6.9311756e-04
 -5.2476065e-05
  1.2139660e-04
 -9.8564000e-05
 -1.2402140e-01
 -1.3675378e-02
  9.9796847e-02
  4.6163867e-05
  1.2294188e-04
 -3.7927573e-05
 -1.4028500e-01
 -1.5490922e-01
 -1.3606616e-04
 -5.0057573e-05
 -1.3564146e-04
 -8.4884072e-05
 -1.1920499e-04
  1.3367653e-01
  7.4596135e-03
  2.3867120e-04
 -2.1565777e-01
 -1.0122760e-01
 -6.1929335e-05
  9.0178306e-05
  3.0925262e-01
  1.4786272e-04
  8.0100560e-01
  1.3989384e-05
 -3.7314869e-05
  8.3958585e-05
 -1.3553194e-02
  1.9677940e-05
  6.0749215e-05
  8.4328640e-05
  4.3061242e-02
  1.3702875e-03
  5.4910866e-05
  2.8574308e-05
 -4.8003613e-04
  7.3184343e-03
  1.1550960e-01
  1.7575620e-01
 -2.0817648e-04
  3.9700441e-05
 -4.3214193e-05
 -9.4877272e-05
  2.8319475e-05
  1.4861132e-04
 -2.2333855e-04
 -4.2770185e-02
 -1.3822299e-01
 -5.8799931e-05
  1.6140037e-06
  3.5048288e-04
  1.3089669e-04
 -1.1777470e-04
 -1.5503785e-02
  3.2961543e-04
 -4.8609298e-05
 -2.6966816e-05
 -4.0906911e-05
  1.0290121e-05
 -4.1579110e-06
  1.7616428e-04
  6.8846494e-02
 -1.5743792e-05
 -3.0983287e-05
 -6.1875129e-05
  1.0218587e-05
 -7.3983306e-06
  1.9626186e-04
  2.7234897e-02
 -2.4767272e-05
  1.0245916e-05
  1.0080107e-04
 -1.1081637e-04
 -5.5353034e-06
 -5.0175917e-01
 -1.0594998e-05
  2.5673304e-04
 -2.3020495e-05
  3.0643055e-01
  9.9256540e-05
  5.7645426e-05
 -5.8888501e-05
 -8.5821637e-05
 -1.4706353e-04
  4.9918719e-05
  2.1866743e-05
 -2.7901693e-05
  2.3772629e-04
 -9.4090792e-05
 -1.6854574e-04
  1.7551460e-05
 -1.7697245e-04
 -1.2060037e-04
  2.4772077e-04
 -6.7539768e-05
 -1.1850360e-04
 -1.5576898e-04
  6.9374328e-05
 -1.2249358e-04
 -1.0288317e-04
 -5.9782225e-05
  5.0129162e-05
  5.3442513e-06
  1.5533691e-04
  5.2440642e-05
 -8.7238899e-05
 -1.5831928e-06
 -3.7770486e-04
 -6.3884418e-06
  2.2060672e-06
 -4.7206424e-05
 -1.3006075e-05
 -3.5481939e-05
 -4.7610352e-05
 -1.2801966e-04
 -2.7992003e-06
 -7.6480464e-05
 -1.2177314e-04
  3.3355063e-05
 -3.0880910e-05
 -2.6637987e-05
 -2.6316397e-04
  1.0213281e-04
  3.8806966e-06
  3.1934767e-05
  6.3500869e-05
 -1.7551072e-05
 -1.9645988e-04
  5.8517940e-05
  1.1562224e-05
  1.6966288e-04
  3.4650697e-05
 -6.5326116e-05
 -5.6433681e-05
 -1.3357899e-03
  1.0628520e-04
  5.0271437e-02
  4.3971619e-01
 -4.4503313e-02
  6.7672192e-07
  1.8242696e-06
 -2.8207751e-05
  4.5270149e-02
 -2.5139481e-03
 -8.5871608e-05
  1.1237728e-04
 -2.0404269e-04
 -3.9372128e-05
 -1.2015517e-04
 -2.6338141e-05
 -2.0531060e-04
 -3.9177880e-02
 -1.7933024e-03
  1.9561436e-05
  7.4772929e-06
  3.8357597e-05
 -6.6044959e-05
 -4.9733400e-04
 -1.4139843e-02
  1.0400880e-05
  2.7281170e-05
 -3.2728036e-05
  1.3176420e-04
  9.8890829e-05
 -3.6609224e-05
 -3.9778653e-04
  2.1837393e-05
  1.1096584e-05
 -2.9758525e-05
  3.5374962e-06
  1.7756282e-05
  1.6449480e-05
  1.9253650e-05
 -6.6625238e-05
  1.0646272e-05
 -6.0180118e-05
 -2.0489260e-04
  2.6962500e-05
 -4.4065033e-05
  8.5644824e-05
 -7.0279362e-05
  1.0161567e-04
 -5.6978719e-05
 -2.2878101e-04
  1.4580055e-05
 -1.3131551e-04
  1.8624785e-05
 -5.2793672e-05
  3.8683588e-06
 -1.6801135e-04
  3.1452098e-05
 -8.2488878e-05
 -6.1110914e-05
 -1.3457815e-04
  5.9405267e-01
  1.1946260e+00
 -7.8888290e-02
 -2.6246254e+00
 -4.1210210e-01
 -2.2891047e-04
  9.3049021e-06
  4.8501343e-02
 -5.4750508e-01
 -6.3601352e-02
 -8.6004860e-05
  2.9511750e-01
  2.5562230e-01
 -1.0106996e-01
  3.3697411e-01
 -1.5061229e-04
 -4.4118442e-05
  3.9610690e-01
  1.2452450e-01
 -1.2152357e-01
  9.7190547e-05
  1.7866616e-04
  2.6004937e-01
  5.6015027e-01
  7.1476871e-01
 -2.6112866e-05
 -6.3985397e-05
 -1.2264834e-05
 -2.5643347e-04
 -1.7987479e-01
  7.0239919e-05
  9.8035540e-05
 -3.4776875e-01
 -2.1941106e+00
  7.9055578e-03
 -1.5747958e-04
  8.7466986e-05
  3.4361840e-03
 -3.0526310e-01
  9.5832748e-03
 -7.6264070e-05
  1.7127613e-04
  8.9569122e-04
 -7.7423439e-03
 -9.3129609e-05
 -8.4447405e-05
  2.6770521e-04
  2.0612535e-01
  1.1622570e-01
 -1.0799631e-04
  3.0542666e-04
 -9.3064045e-05
  3.3482902e-02
  2.0952986e-01
  2.6110590e-01
 -1.6984322e-04
  5.8499321e-05
  1.1257275e-04
 -1.3368489e-04
 -2.2857208e-05
 -1.4336604e+00
 -2.4717260e-04
  5.0341809e-05
 -8.3353872e-05
  1.0180570e-02
 -2.7031370e-04
 -3.8238399e-05
 -1.5409893e-05
 -1.1542146e-05
 -2.2196492e-04
 -5.9038204e-05
  1.7386507e-06
  6.3025480e-05
  8.5810301e-05
 -2.0082056e-04
  4.2881402e-05
  5.9898695e-05
 -6.5616892e-05
 -3.5177880e-05
  1.1614623e-04
 -3.5498387e-04
 -2.8509923e-05
 -2.0611005e-05
 -1.3795015e-04
 -1.5058785e-04
  7.3346098e-05
 -5.9494287e-06
  7.6791948e-05
 -1.5099263e-05
  6.0714381e-05
 -9.5809910e-06
  3.5883102e-05
 -4.7122914e-04
  2.2448115e-04
  1.3558479e-04
  1.4892102e-05
  1.7633905e-05
 -2.9819021e-05
  1.2764754e-04
 -6.0455193e-05
  2.7123914e-04
 -5.4258481e-04
  3.2583244e-05
  3.0902524e-05
 -3.2019670e-04
 -6.2517449e-04
  2.9179533e-05
  6.6507986e-05
 -6.4543174e-06
 -4.7642803e-07
  4.7188587e-05
 -9.4527759e-06
  8.1416993e-06
 -7.5131895e-05
  1.0943867e-04
  9.6263590e-05
  4.6902522e-05
 -3.5220676e-06
  6.0579419e-04
 -5.0989511e-05
  2.0051710e-01
 -1.1795716e+00
 -3.4169433e-01
  1.9494500e+00
 -2.3922520e+00
 -1.5661307e-04
  1.2303361e-06
  1.0614395e-04
 -2.3567784e-01
  5.7533497e-01
 -1.2191799e-05
  3.2874861e-05
  4.1631269e-04
 -2.2906181e-04
  4.1929362e-04
 -1.0718129e-04
  1.1022317e-04
  5.1265094e-02
  5.4414377e-02
 -3.8817361e-02
  1.0114947e-05
 -1.0247995e-04
  8.7464549e-02
  1.8858723e-01
  2.9553419e-01
  5.6270710e-06
 -6.8766916e-05
 -9.8681689e-05
 -8.5745758e-04
 -1.2487896e-04
 -2.7077229e+00
 -2.5925308e-01
  1.3120067e+00
  1.3339362e+00
  1.7303063e+00
 -7.0234470e-05
  1.3990894e-04
  1.4298443e-01
  7.9924949e-02
  5.6927747e-01
  1.9839499e-05
  1.0328944e-04
 -1.2744231e-03
 -8.4495863e-05
 -1.1288187e-01
  4.7310095e-05
 -6.7913634e-06
 -1.1978320e-04
 -4.5822994e-04
  1.3344061e-01
  7.1210226e-05
  1.8792006e-04
 -9.9511482e-05
 -3.0458950e-02
 -1.7091274e-02
  1.5851261e-05
 -1.1469663e-04
  3.0523035e-05
 -1.5599189e-05
 -3.4720852e-06
  2.2953445e-06
  1.0344877e-04
 -2.1552136e-04
 -5.0131472e-05
  8.4367966e-05
 -2.4010966e-05
 -8.4718495e-06
  1.2798271e-04
  7.7483326e-04
  1.6169246e-05
 -1.2404464e-05
  2.4471522e-04
 -8.0879945e-05
  5.8509006e-05
 -4.5478406e-05
 -1.5801666e-05
  3.5472331e-05
 -4.6389683e-05
 -3.1983120e-05
  1.7165457e-05
  1.2940976e-04
 -1.5308317e-05
  9.6089731e-05
 -5.7132209e-05
 -1.3805369e-04
  2.4765576e-04
  1.2806533e-05
  8.2553670e-05
  5.3745747e-04
  6.2907937e-05
 -1.0318888e-04
 -4.7494490e-05
  1.2670779e-04
  1.6883062e-04
  2.0749324e-07
 -3.7121710e-05
  1.3378993e-04
 -9.2409580e-05
  5.3264950e-05
 -2.9981738e-05
 -5.0520677e-05
 -5.5693487e-05
  4.5653989e-05
  2.8836748e-04
  1.9864319e-06
 -1.5449326e-05
 -2.5430219e-05
  6.9203481e-05
 -6.3548061e-05
 -1.7415700e-04
 -1.1057436e-04
  6.7873763e-05
 -3.1195410e-05
 -1.4251709e-04
 -2.3152317e-05
  4.0889081e-05
 -1.7869264e-04
  8.3727005e-05
 -8.3189207e-06
  6.0729428e-05
  1.1974453e-04
 -4.5935667e-05
  2.1878701e-05
  1.3476191e-06
 -1.1539969e-04
 -5.2077390e-05
 -5.0447405e-05
  1.7516435e-05
 -1.4717570e-04
 -6.0988899e-05
  1.2417196e-04
  2.3544813e-04
  6.1727216e-05
 -1.6586073e-05
 -3.3053462e-07
 -1.9279314e-05
  4.8046757e-05
  8.1552804e-05
  5.6953841e-06
 -1.8045586e-04
  2.0504031e-04
  1.0722219e-04
 -1.6362814e-04
  6.9422458e-05
 -1.1796065e-04
 -3.6312215e-04
 -1.0879378e-04
 -3.2529171e-04
 -2.9870524e-05
 -1.9278208e-05
 -3.0764870e-05
  1.9279243e-01
  3.8873100e-01
  5.5549657e-01
 -2.1662660e-01
 -6.8529363e-05
  3.2214411e-05
 -1.8570219e-01
  3.2517139e-02
 -1.6290644e-02
 -3.5209589e-05
 -1.0674242e-04
 -2.7267952e-04
  1.0809604e-02
  2.7500819e-02
  7.5791169e-05
 -5.4754008e-05
 -4.2165616e-01
 -3.3746073e-01
  3.0260184e-04
  6.2186744e-05
  1.9058710e-04
 -7.7338191e-05
 -1.0913186e-01
 -1.2702845e-01
 -3.6019852e-04
  7.1544193e-05
 -6.7475826e-06
 -1.3743451e-07
  3.6954883e-04
  1.2919382e-04
  1.9838832e-05
 -4.2049569e-06
  3.3538305e-05
 -6.2142244e-05
 -3.0925290e-05
  9.2725340e-06
  9.1167007e-05
  1.4114931e-04
  2.8983279e-05
  2.1036820e-05
 -5.1306590e-04
  4.5725687e-05
  2.5992445e-05
  1.0448717e-04
 -2.2645858e-04
 -3.7607973e-04
 -1.1408434e-04
 -2.6568014e-04
 -3.7748503e-04
 -7.2057854e-05
  4.4707507e-05
 -8.8308261e-05
 -5.6901430e-05
 -1.0964523e-04
 -6.9189206e-05
 -1.2747251e-04
  2.1542344e-06
  5.9911381e-05
 -9.2355047e-05
 -5.2823270e-05
 -3.6425878e-05
  1.9310244e-05
 -1.8072527e-05
  1.7307574e-04
 -2.6001738e-04
 -8.4801948e-05
 -1.4722848e-04
 -9.3988259e-05
 -1.6665668e-05
 -1.3062257e-06
  4.1163108e-05
  1.5345146e-05
  1.0198059e-04
 -2.9508886e-01
 -1.1204629e-04
  4.7538913e-05
  2.7362354e-05
  2.3619317e-05
  1.4332670e-04
 -7.1214447e-05
  2.0352044e-04
  8.9327681e-05
 -1.4202352e-04
  7.0994189e-05
 -8.0571017e-06
 -7.1195172e-05
 -7.7416167e-05
 -3.1094562e-06
 -5.0090799e-05
  2.2718363e-05
  9.8621684e-05
 -2.0127631e-04
 -1.0566494e-02
 -1.7812185e-04
  2.6600970e-05
 -3.5221328e-05
 -1.0437013e-04
 -7.6742450e-05
  3.4353365e-03
  4.3347340e-05
  3.0018402e-05
  1.1121685e-04
 -3.1964813e-05
 -6.7976827e-05
 -3.0853214e-05
 -8.4235857e-05
  5.1944162e-04
  2.2099399e-05
 -3.2307688e-04
  2.3407405e-05
  8.1048573e-05
  2.5498247e-04
 -3.6958150e-05
 -9.5173156e-05
  3.4309367e-05
  1.3823312e-05
  6.1310981e-05
  2.2450392e-04
  2.0463158e-05
 -1.1132123e-04
  1.2809127e-04
 -2.0500391e-05
  2.5056896e-04
 -3.4608565e-05
  3.9004441e-04
 -1.1420130e-04
  1.1055795e-04
  8.9296816e-05
  1.1806710e-04
 -3.7068344e-04
  3.7335321e-05
 -2.7092301e-05
  4.6276695e-05
 -1.3597829e-04
 -5.3732387e-05
  5.0311926e-05
  7.9390971e-05
 -4.3529573e-05
 -7.0905793e-05
 -4.1871564e-05
 -7.4070020e-05
  6.1818937e-05
 -5.4224969e-05
 -7.5535041e-05
  1.2527898e-05
  6.1454237e-05
 -2.2831015e-05
 -1.2678646e-04
  3.0412149e-05
  1.7886796e-05
  3.8282204e-05
 -1.1505587e-04
 -5.5212073e-05
 -4.7590871e-05
  7.8328103e-06
  8.0262063e-05
  1.4022165e-05
 -1.8688673e-04
 -6.5121363e-05
  6.5660948e-05
  3.0705680e-05
 -4.2587322e-05
  4.1509618e-05
 -1.6750120e-04
 -1.9306090e-01
 -2.3931083e-03
  1.1926506e-06
 -2.4731748e-04
  2.3825896e-04
 -3.1320716e-04
  8.2243023e-06
  2.8847755e-04
  3.8190337e-05
  1.6466049e-05
  8.4676314e-05
 -1.7422113e-05
  1.8400815e-04
  8.2465122e-05
  1.2496761e-04
  2.3087903e-04
  8.6721120e-05
 -1.2434731e-04
 -9.7879718e-05
  4.6706431e-05
  6.4123960e-05
 -1.1097529e-05
 -1.7643272e-04
 -2.1290267e-05
 -1.9997469e-05
  4.2500786e-05
 -5.2816496e-05
 -1.7077903e-07
  1.0734078e-04
  6.9096699e-05
  7.8006728e-05
  5.6272722e-05
 -5.0560007e-05
 -2.2728869e-05
  1.0707357e-05
  6.5658118e-05
 -6.3028390e-05
 -4.3817952e-05
 -3.6816171e-04
 -2.3803765e-04
 -8.8366633e-06
 -1.0175279e-04
  3.4727782e-02
  3.7706784e-06
 -5.4869830e-05
  6.0851514e-01
  6.9368005e-05
 -1.1868097e-04
 -1.5682893e-01
 -2.1017782e-01
  2.3618434e-01
 -6.2144592e-02
 -5.4676002e-01
 -8.6990106e-01
  1.2153075e+00
  1.2950778e-04
  5.6830249e-05
 -1.7623250e-01
 -1.0071970e-04
 -2.2390489e-01
  3.9246091e-01
 -1.0177669e-01
  2.6745457e-04
  1.3496754e+00
  1.1880979e-01
 -2.4372971e-04
  7.1189934e-05
 -4.7316638e-01
 -5.5327511e-01
 -1.1231120e-04
  7.0808464e-06
  4.7996929e-01
  1.4782725e-04
 -1.0208822e-04
 -9.8104189e-05
 -9.1828877e-01
 -2.8225197e-04
 -2.9505574e-05
  1.5268185e+00
 -2.5867438e-01
 -2.7358454e-01
 -1.1663803e+00
 -1.7203425e+00
  1.8956923e+00
  2.4812005e+00
 -1.4969268e-01
 -4.5293149e-05
 -9.1386789e-01
 -1.4234299e-04
  2.4459596e+00
  1.6425617e+00
 -7.2144353e-01
  7.8222663e-05
  2.2548788e+00
 -2.2737482e+00
 -2.4328581e-05
 -5.5252567e-05
  2.9616296e-01
 -1.3038520e+00
 -4.4693455e-02
  1.7321738e-04
  7.4298710e-01
 -4.8884078e-05
  3.4836819e-05
 -3.0451982e-05
 -5.9501253e-05
  1.0923899e-01
  1.8402347e-05
  2.7726792e-05
 -5.9775044e-05
 -1.3480023e-07
  1.6424534e-04
  1.2312616e-04
 -2.4588571e-06
 -2.2458608e-04
  5.1702766e-05
  4.2973312e-05
 -7.5316224e-05
  1.7184996e-04
  7.9967707e-05
 -1.7599143e-05
 -1.8166194e-06
 -7.6141172e-05
  7.9607780e-06
  1.5367690e-05
 -3.1040469e-04
 -7.2195089e-06
  5.4138152e-05
  2.5772990e-04
  1.1468962e-04
 -2.5936946e-05
  1.1945403e-04
 -9.8266406e-05
  4.9075101e-05
 -3.7539201e-05
  5.8257374e-05
  1.1796130e+00
  2.7814047e+00
 -4.3182073e+00
  1.4734139e+00
  2.3061219e-01
 -1.4590795e-01
  3.1983387e-01
 -3.6765799e-02
 -2.1933201e-03
 -8.5980773e-02
  3.1856459e-01
  6.2678128e-01
  6.9886483e-02
 -1.3342673e-01
 -2.4626420e-01
  1.0368822e-03
 -6.4868248e-01
  1.0381531e-01
 -1.8960609e-01
 -1.7741877e-04
 -6.6943429e-02
 -1.6079608e-03
 -2.4810788e-05
  1.3413679e-04
  2.4047149e-04
 -1.1191011e-03
  6.3102110e-05
 -2.2651961e-04
  9.2698938e-05
  1.6502128e+00
 -4.1461182e-03
  5.6974702e-02
 -1.5904592e+00
  4.0427271e-01
 -6.7433429e-01
 -1.1770099e-05
  2.5106767e-01
 -1.6377984e-04
 -1.7921346e-04
 -4.2860108e-04
 -7.6080047e-05
 -1.9245048e-05
  2.8557589e-04
 -5.1005855e-03
  8.8591718e-05
  6.7222386e-04
 -2.4503523e-03
  8.7879263e-05
 -8.1695599e-04
  2.1867354e-04
 -2.3262181e-05
 -1.1260679e-04
  8.4058011e-05
 -4.1300403e-03
 -6.8630434e-05
  6.4178566e-06
  1.2555314e-04
  1.3411680e-04
  5.4833305e-04
 -2.4728876e-02
  3.0300951e-01
 -1.9372031e-02
  9.1842450e-03
  3.1979572e-02
  1.2496443e-02
 -2.7348363e-04
  5.5324417e-05
 -3.2011161e-04
  1.4027276e-02
  5.2617803e-02
 -4.8876234e-05
  2.1636803e-05
  8.4201031e-04
  2.8175936e-04
 -1.0005476e-04
  2.6684708e-04
  1.0256808e-04
  5.1499861e-05
  3.8411844e-04
  1.3730270e-04
 -1.1497809e-04
 -1.6125832e-05
 -3.2522276e-04
  2.2579728e-02
  2.4361396e-05
  2.0957609e-04
 -8.1954779e-05
 -8.8810171e-05
  7.3965617e-05
 -1.6498805e+00
 -1.3931494e+00
  2.5878060e+00
 -4.7531995e-01
  5.8844671e-02
 -5.7992893e-01
 -2.1330452e-01
 -5.0668401e-01
 -8.0200925e-02
 -3.5500047e-01
 -4.5822567e-01
 -8.8436384e-05
 -2.1878579e-01
 -6.8582071e-05
 -1.7604065e-01
 -1.2445885e-02
 -3.8149118e-01
 -4.5427731e-01
  2.7854535e-01
 -2.1400383e-01
  7.4061200e-02
 -2.2245049e-01
 -7.7099669e-01
 -4.2264798e-01
 -3.4468088e-01
  9.2560058e-06
 -8.6153384e-05
 -2.2058714e-05
  1.1546957e-04
  1.7462232e-03
 -6.9835180e-01
  2.1641281e+00
  3.7515563e-01
 -6.0727733e-01
  8.8581014e-03
 -3.6380103e-01
  1.2603913e-02
 -5.3546755e-05
  3.5773910e-06
  3.6886013e-01
  3.3888906e-01
  5.8906985e-04
  2.4071586e-01
 -2.8713060e-07
  7.7520990e-01
  2.4355482e-01
 -4.6578888e-04
 -1.6200799e-01
  2.1557290e-04
  1.1433169e-01
 -1.3940343e-04
  2.6673648e-01
  3.6978447e-01
  7.1182498e-03
  5.9117669e-01
 -4.0749266e-05
  5.6937239e-05
  1.2442909e-04
 -3.5884310e-04
 -4.6747550e-04
  8.1120507e-04
 -3.8118560e-05
  9.1911737e-05
  7.0417242e-05
 -1.6677543e-03
  9.6023337e-05
  1.0947515e-04
 -4.5185530e-05
 -2.2703208e-04
 -1.4829115e-04
 -3.3859437e-04
 -1.9141755e-04
 -6.1126984e-06
 -1.2517092e-04
 -8.9816458e-05
 -2.0355707e-04
 -1.1421179e-05
  2.9401663e-05
  3.3399665e-05
 -1.1800572e-04
  1.2525960e-04
  8.4432519e-05
 -2.6408050e-05
 -5.3107244e-05
  3.0079991e-05
  1.5573358e-04
 -6.9714362e-05
  1.2702649e-04
  5.0509760e-05
 -1.7097804e-05
  1.6996285e+00
 -1.0070506e+00
  3.5730104e-03
 -3.6521000e-01
  9.1026342e-01
  3.4449726e-01
 -6.2475622e-02
 -2.7587736e-04
 -3.0235742e-04
 -2.0816186e-01
 -3.7705910e-01
 -7.8571611e-05
  6.3014646e-05
 -1.1449467e-03
 -1.5550517e-03
 -1.3490121e-01
  1.5416995e-03
 -2.4222636e-05
  4.6500089e-05
 -1.4564507e-01
  1.1265560e-02
 -2.5168520e-01
 -5.9468603e-05
  1.4432344e-04
 -9.3943179e-02
  7.9339562e-04
 -3.5295401e-05
 -7.0673937e-05
  5.7798348e-05
  2.9793932e-04
  4.1118721e-05
 -9.6743144e-02
  2.9806528e-04
 -2.0313438e-04
 -3.6429014e-02
  5.4298609e-05
  1.4537231e-04
  3.1014931e-04
 -6.3162265e-06
 -5.4937520e-04
 -6.3437226e-05
 -4.9790131e-05
 -7.9394324e-04
  1.7898921e-04
 -1.0466588e-03
 -1.2763616e-04
  3.5300494e-05
 -1.6287217e-04
  7.1286486e-05
  1.6054426e-05
 -1.8592259e-04
 -3.2697269e-04
  1.0953088e-04
  1.8150770e-04
 -2.8388324e-04
 -4.3022410e-05
 -5.7725178e-04
  2.6044165e-05
  1.2177600e-04
  6.6727320e-05
  3.7942242e-02
 -2.2085227e-02
 -4.6351670e-05
 -1.3010661e-04
 -1.3609450e-05
 -9.0851854e-06
 -6.4027561e-05
 -1.3781431e-04
 -1.4069091e-04
 -6.1539773e-05
 -2.9269280e-04
 -8.1441467e-05
 -1.2354297e-04
 -1.3599136e-04
 -4.5818582e-05
  1.8472047e-04
 -6.5427084e-05
 -7.7493623e-04
  2.7368047e-05
 -9.4155352e-05
 -3.6822251e-04
  3.8022063e-05
 -7.7104523e-05
  9.9003148e-05
  6.1694096e-05
  1.6223323e-05
 -3.0557178e-05
 -1.4107407e-04
 -4.0341623e-05
 -6.2704967e-05
 -6.1521870e-01
  3.7076278e+00
  4.5386747e-02
 -1.3018312e-01
 -1.6210490e-01
  2.6303542e-01
 -1.1285037e-02
 -3.0105801e-02
 -1.0170485e-01
  1.0674664e-01
  2.2664998e-01
  3.5726614e-05
  2.8703669e-01
  6.5409389e-05
  5.9976369e-01
  1.1203796e-01
  2.3858220e-05
  1.0004587e+00
  1.4488674e-02
  1.8477802e-01
 -1.4593294e-01
  7.6799101e-01
  9.3006605e-01
 -1.3539323e+00
  7.5074196e-01
  6.1019684e-05
  6.0862061e-05
 -2.0183482e-04
  2.7207348e-05
 -1.6745038e-03
  2.2901604e-06
  2.9033927e-05
 -3.1163694e-05
  1.0722604e-05
  4.6006655e-05
 -9.1100606e-05
  2.4283429e-05
 -4.4013723e-05
  4.0733754e-05
  6.8652545e-05
 -2.4778556e-04
  6.9043825e-05
 -1.9635672e-06
 -1.4757802e-03
  8.4672574e-05
 -8.9039429e-05
  4.5472720e-05
  1.4228563e-04
  7.6041797e-05
 -4.1082178e-05
 -2.3396492e-04
 -2.4990100e-05
  1.0089049e-05
 -3.0956883e-04
 -6.6589433e-05
 -6.9137591e-06
 -6.4631508e-06
  2.1849196e-04
 -1.9376545e-05
  1.2509449e-04
  6.8963971e-05
 -5.6083507e-05
 -1.6237565e-04
  7.9970306e-04
 -1.5857907e-04
  5.1698797e-05
  6.6147972e-05
 -5.2271345e-05
  9.7467453e-04
 -3.4994129e-05
 -5.7198426e-06
  2.3954515e-05
 -1.4450583e-04
 -1.3638445e-04
  6.9868729e-05
  1.3151430e-04
  1.3229728e-04
  3.5199645e-04
 -2.7022938e-05
  5.0524068e-01
  1.3507110e-04
  1.6325194e-04
 -1.9887187e-04
  4.7689911e-05
  2.5883934e-04
 -3.7183581e-05
 -2.4030865e-05
  1.9806557e-04
 -7.8788013e-05
 -1.0873000e-04
 -4.4651944e-05
  5.4473006e-05
 -1.0730862e-04
 -1.6099327e-04
 -2.8965931e-05
 -6.5247776e-05
  1.6240467e-04
 -7.5000695e-05
 -1.8841747e-04
 -5.6184208e-06
 -3.1523959e-05
  1.0210859e-04
  6.5885208e-05
 -1.4041169e-04
 -3.1420965e-05
  2.6172655e-05
 -6.3461061e-06
 -8.1929493e-06
 -5.3778040e-05
  1.0547512e-04
  4.5594017e-04
 -1.5930967e-05
  1.0097873e-04
 -4.7139503e-05
  1.2875182e-05
 -4.7080499e-05
 -8.1573316e-06
 -4.2081236e-05
  6.5997621e-05
  6.5083979e-05
  2.7727088e-04
 -2.8253180e-05
 -1.2389618e-04
  1.7521177e-05
 -1.3813370e-05
 -1.7974644e-04
  6.5738670e-05
 -1.2847423e-04
  2.2387707e-04
 -7.9346712e-05
 -6.8910667e-05
 -8.5703665e-05
 -3.2024636e-06
 -2.4058843e-04
 -2.0992562e-04
  6.7337547e-05
 -1.2294434e-04
 -1.3324470e-04
 -1.8847200e-04
  4.3980904e-06
 -1.2067026e-04
  4.5608518e-05
  4.1256801e-05
  2.9673631e-04
 -9.7649252e-05
  9.5864692e-05
 -6.5632339e-05
 -1.0994276e-04
 -1.4516790e-04
 -5.4558336e-06
 -5.8514084e-05
 -6.0897250e-06
  2.1390096e-04
  1.1625125e-04
 -2.5351398e-04
  1.1335654e-05
  1.0276957e-04
 -1.2604222e-05
  4.4499804e-05
  9.5029347e-05
 -5.5201690e-05
  2.7329428e-05
 -4.3495736e-05
 -9.8897952e-05
  2.3820273e-04
  1.7175646e-04
  6.6112043e-05
 -9.4900533e-05
 -1.1124973e-04
 -2.9139963e-04
 -2.2736879e-04
  1.1884219e-04
 -1.0422250e-04
  1.3173184e-04
 -2.1211421e-05
 -8.0493242e-05
  1.1064330e-05
  3.0311654e-04
 -1.0768182e-05
  8.7979708e-05
  8.4466374e-01
 -1.2850260e+00
  4.1355202e-01
  1.4429623e+00
 -1.4043081e+00
  2.2301964e-01
 -7.9196163e-02
  5.2591261e-02
 -1.1189211e-03
 -2.3755290e-01
 -4.8919672e-01
 -5.8980596e-01
 -1.7613411e-01
 -3.3580789e-01
 -7.5583736e-04
  1.2449277e-04
  1.5490171e-01
  4.1928127e-01
  1.3334193e+00
 -4.4101119e-04
  5.8042413e-01
  7.4978954e-05
 -1.7135369e-02
  1.4669519e-06
 -3.6606358e-05
  1.7482386e-04
 -6.7554880e-04
  1.3390683e-04
  6.6505272e-05
  6.2180657e-06
  5.2061700e-04
  3.4761280e-05
 -1.6057742e-04
 -1.2454723e-05
  1.6487236e-04
 -2.8779591e-04
 -2.7493626e-04
  5.5202563e-06
  2.2368573e-04
  5.8249921e-06
  1.7375367e-05
  7.2136369e-05
  1.4709248e-04
  5.8642072e-05
  2.1571413e-04
  1.2178846e-04
  4.0216753e-03
 -8.0996506e-06
 -1.9519255e-04
  3.0434073e-06
 -2.0322118e-06
 -9.4665826e-05
  8.0015176e-05
 -9.3222305e-05
  1.3722687e-05
 -3.2663365e-06
 -1.0729035e-04
  4.7382118e-06
 -2.1105339e-05
  1.2874707e-06
  2.8296608e-05
 -5.3523754e-04
 -1.0937303e-04
 -9.1523543e-05
  3.1144740e-05
  3.2496423e-06
  1.5391495e-04
  6.1130908e-05
  2.8072789e-05
  2.7664251e-05
 -3.3990334e-05
 -5.7000839e-06
  3.4990362e-06
  9.3734661e-06
  5.7981746e-05
  2.3520696e-04
 -5.5458630e-04
  4.6793884e-05
  1.5887190e-04
  1.6919174e-04
  5.9538786e-05
 -2.9315407e-04
  1.7633116e-05
  1.6352643e-04
  6.5255605e-05
 -2.4799412e-04
 -2.6403072e-06
  1.3706936e-05
 -6.8090150e-05
 -9.1071043e-04
 -5.3921434e-05
  5.3942716e-04
 -6.6037930e-05
 -1.1820492e-04
 -2.0870193e-05
  2.1435667e-04
  3.7160964e-05
 -1.4543609e-04
  1.7295009e-04
  5.6139939e-05
  1.1897315e-04
 -1.3684522e-05
 -9.4814612e-05
 -2.0872810e-04
  4.5709268e-05
 -5.9681523e-05
 -2.8091980e-04
 -6.6393564e-05
  7.5583608e-05
 -5.4312048e-05
  5.9462542e-05
 -1.4159518e-04
  1.3113947e-04
 -4.1433417e-05
  9.6249330e-04
  2.5936668e-05
  2.1170265e-05
  1.2068191e-04
  1.5369811e-04
  3.3204251e-05
 -8.8008237e-05
 -1.0595532e-05
 -1.5521172e-04
 -2.9356173e-05
  5.1273146e-05
  1.7899349e-04
  7.0960072e-05
  2.3672574e-06
 -2.2572798e-04
 -1.6363600e-03
 -1.1181538e-04
  4.8916432e-04
  4.1144067e-05
  9.0310416e-05
 -1.8532571e-04
 -2.7000706e-06
 -4.4489405e-04
  8.1123479e-05
 -4.9056107e-05
  1.7953098e-04
 -3.1297459e-05
  3.4773078e-05
 -9.1525224e-05
 -2.1549790e-04
  6.3430802e-05
 -9.9867037e-05
 -3.8210368e-05
  1.6465492e-04
  1.4556682e-04
 -2.3819052e-04
  1.3791045e-04
  2.0847113e-01
 -3.6752786e-05
  1.6876705e-03
 -3.6457088e-05
  1.1184366e+00
  1.0916207e-05
  1.6440034e-04
  1.2235649e-04
  2.3070618e-04
 -5.3104297e-05
  9.1056310e-05
  2.6087748e-04
 -6.5376691e-05
  4.0694977e-07
 -4.4840638e-04
  1.5125365e-04
 -1.5729142e-05
 -5.4710654e-05
  7.5413016e-05
 -1.0421806e-05
 -4.4506195e-04
  1.2277992e-05
  1.0963168e-04
 -1.1856565e-06
 -8.0307640e-05
  1.9870202e-04
 -6.0151862e-05
  2.9304446e-04
  2.3620503e-04
  9.2331247e-05
  9.7390008e-01
 -3.2835340e-04
 -4.6976478e-05
  4.0988052e-01
  1.3093948e-01
 -1.7709952e-05
 -4.7938970e-01
  3.4033197e-05
  1.0321260e-03
  3.4385726e-03
  6.4081883e-05
  5.8236115e-02
  9.8596436e-05
  4.9557164e-04
  8.3135354e-05
  8.1066850e-05
  2.0653270e-04
 -5.1089836e-04
  1.9753941e-03
 -3.2588937e-06
  1.7220488e-02
  3.2752956e-04
 -1.1183564e-04
  4.9546068e-03
  6.8057787e-05
 -6.5512417e-05
 -4.6607489e-05
 -3.4456567e-05
 -3.5900364e-04
  1.1445377e-04
  8.9660925e-06
  3.9996983e-05
 -2.8508544e-05
  2.2842899e-04
  6.4608997e-05
  1.6527660e-05
  1.5980013e-04
  2.5279168e-04
  9.5394489e-06
  8.3284074e-05
 -5.9427771e-06
  8.9424218e-05
 -2.1164956e-04
  2.2415302e-04
 -3.7127371e-05
 -4.3185952e-05
  1.4916022e-04
 -8.0285994e-05
 -1.0907531e-04
  1.9115070e-05
  4.0114384e-05
 -2.0647367e-05
 -9.7263592e-06
 -1.5583473e-04
 -2.5501553e-05
 -4.4105112e-05
 -9.9325451e-05
  9.6466843e-05
 -8.3369443e-05
 -2.5020557e-02
 -1.2348713e+00
 -8.1301194e-01
 -4.5700373e-05
 -1.2932849e+00
  1.1490997e+00
 -1.7001983e-02
  3.5350624e-01
 -6.6571396e-05
 -1.4127943e-01
 -1.0490531e-01
 -3.6781912e-05
  4.5398676e-05
  1.2265589e-05
 -1.0049217e-04
 -2.2857942e-01
  9.4116869e-05
 -5.0596081e-02
 -8.0485904e-01
 -5.0635420e-02
 -5.9575846e-06
 -1.3073884e-01
 -2.2017255e-02
 -6.1050079e-05
 -1.8397447e-01
  4.3200122e-05
 -4.8372469e-05
 -1.6449396e-04
  1.4349754e-04
  3.0675699e-04
 -1.0623456e-04
 -1.7892488e-04
 -7.5378688e-05
 -5.2740311e-06
 -7.7302611e-06
 -6.6207147e-05
 -2.0289583e-04
 -1.1258126e-04
  8.5096493e-05
  5.3203134e-06
  3.4519392e-06
 -9.1421971e-05
 -1.9080464e-05
 -1.1953687e-04
 -2.3678027e-05
 -3.1541709e-05
  1.1202863e-04
 -5.0109771e-05
  9.1103597e-05
  1.2864781e-04
  1.2315340e-05
  9.7774275e-05
 -8.2768827e-05
 -1.5575164e-04
 -9.2683884e-05
  5.1411193e-05
  2.0279632e-04
 -9.4222298e-05
 -1.1272121e-05
  3.5818393e-05
  1.1815851e-04
  6.1110703e-05
  5.8356003e-04
  3.1001380e-04
  2.9260913e-04
  1.5916961e-04
  1.8306082e-05
 -8.2150334e-05
  8.6258529e-05
  3.8284299e-05
  7.5000564e-05
 -3.2100121e-05
  2.3162223e-05
  1.4271510e-02
 -2.2242832e-05
 -5.1171755e-05
 -1.9645150e-04
  2.5619016e-04
  3.8418200e-04
  2.6377242e-05
 -3.5983649e-05
  8.0055061e-06
 -2.6327599e-04
 -1.0337323e-04
  7.0278780e-05
 -4.4273729e-05
  4.4907149e-05
  4.6362795e-05
 -8.9039939e-05
  4.6601522e-06
  1.0731080e+00
 -1.4156716e-01
  5.9051847e-01
  3.5029349e-01
 -4.6002343e-01
  2.8488662e-03
 -1.3009805e-04
  4.4411466e-01
 -2.0660812e-06
 -1.1726965e-03
 -2.7467397e-01
 -3.3394679e-01
 -2.0125706e-04
 -4.2443410e-02
 -6.5432128e-04
  4.6623412e-05
  6.9499910e-01
 -2.0601547e-04
  8.3061062e-02
 -2.8179548e-04
  2.0040767e-01
  3.7619357e-05
  1.8275675e-06
  5.5362337e-04
 -1.3898222e-03
 -4.7978079e-05
  3.4437322e-05
  6.9443806e-05
  4.9004415e-05
  2.1210418e-04
  1.3659884e+00
  3.6210413e+00
  8.4431702e-01
 -3.1532559e+00
  3.6749842e+00
 -2.3893465e-01
 -3.5821924e-01
  1.1300536e+00
 -5.5234130e-02
 -1.3531318e-01
 -7.6999056e-01
  1.9408339e-01
  6.1768287e-01
  2.4206713e-01
 -8.3198631e-01
 -6.0630220e-01
  6.1091393e-01
  8.9021516e-01
  2.0039283e-01
 -3.2226652e-01
 -4.2185351e-01
 -1.5929069e-01
 -2.2330713e-01
  2.5977802e+00
 -1.0078244e+00
  3.7738669e-04
 -2.6102123e-01
  5.2132473e-05
  2.6463583e-01
  1.1495866e-02
  5.6682955e-05
 -8.9486282e-05
 -6.7902627e-05
  2.2212183e-05
 -3.1208881e-05
  3.8209346e-05
  1.1026545e-04
 -2.9627356e-04
  3.7007325e-05
  3.5672510e-05
  8.4094871e-05
 -3.0313426e-04
  2.3639004e-04
 -9.4386005e-06
 -3.9763607e-05
  1.3272231e-04
 -1.7695088e-04
  3.0920353e-05
  1.9169701e-04
  5.6241861e-05
  3.6087105e-05
  2.2401128e-04
 -5.8945589e-05
 -1.6474909e-05
 -7.8642821e-05
 -5.3782656e-05
 -5.3874533e-05
 -6.2014653e-05
  4.4101107e-05
 -2.6246840e-05
  2.3468327e-05
  1.1702207e-01
  8.1559777e-02
 -8.7658805e-01
  2.0480898e-01
  6.2233686e-01
  2.4633207e-05
  3.2275265e-01
 -3.2411769e-01
  1.1386833e-01
  6.4393467e-01
  2.6740693e-04
 -3.6693036e-05
 -4.4373353e-04
 -3.3920846e-06
  7.5421522e-05
  1.0766596e-01
  5.2328127e-05
  3.8452770e-05
 -4.4573334e-01
  1.0608781e-04
  7.5470664e-02
  2.0734808e-01
  2.4379357e-05
 -1.6825499e-01
 -5.7365258e-05
  2.5880510e-01
 -2.8792214e-01
 -5.6680596e-01
  2.2331216e-04
  3.0503797e-05
 -2.7664671e+00
 -1.7384107e+00
  1.3064750e+00
 -1.8872436e+00
  2.1809256e+00
 -1.5338699e-04
 -1.6945932e+00
 -6.4445782e-01
 -5.8348161e-01
  2.0042584e+00
  1.1509112e-05
  9.0950954e-05
  1.7499906e-05
  6.6051260e-05
 -5.5700370e-05
 -2.1809981e+00
 -1.0390669e-05
  3.9279065e-04
  4.5835266e-01
  7.9964957e-05
  6.4375466e-01
  1.0538185e+00
 -3.3756816e-05
 -1.3392619e+00
 -4.7412312e-05
  3.3799174e-01
 -3.2099044e+00
 -3.8230813e+00
  8.9645191e-06
  3.6892181e-04
  5.6514753e-05
 -1.0885379e-04
 -7.3050418e-05
  1.0328448e-05
 -5.9199068e-05
 -2.1079586e-05
 -2.6332722e-05
 -8.8391418e-05
  1.6990276e-05
  1.9169059e-04
  8.3157465e-05
 -3.5831265e-05
 -1.8099073e-01
 -8.6664759e-06
  8.2956409e-05
  9.2487226e-06
  1.2868422e-04
  4.1728206e-05
  2.6584943e-05
 -2.9826313e-05
  6.0841387e-05
  2.4616171e-04
 -1.2711257e-04
  7.4951662e-05
 -5.2598403e-05
  4.4306196e-04
 -6.2040017e-05
 -6.9679489e-05
 -1.2396331e-04
 -3.4295958e-01
 -7.0546889e-03
  2.4257861e-06
  1.7022749e-02
 -1.4354860e-05
  2.2900379e-06
  9.0048939e-05
 -9.7558133e-02
  9.1551314e-04
 -7.5675219e-02
 -1.0692072e-04
  9.5631622e-02
  1.2646834e-03
  7.2223460e-04
  1.6287668e-04
  1.6414193e-05
  1.4339728e-05
 -6.7920261e-04
 -2.6354104e-01
 -1.1946039e-01
 -7.6947836e-05
 -2.6586256e-04
 -7.3240690e-02
 -6.8813744e-05
 -8.8268131e-02
 -3.6887599e-05
 -4.7004761e-04
  1.3537086e-05
  6.3691765e-02
 -1.2156690e-04
 -1.4995302e-05
  5.2260424e-05
 -1.2372204e-04
  4.7064012e-05
 -1.4023862e-05
 -1.4949110e-04
  1.3228542e-04
 -1.0011882e-04
  7.5648830e-05
 -6.5137065e-05
  5.8222497e-03
 -5.4457683e-05
 -5.2544659e-05
 -5.6110985e-05
  1.4146302e-03
 -9.2089664e-05
 -1.3228627e-04
 -9.6013107e-05
 -3.3673314e-05
 -4.2351371e-06
  2.2797793e-05
  3.4991122e-06
  5.6651603e-05
  1.9314057e-04
 -6.4565284e-05
 -2.0840620e-04
 -7.3147887e-05
  1.5697142e-05
  1.0114005e-04
  2.0159601e-04
  2.5328643e-05
  8.5251195e-06
  7.4548529e-06
  6.4038950e-06
 -4.2522416e-04
  2.4819718e-05
  3.8297736e-04
 -8.4651165e-06
 -2.3725988e-05
  4.8810649e-05
 -3.8707867e-04
  3.4813918e-05
 -1.0977976e-04
 -1.8194700e-05
 -5.0787577e-05
  1.6640345e-04
 -2.5739406e-05
 -2.2459276e-04
  1.1426191e-05
  1.3621476e-04
  4.6800840e-05
 -4.8329952e-05
  3.2948636e-05
 -7.2594863e-05
  1.4964846e-04
  5.5976945e-04
 -2.4626926e-05
 -1.2622697e-04
  2.2990987e-04
 -1.4078627e-04
 -5.6910640e-01
  6.6052633e-03
  6.2769610e-01
  4.1885683e-01
 -8.3408151e-05
 -8.1160516e-01
  2.1003571e-01
 -6.4027466e-02
  1.2015943e-01
 -3.9413065e-01
 -3.2189691e-01
  9.6286726e-01
  1.9052471e-01
 -5.9490293e-01
  2.5140420e-03
 -8.9063868e-02
  1.9959468e-01
 -6.8606561e-01
 -8.5744441e-01
  9.8721758e-02
 -1.1414275e-04
 -2.3004298e-04
 -1.7826755e-01
  5.5773938e-01
 -2.0826923e-02
 -1.8291876e-05
  1.4772147e-04
  2.2969577e-04
  1.3896590e+00
 -7.0918007e-03
 -3.6067417e-04
 -1.0098927e-03
 -2.0541798e-05
 -4.0894431e-01
  2.5532578e-05
  5.5871507e-05
  1.6096726e-03
 -3.8804614e-03
 -5.7875011e-05
 -3.3943509e-03
 -1.1143195e-05
 -2.8813977e-06
  7.1546563e-04
  5.9549784e-05
 -4.1920532e-04
  2.1458363e-06
 -3.3351840e-04
  1.1199452e-04
 -3.8788801e-03
 -1.1392128e-04
 -1.1700368e-03
  1.5515836e-05
 -9.2422805e-04
 -2.5991478e-05
 -1.0182486e-03
 -2.9062974e-04
 -2.0589231e-02
  3.8743307e-04
  1.8383369e-02
  1.9205600e-06
  1.4454149e-01
 -2.4906929e-01
 -1.0702534e-04
  1.1879967e+00
 -1.4580791e-01
  7.6343596e-01
  1.9429632e-01
 -5.3133088e-01
  6.2427586e-01
  2.3942992e-01
 -3.8436527e-05
 -8.2758879e-03
  1.8525636e-03
 -6.9017249e-01
  3.5579556e-01
  4.3237102e-05
  3.9248571e-01
 -4.5762156e-04
  3.9405553e-03
 -1.1846994e-04
 -9.1162641e-05
  8.3710969e-05
 -1.2477535e-04
 -9.0711762e-04
  3.6861100e-05
  1.7857099e-05
 -5.5927498e-04
  1.4153564e-04
  7.1387756e-01
  2.9996530e-05
  2.4337423e+00
  8.4157336e-01
 -2.6145405e-01
 -1.6457164e+00
  2.9692082e+00
 -2.6525789e-01
  3.5517100e-02
 -4.6035811e-01
  3.0533567e-01
 -3.4413964e-01
  5.3849334e-01
  1.0458161e-01
 -2.2448282e-01
  9.8064739e-01
  4.7155893e-01
  1.3971643e-05
 -2.3231530e+00
 -2.5946614e-01
  8.6358082e-01
  5.1365000e-01
  1.3840946e-02
 -1.4435935e-04
  2.2734670e-01
  8.3357006e-01
  3.8704986e-04
 -2.3790427e-04
 -2.6487777e-01
 -4.4869993e-02
 -6.0375047e-01
 -1.2682752e-02
 -8.8026458e-01
 -1.5706210e+00
 -3.4722900e-01
  1.1292802e+00
 -1.1459485e+00
 -2.3381653e-01
 -1.0821446e-02
 -3.1069934e-01
  1.3498412e+00
 -3.2063204e-01
 -3.9644787e-01
  1.8265524e+00
 -3.4978356e-02
  3.8617706e-01
 -3.9548194e-01
 -4.7298690e-04
 -1.2932400e-01
  5.1109743e-01
 -6.3057333e-02
 -1.5692109e-01
 -1.2070733e+00
  2.9735905e-01
 -1.7785382e+00
 -1.2752622e+00
 -7.6145220e-01
  7.4010299e-05
 -3.0682504e-01
  3.5548559e-01
 -7.2478169e-01
  1.7308883e-01
  1.4674044e+00
 -5.6508809e-02
  1.2344601e-04
  7.2928506e-01
  5.7672882e-01
 -1.5141957e-01
  1.4673306e-03
 -3.4688887e-01
 -7.0911688e-01
 -2.8753860e-02
 -3.3119386e-01
  1.4391878e+00
  7.3986715e-01
 -4.1646683e-01
  2.3548394e-04
 -6.5152365e-01
  2.2640856e-02
  6.1543696e-02
 -8.0530530e-01
  1.4201349e+00
  4.2709518e-02
 -3.3089390e-01
  8.9850172e-02
  5.4824919e-01
  1.0928706e+00
 -1.2709104e-05
  5.3328913e-01
 -6.0880486e-02
  8.6832345e-01
 -8.2162046e-07
 -2.0165122e-05
 -2.9511048e-05
  9.7999080e-05
 -2.4714509e-05
 -6.4120679e-05
  3.8205249e-05
 -1.9711604e-04
  1.0634528e-03
  1.4430759e-04
  8.0314276e-05
 -2.6325355e-04
 -2.6806322e-04
 -9.0049089e-06
  1.8695096e-04
 -1.2913132e-04
 -5.8995589e-05
 -1.3867313e-04
 -3.5216661e-05
  2.3866155e-04
  9.8577169e-05
 -2.0039828e-04
 -3.4515484e-05
 -2.0003232e-05
 -5.0131354e-04
 -1.4831778e-05
  1.1664341e-04
 -1.6984688e-04
  4.1056308e-05
  5.2309493e-05
  1.4839455e-04
 -2.2315496e-04
 -2.5770345e-07
 -3.1218322e-05
  6.5585300e-05
 -2.5448744e-05
 -3.0531839e-05
  8.4253028e-05
  2.0949436e-05
 -4.5839017e-05
 -1.6402680e-04
 -4.2914176e-05
  1.9786449e-04
 -1.0703512e-04
  7.5115066e-05
  2.7944322e-04
 -2.0373500e-05
  5.0192210e-04
  2.3674727e-05
  3.4377979e-06
  3.1598091e-05
 -1.1706338e-05
 -8.1450984e-05
 -1.3449334e-04
 -1.8156330e-04
  8.7401517e-05
 -1.9862749e-04
  3.6762434e-05
  1.0279437e-05
 -2.3118923e-04
 -9.2954237e-05
  1.3873437e-04
  8.7081248e-01
  1.1850215e-04
 -2.1937147e-02
 -7.8020457e-05
  2.1406962e-04
  7.9979844e-02
 -4.4380328e-01
 -1.2841007e-01
  5.5066866e-06
 -2.3741576e-01
 -8.1388331e-05
  4.2818789e-03
 -1.0995098e+00
 -8.0073136e-05
  1.0060423e-04
  1.1229238e-02
  1.2186632e-04
  8.4147286e-01
  9.4771829e-05
 -5.7905472e-05
 -2.7325470e-04
  9.0739632e-06
 -6.6074787e-04
 -1.6096482e-04
  4.0845061e-06
  5.0798320e-04
 -2.2416591e-04
 -1.9510426e-05
 -5.4015195e-06
 -3.2088271e-01
 -2.2732042e-01
 -4.3203127e-01
  2.4029815e+00
  2.3217475e-02
 -3.8181254e-01
 -3.0980662e-03
 -3.2819179e-01
  1.3243893e+00
  6.6754282e-02
  1.8908310e+00
  1.2248335e+00
 -3.4581012e-01
  1.7903193e+00
  3.3641809e-01
  6.0362751e-03
  3.2491695e-02
  9.0027452e-01
  6.9329625e-01
 -1.3899188e-01
  5.3747761e-01
  3.5959708e-03
  4.3645483e-01
 -1.1301286e-01
  9.2862761e-01
 -4.4383202e-04
  9.8394126e-02
 -1.5382469e-01
  2.5673845e-01
 -1.2850021e-01
  6.1694955e-05
 -1.1296961e-01
 -4.9506798e-02
 -7.6229858e-01
  2.8513247e-01
 -5.6256935e-02
 -1.8535149e-01
  1.8643427e-01
  7.9174992e-05
  1.6606250e-01
  2.6863754e-01
 -2.2497696e-04
 -1.1829326e-01
 -1.0755087e+00
  2.5528273e-01
  1.0327411e-05
  7.5712473e-05
  1.1765496e-04
  1.8712919e+00
  6.4571720e-01
  2.3117223e-05
 -1.3099264e-04
  4.9630798e-05
  5.4510620e-05
  4.3339396e-04
 -1.9010877e-05
 -4.6328667e-05
 -4.2487632e-06
 -1.4342526e-01
  4.7539520e-01
 -7.7082455e-05
  7.5639349e-01
  6.4139295e-01
  6.8286951e-03
 -1.1590603e-03
  1.5292911e-01
 -2.0397562e-01
  6.1911964e-01
  6.7627005e-02
  1.3908094e+00
 -5.1494032e-01
  8.1454024e-02
 -2.6228208e-02
  1.9585982e-01
  1.4489933e+00
 -5.6541053e-06
 -1.3982988e-05
 -1.4868264e-04
 -2.5168163e-01
  9.3091577e-01
  2.8079207e-04
 -2.4909008e-04
 -1.6020078e-05
  1.6867831e-01
  3.2316201e-04
  1.2820179e-05
 -1.6326898e-05
 -9.9871373e-05
 -5.4492004e-04
  3.3257995e-04
 -1.1483402e-04
  1.0764051e-05
  1.7412280e-05
  7.4975833e-05
 -8.4128500e-05
  2.7964315e-05
 -1.0760416e-04
  7.9807985e-05
 -1.5559030e-05
 -1.3239498e-04
  3.3781551e-05
  2.5565958e-05
 -1.2626963e-04
  2.7719569e-05
  1.0990367e-04
  1.4242381e-05
  1.5939078e-04
  3.6552839e-05
 -1.1198947e-04
  5.1316601e-04
 -5.4421638e-05
 -7.2324350e-05
  1.4618221e-04
 -5.5510718e-05
 -1.0275066e-04
  6.8627637e-06
  1.3195234e-04
 -3.6390500e-06
  3.9648858e-05
  2.7064963e-05
 -1.2387300e-04
 -6.0488910e-05
  1.9675065e-04
  1.7914909e-01
  1.0215637e-04
 -7.7083125e-05
  1.8878367e-02
 -5.3725597e-03
 -1.5734218e-01
 -2.6265669e-04
  2.4337030e-04
  4.9561739e-01
  1.7036728e-04
  3.5320520e-02
 -1.2536715e-04
  4.0589830e-06
  6.2890635e-05
 -1.7558008e-04
 -5.3513972e-03
  1.6222852e-05
 -3.9168165e-04
 -1.0245181e-04
 -2.9273971e-03
  1.1016509e-04
 -6.0232767e-05
  6.8413392e-05
 -4.0534971e-04
  2.4024479e-04
  4.7724124e-02
 -3.6192519e-04
  4.5749699e-03
  2.9035464e-02
  4.1143625e-04
 -5.2266326e-02
 -1.3007938e-04
  2.2314994e-03
 -4.2721123e-04
  3.8491178e-02
  2.3141861e-01
  3.7787311e-02
 -4.0439318e-06
 -8.5373625e-02
 -1.7117422e-02
 -4.4546220e-02
 -6.0353650e-06
 -1.1125916e-04
  2.7505864e-04
 -1.4521996e-05
 -1.2010365e-01
  1.7558800e-01
  8.0012359e-02
  1.7910260e-04
  2.4264672e-01
 -1.0057958e-03
  2.7152085e-01
  3.6481692e-04
  4.3251548e-02
 -5.5007087e-03
 -2.0774981e-02
  3.7900537e-02
 -1.5197858e-01
  1.1805767e+00
  2.8550264e-01
  9.8973036e-01
 -1.5632797e+00
  6.5566683e-01
 -6.7483002e-01
 -1.5593293e-01
  6.6191816e-01
  4.2955789e-01
 -1.7169099e-01
  4.8744878e-01
 -5.9538786e-05
  3.1043427e+00
 -1.8054138e-04
  7.6024863e-03
  9.0925874e-05
 -4.2476519e-03
 -4.6648714e-04
  2.6680340e-05
 -1.7033378e-04
  3.0163213e-04
  1.3936846e-05
  3.2958707e-01
  2.1795826e-05
 -2.1038254e-04
  3.6184607e-05
  8.7972141e-05
  2.0459360e-04
  8.7847948e-05
 -8.1192738e-05
  1.8130585e-04
  6.3681864e-04
 -8.5741463e-05
  1.9073991e-04
  2.1984782e-04
  2.9443063e-06
  1.4600035e-05
 -8.8690131e-06
  2.8783342e-04
 -3.2948836e-07
 -5.2274750e-05
 -1.3399390e-04
 -1.6787575e-04
  1.7170361e-04
  2.0510789e-04
  1.0377496e-05
 -7.4336291e-05
  2.0342908e-04
 -8.5648629e-05
  1.9622585e-04
 -4.6723446e-05
  1.6553409e-04
  1.1442573e-04
  3.2049505e-04
  2.3349090e-05
 -1.5754013e-04
  9.9565936e-05
 -1.3314157e-04
 -7.9675025e-05
  2.4383030e+00
  1.0523700e+00
  7.8839350e-01
 -7.8412886e-06
 -5.0154257e-01
  2.0309286e-01
  8.2466847e-01
 -7.5491458e-01
 -1.4251630e-01
 -5.0066542e-03
 -1.3774182e-04
 -2.2095625e-01
  9.0012515e-01
 -1.5228816e+00
  3.8753016e-04
  2.8566616e-02
  9.3128830e-01
  2.4478885e-04
  1.5270998e-01
  5.4409254e-01
  9.1448397e-05
 -5.3924370e-05
  7.9035631e-04
 -1.2885704e+00
 -1.1460714e-04
 -3.0013527e-05
  3.3746406e-01
 -7.8182085e-05
 -2.5283505e-05
 -1.2365864e-04
 -3.3983986e-05
 -1.2692213e+00
 -1.0551460e-01
  1.9688486e+00
  8.2702512e-01
 -5.1177019e-01
  7.0833403e-01
 -1.0383455e-01
 -6.6563153e-01
  2.4791606e-01
 -3.7744251e-01
  2.7154380e-01
  3.4772217e-02
  3.8616306e-01
 -2.5349557e-01
 -4.4339881e-04
  5.5777814e-02
 -4.9541646e-04
  3.1616956e-01
 -6.4157364e-05
 -1.7593704e-04
 -2.8722292e-05
 -3.5481495e-05
 -5.4837605e-03
  3.1536671e-05
  3.7029331e-05
 -3.3178888e-04
  5.9202634e-06
  5.9924569e-02
 -2.1656241e-01
 -2.0271981e+00
  5.5802047e-01
  1.9094418e+00
  2.6054385e+00
 -1.6408531e-01
  2.9786512e-01
  7.9253477e-01
 -4.3322629e-01
  5.2047199e-01
 -4.5743072e-01
 -6.4897990e-01
  2.4444861e+00
  2.6084462e-01
  2.4238002e+00
 -8.0113238e-01
  4.4849646e-01
  2.5841483e-01
 -6.8007231e-01
  1.5998666e+00
  1.0029339e-03
 -1.1442900e-03
  1.6142657e-03
 -3.9204812e-01
  4.1353694e-01
  1.7113989e-05
  2.9910129e-04
 -4.0782776e-02
  6.3363415e-01
 -6.8379402e-01
  2.1497626e-05
  2.1642447e-01
 -1.4832780e-04
  1.1199645e-04
  2.2906306e-05
  3.8263235e-05
  2.6978412e-01
 -8.4442057e-05
  3.8649506e-04
 -1.8923980e-04
  6.7602575e-02
  8.4659860e-06
 -2.2976157e-05
 -9.8204691e-05
 -9.0734027e-02
  1.6415044e-04
  5.4321015e-05
 -1.5509901e-04
  4.5195491e-05
 -3.1361994e-06
  7.7843659e-05
 -4.3431734e-05
  2.5143960e-04
  7.9321755e-05
  2.0440698e-04
  3.9620060e-04
 -9.4244446e-05
  3.6035088e-04
 -4.2637836e-05
 -2.8373146e-01
 -3.3631404e-05
 -1.0446074e-05
  1.4868121e-04
 -4.0639730e-05
 -7.0274276e-01
  8.4236985e-01
  9.3802764e-06
 -5.9846282e-01
  1.6023978e-05
  2.3821886e-01
  2.5547981e-01
  4.3864615e-04
 -3.0442474e-05
 -1.6718777e-04
  8.8740354e-03
 -3.6535430e-01
 -5.9490379e-05
 -2.8481917e-02
  4.7862872e-05
 -1.3513384e+00
  1.0376502e-01
  1.2473448e-04
  2.0733665e-04
 -2.3017294e-04
  7.4366661e-05
  3.1205281e-04
 -1.7982241e-04
 -9.1680653e-05
 -2.7722062e-04
 -4.7974937e-02
  7.8546771e-05
 -1.4423926e-02
  3.9959806e-01
  5.5497944e-01
 -8.0843383e-01
 -7.0070324e-04
 -1.1962707e+00
 -4.0453443e-01
  1.5924309e-01
  9.2792338e-01
  3.0479722e-02
  7.2045632e-02
  1.3794881e+00
  4.5984244e-01
 -1.2739419e+00
  7.1706660e-02
 -6.0694198e-05
 -7.8592096e-03
 -3.1521768e-04
  6.6763148e-02
 -1.0154396e-01
 -1.9592579e-04
  1.9548128e-05
 -1.6067684e-01
  5.2163637e-01
 -1.5225748e-03
 -1.6303687e-07
 -1.7864916e-01
  3.3926833e-02
  1.0794586e+00
  7.2349481e-05
 -1.5299565e-04
  4.8230162e-05
  2.4050460e-05
 -4.4089538e-05
  2.5544154e-05
  3.5301586e-05
 -2.3491337e-04
  2.6145206e-05
 -3.1513082e-05
  3.1555240e-04
 -3.1822966e-04
  1.4104710e-04
  1.1977424e-04
  3.1881631e-05
  6.3718253e-05
 -6.9129412e-05
 -3.4048546e-05
  1.0077016e-04
  9.6715179e-05
 -3.5535760e-04
  6.5302600e-05
  3.3113585e-05
  1.2958591e-05
  3.2512660e-05
 -3.4351320e-05
 -1.9764682e-06
  7.1046065e-06
 -3.3741962e-05
  4.4937875e-05
 -6.6039160e-05
 -7.6921147e-05
  1.0136810e-04
  1.4397806e-04
  1.3866814e-04
 -1.1100568e-04
 -4.2956049e-06
 -1.6921067e-05
 -1.5537262e-04
  1.6021855e-05
  7.8849698e-05
  2.2867235e-04
  3.5356723e-05
 -2.9114357e-05
  1.4091692e-04
  3.2232422e-04
 -3.0093189e-04
 -1.1439487e-05
 -1.9327203e-05
 -6.6758323e-05
  3.3046035e-04
  2.0437405e-05
  1.3405424e-05
  2.2813580e-05
 -6.5458917e-05
  1.6912136e-05
  5.3495455e-01
 -9.4246743e-06
 -8.7041071e-06
  6.1883286e-05
 -5.5223795e-06
 -5.9300717e-02
 -1.8297333e-01
 -6.7563139e-02
 -5.9468323e-01
  5.8706522e-02
  1.6753560e-01
  1.0139099e+00
 -3.0531508e-01
  4.1366376e-02
  3.6023220e-01
 -1.9805033e-03
  3.5702962e-01
 -8.0616391e-01
  9.4864508e-03
 -5.6170827e-01
  2.4553325e-02
  8.4052968e-01
 -4.1601625e-01
  9.2513818e-01
 -6.3389984e-05
 -1.3610648e-01
 -5.1303959e-05
 -2.9681015e-01
 -1.0553886e-04
 -1.3497762e-01
 -5.5363449e-05
 -6.7244451e-07
  1.9469636e-04
  7.6800600e-02
 -6.9510355e-03
  3.5471134e-04
  7.6443284e-05
  1.7546898e-05
  3.6717684e-05
 -1.3960449e-01
 -1.2360960e-01
  3.8934693e-02
 -9.0816122e-01
  1.2497541e-02
  3.0000156e-01
  1.9122877e-05
 -1.9961080e-05
 -3.3928117e-01
  6.8034858e-01
  9.8197466e-01
  1.2492908e+00
 -1.8697292e-05
  5.2771506e-05
 -8.9867579e-05
 -2.0243795e-01
 -3.2944011e-04
 -5.8965105e-01
 -1.4020904e+00
  1.5730581e-01
  6.8164518e-05
 -5.4029340e-01
 -7.6422684e-02
  5.0707982e-04
  2.8805704e-07
  5.4776627e-01
  1.9046128e-01
 -6.6161931e-01
  1.4823719e-04
 -4.4322533e-06
 -7.3487926e-01
 -9.9360406e-01
 -5.5599463e-01
  2.4490290e+00
 -2.0662339e+00
  1.4047673e+00
  4.2363486e-06
 -4.0105697e-06
  5.9444815e-01
  2.2954671e+00
  7.5934023e-01
  5.3933924e-01
 -5.5061340e-05
 -5.0689983e-01
  8.7770230e-01
 -8.7882352e-01
  1.5005101e-01
  9.4990736e-01
 -6.4797556e-01
 -1.6170697e+00
  2.8505507e-01
  4.7700587e-01
 -9.9587768e-01
 -2.9961992e-04
  2.4699930e-05
 -8.7467706e-01
 -2.4606607e+00
  8.5211486e-01
  5.6269282e-01
 -6.3061452e-01
  4.7299833e-05
 -3.8355924e-02
 -5.0974882e-01
 -1.1609935e+00
  1.1633294e+00
  1.9585095e-01
  3.8664716e-01
  2.5121558e-01
 -3.5710740e-01
 -1.8816752e-02
 -4.2014435e-05
 -5.5998302e-04
 -4.8832461e-02
 -3.9944597e-04
  1.4085670e+00
 -1.7577395e+00
 -7.8383648e-01
  8.8546497e-01
  1.0308628e+00
  8.8189617e-03
 -2.7950543e-03
  2.2983912e-01
  9.4532770e-01
 -1.5616106e+00
 -2.5664076e-01
  5.7446325e-01
 -2.6960015e+00
 -9.7568206e-02
 -2.2463169e-05
 -1.1625857e+00
  9.5697057e-01
 -9.8185599e-01
  4.5934743e-01
  8.9596385e-01
  1.9405707e+00
  3.9885482e-01
 -3.8171854e-02
 -6.2697065e-01
  1.7808086e+00
 -4.5720989e-01
  4.2715332e-05
  1.9642380e+00
 -1.2039789e+00
 -2.1206243e+00
  1.1537108e+00
  4.2024797e-01
 -1.2731628e+00
  1.5452760e+00
 -6.4447278e-01
  1.0726540e+00
  9.3678296e-01
 -1.1357892e-01
 -1.5503919e-04
  2.8242081e-01
 -4.7877264e-01
  4.8766622e-01
 -8.1425273e-01
 -2.7439877e-01
 -2.6296537e-05
 -1.8120170e+00
  1.1999623e+00
 -1.3561203e+00
 -1.6400143e+00
  2.5266495e-01
 -1.8995106e-01
  1.0960399e-01
 -1.6420405e+00
 -2.1612638e-01
 -1.5344214e+00
  9.3723044e-02
  3.5916682e-02
 -3.3003747e-01
  8.2990551e-01
  4.1979983e-01
  2.1746070e+00
  1.8697438e-01
  3.6374521e-01
  1.0252241e+00
 -3.2363352e-01
 -4.6562994e-01
 -2.1587956e-01
 -6.9725722e-01
 -3.6229148e+00
 -5.1756143e-03
 -9.6249974e-01
  3.2300776e-01
  1.0655448e+00
 -1.2526229e-04
 -1.4040346e-04
 -2.7920958e-04
 -1.4841059e-04
 -2.8253363e-03
  2.0916290e+00
 -1.3127552e-05
  4.7400792e-04
  2.0649405e-02
 -7.6755518e-05
 -4.5762858e-03
  8.6711261e-05
 -6.4800180e-02
 -5.2677536e-01
  1.7802167e-01
 -3.3525845e-05
  6.5760732e-01
 -7.6177961e-01
 -1.5969522e-01
 -3.7089702e-01
 -1.0083970e-01
 -1.1299921e+00
 -2.2997260e+00
  5.5242246e-01
 -2.3047271e-01
  6.8227984e-02
 -3.6433491e-01
 -8.4789091e-05
 -1.2590252e-04
 -5.1540875e-01
  1.0768412e-01
  8.1097365e-05
  2.1570978e+00
  6.4130783e-01
  6.9259137e-01
  1.7782679e-01
 -5.8173943e-02
 -5.7039208e-05
  4.1333580e-01
 -2.6172027e-01
 -7.8041470e-01
  1.4813629e+00
  2.3364799e-02
  1.8265769e-01
  5.5902678e-01
 -1.2384530e-01
 -2.5012562e-01
 -6.0745567e-01
 -4.5866886e-01
 -3.9710982e+00
  3.8779036e-03
  1.2999054e+00
 -5.9945725e-02
 -7.5857562e-01
 -5.2025625e-05
 -1.0152244e-01
  4.8495665e-05
 -4.3622313e-05
  2.3751935e-01
 -6.8823270e-02
  1.0673311e+00
  2.1256857e-01
  1.5094194e+00
  4.3475207e-05
 -6.2981435e-06
 -4.0248770e-02
 -8.5424316e-01
 -2.4797816e+00
  1.2889186e+00
  5.1992249e-01
  1.9976341e+00
 -6.2008590e-01
 -1.5243907e+00
 -1.6736092e-01
 -1.3909372e+00
 -2.6249260e-01
  5.8506399e-01
  8.4733462e-01
  4.7999942e-01
  9.4351947e-02
 -7.4231356e-01
 -1.8959319e-03
 -3.2960832e-02
 -1.2336008e-04
 -2.4335502e-01
 -1.1421172e-04
  2.9152489e-01
  1.6514853e-01
  7.3059637e-04
 -3.4481904e-01
  4.3048722e-01
  2.5540205e-02
 -1.0395440e-01
  1.0807037e+00
  1.8406620e-04
 -6.2919730e-01
 -3.6153499e-02
  1.1644725e-04
 -2.5129724e-01
  1.2148207e-01
 -3.3041108e-01
 -7.8867130e-02
 -1.2365569e+00
 -3.3016083e-01
 -1.0822122e+00
  6.0675406e-01
  2.6259872e-01
  1.1227758e+00
 -2.2922230e-01
 -4.3113187e-01
  1.7363124e+00
 -1.9657303e-01
 -8.3274871e-01
  1.9936969e+00
  7.1666682e-01
  6.2673753e-05
 -1.0604368e+00
  5.9936976e-01
  7.5164251e-02
  5.2602118e-01
  6.8424296e-01
  2.7985629e-01
  1.3452562e+00
 -1.8243125e-04
  6.9221902e-01
 -4.3670169e-01
 -7.3530316e-01
  1.9071147e-02
 -5.3938401e-01
  1.6830733e+00
 -7.4960478e-02
  1.1813714e-01
 -2.6102009e-04
 -7.3664356e-05
 -1.1837555e-01
 -3.2468221e-01
 -1.8470405e-01
 -4.9647203e-01
 -2.0188241e+00
 -9.0854335e-01
  3.7119010e-01
  1.2563771e+00
  8.5018333e-03
 -9.2887878e-04
 -1.1899318e+00
 -5.3907603e-01
  3.2653369e-02
  1.0470736e-02
  1.6233467e-01
  3.7695491e-01
  1.6728573e-01
  9.4677246e-01
  9.9779713e-01
  2.3493066e+00
  2.4747419e+00
 -1.0883077e+00
  1.4275945e+00
  5.1661968e-02
 -1.5937680e+00
 -7.9278612e-01
  1.1784159e+00
  1.1669061e+00
  3.3075543e-05
  1.4135022e-01
  1.2334951e-03
  1.6888312e+00
  9.7064284e-04
 -2.8448429e+00
  1.3033830e+00
  1.8450238e-01
 -4.0412298e-01
  8.7913269e-01
  4.4835186e-01
 -2.5150105e-01
 -2.1296191e+00
  1.5182554e-02
  6.1925435e-01
 -1.6341741e+00
  2.2986530e-01
  1.6848443e-01
  2.8867930e-02
  1.0057609e+00
  6.0710251e-01
  2.3569093e+00
  1.8689545e+00
 -1.9038025e-02
  1.0687827e+00
  1.4278451e+00
 -1.4093810e+00
  1.5264553e-05
  1.1556603e-03
  7.4259102e-01
  2.0035227e-01
  2.0714686e+00
 -9.9495810e-01
  2.7815199e+00
  8.5035518e-02
 -2.6638501e+00
  1.1137949e+00
  1.7009202e-01
 -2.1385493e+00
 -4.3800545e-01
 -1.2550375e-01
 -1.5117202e+00
 -9.4215083e-01
  4.4328180e-01
 -1.7510809e-01
  9.8880941e-01
  2.1159482e+00
  3.1336817e-01
  2.3194470e-01
  6.9226748e-01
 -4.3766752e-01
 -1.9967057e+00
  3.0934691e-01
  5.3344890e-02
 -1.0986254e-01
  2.3352268e-01
 -1.0027670e+00
  1.6933125e+00
 -1.7101888e-01
  3.7243640e-01
  4.0448171e-01
  6.7401403e-01
 -2.2068548e+00
 -2.3134297e-03
 -8.9476043e-01
 -1.0265012e+00
  1.2824123e+00
  1.5068085e+00
  1.0426551e+00
  1.2134393e+00
  1.8313570e-01
 -5.5360734e-01
 -1.1423721e+00
 -7.5994742e-01
  1.3524131e+00
 -1.4826576e+00
 -5.8892125e-01
 -4.1908905e-01
 -2.3751130e+00
 -4.1754451e-01
 -4.1595455e-02
 -1.6853400e-01
 -3.0709177e-01
 -2.5552724e-04
 -5.3793830e-01
 -1.6603530e-04
  6.3453478e-01
 -7.6512772e-01
 -9.2563557e-04
  8.6787188e-01
  9.5219548e-05
  3.4652081e-01
 -5.1930058e-01
  8.3254620e-02
 -1.4391598e-02
 -3.2564750e-01
  7.9640025e-01
 -1.8860443e-02
 -1.0521473e+00
 -1.8791897e+00
 -5.7757926e-01
  1.1492856e+00
 -5.7043605e-02
 -2.2014158e+00
  1.3045264e+00
 -3.2258418e-01
 -2.4489031e+00
  6.7126238e-01
 -4.4525418e-01
 -9.3270057e-01
  2.1560688e-01
  1.6446741e-01
 -3.7013444e-01
  7.0324224e-01
  4.8274644e-02
  3.0400640e-06
  1.0303520e+00
 -1.2434139e+00
  7.1325547e-01
 -5.3639448e-01
  4.7146788e-01
 -7.6574713e-01
 -1.4500558e+00
 -9.0417743e-02
 -3.2983983e-01
  8.4889337e-02
 -1.1962829e+00
 -1.0024845e-01
 -1.8237005e+00
 -1.6071513e+00
 -2.8979354e+00
 -6.9296879e-01
 -1.9809037e+00
 -8.8157946e-01
  1.9868947e+00
 -9.7731596e-01
 -1.1196384e+00
 -7.0494628e-01
 -8.5416025e-01
 -1.8235570e-01
 -1.3749802e+00
  5.6569785e-01
  8.5471529e-01
 -4.5700049e-01
 -1.4877790e-01
 -1.5488933e+00
  1.9057574e+00
 -1.4236189e+00
 -2.8680143e-01
  6.3055897e-01
  1.1694592e+00
  5.5305523e-01
 -8.7172264e-01
  1.1776261e-04
  1.7260574e-04
 -1.6334132e-05
 -1.3559461e-03
 -2.1758242e-05
 -2.2556441e+00
 -7.1011961e-01
 -1.2384378e+00
 -3.8384596e-01
  4.4683816e-07
 -2.8683612e-04
 -2.7156784e-04
  1.4072086e-04
 -9.8434255e-05
  4.8327298e-04
  2.1645867e-05
 -6.9776738e-01
  1.8006600e-05
 -5.8025256e-05
  3.0517083e-04
  1.5397301e-04
 -3.3910863e-02
 -2.5891308e-05
 -1.2695076e+00
  8.5218143e-01
  5.3388238e-01
 -1.2070020e+00
  6.1663224e-05
 -1.7460623e-04
  5.6762285e-05
 -6.1708211e-04
  7.2727357e-06
  1.5186210e+00
 -1.0799577e+00
  5.9783655e-01
 -5.7345951e-01
  6.3732616e-05
  3.5107663e-05
  1.2487578e-04
 -5.2791045e-05
 -6.0285401e-04
 -5.8146584e-01
  9.1172445e-01
  4.0005827e-01
 -6.3599747e-01
 -1.6579979e-05
 -1.2713504e-05
  3.2281878e-05
 -5.7865618e-05
 -1.7627834e-05
 -1.7602420e-01
  7.0181042e-01
  1.0398271e+00
 -8.5166496e-01
  1.1804196e-04
  9.5130099e-06
 -4.9289833e-05
 -3.1324003e-06
  2.2035087e-05
  4.1406256e-01
  3.2782257e-01
 -1.7164863e+00
 -6.0220206e-01
 -1.3700244e-04
 -8.2073602e-06
 -1.2695385e-04
 -1.2311939e-03
 -1.7547954e-05
 -1.5297163e+00
  1.1286386e-01
 -2.6826169e-02
  1.9383243e-01
 -1.5221961e-04
  9.9305005e-05
  1.6910579e-05
  2.2196968e-05
  1.5077030e-04
 -2.6098013e-01
  4.9725005e-01
  7.4356514e-01
 -3.3352059e-01
  2.5177926e-05
  8.7846034e-05
  9.9837394e-05
 -2.8642473e-01
  8.9042238e-05
  1.2483017e-01
 -7.4709022e-01
  1.3386490e+00
  5.1096246e-02
 -1.1904353e-04
 -4.3043041e-05
 -6.0156668e-05
  7.1715294e-05
  3.7623136e-04
  1.9549075e-01
  8.0128717e-05
  1.6179121e-01
 -7.8079425e-04
  1.6519762e-05
 -6.4969376e-05
  6.2275012e-06
 -1.5575923e-01
  2.7154325e-05
  2.9254043e-01
 -7.1540248e-01
  6.4870292e-01
 -8.5667193e-01
  2.9517965e-05
 -5.8208443e-05
 -6.4344522e-06
  1.0354399e-04
 -7.4959593e-05
  1.2062079e+00
  3.8540730e-01
 -1.1264312e+00
 -7.2459596e-01
 -2.4745980e-04
  1.0116499e-04
 -4.4944591e-05
 -7.3451764e-04
 -8.3383005e-05
  2.8436366e-04
  6.9400318e-02
  3.2400247e-01
  5.5378199e-01
 -2.4314428e-05
 -3.7217556e-05
 -7.6932920e-05
  2.5690939e-05
  1.7112760e-01
  7.3590052e-01
  5.9187257e-01
  2.5640743e+00
 -9.2670822e-01
 -6.1103819e-06
 -1.9210132e-04
 -4.7321737e-05
  1.0373619e-05
 -5.2117757e-05
  1.5739137e-01
  4.0694010e-02
  1.8690173e-01
 -1.2213323e-01
  1.3228384e-04
 -2.2091066e-05
  1.0196946e-04
 -7.4265568e-05
  2.0356463e-05
  7.5693989e-01
 -4.7424689e-01
  7.1171975e-01
  8.6506587e-01
  2.9674859e-05
  1.5372668e-06
 -1.5732266e-02
 -1.3148979e+00
 -8.9479465e-05
  8.9100890e-02
  1.7365099e-01
 -5.6341094e-01
  3.4543085e-01
 -1.1185209e-04
  8.2913873e-05
 -1.0311202e+00
 -5.2709126e-01
 -1.6486817e-06
  6.4267051e-01
  2.5980419e-02
 -4.5800781e-01
 -5.8167112e-01
 -3.1004987e-05
 -2.1301411e-04
 -6.9317245e-04
  1.0777658e-04
  1.2995396e-04
  1.2949216e+00
 -8.8549728e-05
  1.3553966e-07
 -1.5130566e-04
  1.9185242e-04
 -2.0649360e-04
 -5.6652233e-02
 -2.3366834e-01
  1.6110015e-04
 -6.4041173e-01
  1.1066312e-01
 -1.8866857e+00
 -2.5517833e-01
 -1.3442975e-04
  5.9945465e-05
 -8.4887064e-01
 -4.2763026e-04
 -6.2182633e-05
  2.5148830e-01
 -5.2520704e-01
  4.4121835e-01
 -5.1495278e-01
  4.8408754e-05
 -2.0587967e-04
  9.4277561e-02
 -2.1017389e-03
  4.7352627e-05
 -8.9116341e-01
  4.1266340e-01
 -4.1677052e-01
 -1.1251352e+00
  1.0027760e-04
  1.1405784e-04
 -8.1649137e-01
 -2.1109376e-03
  1.9256488e-04
  3.0853069e-01
  7.3376045e-02
  4.9340186e-01
 -1.1235199e+00
  2.3220240e-05
  2.4283084e-04
  2.0674164e-05
 -2.8601990e-04
  2.6746649e-05
  1.1112771e+00
  3.6312687e-01
 -4.5093429e-01
 -1.1561692e+00
  4.9749806e-06
 -2.1222419e-04
 -4.4682205e-01
 -2.6145479e-01
 -1.9491617e-05
  3.5436842e-01
  6.3356739e-01
 -1.2907211e+00
 -1.3946471e+00
  2.9289780e-05
 -2.0036101e-04
  4.8927155e-01
 -1.1465941e-05
 -6.3080188e-05
 -3.1043386e-01
  1.8591823e-01
  6.1752629e-01
 -5.8490652e-01
  3.7443813e-02
  7.9082417e-01
 -1.0617596e+00
 -4.3494454e-01
 -5.5985740e-05
  7.0502359e-01
  8.2376146e-01
  9.7405982e-01
 -6.2699997e-01
  8.6501372e-05
 -5.5714816e-05
 -1.8671877e-04
  2.6977143e-05
  9.9468059e-05
 -1.3373473e-01
 -3.9614610e-05
  7.1443725e-01
  1.9966548e-04
  1.8152354e-02
  6.6004288e-01
 -6.5246618e-01
 -3.0694443e-01
  1.3874525e-04
 -1.1218109e+00
  3.7615508e-01
 -8.3148444e-01
 -6.1083794e-01
  3.7535210e-05
  1.6118791e-02
 -6.1971265e-01
 -2.3501823e-05
 -4.9179183e-05
  7.9394418e-01
 -1.2594239e-01
  8.2198328e-01
  5.2150971e-01
  2.4931910e-03
  4.5495403e-01
  8.3286202e-01
 -6.5807300e-03
 -5.7072568e-05
 -2.7821574e-01
  8.3737493e-01
  2.5440294e-01
  4.3580092e-02
 -1.9045770e-05
  4.3758280e-03
  1.6603690e-01
 -4.1912492e-02
  6.9540809e-04
 -1.6674019e+00
 -2.0569630e-02
  2.1524591e+00
 -3.7441108e-01
  1.7760118e-03
  1.5979733e-01
 -1.9625552e-01
  3.7635895e-05
  3.8939255e-05
 -1.7951362e+00
  4.9115869e-01
  1.4641755e+00
 -2.4529541e-01
  3.6037938e-05
  3.7968358e-01
 -7.9884273e-01
 -1.5320078e-01
 -1.5761232e-05
 -8.3543026e-01
  3.0335394e-01
 -7.9091534e-02
  1.3615631e-01
  4.7011973e-04
  1.4174057e-04
 -3.5850921e-01
 -2.0151080e-03
 -7.8969919e-05
 -4.3940586e-01
  4.7817641e-01
 -4.7584030e-01
 -1.5334463e-01
 -9.4189985e-05
 -1.3967539e-01
 -7.6336640e-01
  1.2066563e+00
 -1.2875319e-04
 -1.3371564e+00
  1.0291394e+00
  7.9809451e-01
 -6.1196059e-01
 -1.0612055e-04
  8.5537642e-05
 -5.6146603e-04
  7.2143121e-05
  7.4903925e-05
 -3.2211611e-01
  7.3736298e-01
 -2.0795965e+00
 -3.0267878e-05
 -7.5620090e-05
 -5.1982474e-02
 -1.5787635e+00
  7.0020550e-01
  2.0918847e-04
 -2.1939881e-01
 -3.1147143e-02
  5.3099811e-01
  1.0862002e+00
 -4.8477032e-05
  1.3744515e-04
 -2.6936537e-01
  4.8392549e-01
 -6.0434593e-04
 -1.1350971e+00
  9.3023443e-01
 -2.6456842e-01
 -5.6955010e-01
  2.8112368e-05
  7.7344412e-05
 -2.9336390e-01
  1.7672907e-04
 -2.1366558e-04
 -1.0549355e+00
 -7.2536963e-01
 -2.8840336e-01
  2.7377865e-01
 -1.1093276e-04
 -8.1918738e-04
 -5.2781081e-01
  1.2877810e+00
 -2.4847753e-04
  5.3352159e-01
  1.8505473e-01
  6.0487145e-01
 -3.1462695e-02
 -4.6752772e-05
 -2.2767186e-05
 -9.3213312e-02
 -3.7882919e-06
  1.2026324e-04
  1.5352514e-01
  2.2447953e+00
 -1.8585807e+00
  4.9641126e-01
 -8.2431208e-05
 -4.7651157e-02
 -5.9319353e-01
  9.5069641e-01
  9.1421418e-05
 -4.1789135e-01
  4.3294872e-03
  2.0364138e-01
 -4.3096501e-01
  1.4114988e-04
  6.5763445e-05
 -5.2750659e-01
  2.0172684e-02
  8.2524755e-05
  6.5180826e-01
  4.0368634e-01
 -6.4991939e-01
 -8.1456131e-01
  1.2413758e-02
  1.2413758e-02
  1.2413758e-02
  1.2413758e-02
  1.2413758e-02
  6.7241365e-01
  6.7241365e-01
  6.7241365e-01
  6.7241365e-01
  6.7241365e-01
  1.4738771e-01
  1.4738771e-01
  1.4738771e-01
  1.4738771e-01
  1.4738771e-01
  1.0924964e-01
  1.0924964e-01
  1.0924964e-01
  1.0924964e-01
  1.0924964e-01
  1.6452778e-02
  1.6452778e-02
  1.6452778e-02
  1.6452778e-02
  1.6452778e-02
  1.8038879e-01
  1.8038879e-01
  1.8038879e-01
  1.8038879e-01
  1.8038879e-01
