nep4 3 Ba Zr S 
cutoff 8 4 150 20
n_max 4 4
basis_size 8 8
l_max 4 2 0
ANN 30 0
 -1.2841645e-01
  1.7584211e-05
  1.6118895e-05
  4.4923858e-05
 -1.7898973e-02
  2.3378646e-04
 -9.5459902e-05
 -2.0346078e-03
  3.2926007e-05
 -2.2369562e-01
 -1.0967249e-04
  9.6879412e-05
 -1.7540787e-04
  1.8826399e-03
  3.3648539e-05
 -9.5217962e-05
 -3.4685340e-06
 -7.3351053e-05
  5.3685148e-05
  2.3980781e-06
  6.3409767e-05
 -1.6131248e-04
 -3.1550280e-05
  4.5868928e-05
 -3.8337265e-04
  2.8303688e-04
  6.6654143e-06
 -1.0227301e-05
  2.2344966e-04
  2.3875041e-04
 -4.3726079e-05
 -7.8272358e-05
 -5.4330714e-05
  4.5277593e-05
  8.6704731e-06
 -3.0844126e-04
  6.3953019e-05
 -4.6210727e-04
  6.9877915e-06
  9.3254137e-05
  3.2425225e-05
 -2.5368028e-05
 -1.7591696e-05
 -7.7365276e-06
  5.7740890e-05
 -3.3933193e-05
 -7.2970088e-06
 -8.2331193e-05
  1.2384677e-04
  9.8560076e-06
  3.9294522e-05
 -9.8018398e-05
  9.5102390e-05
  7.2741306e-05
  1.7980106e-05
  1.2223911e-04
 -7.9226316e-05
 -1.4595195e-05
 -4.9653449e-05
 -1.1338897e-04
  3.3899659e-04
  3.5607205e-05
 -1.2305131e-05
  5.0988467e-05
 -1.7314000e-05
  1.8612166e-04
  1.7111162e-05
 -1.9108509e-05
 -3.0811375e-06
 -1.0672719e-04
  9.6861084e-05
  6.7991159e-06
 -5.9437110e-07
  2.9844181e-05
 -2.2825132e-05
  4.4191009e-05
  1.0973914e-05
  3.9918436e-05
  1.0141507e-04
  4.0549061e-05
  1.1325402e-04
 -1.9159228e-05
 -2.9685965e-04
 -2.0201085e-05
  1.2070214e-05
  5.1844636e-06
  5.8607053e-05
  8.3868736e-06
  2.2181443e-05
 -5.0513114e-05
  1.7105286e+00
 -3.1922004e-06
 -1.1466663e+00
 -1.3614118e-02
 -1.4472826e-01
  7.4529230e-06
  9.0600995e-05
  5.9914824e-02
 -4.2168289e-01
 -5.0430626e-01
 -4.1532356e-05
  4.9915987e-05
  6.4152659e-06
 -1.2313744e-01
 -7.4245423e-02
  3.2496129e-05
 -1.7240393e-06
  2.2441323e-01
  1.5869246e-01
 -3.1592461e-01
  3.0938296e-05
 -5.7774927e-05
  1.0826148e-01
  1.9046600e-01
  3.4454063e-01
 -7.2230134e-05
 -6.3264146e-05
 -1.6798814e-04
  1.4229577e-05
 -5.5702997e-04
  1.6540165e-05
  1.5636023e-04
  2.1774182e-04
 -2.3820277e-05
  1.0614287e-05
  1.3653711e-04
  1.5737611e-04
  1.9211739e-05
 -8.4550054e-05
  2.7662344e-04
 -5.9961085e-06
  3.0718678e-05
  1.0018300e-06
  1.9271260e-05
  4.9579550e-05
  1.1870556e-05
 -1.0359306e-05
  3.7428770e-05
 -6.0349583e-05
 -2.4907547e-05
  3.9994356e-05
  1.1624416e-04
  6.4770458e-05
  1.0668198e-04
  1.2217643e-05
 -2.3096590e-04
  8.1389526e-06
  1.1921523e-04
 -3.6663437e-04
  9.5397927e-06
 -1.5529346e-05
 -6.7582885e-05
 -7.2609728e-05
  1.9409970e-04
  8.0946729e-06
  7.9658334e-05
 -5.5956054e-05
 -2.4113042e-05
 -6.1282430e-05
  2.1588023e-05
  3.4710120e-05
 -3.0572541e-05
  1.1236129e-04
 -4.1983898e-05
 -6.6585431e-05
  1.8652680e-05
  1.0041244e-04
 -2.2391079e-04
 -5.3677202e-05
  7.4517942e-05
 -3.0263052e-05
  1.5969359e-04
 -3.6702226e-05
  1.2917367e-05
 -1.1599172e-03
 -3.8033570e-06
 -1.8853565e-05
 -3.2726766e-05
 -5.4371536e-05
  5.7478523e-05
 -1.9990458e+00
 -6.7266286e-05
  1.3157193e-01
 -5.5762357e-01
  1.4151617e+00
 -1.2400829e-04
  7.8888203e-05
  3.1817600e-04
  8.8983133e-02
  2.2308642e-02
 -5.5721562e-06
  2.5227955e-05
 -2.3321296e-05
  2.3169769e-05
  4.1172112e-05
 -3.0304625e-05
  1.4468361e-04
  5.2154712e-05
  1.7908584e-04
  1.9053024e-01
  1.6876389e-05
  5.0774608e-05
 -5.5594595e-05
  1.4477954e-05
 -6.2467538e-05
 -8.2544109e-05
 -2.7362634e-05
  2.7878410e-05
 -1.6156797e-05
 -9.9142468e-05
 -1.5073105e+00
  4.4590515e-01
  1.5293359e+00
 -1.1407911e+00
  8.7230754e-01
  8.3164319e-05
 -1.2719211e-04
 -8.1141021e-05
  3.6472908e-01
 -7.1874577e-01
  8.7960525e-06
 -1.4868184e-05
 -2.4875213e-04
  1.0411743e-05
  8.3621362e-06
  2.0878751e-05
 -9.8688724e-05
 -1.2334520e-01
 -1.6089926e-02
  9.8044291e-02
  4.9858332e-05
 -1.3496992e-05
 -1.4536865e-05
 -1.3189954e-01
 -1.3235407e-01
 -6.4469355e-06
  1.1004249e-05
 -7.3024908e-06
 -8.0514321e-05
 -2.6153903e-05
  1.3493283e-01
  1.6658461e-04
  1.1630699e-04
 -2.1570973e-01
 -5.8841784e-02
  3.4313018e-06
  6.2793783e-06
  3.1010589e-01
  1.7225012e-03
  8.0102330e-01
  3.1601496e-05
  1.2596245e-05
  1.5152086e-04
 -7.3850933e-03
 -2.9386012e-05
  2.1641408e-05
 -7.8572984e-06
  7.4504539e-02
  1.5293936e-05
 -1.1059195e-05
 -7.4008727e-05
 -5.7463709e-04
  7.3051504e-03
  7.9022646e-02
  1.7532767e-01
 -3.3289575e-06
  9.9779154e-06
  1.0151496e-04
 -1.2440197e-04
  9.8217708e-05
  1.4063303e-04
 -7.3296847e-05
 -4.6465360e-02
 -1.3787478e-01
  2.3752975e-05
 -8.5400834e-06
  3.6316740e-07
  9.2141607e-05
 -8.0007776e-06
 -1.5346660e-02
  3.6960535e-04
 -2.9812433e-04
  2.5243389e-05
 -5.0614191e-05
  7.5238981e-06
  1.3036701e-05
 -3.0680221e-05
  6.7009136e-02
  1.1377055e-04
 -2.0954361e-04
  4.1298423e-05
  2.1601832e-04
  1.0036226e-05
  1.3784952e-04
  2.7552363e-02
 -1.0152298e-04
 -5.4720895e-05
  2.0176361e-05
  3.1525855e-05
 -1.7341794e-04
 -5.0172228e-01
  6.7474597e-05
 -2.7504771e-05
 -9.7631084e-05
  3.0645466e-01
  2.6905827e-05
  7.9000609e-05
  2.3901157e-05
 -2.0199585e-04
 -2.4397079e-04
  3.1291962e-05
 -2.1213928e-05
  1.1922460e-05
  8.9681460e-05
  4.0767522e-05
  1.7107152e-05
  2.5141253e-05
  5.7363224e-05
 -1.2758268e-04
  1.0698190e-04
  8.1629987e-06
 -4.2660915e-05
  1.0982857e-05
  5.6730073e-06
  4.4834862e-05
 -1.1023425e-04
 -8.2843137e-05
 -1.2057117e-05
 -2.7241877e-05
 -3.1877986e-05
 -1.7524017e-05
 -1.0385348e-04
  1.6538239e-05
 -3.6580439e-04
 -1.4258494e-05
 -2.1009106e-05
 -3.3183501e-06
  4.0310548e-05
 -1.6271829e-04
 -1.8891633e-05
 -1.2518927e-04
  7.3788047e-05
 -6.4414839e-05
 -1.2544236e-04
 -1.4648227e-05
 -5.9240949e-05
  7.9095276e-05
 -4.7212659e-05
  4.0533778e-05
 -4.7241911e-06
 -2.5967294e-05
  4.2080293e-05
 -6.3748914e-05
  7.7862562e-05
  6.9397597e-06
  5.6024801e-05
  1.4065274e-04
  3.5361849e-05
  7.3296624e-06
  1.0793154e-04
 -1.1180228e-03
 -1.7466539e-04
  5.0417807e-02
  3.7301588e-01
  8.2350394e-05
  2.0716761e-04
 -1.8690313e-05
 -1.3768655e-03
  4.4652604e-02
 -7.1756728e-03
  2.2626482e-05
  6.7222893e-05
 -1.4035888e-04
  1.9033489e-04
  2.0520932e-04
 -5.9615282e-05
  2.2254215e-05
 -3.9176214e-02
 -1.3094748e-03
  7.1110750e-05
  5.9234035e-06
 -1.6217420e-07
 -3.0900119e-06
 -3.9637298e-04
 -1.1951154e-02
  5.8284263e-06
 -4.5230594e-05
 -3.9258433e-05
  7.4816644e-06
 -7.4507276e-05
  4.0358846e-05
 -3.8866265e-04
  1.6388600e-04
  3.8729366e-05
  4.4982135e-05
 -4.4591765e-05
 -8.0197979e-06
  1.0892147e-04
  5.8413560e-05
 -5.5669414e-05
  5.2637650e-05
 -5.0053251e-05
 -2.9335130e-05
  2.5860436e-05
  4.3254850e-06
  3.0429124e-05
  7.4289596e-06
 -1.3853189e-04
  7.0824512e-06
 -3.5074125e-05
 -2.5786346e-04
 -8.1817947e-05
  6.3839121e-05
 -2.1748830e-04
 -3.7602513e-05
 -2.0008192e-05
 -1.8192601e-04
  2.9401130e-07
  9.2073329e-05
 -1.4648490e-04
  6.0125130e-01
  1.1946156e+00
 -7.5545698e-02
 -2.7211218e+00
 -2.7480051e-01
  1.1310914e-04
  1.0523239e-05
  5.2519877e-02
 -5.4753047e-01
 -5.8065325e-02
 -9.6261676e-05
 -6.0330032e-05
  2.2972867e-01
 -9.4577976e-02
  3.0895334e-01
 -1.0764659e-04
 -1.7787610e-05
  3.7191299e-01
  1.1935021e-01
 -1.3364933e-01
  8.4048494e-05
  2.3236002e-04
  2.6516885e-01
  5.5621475e-01
  6.3581097e-01
 -4.8847014e-05
 -1.0302845e-04
 -4.2969506e-05
  4.8173984e-05
 -1.7879359e-01
  1.5905822e-05
  6.6513981e-05
 -3.4804261e-01
 -1.9402565e+00
  1.7295646e-02
 -7.0766138e-05
  1.0379589e-04
  5.0232142e-02
 -2.9984415e-01
  9.8551614e-03
 -4.3576754e-05
 -2.7664335e-04
  2.6574951e-05
 -7.8102150e-03
 -2.8344991e-06
 -5.6208835e-05
 -3.2401778e-05
  2.0970668e-01
  1.0789530e-01
 -6.9054040e-05
 -4.2633375e-05
 -5.5927757e-07
  6.2892631e-02
  2.0910087e-01
  2.9698882e-01
  4.4641249e-05
 -7.5181459e-05
 -4.4317130e-05
 -3.1171448e-06
  3.4765304e-05
 -1.4336830e+00
 -2.5920679e-05
  4.5362238e-05
  5.8069458e-05
  1.0430127e-02
  1.3321030e-04
  1.2158278e-04
  7.8788893e-05
  1.6569387e-04
  1.2771484e-04
 -5.8124086e-05
  1.9148286e-04
  5.9552654e-05
  7.5763323e-06
  1.1524735e-04
 -1.1527224e-04
 -1.2187582e-05
 -4.2209831e-05
  6.2069819e-05
 -1.4393236e-05
 -1.2243963e-05
 -3.3293916e-05
 -9.1636575e-06
 -2.1283604e-05
 -4.0124744e-04
  1.1587765e-05
 -5.9215949e-05
  1.8182512e-04
  1.6518065e-05
 -2.6207475e-05
 -7.9319743e-06
 -4.9817445e-06
 -4.6738182e-04
  1.9871450e-05
 -4.4832541e-06
  4.1406031e-05
  1.4327165e-05
  1.1956583e-04
  9.6492920e-05
 -2.0493576e-06
  2.0238144e-04
 -5.7729898e-04
 -3.4035800e-04
 -2.1070724e-05
 -3.2617891e-04
  1.7595085e-05
  1.8860468e-05
 -8.4384401e-06
 -2.0972157e-05
  1.8110832e-05
  2.1706272e-05
  2.3063334e-05
 -5.3645406e-05
 -9.6857795e-05
 -3.8000267e-06
 -7.9381018e-05
  1.0930040e-04
  3.4821505e-07
  6.0818333e-04
  6.7173940e-05
  2.0051692e-01
 -1.1732996e+00
 -3.4178442e-01
  1.9607619e+00
 -2.3922422e+00
 -1.1205268e-05
  3.5745659e-05
  2.8837984e-03
 -2.4397463e-01
  5.7493496e-01
  3.0815176e-05
 -2.3803717e-04
 -2.9804800e-05
 -5.4649956e-04
 -8.4009072e-05
 -9.1626258e-05
  1.1660956e-04
  1.2065499e-01
  5.7163611e-02
 -3.3958186e-03
 -1.3525600e-05
 -4.5366064e-06
  8.7457784e-02
  1.4285287e-01
  2.9585990e-01
 -4.0590025e-05
  6.9962982e-05
  6.1358100e-05
  4.3064988e-06
  3.8739428e-05
 -2.6817245e+00
 -1.7154530e-04
  1.3012713e+00
  1.2999673e+00
  1.7300047e+00
  4.0157418e-05
 -2.7014069e-06
  1.4108959e-01
  9.0442292e-02
  5.5158693e-01
  1.3156719e-05
 -1.4482103e-05
 -4.8920489e-04
 -9.2168724e-05
 -1.1303955e-01
  7.8355690e-05
  2.8546612e-05
  8.0223232e-05
 -3.2830034e-05
  2.2719438e-01
 -3.3007611e-05
 -5.1763550e-06
 -2.8463926e-05
 -6.7016788e-02
 -8.0210254e-02
 -4.8977272e-06
  1.9492129e-05
  4.5268083e-05
  1.7843562e-05
  1.6371642e-04
  9.5870353e-05
  2.0824703e-04
 -9.2905662e-05
 -1.5945814e-04
 -3.5003191e-07
  1.9868521e-05
  1.5763882e-05
  1.0924303e-04
  2.2312883e-05
  1.0413680e-05
 -5.5931861e-05
 -2.3115574e-05
  4.6843128e-05
 -9.0620024e-06
  3.0233461e-05
 -2.9348615e-05
 -1.9467217e-05
 -2.3202560e-05
 -4.6321617e-05
  6.5448745e-05
 -1.8579724e-04
  3.3582062e-05
  1.2533001e-04
  2.0974987e-06
 -1.1254397e-05
  2.8331906e-05
  2.0858757e-05
 -1.5267053e-05
  5.3489767e-04
 -9.9642939e-06
 -1.2575902e-04
  1.4871702e-04
  6.3231014e-06
  2.4246165e-05
  1.4353757e-04
  4.8475504e-05
  3.5403500e-05
 -3.3559656e-05
  6.1591709e-05
 -3.1873791e-05
  1.4569177e-04
  1.0244866e-05
  9.8865094e-05
  1.5767524e-04
  4.3193584e-05
 -1.9858473e-05
 -3.6287347e-05
  1.1519554e-04
 -1.4686567e-04
 -2.7024149e-04
  1.4553117e-05
 -1.1439006e-04
 -3.9034257e-05
 -1.1908913e-04
 -2.7813454e-04
 -5.9788734e-05
 -1.4525709e-04
 -6.3642528e-06
 -4.5221477e-05
 -5.6062010e-05
  1.3443983e-04
  2.7832890e-05
 -5.8287031e-05
  2.7442920e-05
  9.3727002e-05
  5.3458090e-05
 -9.0472473e-05
  9.5180607e-05
 -3.6175563e-05
  1.0792340e-04
  1.9095634e-04
  2.3445932e-04
  3.6053549e-05
  1.3873617e-05
  2.9126144e-05
  1.4963491e-04
 -4.2094038e-05
 -1.0780667e-04
 -6.6038356e-06
  2.6160158e-05
 -7.4235948e-05
 -8.1762992e-05
 -2.3641045e-05
 -5.0512881e-06
  2.5308170e-04
  1.2336242e-04
  2.4869082e-06
  2.9866738e-05
  3.2920430e-05
 -9.1725975e-05
 -6.4028012e-05
  2.3589911e-02
  3.8874269e-01
  2.4408971e-01
 -2.1511263e-01
  1.0837113e-05
 -6.7442998e-05
 -1.8548194e-01
  1.8321443e-02
 -1.6621487e-02
  2.5508014e-04
 -8.1711856e-05
 -2.6764217e-04
  1.2438060e-02
  7.1427999e-03
  7.7614226e-07
 -9.2848612e-05
 -3.9383757e-01
 -8.0781139e-02
  3.7503135e-04
  7.6421609e-05
  1.9098862e-04
 -6.5511151e-04
 -8.5775107e-02
 -1.2869070e-01
 -3.6260212e-04
  4.0276715e-05
 -6.3342770e-05
  1.0560987e-05
  1.4883153e-04
  1.6199026e-04
 -9.5945252e-06
 -1.6603190e-05
 -7.6335651e-05
 -2.6236377e-05
 -1.7367978e-05
 -6.8876448e-05
 -8.5297062e-05
  1.4617063e-04
 -4.1357930e-06
  1.6314116e-05
  2.8930301e-05
 -2.1368271e-05
 -3.3460265e-06
 -1.8505675e-06
 -1.2798684e-04
 -3.9426071e-04
 -1.0915802e-04
  2.6544308e-06
  8.0394813e-05
 -1.0325301e-04
 -1.8729574e-05
  4.5390943e-06
  6.8626257e-05
  6.7243695e-05
  3.4232795e-05
 -1.2742206e-04
  3.1932297e-05
  1.1985653e-05
 -3.9837760e-05
 -2.7103877e-05
 -9.1508242e-05
  4.0967003e-05
 -1.1315034e-05
 -5.6026158e-05
 -2.6098863e-04
  1.0595185e-05
 -7.0033289e-05
  3.6497382e-05
  6.0428851e-05
  1.0437337e-05
 -3.6543479e-05
  2.2737649e-05
  4.5071854e-05
 -2.9509974e-01
 -2.0425252e-05
  2.1587857e-05
  8.7288143e-05
 -3.3673688e-05
  6.2663576e-06
 -2.4690529e-05
  1.6407286e-04
 -3.5110599e-05
 -6.5474385e-05
  8.3400746e-06
 -2.0888932e-05
  1.9420657e-05
  9.6330305e-06
 -1.2184959e-05
 -2.1783453e-04
  7.2806077e-05
  5.7873411e-05
 -7.2027382e-04
 -9.1903221e-06
 -2.0341909e-05
 -3.4139288e-05
 -1.5460904e-05
  5.7899556e-04
 -1.3220892e-05
  4.1769105e-03
  8.9206020e-05
  2.1679452e-06
  7.6437602e-05
  3.9126473e-05
  2.7321255e-06
  3.6243411e-05
 -7.1120478e-05
  1.1281929e-05
  1.1273570e-04
 -3.7827069e-04
 -5.9868552e-07
  6.3904367e-06
  3.1326944e-04
  3.0611231e-05
 -8.9850737e-06
 -1.4922092e-05
  7.4405722e-07
 -1.9754886e-04
  1.6241870e-04
 -6.9085843e-05
 -3.1320160e-05
 -1.1381556e-05
 -1.5298157e-05
  2.3182856e-04
 -2.4184546e-05
  3.4980223e-04
  1.2856272e-08
  4.3420070e-05
  7.1863797e-05
  1.1157572e-04
 -8.5919761e-05
  1.2743010e-04
  9.7684737e-05
  3.4307893e-06
  1.7540411e-04
  8.8256878e-05
  5.0768769e-05
  1.1622002e-04
 -1.6066460e-05
 -1.3322603e-04
 -1.0830831e-04
  1.1894578e-04
  6.0097438e-05
  2.0358800e-04
  7.2191563e-07
 -3.2922282e-05
 -7.4358788e-05
 -1.8967838e-05
  2.3780226e-06
  2.9826308e-05
 -1.6096866e-04
 -1.5920701e-05
  2.9005048e-05
  2.2423306e-05
 -4.6805992e-05
 -6.8525883e-06
 -2.5601101e-05
  1.8679200e-05
 -5.1825010e-04
  5.2089377e-05
  1.9253122e-05
 -3.5916342e-05
 -4.4065790e-05
 -7.4233044e-06
 -9.6381154e-05
 -1.9305882e-01
 -1.1588774e-03
  5.5119384e-05
 -3.1104594e-06
  9.9591867e-05
  4.2464286e-05
  3.0729159e-05
  8.9503039e-05
 -3.3073498e-05
 -9.5452160e-06
 -8.8392881e-06
 -1.3754400e-04
 -2.7224165e-05
  2.9065111e-05
 -3.2527900e-05
  9.4099123e-06
 -6.0351122e-05
  9.3602932e-05
 -4.4957465e-05
 -2.6693782e-05
  3.5501878e-05
  6.1187107e-05
 -2.1917184e-04
  1.6455133e-05
  1.4507664e-05
  4.1985215e-05
 -5.7564168e-05
 -1.2243860e-05
  6.8420100e-05
  1.7549506e-05
  1.9460558e-05
  1.1125467e-04
  6.1999963e-05
  2.7397709e-05
  5.1599538e-05
  6.7989728e-05
 -4.9428196e-05
 -4.7988575e-05
 -6.6452799e-06
 -3.1378589e-05
 -3.3807271e-04
 -4.5873199e-05
  3.3523697e-02
 -5.3492658e-05
  7.9505899e-06
  4.6008846e-01
 -3.3288663e-05
  1.8321418e-05
 -1.5655860e-01
 -1.7704602e-01
  5.8991092e-05
 -6.4662904e-02
 -5.3831357e-01
 -8.2990986e-01
  1.2151883e+00
  9.9487705e-05
  5.0430746e-05
 -1.7609927e-01
 -1.5046169e-05
 -2.1942383e-01
  3.9245275e-01
 -1.0155507e-01
  3.6483889e-05
  1.3496602e+00
  1.1672211e-01
  4.6531779e-05
 -4.8691766e-07
 -4.7276008e-01
 -5.4898822e-01
 -1.8440392e-04
 -7.8780758e-05
  4.4030985e-01
  1.4177873e-04
  1.4067165e-05
 -9.4269606e-05
 -7.8411216e-01
 -2.0528169e-04
 -4.0423645e-05
  1.5267816e+00
 -2.5862026e-01
 -1.3921873e-01
 -1.1849401e+00
 -1.7204568e+00
  1.7700727e+00
  2.1113970e+00
 -2.1253516e-05
 -3.6857266e-05
 -9.0854901e-01
 -8.6795117e-05
  2.4610682e+00
  1.6433339e+00
 -7.1319121e-01
  1.0844989e-04
  2.2602885e+00
 -2.3123717e+00
 -2.4596256e-05
  6.4027408e-05
  1.6506620e-01
 -1.3019683e+00
 -3.8146134e-02
 -4.7354606e-05
  6.6401410e-01
 -1.4642039e-06
  1.0166324e-04
 -7.3937874e-05
 -6.3287509e-05
  1.0791297e-01
 -3.5660152e-05
  6.3532275e-06
  3.6799891e-05
 -2.3679228e-05
  2.7045431e-05
  5.5090211e-05
 -8.5550055e-06
 -2.1455825e-04
 -3.5117944e-05
  1.6988043e-04
  4.3856930e-05
  9.2346228e-05
  1.1047132e-04
 -1.3882064e-05
  2.7379510e-05
 -7.1344439e-05
 -5.8174253e-05
 -2.5152916e-05
  5.2100240e-05
  1.4388806e-05
 -2.4950770e-05
  2.3735236e-05
  2.6566200e-05
 -4.5140998e-05
 -2.6553875e-05
 -7.6898323e-05
  3.6979742e-05
  2.7932645e-05
  6.6079156e-06
  1.2465926e+00
  2.7813830e+00
 -4.2816648e+00
  1.4680043e+00
  2.1244736e-01
 -1.4446513e-01
  2.6683393e-01
 -2.7911270e-02
 -1.4876217e-06
 -7.9185627e-02
  3.1911150e-01
  6.2990993e-01
  7.9657227e-02
 -1.0591910e-01
 -2.4555558e-01
  1.9126983e-02
 -6.0262942e-01
  9.8371595e-02
 -1.8939199e-01
 -5.2584569e-06
 -9.4959425e-05
  6.0929437e-05
 -3.2854582e-06
  4.6864909e-07
  2.0611411e-04
 -7.7450578e-04
 -4.6159286e-05
  3.2799660e-05
 -1.4567545e-04
  1.6149307e+00
 -1.0259277e-02
  5.4834712e-02
 -1.5697727e+00
  3.8616687e-01
 -6.7460650e-01
  5.7293696e-04
  2.1244712e-01
  2.4617490e-04
 -1.1081986e-04
 -1.3261448e-03
 -3.7586651e-05
 -4.3683547e-05
 -1.3604572e-05
 -8.5274130e-02
  1.4545217e-04
  6.7828532e-04
 -3.7334594e-03
 -2.8339375e-04
 -9.1820740e-04
 -6.3484244e-05
 -2.6263740e-05
  5.0069671e-06
  1.2502172e-04
 -3.9300276e-03
  1.9683519e-05
 -7.4098760e-05
 -1.2874126e-04
  2.5570072e-04
  2.4858137e-04
 -1.0998110e-02
  1.2458465e-01
 -1.7695637e-02
 -9.5904034e-05
  3.0671963e-02
  1.2223477e-02
 -2.5929750e-05
  1.2380437e-08
  9.6393138e-05
  1.4046894e-02
  3.3626647e-04
  5.1314659e-05
  8.0596212e-05
  7.3023717e-04
  5.1237599e-05
 -9.8845914e-05
 -3.8310060e-05
  1.4782084e-04
  2.6864946e-04
  2.8923288e-04
 -8.7784647e-06
 -3.9586310e-05
 -7.3701689e-05
  1.8648756e-05
  2.2579525e-02
  1.5576257e-05
  1.1027948e-05
  4.4822456e-05
 -1.1529743e-04
  6.1464270e-05
 -1.6498556e+00
 -1.3927275e+00
  2.5496912e+00
 -4.7056931e-01
  9.8324986e-03
 -5.8102769e-01
 -2.0686972e-01
 -3.7305897e-01
 -5.2001018e-02
 -3.3758882e-01
 -5.2766263e-01
 -6.2756582e-05
 -1.8006827e-01
 -2.4997016e-05
 -1.7803638e-01
 -3.5027829e-03
 -3.7043339e-01
 -4.5416465e-01
  2.6504341e-01
 -2.3031570e-01
  7.3603258e-02
 -1.4609778e-01
 -7.6808226e-01
 -4.0305933e-01
 -3.2621482e-01
  2.2705563e-05
 -4.3015143e-06
  1.1845338e-05
 -5.4687400e-05
  1.7451223e-03
 -6.9129568e-01
  2.2096696e+00
  3.7109065e-01
 -6.0726929e-01
  8.8405963e-03
 -3.6314356e-01
  3.4198589e-03
  8.6577621e-04
  3.3151915e-05
  3.8925233e-01
  3.3891773e-01
  1.8651925e-04
  2.3385124e-01
 -3.2223117e-05
  7.7519792e-01
  2.5648615e-01
  8.6618052e-04
 -1.6194203e-01
  1.8301703e-02
  1.2424592e-01
 -1.4701692e-04
  2.6712713e-01
  3.5920241e-01
 -5.0437022e-03
  6.0744905e-01
  5.6297718e-05
  5.0905634e-05
 -6.8648937e-05
 -3.2323442e-04
 -1.6233616e-04
  8.9062954e-04
  3.8931230e-06
  2.8258582e-05
 -3.6939309e-05
  8.4064079e-05
  7.5444033e-05
 -2.2156109e-04
 -9.8200107e-05
 -4.5000055e-05
  1.1626926e-04
 -2.2190450e-04
  9.4374969e-05
 -4.4589044e-05
 -7.1372589e-05
  1.4834684e-05
 -1.2725292e-05
  3.1939080e-06
  1.2327732e-04
  5.1399289e-05
 -2.3097280e-05
  1.2552961e-04
 -2.1263688e-05
  4.5754240e-04
 -4.2145053e-05
  2.2652979e-05
 -4.0577001e-05
  6.0404305e-05
  1.0903685e-05
 -8.4866060e-06
 -2.6499931e-05
  1.5689241e+00
 -1.0198005e+00
  3.5753029e-03
 -3.5221839e-01
  8.9237136e-01
  3.4193835e-01
 -6.0462389e-02
  2.1900305e-04
 -2.6310299e-04
 -1.9071467e-01
 -3.7658951e-01
  5.9291192e-06
  8.6969711e-05
 -7.7840916e-05
 -3.7758547e-04
 -1.3314202e-01
 -6.8160230e-06
 -4.7884122e-03
 -2.2298087e-05
 -1.4546748e-01
 -6.6802932e-05
 -2.4716853e-01
 -3.9265218e-05
  3.4295533e-02
 -8.6150043e-02
  7.9548033e-04
 -1.0099824e-04
  2.7469903e-05
  4.1033629e-05
  1.7714361e-04
  4.0580209e-05
 -9.8122038e-02
 -2.3098677e-05
  5.6115317e-07
  1.0368442e-04
 -4.7751058e-05
  7.8217214e-05
  9.7369273e-05
 -6.1711171e-06
 -2.3489087e-04
 -1.5611220e-05
 -5.3050742e-05
 -1.8436911e-05
  8.9182475e-05
 -1.0385446e-03
 -7.6576525e-06
  7.6182296e-05
  1.2780071e-04
 -6.1679406e-05
  3.2002394e-05
  7.0966882e-05
  3.9363211e-05
 -2.2002911e-05
  7.7247161e-05
 -2.0660441e-04
  9.2259485e-05
 -5.7704333e-04
 -9.7772718e-06
  1.0670951e-04
  1.6438761e-06
  3.1618718e-02
  2.1231090e-05
 -1.4386541e-05
 -5.8200025e-05
 -4.2959051e-05
 -2.0251088e-04
  1.9051747e-04
  6.7603169e-06
 -3.4084776e-05
  2.7226799e-05
  7.8597826e-05
  5.8365877e-05
  2.1328162e-05
  3.1108098e-05
 -7.3474679e-05
  1.4285893e-05
 -1.1214312e-04
  8.6400680e-05
  3.2650270e-05
 -2.1352556e-04
 -3.5746364e-04
  2.6919166e-05
  1.1640572e-05
  1.0902542e-04
  5.9881957e-05
 -1.9451052e-06
 -2.7263536e-06
 -7.3079274e-05
 -2.8791566e-05
  3.8234808e-05
 -6.1081612e-01
  3.6621578e+00
  3.6140259e-02
 -5.6881052e-02
 -1.5394455e-01
  2.7186182e-01
 -1.2394881e-02
 -3.0105786e-02
 -6.8118140e-02
  8.8210061e-02
  1.5679495e-01
 -1.5185190e-04
  2.8296918e-01
 -8.5656275e-06
  6.2088114e-01
  9.3715541e-02
  3.8359170e-03
  9.9925935e-01
  1.4480447e-02
  2.0567605e-01
 -1.4517017e-01
  7.5944561e-01
  9.2960352e-01
 -9.5794481e-01
  7.5711685e-01
 -4.0032231e-05
  5.5476390e-05
 -4.1235489e-05
 -1.6949499e-04
 -1.6623244e-03
 -1.6921779e-04
  7.4832627e-05
 -8.4295725e-06
 -1.8388253e-04
  2.6926911e-05
  4.3090069e-05
 -1.4591319e-04
 -4.6830162e-05
  2.0497795e-05
  1.0916901e-05
 -2.5083429e-05
  4.8513743e-05
  1.6733010e-06
 -1.2109681e-03
  1.9908946e-05
 -7.1709641e-05
  4.5573132e-05
  1.6693636e-04
  1.7095483e-06
 -3.7158077e-04
 -4.7388970e-05
 -8.8362591e-05
  2.1824626e-05
  1.3177178e-04
 -1.3474809e-05
  7.7478298e-06
  9.8796299e-06
  1.6278016e-05
  1.5268398e-04
 -1.5019935e-05
 -1.8916517e-05
  2.6581589e-05
  2.3253919e-05
  7.8801223e-04
  2.1106713e-05
 -4.7544687e-05
  1.1275347e-04
 -7.8855272e-05
  9.7550399e-04
  6.1519437e-05
 -3.7640853e-05
  3.9771345e-05
  2.6154989e-05
 -1.3210195e-04
 -6.1831604e-05
  1.3265046e-04
 -1.3960460e-04
  4.2867431e-04
  6.0739501e-05
  4.1164258e-01
  9.3442941e-07
  9.0242893e-06
 -2.4172463e-04
  3.7644724e-05
 -6.6572284e-05
 -7.5832686e-05
 -1.5814067e-05
 -3.9585768e-05
 -2.6920719e-05
 -1.5778797e-04
  5.4056400e-06
 -7.6422803e-05
 -1.2616008e-04
  9.4097049e-06
 -1.6661621e-04
  5.8327430e-07
  1.2044123e-04
 -5.6577748e-05
 -1.0995213e-04
  3.9927454e-05
 -1.7654560e-04
 -9.7100266e-05
  3.1434506e-06
  4.8248588e-05
 -2.2423982e-04
  5.6726592e-05
 -4.2997664e-05
 -1.1382622e-04
 -6.1839339e-05
  4.6323257e-05
  6.0492654e-05
  1.2665203e-06
  1.5529375e-05
 -1.0009901e-05
  2.3002329e-04
  6.3733191e-06
  3.8247108e-05
  2.7485035e-05
  1.9252479e-05
  4.6662284e-05
 -6.1728817e-05
 -3.9748506e-05
 -4.0816751e-05
  1.5945261e-04
  5.4199209e-05
 -1.0602705e-05
  2.4019868e-05
 -9.8938501e-05
 -2.1364120e-05
 -7.6397009e-05
 -3.4968540e-05
 -1.4287690e-05
  5.6580673e-05
 -3.9769046e-05
  1.4922510e-05
  2.9873159e-05
 -1.5647334e-05
  3.6763118e-05
 -4.1604624e-05
 -1.5378328e-06
 -8.6371067e-05
 -8.7926324e-05
  6.0005787e-05
  3.8170627e-05
 -1.1019286e-05
 -1.1270268e-04
  2.5022446e-05
 -2.0553121e-05
 -1.1964513e-04
  6.5616077e-06
  6.0929418e-05
 -9.0587295e-05
  6.1831447e-06
  8.7870540e-05
  2.5145966e-05
 -1.3733340e-05
  6.0454364e-05
 -1.5074692e-05
  1.8219704e-05
  1.0590335e-04
 -1.5127931e-04
  1.4746750e-05
 -3.9355677e-05
  9.4501505e-05
  4.6957084e-06
  1.3280311e-04
  3.9767485e-05
  5.6794004e-05
  2.8247174e-05
  4.5248180e-05
  3.8543709e-05
 -3.2438285e-05
 -1.6893537e-05
  1.2477522e-04
  5.0289564e-05
 -1.0853659e-04
  2.8065095e-05
  6.7363330e-06
  6.8880414e-05
 -9.9651035e-05
  8.4419477e-01
 -1.2797796e+00
  4.1353518e-01
  1.4270321e+00
 -1.4038315e+00
  2.2294907e-01
 -6.9371179e-02
  4.3730926e-02
 -1.3328682e-03
 -2.3797579e-01
 -4.8930693e-01
 -5.8980411e-01
 -1.7666642e-01
 -3.3542344e-01
 -1.0354222e-03
 -4.3349763e-05
  1.5377253e-01
  4.0726820e-01
  1.3264540e+00
 -3.6496462e-04
  5.8033007e-01
  2.3184081e-04
 -1.3864249e-02
  1.5178337e-02
 -2.4070697e-04
  1.9268082e-04
 -5.7846465e-04
 -1.4600313e-04
 -8.9125373e-05
  8.4093423e-05
  4.7539987e-05
 -1.8500634e-04
  6.4216752e-06
 -2.9558065e-05
  1.4285886e-04
  4.3671016e-06
 -1.2870059e-05
 -1.3433127e-05
  2.0967158e-05
 -1.0547590e-05
 -1.2708880e-05
 -3.1761254e-05
  5.7377845e-05
  2.6624606e-05
  5.3655553e-05
  6.2666280e-05
  3.9446112e-03
 -9.0945810e-05
  1.1341823e-04
  8.3227706e-06
  4.4312869e-06
  7.7750492e-06
 -2.2957745e-05
 -4.0424002e-05
 -1.9716112e-05
 -1.6636420e-04
 -3.1341522e-05
 -5.5359629e-05
  1.1567340e-05
  1.4711695e-05
  3.1019736e-06
 -8.6079353e-06
 -7.4976400e-05
 -1.5380658e-04
 -5.5114806e-06
  2.9618239e-05
  2.9707204e-05
  5.5855086e-05
  1.0589297e-05
 -1.2313695e-04
 -2.0966932e-05
  1.5700403e-04
 -1.8999158e-04
 -3.7611178e-05
 -1.4988595e-04
  3.5504831e-04
 -8.3718769e-05
 -9.5473933e-07
  4.7927741e-05
  1.9284288e-04
  5.8393005e-05
  7.7305289e-05
  9.8516125e-07
  2.1343261e-05
 -7.1153729e-05
 -2.1995727e-05
 -2.4202527e-05
  2.4833786e-05
 -7.1157032e-05
 -9.2633505e-04
  2.9286475e-05
 -1.2557814e-04
 -1.3412898e-04
 -1.4060226e-04
 -6.1370920e-05
  1.3545621e-04
  8.9731824e-05
 -3.5961657e-05
  1.0693375e-04
 -7.2069830e-05
 -1.0262023e-06
 -1.4711937e-05
  1.1034667e-04
 -3.3816981e-05
  1.9999230e-05
 -5.1389839e-06
  2.1954706e-04
 -6.6136505e-05
 -6.7264114e-07
  2.3458757e-05
  2.1254978e-04
 -9.4732699e-05
 -1.5066290e-05
  1.1629850e-04
  9.9246623e-04
  7.6314273e-06
 -1.5806235e-04
  9.9154449e-06
 -1.8175948e-05
  8.1970567e-05
  3.8190017e-05
 -3.7624872e-05
  5.1782143e-05
 -2.7619088e-05
 -1.1789861e-06
  5.8962996e-05
 -1.6476739e-05
  3.2770451e-05
 -1.0474101e-05
 -1.5254155e-03
 -7.9295991e-05
  4.6627887e-04
 -1.7765764e-05
  1.6637905e-05
 -5.6942781e-06
  3.2162956e-05
 -1.2293321e-04
  3.5242178e-05
 -1.0000284e-04
  2.2589345e-06
  5.2635132e-05
 -1.5031497e-05
 -3.7483493e-05
 -1.0007842e-04
  1.2711070e-04
  3.3710560e-06
 -5.1723066e-05
  1.9584535e-04
  1.1380798e-04
 -1.3615610e-04
  1.6040674e-04
  1.8165769e-01
  6.2256775e-05
  1.6790964e-03
 -6.0335497e-05
  1.1184227e+00
  2.7264232e-05
 -9.8125383e-05
  6.6340705e-05
  1.6440425e-04
 -8.3113937e-06
  4.8165282e-05
  2.2986859e-04
  3.4803426e-05
  5.0666667e-06
 -3.7338224e-04
 -7.3954920e-06
  1.4663735e-04
 -6.5551823e-05
  1.3125244e-04
  4.5347828e-05
 -6.6749526e-05
  2.1505526e-05
 -9.1222464e-05
  8.8551991e-05
 -1.3626735e-04
  2.2848713e-04
 -7.5565709e-05
  2.9856374e-04
  2.4350449e-04
  5.0774192e-06
  9.7075385e-01
 -7.2354786e-05
 -1.0064227e-04
  3.4935653e-01
  1.3094871e-01
  5.3073022e-06
 -4.7633278e-01
 -2.7589480e-05
  1.0312212e-03
  3.3702930e-03
 -3.9068327e-05
  5.4361463e-02
 -2.2726004e-05
  8.1922277e-05
 -4.9648850e-07
 -1.4640158e-04
  2.0257862e-04
 -5.0353073e-04
  1.9476921e-03
  8.4522915e-05
  6.0415338e-03
  2.9906610e-04
 -2.5712501e-04
  4.9518649e-03
 -3.2262607e-05
  7.7474215e-05
  3.0818654e-04
 -3.5959907e-05
 -1.0111460e-04
  1.1508146e-04
  3.5913537e-05
 -1.3322938e-04
 -7.2726370e-06
  2.3526978e-04
  4.7120188e-06
 -1.8953424e-04
 -1.7401924e-04
 -9.3745830e-06
  4.8405705e-05
 -6.4379135e-05
 -3.2854143e-05
 -6.4864289e-05
 -2.0715622e-06
  3.8888358e-04
  6.3488151e-05
 -1.3433712e-06
  1.5064496e-04
  3.1622742e-05
  6.0340768e-05
  7.6608099e-05
 -2.7950373e-05
  4.6359269e-06
  8.9348723e-05
 -4.8445017e-05
 -1.4860347e-04
  1.5138071e-04
 -9.0863228e-05
  3.2895081e-05
  4.2531236e-05
  1.9230257e-04
 -1.2349658e+00
 -8.1301814e-01
 -4.3333101e-05
 -1.1207255e+00
  1.1486537e+00
 -1.6341178e-02
  3.5108501e-01
 -2.1989437e-04
 -1.4113931e-01
 -1.0618255e-01
 -1.8004010e-06
 -9.9562138e-05
  1.5468355e-05
 -5.7305475e-05
 -2.2600137e-01
 -4.9278726e-05
 -5.0623469e-02
 -8.0486482e-01
 -6.1480761e-02
  5.3398348e-06
 -1.2821464e-01
 -7.2654270e-06
  2.0849727e-04
 -1.7642899e-01
  5.6400750e-06
 -3.6098692e-05
 -1.1950958e-04
 -3.6863799e-05
  3.2603627e-04
 -3.4975685e-05
 -1.8493298e-05
 -2.3504430e-04
 -5.9578797e-05
 -8.7062426e-06
  2.0636850e-05
 -5.3707001e-05
  4.4878238e-05
 -4.8272450e-05
  5.3753588e-06
  3.1397234e-05
 -1.3720545e-04
 -1.4984135e-05
  1.2864173e-05
 -5.8005910e-05
 -8.1098158e-05
  6.7102112e-05
 -5.6909594e-05
  2.2588636e-06
  1.7892462e-04
  7.9949365e-05
 -1.0842682e-04
 -9.4844918e-06
 -7.2879507e-06
 -2.8385977e-05
 -1.9448703e-04
 -8.2675957e-05
 -1.1550805e-04
  2.6619320e-05
  1.0851293e-04
  1.2774127e-04
  3.2898231e-05
  1.9790002e-06
  2.8860168e-05
  1.4224979e-04
 -2.1610524e-05
  4.6080145e-06
  9.0067704e-05
  1.1100251e-05
  6.4886663e-05
  5.5262630e-05
 -2.6105316e-05
 -5.9829923e-05
  1.4189671e-02
  1.5037153e-04
 -3.6937472e-05
 -2.0036940e-04
  5.6862987e-06
  1.8274462e-05
  2.1337662e-04
 -8.2117585e-05
  9.2261490e-07
 -2.6652380e-04
 -5.1714214e-05
  3.6249068e-05
 -1.3583718e-04
  3.0649637e-05
  1.5765074e-05
  4.0685922e-05
 -5.1557046e-05
  1.0731927e+00
 -1.5305582e-01
  5.6728160e-01
  3.6985934e-01
 -4.4298354e-01
  2.9561333e-03
  6.1885214e-05
  4.1720891e-01
  1.0839509e-04
 -1.2330319e-03
 -3.0155957e-01
 -3.2991201e-01
 -2.2620574e-04
 -2.5935544e-02
 -2.5439535e-03
 -1.8090965e-05
  6.1143827e-01
 -1.7828798e-04
  6.4539604e-02
  1.2683126e-05
  2.0040885e-01
  4.0018169e-04
  1.0440221e-04
  1.2169588e-02
 -3.5436882e-04
  2.6134958e-06
  1.1541752e-05
  3.8120845e-05
 -1.1829630e-04
  1.3532424e-04
  1.3534342e+00
  3.6249795e+00
  8.4864533e-01
 -3.1616173e+00
  3.6749842e+00
 -2.4062718e-01
 -3.3496028e-01
  1.1221762e+00
 -6.1012011e-02
 -1.3523956e-01
 -7.4024695e-01
  1.9408599e-01
  6.7713219e-01
  2.4185330e-01
 -8.2234633e-01
 -6.0236263e-01
  6.1105794e-01
  8.6676860e-01
  2.0060475e-01
 -2.9988512e-01
 -4.2830479e-01
 -1.4917070e-01
 -2.2334233e-01
  2.5549355e+00
 -1.0072974e+00
  5.8809010e-04
 -2.6088428e-01
  1.3283225e-04
  2.6988170e-01
  5.1449303e-02
  4.4307824e-05
 -3.9713421e-05
  1.2895461e-04
  5.9378304e-05
  1.0450640e-04
 -7.0667425e-06
 -1.5217467e-05
 -2.9293200e-04
 -4.2818123e-05
 -7.7077075e-06
 -4.1465999e-05
 -2.3958136e-04
  2.3273860e-04
  7.9142810e-05
 -6.7033419e-05
 -8.7183216e-05
 -1.0106908e-04
 -6.5031330e-05
  1.3485496e-04
  3.8031078e-05
 -2.0509897e-05
  2.4804516e-05
  1.3041098e-04
 -2.9466461e-05
 -1.1368353e-04
  1.1229848e-04
 -6.8986985e-05
  2.1683352e-06
  2.3638720e-04
  1.7506299e-04
 -6.7815097e-05
  1.0398327e-01
  8.1620485e-02
 -8.7659794e-01
  2.0477578e-01
  6.2181079e-01
  8.2786530e-05
  3.2272583e-01
 -1.2602805e-01
  1.1376391e-01
  6.8161023e-01
  5.3041564e-05
 -2.8970246e-05
  3.2868923e-06
  7.8303987e-05
 -3.2641623e-05
  1.0127351e-01
 -6.1972300e-05
  2.6358048e-05
 -5.1353323e-05
 -8.5582860e-06
  7.5006403e-02
  2.0522727e-01
  3.8767343e-05
 -1.6826043e-01
 -4.5161614e-05
 -5.0143019e-05
 -2.7321124e-01
 -5.6612480e-01
  5.5983828e-06
 -1.1453764e-05
 -2.7679625e+00
 -1.7381699e+00
  1.2554861e+00
 -1.9452851e+00
  2.2784266e+00
 -1.1574757e-04
 -1.6932018e+00
  4.8751349e-06
  3.0562351e-05
  2.0042751e+00
 -7.2285249e-05
  5.8061512e-05
  1.4365471e-05
 -1.2907387e-04
  5.1087696e-05
 -2.1750376e+00
  2.0475968e-06
  2.0314295e-05
  4.7670756e-04
 -2.0435413e-05
  6.4326560e-01
  1.0431762e+00
 -9.3890172e-05
 -1.3391308e+00
 -3.7378508e-05
  3.3795208e-01
 -3.2090578e+00
 -3.8292797e+00
 -8.8596440e-05
  2.1830350e-04
 -3.1131281e-06
 -2.0700751e-05
  1.2199584e-04
 -3.6184192e-05
  3.8881412e-06
 -2.9398425e-04
  1.5480911e-05
 -2.2236021e-05
  1.4945955e-05
 -2.9859668e-05
 -2.4662361e-06
 -3.0796757e-04
 -6.9753922e-05
  9.2704831e-06
  6.3588595e-05
  8.3855211e-06
  5.7635178e-05
 -3.5606728e-05
  1.2325214e-05
 -1.1128090e-04
  7.3780866e-05
  2.0420470e-04
 -1.2222666e-04
  5.4652146e-06
  1.0836074e-05
 -3.8572648e-06
 -2.1967850e-05
 -5.0513194e-05
 -9.5889509e-06
 -3.3216307e-01
 -7.0273746e-03
 -8.6446671e-05
  1.6902531e-02
  1.1127004e-04
 -1.1189343e-04
  1.9980190e-04
 -9.6623637e-02
  8.7021105e-04
 -7.5191192e-02
 -2.1649686e-05
  9.3115933e-02
 -2.7151016e-05
  2.1935422e-04
 -1.5338931e-06
  2.3860382e-05
  6.8240850e-05
 -2.5599473e-05
 -2.6466131e-01
 -8.7757222e-02
 -2.0833749e-04
 -9.6417592e-05
 -7.2321385e-02
  5.7529928e-06
 -7.8011945e-02
  2.5896657e-06
 -4.6796401e-04
  5.2612892e-04
  6.4004913e-02
 -5.8872760e-05
  1.1377163e-04
 -3.5684167e-05
  2.5467098e-05
  6.0501527e-05
  7.9120855e-06
 -5.5197597e-05
  2.9454299e-05
 -1.0742056e-04
  1.1310082e-04
  1.6150682e-04
  5.8106254e-03
 -3.4005515e-04
 -4.9754763e-05
 -5.6985173e-05
  2.5015926e-05
  1.2873905e-04
 -6.8341025e-05
 -1.0545512e-04
  4.1243315e-05
 -7.4724427e-05
  7.9091522e-05
 -1.2455313e-05
  3.3515726e-06
 -6.0285707e-05
  1.5055266e-05
  1.6733988e-04
  3.1202955e-05
  1.5010829e-04
  1.0303267e-04
 -1.9734575e-06
 -7.9687670e-06
 -4.4170192e-05
 -5.8411362e-05
  2.6447475e-05
  3.1870459e-05
 -2.7212804e-05
 -4.1497124e-06
 -6.8839188e-05
 -2.5694075e-05
  4.1423031e-05
 -1.2599104e-04
  9.2716378e-05
 -4.3213229e-05
  1.3457473e-04
  4.4451190e-06
 -3.0311880e-05
  1.8028506e-05
 -2.2589839e-04
  6.8892390e-05
 -3.5884823e-05
  2.4305347e-05
  1.3919461e-05
  1.3859070e-05
 -9.2300375e-05
  8.6834589e-05
  2.9477922e-05
  2.0868034e-05
  2.2471460e-05
  4.6889443e-05
  8.3228442e-06
 -5.6905156e-01
  6.1671520e-03
  5.5391097e-01
  4.1616243e-01
 -4.7291993e-05
 -8.1324494e-01
  2.1300425e-01
 -6.3966572e-02
  1.2769347e-01
 -3.8083267e-01
 -3.1964472e-01
  8.6035287e-01
  1.7407203e-01
 -5.9356713e-01
  2.2964135e-03
 -6.3622296e-02
  1.8686683e-01
 -6.8603122e-01
 -8.4464502e-01
 -5.1297678e-04
 -3.8628996e-04
  3.1099662e-05
 -1.5971030e-01
  3.7042812e-01
 -4.6044160e-02
 -1.7600401e-05
 -2.5125811e-04
  2.1160285e-04
  1.3809149e+00
 -5.0035396e-06
 -3.6011174e-04
 -2.5268728e-03
  3.5580288e-05
 -3.9233270e-01
  2.5543128e-04
 -2.9445894e-03
  7.5281516e-04
 -3.4078995e-03
 -4.8816673e-05
  1.2819331e-05
 -2.1733159e-04
  8.1462122e-06
  8.3084342e-05
 -5.9771501e-05
 -1.0019011e-04
 -7.8324396e-05
 -1.6062502e-05
  6.8402890e-04
 -1.6526651e-02
 -3.1848039e-04
 -3.8807041e-03
  4.9811824e-05
 -6.9263647e-04
  6.2891049e-05
 -8.0525078e-04
  1.1557906e-04
 -5.8302604e-02
  2.9576404e-04
  5.0067157e-02
 -1.5013936e-04
  9.6101366e-02
 -2.4865292e-01
 -1.1477344e-04
  1.1723460e+00
 -6.5567181e-02
  7.4399894e-01
  1.6820307e-01
 -5.4282135e-01
  6.2589926e-01
  2.3350678e-01
 -4.4241653e-05
 -5.1920360e-05
  1.4875196e-04
 -6.9148070e-01
  3.5568187e-01
  2.6453607e-05
  1.9256708e-01
 -4.4385623e-04
 -5.9447461e-03
 -3.4718931e-05
 -1.2976264e-05
  1.0681456e-05
  5.6634119e-05
 -3.6819714e-05
 -2.6905071e-05
  7.4636715e-05
  1.4404456e-07
  1.7461109e-05
  7.1827030e-01
  2.5398111e-05
  2.3209474e+00
  7.8338432e-01
 -2.5737295e-01
 -1.6464009e+00
  2.9697227e+00
 -2.5911400e-01
  5.8682140e-02
 -4.4720793e-01
  4.2979899e-01
 -3.2686162e-01
  5.1900262e-01
  2.9369232e-01
 -9.8419406e-02
  9.5981890e-01
  5.2540773e-01
  2.7160011e-05
 -2.3229089e+00
 -2.4355225e-01
  8.1260633e-01
  5.1805633e-01
  3.7402015e-02
  2.4241584e-07
  2.2985595e-01
  8.1462091e-01
  4.4654023e-02
 -9.3713170e-05
 -3.3102396e-01
 -1.1805825e-02
 -5.7026881e-01
 -2.3419211e-02
 -8.6423731e-01
 -1.5706172e+00
 -3.3977965e-01
  1.1195307e+00
 -1.1309355e+00
 -2.0359838e-01
 -1.3794437e-02
 -3.0870944e-01
  1.3474467e+00
 -3.1624591e-01
 -3.1650546e-01
  1.8244776e+00
 -2.6914263e-02
  3.8482019e-01
 -3.5742062e-01
  3.9778438e-06
 -1.2736008e-01
  5.0141907e-01
 -6.3250005e-02
 -1.6415264e-01
 -1.2405851e+00
  2.1442784e-01
 -1.7773244e+00
 -1.2344005e+00
 -7.8100753e-01
  7.0696238e-05
 -3.0682042e-01
  3.2862690e-01
 -7.2071296e-01
  1.4656234e-01
  1.4671400e+00
 -5.6395873e-02
  8.1126520e-05
  7.7232677e-01
  5.7627594e-01
 -1.5148260e-01
  1.3557852e-03
 -3.4687713e-01
 -7.0603287e-01
 -2.4369029e-02
 -3.3182007e-01
  1.3114076e+00
  7.3970312e-01
 -4.1545075e-01
  2.3627699e-04
 -6.1526620e-01
  2.5694765e-02
 -2.5216961e-02
 -8.0375308e-01
  1.3918976e+00
  1.8965978e-02
 -1.7334963e-01
  6.2651448e-02
  5.1213896e-01
  1.1153697e+00
 -1.1890539e-04
  5.3352064e-01
 -4.0460225e-02
  8.6784536e-01
 -1.4710275e-05
  1.1749822e-04
  1.7104810e-05
 -2.0105508e-05
  7.3717943e-05
  2.4111843e-04
 -1.3927484e-04
  3.3414872e-05
  5.8514357e-04
 -5.7245663e-05
 -1.8148897e-06
 -1.0489248e-04
 -8.8984016e-05
  2.0334361e-05
  1.8377286e-04
 -2.1821968e-04
  3.3742672e-05
 -5.3954060e-05
  1.4475600e-05
 -3.8957012e-05
 -5.2314201e-05
  1.0632229e-05
 -7.6388578e-06
 -1.4834719e-06
 -3.5032153e-05
  1.5583113e-05
  1.1341803e-04
 -1.7322282e-05
  1.6260715e-06
 -3.1873038e-05
  1.0432609e-04
  2.9634153e-05
  6.1734412e-05
 -1.1585574e-06
  3.6276790e-05
 -3.5219949e-05
 -3.5236101e-07
  7.7458921e-05
 -1.7516668e-05
 -8.9869885e-05
  9.8995384e-05
 -7.9834281e-05
  3.1549376e-04
  2.8472121e-05
  6.0114737e-05
  5.2770425e-05
 -1.8835592e-05
  4.0706235e-04
 -1.2848624e-05
  8.9219757e-06
  7.8430443e-05
  2.8483555e-04
 -7.7901044e-05
 -5.1524839e-05
  6.9616333e-05
  1.7127252e-04
  8.5538129e-05
 -4.1732724e-06
 -1.1830267e-05
 -4.2019365e-05
 -7.0040893e-05
  1.6840803e-04
  8.9001846e-01
 -5.3359487e-05
 -3.1825562e-05
 -2.8925814e-04
  7.1651954e-03
  8.8047259e-02
 -4.3831629e-01
 -1.2840243e-01
 -4.9526471e-04
 -3.7065890e-02
 -1.3332983e-04
  4.2717112e-03
 -1.0995705e+00
 -6.8352365e-06
  1.8754066e-04
  2.3787847e-04
  1.3607803e-04
  8.4143776e-01
  3.8431306e-05
  5.4976845e-05
  2.0673144e-05
  9.7575961e-05
  1.5303029e-05
  1.5692406e-04
 -2.6910714e-04
  3.2972974e-05
 -3.5123023e-05
  1.7799989e-04
 -1.1019718e-04
 -3.1958151e-01
 -1.9522533e-01
 -4.3087533e-01
  2.4030797e+00
  2.2088757e-02
 -3.8180378e-01
 -2.9721914e-03
 -3.1796101e-01
  1.3286139e+00
  6.5292954e-02
  1.7504396e+00
  1.2259293e+00
 -3.5988483e-01
  1.7792937e+00
  3.3563307e-01
  1.7335493e-05
  3.0042673e-02
  8.8343763e-01
  6.8634975e-01
 -7.8870682e-03
  4.7309718e-01
  1.0600488e-02
  4.2299139e-01
 -1.0882127e-01
  9.0178770e-01
 -8.0899754e-06
  1.0044897e-01
 -1.3389328e-01
  2.3749624e-01
 -1.2657505e-01
  3.0498995e-05
 -9.2567571e-02
  3.7623423e-03
 -7.6611108e-01
  2.8509152e-01
 -5.6252562e-02
 -1.7922291e-01
  1.9033065e-01
 -2.6563772e-03
  1.5641496e-01
  2.5277838e-01
 -3.1769821e-05
 -9.8905951e-02
 -1.0723153e+00
  1.5379086e-01
 -3.1741252e-04
 -2.5102816e-05
  3.2257190e-05
  1.8665317e+00
  6.4551061e-01
  1.2153218e-04
 -9.8328667e-07
  8.5101550e-05
  3.7080150e-05
  1.4907100e-04
  1.4034205e-04
 -2.9820971e-05
 -1.7404196e-05
 -1.7823803e-01
  4.6033219e-01
  3.0447494e-05
  7.5766444e-01
  4.9230173e-01
  6.5631582e-03
 -1.5076351e-03
  1.3485917e-01
 -1.0021742e-01
  6.1088258e-01
  3.6670372e-02
  1.3297498e+00
 -5.1483494e-01
  7.6439291e-02
 -2.0563006e-02
  1.9575366e-01
  1.4477321e+00
  8.5797241e-05
  7.9920457e-05
 -3.3577662e-02
 -2.5230277e-01
  9.3089432e-01
  7.7346995e-05
  2.6635738e-05
 -1.1596699e-06
  1.2740351e-01
  1.4818426e-04
 -1.8201430e-05
  4.7297232e-05
 -4.3648729e-06
 -8.0923189e-04
  1.4610849e-04
 -1.1208825e-04
  3.1933534e-05
  2.3578461e-04
 -1.3517049e-04
  1.5802076e-05
  1.5042548e-05
 -4.4511286e-05
  2.2059087e-06
 -7.4731611e-06
  3.2731232e-06
  2.4242789e-05
 -2.3862283e-05
  1.7192621e-06
  2.1025246e-05
  4.9804905e-05
 -8.3388222e-05
 -1.1040935e-04
 -1.9237791e-04
  4.4599063e-05
  6.2166824e-04
  4.7630376e-05
 -1.0132349e-05
  4.0156036e-07
  2.3365505e-05
 -1.7533166e-05
  9.8993107e-05
 -2.2783002e-04
 -4.1118157e-05
  1.0012176e-05
  1.5487687e-05
 -6.6361266e-05
 -5.2463518e-05
  1.5827580e-04
  5.0515559e-02
  1.6243323e-05
 -7.4934498e-05
  5.5364682e-03
 -5.4394412e-03
 -1.5646048e-01
 -1.2450626e-04
 -9.7487165e-05
  4.9546385e-01
  1.1410967e-05
  1.9725094e-02
 -3.6173558e-04
 -2.9034777e-06
 -2.7320802e-04
  8.2264392e-05
 -7.2781877e-03
  1.6306280e-05
 -1.5263286e-04
 -9.7650991e-05
 -3.4063123e-05
  2.7269183e-05
 -3.7889709e-05
  1.3674816e-04
 -1.8357362e-04
  9.8497794e-06
  4.7724105e-02
 -3.0898539e-04
  4.9967365e-03
  2.9076049e-02
  3.9507100e-05
 -5.2000061e-02
 -3.7172653e-05
  2.6864544e-02
 -1.2822771e-04
  3.7466317e-02
  2.2380874e-01
  2.6851995e-02
  2.0671039e-05
 -8.5422195e-02
 -6.0856231e-03
 -4.4592183e-02
 -4.0667014e-06
 -1.6414707e-04
 -1.1302683e-04
 -7.7908706e-05
 -1.0590605e-01
  1.7168349e-01
  1.0692548e-01
 -8.1646003e-06
  2.4279143e-01
 -1.1031950e-03
  3.2049823e-01
  3.6716252e-04
  4.3311156e-02
 -3.5347072e-03
 -2.0760668e-02
  1.7838562e-02
 -1.5167694e-01
  1.1737338e+00
  2.8550875e-01
  9.9588549e-01
 -1.5682471e+00
  6.5564686e-01
 -6.7482954e-01
 -3.3077863e-01
  6.6225994e-01
  4.4945189e-01
 -2.5816730e-01
  4.8100576e-01
 -3.1034303e-06
  2.8229849e+00
 -4.2977394e-03
  7.6177898e-03
 -1.1660026e-06
 -4.2308192e-03
 -3.4487349e-04
  5.0207484e-05
 -2.6615693e-05
  2.5447627e-04
 -4.6395755e-04
  3.2961407e-01
 -8.3259685e-05
 -9.9648896e-05
  1.9281772e-05
  8.4986488e-05
  2.1387145e-04
 -4.4552071e-05
  1.3036949e-04
 -4.7420803e-05
  6.2380935e-04
 -6.9721568e-07
 -1.2957823e-04
  1.7145781e-04
 -1.1424698e-05
  1.2758171e-05
 -1.4340327e-04
 -1.8745917e-05
 -1.6909402e-05
 -6.5907487e-05
 -1.4050461e-04
 -9.9327219e-05
 -1.8992321e-05
  2.1611386e-05
  9.5147436e-05
 -9.4774950e-05
 -3.8120048e-05
 -2.0677551e-06
 -7.8519326e-05
 -4.2950225e-05
 -1.5695465e-05
  4.5305183e-06
 -7.3511073e-05
 -3.6508860e-05
  2.7533573e-05
  1.0195620e-04
 -3.6308924e-05
  4.8572518e-05
  2.4383030e+00
  1.0535058e+00
  7.7745163e-01
  2.4460260e-02
 -5.2078635e-01
  2.3363884e-01
  8.2499695e-01
 -7.1618474e-01
 -1.4062236e-01
 -4.0616221e-03
  5.0220486e-05
 -2.2092184e-01
  8.1065315e-01
 -1.5172786e+00
  1.2402759e-03
  6.3626222e-02
  9.0463716e-01
 -5.5985562e-05
  1.5266256e-01
  3.9050233e-01
  4.0641385e-03
  5.1973300e-05
 -9.3615781e-05
 -1.2881424e+00
  3.1445330e-04
 -2.3289396e-05
  3.3749852e-01
 -2.1050614e-06
  2.8382870e-04
 -1.1582550e-04
 -5.9313845e-04
 -1.2691779e+00
 -1.0435163e-01
  1.8338161e+00
  8.2701999e-01
 -4.0343252e-01
  7.4616754e-01
 -1.0379437e-01
 -6.2595576e-01
  7.5498216e-02
 -3.6523798e-01
  2.6504880e-01
  2.7729295e-02
  2.9859960e-01
 -2.5010628e-01
 -1.3690461e-04
  5.6840684e-02
  1.7012471e-05
  3.0158502e-01
  2.9885052e-05
 -2.0597181e-04
 -1.5248949e-05
 -3.9500788e-05
  1.7190671e-04
  2.7759970e-05
  2.1429527e-05
 -3.4840370e-04
  2.5131678e-06
  5.9922915e-02
 -2.0739381e-01
 -2.0169156e+00
  5.4849619e-01
  1.9458531e+00
  2.6129425e+00
 -2.3824611e-01
  2.8936663e-01
  7.6800305e-01
 -2.6418871e-01
  5.2221608e-01
 -4.3883342e-01
 -6.3777596e-01
  2.3986006e+00
  2.7287567e-01
  2.4238365e+00
 -7.2679698e-01
  4.4859871e-01
  2.6116756e-01
 -6.8018663e-01
  1.4867728e+00
  1.7411454e-03
 -5.4155146e-03
  6.6898536e-04
 -3.9507005e-01
  4.1363865e-01
  1.7017563e-05
  6.7358182e-05
 -2.3101226e-03
  6.0998356e-01
 -6.0786974e-01
  1.0230433e-05
  2.0699519e-01
  2.6368300e-05
  1.3365585e-04
 -1.3578417e-04
 -1.0404090e-06
  1.8350853e-05
  5.0502636e-05
  1.0372838e-05
  1.1755142e-04
  6.7525543e-02
 -5.6707677e-06
 -4.7720612e-05
  3.6300564e-05
 -8.7821022e-02
  3.4925451e-05
  2.3429451e-05
  4.9176884e-07
  1.1374660e-04
  6.8193360e-05
 -8.5839565e-05
  8.7703766e-06
  3.1380841e-05
  3.0479225e-05
 -3.6916917e-05
  4.6176076e-04
 -1.9026373e-05
 -8.6458771e-05
  3.2859676e-05
 -1.6902888e-01
  7.4714217e-06
  2.0629472e-05
  7.3348689e-05
  2.8782135e-05
 -5.1465809e-01
  8.2537645e-01
  9.2580176e-06
 -5.9806591e-01
 -1.4962958e-05
  2.3824038e-01
  1.5750334e-01
  4.4244269e-04
  1.7216970e-04
 -8.6290951e-05
  8.9439452e-03
 -3.6512306e-01
 -1.2228398e-04
 -1.5586065e-05
 -5.6426619e-05
 -1.3513460e+00
  2.2634266e-04
  1.3771045e-04
 -4.9441827e-05
  3.7228513e-06
 -1.5269101e-05
  3.8552281e-04
 -2.2984412e-04
  2.6784854e-05
 -1.8241823e-06
 -4.8357639e-02
  3.2067380e-04
 -2.4804942e-02
  3.9327636e-01
  5.0682110e-01
 -8.0849087e-01
  1.2862362e-04
 -1.2040529e+00
 -4.0306342e-01
  1.8075565e-01
  9.1280800e-01
  3.7685145e-02
  2.4401817e-02
  1.3042338e+00
  4.5975235e-01
 -1.2739513e+00
  7.1490921e-02
  3.5194953e-06
 -7.9365354e-03
  2.1860107e-05
  6.6763096e-02
 -1.8012529e-02
 -3.0958243e-03
 -1.9189595e-04
 -1.2559703e-01
  4.0834257e-01
 -9.1979327e-04
  3.9436381e-05
 -1.8226993e-01
  3.3626746e-02
  1.0609672e+00
 -3.2600146e-04
  8.0613454e-06
 -3.0526237e-05
  4.2906402e-05
  2.8961058e-05
 -1.6987613e-05
 -4.5133842e-05
 -4.2394935e-05
 -9.4756193e-05
 -5.4025903e-05
  2.5966833e-04
 -2.6794040e-04
  3.3906002e-05
  3.8917537e-06
  1.7716076e-05
  8.2939405e-05
  7.3601761e-05
  1.3115226e-04
  3.1924625e-05
 -1.4049836e-04
  6.5696069e-05
  4.9808317e-05
  1.3127151e-07
 -7.2561903e-05
 -5.3682179e-05
 -3.1970747e-05
  7.9048827e-05
 -5.3383042e-06
  3.6064233e-05
  3.6949292e-05
  6.8041672e-06
  1.5522659e-04
  3.4924560e-05
 -7.3555733e-05
  1.3238983e-04
  2.9890312e-05
 -1.4462967e-05
  1.4614573e-04
 -4.8867878e-05
  1.0289962e-05
 -4.4005570e-05
  2.2346167e-05
  1.6090808e-05
 -2.6352593e-05
  8.5129672e-05
 -3.2791711e-05
 -8.6843011e-06
  1.1992252e-04
  1.3266628e-05
 -4.1551748e-06
  5.7199872e-05
 -4.7419442e-05
 -2.3940127e-06
  2.3649174e-05
  1.0689744e-05
  3.9327799e-05
  4.7415131e-01
 -2.6548771e-05
 -4.7875557e-05
 -5.6776076e-05
 -1.6972306e-04
 -7.5850047e-02
 -1.5725987e-01
 -2.5884917e-02
 -5.9464210e-01
  5.8465805e-02
  1.0314628e-01
  1.0111427e+00
 -2.9707086e-01
  7.0318781e-02
  3.8197011e-01
 -4.8086457e-02
  3.5566270e-01
 -7.3742020e-01
  2.1716379e-02
 -5.4607999e-01
 -5.7142341e-05
  8.4053743e-01
 -4.0884042e-01
  9.2266041e-01
 -4.2741001e-05
 -1.5265019e-01
  3.4063429e-05
 -2.6005909e-01
  1.4575134e-04
 -1.4838520e-01
  2.1292810e-05
 -1.9199130e-03
  1.5761441e-04
  1.0422620e-01
 -7.1079661e-03
  2.8692221e-04
  4.0772811e-06
 -8.9455880e-06
 -6.6296227e-05
 -1.5016887e-01
 -8.6885638e-04
  4.1209679e-02
 -9.0816253e-01
  1.3864545e-02
  3.0001405e-01
  7.1739973e-06
 -5.1451723e-05
 -3.3925676e-01
  6.8038583e-01
  9.8196685e-01
  1.2476771e+00
 -3.5300705e-05
  4.2860920e-05
 -9.9943776e-05
 -1.9208297e-01
  2.0448962e-05
 -5.8947760e-01
 -1.3959297e+00
  1.5860853e-01
 -6.0099301e-05
 -5.4500848e-01
 -7.6382585e-02
  3.6110377e-04
 -1.9428520e-05
  5.4684055e-01
  1.9048129e-01
 -6.6106147e-01
 -1.0239239e-05
 -1.8520952e-04
 -7.3989761e-01
 -9.8072016e-01
 -5.6744802e-01
  2.4492190e+00
 -2.0674224e+00
  1.4045717e+00
  3.1127040e-06
  1.5545627e-05
  5.9447151e-01
  2.2946506e+00
  7.6085645e-01
  5.9713888e-01
  8.7060020e-05
 -5.0534320e-01
  8.6302263e-01
 -8.7883472e-01
 -2.0278927e-05
  9.6365815e-01
 -6.6354793e-01
 -1.7934591e+00
  4.8403811e-02
  4.7478372e-01
 -9.9592245e-01
 -3.8410589e-04
  9.9163353e-06
 -8.7544155e-01
 -2.4390798e+00
  8.5210913e-01
  5.5342054e-01
 -6.3061523e-01
  2.1527549e-05
 -3.8160771e-02
 -5.1072639e-01
 -1.1605672e+00
  1.1485486e+00
  1.9588907e-01
  3.8666123e-01
  2.2923641e-01
 -3.5223943e-01
 -2.9854106e-02
 -1.7274769e-04
 -6.2985584e-04
 -4.2769369e-02
 -1.4634208e-04
  1.4091443e+00
 -1.7576545e+00
 -8.1726408e-01
  8.8522679e-01
  9.8536551e-01
 -6.7604851e-05
 -1.6861022e-03
  2.3018576e-01
  9.4373816e-01
 -1.5703143e+00
 -2.5652236e-01
  5.1130384e-01
 -2.6725545e+00
 -9.3407899e-02
 -5.9270151e-05
 -1.1625857e+00
  8.8732481e-01
 -9.8153794e-01
  4.5934743e-01
  8.6114895e-01
  1.7591112e+00
  3.9848876e-01
 -3.8126245e-02
 -5.7272369e-01
  1.7789119e+00
 -4.5711431e-01
 -3.6939517e-05
  1.9648345e+00
 -1.2035000e+00
 -2.0619426e+00
  1.1524992e+00
  4.2008701e-01
 -1.2730045e+00
  1.5452669e+00
 -6.4447033e-01
  1.0521643e+00
  9.0093070e-01
 -1.1259085e-01
 -1.1328918e-04
  2.8265291e-01
 -4.6084481e-01
  4.2307341e-01
 -8.1423581e-01
 -2.7439594e-01
 -3.2150936e-05
 -1.7990266e+00
  1.1638130e+00
 -1.0751451e+00
 -1.6400806e+00
  2.4844840e-01
 -1.8993396e-01
  8.8063255e-02
 -1.6356022e+00
 -2.1375130e-01
 -1.5114691e+00
  1.2219696e-01
  4.9587831e-02
 -3.2825238e-01
  8.2986832e-01
  4.1161641e-01
  2.1738369e+00
  1.8693389e-01
  3.5228962e-01
  1.0243415e+00
 -3.2314444e-01
 -4.7379449e-01
 -2.1609999e-01
 -7.0176220e-01
 -3.6245170e+00
 -3.5840601e-03
 -9.6239954e-01
  3.3791283e-01
  1.0631264e+00
  1.0952857e-05
  6.1153173e-06
 -1.6139586e-04
 -1.3285196e-05
 -1.1678982e-02
  2.0417652e+00
  2.7272929e-04
  5.4991723e-04
  4.7945220e-02
 -4.1519199e-04
 -4.5616920e-03
 -3.4061188e-04
 -1.5380718e-01
 -5.2681082e-01
  1.6744487e-01
 -3.5180423e-05
  6.3088763e-01
 -7.6229471e-01
 -1.7759946e-01
 -3.9890802e-01
 -1.0271568e-01
 -1.1299356e+00
 -2.3533866e+00
  5.5182815e-01
  5.6116778e-02
  8.7833174e-02
 -3.6432651e-01
 -1.9895106e-04
 -2.6412099e-04
 -4.6083343e-01
  1.1035497e-01
  8.4891963e-06
  2.2085872e+00
  5.4094809e-01
  6.6834205e-01
  1.7785743e-01
 -7.1707278e-02
 -3.4490298e-05
  2.2959784e-01
 -2.6305982e-01
 -7.8312230e-01
  1.4772973e+00
  1.7393907e-03
  1.8708105e-01
  5.5856806e-01
 -1.7791383e-01
 -3.0235213e-01
 -6.0659003e-01
 -4.5852596e-01
 -3.9676135e+00
 -2.1302198e-04
  1.2978373e+00
 -4.0355865e-02
 -7.5862986e-01
 -1.3602229e-05
 -2.2472684e-01
  2.3499491e-05
 -1.4943467e-04
  3.0650184e-01
 -6.5735400e-02
  1.0475886e+00
  5.4335600e-01
  1.5094194e+00
 -1.4087405e-04
 -5.6499543e-05
 -5.2517813e-02
 -7.4861109e-01
 -2.3623796e+00
  1.2795974e+00
  5.1998639e-01
  1.9975892e+00
 -6.3182235e-01
 -1.4047046e+00
 -1.6742812e-01
 -1.3769393e+00
 -2.0121112e-01
  5.8497638e-01
  8.4719443e-01
  4.6155456e-01
  9.4309628e-02
 -7.3779047e-01
 -1.7806665e-03
 -3.6416285e-02
 -1.0577808e-04
 -2.7548566e-01
 -1.7906643e-05
  2.7208337e-01
  9.5193930e-02
  7.3397008e-04
 -3.3355299e-01
  4.0241539e-01
  3.2102678e-02
 -4.5095086e-02
  1.1367562e+00
 -8.3145787e-05
 -6.2912178e-01
 -3.5680439e-02
  5.5407061e-05
 -9.0364525e-03
 -1.4029401e-02
 -3.1100327e-01
 -8.1286974e-02
 -1.2178183e+00
 -2.8455245e-01
 -1.0813252e+00
  5.1947325e-01
  2.6595190e-01
  1.0904911e+00
 -2.4253067e-01
 -4.1022909e-01
  1.5271885e+00
 -2.2367038e-01
 -7.7703971e-01
  1.9913874e+00
  6.1731339e-01
  1.7616351e-04
 -1.0593193e+00
  5.9936738e-01
  9.5192388e-02
  4.5952806e-01
  6.9112647e-01
  2.7986601e-01
  1.3448782e+00
 -1.1332652e-04
  6.8190712e-01
 -3.9077935e-01
 -7.1415752e-01
 -2.3151301e-04
 -5.3943968e-01
  1.6802006e+00
 -6.9618084e-02
  1.1119648e-01
 -2.9139640e-04
  2.6386597e-05
 -8.5118093e-02
 -3.2511112e-01
 -7.4282810e-02
 -4.9506566e-01
 -2.0064003e+00
 -9.0849054e-01
  3.7117112e-01
  1.1991779e+00
  6.1233626e-03
 -9.5743197e-04
 -1.1466149e+00
 -5.3912175e-01
  3.2652836e-02
 -1.8974452e-03
  1.4491823e-01
  3.7450549e-01
  1.7124631e-01
  9.4673282e-01
  9.6634829e-01
  2.3493638e+00
  2.2392995e+00
 -1.0782605e+00
  1.4309465e+00
  6.0278527e-02
 -1.5936480e+00
 -7.7438605e-01
  1.2189676e+00
  1.1668971e+00
 -4.6831501e-06
  1.3793413e-01
  1.2348290e-03
  1.6599549e+00
  1.8513134e-04
 -2.8447912e+00
  1.2541047e+00
  1.8481563e-01
 -4.2867205e-01
  8.9588964e-01
  4.8357764e-01
 -2.4668232e-01
 -2.1102967e+00
  1.4706780e-02
  6.1921656e-01
 -1.6392727e+00
  2.3005478e-01
  1.6663109e-01
  2.9147258e-02
  1.0367048e+00
  6.0712987e-01
  2.3718667e+00
  1.8655261e+00
 -1.7769661e-02
  1.0686336e+00
  1.4349564e+00
 -1.4198197e+00
  3.7371210e-05
  2.1692191e-03
  7.5979811e-01
  2.0341498e-01
  2.0577574e+00
 -9.9585456e-01
  2.7785442e+00
  8.5010894e-02
 -2.6474338e+00
  1.0956051e+00
  2.0241213e-01
 -2.1213212e+00
 -4.4011471e-01
 -1.2550423e-01
 -1.5114644e+00
 -9.4199240e-01
  4.4138825e-01
 -2.0665927e-01
  9.9837315e-01
  1.9094065e+00
  3.1338507e-01
  2.3539093e-01
  7.0594352e-01
 -4.3295634e-01
 -1.9881470e+00
  3.1274995e-01
  2.9411426e-02
 -2.7272275e-02
  2.3356640e-01
 -9.9342734e-01
  1.6352623e+00
 -1.6063437e-01
  3.7231615e-01
  4.1097990e-01
  6.7409641e-01
 -2.2067611e+00
 -5.1983725e-03
 -7.7377439e-01
 -1.0259029e+00
  1.2940699e+00
  1.4962188e+00
  1.0456133e+00
  1.2136967e+00
  1.8323801e-01
 -5.8224261e-01
 -1.1422175e+00
 -6.8529552e-01
  1.3496379e+00
 -1.4778203e+00
 -5.9562856e-01
 -4.1908273e-01
 -2.3589561e+00
 -4.1987231e-01
 -4.1553911e-02
 -1.8218824e-01
 -3.3172172e-01
 -2.6169766e-04
 -5.3507590e-01
 -1.2626260e-04
  6.3452494e-01
 -7.6346886e-01
 -1.6511223e-04
  8.6780435e-01
 -4.1966869e-06
  3.5444096e-01
 -5.1929945e-01
  8.5843854e-02
 -1.4352657e-02
 -3.2565084e-01
  7.9093176e-01
 -1.8859876e-02
 -1.0468009e+00
 -1.8546629e+00
 -6.2652588e-01
  1.1457317e+00
 -8.9406565e-02
 -2.1953065e+00
  1.3045236e+00
 -3.2625285e-01
 -2.4039631e+00
  6.7141038e-01
 -5.2017331e-01
 -9.3800849e-01
  1.9300884e-01
  1.1269962e-01
 -4.0630904e-01
  7.0323390e-01
  2.8732339e-02
  3.5052522e-04
  1.0249038e+00
 -1.1947768e+00
  6.5666252e-01
 -4.9203339e-01
  3.7350249e-01
 -7.6568162e-01
 -1.4500378e+00
 -8.7161392e-02
 -3.1749481e-01
  8.5080355e-02
 -1.1373127e+00
 -1.0008556e-01
 -1.8230736e+00
 -1.5980644e+00
 -2.8336918e+00
 -6.9299352e-01
 -1.9811561e+00
 -8.8775676e-01
  1.9869013e+00
 -9.8712957e-01
 -1.0929393e+00
 -6.9590199e-01
 -8.5315847e-01
 -1.6606919e-01
 -1.3749826e+00
  5.6567520e-01
  5.1387620e-01
 -4.5644188e-01
 -1.6357937e-01
 -1.4568034e+00
  1.9051627e+00
 -1.4216919e+00
 -2.8725716e-01
  6.3056993e-01
  1.1635609e+00
  4.7131804e-01
 -8.4378606e-01
 -1.4680234e-06
  1.1120437e-05
  5.9599384e-05
 -1.6497588e-03
 -1.2587506e-04
 -2.2358272e+00
 -6.9773251e-01
 -1.2383553e+00
 -3.9871877e-01
 -1.0537654e-04
 -1.4760253e-05
 -8.4556959e-05
  2.8139042e-05
  1.1065054e-05
  5.0935848e-04
 -1.3540056e-06
 -6.9385368e-01
 -6.9808972e-05
  6.3065141e-05
 -9.2864220e-06
  1.2290201e-04
 -3.4663834e-02
 -2.1947706e-05
 -1.2759278e+00
  8.5216218e-01
  5.2796900e-01
 -1.2378963e+00
 -4.9734359e-07
 -1.6434940e-05
  3.5578021e-05
 -6.1961834e-04
  2.8387401e-05
  1.4784379e+00
 -1.0410280e+00
  5.9765184e-01
 -5.7349211e-01
  4.4549186e-05
 -5.5203996e-05
 -2.9969397e-05
 -5.8765628e-04
 -5.9588847e-04
 -5.3843415e-01
  9.0196091e-01
  2.4632299e-01
 -6.4541429e-01
  7.8647296e-05
 -1.4546071e-04
  2.4355271e-05
 -3.7741425e-05
 -5.2534975e-05
 -1.8226758e-01
  7.0183235e-01
  1.0376463e+00
 -8.7652194e-01
  1.8285375e-04
 -3.4605029e-05
  3.2878645e-05
 -1.1081929e-04
 -2.0003072e-05
  4.0196246e-01
  2.6522648e-01
 -1.7154232e+00
 -5.9163886e-01
 -1.6097302e-04
  9.8518132e-05
 -4.7533744e-05
 -1.0517091e-02
 -8.6501830e-05
 -1.5297186e+00
  1.1159090e-01
 -2.0987164e-02
  1.5805289e-01
 -4.6947232e-05
  1.1315131e-04
 -4.0951778e-05
  3.1076474e-05
 -1.0064145e-04
 -2.4039513e-01
  4.9728084e-01
  7.4354094e-01
 -3.3373386e-01
 -1.5710826e-05
 -1.1418422e-07
  1.7837781e-05
 -1.6139072e-01
  6.9559668e-05
  1.2659340e-01
 -7.4255353e-01
  1.3446020e+00
  4.5207672e-02
  2.1185861e-06
 -7.8345445e-05
  1.2800418e-04
 -5.8102207e-05
  3.2303456e-04
  1.9633536e-01
 -2.2090086e-05
  2.2742067e-01
  4.2555006e-05
 -9.5526986e-05
 -1.1225996e-04
 -1.2310647e-04
 -1.0633009e-01
 -8.3347595e-06
  3.0008736e-01
 -7.1540248e-01
  6.5024734e-01
 -8.5670680e-01
 -2.0731757e-04
 -5.1669929e-05
 -4.4074935e-05
 -4.9950362e-05
 -2.1926195e-05
  1.2217110e+00
  3.6721104e-01
 -1.1237482e+00
 -7.2476453e-01
 -3.3461027e-05
  6.3107254e-05
 -8.8015688e-05
 -1.5933148e-04
  7.5563883e-05
  2.9880780e-04
  6.0767893e-02
  3.2398567e-01
  5.5567366e-01
  2.2066433e-05
 -7.9610232e-05
  6.9603789e-06
 -1.2877533e-04
  1.7081282e-01
  7.3784679e-01
  5.9081835e-01
  2.5640724e+00
 -9.1863352e-01
 -1.4188307e-05
  7.8641006e-06
  3.1301082e-05
 -1.8099851e-04
  4.0979587e-05
  1.6475751e-01
  3.2923289e-02
  2.0139927e-01
 -1.3856365e-01
  4.0651663e-05
 -2.9662606e-05
 -2.1148104e-07
 -5.5344979e-04
  7.3304931e-05
  7.5349522e-01
 -4.7422487e-01
  7.0632470e-01
  8.5967702e-01
  2.9449612e-07
 -8.8029061e-05
 -1.4489269e-02
 -1.3079482e+00
 -8.7253662e-05
  1.0448112e-01
  1.5769330e-01
 -5.5781615e-01
  3.4777176e-01
 -9.9185097e-05
 -1.2483164e-05
 -1.0300574e+00
 -4.6018285e-01
 -3.5136047e-05
  6.4324474e-01
  5.1395737e-02
 -4.4547626e-01
 -5.8178395e-01
 -3.1043179e-05
 -4.7283651e-05
 -4.0394309e-04
  3.7406331e-05
 -4.0609608e-05
  1.2831661e+00
 -1.2437715e-05
 -4.3981705e-05
 -3.2563457e-05
  4.9502967e-05
 -8.4275423e-05
 -5.2042119e-02
 -2.4664684e-01
  1.6126106e-04
 -7.0034271e-01
  1.1137644e-01
 -1.8867211e+00
 -3.0519846e-01
  8.3396102e-05
  1.3238618e-04
 -8.2714278e-01
 -3.4652569e-04
 -2.1085469e-05
  2.5797474e-01
 -5.2528214e-01
  4.0962693e-01
 -5.1492679e-01
 -1.0522800e-05
  4.1400428e-05
 -1.0222415e-05
 -2.1007045e-03
  1.7581937e-04
 -9.4241053e-01
  4.3244210e-01
 -4.8343086e-01
 -1.2812505e+00
 -1.5793185e-05
 -8.4422563e-06
 -8.4539616e-01
 -8.4568420e-04
  7.7502649e-05
  3.0853069e-01
  7.3157571e-02
  4.6370751e-01
 -1.1203401e+00
 -1.0347819e-04
 -3.5483401e-05
 -1.0605928e-04
 -1.9505128e-04
 -1.9391668e-05
  1.1110866e+00
  3.6092919e-01
 -4.5093471e-01
 -1.1742154e+00
  7.0720278e-05
 -2.2278694e-04
 -5.8350694e-01
 -2.7474558e-01
 -1.5108781e-05
  3.5538366e-01
  5.8575958e-01
 -1.3172737e+00
 -1.3947372e+00
  4.5687590e-05
  5.7576490e-05
  2.6171488e-01
  3.9020695e-05
  3.8675673e-05
 -3.0752078e-01
  1.8584286e-01
  6.2151229e-01
 -5.8488411e-01
  4.2522434e-02
  7.9082423e-01
 -1.0533463e+00
 -4.3619883e-01
 -3.2643109e-04
  6.7687297e-01
  8.2358134e-01
  9.9414110e-01
 -6.2899786e-01
  5.2959938e-05
  3.0301791e-05
 -1.5494497e-04
 -1.5473679e-05
  8.4250125e-05
 -1.2721251e-01
  1.2173973e-04
  6.8992680e-01
  3.2202752e-05
  2.6712401e-02
  6.6376275e-01
 -6.4464319e-01
 -3.0837649e-01
 -4.8631341e-06
 -1.1217023e+00
  4.1593799e-01
 -8.3051622e-01
 -6.1637789e-01
 -5.6064626e-05
  2.7616910e-04
 -6.4349455e-01
 -8.1979211e-05
 -5.0296378e-05
  7.6650530e-01
 -1.1377408e-01
  8.2207417e-01
  5.2153999e-01
  7.8878561e-03
  4.5784605e-01
  7.9063147e-01
 -3.3777192e-02
 -1.2795089e-05
 -2.0099911e-01
  8.4168792e-01
  2.5451255e-01
  4.3046173e-02
  6.6136621e-05
  2.3152641e-04
  1.6603807e-01
 -4.0971573e-02
  6.9848693e-04
 -1.6652119e+00
 -1.7433913e-02
  2.1613653e+00
 -3.7441212e-01
  1.2196437e-03
  1.2105713e-01
 -1.4722091e-01
 -3.8141552e-05
 -9.4153420e-06
 -1.7953038e+00
  4.9116635e-01
  1.4641435e+00
 -2.5259930e-01
  1.1839854e-04
  3.1576839e-01
 -7.9884273e-01
 -1.5011017e-01
  2.3624823e-05
 -7.5776619e-01
  3.0326152e-01
 -7.8994945e-02
  1.2963946e-01
 -1.4361902e-05
  4.1053543e-04
 -3.5852638e-01
 -5.5571883e-05
 -7.4145333e-05
 -4.4100648e-01
  4.7461766e-01
 -4.7580057e-01
 -1.5320492e-01
  1.2590304e-05
 -1.3813391e-01
 -7.6722622e-01
  1.2058572e+00
 -4.7557169e-05
 -1.3413531e+00
  1.0280352e+00
  7.9607171e-01
 -6.0878086e-01
 -6.6762273e-05
  2.8886177e-06
 -1.1891191e-04
  6.2517021e-05
  2.4581706e-04
 -3.4620371e-01
  7.3007643e-01
 -2.0139587e+00
 -1.6129667e-04
 -1.0989270e-04
 -8.3096288e-02
 -1.5439273e+00
  6.9867373e-01
  5.7808847e-06
 -2.2195511e-01
 -3.1215733e-02
  5.1403284e-01
  1.0863010e+00
 -7.9078200e-06
 -5.1152114e-05
 -2.7633977e-01
  4.9498203e-01
 -1.2880749e-04
 -1.1368006e+00
  9.3023145e-01
 -2.6477796e-01
 -6.0103762e-01
 -3.0678319e-04
 -2.8562190e-05
 -2.9359215e-01
 -5.3525670e-05
  2.1933825e-04
 -1.1269287e+00
 -7.1576631e-01
 -2.8806964e-01
  3.5769123e-01
  2.5317713e-04
 -8.0952508e-04
 -5.3972739e-01
  1.2759227e+00
 -6.5338769e-05
  5.3212535e-01
  1.8438649e-01
  5.7214218e-01
 -4.6742111e-02
 -4.3984596e-06
 -7.3657134e-06
 -9.2593029e-02
 -1.9477458e-05
  4.4676628e-05
  1.5352456e-01
  2.2419655e+00
 -1.8585885e+00
  4.9141392e-01
 -1.5323547e-04
 -4.8731465e-02
 -5.9376061e-01
  9.0906340e-01
 -1.1453536e-04
 -4.1780207e-01
  9.0069935e-04
  1.9747344e-01
 -4.2004356e-01
 -4.4712204e-05
 -4.2363954e-06
 -5.2067846e-01
  1.1612718e-01
  1.5322354e-05
  6.0507804e-01
  4.0302110e-01
 -6.5037012e-01
 -8.1405675e-01
  1.2413758e-02
  1.2413758e-02
  1.2413758e-02
  1.2413758e-02
  1.2413758e-02
  6.7241365e-01
  6.7241365e-01
  6.7241365e-01
  6.7241365e-01
  6.7241365e-01
  1.4738771e-01
  1.4738771e-01
  1.4738771e-01
  1.4738771e-01
  1.4738771e-01
  1.0924964e-01
  1.0924964e-01
  1.0924964e-01
  1.0924964e-01
  1.0924964e-01
  1.6452778e-02
  1.6452778e-02
  1.6452778e-02
  1.6452778e-02
  1.6452778e-02
  1.8038879e-01
  1.8038879e-01
  1.8038879e-01
  1.8038879e-01
  1.8038879e-01
