nep4 3 Ba Zr S 
cutoff 8 4 150 20
n_max 4 4
basis_size 8 8
l_max 4 2 0
ANN 30 0
 -1.2835434e-01
  1.6140575e-05
  3.5007484e-04
  1.3192603e-05
 -1.7890276e-02
  2.3415012e-04
 -2.0257949e-07
 -9.2808384e-04
  2.8401127e-04
 -2.2358243e-01
  8.5012740e-05
  1.0173603e-04
 -6.2171064e-05
  1.7960846e-03
  4.5182274e-05
 -2.0278769e-04
 -1.3339442e-04
 -1.0218612e-04
 -5.6505091e-06
  4.9049078e-05
 -1.2737976e-05
 -1.6089671e-04
  1.4765069e-05
  4.7256868e-05
 -3.8418698e-04
  2.7500125e-04
  4.2397067e-05
  8.3571606e-05
  2.9353632e-05
  6.8783047e-05
  3.1524968e-07
 -2.6714211e-05
 -1.0586217e-05
  1.0495011e-04
  5.4747747e-05
 -3.0159656e-04
  4.3063199e-05
 -4.8195838e-04
 -5.6435947e-05
 -1.4916006e-05
 -1.2035924e-04
  2.0020885e-05
  1.6056292e-06
  1.0263691e-06
 -3.4175603e-06
 -3.9774222e-05
  1.0691774e-05
 -7.8921194e-06
  1.2388692e-04
 -2.1016604e-04
 -5.7424364e-05
 -1.3056803e-05
  1.0117415e-04
  1.2726367e-05
 -8.3726809e-06
  7.6062264e-05
 -8.8183035e-05
 -3.3290333e-05
 -8.2272214e-05
 -3.9414714e-05
  3.3347894e-04
  1.3162632e-05
 -1.1825007e-05
  5.1024366e-05
 -1.9781110e-06
  1.3428678e-04
 -8.1766763e-07
 -7.2675968e-05
  1.5717118e-06
 -1.0536557e-04
 -4.2513020e-05
  8.5235224e-06
  6.2620515e-05
 -3.3348904e-05
  5.0527087e-06
  4.3135085e-05
 -1.0329813e-04
  1.8393679e-05
 -2.6420303e-05
  4.7211124e-05
  5.4528289e-07
 -8.2697778e-05
 -2.9943528e-04
  8.6532355e-06
 -2.7363476e-05
  2.6144412e-06
  8.2882703e-05
  1.1465979e-05
  4.1240484e-05
 -1.3279052e-05
  1.7104263e+00
  1.5816135e-05
 -1.1265134e+00
 -7.1304445e-03
 -1.4797524e-01
  7.5774956e-06
 -8.1537582e-06
  5.9838440e-02
 -4.1561711e-01
 -5.0430125e-01
 -8.8056067e-06
  1.5147084e-05
  7.4841391e-04
 -1.1711482e-01
 -6.1340477e-02
  1.2479925e-04
  2.4183788e-05
  2.2434145e-01
  1.4770907e-01
 -3.0855289e-01
  2.9649122e-05
 -9.0764224e-05
  1.3190171e-01
  1.8632467e-01
  3.3947688e-01
  1.1564091e-05
  4.8852260e-05
 -3.4828936e-05
  1.4172601e-05
 -2.5232867e-04
  1.5438882e-05
  8.6594759e-05
  2.0200093e-04
 -8.8316682e-07
 -1.0940928e-05
  1.3762295e-04
  1.3701043e-05
  1.3584199e-06
  3.7247595e-05
  2.8962200e-04
 -8.2507586e-06
  3.0936637e-05
 -3.8867260e-05
  1.2964252e-04
 -6.2314182e-05
 -1.4645508e-05
 -5.5360833e-06
 -1.8060430e-04
 -6.0511862e-05
 -3.0648367e-05
  3.9998398e-05
 -6.8183239e-05
 -3.5264708e-05
 -2.3873734e-04
  2.2141191e-06
 -2.6978287e-04
 -1.3956692e-04
  2.6843700e-05
 -3.6829070e-04
  6.3362622e-06
 -5.7906009e-06
 -1.5718082e-05
 -5.6769054e-06
  2.0984985e-04
 -1.8753461e-05
  7.4643845e-05
  1.7342021e-05
 -2.7522017e-06
 -5.6448647e-05
  3.4335477e-05
  3.6270023e-05
 -9.4128991e-06
  2.4549270e-05
 -3.2682234e-05
 -2.4233428e-05
  7.5839038e-05
  9.9924946e-05
 -2.2561585e-04
 -6.7273322e-05
  5.4264154e-05
 -1.9750954e-05
 -2.8197062e-05
 -2.9244315e-05
 -5.3076845e-05
 -1.1595266e-03
 -8.0388934e-05
  1.3851549e-05
 -2.6882208e-05
  3.8176458e-05
 -7.3913152e-06
 -1.9974660e+00
  3.8609072e-05
  1.2733792e-01
 -4.7823578e-01
  1.3678750e+00
 -1.3218192e-05
  3.2133052e-05
  3.5567205e-05
  9.2158981e-02
  2.2300793e-02
 -1.2736858e-05
  5.8871014e-05
  8.6818920e-07
  3.5777044e-05
 -3.8000926e-05
 -2.1167554e-05
  1.4187981e-04
  5.7816378e-05
  4.5264929e-05
  1.9055682e-01
  3.8490500e-05
  5.5183580e-05
 -1.9239682e-04
  2.8743609e-05
 -6.2022700e-05
 -8.3144689e-05
  2.5092033e-05
  2.2942793e-05
  2.4715595e-05
 -8.7683824e-05
 -1.4088124e+00
  3.5780999e-01
  1.5277398e+00
 -1.1403544e+00
  8.7226754e-01
  8.6115586e-05
 -1.3380867e-04
 -6.4745967e-05
  3.8554534e-01
 -7.1059704e-01
  9.4822608e-06
  9.0421117e-06
 -2.6483240e-04
  6.9136091e-05
 -5.3887680e-07
 -9.4435520e-05
  3.7761351e-06
 -1.1645007e-01
 -1.6087452e-02
  8.5626967e-02
 -6.7735033e-05
 -2.6215691e-06
  2.4322351e-06
 -1.0903826e-01
 -1.5680610e-01
 -1.0063301e-05
  8.7390044e-06
  1.8479994e-05
 -9.5530428e-05
 -2.7152424e-05
  1.3493721e-01
  1.9499889e-04
  1.9289957e-06
 -2.1505751e-01
 -5.3484876e-02
  1.4228198e-07
  8.8369525e-06
  3.1003466e-01
  6.0460679e-06
  8.0102324e-01
 -2.8312495e-05
  2.7677994e-05
  1.4851220e-04
 -7.3313378e-03
  8.0054291e-05
 -1.2382120e-05
 -1.8330891e-06
  7.4157342e-02
  8.7679207e-04
 -1.0127044e-04
 -2.7304093e-05
  5.2805801e-05
  7.3051313e-03
  7.8444868e-02
  1.8024907e-01
  2.0756013e-06
  8.1751596e-06
  9.2430106e-05
 -5.9327507e-05
  1.5499550e-04
  1.3373920e-04
 -6.3336443e-06
 -4.6526629e-02
 -1.2179150e-01
  1.5055892e-05
 -6.3170672e-05
 -5.6614972e-05
  7.6111864e-05
 -3.3797630e-06
 -1.5296205e-02
 -3.3548120e-05
 -2.4880396e-04
  6.8773370e-05
 -1.4311397e-04
 -1.1482016e-04
 -8.5068941e-06
  2.3426033e-05
  3.4723154e-04
 -1.2831313e-05
 -6.5489380e-06
  2.5132707e-05
 -1.3436868e-05
  5.0231538e-05
  9.0639711e-05
  2.7469089e-02
 -3.9917901e-05
 -4.0656969e-06
 -4.3675256e-05
  1.7833254e-05
 -9.3057579e-06
 -5.0167125e-01
 -1.6808592e-05
  3.1355343e-05
 -3.4309509e-05
  3.0580255e-01
 -2.7596958e-05
  6.7627065e-05
  1.7304319e-05
  7.4753989e-05
 -2.9591085e-05
  1.2057382e-05
  3.1595438e-05
  2.2032767e-05
  1.1387746e-06
  4.4287332e-05
 -5.3329473e-05
 -1.3382388e-05
 -4.0959243e-05
 -1.0715595e-04
  2.2574462e-04
  2.1139311e-05
  4.7051467e-06
 -1.7173612e-04
  3.2781654e-06
  2.7947528e-05
 -2.2274035e-05
  2.7843749e-05
  1.5711103e-05
 -2.2372737e-05
 -1.2488969e-05
 -1.5459766e-05
 -8.6633256e-05
 -1.3361595e-05
 -3.6595919e-04
 -1.4964156e-04
 -1.2346195e-05
 -8.3266968e-06
  8.4335943e-06
 -2.9415036e-05
  8.5101834e-05
 -1.1291685e-04
 -4.9730468e-05
 -2.7589615e-05
 -1.0897894e-05
  4.8875239e-07
 -4.7354682e-05
  1.0812048e-04
 -3.7653288e-05
 -8.4734793e-06
 -3.0616855e-05
  1.6351956e-05
  3.8401795e-05
 -1.0988567e-04
  7.6598641e-05
  1.6645607e-05
  5.7837638e-05
  1.7651786e-05
  3.5253022e-05
  2.2735319e-05
  1.7596927e-05
 -1.1239151e-03
 -1.9018549e-05
  5.0352562e-02
  3.6499363e-01
  7.1707182e-05
  5.4219112e-05
 -1.8266028e-05
 -1.2837353e-03
  4.1703068e-02
 -7.3351874e-03
  2.8396866e-05
 -6.1482106e-06
 -1.4160795e-04
  2.1489595e-04
 -2.1479927e-06
  1.7055210e-05
  7.2595889e-05
 -3.9178547e-02
 -1.3181898e-03
 -7.7419769e-05
  2.5195339e-05
  8.0432190e-05
 -4.4784683e-05
 -4.1260369e-04
 -1.2239607e-02
 -1.3636788e-06
  8.6867512e-06
 -1.3879677e-06
 -2.2612932e-05
  4.1742886e-05
  1.1789093e-05
 -4.1330041e-04
 -3.3665561e-05
  9.7767925e-06
 -3.6467303e-05
  5.9562026e-05
 -5.0665818e-05
  1.0684357e-04
 -4.9542364e-06
 -5.8684091e-06
 -5.6890189e-05
  8.5000020e-06
 -1.9838479e-05
  6.7517532e-05
  2.3793633e-05
 -5.1150575e-05
  1.7634194e-04
 -9.9401459e-06
  8.4772510e-06
  7.5810613e-06
  8.0259297e-06
 -6.5166816e-05
  1.0193041e-04
 -3.1382275e-05
  3.3503020e-05
  7.2639154e-06
 -8.2096754e-05
 -2.0882071e-05
 -5.6036597e-06
 -1.7477591e-05
  6.0663712e-01
  1.1946133e+00
 -7.6776572e-02
 -2.7441754e+00
 -2.4428825e-01
  1.7532175e-05
  2.1522987e-06
  4.9676344e-02
 -5.5121940e-01
 -5.8068246e-02
  1.3243355e-05
 -6.2916901e-05
  2.3591475e-01
 -9.4577990e-02
  3.0882192e-01
  1.1686126e-04
 -2.4655239e-05
  3.6364108e-01
  1.2061442e-01
 -1.3084625e-01
  8.3607243e-05
  2.4279418e-04
  2.7148211e-01
  5.5214942e-01
  6.3511753e-01
 -3.9230868e-05
 -1.0977483e-04
 -9.2789902e-05
 -7.1976043e-05
 -1.7882761e-01
  1.3982554e-04
  5.2093692e-05
 -3.5055599e-01
 -1.8585995e+00
  1.6745405e-02
 -7.1940922e-05
 -1.4002311e-04
  6.6886850e-02
 -2.9599983e-01
  1.4364759e-02
 -1.9864527e-05
 -2.1577058e-05
  5.3562754e-04
 -7.8017116e-03
 -1.6247277e-05
  4.9536277e-07
 -7.1776326e-06
  2.0972428e-01
  1.4222796e-01
  9.1618211e-05
 -5.1892370e-05
  1.0976288e-05
  6.2439419e-02
  2.2489509e-01
  2.9769993e-01
 -8.5580405e-06
  7.4382973e-05
 -1.6344862e-06
 -7.3805054e-06
  3.1669802e-06
 -1.4336830e+00
 -6.1049586e-06
  2.0710979e-06
  1.0165170e-05
  1.0408476e-02
 -2.2270877e-05
  6.8881061e-05
 -9.4890638e-06
  1.3258493e-04
  1.1035159e-04
  5.7189052e-05
  6.6650689e-05
  1.0261607e-04
  1.9396880e-06
 -2.5182157e-05
 -1.1723676e-04
 -1.9812962e-05
  3.1144718e-05
  2.1599035e-05
 -1.6545380e-05
  2.5964295e-05
 -8.4381988e-08
  7.4250397e-06
 -2.4586716e-05
 -4.8262850e-04
  2.4120678e-05
  8.8485940e-06
  1.7822330e-04
  4.0773939e-05
 -2.3436985e-05
 -1.6624719e-05
 -3.9884048e-06
 -4.7383129e-04
  1.7933577e-05
  2.0650079e-06
 -4.3159322e-05
  1.9959554e-05
  4.6098030e-05
  3.7613383e-05
 -3.5643145e-05
  2.0262309e-04
 -5.5234524e-04
 -1.7219523e-05
 -1.0335859e-05
 -3.2729685e-04
 -7.1330187e-06
 -4.4734719e-05
  1.3609417e-05
 -2.1487971e-05
  1.5481286e-05
  6.4445187e-05
  5.0657109e-06
  2.4462413e-05
  1.0587221e-04
  2.6016609e-05
 -8.5385494e-05
 -2.0673886e-05
  8.3849891e-06
  5.0815585e-04
 -1.2866059e-05
  2.0051950e-01
 -1.1723882e+00
 -3.4283760e-01
  1.9691945e+00
 -2.3912966e+00
  2.3750928e-05
  2.4898034e-05
  2.7945522e-05
 -2.4396971e-01
  5.7470542e-01
 -2.3028931e-04
 -2.1828015e-05
  1.7018723e-03
 -5.9521367e-04
 -1.0090230e-04
 -8.1222657e-05
  1.1688869e-04
  1.7824851e-01
  6.1608221e-02
 -3.3974226e-03
  1.2005267e-04
 -9.0979365e-06
  8.7753311e-02
  1.2437662e-01
  2.9771701e-01
  1.2200828e-04
  3.1318814e-05
  4.7569656e-06
 -3.5479905e-05
  2.8635072e-06
 -2.6736646e+00
  3.9141200e-05
  1.2665864e+00
  1.2999588e+00
  1.7299318e+00
 -3.7042457e-05
 -1.1791105e-06
  1.4091761e-01
  1.1155524e-01
  5.3961414e-01
  1.5634310e-05
 -5.6600795e-05
 -2.3237146e-03
 -9.3846858e-05
 -1.1306512e-01
  9.4343093e-05
 -4.2512631e-05
  3.7307589e-06
 -3.5849705e-05
  2.6415646e-01
 -6.6202789e-05
  3.1476131e-05
 -9.2594977e-04
 -6.5704234e-02
 -8.4729217e-02
  8.5763049e-06
  2.0038578e-06
 -4.6411598e-05
  2.9297231e-05
  5.2630105e-05
  5.6222332e-05
 -1.7268361e-05
  2.5972782e-05
 -1.2935455e-04
 -1.9868181e-05
 -1.3445478e-05
 -3.4213463e-05
 -7.8937510e-06
  1.0467187e-04
  1.5787109e-05
  2.7695602e-05
 -6.6803909e-06
  2.6799054e-05
  1.9157917e-05
  4.2725860e-05
 -1.5215445e-05
 -1.4079550e-05
 -2.5961997e-05
  1.2949590e-05
 -2.0357142e-05
 -2.7457651e-07
  6.3963025e-06
  1.2554237e-04
  1.8003369e-04
 -1.4767604e-04
  7.3093674e-05
 -8.0643231e-06
 -2.1679902e-05
  5.3546129e-04
  6.7238325e-05
 -1.2854445e-04
  5.3219715e-05
 -6.9239104e-05
 -1.4540655e-04
  9.8517266e-05
 -8.2463332e-05
 -5.6260214e-06
  4.5254390e-05
 -9.1138429e-07
  1.4624160e-04
  1.2735551e-04
  6.9825743e-05
  1.6159385e-04
 -1.9258894e-05
 -4.2388834e-05
 -3.4419776e-05
 -1.1520500e-05
  1.1642438e-04
 -1.2522993e-04
 -1.9443978e-05
 -1.1232332e-06
 -5.4657274e-05
 -4.8061411e-06
  1.4739220e-05
 -2.3692315e-04
 -6.9676273e-05
 -2.1600651e-04
 -3.4907745e-05
  2.8051591e-06
 -3.7551545e-05
  1.3418996e-04
  4.6031881e-05
  1.5983629e-05
  2.7146329e-05
  1.3059372e-04
  1.5470088e-05
 -2.1221049e-05
  9.5364507e-05
 -2.1207854e-05
  1.1895528e-05
  1.6398844e-04
  2.3164574e-04
  1.1604967e-05
 -3.6376790e-05
  1.0889795e-05
  9.3528790e-05
 -2.1827165e-05
 -1.3251082e-04
 -6.6009920e-06
  3.4062850e-05
 -2.6606060e-05
 -9.2729795e-05
 -1.0268845e-05
  4.4941477e-05
  1.9801206e-04
  3.5024426e-05
  3.9362159e-05
 -3.1976717e-06
  1.0516657e-04
 -2.3314187e-05
  2.0789957e-04
  3.0059677e-03
  3.8874656e-01
  2.3418006e-01
 -1.4601846e-01
  1.4060975e-05
  5.5455057e-06
 -1.8552911e-01
  3.7190966e-02
 -1.7477442e-02
  7.6268338e-07
 -1.6758846e-05
 -3.5247569e-05
  1.6183541e-03
  7.0681381e-03
  4.7816661e-07
  4.3456603e-05
 -3.4723324e-01
 -7.8252070e-02
  2.0509023e-07
  7.1972194e-05
  1.9098466e-04
 -3.4927151e-03
 -8.5681967e-02
 -1.5598691e-01
 -3.8167136e-04
  3.9932664e-05
 -1.3605165e-05
  3.6261685e-05
  1.8848608e-04
  1.3639627e-04
  1.3481880e-05
 -1.9180405e-05
  8.9157053e-05
 -2.2388395e-04
 -1.2399509e-05
 -6.8789923e-05
 -6.1940555e-05
  1.4497370e-04
  2.4106290e-05
  1.9022134e-05
 -2.3865250e-05
  2.2594353e-05
  3.3045882e-05
  3.5428886e-05
 -6.2235602e-05
 -2.5959595e-04
 -1.5157239e-05
 -7.8507888e-05
  8.8464883e-05
 -1.0265191e-04
 -7.6947348e-05
 -2.2911345e-05
 -1.5474257e-06
  1.1714123e-04
 -2.9791279e-05
 -1.2618165e-04
  2.2983179e-06
 -5.9839376e-06
 -1.6589987e-05
 -1.3491518e-05
 -9.4642695e-05
  9.0127751e-06
  4.8102760e-05
 -5.6255249e-05
 -2.6061697e-04
  3.7916194e-05
  5.9987783e-06
  2.9156958e-05
 -5.7978855e-06
 -9.4598872e-05
 -1.2851134e-05
 -1.9952475e-05
  1.2695896e-04
 -2.9509258e-01
 -1.9617180e-05
  1.3811293e-05
  9.1242819e-06
 -9.0350304e-06
  9.7464217e-05
 -1.8082006e-05
  1.5965842e-04
  2.3336472e-05
  2.9336949e-05
 -1.4129992e-05
 -2.9320543e-05
 -1.9629770e-05
 -3.4368447e-06
 -4.5584970e-06
 -1.9948944e-04
  1.1670039e-04
 -1.0782721e-05
 -7.3529332e-04
 -2.5471090e-05
 -2.9737672e-05
 -2.5622303e-05
  1.4805909e-05
  4.8181473e-04
 -7.1579765e-05
  2.5133244e-03
 -2.2661975e-06
  2.4138140e-05
  2.5937305e-04
  1.3759713e-05
  4.6375840e-06
 -8.1709495e-06
  4.8851067e-05
  9.2443828e-05
  1.3519071e-04
 -1.3149185e-05
  1.6915616e-05
  3.5297977e-05
  2.4545557e-04
 -2.6966494e-05
 -6.2999020e-06
  6.9215571e-06
  4.5375837e-05
  5.1976946e-05
  1.1756523e-05
 -1.1451936e-05
 -1.3700027e-05
  1.3795850e-05
 -9.6024195e-08
  6.0176462e-05
 -4.0599283e-05
 -2.6146587e-05
 -2.1374921e-05
  9.1556558e-06
  1.0417210e-05
  1.9155621e-05
  3.2803400e-05
  1.0981124e-05
 -6.6112087e-05
  2.6314116e-05
  4.6333378e-05
  9.0099347e-05
  5.0769850e-05
  1.7404056e-05
  5.8679126e-07
 -1.3981859e-04
  1.2068776e-05
  7.0141337e-05
  5.7326648e-05
 -8.4476915e-06
  5.2461139e-05
  5.7215893e-05
 -5.0182600e-05
 -1.8568579e-05
 -9.2141090e-06
  2.6210750e-05
 -1.1417352e-04
 -4.3399623e-08
  3.6068599e-05
  1.8308863e-05
 -3.5735702e-05
 -8.4585736e-06
 -1.5379283e-05
 -5.0838030e-06
 -5.2994594e-04
  3.1693726e-06
  4.1176849e-05
 -2.1942045e-05
 -1.4716813e-06
 -9.8720615e-05
 -4.8762056e-05
 -1.9305882e-01
 -1.1352678e-03
  6.1753264e-05
 -1.5219633e-05
 -6.5193664e-05
 -6.9824532e-06
  1.3480147e-05
  9.1435628e-05
 -2.8670125e-05
 -1.6656070e-04
  3.4513014e-05
 -8.5057829e-05
 -8.3176055e-05
 -9.2127986e-05
  7.4853924e-06
 -3.3005912e-05
  3.3834036e-05
  5.4758289e-07
 -4.4671920e-05
  1.3005672e-05
  1.6701551e-05
 -3.2351847e-06
  5.5841729e-06
 -1.8914437e-06
  2.1500828e-05
  2.4182547e-05
  2.0619520e-05
 -1.6855445e-05
  2.8831414e-06
 -1.2009623e-05
  3.0521427e-05
 -3.3057738e-06
  1.4347406e-06
 -1.8980416e-05
  2.2701239e-05
 -7.5366777e-05
 -6.7363755e-05
 -2.1261611e-05
  3.9229966e-05
 -7.2342606e-05
 -3.1183893e-04
  8.2979008e-05
  3.3520132e-02
  2.8961662e-07
  1.0004528e-04
  4.0764341e-01
  2.6722662e-05
  3.3864570e-05
 -1.5655652e-01
 -4.0466934e-06
  1.7499266e-05
 -6.4585201e-02
 -5.3809655e-01
 -8.2990587e-01
  1.2151886e+00
  2.0832791e-04
  5.0648669e-05
 -1.7605568e-01
 -1.4181507e-05
 -2.1697329e-01
  3.9238107e-01
 -1.0162050e-01
 -1.6413876e-04
  1.3496602e+00
  1.1304373e-01
  4.1560161e-05
 -4.6124871e-05
 -4.7274700e-01
 -5.4262727e-01
 -2.2312581e-04
 -4.3646829e-05
  4.1535291e-01
 -4.1760222e-06
  4.4359462e-05
 -9.0455949e-05
 -7.8398710e-01
 -2.1272183e-04
  1.3402586e-05
  1.5242280e+00
 -2.5749305e-01
 -2.3432707e-05
 -1.1848916e+00
 -1.7339318e+00
  1.7666266e+00
  2.0576196e+00
 -1.7829555e-04
 -3.4629389e-05
 -9.0214276e-01
 -8.5340153e-06
  2.4614615e+00
  1.6433311e+00
 -6.8005860e-01
  1.0062001e-04
  2.2606769e+00
 -2.3140676e+00
 -2.3696673e-05
  1.7571017e-05
 -3.5151046e-05
 -1.3016863e+00
 -1.6215088e-02
 -5.1413437e-05
  5.3737557e-01
  3.1953776e-05
  9.8539567e-05
 -4.0970252e-05
 -6.6721281e-05
  1.0791053e-01
  4.3063687e-06
 -3.2324471e-05
 -2.1120233e-05
 -1.7219529e-05
  1.2862588e-05
 -2.8552082e-05
 -1.8687411e-05
 -5.0531739e-06
 -1.2323932e-05
 -5.9080085e-05
 -5.7158333e-05
 -3.8412698e-05
 -9.4850177e-05
  6.6595196e-05
  9.9567907e-05
 -7.1173810e-05
 -2.2155242e-05
  4.2852964e-05
  7.2700663e-05
 -7.4104505e-06
 -1.6044371e-05
  7.7375798e-06
  4.0852825e-05
 -4.0143666e-05
 -1.4072374e-05
 -5.9195359e-06
  3.7082533e-05
  1.2394415e-05
 -3.7456956e-04
  1.2343756e+00
  2.7813830e+00
 -4.2799640e+00
  1.4504523e+00
  1.7379501e-01
 -1.4446425e-01
  2.5956067e-01
 -2.7204189e-02
 -6.7089510e-05
 -7.8410022e-02
  3.1810835e-01
  6.3240802e-01
  1.8442267e-01
 -1.0587216e-01
 -2.4557790e-01
  2.0821868e-02
 -5.5402464e-01
  9.1086544e-02
 -1.8917409e-01
 -2.8439948e-05
 -5.5930323e-05
  5.5195960e-05
 -8.1582775e-06
  4.7967410e-07
  1.1108310e-05
 -7.6432835e-04
  6.6916364e-05
  4.4680695e-05
 -8.5277170e-06
  1.3139274e+00
 -4.2292130e-01
  4.4186847e-05
 -1.1242663e+00
  3.8593772e-01
 -6.6886079e-01
  3.7208858e-05
  1.7396766e-01
 -2.9832072e-06
 -7.2356043e-03
 -6.7507932e-03
  1.6336956e-04
 -1.1818764e-04
  4.4265164e-07
 -6.0435005e-02
  1.4705493e-04
  5.0596794e-04
 -3.7576796e-03
 -2.9037651e-04
 -8.2595990e-04
  1.0623125e-05
 -7.1844632e-05
 -1.5304898e-04
  6.0726493e-04
 -4.2052991e-03
  1.8732890e-04
 -7.7091281e-05
 -1.3062220e-05
  2.5376145e-04
 -2.5004838e-05
 -5.2885446e-03
  1.3696836e-02
 -1.7711163e-02
 -6.1629522e-05
  3.0785223e-02
  4.0532858e-03
 -1.0230437e-04
  2.3868346e-08
  5.1573596e-05
  1.4047293e-02
  3.6685562e-04
  5.3026732e-05
 -2.9386915e-06
 -5.8175341e-05
  1.1269494e-04
 -1.0636647e-04
  3.6376496e-05
  1.2318343e-04
 -2.2676111e-05
  2.7490919e-04
  1.5359450e-05
 -1.5582682e-05
 -7.4686643e-05
  6.6277375e-06
  2.2579525e-02
 -1.0902829e-05
  4.1394891e-05
 -1.1878143e-04
  4.4142357e-07
 -1.1528166e-05
 -1.6498389e+00
 -1.3910673e+00
  2.4845850e+00
 -3.9754319e-01
  7.3749912e-03
 -5.8085561e-01
 -1.8959010e-01
 -3.4053051e-01
 -5.0859284e-02
 -3.3756873e-01
 -5.5382079e-01
 -4.6334655e-05
 -1.6802971e-01
 -4.5569406e-05
 -1.7815508e-01
  2.3824779e-05
 -3.4053233e-01
 -4.5416039e-01
  2.6462096e-01
 -2.2903243e-01
  7.9051405e-03
 -4.9624361e-02
 -5.2449489e-01
 -3.9148095e-01
 -3.2445490e-01
 -6.1204178e-06
 -1.4130035e-04
  1.1953462e-05
 -2.8746494e-05
  1.7448500e-03
 -6.8722743e-01
  2.2320201e+00
  3.6364779e-01
 -6.0726929e-01
  8.7569607e-03
 -3.6292642e-01
  3.4145548e-03
  8.7482785e-04
  5.2019899e-05
  3.8931203e-01
  3.3988088e-01
  1.7866091e-04
  2.3859137e-01
 -4.2729687e-05
  7.7519578e-01
  2.5922748e-01
  5.6505611e-05
 -1.6193348e-01
  2.3530286e-02
  1.4595529e-01
 -1.4660144e-04
  2.6527968e-01
  3.5926685e-01
 -2.6848195e-03
  6.0753721e-01
  7.8658508e-07
  5.0053208e-05
 -7.0699542e-05
 -3.0814976e-04
 -9.4683208e-05
  8.8275637e-04
  8.8828201e-06
  1.2684124e-05
  1.0944151e-04
  1.2455458e-05
  7.0926741e-05
  1.4451688e-05
 -4.2697724e-05
  2.5036845e-05
  1.6760454e-05
 -2.2841904e-04
 -1.5005358e-05
 -4.7884336e-05
  7.3159931e-06
 -4.6182056e-05
  6.4733998e-05
 -9.1024658e-06
 -2.1213857e-06
  1.1415043e-06
  4.0109651e-05
  1.2553799e-04
 -1.4220014e-05
  4.4166154e-04
 -4.6509826e-06
 -9.9054902e-05
 -8.4876956e-06
 -2.3869183e-05
  1.6144193e-05
 -2.0947641e-04
 -7.8406498e-05
  1.4929184e+00
 -1.0305060e+00
  3.5747779e-03
 -3.4944966e-01
  8.7544364e-01
  3.3942690e-01
 -5.9988704e-02
  1.6145839e-04
 -2.6312924e-04
 -1.8076989e-01
 -3.8358134e-01
 -1.7224505e-05
 -1.7229334e-04
 -1.3293071e-05
 -3.1578119e-04
 -1.3307638e-01
 -1.5763908e-05
 -1.5620005e-04
 -4.1925476e-04
 -1.4544131e-01
 -2.4312644e-04
 -2.4609353e-01
  4.4953017e-06
  3.5827525e-02
 -4.9625687e-02
  7.9545844e-04
 -1.9268473e-05
 -3.3978180e-05
  7.9130943e-05
  8.0813617e-05
  4.0949337e-05
 -9.8155297e-02
  2.6944097e-06
  2.4836712e-07
 -3.3451108e-06
 -5.0952229e-05
 -1.4212154e-04
  9.2110982e-05
 -6.1298029e-05
 -4.7667772e-06
 -7.1651571e-05
 -1.0348276e-05
 -8.8981898e-05
  2.4137016e-05
 -1.0381932e-03
 -2.9650950e-05
 -5.5042034e-05
 -8.0614671e-05
  2.9417513e-05
 -5.8364050e-05
  1.9399615e-05
  1.1375351e-04
 -7.0170674e-05
 -6.4524422e-05
 -1.0026024e-05
  9.2606118e-05
 -5.7719462e-04
 -6.7572073e-05
  8.7565066e-05
 -1.0359873e-05
  3.1628206e-02
  3.6273388e-05
 -3.2533797e-05
 -2.0653828e-05
 -2.3971881e-05
 -2.0223987e-04
  1.9245099e-04
 -1.8238037e-05
 -3.3515233e-05
 -2.5717013e-06
  1.8454053e-05
  1.0585616e-04
 -2.8830898e-05
  7.5276126e-05
 -3.7453428e-05
 -7.1891911e-05
 -2.6009391e-06
  4.8001049e-05
  1.9037301e-05
 -2.0781996e-04
 -3.5742737e-04
 -1.3991519e-06
  3.1229083e-05
  6.6686946e-05
  4.9268342e-06
  3.8248083e-05
 -1.9592223e-06
 -7.4122967e-05
 -1.9018045e-06
  1.9120778e-05
 -6.0586387e-01
  3.6591084e+00
 -4.2322933e-04
 -5.5901028e-02
 -1.1986949e-01
  2.7183291e-01
 -1.8266574e-02
 -3.0105671e-02
 -4.8421964e-02
  8.8204607e-02
  1.3459481e-01
 -1.0992704e-03
  2.8962553e-01
 -2.4757728e-03
  6.3783717e-01
  1.2703575e-01
  2.3225364e-03
  9.9903423e-01
  1.4763397e-02
  2.0574991e-01
 -1.3774109e-01
  7.3645383e-01
  9.2828679e-01
 -6.9257516e-01
  7.8107876e-01
 -4.2385138e-05
  5.5322489e-05
  8.2317547e-06
 -1.7047222e-04
 -1.5682966e-03
 -6.8762474e-06
 -6.2655847e-05
  1.2002665e-05
  3.3096699e-06
 -5.1003065e-07
 -7.2257855e-05
 -1.4272513e-04
 -4.8099020e-05
  1.9860536e-05
 -3.1792035e-05
  3.8499205e-05
  8.7488013e-05
  1.7386385e-06
 -1.4464634e-06
  2.7041369e-05
  6.5380089e-05
  4.0907558e-05
  4.4548292e-06
  2.4045807e-05
 -7.1954978e-06
  3.4169618e-05
 -8.4340769e-05
  8.6312693e-06
 -2.1049729e-05
  7.4114209e-06
  5.0775467e-05
 -1.8292883e-05
 -5.8337841e-06
  1.5385653e-04
  4.5072011e-06
  3.7362879e-05
  3.6583024e-06
  8.5319058e-05
  7.7685277e-04
  1.3781188e-05
  1.8474555e-07
  1.1306091e-04
 -7.6768010e-05
  9.7250816e-04
 -1.5894973e-05
  3.6391816e-06
  4.5259858e-05
  4.3605731e-05
 -1.3362161e-04
 -3.6949095e-05
  1.3233135e-04
 -2.1713506e-05
  3.7324114e-04
  5.1777904e-05
  3.8673276e-01
 -7.2983094e-06
 -1.0738630e-05
 -2.4042082e-04
  2.4865962e-05
 -5.6085024e-05
 -8.2007726e-05
 -1.7088110e-05
  8.9179623e-05
  1.8421208e-05
 -1.5779275e-04
 -1.1420089e-04
 -7.3779964e-05
 -1.2532112e-04
  4.5577353e-06
 -2.0005134e-06
 -3.3251974e-05
  1.1707025e-04
 -6.5171058e-05
 -1.2434396e-04
  2.8930774e-05
 -1.1883360e-04
 -2.0606918e-05
  4.4721481e-05
 -7.9968457e-05
  2.6910708e-05
  6.0261791e-05
 -4.3223365e-05
  4.2466010e-05
 -6.1724095e-05
 -6.2809137e-05
  3.3698286e-06
 -4.4747962e-06
  1.2879943e-05
  2.0473426e-05
  7.6277312e-05
 -1.7175571e-05
  2.6880962e-05
  5.9240105e-05
  8.1787468e-05
  3.3177039e-05
  3.5168371e-06
  1.9186267e-05
  9.6404656e-06
 -3.5957753e-05
  8.9054171e-05
 -5.0611314e-05
  9.8428281e-06
 -1.5643474e-05
 -1.4591712e-05
 -8.8504830e-06
 -1.0659669e-05
 -2.3375673e-05
 -1.2643116e-05
 -3.8296563e-05
 -4.6367932e-05
  1.6856133e-05
 -2.6745489e-05
  4.3244552e-05
  2.5125369e-06
 -4.9277674e-05
 -8.1501705e-05
 -4.9634411e-05
  4.5318327e-05
 -2.0909914e-05
  2.8625285e-05
  6.9614789e-06
 -1.7536733e-05
  6.9063368e-05
 -2.9287263e-05
  1.1925775e-05
  3.7836420e-05
  3.1567724e-05
  1.8305529e-05
  8.3860461e-05
  1.6278080e-05
 -1.4038858e-05
  3.6383688e-05
 -2.7017817e-05
  5.2481737e-05
  1.0532038e-04
 -6.4217631e-05
 -1.2778836e-05
  3.9537827e-05
  7.6700482e-05
  4.9556784e-05
  1.3369235e-04
 -9.2026959e-05
 -1.8521880e-05
  8.5072270e-06
 -1.2610764e-04
  5.2132659e-06
  1.6738300e-05
  5.8204601e-05
  8.6143285e-05
  2.7723549e-05
 -7.2293369e-05
  2.3093493e-05
 -2.7664217e-05
  1.4403236e-06
 -1.3066393e-05
  8.4419215e-01
 -1.2789903e+00
  4.1320497e-01
  1.3789957e+00
 -1.4034172e+00
  2.2294760e-01
 -6.9352716e-02
  4.3686714e-02
 -1.1871434e-02
 -2.3797700e-01
 -4.8930460e-01
 -5.8980417e-01
 -1.7670985e-01
 -3.3508137e-01
 -5.1504397e-04
  2.0410720e-05
  1.7024574e-01
  4.0571341e-01
  1.2686728e+00
 -4.2530309e-04
  5.8049232e-01
 -6.0965791e-05
 -1.3870981e-02
  3.6204468e-02
 -4.1142875e-06
  7.6928722e-05
 -5.7771010e-04
 -1.3592618e-04
  3.7336107e-05
  1.6081134e-04
  4.6659083e-05
 -1.9641373e-04
 -3.3116814e-06
 -1.1332378e-05
  1.0879080e-04
 -1.5056025e-05
  3.5277862e-05
  2.1893682e-06
 -3.8009239e-05
 -1.7398474e-06
 -8.0405829e-05
  4.2077936e-05
 -8.5403207e-07
  6.5995366e-05
  5.1387783e-06
 -1.2428137e-04
 -1.8006851e-05
  9.1816386e-05
 -2.3029472e-05
 -3.1946524e-06
  2.2650978e-05
  3.7984613e-05
 -8.0388862e-05
 -5.9103179e-05
  1.6014477e-05
  7.0707333e-06
 -3.0550196e-05
 -1.4304919e-05
  1.1718571e-05
 -1.0009423e-05
  2.8575134e-06
  2.6145999e-05
 -3.6718193e-05
  3.4652298e-06
 -6.7566078e-05
 -1.7853390e-05
  9.0581379e-05
  4.0304403e-05
 -1.8498360e-05
 -5.5756482e-05
  2.7976403e-05
  5.4109729e-05
  1.1939396e-05
 -3.7220387e-05
 -3.8883089e-05
  3.2849942e-04
 -1.0777659e-05
 -2.3750537e-05
 -2.8188444e-05
 -6.6842484e-05
  5.8516463e-05
  8.1171193e-06
  1.8644532e-05
  1.0486663e-04
  1.6961221e-05
 -3.0096740e-05
  1.0589681e-05
  2.5031406e-05
 -7.1705370e-05
 -9.2522410e-04
  2.8862976e-05
 -4.6871555e-05
 -1.2074546e-04
 -7.4266150e-05
 -6.1309125e-05
  1.2544901e-04
  3.7244292e-05
 -3.6198227e-05
  1.0079689e-04
 -7.3464857e-05
  4.0470777e-06
  3.0919527e-05
  2.1821144e-05
  3.1712130e-05
 -3.2011805e-05
 -8.2767008e-05
  2.6894151e-04
 -6.6138949e-05
  2.0796921e-05
  7.1756294e-06
  1.8616518e-04
 -4.3383799e-05
  1.3314391e-05
  9.5942545e-05
  9.9731935e-04
 -7.6268523e-05
 -9.6944925e-05
  2.9279847e-05
  7.2720795e-05
  7.6585193e-06
  2.3891591e-05
 -7.3961288e-05
  6.0011698e-05
 -1.9924732e-05
  5.3742801e-06
  1.0959751e-04
 -1.1467409e-05
 -2.7812035e-05
 -2.9185636e-05
 -1.3518073e-03
  1.8866839e-06
  4.3086364e-04
 -1.8708671e-06
 -2.2693912e-05
 -4.2145675e-06
  1.1691889e-05
 -1.3179827e-04
  6.7508350e-05
 -5.7491748e-06
  2.1324915e-06
 -1.9660574e-06
 -1.6557444e-05
  1.5407699e-05
  1.0789312e-05
  1.1407463e-04
  7.1945096e-06
  3.3668503e-06
  2.0139980e-04
  9.5490992e-05
  4.9243613e-06
  3.4581179e-05
  1.2920882e-01
 -6.2432819e-06
  1.6771840e-03
 -6.0425798e-05
  1.1184227e+00
 -3.4867520e-05
 -9.8146695e-05
  3.7677063e-07
  1.1212837e-04
 -1.6195963e-05
  1.0244200e-05
  2.3403167e-04
 -9.1514958e-06
  4.6070058e-06
 -3.8414917e-04
  7.2887146e-06
 -7.5956348e-07
  2.5531313e-05
  1.6663015e-04
  7.4358803e-05
 -4.1099789e-05
 -2.7761023e-06
 -9.2548849e-05
  1.1855232e-04
  9.8215438e-05
  8.3295190e-06
  2.4020108e-05
 -1.2719718e-07
  1.7818889e-04
  3.0779947e-06
  9.7075790e-01
  3.3478980e-05
 -9.0832727e-05
  3.4780470e-01
  1.3094863e-01
 -1.4378639e-05
 -4.7627127e-01
  1.5788497e-06
  1.0363915e-03
  3.3753209e-03
 -3.0292733e-06
  3.8767241e-02
 -3.2794564e-05
 -1.4412466e-06
  7.8674128e-07
 -3.8787206e-05
  1.9752330e-04
 -5.1528256e-04
  1.6632891e-03
 -7.1967115e-05
  6.0252068e-03
  2.9910100e-04
 -2.2698035e-04
  6.3820272e-03
  1.9870884e-05
  7.6848439e-05
 -6.3148116e-05
 -3.5573587e-05
  6.4680004e-05
  5.7509402e-05
  2.0113491e-04
  5.3024527e-05
 -7.7078339e-06
  2.3658837e-04
 -6.5911598e-05
 -1.7335080e-04
 -1.6259054e-04
  3.9110968e-05
  5.2608808e-05
 -1.8651343e-05
 -3.0039793e-05
 -2.4629593e-05
 -3.9362843e-05
  7.6777658e-05
  1.4311574e-04
 -5.1590282e-06
  1.5673901e-04
  2.1010088e-05
  1.9056180e-05
  2.1751573e-06
  2.6577168e-06
  1.2392228e-05
 -2.1195160e-06
 -1.4614017e-05
  1.3349388e-05
  4.5204388e-06
  2.0212716e-05
 -3.3418572e-05
  5.2854695e-05
  1.4195668e-04
 -1.2350695e+00
 -8.1300211e-01
 -4.3096326e-05
 -9.2423129e-01
  1.1242213e+00
  5.9689519e-06
  3.5108605e-01
 -1.2256534e-05
 -1.4135467e-01
 -1.0731893e-01
 -4.5212852e-05
 -1.8875785e-04
 -8.2027891e-06
 -4.0411443e-04
 -2.2567685e-01
 -4.5733479e-05
 -5.0615683e-02
 -8.0486482e-01
 -5.1218625e-02
 -2.6671723e-05
 -1.2728827e-01
  3.3097408e-06
  9.7865966e-05
 -1.7513292e-01
 -4.3069042e-05
 -1.7549892e-05
  4.6663823e-05
  1.1404262e-04
  1.9524494e-05
 -1.1709486e-05
  2.7688131e-05
 -2.5216292e-04
  6.7456334e-05
 -2.2589442e-05
  2.0073910e-05
 -4.1179253e-05
  2.5885054e-05
 -1.1495360e-04
  5.6459439e-06
  2.8203731e-05
  8.0774471e-06
 -9.0506219e-06
 -5.6795898e-06
 -1.7523519e-06
  1.8796154e-05
  6.9743997e-05
 -5.7275698e-05
  7.8970816e-06
 -1.3269569e-05
 -6.8217610e-06
 -1.0665778e-04
 -9.5617524e-06
  2.2367998e-05
 -2.9681727e-05
 -1.7742107e-04
  1.7273753e-05
  5.7276484e-05
 -4.4941295e-05
  1.0198912e-04
  4.0620671e-07
 -4.7342866e-05
 -2.3980514e-05
 -2.1584294e-05
  9.0891903e-05
 -2.4192896e-05
 -7.3776813e-05
  5.7460569e-05
 -2.9114901e-06
  6.8852351e-05
  1.0773284e-06
 -5.6062756e-05
 -1.4811994e-05
  1.3920169e-02
  2.4604722e-05
 -3.5269106e-05
 -1.9818543e-04
  2.8789478e-05
  3.1162748e-05
  1.5109882e-04
 -6.1842373e-05
  4.9495843e-06
 -2.2111271e-04
 -5.1624389e-05
  3.7750280e-05
 -2.2004105e-04
 -2.4139150e-05
 -1.5396246e-05
  4.5701654e-06
 -7.5099117e-05
  1.0731925e+00
 -1.5276420e-01
  5.6055409e-01
  3.7028319e-01
 -4.2519131e-01
  2.9554002e-03
  7.9522026e-05
  3.4807643e-01
 -1.7672708e-05
 -2.6344873e-03
 -3.0247444e-01
 -3.4578902e-01
 -3.3363656e-05
 -8.6666018e-02
 -1.0981131e-01
  1.2761585e-05
  6.0912019e-01
 -1.7849421e-04
  1.9194495e-02
 -2.5498884e-06
  2.0040758e-01
  3.4906078e-04
  8.8743167e-05
  2.2322657e-02
 -2.6242944e-04
  3.1205582e-05
 -7.4172211e-05
  5.2437692e-05
  9.7746328e-05
  1.2874042e-05
  1.3498769e+00
  3.6250498e+00
  8.4861672e-01
 -3.1616173e+00
  3.6749728e+00
 -2.3566517e-01
 -3.0149442e-01
  1.1159958e+00
 -6.7708693e-02
 -1.3523942e-01
 -7.4964792e-01
  1.9515541e-01
  6.7817110e-01
  2.4184321e-01
 -7.4879098e-01
 -5.8768141e-01
  6.1104983e-01
  8.0584872e-01
  2.0060042e-01
 -2.8309992e-01
 -4.2805040e-01
 -1.4791177e-01
 -2.2346571e-01
  2.5534563e+00
 -1.0082456e+00
  4.0733516e-02
 -2.6087460e-01
  2.7334521e-05
  2.6987669e-01
  6.7484580e-02
  1.4426175e-05
 -5.2884279e-05
  1.2892553e-04
  3.1194970e-05
  1.6423113e-05
  1.7410353e-05
  2.1408201e-05
 -2.7927227e-04
 -4.4568820e-05
  6.7898523e-05
 -7.6540178e-05
  1.0713079e-04
  1.8081653e-04
 -1.8064483e-06
 -6.4272572e-05
 -8.8697649e-05
  1.4250956e-05
 -6.2859876e-06
  1.7812001e-04
  1.1714664e-05
 -4.1743824e-05
  3.0130010e-05
  1.3362405e-04
 -2.2545901e-04
 -9.1456619e-05
 -1.3329931e-04
 -4.1878513e-05
 -7.6606324e-05
  1.2581352e-05
  3.9036961e-05
  2.1566893e-05
  9.9557847e-02
  8.1621565e-02
 -8.7546825e-01
  1.9936165e-01
  6.2176371e-01
  8.5516906e-05
  3.2183495e-01
 -1.1958912e-01
  1.1372483e-01
  6.9950712e-01
  4.8292921e-05
 -2.8861659e-05
  7.9072561e-06
 -2.4214820e-05
  2.9999260e-06
  9.7236812e-02
  3.6865909e-05
  2.6337932e-05
  4.2824769e-05
  2.9133324e-07
  3.5884988e-02
  2.0518112e-01
 -3.9673399e-05
 -1.6826043e-01
  1.3801909e-05
 -2.8656214e-05
 -2.2146709e-01
 -5.6611270e-01
  6.2864833e-06
  1.0250764e-06
 -2.8451171e+00
 -1.7381699e+00
  1.0725503e+00
 -1.9443115e+00
  2.4098294e+00
  6.4896041e-05
 -1.6901113e+00
  1.2062859e-05
 -3.9656370e-05
  2.0042739e+00
 -8.3400650e-05
 -1.2353288e-05
  6.4198524e-05
  3.2122829e-05
 -1.3885197e-04
 -2.1754205e+00
  2.8733984e-07
  9.0356489e-06
  1.2359005e-05
  5.2599567e-06
  6.4025122e-01
  1.0268110e+00
 -4.2088319e-05
 -1.3390965e+00
  6.3131425e-05
  3.3796445e-01
 -3.2038684e+00
 -3.8911400e+00
  2.4925101e-05
  2.0996867e-04
  1.0386450e-05
 -3.5292811e-05
  1.3196666e-04
  2.8567320e-06
  9.2158180e-06
 -3.2366137e-05
  1.3510672e-04
  1.6682014e-05
  1.8478961e-05
  2.8667999e-05
 -2.0209341e-06
 -2.8064768e-04
 -3.3537456e-06
  2.9287616e-05
  6.2467007e-05
 -2.7102506e-06
  5.7690595e-05
  4.8350030e-06
  8.4949033e-06
  1.2177298e-04
  7.6829179e-05
  1.6270664e-04
 -1.4261532e-04
  6.5108543e-06
  5.4879379e-06
  1.0694210e-04
 -5.1316343e-05
 -3.0200592e-05
 -3.4604458e-05
 -3.3174700e-01
 -1.0400874e-02
 -4.0577928e-05
 -2.4785078e-04
 -2.7819369e-05
 -1.1609011e-04
  6.5729233e-05
 -9.2169009e-02
  8.4763655e-04
 -7.4043415e-02
 -2.1623897e-03
  8.9915164e-02
  7.6624165e-05
 -9.9331330e-05
  7.1839827e-06
 -2.8671169e-05
 -2.8670335e-04
  8.4375715e-05
 -2.6469755e-01
 -7.3383383e-02
  1.8207525e-06
 -1.0813586e-05
 -4.3491717e-02
  2.7187713e-04
 -7.7897996e-02
  8.7295973e-07
 -4.6785487e-04
 -3.6098387e-05
  5.6200590e-02
 -3.3574688e-05
  1.7836435e-05
 -5.3867094e-05
 -5.1918014e-05
 -6.6400266e-06
 -3.3075132e-05
  5.0942504e-05
  1.0789186e-04
  4.5408338e-05
 -1.5707576e-05
  1.9154983e-04
  5.8139865e-03
 -5.0841551e-05
  4.7868103e-05
 -4.8379363e-05
  4.3438147e-05
  1.1436808e-04
 -4.0324790e-05
 -9.0338333e-05
  3.1805797e-05
 -7.3620868e-05
  8.0506026e-05
 -2.4059325e-05
  6.7531541e-06
 -2.0504558e-06
  2.2483780e-05
  1.3618126e-04
  4.8635815e-05
 -9.2421233e-06
  9.0836918e-05
  5.0822840e-05
  1.0951577e-05
  1.7252711e-06
 -4.6340876e-05
  4.1091451e-05
 -4.7660269e-05
 -1.6353584e-05
 -1.3595037e-04
 -5.7244772e-05
 -1.5536496e-05
  7.4495634e-05
 -1.6870478e-06
  3.4171473e-05
  2.4591474e-05
 -3.9138587e-04
  2.8389995e-06
 -4.0435771e-05
  2.1789969e-05
 -2.2718299e-04
  8.0044100e-07
 -2.5636538e-05
  2.1591317e-05
 -4.0218456e-05
  3.3248256e-05
 -1.5938349e-05
 -1.0053511e-07
 -9.2997197e-06
  5.7712699e-05
 -1.0635355e-04
  3.9658418e-05
 -1.1332092e-04
 -5.4849756e-01
  6.1635333e-03
  5.5367404e-01
  3.2790497e-01
  2.5594971e-04
 -8.1198609e-01
  2.1574016e-01
 -6.4264119e-02
  1.2623438e-01
 -3.8042876e-01
 -3.1923062e-01
  8.6008531e-01
  1.5837847e-01
 -5.9287679e-01
  1.3764061e-03
 -6.1724335e-02
  1.4995843e-01
 -6.8590885e-01
 -8.2508212e-01
 -1.2362534e-04
 -3.5633513e-04
 -7.4933507e-07
 -1.0099719e-01
  3.4123564e-01
 -9.1141909e-02
 -4.6076282e-05
 -2.3011526e-05
 -5.8641621e-05
  1.3809149e+00
 -1.3893405e-04
 -3.6006380e-04
 -6.5168981e-03
  1.0867411e-04
 -3.8039902e-01
  2.7990789e-04
 -1.7605048e-02
  2.0564620e-03
 -3.1054504e-03
 -1.9950142e-04
  4.6315359e-05
 -2.1877810e-03
  5.2943665e-06
  7.5462412e-05
 -4.8058635e-05
 -3.9397302e-04
 -6.1962732e-05
 -7.2510511e-04
 -2.1868644e-04
 -1.8610502e-02
 -1.5890384e-05
 -3.1762519e-03
  1.7762775e-05
 -7.7460852e-04
  3.0393372e-04
 -8.1353873e-04
 -6.4245622e-05
 -5.8271512e-02
  1.4086537e-03
  5.2876163e-02
 -1.4758822e-04
 -8.4882930e-05
 -2.4866094e-01
 -1.3222739e-04
  1.1723428e+00
 -1.4873073e-04
  7.4400175e-01
  1.0086496e-01
 -5.3779930e-01
  6.2580132e-01
  2.1719190e-01
 -4.3148673e-05
 -1.0420460e-04
 -1.0927159e-04
 -6.8193161e-01
  3.4986264e-01
 -5.8502083e-05
  1.8882130e-01
 -4.3918198e-04
 -5.8418200e-03
 -6.7588343e-07
  2.0172169e-05
 -7.5890766e-06
 -2.7773374e-05
 -4.7847170e-05
 -5.3702039e-04
 -4.5838506e-06
 -8.3686420e-05
 -4.4405151e-05
  7.1534300e-01
 -1.2495658e-04
  2.3179381e+00
  6.9323790e-01
 -2.5720382e-01
 -1.6465262e+00
  2.9697282e+00
 -2.1856898e-01
  9.5021181e-02
 -4.3417391e-01
  4.7009367e-01
 -3.3287087e-01
  5.2439094e-01
  5.2185798e-01
 -1.1078939e-01
  9.3167120e-01
  5.3295082e-01
 -1.9497040e-04
 -2.3228242e+00
 -2.4348094e-01
  8.1259191e-01
  5.1930308e-01
  3.7397135e-02
  2.8387607e-05
  2.2983761e-01
  8.1421995e-01
  4.3407746e-02
 -2.3456512e-05
 -3.3130762e-01
 -1.9313486e-02
 -5.3837210e-01
 -1.6125482e-04
 -8.4613216e-01
 -1.5706470e+00
 -3.3828542e-01
  1.1183882e+00
 -1.1308895e+00
 -1.9965047e-01
 -1.6347704e-02
 -3.0266041e-01
  1.3423820e+00
 -3.0235925e-01
 -3.0135977e-01
  1.7679329e+00
 -2.6889123e-02
  3.7682036e-01
 -3.5729149e-01
 -1.0581669e-04
 -1.2738644e-01
  4.4976637e-01
 -6.3256219e-02
 -1.6241536e-01
 -1.1325203e+00
  1.8170361e-01
 -1.7713778e+00
 -1.2323278e+00
 -8.0330688e-01
 -4.2821252e-04
 -3.0701378e-01
  3.2862255e-01
 -7.1993721e-01
  1.4300510e-01
  1.4659474e+00
 -5.6405440e-02
  8.6683724e-07
  7.7281576e-01
  5.7627642e-01
 -1.5699168e-01
  9.4300508e-04
 -3.4673557e-01
 -6.8869698e-01
 -8.7419162e-03
 -3.1600231e-01
  1.2401142e+00
  7.3910624e-01
 -4.1497785e-01
  2.4481816e-04
 -6.0861343e-01
  9.5022388e-02
 -3.7475552e-02
 -8.0342269e-01
  1.3829669e+00
  7.6078613e-05
 -7.9981893e-02
  2.8033022e-04
  4.4289321e-01
  1.0227072e+00
 -1.1136639e-04
  5.5803955e-01
 -4.9562550e-05
  8.2579780e-01
  2.4745435e-05
  5.7353885e-05
 -1.7091718e-04
 -1.9869456e-05
 -3.0730367e-05
  2.4362477e-04
 -1.4038493e-04
  4.6969271e-05
 -1.4006326e-04
 -2.4802190e-05
  3.0112844e-05
 -6.4936867e-05
 -4.4788489e-05
 -8.7932640e-06
  1.9586799e-04
 -5.4954060e-05
 -3.2046889e-06
 -4.1635569e-05
 -1.7616835e-04
 -2.2424785e-05
 -8.9707624e-05
 -5.3581418e-05
 -5.1336854e-05
  1.0928176e-05
 -1.6391934e-05
 -2.8298553e-05
  1.0535287e-04
 -3.4621229e-05
 -8.0970065e-05
  6.1204242e-05
 -1.0369514e-04
 -1.0335210e-04
  1.8200906e-05
  2.1431926e-05
  3.1499994e-06
  3.8919905e-05
 -3.6466594e-05
  2.5065845e-05
 -6.6895402e-05
  3.7461428e-05
  2.8926186e-05
 -7.6166565e-05
 -1.7025463e-05
  5.2767318e-06
 -6.7748742e-06
 -1.7375085e-05
  4.3688167e-05
  3.2911118e-04
 -1.3044188e-05
  1.2360069e-05
 -1.1497996e-04
  4.7986916e-05
 -7.6975673e-05
  8.3712994e-06
 -2.0024029e-04
  1.7205895e-04
  7.5754040e-05
  3.6406639e-06
  1.0345172e-04
  7.1880975e-05
  6.1128419e-05
  4.2059040e-05
  9.0740585e-01
  2.8127139e-05
 -2.0622168e-05
 -2.5384218e-04
  7.1600256e-03
  8.8100292e-02
 -3.7629399e-01
 -1.2840243e-01
 -1.2915957e-02
  1.2798999e-04
 -7.8450073e-05
  4.2646537e-03
 -1.0995814e+00
 -4.8399579e-06
  1.6393793e-04
  1.3407029e-04
  1.3573914e-04
  8.4110218e-01
  3.8625385e-05
  2.9715038e-05
  2.9171263e-06
 -6.5214008e-05
  3.6359249e-04
  1.3022299e-04
 -1.9752183e-04
 -3.8028127e-06
  1.1463698e-04
  5.5707453e-05
 -4.2736323e-05
 -3.2188907e-01
 -1.9475429e-01
 -4.2849085e-01
  2.4033885e+00
  2.1874730e-02
 -3.8165835e-01
 -3.0994220e-03
 -3.1046605e-01
  1.3303500e+00
  6.5842263e-02
  1.5528392e+00
  1.2253723e+00
 -3.3398747e-01
  1.7788278e+00
  3.3676198e-01
  1.7188286e-02
  3.0720908e-02
  7.3340845e-01
  6.8634325e-01
  1.8699979e-02
  4.4877064e-01
  9.6206674e-03
  4.2168599e-01
 -1.0498421e-01
  9.3595999e-01
 -4.7564486e-04
  1.0045357e-01
 -1.3416335e-01
  2.2768055e-01
 -1.2399369e-01
 -1.5341471e-05
 -7.6981045e-02
 -1.3792839e-05
 -7.5342238e-01
  2.8507733e-01
 -5.6250367e-02
 -1.7981157e-01
  1.9026685e-01
 -7.3520336e-05
  1.5635675e-01
  2.3458196e-01
 -1.3011718e-05
 -9.8801881e-02
 -1.0006526e+00
  8.1346393e-02
  1.2296121e-04
 -1.5008666e-05
  3.0709729e-05
  1.8658570e+00
  6.4556181e-01
 -1.5933103e-05
  8.9722698e-06
  6.0106900e-05
 -3.5402711e-05
  1.2432256e-04
  8.6881573e-06
 -6.5845334e-06
 -3.9614708e-05
 -1.9550827e-01
  4.6051052e-01
 -2.0455467e-03
  7.5767070e-01
  4.1391081e-01
  2.5092941e-03
 -1.5075805e-03
  1.2426888e-01
 -1.0018674e-01
  6.1195219e-01
  3.4480147e-02
  1.2853345e+00
 -5.1480556e-01
  1.0467125e-01
 -2.6080935e-04
  1.9571947e-01
  1.4376265e+00
  8.8616034e-05
  1.1184318e-04
 -1.1251394e-04
 -2.5388983e-01
  9.3089503e-01
  7.9175305e-05
  1.2867161e-04
  8.2883482e-05
  1.2499454e-01
  8.0646394e-04
  1.0638488e-04
 -7.9570120e-05
 -5.4528559e-06
 -8.0071279e-04
  3.4802579e-04
 -1.3301219e-04
  1.4098232e-04
  7.2549359e-05
  3.1508323e-05
  3.0147658e-05
 -8.4911597e-05
  1.1581738e-04
 -9.0959911e-05
 -7.7940531e-06
 -9.1146954e-05
 -4.9977534e-06
 -1.5156517e-07
  4.2162970e-05
  4.9166327e-05
 -2.1307835e-04
  5.3809821e-05
  1.6109445e-05
  3.4232271e-05
  4.5999273e-05
  4.5708053e-05
 -9.1077956e-05
 -8.0276404e-05
  3.5307539e-06
  2.8629563e-06
  5.2308682e-05
  7.0667767e-05
 -8.2056264e-05
 -6.5419474e-05
  6.9387047e-06
  1.9701592e-05
  3.5301196e-05
 -5.2526997e-05
  1.9769775e-04
  5.0062571e-02
  7.3984913e-05
 -7.4844691e-05
  4.8861802e-03
 -1.6765414e-03
 -1.5113613e-01
  1.8288023e-04
 -4.0913135e-05
  4.9546424e-01
  2.2774768e-06
  1.9750524e-02
 -1.0510742e-05
 -1.0826899e-04
  2.7917126e-06
  3.1055144e-05
 -6.8650283e-03
 -1.4817160e-05
 -9.5533078e-06
 -9.5915420e-05
 -9.7166499e-05
  1.3060863e-04
 -2.8339271e-05
 -2.0576530e-05
 -1.3637725e-04
  6.8517625e-06
  4.7724098e-02
 -3.0932596e-04
  4.5957309e-03
  3.1504504e-02
 -2.8855467e-05
 -5.0179642e-02
 -5.8165099e-04
  2.6721071e-02
 -1.3616218e-03
  4.0440373e-02
  2.1997078e-01
  2.6813688e-02
  5.9916424e-03
 -8.4507570e-02
  1.7135557e-04
 -4.4600859e-02
 -6.2158429e-06
  2.4644216e-05
  2.6775996e-04
 -9.3641456e-06
 -1.0590731e-01
  1.6283047e-01
  3.0639587e-02
  3.2026794e-05
  2.4197200e-01
 -9.2926127e-04
  3.1588987e-01
  3.6725804e-04
  4.3243486e-02
 -3.5203898e-03
 -2.0771461e-02
  1.2618812e-02
 -1.5071154e-01
  1.1747394e+00
  2.8550875e-01
  9.9571019e-01
 -1.6125503e+00
  6.5565842e-01
 -6.7482954e-01
 -3.3550018e-01
  6.6050947e-01
  4.5556876e-01
 -2.6298448e-01
  4.8046893e-01
 -1.8066971e-04
  2.6184664e+00
 -1.2737386e-02
  7.6006800e-03
 -4.9864716e-04
 -4.0453705e-03
  1.6086575e-05
  4.9097958e-05
  6.7352761e-05
  1.6591181e-04
 -5.2582292e-04
  3.2961446e-01
 -6.9508678e-05
 -7.9608362e-05
 -2.8569577e-05
  8.3631450e-05
 -6.3204709e-05
 -4.4520682e-05
  9.1676848e-05
 -4.4227469e-05
  6.1095919e-04
 -1.6953600e-06
 -1.2547427e-04
  1.4208873e-05
  2.0297633e-05
 -6.3993530e-06
 -1.7078024e-04
  2.5164132e-04
 -1.0906409e-06
  8.7939014e-05
  7.7001772e-05
 -8.9012268e-05
  4.9687319e-06
 -3.4907464e-06
  3.2015239e-05
  1.6361813e-05
 -6.6248022e-06
  8.7790995e-06
 -4.6352674e-05
  1.2019159e-07
  3.2151009e-05
  2.1883568e-05
  6.2444847e-06
 -1.8433568e-05
  3.2798707e-05
  1.0948888e-04
 -5.6756879e-05
  2.5465835e-05
  2.4383030e+00
  1.0564300e+00
  7.7373362e-01
  2.8981661e-02
 -6.0406113e-01
  2.3247902e-01
  8.1806880e-01
 -7.1508342e-01
 -1.4062531e-01
 -1.4191046e-02
 -8.3378698e-05
 -2.2455288e-01
  7.2856307e-01
 -1.5175313e+00
  4.8224949e-03
  1.3112991e-01
  8.4537911e-01
 -8.7424843e-07
  1.5249848e-01
  3.4754622e-01
  1.1109648e-04
  5.2002117e-05
  1.9795447e-05
 -1.2608240e+00
  2.5592168e-04
 -1.9494628e-05
  3.3744493e-01
  6.6257788e-05
  2.9137099e-04
 -9.3723123e-05
 -5.9440418e-04
 -1.2691320e+00
 -1.0432541e-01
  1.4216806e+00
  8.2702279e-01
 -2.7439553e-01
  7.4548858e-01
 -1.0411863e-01
 -6.1645848e-01
  7.4527428e-02
 -3.6423299e-01
  2.0736054e-01
  2.3538306e-02
  2.1315712e-01
 -2.5012755e-01
 -5.0171860e-05
  3.7094671e-02
 -5.5397079e-05
  3.0151790e-01
 -1.6790462e-05
 -1.4232572e-04
  8.6908994e-06
 -2.6759248e-05
 -3.4626784e-05
  5.4888740e-05
  2.3897872e-05
 -3.4818437e-04
  2.5201161e-06
  5.9925545e-02
 -1.4389411e-01
 -1.8415074e+00
  5.2910292e-01
  1.9333286e+00
  2.6749778e+00
 -3.1917408e-01
  2.4791561e-01
  7.5542021e-01
 -2.1755809e-01
  5.2418762e-01
 -4.3595436e-01
 -6.2680775e-01
  2.3954227e+00
  2.7351034e-01
  2.4238446e+00
 -6.0586029e-01
  4.4860291e-01
  2.7665383e-01
 -6.8016464e-01
  1.3683498e+00
  1.7318183e-03
 -2.7527153e-02
  1.4310770e-04
 -5.0427896e-01
  4.1598237e-01
  1.6914924e-05
  6.1169034e-05
 -1.4717224e-03
  6.4071649e-01
 -2.9782721e-01
  3.0215610e-05
  2.0214161e-01
  4.0411465e-05
  1.4198890e-05
 -1.2369940e-04
 -3.3501536e-05
 -3.9390625e-07
  7.1193481e-06
 -5.6177360e-06
  3.9262359e-05
  6.7523688e-02
 -3.6777536e-05
 -5.8090733e-05
 -8.8403895e-06
 -8.5255943e-02
  4.1841944e-05
 -1.0262728e-04
 -4.0417235e-05
  9.9353121e-05
  4.9031991e-05
 -8.7990345e-05
  1.6109154e-05
  5.4883461e-05
  5.8156056e-05
  3.1138698e-05
  1.5004193e-04
 -4.2676125e-05
  4.5533128e-05
  2.8829436e-05
 -1.3188276e-05
  2.3837574e-05
  4.5670789e-05
  1.3746964e-04
  3.4586643e-05
 -5.1274240e-01
  8.0848801e-01
  9.2532255e-06
 -5.9801358e-01
 -5.3584915e-07
  2.3824044e-01
  1.3469304e-01
  4.4244906e-04
  2.0336744e-04
 -8.7303873e-05
  8.1877513e-03
 -3.6509970e-01
 -2.8165752e-05
  3.3397361e-04
  8.9611975e-05
 -1.3513460e+00
 -1.1668287e-06
  1.1450359e-04
  2.0764432e-05
 -6.6083187e-05
  2.7457001e-05
  2.0543257e-04
 -2.2961899e-04
  2.6702846e-05
 -1.3237183e-05
 -4.8356812e-02
  2.8471724e-04
 -2.4722902e-02
  3.9327767e-01
  4.6709952e-01
 -8.0849010e-01
 -6.5262734e-06
 -1.2040460e+00
 -4.0190405e-01
  1.9065104e-01
  9.1245985e-01
  3.8534034e-02
  1.4963782e-05
  1.2575986e+00
  4.5975235e-01
 -1.2713084e+00
  7.1492799e-02
 -5.0566756e-05
 -1.0884819e-02
  8.3327432e-05
  6.6763803e-02
 -1.6762303e-02
 -2.9784704e-03
 -4.2735748e-05
 -1.2118916e-01
  3.9019135e-01
 -2.2151752e-04
 -1.7905879e-05
 -1.9321807e-01
  3.3617742e-02
  9.8620915e-01
  1.3411878e-05
 -2.9564781e-06
 -1.2086696e-04
  4.9529567e-06
 -7.9889760e-05
 -2.2908331e-05
 -1.1785402e-05
 -1.1441100e-05
  1.0875449e-05
 -5.3462132e-05
  7.6520701e-05
 -2.6693798e-04
  2.6077414e-05
 -9.4987172e-06
  2.2022405e-05
 -1.0021343e-07
  4.0880994e-05
  1.0647676e-04
 -4.5329820e-05
 -1.1312674e-04
  1.5133185e-05
 -4.4873336e-06
 -2.1687472e-05
 -4.0668372e-05
 -5.4908778e-05
 -3.6216250e-05
  7.5043616e-05
 -6.4798609e-05
 -2.2275175e-05
  3.5874542e-05
 -5.1455529e-05
 -7.6343313e-06
 -4.4779790e-05
 -2.0748879e-05
 -4.8793227e-06
 -1.0218239e-05
 -1.6490765e-05
  1.0755222e-05
  8.0001519e-05
 -1.1001537e-04
  9.0243069e-05
  4.8483435e-06
  1.9321764e-05
 -2.6777785e-05
  8.6204302e-05
  3.0006902e-05
  9.4274081e-05
  7.2568873e-05
 -1.4149371e-05
 -1.0685151e-06
  3.9426595e-06
  2.0431506e-05
  4.7063686e-06
  9.6702061e-05
  3.6571812e-05
  1.9543279e-05
 -3.4477118e-05
  4.0511845e-06
 -4.8118651e-05
 -7.6951867e-05
 -1.8201157e-04
 -7.6142639e-02
 -1.4155342e-01
 -1.8411485e-02
 -5.9464085e-01
  6.1895330e-02
  8.4668733e-02
  1.0100017e+00
 -2.8705326e-01
  7.3960766e-02
  3.8170096e-01
 -5.0486572e-02
  3.5562363e-01
 -6.0614228e-01
  2.1950874e-02
 -5.5868512e-01
 -6.1533833e-04
  8.4053934e-01
 -4.0881222e-01
  9.2024004e-01
 -5.7473502e-05
 -3.3384969e-03
 -4.1923327e-06
 -2.5160244e-01
  1.2725775e-05
 -2.4727462e-01
  7.3802505e-07
 -1.6470369e-03
  1.5512355e-04
  9.9742375e-02
 -7.1223425e-03
  2.8476643e-04
  2.6742619e-04
  1.0298073e-05
 -3.4586137e-05
 -1.5024242e-01
  7.5085161e-05
  4.1592561e-02
 -9.0816253e-01
  1.3863935e-02
  2.8910238e-01
  5.1021857e-06
 -5.6591096e-05
 -3.3926749e-01
  6.8038422e-01
  9.8196644e-01
  1.2329251e+00
 -5.1292936e-06
  1.2549971e-05
 -9.9905919e-05
 -1.8750128e-01
 -5.7982252e-05
 -5.8947849e-01
 -1.3676463e+00
  1.5906471e-01
 -5.6837587e-05
 -5.4644012e-01
 -7.6383322e-02
  3.6436052e-04
  9.8416958e-06
  5.2981943e-01
  1.9047064e-01
 -6.6114897e-01
  1.0648328e-04
 -7.1435570e-05
 -7.3993373e-01
 -9.8069435e-01
 -5.6740308e-01
  2.4492211e+00
 -2.0697970e+00
  1.4034866e+00
  2.0538171e-05
  2.5032454e-05
  5.9470063e-01
  2.2979569e+00
  7.6547152e-01
  5.9831262e-01
  6.5363281e-05
 -5.0536144e-01
  8.5754621e-01
 -8.7885386e-01
  1.9383944e-05
  9.6717447e-01
 -6.9665647e-01
 -1.9868263e+00
  3.2287444e-06
  4.7476643e-01
 -9.9592245e-01
 -3.8577581e-04
  7.1726470e-05
 -8.7580991e-01
 -2.4439487e+00
  8.5212225e-01
  5.5257112e-01
 -6.3061517e-01
  7.9939040e-05
 -3.8161300e-02
 -5.1072592e-01
 -1.1613700e+00
  1.1485075e+00
  1.9417216e-01
  3.8423595e-01
  2.2939873e-01
 -3.5229355e-01
 -3.2309919e-05
 -9.8242461e-05
 -6.3121720e-04
 -4.2813558e-02
 -2.1892722e-05
  1.4077950e+00
 -1.7576535e+00
 -8.1641430e-01
  8.8522744e-01
  9.4473696e-01
  2.4938818e-05
 -1.6267853e-03
  2.2584459e-01
  9.4297993e-01
 -1.5701741e+00
 -2.5652263e-01
  3.8652098e-01
 -2.6725545e+00
 -8.8844843e-02
 -5.8302248e-05
 -1.1625857e+00
  8.8588709e-01
 -9.8153716e-01
  4.5934743e-01
  8.6154139e-01
  1.6873446e+00
  3.9848450e-01
 -3.8081028e-02
 -5.6771153e-01
  1.7786038e+00
 -5.1872545e-01
 -3.6624941e-05
  1.9633114e+00
 -1.2034785e+00
 -2.0618622e+00
  1.1524998e+00
  4.2004856e-01
 -1.2678443e+00
  1.5452700e+00
 -6.2498778e-01
  1.0007855e+00
  9.0077281e-01
 -1.1002748e-01
  3.0684721e-05
  2.8265101e-01
 -4.6087584e-01
  3.3170354e-01
 -8.1423587e-01
 -2.7431515e-01
 -2.0012887e-05
 -1.7915367e+00
  1.1638687e+00
 -9.6017593e-01
 -1.6400788e+00
  2.5183180e-01
 -1.8758638e-01
  8.7992877e-02
 -1.6355830e+00
 -2.1359187e-01
 -1.5098832e+00
  1.2793368e-01
  4.9599245e-02
 -3.2824457e-01
  8.2969397e-01
  3.6901394e-01
  2.1738369e+00
  1.8693389e-01
  3.5063860e-01
  1.0102030e+00
 -3.3017761e-01
 -4.8537812e-01
 -2.1564934e-01
 -7.0147777e-01
 -3.6239967e+00
 -2.9412352e-03
 -9.6239704e-01
  3.6235797e-01
  1.0631257e+00
 -1.4033413e-05
 -1.1829608e-06
 -8.3472296e-05
  1.8831402e-04
 -1.1713378e-02
  1.9886967e+00
  5.6323837e-03
  1.3047753e-02
  4.7931712e-02
 -3.3558352e-04
 -4.5605660e-03
 -2.6732980e-04
 -1.9192149e-01
 -5.2681082e-01
  1.5287705e-01
  8.9072873e-06
  6.3076121e-01
 -7.6228040e-01
 -1.7754978e-01
 -4.0468350e-01
 -1.0273149e-01
 -1.1299380e+00
 -2.3620958e+00
  5.5163997e-01
  6.2135249e-02
  1.0919696e-01
 -3.6433083e-01
 -1.7663410e-04
 -2.5385915e-04
 -4.1013852e-01
  1.3091825e-01
 -9.0870199e-05
  2.2370191e+00
  4.8422214e-01
  6.6100353e-01
  1.7784873e-01
 -1.0634156e-01
 -3.7855664e-06
  1.3620682e-01
 -2.6312062e-01
 -7.8312242e-01
  1.4638731e+00
  1.5150229e-02
  1.8555412e-01
  5.5857682e-01
 -1.7075498e-01
 -3.0762047e-01
 -6.0658997e-01
 -4.5689037e-01
 -3.9640489e+00
  1.2978483e-05
  1.2682909e+00
 -3.5408605e-02
 -7.5863039e-01
  5.5597657e-06
 -2.0870036e-01
  3.7458963e-03
 -2.8633251e-04
  2.1778029e-01
 -6.2011298e-02
  1.0512562e+00
  5.8439404e-01
  1.5094194e+00
 -1.5139744e-04
  1.0889312e-04
 -3.1761315e-02
 -7.1801537e-01
 -2.2839205e+00
  1.2795974e+00
  5.4086322e-01
  1.9975872e+00
 -6.3189161e-01
 -1.3108451e+00
 -1.6738215e-01
 -1.3688577e+00
 -1.9801947e-01
  5.8478522e-01
  8.4674549e-01
  4.7345889e-01
  9.4302811e-02
 -7.2564369e-01
 -1.8025172e-03
 -3.6162768e-02
 -1.3171502e-05
 -2.6743713e-01
 -9.5272799e-06
  2.1707536e-01
  1.0234500e-01
  7.3400029e-04
 -3.2660392e-01
  2.1351121e-01
  3.9096113e-02
  1.5760785e-05
  1.1370344e+00
  1.2333179e-05
 -6.2801373e-01
 -3.5041910e-02
  6.2976673e-05
  9.0907261e-06
 -3.0575277e-02
 -3.1097588e-01
 -1.2729108e-01
 -1.1434453e+00
 -2.8386855e-01
 -1.0811423e+00
  5.1932633e-01
  2.6593262e-01
  1.0842828e+00
 -2.6725516e-01
 -3.6278823e-01
  1.3244176e+00
 -2.2540329e-01
 -7.7692032e-01
  1.9913484e+00
  6.1763453e-01
  1.1087902e-02
 -1.0521827e+00
  5.9878951e-01
  9.6775278e-02
  3.8789088e-01
  6.9154906e-01
  2.7986610e-01
  1.3442556e+00
 -2.5869240e-06
  6.6458732e-01
 -3.8651359e-01
 -7.0684648e-01
 -5.8454934e-05
 -5.3948373e-01
  1.6802006e+00
 -6.9562152e-02
  1.1119065e-01
 -2.9157815e-04
  1.7150098e-05
 -6.2223081e-02
 -3.2514572e-01
 -2.4234464e-02
 -4.6856230e-01
 -2.0061336e+00
 -9.0849459e-01
  3.7117168e-01
  1.0406421e+00
  6.3072983e-03
  2.0836980e-05
 -1.1246221e+00
 -5.3904277e-01
  3.2655325e-02
 -1.9146336e-03
  1.4481708e-01
  3.7445992e-01
  1.7126878e-01
  9.4660091e-01
  9.3497813e-01
  2.3493862e+00
  2.1840322e+00
 -1.0761127e+00
  1.4309938e+00
  6.0291424e-02
 -1.5936023e+00
 -7.7290428e-01
  1.2523565e+00
  1.1668953e+00
  4.3765227e-05
  1.3714214e-01
  4.8014383e-05
  1.6515232e+00
 -1.1512898e-05
 -2.8389823e+00
  1.2347865e+00
  2.0479687e-01
 -4.2683464e-01
  9.1733974e-01
  4.9369460e-01
 -2.4462305e-01
 -2.1101811e+00
  1.4703167e-02
  6.1920542e-01
 -1.6376024e+00
  2.2830760e-01
  1.6662370e-01
  2.9196411e-02
  1.0377985e+00
  6.0658818e-01
  2.3718410e+00
  1.8655217e+00
 -1.7179459e-02
  1.0686187e+00
  1.4580576e+00
 -1.4230156e+00
 -7.4411423e-07
  2.1087038e-03
  7.6878750e-01
  2.0349799e-01
  2.0577192e+00
 -9.9611610e-01
  2.7780638e+00
  8.5040383e-02
 -2.5845594e+00
  1.0832134e+00
  2.0861094e-01
 -2.1213043e+00
 -4.4010580e-01
 -1.2550555e-01
 -1.5114719e+00
 -8.8888347e-01
  4.4145706e-01
 -2.2662540e-01
  1.0217415e+00
  1.9080640e+00
  3.1338823e-01
  2.3593388e-01
  7.0595652e-01
 -4.3294907e-01
 -1.9205403e+00
  3.1332451e-01
  2.2637315e-02
  5.4867864e-06
  2.3356667e-01
 -9.9334639e-01
  1.6326305e+00
 -1.6062300e-01
  3.7231624e-01
  4.2156988e-01
  6.7410713e-01
 -2.2059541e+00
 -3.0945666e-05
 -7.6332927e-01
 -1.0222350e+00
  1.2940948e+00
  1.4962193e+00
  1.0491807e+00
  1.2562060e+00
  1.8321490e-01
 -6.2677264e-01
 -1.1426082e+00
 -6.8483394e-01
  1.3270439e+00
 -1.4771248e+00
 -5.9829646e-01
 -4.1908267e-01
 -2.3501868e+00
 -4.1909245e-01
 -4.1554395e-02
 -1.8414602e-01
 -3.3157393e-01
 -5.2678417e-05
 -5.3393692e-01
  2.8387315e-06
  6.3452649e-01
 -7.6321048e-01
  1.0559234e-05
  8.6780149e-01
  8.6036955e-05
  3.5444507e-01
 -5.1929945e-01
  8.6340457e-02
 -1.4307375e-02
 -3.2565084e-01
  7.9021657e-01
 -1.8858356e-02
 -1.0447828e+00
 -1.8372401e+00
 -6.3540995e-01
  1.1453081e+00
 -1.0485172e-01
 -2.1949983e+00
  1.3045236e+00
 -3.3484885e-01
 -2.4039564e+00
  6.7141038e-01
 -5.2396530e-01
 -9.3800831e-01
  1.9277929e-01
  9.7846054e-02
 -4.0633500e-01
  7.0324004e-01
  2.8608128e-02
  9.5222285e-06
  9.8331124e-01
 -1.1354932e+00
  6.5476429e-01
 -4.8998848e-01
  3.4910068e-01
 -7.6566052e-01
 -1.4500382e+00
  1.5223791e-03
 -3.1205818e-01
  8.5100688e-02
 -1.1279855e+00
 -1.0329081e-01
 -1.8245196e+00
 -1.5936377e+00
 -2.8311176e+00
 -6.9299185e-01
 -1.9810654e+00
 -8.7506407e-01
  1.9868075e+00
 -1.0131965e+00
 -1.0002801e+00
 -6.9414705e-01
 -8.1433392e-01
 -1.7892639e-01
 -1.3749818e+00
  5.6568271e-01
  4.8598757e-01
 -4.4797501e-01
 -1.7352478e-01
 -1.4288138e+00
  1.9031650e+00
 -1.4353825e+00
 -2.8782550e-01
  6.3055807e-01
  1.1584780e+00
  4.5939440e-01
 -8.4165835e-01
 -2.8554856e-05
  1.4692670e-04
  2.3880075e-06
 -1.7314781e-03
 -2.5469755e-05
 -2.2285581e+00
 -6.9711083e-01
 -1.2367907e+00
 -4.9019691e-01
 -9.1089620e-05
  1.9982965e-05
 -1.5457098e-04
  1.4962007e-05
 -7.7449447e-05
  5.0934742e-04
 -8.3682244e-05
 -6.9389212e-01
 -6.5830907e-05
  1.0090886e-05
 -1.7443275e-05
 -1.0222499e-05
 -3.4650877e-02
 -6.7260917e-06
 -1.2797140e+00
  8.5225052e-01
  5.2774924e-01
 -1.2540860e+00
  3.2029850e-05
  3.3383722e-06
 -1.1870961e-04
 -6.1183883e-04
 -3.2328258e-05
  1.4726452e+00
 -1.0218844e+00
  5.9764630e-01
 -5.7354927e-01
  4.1575688e-05
 -5.7800655e-05
 -7.7556680e-05
 -1.2022745e-03
 -5.5869471e-04
 -5.4310739e-01
  9.0552801e-01
  3.6617131e-03
 -6.3634688e-01
  9.1730268e-05
 -1.4593257e-04
 -4.2844886e-06
 -6.0715836e-05
  2.1413029e-05
 -1.9475548e-01
  6.9833249e-01
  1.0363954e+00
 -8.8439274e-01
  4.2251308e-05
 -5.3545782e-06
  5.9925536e-05
 -1.1837100e-05
 -4.2227497e-05
  4.0193203e-01
  2.6545638e-01
 -1.7154149e+00
 -6.0097158e-01
  1.8862504e-05
 -1.6454118e-05
  5.1660474e-05
 -1.0293696e-01
 -2.3176024e-06
 -1.5297301e+00
  1.0697080e-01
 -1.6258828e-02
  1.4597365e-01
 -9.6706217e-06
  6.3038256e-05
 -1.2216698e-05
  4.9358827e-05
 -9.0183430e-06
 -2.3960058e-01
  4.9717337e-01
  7.4354118e-01
 -3.4171197e-01
  2.0044223e-05
 -5.6819303e-05
 -4.5930751e-06
 -2.6271918e-01
  7.7396498e-06
  1.2684077e-01
 -7.3506558e-01
  1.3450733e+00
  3.2549094e-02
  2.0298801e-06
 -1.1824702e-04
  8.1418402e-06
  7.6337921e-05
  5.6334487e-05
  1.9600463e-01
  2.6368905e-05
  2.8271565e-01
  5.3637368e-06
  1.0620596e-05
  2.1717491e-04
 -4.5334720e-05
 -2.0178059e-01
 -6.2910425e-05
  3.0557996e-01
 -7.1540248e-01
  7.0012534e-01
 -8.5605305e-01
 -1.9670665e-04
 -1.7134020e-05
 -2.7993054e-05
 -2.6995871e-05
 -7.6981181e-05
  1.2229321e+00
  3.6592561e-01
 -1.1237382e+00
 -7.2476423e-01
  7.0041424e-06
  4.1093385e-06
 -5.3872980e-05
 -1.5270134e-04
  2.7969600e-05
  3.1544734e-04
  6.0594048e-02
  3.2400697e-01
  5.4563773e-01
  5.2776184e-05
 -1.4700487e-05
 -6.3739526e-06
 -5.6619439e-05
  1.7072152e-01
  7.5057083e-01
  5.9085464e-01
  2.5641098e+00
 -9.1226947e-01
 -6.8894282e-05
  6.1849452e-05
 -3.7300590e-05
 -1.4217246e-04
  4.7302812e-05
  1.6635796e-01
  3.2425899e-02
  2.0140544e-01
 -1.5298922e-01
  1.5095792e-05
  5.1473959e-05
  1.7655340e-05
 -5.9083006e-05
  7.1927832e-05
  6.9333714e-01
 -4.7402382e-01
  7.0617980e-01
  8.5963517e-01
  2.0502104e-05
  3.1810928e-06
 -1.4450659e-02
 -1.3254186e-05
 -8.2697508e-05
  1.0741545e-01
  1.3216245e-01
 -5.5418283e-01
  3.5617787e-01
 -1.1066919e-04
  4.5340545e-05
 -1.0300339e+00
 -3.8737363e-01
 -5.3303070e-06
  6.4966792e-01
  5.1872693e-02
 -4.3362644e-01
 -5.8179939e-01
 -3.1032905e-05
  1.8544366e-05
 -3.1614176e-04
  4.9798811e-05
 -4.2566548e-06
  1.2833438e+00
 -1.2297641e-05
  3.9702018e-06
 -2.9505351e-05
 -1.0243698e-04
 -4.0884632e-05
 -5.1742408e-02
 -2.4218667e-01
  4.2679305e-05
 -7.0289665e-01
  1.1136387e-01
 -1.8866707e+00
 -4.7157720e-01
  8.5291278e-05
  2.3560793e-05
 -8.1778061e-01
 -2.5102394e-05
 -3.6946814e-05
  2.5797516e-01
 -5.2528214e-01
  4.0432814e-01
 -5.1493031e-01
 -1.2136438e-04
  3.5795219e-05
  8.4241976e-05
 -2.1006013e-03
 -7.9760328e-05
 -9.3993473e-01
  4.3231639e-01
 -4.6925566e-01
 -1.2780215e+00
  1.5032600e-05
  1.8424162e-05
 -8.4579730e-01
 -1.2672077e-02
 -1.8416638e-05
  3.0853069e-01
  6.4127564e-02
  4.5015898e-01
 -1.1120197e+00
 -1.5726837e-05
  3.8100796e-05
  6.4392130e-05
 -2.1493930e-05
 -8.1671729e-05
  1.1145362e+00
  3.2948622e-01
 -4.5093483e-01
 -1.1609852e+00
 -8.1434737e-05
 -2.2212813e-04
 -6.0503560e-01
 -2.9700327e-01
 -3.5905505e-05
  3.5504776e-01
  5.7508361e-01
 -1.3171813e+00
 -1.3306843e+00
 -1.3648220e-05
  4.1042989e-05
  2.3633699e-01
  1.1117508e-05
  6.2685212e-05
 -2.9982150e-01
  1.8584225e-01
  6.2151080e-01
 -5.8488381e-01
  4.5216192e-02
  7.9082423e-01
 -1.0590675e+00
 -4.3591657e-01
  1.3544032e-04
  6.5495336e-01
  8.2359523e-01
  1.0046431e+00
 -6.2895209e-01
  4.2005115e-05
  1.2093605e-05
 -1.7498003e-04
  3.8335267e-05
  8.1659353e-05
 -1.1919801e-01
  1.1555480e-04
  6.9561595e-01
  4.5460711e-05
  4.6836611e-02
  6.5220827e-01
 -6.4407724e-01
 -3.0680874e-01
  2.8800625e-05
 -1.1150122e+00
  4.2746767e-01
 -8.1840742e-01
 -6.1621106e-01
 -5.6863351e-05
  1.7033193e-06
 -6.4373559e-01
 -8.9540066e-05
 -1.0192755e-04
  7.5159055e-01
 -9.0781204e-02
  8.2207441e-01
  5.2164668e-01
  1.3881528e-02
  4.0197745e-01
  7.7326232e-01
 -2.9542293e-02
 -3.5508499e-05
 -1.8594019e-01
  8.4284747e-01
  2.5451255e-01
  1.8653255e-02
  1.3045543e-04
  3.2159456e-05
  1.6603808e-01
 -4.1363277e-02
  6.8115082e-04
 -1.6629695e+00
 -6.6047339e-03
  2.1616719e+00
 -3.7441209e-01
  2.7718389e-04
  1.3351656e-01
 -1.3573442e-01
 -7.9489932e-05
  2.7180748e-05
 -1.7981548e+00
  4.9119478e-01
  1.4641435e+00
 -2.5250772e-01
  2.6271789e-05
  2.9031476e-01
 -7.9884207e-01
 -1.5011343e-01
 -1.0757271e-06
 -7.0722586e-01
  3.0325958e-01
 -7.8909367e-02
  1.2963739e-01
  4.8271340e-06
 -6.3839439e-06
 -3.5852638e-01
 -2.6718371e-06
 -1.4666493e-04
 -4.4100565e-01
  4.5616543e-01
 -4.7580004e-01
 -1.5338089e-01
 -4.0169307e-05
 -1.3813043e-01
 -7.6767880e-01
  1.2041637e+00
  4.7843369e-06
 -1.3585992e+00
  1.0280336e+00
  7.9431838e-01
 -6.0620183e-01
 -1.0054212e-05
  2.0989062e-05
 -9.6717376e-06
  5.9070113e-05
  2.3415285e-04
 -3.9988390e-01
  7.2939909e-01
 -1.9615511e+00
  2.6548298e-05
 -2.4730916e-04
 -3.1695243e-02
 -1.5077096e+00
  6.9869459e-01
  9.6579306e-06
 -2.2200012e-01
 -3.1214667e-02
  5.0943303e-01
  1.0862808e+00
  5.1276180e-05
 -2.3242756e-05
 -2.7122679e-01
  4.8549744e-01
  7.0501810e-05
 -1.1372792e+00
  9.3027121e-01
 -2.6480040e-01
 -6.0346776e-01
 -4.1434745e-04
 -1.8037961e-05
 -2.9364532e-01
 -5.3595228e-05
 -3.8827886e-05
 -1.1670243e+00
 -7.1538979e-01
 -2.8087047e-01
  3.7833712e-01
  1.1702505e-05
 -7.5673079e-04
 -5.4558295e-01
  1.2733623e+00
  1.4473711e-05
  5.3205341e-01
  1.8432976e-01
  5.5230403e-01
 -5.4406181e-02
  6.9921375e-06
  5.0537517e-05
 -9.2103697e-02
 -2.3427807e-05
 -3.6630106e-05
  1.5352458e-01
  2.2419729e+00
 -1.8586036e+00
  4.8720622e-01
 -1.4147548e-05
 -4.9003795e-02
 -5.9377658e-01
  8.5110432e-01
  5.4710313e-06
 -4.1781789e-01
 -1.8276237e-03
  1.9744256e-01
 -4.1996723e-01
 -2.8319806e-05
 -7.7598845e-05
 -5.2066481e-01
  3.7782815e-01
  4.7646270e-05
  5.8620858e-01
  4.0292320e-01
 -6.5033454e-01
 -8.1368798e-01
  1.2413758e-02
  1.2413758e-02
  1.2413758e-02
  1.2413758e-02
  1.2413758e-02
  6.7241365e-01
  6.7241365e-01
  6.7241365e-01
  6.7241365e-01
  6.7241365e-01
  1.4738771e-01
  1.4738771e-01
  1.4738771e-01
  1.4738771e-01
  1.4738771e-01
  1.0924964e-01
  1.0924964e-01
  1.0924964e-01
  1.0924964e-01
  1.0924964e-01
  1.6452778e-02
  1.6452778e-02
  1.6452778e-02
  1.6452778e-02
  1.6452778e-02
  1.8038879e-01
  1.8038879e-01
  1.8038879e-01
  1.8038879e-01
  1.8038879e-01
