nep4 3 Ba Zr S 
cutoff 8 4 150 20
n_max 4 4
basis_size 8 8
l_max 4 2 0
ANN 30 0
 -1.2835027e-01
 -2.8354291e-06
  2.2666040e-04
  5.3416497e-05
 -1.7893801e-02
  2.3416511e-04
  4.1288599e-06
 -6.7376001e-05
  1.7189157e-04
 -2.2357982e-01
 -4.8621514e-06
  3.9297360e-05
 -5.9819591e-05
  7.2191858e-07
  7.2844182e-07
  2.5438359e-05
 -2.5834236e-06
 -1.0399265e-04
  1.3088470e-05
 -9.4040917e-07
  7.1840468e-06
 -8.4080466e-06
 -4.9846326e-06
  4.4545279e-05
 -3.7710342e-04
 -1.3649815e-05
 -3.5994194e-06
  5.0013255e-06
  6.5247027e-06
 -3.2134922e-05
 -1.1633363e-06
 -1.1130395e-05
  7.9142399e-07
  1.0209548e-05
  6.1671485e-06
 -1.2223212e-05
  4.0803286e-07
 -4.8160004e-05
 -1.7716868e-05
  1.2336855e-05
 -1.5643855e-06
 -9.8897244e-06
  1.6964847e-07
 -3.0995263e-06
  4.4854346e-06
  3.7021980e-06
 -5.5253477e-06
  6.6461034e-06
  1.2384618e-04
 -1.2494147e-05
 -1.9238907e-05
  2.1040335e-06
 -5.0201164e-05
  1.1774580e-05
  8.5233933e-06
  7.2890580e-05
  1.4112173e-05
  4.1323441e-05
  9.8075898e-06
 -1.6324262e-05
  2.8921053e-04
 -5.7522902e-06
 -1.4432958e-05
  5.1025207e-05
  1.2503487e-07
 -4.5581792e-06
 -6.1189050e-05
  1.0695236e-05
  2.3613611e-05
  8.0435366e-06
  3.3984037e-05
  1.8067314e-05
  1.6474918e-06
 -1.6603935e-05
  2.9735254e-06
 -1.7139255e-05
  3.8021362e-06
  1.7961571e-05
 -5.5185378e-06
 -1.8277591e-06
  8.1293902e-06
  1.0304290e-05
  1.7019664e-05
 -1.7376933e-06
 -1.1477455e-06
  2.6593871e-06
 -7.0157557e-06
  2.7078031e-06
 -3.5288420e-07
  1.7763177e-06
  1.7066977e+00
 -6.0671442e-07
 -1.1088849e+00
 -7.2727851e-03
 -1.4896572e-01
 -1.1529785e-05
 -1.5822132e-05
  6.0228858e-02
 -4.1563025e-01
 -5.0392187e-01
 -5.1960751e-06
 -1.0258124e-05
  2.4637962e-03
 -1.1026564e-01
 -6.1341401e-02
 -4.3265189e-07
  2.7142292e-05
  2.2442515e-01
  1.4771330e-01
 -3.0849096e-01
  4.6792185e-05
  1.7884832e-06
  1.3240345e-01
  1.8652537e-01
  3.3820707e-01
 -2.0565445e-05
 -1.1246811e-05
 -2.6611080e-05
  7.4292439e-06
 -7.3763993e-05
 -1.5160510e-05
  5.8270175e-06
  2.0128729e-04
  1.5842395e-05
  1.8745595e-05
  1.3774457e-04
 -1.4945310e-06
 -2.4354756e-07
 -1.4136067e-05
  2.9187498e-04
  1.3533941e-05
  6.5856480e-06
 -1.0351424e-06
  1.4777105e-05
 -1.4286379e-05
  5.0921653e-06
  1.2164061e-05
 -4.4901367e-06
 -6.0501319e-05
 -3.4379558e-05
  4.0159488e-05
 -1.1117074e-06
 -4.1280440e-05
 -5.0212224e-05
  9.2597111e-07
 -2.6639801e-04
  2.2468599e-05
  3.0289912e-05
 -3.6919341e-04
  2.7907476e-05
  1.4437886e-05
 -5.9608783e-07
  8.8682955e-06
  7.7361356e-06
  1.4555057e-05
  7.3222167e-05
 -1.7803530e-05
 -1.4175243e-05
  1.4780660e-05
 -1.8406736e-05
  3.5713583e-05
 -2.2091494e-06
 -1.6158896e-05
 -1.5000230e-06
  1.8741381e-06
  7.3602394e-05
  9.9353092e-05
 -2.2556813e-04
 -6.6093278e-05
 -1.0515305e-06
 -5.4315128e-06
  4.2341662e-06
 -2.1138248e-05
 -8.1301105e-06
 -2.4517131e-04
 -7.9331869e-05
  6.8804106e-06
 -6.7599118e-05
 -1.2707053e-06
  9.2519995e-06
 -1.9953511e+00
  2.2080765e-05
  1.2106347e-01
 -4.7277361e-01
  1.3622718e+00
  4.6161504e-06
 -1.9047649e-06
  1.5961557e-05
  9.2641644e-02
  2.2291612e-02
 -1.0691942e-05
 -1.2724173e-06
 -2.0366855e-05
  5.5326287e-05
 -6.4513712e-05
 -3.3851252e-06
  1.4151385e-04
  5.7804926e-05
  1.7593301e-06
  1.9057143e-01
 -8.0707491e-07
  9.4223662e-07
  1.0443242e-06
 -2.0373212e-05
 -5.0403778e-05
  5.9336838e-07
  1.2393742e-05
 -5.7228999e-06
 -7.9376732e-06
 -2.5406220e-05
 -1.3971118e+00
  3.3503601e-01
  1.5260640e+00
 -1.1403457e+00
  8.7065923e-01
  8.6053813e-05
 -8.0368700e-05
 -2.1404547e-05
  3.8559341e-01
 -7.0443249e-01
 -1.9416590e-05
  8.7513126e-06
 -3.1088572e-04
 -1.9100803e-06
 -1.0151572e-07
 -2.5715078e-06
 -5.3870400e-07
 -1.1585886e-01
 -1.6086865e-02
  8.5125893e-02
 -1.1708117e-05
 -2.3847476e-06
  1.7748051e-06
 -1.1262729e-01
 -1.5687817e-01
 -5.5241048e-06
  9.1059164e-06
  6.6328539e-08
 -7.4028314e-05
  1.3932792e-05
  1.3493727e-01
  1.9497625e-04
  1.1903189e-06
 -2.1504578e-01
 -5.3623620e-02
  1.4249322e-07
  4.0460604e-06
  3.1002766e-01
 -6.8494154e-07
  8.0102324e-01
 -1.2200526e-05
  1.9886502e-05
  1.5713154e-04
 -7.3275520e-03
  3.5743189e-05
 -6.1256615e-06
 -1.5868431e-05
  7.4168622e-02
  5.7065049e-03
  4.2762153e-06
 -7.1071704e-06
  1.2799862e-05
  7.3051313e-03
  7.8134336e-02
  1.8797512e-01
  2.1592365e-05
 -6.8232021e-07
  4.0402680e-05
 -3.0304482e-06
  1.3755410e-04
  1.3413068e-04
 -1.8083958e-05
 -2.2215648e-02
 -1.2169893e-01
  5.9421855e-06
  1.1699385e-05
  2.2236378e-05
  7.5544325e-05
 -5.1133493e-06
 -1.4937647e-02
 -4.2803185e-06
 -2.5241930e-04
  2.3704728e-05
 -1.9079715e-05
  1.4499992e-05
  2.8110856e-06
  2.1869508e-05
  1.5138499e-04
  1.4590997e-06
  1.2073426e-05
 -2.5833385e-06
  4.5737585e-07
  1.7487579e-05
  4.3347095e-06
  2.0550249e-02
  8.3803361e-06
  2.1459603e-06
  2.4415516e-07
  2.2482316e-06
  9.0517424e-06
 -5.0164169e-01
  1.1245912e-05
  3.9628430e-05
 -2.2345799e-05
  3.0022869e-01
  7.9548890e-06
  2.9372639e-05
 -1.4445383e-06
  7.2334013e-05
  2.0009752e-06
  6.4909460e-07
  5.0044682e-06
 -1.1660055e-05
  2.8969489e-05
  6.0513657e-06
 -4.9309729e-06
 -1.5924672e-05
 -2.4027722e-06
 -4.6116093e-06
 -7.8688463e-06
  1.1774733e-05
 -4.2454317e-06
  9.0336343e-06
 -1.8498298e-05
  8.9181676e-06
 -7.0323688e-07
 -1.0867133e-05
  1.1084489e-05
 -2.2365321e-05
  1.2165114e-05
 -4.2276779e-06
 -3.0010164e-05
 -9.7267218e-07
 -1.2356753e-05
 -1.7577715e-06
 -3.8011476e-06
 -8.1533199e-06
 -4.8512851e-05
 -1.2365232e-05
  2.3768446e-06
 -1.3124414e-05
  4.0892269e-06
  3.5204134e-06
  8.5992531e-07
 -3.6138879e-06
 -1.6933194e-05
  4.7647313e-06
 -1.1117329e-05
 -4.9493332e-07
 -2.8862321e-06
  7.3201422e-06
 -6.1008323e-06
 -6.3252492e-06
  3.8089704e-06
  1.6828761e-05
  3.3375925e-06
  6.0965789e-07
  3.6101057e-05
  1.4289917e-06
  1.3704826e-05
 -1.1240713e-03
 -1.8226090e-05
  5.0274577e-02
  3.6444256e-01
  6.6899870e-06
 -4.0340262e-07
  2.1455448e-06
 -1.0127930e-03
  4.1818470e-02
 -6.1623421e-03
 -1.9709503e-06
 -1.7130214e-06
 -1.4076746e-04
  5.7563429e-06
  3.8882630e-05
  3.1864329e-06
 -4.1617036e-06
 -3.9194342e-02
 -1.3465966e-03
 -1.6456755e-06
 -2.5622965e-05
  4.6744961e-05
 -3.7361155e-05
 -4.2995624e-04
 -1.2195759e-02
 -1.4139526e-07
 -1.7048974e-06
 -6.7250528e-07
 -2.2878697e-07
  3.1044256e-05
  2.8365832e-05
 -4.1211265e-04
 -1.7137259e-05
 -1.3465296e-06
  1.7785726e-05
  1.2995016e-05
 -4.6845278e-05
  7.2591808e-07
 -9.9442050e-06
  1.3866243e-05
  5.5147329e-06
 -3.3569031e-06
 -2.5673802e-05
 -3.7317552e-06
  2.2310096e-05
  5.5089281e-06
 -2.8210195e-07
 -2.4230350e-05
  5.9615677e-06
 -2.3972984e-06
  9.7866462e-07
  1.4271209e-06
 -5.2909968e-06
  2.7466892e-06
 -5.5987653e-05
  6.1813971e-06
 -5.2385012e-08
  3.5264879e-06
  9.2220189e-06
  1.3441475e-05
  6.0666293e-01
  1.1946133e+00
 -7.6801240e-02
 -2.7446959e+00
 -2.4421398e-01
  4.6998261e-06
  4.5308580e-06
  4.9627226e-02
 -5.5247128e-01
 -5.8069717e-02
  1.5968140e-05
 -1.4424606e-07
  2.3473665e-01
 -9.4577201e-02
  3.0860734e-01
  3.6586582e-06
  6.0091920e-06
  3.6347172e-01
  1.2110205e-01
 -1.3090667e-01
  8.3956824e-05
 -1.3160469e-06
  2.7171576e-01
  5.3096908e-01
  6.3478488e-01
 -1.6157202e-05
 -8.4287103e-07
 -1.3142265e-05
 -2.3786740e-06
 -1.7876594e-01
  1.2065647e-06
  5.2030216e-05
 -3.5506886e-01
 -1.8468356e+00
  1.7555466e-02
 -6.0621176e-05
 -3.8426460e-06
  6.8631463e-02
 -2.9531950e-01
  1.4379702e-02
  2.5937275e-05
  8.2876923e-06
  4.9447030e-04
 -7.7780476e-03
 -1.2342764e-05
 -4.0982654e-06
 -1.4322860e-05
  2.0972635e-01
  1.4347899e-01
  3.1468055e-05
 -5.1629188e-05
  3.8561834e-07
  6.2451478e-02
  2.2511114e-01
  2.9769975e-01
 -4.5437855e-06
  4.7045877e-08
 -1.4098690e-06
  1.2865614e-05
  1.2468921e-05
 -1.4336830e+00
  5.3435218e-05
 -1.0542036e-07
  1.3778664e-05
  1.0419570e-02
  5.2488726e-06
  2.1183587e-05
 -1.0542039e-05
  1.0264586e-04
  8.0411264e-05
  1.7458990e-05
  4.7014335e-05
 -8.2016950e-06
 -2.1604035e-06
 -1.2423878e-05
 -6.8348197e-07
 -1.8457200e-05
 -1.8653573e-06
 -1.0651707e-05
 -1.9498655e-05
  2.5115995e-05
  3.4045042e-06
  6.7391093e-06
 -1.2776545e-05
 -1.1010686e-05
  2.1358157e-05
  1.9891982e-05
  1.7096013e-04
  3.4620273e-06
 -1.6596539e-05
  5.3303793e-06
 -3.9128840e-06
  4.3329203e-07
  7.0073343e-06
  9.2423106e-06
  1.2456588e-05
 -1.3245435e-05
 -7.2795542e-06
  7.5523162e-06
  1.1911902e-05
  1.9259397e-04
 -5.4593064e-04
 -1.6496275e-06
 -5.2207961e-06
 -3.2621596e-04
 -1.1054316e-06
  1.1903712e-06
 -3.8281978e-06
 -2.7629523e-05
 -2.2835744e-05
  2.7419114e-06
 -1.3814395e-06
  3.7791463e-06
  6.5791472e-05
  7.0249098e-06
 -8.2695660e-05
  1.8083012e-06
  1.4905040e-05
  3.1496430e-04
 -1.7341030e-05
  2.0051940e-01
 -1.1720721e+00
 -3.4463644e-01
  1.9702896e+00
 -2.3922987e+00
 -2.8255947e-06
 -2.8286395e-06
  1.3225865e-05
 -2.4397078e-01
  5.7466549e-01
 -1.4797097e-05
 -1.1058047e-05
  1.6623322e-03
 -5.9536600e-04
  5.9153322e-06
 -8.3255916e-05
  2.0231781e-05
  1.7843518e-01
  6.1936982e-02
 -3.3987942e-03
 -1.2094478e-06
 -3.6917847e-06
  8.7664187e-02
  1.2663120e-01
  2.9802755e-01
  9.4152456e-05
  7.8278035e-06
 -4.3124937e-06
 -5.6005952e-06
 -4.5688252e-05
 -2.6658459e+00
 -7.4465406e-06
  1.2666161e+00
  1.2999399e+00
  1.7299352e+00
 -4.7019489e-06
  1.3307913e-05
  1.4087649e-01
  1.1267421e-01
  5.3887612e-01
  1.5945046e-05
  3.6391208e-07
 -2.3575649e-03
 -9.3946917e-05
 -1.1305369e-01
  9.2781032e-05
 -4.1263735e-05
  1.6496060e-06
 -3.4542361e-05
  2.6665130e-01
  1.4432102e-04
 -1.5644815e-05
 -9.2585164e-04
 -6.7982748e-02
 -8.6048365e-02
 -3.2072137e-06
  1.3131054e-05
 -1.0647439e-05
 -1.3540541e-06
  5.7658832e-07
 -8.3379837e-06
  2.4478084e-07
 -3.1392187e-06
 -1.7116663e-05
 -7.8197663e-06
  2.8513541e-06
 -1.8434166e-06
  6.3798302e-06
 -7.7008108e-06
  1.6163600e-05
  1.1995203e-06
 -1.0225976e-05
  8.9427194e-06
  2.3473874e-06
 -1.0669708e-05
  1.2174615e-05
 -4.4861185e-06
 -6.2471163e-06
  6.0805883e-06
 -3.0816354e-05
 -1.2066066e-05
 -8.8257686e-08
 -3.3920048e-06
  1.6464051e-04
 -2.0347018e-07
 -1.1473920e-05
 -3.2786618e-06
  5.1627226e-06
  5.2540092e-04
  7.3660976e-07
 -4.7220442e-06
 -1.1948700e-05
  2.0845487e-06
 -2.1114925e-05
  6.7860361e-05
 -4.2293137e-05
 -6.6372131e-06
 -2.6138312e-06
 -8.7979279e-06
 -9.3286608e-06
 -1.8611136e-05
  3.6685295e-05
  1.6150708e-04
  1.1251720e-05
  1.8537026e-05
 -6.4734281e-06
  1.7233285e-06
  1.1644889e-04
  1.1836610e-06
  2.8225205e-07
 -5.5467276e-06
  3.4432076e-06
  3.7159687e-06
 -9.7661825e-08
 -1.0708686e-05
 -4.3606424e-06
  1.6926993e-05
  3.7652919e-06
 -1.2452590e-05
 -1.3486276e-05
  5.1756830e-05
 -5.2723954e-06
 -5.5004568e-07
  2.9523917e-05
 -7.5053658e-06
 -5.4703569e-06
  9.8184146e-06
  1.0553408e-06
  8.2459692e-06
  1.7494785e-06
 -6.3378917e-07
  2.3157794e-04
  1.0908967e-06
 -1.7671520e-05
  9.2814262e-06
 -3.4203954e-06
  1.1392626e-05
 -1.4686837e-05
 -6.7572169e-06
 -7.5474022e-06
 -5.6382305e-06
 -9.1958333e-05
  1.4433394e-05
  3.7716589e-05
 -1.2375722e-05
  2.5897152e-06
  2.9698915e-05
  2.0170452e-05
 -6.9252055e-06
 -3.2552723e-06
  1.9043039e-04
  3.1571701e-05
  3.8877341e-01
  2.3139146e-01
 -1.2554690e-01
  1.3908360e-05
 -3.8086327e-07
 -1.8549778e-01
  3.9803613e-02
 -1.7494319e-02
 -4.5844758e-06
 -2.4180035e-06
 -6.6159708e-05
  6.0392391e-05
  7.0882379e-03
 -9.6236254e-06
  4.4337081e-05
 -3.4686345e-01
 -7.7686913e-02
  4.6954192e-05
  7.2876544e-05
  1.9098473e-04
 -1.2336127e-02
 -8.5681088e-02
 -1.6309111e-01
  2.8612708e-06
  3.6289242e-05
 -1.8024901e-06
  4.2716911e-05
  1.9144551e-04
  1.2488819e-04
 -1.2173212e-05
  2.7815253e-05
  6.8728464e-06
 -2.9695163e-06
  2.8822072e-07
 -6.8804387e-05
 -3.2109507e-05
  1.3247695e-04
 -1.0511564e-05
 -1.3219532e-06
  1.3108352e-05
  3.6931360e-05
  3.4041693e-07
 -1.6986818e-05
 -3.4730347e-05
 -2.2435280e-04
  7.9412557e-06
 -1.2830651e-05
  8.7078864e-05
 -1.0405779e-04
 -1.3137515e-06
 -6.8946438e-06
 -3.4657667e-05
  1.0671903e-04
  2.4653872e-07
  1.3606241e-05
  6.9160802e-07
 -4.1118528e-06
 -5.6522035e-06
 -2.5000511e-05
  2.9882001e-06
  6.3938694e-07
  3.8903238e-07
  1.2022299e-06
 -2.5148186e-04
  2.8184146e-05
 -1.6116638e-06
  2.6784581e-05
  2.3590635e-06
 -3.4128952e-06
 -9.3823115e-07
  1.5617963e-05
 -9.4485367e-06
 -2.9323876e-01
  3.4600462e-06
 -1.4747355e-05
  1.1481588e-05
 -8.3547638e-06
  4.8775396e-06
  2.3821351e-05
  1.5687983e-04
 -2.2428924e-06
 -1.0814643e-05
 -7.6385886e-06
 -7.5833432e-06
 -2.0117809e-06
 -2.9854987e-06
 -2.4612003e-05
 -4.0378995e-06
  2.9183810e-05
  7.0515066e-06
 -7.3396141e-04
 -2.3795432e-05
 -1.2959799e-05
 -2.6040711e-05
  2.4645531e-05
 -2.1034406e-07
 -2.0133932e-05
  2.4924851e-03
 -3.1796058e-06
 -6.5283771e-06
 -2.6315483e-06
 -5.3576755e-06
  3.5859498e-06
  1.7395115e-06
 -8.1463768e-06
  6.1441824e-05
  1.3205207e-04
  1.2073745e-06
  3.1823895e-06
  1.5459967e-05
  4.4812414e-06
 -2.7251423e-05
 -8.1527412e-07
 -1.4027652e-05
 -6.3234038e-06
 -1.0596787e-05
  4.5805318e-06
  4.9784667e-06
 -1.0082243e-06
  8.9029991e-06
  8.4749317e-06
 -3.5367862e-07
 -7.8614930e-06
 -9.9363151e-06
  2.0494703e-05
 -1.7191454e-05
  2.8814902e-06
 -6.5338810e-07
  2.6692176e-06
  1.6629006e-05
  4.5079714e-06
 -5.5968871e-06
 -7.8835792e-06
  8.2734616e-05
  1.5684023e-05
  5.1395064e-06
 -1.1264797e-05
 -1.4082549e-04
 -1.4621818e-05
 -2.8846334e-06
  5.6030163e-05
  7.7616887e-06
  6.3558928e-06
 -4.9572213e-06
 -8.6528198e-06
 -4.6832165e-06
 -3.6534009e-06
  5.7004031e-06
 -2.3819859e-05
  6.3220564e-06
  2.6254379e-06
 -1.6408453e-06
 -1.5865275e-05
 -5.5256137e-06
 -1.3605812e-05
  5.3226790e-06
  4.8447337e-06
  2.2937897e-05
 -2.3546986e-06
 -1.7378894e-05
 -1.4009039e-06
 -9.2227747e-06
 -4.8771661e-05
 -1.9305882e-01
 -1.4731850e-07
  6.1787359e-05
  1.4027639e-05
 -8.6151886e-07
  1.7018715e-06
  1.7598670e-05
  4.7567646e-06
 -1.3978878e-06
 -6.4502342e-06
 -9.4466059e-06
 -5.4951370e-06
 -6.5627128e-06
  4.7075673e-06
 -1.2962833e-05
 -6.0428226e-07
  6.4305655e-06
  4.9833220e-06
 -4.4513003e-05
 -1.3035883e-05
 -1.2669625e-05
 -1.4072006e-05
  1.3574760e-05
 -6.7875430e-07
  5.9021486e-06
  4.2193292e-06
  3.5710747e-07
 -1.5550746e-05
 -2.6174162e-05
 -1.4359051e-05
  2.4792919e-06
 -4.7845401e-06
  5.8083588e-05
  5.1660547e-05
  2.6031270e-05
  2.0529520e-05
  2.0380905e-05
 -1.8184559e-05
 -3.9522433e-06
 -7.7554239e-07
  4.3982880e-07
 -3.9193760e-06
  3.3473630e-02
 -4.6283449e-06
  1.2336993e-04
  4.0749592e-01
  2.0124041e-06
  1.9573352e-05
 -1.5655760e-01
 -5.3167000e-06
 -1.3811954e-06
 -6.4534396e-02
 -5.3879464e-01
 -8.2917857e-01
  1.2151886e+00
  3.1051670e-05
  4.6531342e-05
 -1.7635541e-01
 -1.0124797e-06
 -2.1368010e-01
  3.9238375e-01
 -1.0162536e-01
 -1.5312676e-04
  1.3496602e+00
  1.1136787e-01
 -3.3188505e-06
 -1.8707588e-05
 -4.7268000e-01
 -5.3828901e-01
 -1.7775885e-05
 -1.4105134e-05
  3.7636739e-01
 -3.2797009e-06
  4.6279307e-05
 -7.7722005e-05
 -7.8397512e-01
 -1.0603174e-04
  5.5586329e-06
  1.5242797e+00
 -2.5604331e-01
  3.2816843e-06
 -1.1848915e+00
 -1.7482587e+00
  1.7660235e+00
  2.0576196e+00
 -4.2477430e-05
  8.3098456e-07
 -8.8456112e-01
  1.0246345e-05
  2.4618573e+00
  1.6433554e+00
 -6.8005967e-01
  4.8562561e-06
  2.2649758e+00
 -2.3140757e+00
  5.4312242e-08
 -5.3697722e-06
 -2.0510101e-04
 -1.3016255e+00
 -6.8062960e-08
 -5.0691091e-05
  4.3009016e-01
  3.2776559e-05
  1.0293268e-05
 -8.6116415e-06
  9.8380060e-06
  1.0463672e-01
  1.3626283e-06
  4.2987194e-06
 -4.6764703e-06
  5.1016741e-06
  1.3174357e-05
  8.1306034e-06
 -3.4959502e-08
 -9.8132386e-06
 -5.1346715e-06
  5.4615447e-07
  1.1868215e-05
 -2.0584179e-05
  4.3774339e-06
 -1.8922865e-05
  1.0432851e-04
 -5.5551212e-05
  4.7585654e-06
  7.8194574e-07
 -3.2477642e-06
 -2.9779972e-06
 -1.8242195e-05
 -5.3793597e-06
 -1.4432263e-05
 -4.0220701e-05
 -9.4925815e-07
  5.9675031e-06
  2.1858709e-06
  6.6942166e-06
 -3.7454566e-04
  1.2208775e+00
  2.7813830e+00
 -4.2784543e+00
  1.4502470e+00
  1.6638550e-01
 -1.4446472e-01
  2.5983271e-01
 -2.7176458e-02
 -6.1444473e-05
 -7.5443670e-02
  3.1330255e-01
  6.3233006e-01
  1.8472561e-01
 -1.0588004e-01
 -2.4559882e-01
  2.3143066e-02
 -5.5402309e-01
  8.9322358e-02
 -1.8917029e-01
 -1.6647596e-04
 -4.5647184e-04
  5.2476087e-05
 -1.0533859e-05
  4.8164571e-07
  1.4576675e-05
 -7.4127765e-04
 -1.5096795e-06
  3.4375695e-05
 -2.2202004e-05
  1.3138766e+00
 -4.7764462e-01
  1.3314177e-04
 -1.1242592e+00
  3.8438985e-01
 -6.6612506e-01
  3.6759811e-05
  1.7416626e-01
 -1.9524036e-06
 -1.2474770e-02
 -9.3167936e-03
  9.1399743e-05
 -2.9695858e-04
 -1.9105550e-05
 -7.4486136e-02
  1.4683399e-04
  1.6968284e-04
 -3.7589434e-03
 -2.2353382e-04
 -8.5529184e-04
  3.9820593e-06
 -3.4605280e-05
 -1.4314859e-04
  2.2457560e-05
 -4.2676418e-03
 -4.1080702e-06
 -7.6240351e-05
 -2.4227515e-06
  2.5326639e-04
 -7.7931709e-06
 -5.2971761e-03
  1.2583359e-02
 -1.7708426e-02
 -1.1936689e-05
  1.9103808e-02
  2.7858578e-03
  4.5835591e-06
  3.7506457e-08
 -6.2438794e-06
  1.4047270e-02
  3.6359343e-04
  2.8211175e-06
  1.5521835e-05
 -4.6418333e-07
 -1.4057414e-05
 -7.6732831e-05
  2.5176074e-05
  1.2113860e-04
  7.7164950e-06
  2.6961559e-04
  6.9431662e-06
  4.5895113e-06
  7.7905834e-06
  1.5586509e-05
  2.2579532e-02
  8.7967846e-06
 -9.1830625e-06
 -7.5490061e-06
 -4.3823082e-05
  1.0512163e-05
 -1.6498379e+00
 -1.3904599e+00
  2.4418523e+00
 -3.6603925e-01
  7.2252550e-03
 -5.8088803e-01
 -1.8615024e-01
 -3.3603790e-01
 -4.9494520e-02
 -3.3756509e-01
 -5.5292290e-01
 -4.6458354e-05
 -1.6809969e-01
 -6.6348606e-05
 -1.7851198e-01
  1.1887902e-05
 -3.3561459e-01
 -4.5416003e-01
  2.6458448e-01
 -2.2221257e-01
  5.5900356e-03
 -4.2705402e-02
 -5.2128673e-01
 -3.8811499e-01
 -3.2486144e-01
  2.5208406e-05
 -4.2731644e-05
  1.2006431e-05
 -5.5539448e-07
  1.7448488e-03
 -6.8723798e-01
  2.2506361e+00
  3.6351860e-01
 -6.0726929e-01
  8.7269852e-03
 -3.6289307e-01
  3.4132805e-03
  8.6776138e-04
  3.9998026e-04
  3.8932192e-01
  3.4779400e-01
  1.7219329e-04
  2.4018559e-01
 -5.6373465e-05
  7.7520305e-01
  2.5628608e-01
 -6.3614752e-05
 -1.6192840e-01
  2.3476835e-02
  1.4516738e-01
 -1.3261670e-04
  2.6591271e-01
  3.5924485e-01
 -1.7696649e-03
  6.0753709e-01
 -1.6144419e-05
  9.7285010e-06
 -1.9297042e-06
 -3.1479582e-04
 -1.0147017e-04
  8.7177590e-04
  3.8504466e-05
  9.6856338e-06
 -1.8879707e-06
 -3.4738359e-06
  1.6653017e-05
  3.1652348e-06
  1.2559952e-05
  2.2146655e-06
  4.1650082e-06
  1.1592403e-05
 -3.7006796e-06
  4.4804260e-06
 -5.5829837e-06
  3.1699431e-06
  6.4161191e-05
  1.7085395e-05
 -1.5994437e-05
  1.0298764e-05
  7.0479800e-06
  1.2553750e-04
 -8.3860059e-06
  9.8680694e-06
 -2.6085505e-07
 -1.0835683e-04
 -4.1956515e-08
 -2.0871853e-06
  1.0049605e-06
 -4.6241112e-06
 -7.8634832e-05
  1.4885502e+00
 -1.0290238e+00
  3.5741976e-03
 -3.4145868e-01
  8.7516111e-01
  3.3880210e-01
 -5.9986066e-02
  4.3737562e-04
 -2.6150385e-04
 -1.8142074e-01
 -3.8366857e-01
 -1.6924430e-05
 -6.2155374e-03
  3.4897239e-06
  5.2681690e-07
 -1.3300875e-01
  5.1215695e-05
 -1.4045295e-04
 -4.3027085e-04
 -1.4544402e-01
 -2.3021011e-04
 -2.4609360e-01
  2.3749315e-06
  3.6351837e-02
 -5.1066574e-02
  7.9655612e-04
 -3.8965536e-06
 -1.1244471e-06
 -1.1809998e-05
  2.5324205e-05
 -1.3921421e-05
  1.2632936e-05
  1.0066886e-05
  1.9724971e-06
 -4.4977227e-05
  8.0649752e-06
 -7.6986034e-06
  1.1914038e-05
  2.4045039e-06
 -2.9919318e-06
 -2.2746328e-05
 -1.3369100e-05
  8.6331529e-06
  1.5713693e-05
 -1.0385175e-03
  8.9849509e-06
 -1.7330338e-05
 -1.4297935e-05
  2.3169682e-06
 -5.6661793e-06
 -9.9685240e-06
 -1.0566109e-05
  5.1075613e-06
 -2.1186499e-05
  2.9966186e-06
  3.7923517e-05
 -5.7829812e-04
 -5.9265735e-06
  8.6210304e-05
 -4.1329109e-05
  3.1628504e-02
  1.0832920e-05
 -1.9796908e-06
 -1.3734819e-05
 -6.5136937e-06
 -3.5112404e-05
 -1.1390194e-05
  5.4067209e-06
 -3.3273140e-05
  4.4277203e-06
 -5.2496275e-06
 -4.1492067e-06
 -6.6620282e-06
  1.0188041e-05
  6.0744983e-06
  1.2345905e-05
 -3.4495301e-06
 -1.8416684e-05
  1.7468510e-05
 -4.3183386e-06
 -3.5745965e-04
 -3.8842381e-06
  8.2639355e-07
  1.6316491e-05
 -1.6293026e-05
  1.3661490e-05
  4.9322271e-06
 -7.4959826e-05
 -1.1015769e-05
 -1.1963572e-05
 -6.0585570e-01
  3.6590233e+00
 -5.6823844e-04
 -5.5933576e-02
 -9.8200776e-02
  2.7199715e-01
 -2.1781247e-02
 -3.0105827e-02
 -4.8195042e-02
  8.9703314e-02
  1.2653048e-01
 -3.2986829e-04
  2.9284427e-01
 -2.7882820e-03
  6.3787341e-01
  1.2300131e-01
  2.3239038e-03
  9.9882746e-01
  1.4789749e-02
  2.0575680e-01
 -1.3763438e-01
  7.1805233e-01
  9.2793143e-01
 -6.9237393e-01
  7.9905194e-01
 -1.1102225e-06
  5.5497458e-05
  5.8853111e-06
 -1.7111837e-04
  9.2819630e-07
  5.5776018e-06
 -2.0989150e-06
  1.0437605e-05
 -6.2722069e-07
  2.6520106e-06
 -3.2864642e-05
  2.9130006e-05
 -4.8229718e-05
 -6.7986130e-06
 -4.5334004e-06
 -1.7646918e-06
  2.6096770e-05
  1.0707901e-05
 -4.7893154e-06
  7.7368468e-06
 -5.7547385e-07
 -1.3172652e-05
 -5.5883978e-05
 -6.1770211e-06
 -6.8571089e-06
  5.8086093e-06
 -1.0115994e-06
  4.7653707e-06
 -2.6852313e-05
  3.2820897e-06
 -1.3436481e-05
  4.4778603e-06
 -1.0544375e-06
  1.7785249e-04
 -1.4586396e-06
  2.2022095e-07
  6.4784012e-06
 -2.7337073e-05
  4.0973045e-04
  1.0056601e-06
  6.8187376e-07
  1.0203012e-04
 -7.5736592e-05
  9.7264623e-04
 -1.2856924e-05
  8.0623204e-06
  6.0717059e-05
 -2.5528027e-06
 -9.1487327e-06
 -2.0177868e-06
 -1.2434751e-06
 -5.0822978e-06
  3.7357214e-04
  5.2024188e-05
 -3.4409502e-06
  1.4465690e-05
 -3.9625019e-07
 -2.3996466e-04
  9.8314958e-06
 -2.3598126e-05
 -1.0567104e-05
 -5.0082777e-05
 -5.1466795e-06
  2.1765632e-06
 -1.5209938e-04
 -8.2093300e-07
  1.4506164e-05
 -9.9371446e-06
  4.1990252e-06
 -1.8991530e-05
 -2.7878305e-06
  1.8703066e-05
  1.7199998e-05
 -1.2683267e-04
 -1.8599725e-06
  2.1662048e-05
 -7.1878333e-07
 -1.4565535e-05
 -1.8298192e-06
  1.8734239e-06
  9.6792164e-06
 -4.3271182e-05
 -1.6489436e-07
 -6.4726337e-05
 -1.5578329e-05
  6.1620011e-07
 -2.5307265e-05
 -1.5447393e-05
  7.5609028e-06
  1.0070877e-05
 -1.3237451e-06
 -7.9011133e-06
  2.7207156e-05
 -3.7765102e-07
  1.4768166e-05
  1.8855724e-05
  7.3318488e-06
  1.9412121e-06
 -2.9072221e-06
  8.0654618e-06
  8.2705737e-06
 -3.0777635e-06
  2.0307840e-07
  4.2869109e-05
 -5.6712398e-08
 -1.6085154e-05
  1.9161345e-05
 -1.0080925e-05
  9.5145981e-07
 -4.8797451e-06
 -1.3467260e-05
 -1.2608851e-07
 -2.3825041e-05
  9.9631770e-06
 -5.3293799e-05
  1.5303684e-05
 -4.1443718e-06
  4.7019421e-05
  2.5108690e-08
  9.2477812e-06
 -6.9744701e-06
  3.0397807e-06
  1.6628471e-06
  2.0276524e-05
  1.4750171e-05
  3.8382175e-05
 -8.5594538e-06
 -2.2659672e-06
  6.7137017e-07
 -7.2691928e-06
 -5.9800172e-06
 -1.1511935e-05
  9.1426898e-07
  1.4406849e-05
  1.0594136e-04
  8.7138324e-06
 -6.0062748e-06
  5.1675634e-06
 -4.5131137e-06
  3.0609026e-06
  1.3453710e-04
 -5.5464561e-06
  4.4441231e-06
 -1.9816580e-06
 -5.6790591e-06
  1.3188637e-05
 -7.6926490e-06
 -7.6494771e-06
  8.8039096e-06
 -8.2081751e-06
 -1.3823928e-05
  3.3299671e-05
 -1.3693078e-05
 -4.4746603e-06
 -1.7414443e-06
  8.4418678e-01
 -1.2789851e+00
  4.1224253e-01
  1.3726592e+00
 -1.4019880e+00
  2.2328292e-01
 -6.9312640e-02
  4.5377441e-02
 -3.9837477e-03
 -2.3797932e-01
 -4.8930439e-01
 -5.8980417e-01
 -1.7666325e-01
 -3.3509743e-01
 -6.3745439e-04
  4.8743204e-05
  1.7067747e-01
  4.0571091e-01
  1.2669621e+00
 -3.9753513e-04
  5.8045429e-01
  1.5453489e-06
 -1.3893112e-02
  3.5532977e-02
  1.9330259e-06
  9.6997496e-07
 -5.3235871e-04
 -1.3773015e-04
 -1.3452824e-07
  9.3205665e-05
 -7.3499992e-05
 -7.0360431e-07
 -7.2964849e-06
  4.4028817e-05
 -8.5753900e-06
  2.3202436e-05
 -4.9998039e-07
 -8.2386987e-06
 -6.9459952e-06
  1.0210675e-05
 -8.9694349e-06
  4.1076568e-05
  6.6150055e-06
  6.4320673e-05
  3.7467923e-06
  1.8505714e-05
  1.4467876e-05
 -1.4044955e-06
  3.3011122e-06
  3.4792297e-06
  1.4630828e-05
  1.2684841e-05
  1.7829776e-05
  8.1638418e-06
  1.6530534e-05
 -1.0676260e-06
 -3.0391182e-05
  5.3118010e-06
  1.2171447e-05
 -1.1173237e-05
  2.6010341e-06
 -3.6706897e-05
  1.7063567e-06
  3.3240949e-06
 -1.5866168e-05
  1.0954541e-05
 -7.9128104e-06
 -3.3385766e-07
  2.6853872e-06
 -6.0310358e-06
 -1.7245637e-05
  5.3280284e-05
 -3.3267293e-06
 -3.7257156e-05
  1.0240631e-06
  3.2845783e-04
 -3.9728066e-06
  9.9587933e-06
 -8.5064939e-06
 -2.2044496e-05
  5.8539601e-05
 -6.0437665e-06
 -9.7280408e-06
  9.5172269e-05
 -7.4695636e-06
 -3.0280453e-05
  7.4470549e-06
 -2.1113754e-06
 -5.7638888e-05
 -9.2201756e-04
 -2.1069198e-08
 -7.1909890e-06
 -8.6753325e-06
  4.0063933e-05
 -8.1368718e-08
  1.2498426e-04
  1.0029092e-05
 -2.5322957e-05
 -4.6732416e-07
  7.0437790e-07
 -2.3284831e-06
 -2.4695351e-05
 -6.1366468e-06
  3.1382497e-05
  2.9828195e-06
 -5.6595422e-06
  1.1325623e-05
 -6.6139917e-05
  5.0423364e-07
  3.2984187e-06
  1.1456024e-05
 -7.2970579e-06
 -2.4723220e-06
  1.0148443e-04
  3.9093306e-06
  2.0911164e-05
  1.0375334e-05
  1.2901378e-05
 -6.8961134e-07
 -1.6217014e-05
  1.2507755e-05
  1.7439213e-05
  5.9157319e-05
 -2.0170826e-05
 -1.0681817e-05
 -1.0596284e-06
 -1.1443633e-05
 -1.1153789e-05
  1.0601838e-06
 -8.7668339e-04
 -3.4313653e-06
 -1.7363049e-05
 -7.8841176e-06
 -1.9333897e-06
 -2.3465464e-06
 -1.9555950e-05
 -1.3188421e-04
 -6.6403118e-05
  7.6051577e-07
 -9.2890019e-07
 -9.4544403e-06
 -9.3399404e-07
  8.5513690e-08
  5.7029345e-05
  4.9995770e-06
  9.3100300e-07
 -1.3405618e-06
  1.4022720e-05
 -4.8737984e-06
 -1.2403069e-05
  4.1387466e-05
  1.0988984e-01
 -6.5445279e-06
  1.6764796e-03
 -6.0221490e-05
  1.1184227e+00
  3.0442682e-06
 -8.5017418e-05
  2.7952344e-06
  4.2482290e-05
  3.1025953e-05
 -3.1576126e-06
  2.3441637e-04
  8.2017878e-06
  4.2391907e-06
 -3.7605048e-04
 -7.6467390e-05
 -3.5239824e-05
 -1.7236674e-05
  2.4532535e-04
  1.0794442e-05
  4.4339930e-07
  2.8208528e-06
 -9.2544542e-05
  1.2129536e-04
 -1.2021621e-05
 -5.2337955e-06
 -6.7535700e-07
  1.0805195e-05
 -7.8297262e-06
  1.1466847e-05
  9.7076458e-01
  3.8215156e-05
 -8.5292049e-05
  3.4770691e-01
  1.3094884e-01
  2.7067033e-06
 -4.6764520e-01
  5.8735341e-06
  1.0163331e-03
  3.3746390e-03
 -1.4624717e-06
  3.1736642e-02
  1.4142466e-05
 -1.1987487e-05
  1.6373139e-06
 -1.4712340e-06
  1.9425750e-04
 -5.1526207e-04
  1.7050435e-03
  1.9981335e-05
  6.0251667e-03
  2.9910324e-04
 -2.2957502e-04
  8.9121629e-03
  6.0860771e-06
  7.0443100e-05
 -1.1797075e-05
 -3.5653444e-05
 -6.5199310e-06
 -6.6294833e-06
 -7.3169763e-06
 -9.9499575e-06
  1.5604857e-05
  2.3381815e-04
 -6.4806630e-07
 -2.0140371e-05
 -2.3358091e-06
 -9.4446850e-06
  5.7634777e-05
  8.6146537e-07
 -2.9231940e-05
  1.8072133e-06
  2.6987832e-06
  7.6091928e-05
  3.6700737e-06
 -8.5240595e-07
  1.7206177e-04
 -3.5341258e-05
 -1.2250902e-05
  1.0298335e-05
 -3.2760821e-05
 -4.2762382e-05
 -4.2233946e-06
 -1.7989662e-05
  8.3556151e-06
 -7.2391313e-06
 -9.3458493e-06
  1.8309787e-05
  5.8256999e-05
  2.8249996e-03
 -1.2246785e+00
 -8.1300122e-01
 -4.1172036e-05
 -9.0621889e-01
  1.1240684e+00
  3.4424863e-06
  3.5108513e-01
 -4.6097892e-05
 -1.4125738e-01
 -1.0918340e-01
  8.7746994e-06
 -1.8883983e-04
  4.4301956e-05
  4.9681120e-07
 -2.2312301e-01
 -4.4334593e-05
 -5.0065950e-02
 -8.0486405e-01
 -5.0819188e-02
  3.6014575e-05
 -1.1498737e-01
  1.5532843e-05
 -1.8190289e-05
 -1.7516539e-01
  1.5545318e-05
 -9.2220534e-07
  7.4922796e-06
  9.9799036e-06
  5.9053900e-07
  2.1297794e-05
  1.6323893e-06
 -2.5277332e-04
 -4.8605784e-06
 -2.2388953e-05
  2.5702059e-06
  8.5276361e-06
 -1.9420817e-05
  1.0092252e-05
  4.6682508e-06
  1.3779782e-05
  1.8913302e-05
 -6.3212184e-07
 -1.1164519e-06
  2.3930757e-05
  3.1332698e-07
 -1.2338431e-05
 -5.7243658e-05
 -8.8669349e-06
 -3.9057099e-06
  7.6786955e-06
 -1.0299179e-04
 -9.5021669e-06
  4.0738773e-06
 -2.9752362e-05
 -1.4570582e-04
  1.7279262e-05
  2.6276657e-05
  3.1776160e-06
  7.8314552e-06
 -5.1447951e-05
  2.6029786e-06
 -1.7148124e-05
  3.6362890e-05
  1.8819337e-05
 -6.6397774e-06
 -1.3274881e-05
  6.9356865e-05
  2.9005920e-05
  6.5406632e-05
  1.3137052e-05
 -9.6015874e-06
  2.8536019e-06
  1.3925401e-02
  1.1555468e-05
 -4.8700213e-06
 -1.9170815e-04
 -1.4242821e-07
 -1.4388531e-05
  1.2791422e-04
 -3.1649672e-06
  7.5495082e-06
 -2.2383094e-04
  1.0557003e-06
  1.5302679e-05
  6.1015971e-06
 -2.5444851e-05
 -9.4249554e-06
 -1.5584308e-05
 -4.5544816e-06
  1.0731919e+00
 -1.5517665e-01
  5.6025618e-01
  3.7441674e-01
 -4.1323888e-01
  2.9617345e-03
  8.0349593e-05
  3.5189980e-01
 -1.9003412e-05
 -2.2587862e-03
 -3.0248317e-01
 -3.7452516e-01
 -6.1102030e-05
 -1.0570238e-01
 -1.4923584e-01
  1.5441487e-04
  6.0892624e-01
 -1.7833686e-04
  1.7249119e-02
  4.2904644e-06
  2.0040834e-01
  3.4756263e-04
  7.8330020e-05
  2.1948429e-02
 -1.0465933e-03
  5.3307907e-05
 -5.1290226e-06
 -4.6244486e-06
  9.6807780e-05
 -5.5664268e-06
  1.3498709e+00
  3.6250498e+00
  8.4863424e-01
 -3.1616173e+00
  3.6749728e+00
 -2.3586260e-01
 -2.9906574e-01
  1.1166989e+00
 -7.2056964e-02
 -1.3523942e-01
 -7.4862051e-01
  1.9523641e-01
  6.7607492e-01
  2.4193937e-01
 -7.2511977e-01
 -5.8645147e-01
  6.1103624e-01
  8.0488592e-01
  2.0059480e-01
 -2.8183597e-01
 -4.2804393e-01
 -1.4664127e-01
 -2.3097399e-01
  2.5523880e+00
 -1.0090927e+00
  4.4230875e-02
 -2.6087415e-01
 -1.3600944e-05
  2.6988491e-01
  5.5224583e-02
  2.3200239e-06
  2.6618256e-05
  1.2900712e-04
 -2.2599639e-05
  8.4210769e-06
  4.4543062e-06
  1.5945014e-05
 -2.7965891e-04
 -4.1765565e-05
 -1.0068895e-05
 -7.3233728e-05
  8.3486466e-06
 -1.1247166e-05
 -9.2261189e-07
  1.6738166e-05
  1.4274269e-05
  1.4028875e-05
 -2.1924794e-05
  3.6032674e-05
  2.4089208e-05
 -5.2264863e-06
 -3.0332075e-08
  1.3239213e-04
 -2.2522034e-04
 -1.6448429e-06
  1.8330087e-06
  4.7628666e-05
 -8.2994165e-06
  1.7497316e-05
 -1.4227648e-05
  1.1717281e-06
  9.9267505e-02
  8.1621863e-02
 -8.6068952e-01
  1.9909911e-01
  6.2037826e-01
  1.4651351e-05
  3.2034606e-01
 -7.1860222e-06
  1.1362032e-01
  7.0114887e-01
  4.9141432e-05
 -2.6354537e-05
  7.8475869e-06
  4.4632588e-06
 -1.0607762e-06
  9.7390510e-02
  2.2119239e-06
  2.5577763e-06
 -5.5645188e-07
  1.6165070e-05
  3.0878499e-02
  2.0424327e-01
  4.8587585e-06
 -1.6826044e-01
  5.3850954e-07
 -3.5017440e-06
 -2.1919164e-01
 -5.6611371e-01
  6.5173090e-06
 -2.5396455e-06
 -2.8567679e+00
 -1.7381699e+00
  9.9500924e-01
 -1.9444011e+00
  2.4114218e+00
 -5.3613612e-06
 -1.6900953e+00
  6.4851652e-06
 -3.9815655e-05
  2.0042739e+00
  1.4882734e-05
  8.2240122e-06
  2.9351729e-06
 -1.4123048e-05
 -3.2628400e-06
 -2.1756620e+00
 -2.0485818e-07
 -3.2710780e-06
 -1.2701676e-05
  5.6727927e-06
  6.4021611e-01
  1.0264071e+00
  4.6043360e-06
 -1.3390958e+00
 -9.8305236e-07
  3.3796439e-01
 -3.0035026e+00
 -3.8938339e+00
 -1.3519200e-05
  2.0873989e-04
  1.6533942e-05
 -2.4788719e-06
  1.4264567e-06
  1.5831480e-05
  2.4361651e-05
 -5.2987343e-05
  1.0634503e-04
  3.4576446e-05
 -1.8337210e-05
  4.0901596e-06
 -2.2731886e-06
 -2.0770014e-04
  2.5558769e-05
  6.0855105e-05
  1.0971923e-05
 -4.8865527e-06
  5.5586468e-05
  2.0382167e-05
 -6.6811954e-06
  3.6433423e-05
  7.6819859e-05
  1.3193395e-04
 -1.5761546e-04
  3.3512046e-05
  1.0327812e-05
  4.0714298e-05
 -3.3317078e-06
 -2.6916463e-05
 -3.3385688e-05
 -3.3172616e-01
 -1.0100819e-02
 -4.2305091e-06
 -5.3087517e-04
  1.0801801e-05
 -1.4753538e-04
  4.4771186e-05
 -9.0948015e-02
  3.1777445e-04
 -7.3967472e-02
 -3.1029706e-06
  8.9934312e-02
  7.4551892e-05
  6.0385923e-05
  7.1379986e-06
 -2.9329389e-05
 -8.2215141e-05
 -1.1678850e-06
 -2.6466927e-01
 -7.2070122e-02
 -2.2253585e-05
 -1.5657437e-05
 -3.6774989e-05
  5.5139462e-06
 -7.8979589e-02
  5.5113139e-07
 -4.6795671e-04
  7.1442801e-06
  5.6198005e-02
 -3.2809365e-07
 -2.2248937e-06
  9.7010652e-06
  3.6232730e-06
  3.2014902e-06
 -3.5731613e-05
 -1.6536123e-06
 -1.0382465e-05
  5.7829187e-05
 -2.1929915e-05
  1.8691583e-04
  2.1508589e-08
 -4.7162021e-06
 -1.4103019e-06
 -4.6760557e-05
  3.6220374e-06
  3.2631164e-05
  3.0181587e-05
 -5.1675688e-06
 -1.0912333e-06
 -7.0939997e-05
 -4.2559881e-05
  8.0804057e-06
  6.9618386e-06
  5.8115224e-06
  2.6292075e-05
  9.6103713e-07
 -2.9447885e-06
  2.8443461e-05
  9.1132730e-05
  8.3065624e-06
 -9.3409681e-06
 -5.7801431e-06
  4.3070892e-07
  7.4700970e-06
 -2.4279960e-05
  3.5474961e-06
  1.2080895e-05
 -7.3885276e-06
  1.5398018e-05
 -1.9610140e-06
  9.5226978e-06
 -1.7883979e-06
 -3.6271746e-07
 -3.8660530e-04
  1.1956463e-05
 -5.8115388e-06
  1.4545057e-05
 -2.2163951e-04
  1.1740465e-06
  1.4272622e-06
  2.1835980e-05
 -3.0056906e-05
 -1.8831932e-05
 -2.2132406e-06
  1.7596103e-05
  2.4560617e-05
 -2.7549157e-05
 -1.3336705e-06
  1.0105857e-06
  3.4505690e-06
 -5.4117864e-01
  6.1106673e-03
  5.5362487e-01
  3.1794634e-01
  1.7920097e-04
 -8.1198567e-01
  2.1716674e-01
 -6.4521648e-02
  1.2679763e-01
 -3.8043845e-01
 -3.1923574e-01
  8.6007035e-01
  1.5756775e-01
 -5.9285259e-01
  1.3713269e-03
 -5.7757575e-02
  1.4654335e-01
 -6.8590897e-01
 -8.2415622e-01
 -1.8513214e-04
 -3.6227782e-04
 -5.8519078e-07
 -9.5085397e-02
  3.4057787e-01
 -8.9425445e-02
 -2.3857292e-05
 -1.2957002e-05
  4.4238527e-06
  1.3809149e+00
 -5.2423926e-05
 -3.5981208e-04
 -5.9801042e-03
  1.0473328e-04
 -3.7943575e-01
  2.9289912e-04
 -1.9656852e-02
  2.5545550e-03
 -3.1562031e-03
 -7.1673712e-05
  2.4728259e-05
 -2.0749401e-03
  2.7882788e-06
  7.7354431e-05
  1.6118647e-04
 -4.7780247e-03
 -8.2220016e-05
 -1.1259820e-03
 -2.2799526e-04
 -1.8539524e-02
  1.4894461e-05
 -2.9199570e-03
 -5.3569244e-07
 -7.9427054e-04
  3.2105403e-05
 -8.0489425e-04
 -7.3480056e-05
 -5.8965590e-02
  8.0387108e-04
  5.0610460e-02
 -1.3942859e-04
 -2.2376253e-05
 -2.4866562e-01
  3.1426065e-05
  1.1723441e+00
 -6.4584739e-05
  7.4400115e-01
  9.9293359e-02
 -5.3788352e-01
  6.2579006e-01
  2.1357282e-01
 -4.3428889e-05
 -2.0402631e-04
  6.0246493e-06
 -6.8195081e-01
  3.4562525e-01
 -3.6818659e-05
  1.8819250e-01
 -4.3938719e-04
 -5.8407197e-03
 -2.0229985e-05
 -1.3651448e-05
 -1.1682104e-05
 -7.5888984e-06
 -2.0440384e-05
 -3.5924475e-06
  2.5007007e-06
 -1.8677993e-05
  1.3507471e-05
  7.1120924e-01
 -1.5103912e-04
  2.3177958e+00
  6.8646604e-01
 -2.5566781e-01
 -1.6466424e+00
  2.9701066e+00
 -2.1854720e-01
  9.7197346e-02
 -4.3159872e-01
  4.7966769e-01
 -3.3628032e-01
  5.2390152e-01
  5.2227318e-01
 -1.1021069e-01
  9.3463451e-01
  5.3327250e-01
 -2.7878345e-05
 -2.3226852e+00
 -2.4347177e-01
  8.0982065e-01
  5.1552469e-01
  3.7417263e-02
 -2.3248181e-06
  2.2984450e-01
  8.1419903e-01
  3.9883699e-02
 -7.3476012e-06
 -3.3079138e-01
 -1.9175412e-02
 -5.3763390e-01
 -3.6226577e-04
 -8.4441805e-01
 -1.5706604e+00
 -3.3810750e-01
  1.1180419e+00
 -1.1305108e+00
 -1.9891284e-01
 -1.7805589e-02
 -3.0180830e-01
  1.3422816e+00
 -3.0181152e-01
 -2.9541561e-01
  1.7591065e+00
 -2.6959296e-02
  3.7657502e-01
 -3.5606587e-01
 -1.0395035e-04
 -1.2738192e-01
  4.4524437e-01
 -6.3277051e-02
 -1.6207615e-01
 -1.1276530e+00
  1.8143357e-01
 -1.7713777e+00
 -1.2316240e+00
 -8.0373114e-01
 -7.8144041e-04
 -3.0691606e-01
  3.2861644e-01
 -7.1967596e-01
  1.3823609e-01
  1.4362226e+00
 -5.6406327e-02
  9.4181070e-07
  7.7281737e-01
  5.7627285e-01
 -1.5610635e-01
  7.1101676e-04
 -3.4671587e-01
 -6.8719256e-01
 -6.6731367e-03
 -3.0757123e-01
  1.2382658e+00
  7.3261964e-01
 -4.1497618e-01
  2.5604686e-04
 -6.0851717e-01
  1.0598184e-01
 -3.8840998e-02
 -8.0279827e-01
  1.3815491e+00
  3.9683699e-04
 -4.9052451e-02
  1.6430353e-05
  4.3973431e-01
  1.0168508e+00
 -1.1705283e-04
  5.5829310e-01
 -2.3466391e-06
  8.2094681e-01
  1.7102584e-05
  6.6667258e-06
  1.9192097e-05
 -1.9853882e-05
 -1.3846058e-06
 -1.1137375e-05
 -1.3972264e-04
  4.2618343e-05
 -3.3946321e-06
 -4.7381777e-06
  8.9889136e-06
 -1.0623419e-06
 -4.0253857e-07
 -2.1100546e-05
  9.5297901e-06
  2.5746326e-06
  8.3502300e-06
 -4.2698026e-05
 -6.9735825e-07
 -1.6216170e-05
  2.2015458e-07
 -9.5502537e-06
 -8.3116004e-07
 -3.6169502e-05
 -1.6710695e-05
  1.2369406e-06
  1.4691910e-04
  6.7608989e-06
 -1.5957784e-06
  5.5557907e-06
  2.5277743e-06
 -8.6867994e-06
 -2.8520661e-05
  1.7705202e-05
  3.7085952e-06
  4.9422557e-05
 -3.7160706e-05
 -9.2540577e-06
  9.3524632e-06
  5.3069423e-05
 -8.0106856e-06
  5.4382490e-06
  1.0760433e-05
  6.1040569e-06
 -3.3375916e-05
 -3.0980940e-05
 -1.2913240e-05
 -7.8604617e-06
 -2.9904554e-06
  1.2629717e-05
 -8.7561966e-07
 -3.2619435e-05
  9.4251800e-06
  1.0886166e-05
 -6.3852467e-06
 -1.4067666e-06
  5.5664750e-06
  2.2349943e-06
  7.5673211e-06
  2.3219378e-05
  6.1668201e-05
  3.3949415e-05
  9.0690058e-01
  1.7842707e-05
  1.6024437e-04
 -2.6800239e-04
  7.1610315e-03
  8.8105865e-02
 -3.5311458e-01
 -1.2840243e-01
 -1.1976444e-02
  1.2120710e-04
 -2.9023848e-05
  4.2644022e-03
 -1.0995814e+00
  7.1293489e-06
 -8.8949337e-06
  1.3375988e-04
  1.3580802e-04
  8.3216614e-01
  3.9428091e-05
  9.4837262e-05
 -1.0910617e-05
  6.3007457e-07
  1.1553754e-04
  9.0801686e-06
 -2.0074937e-04
  1.5347998e-04
  2.8513855e-06
  1.9225731e-06
 -1.0276238e-05
 -3.2138667e-01
 -1.9447961e-01
 -4.2848656e-01
  2.4039681e+00
  2.1816118e-02
 -3.8166377e-01
 -3.1195942e-03
 -3.0963588e-01
  1.3304158e+00
  6.5872736e-02
  1.5493464e+00
  1.2229180e+00
 -3.3395237e-01
  1.7786119e+00
  3.3891237e-01
  2.1080045e-02
  3.0950900e-02
  7.1933872e-01
  6.8634313e-01
  2.4412507e-02
  4.2816004e-01
  1.0733384e-02
  4.2052457e-01
 -1.0311724e-01
  9.3627733e-01
 -1.8781901e-05
  1.0070116e-01
 -1.3410236e-01
  2.2759368e-01
 -1.2392624e-01
  5.0834738e-06
 -7.0181340e-02
 -3.4575547e-05
 -7.4915487e-01
  2.8422338e-01
 -5.6206398e-02
 -1.8571259e-01
  1.9014847e-01
  6.8112427e-06
  1.5635952e-01
  2.3421323e-01
 -1.3013563e-05
 -9.8451853e-02
 -1.0004742e+00
  5.5061717e-02
  6.6616917e-06
 -1.3201000e-05
  2.7779477e-05
  1.8658462e+00
  6.4556688e-01
 -3.7099887e-06
  7.9117572e-06
  6.1194325e-05
 -1.1930506e-04
  6.2891282e-05
  5.9932108e-06
  7.0123051e-06
 -3.7657395e-05
 -1.9410039e-01
  4.6049005e-01
 -2.0261707e-03
  7.5794518e-01
  3.9353323e-01
  4.1659893e-03
 -1.5096263e-03
  1.1365628e-01
 -1.0018066e-01
  6.0437316e-01
  3.4861621e-02
  1.2834657e+00
 -5.1439708e-01
  1.0886140e-01
 -3.6886027e-05
  1.9564399e-01
  1.4253427e+00
  9.6200747e-06
  4.0598126e-05
 -2.3340639e-05
 -2.5389880e-01
  9.3089473e-01
  7.8988996e-05
  8.8218831e-06
 -5.0941912e-06
  1.2498765e-01
  6.7958620e-04
  2.2599746e-05
  1.0840790e-05
  7.5145163e-06
 -8.0112554e-04
  1.2784044e-04
 -1.6565571e-05
  1.3669902e-04
 -2.9885664e-06
  2.2086864e-05
 -4.4649687e-06
 -1.4716084e-05
 -1.6484045e-06
  6.0399802e-06
  1.5204138e-05
  4.1354792e-06
 -1.3789692e-05
 -4.1559911e-06
 -8.4039048e-06
  1.0784044e-06
 -1.8758947e-04
 -4.2677471e-05
  1.5294792e-07
  2.5236788e-05
 -1.1257716e-05
 -5.1428156e-06
  1.5041063e-06
 -4.4706609e-05
  3.5547364e-06
 -1.2731575e-06
 -2.3569355e-06
  1.2867332e-05
  1.1894728e-05
  6.5428540e-05
 -2.1615688e-05
 -7.7626182e-06
  1.0931317e-06
 -5.2420779e-05
  1.9105953e-04
  5.0063346e-02
 -6.9590997e-06
 -7.5026139e-05
  4.8789000e-03
 -1.7363481e-03
 -1.5032536e-01
 -5.6276235e-06
 -3.9720384e-05
  4.9546441e-01
 -1.5374573e-06
  1.9685261e-02
 -1.0420735e-05
 -7.7682898e-07
 -2.8998447e-06
 -2.2010156e-06
 -6.4515630e-03
 -1.9457942e-05
 -2.3755687e-05
 -1.0272663e-04
 -1.0076145e-04
  2.6663834e-05
 -1.3110193e-05
  2.2046483e-05
 -1.2504661e-05
  9.9605668e-06
  4.7724534e-02
 -3.0931423e-04
  4.7077895e-03
  2.5221551e-02
  1.1628429e-05
 -5.0175115e-02
 -9.6056092e-04
  2.6728896e-02
 -1.2061363e-03
  4.0440500e-02
  2.1961698e-01
  2.6796928e-02
  8.0945566e-03
 -8.3798759e-02
  3.3464890e-05
 -4.4598352e-02
 -7.7505410e-06
  1.2045455e-03
  1.9970779e-04
 -8.7666840e-06
 -1.0590735e-01
  1.5733284e-01
  3.0266780e-02
  1.6847394e-05
  2.4196814e-01
 -9.2820922e-04
  3.0910394e-01
 -1.0356356e-05
  4.3233082e-02
 -3.2139057e-03
 -2.0774394e-02
  1.4896393e-02
 -1.4982611e-01
  1.1757709e+00
  2.8550875e-01
  9.9535954e-01
 -1.6315100e+00
  6.5565497e-01
 -6.7482954e-01
 -3.3544692e-01
  6.6066605e-01
  4.5564044e-01
 -2.6284638e-01
  4.8047391e-01
 -9.1905883e-07
  2.6074824e+00
 -1.0038950e-02
  7.6035005e-03
 -3.9228101e-04
 -3.6764410e-03
  1.8640185e-06
  5.8588936e-05
  3.6727708e-06
  1.5616468e-04
 -1.3407224e-04
  3.2961440e-01
 -6.7020163e-05
 -1.1843211e-06
 -1.3881204e-05
  8.4102663e-05
 -7.3009272e-05
 -4.1292693e-05
  7.7325341e-05
  2.5362353e-06
  5.2917941e-04
  3.8904195e-06
  1.7082228e-06
 -2.8493620e-05
  4.3014143e-06
  1.6011905e-05
 -2.4978093e-05
  2.3949462e-04
  1.4676552e-05
  1.0273866e-05
 -9.5521136e-06
  1.0429609e-05
 -6.9987414e-06
 -1.2612054e-05
  4.0993433e-05
 -1.1830512e-05
  8.2240958e-06
  2.0245247e-05
 -4.6270438e-06
  1.2294180e-07
  1.2398900e-05
 -2.4433764e-06
 -8.3523973e-06
 -1.4090877e-05
  5.2468299e-06
  7.4087334e-06
 -8.8893494e-06
  6.2589074e-06
  2.4383030e+00
  1.0564885e+00
  7.7367431e-01
  3.0244187e-02
 -6.0638171e-01
  2.2815564e-01
  8.1789291e-01
 -7.1467125e-01
 -1.4062491e-01
 -1.5764151e-02
  6.6089786e-05
 -2.2675389e-01
  7.2228509e-01
 -1.5175313e+00
  8.0189519e-03
  1.3845848e-01
  8.4461612e-01
 -3.8544827e-06
  1.5249699e-01
  3.3661917e-01
 -7.1862792e-06
  5.1999905e-05
 -4.2602687e-06
 -1.2462888e+00
  2.3950852e-04
 -3.5333380e-06
  3.3995584e-01
  4.0988944e-05
  3.6231824e-04
  9.3775219e-07
 -6.0704123e-04
 -1.2685230e+00
 -8.9381263e-02
  1.4198540e+00
  8.2701743e-01
 -2.7354512e-01
  7.4552333e-01
 -1.0414363e-01
 -6.1604136e-01
  7.4525900e-02
 -3.6100581e-01
  2.0418134e-01
  1.5323062e-02
  2.0853253e-01
 -2.5010997e-01
 -9.7239201e-05
  2.1056481e-02
 -1.9420222e-04
  3.0151853e-01
  6.7503393e-06
 -1.7433907e-04
  3.7869936e-06
 -2.8153217e-05
 -2.7229977e-05
  6.2055676e-07
  1.9221990e-05
 -3.4787180e-04
  2.5207376e-06
  5.9925519e-02
 -1.4930601e-01
 -1.8333803e+00
  5.2841115e-01
  1.9297863e+00
  2.6749871e+00
 -3.4705624e-01
  2.4742745e-01
  7.4930847e-01
 -2.1578227e-01
  5.2489924e-01
 -4.3151379e-01
 -6.1794943e-01
  2.3952925e+00
  2.7436870e-01
  2.4238412e+00
 -5.9603792e-01
  4.4860294e-01
  2.7757451e-01
 -6.8016207e-01
  1.3675830e+00
  1.7317468e-03
 -2.7514147e-02
  1.0863159e-05
 -5.1093614e-01
  4.2805290e-01
  1.6924860e-05
 -6.7473286e-07
 -1.3926942e-03
  6.4098704e-01
 -2.6561591e-01
 -1.0123535e-05
  2.0087001e-01
  6.5222412e-06
 -4.1249328e-05
  1.1627786e-06
  5.5365558e-06
  8.5797546e-06
  1.1597960e-05
 -2.7930769e-06
  2.2452298e-06
  6.3974246e-02
 -8.2307579e-06
  8.2662791e-06
  4.0965409e-05
 -8.1216626e-02
  4.1864692e-05
  1.9524205e-05
 -4.5508299e-05
 -1.1450791e-05
 -8.5879103e-05
  7.3369738e-05
 -2.1168521e-06
  6.7888914e-06
 -8.3004968e-05
 -1.3614207e-05
 -9.2222253e-06
 -4.0138981e-05
 -2.7747708e-06
 -3.0007215e-05
 -7.1754503e-06
  9.3189446e-06
  5.0360277e-06
  6.3010710e-05
 -1.8033724e-07
 -5.1274300e-01
  6.8917125e-01
  9.0450021e-06
 -5.9784621e-01
 -1.2684916e-05
  2.3824039e-01
  1.3471377e-01
  4.4243527e-04
  2.5942167e-05
 -8.8358531e-05
  8.1067774e-03
 -3.6509970e-01
  7.2125418e-05
  3.5501641e-04
  2.4756714e-06
 -1.3513460e+00
  3.2858202e-06
  1.1355358e-04
 -6.5944896e-06
 -8.4960093e-06
  4.2496367e-06
  1.7636703e-05
 -2.2559102e-04
 -1.6430225e-07
 -1.7236765e-05
 -4.8356708e-02
  2.2328109e-05
 -2.4730630e-02
  3.9310479e-01
  4.6596110e-01
 -8.0849010e-01
  1.2783912e-05
 -1.2040365e+00
 -3.9790973e-01
  1.9076550e-01
  9.1043735e-01
  3.8525101e-02
  3.6650072e-05
  1.2541264e+00
  4.5975235e-01
 -1.2702868e+00
  7.1316391e-02
 -2.1850634e-05
 -1.0882595e-02
 -1.4291357e-04
  6.6775031e-02
 -1.6761953e-02
 -9.3079044e-04
  8.9875903e-06
 -1.2120635e-01
  3.8966557e-01
 -2.6859815e-04
  2.3038754e-07
 -1.9410519e-01
  3.3228572e-02
  9.8166233e-01
 -2.9059369e-05
 -2.5746222e-05
  2.4395244e-05
  1.2908202e-05
 -2.2999543e-06
 -2.0173559e-06
 -4.0585683e-06
 -1.1112287e-05
 -1.7060555e-06
 -1.7312566e-05
  7.7180921e-05
 -2.6728588e-04
  2.2983295e-05
  9.6940366e-06
  2.1974760e-05
  3.2781310e-05
  8.6540858e-06
  8.7125345e-06
 -8.4593021e-06
  5.9899339e-06
  3.7523614e-07
 -1.5459318e-05
 -1.0785054e-05
 -3.9786395e-05
 -1.4235809e-05
 -3.3802677e-05
 -1.5234423e-05
 -1.2294316e-05
 -2.2686258e-05
 -4.9706500e-06
  2.4460021e-05
 -4.1780431e-06
 -2.6171192e-05
  1.2526422e-05
  1.7101788e-06
 -4.3753695e-05
 -1.9637616e-06
  8.1608241e-06
 -1.1906398e-05
  3.3084365e-05
 -3.8410662e-06
  7.2432772e-06
  5.6344556e-06
 -7.5009370e-06
  1.7390657e-05
  5.3402036e-06
  9.6021293e-05
  2.8378518e-06
 -3.3699489e-05
 -2.1746648e-07
  2.5721445e-06
  1.5797766e-06
  2.3766695e-05
  1.2530875e-04
 -7.3108772e-06
 -2.0750210e-06
  2.7588681e-05
  7.5780845e-06
 -4.7908637e-05
  3.5275925e-06
 -9.1038957e-05
 -7.6145157e-02
 -1.4153324e-01
 -1.8397333e-02
 -5.9463924e-01
  7.3220387e-02
  8.4666684e-02
  1.0100039e+00
 -2.8682730e-01
  7.8018457e-02
  3.8170940e-01
 -5.0520893e-02
  3.5516793e-01
 -5.9741902e-01
  2.4079051e-02
 -5.6051534e-01
 -7.8209600e-04
  8.4053934e-01
 -4.0881211e-01
  9.2019600e-01
 -5.9556442e-05
 -4.9246503e-03
 -1.3483086e-04
 -2.1485178e-01
 -2.6060541e-06
 -2.5237378e-01
 -1.5219969e-06
 -7.6954416e-04
  1.5501986e-04
  9.2889629e-02
 -7.3237368e-03
  2.8871451e-04
  2.6866407e-04
 -1.3879840e-06
 -3.8005081e-05
 -1.5024224e-01
 -4.9565692e-06
  4.1592624e-02
 -9.0816253e-01
  1.3863935e-02
  2.8690794e-01
  1.0283906e-05
 -5.9363803e-05
 -3.3931446e-01
  6.8038422e-01
  9.8196644e-01
  1.2277449e+00
  6.4437572e-06
  4.1363589e-04
 -9.9734498e-05
 -1.8717487e-01
  4.5893477e-05
 -5.8947849e-01
 -1.3675196e+00
  1.5906458e-01
 -3.4360826e-07
 -5.4720902e-01
 -7.6227792e-02
  3.5459507e-04
 -1.2479193e-05
  5.2976757e-01
  1.8473445e-01
 -6.6111231e-01
 -5.3823987e-06
  8.8621982e-06
 -7.3993403e-01
 -9.8069435e-01
 -5.6719816e-01
  2.4492211e+00
 -2.0698106e+00
  1.4029713e+00
 -1.0170441e-05
  1.7555583e-05
  5.9508854e-01
  2.2982728e+00
  7.6582384e-01
  5.9831369e-01
 -3.7746802e-06
 -5.0535792e-01
  8.5239136e-01
 -8.7885338e-01
 -2.7965110e-05
  9.6862400e-01
 -6.9792998e-01
 -2.0092223e+00
  3.5727671e-06
  4.7476706e-01
 -9.9592245e-01
 -3.5935381e-04
  9.9000128e-05
 -8.7657034e-01
 -2.4314096e+00
  8.5212213e-01
  5.5254191e-01
 -6.3061517e-01
  1.4248215e-04
 -3.8145848e-02
 -5.1072592e-01
 -1.1611148e+00
  1.1485112e+00
  1.9719839e-01
  3.8591981e-01
  2.2944535e-01
 -3.5229331e-01
 -3.1024724e-04
 -1.1287525e-04
 -6.2731520e-04
 -4.2806931e-02
 -8.6899745e-06
  1.3898057e+00
 -1.7576480e+00
 -8.1633091e-01
  8.8522738e-01
  9.4561958e-01
  9.0250478e-06
 -1.6269239e-03
  2.2471595e-01
  8.3205867e-01
 -1.5621675e+00
 -2.5652277e-01
  3.7141624e-01
 -2.6725545e+00
 -8.7334074e-02
 -5.8286481e-05
 -1.1625857e+00
  8.6117387e-01
 -9.8153818e-01
  4.5934743e-01
  8.6154932e-01
  1.6872513e+00
  3.9848462e-01
 -3.8081858e-02
 -5.6767619e-01
  1.7786038e+00
 -5.1888108e-01
 -3.8732058e-05
  1.9607124e+00
 -1.2034867e+00
 -2.0618618e+00
  1.1524994e+00
  4.2003462e-01
 -1.2451013e+00
  1.5452700e+00
 -6.2282151e-01
  9.9689108e-01
  9.0196013e-01
 -1.0842270e-01
  5.6345045e-05
  2.8265101e-01
 -4.6087584e-01
  3.3155555e-01
 -8.1423587e-01
 -2.7272865e-01
  4.7366580e-06
 -1.7846718e+00
  1.1638521e+00
 -9.5881027e-01
 -1.6400788e+00
  2.5182825e-01
 -1.8773341e-01
  8.7992914e-02
 -1.6355830e+00
 -2.1358229e-01
 -1.5095881e+00
  1.3030776e-01
  4.9536027e-02
 -3.2824674e-01
  8.2965344e-01
  3.6001539e-01
  2.1738369e+00
  1.8693389e-01
  3.4574509e-01
  1.0089785e+00
 -3.3214191e-01
 -4.7625956e-01
 -2.1327040e-01
 -7.0110238e-01
 -3.6240211e+00
 -2.6833983e-03
 -9.6237677e-01
  3.6234257e-01
  1.0631231e+00
  1.1122350e-05
 -4.7099843e-06
 -1.2197222e-05
 -1.6144399e-05
 -1.1711548e-02
  1.9753187e+00
  5.6528989e-03
  1.3031955e-02
  4.7928549e-02
 -9.1256620e-04
 -4.5464565e-03
  1.2972929e-05
 -1.9798979e-01
 -5.2681178e-01
  1.5284157e-01
 -1.0808677e-05
  6.3008481e-01
 -7.6227552e-01
 -1.7754862e-01
 -4.0447116e-01
 -1.0273615e-01
 -1.1298950e+00
 -2.3620958e+00
  5.5163765e-01
  6.2165771e-02
  1.1352150e-01
 -3.6432046e-01
 -1.7616422e-04
 -2.6112737e-05
 -4.0750489e-01
  1.5499093e-01
 -8.3744490e-05
  2.2371192e+00
  4.7620100e-01
  6.4818043e-01
  1.7785528e-01
 -1.0651938e-01
  6.2632166e-06
  1.3412566e-01
 -2.6410690e-01
 -7.8312457e-01
  1.4638735e+00
  1.4809331e-02
  1.8292306e-01
  5.5858082e-01
 -1.7056058e-01
 -3.0762783e-01
 -6.0658997e-01
 -4.5685968e-01
 -3.9640591e+00
  2.9195242e-03
  1.2673575e+00
 -4.5940885e-03
 -7.5863373e-01
  7.9805304e-06
 -1.6492423e-01
  4.1888566e-03
  1.2789300e-05
  2.1780273e-01
 -6.1438065e-02
  1.0506741e+00
  5.9283161e-01
  1.5094194e+00
 -1.8378309e-05
 -2.0764498e-06
 -2.6250973e-02
 -7.1517915e-01
 -2.2813077e+00
  1.2795974e+00
  5.4174489e-01
  1.9975435e+00
 -6.3192910e-01
 -1.3100830e+00
 -1.6646963e-01
 -1.3648014e+00
 -1.9782431e-01
  5.8478451e-01
  8.4675312e-01
  4.7095630e-01
  9.2990294e-02
 -7.2529447e-01
 -1.8014839e-03
 -2.3353016e-02
  1.1635287e-05
 -2.7356225e-01
 -9.0136436e-06
  2.1705897e-01
  9.3775399e-02
  7.3622022e-04
 -3.1294751e-01
  2.1269082e-01
  3.9096933e-02
 -3.4864806e-05
  1.1371181e+00
  1.3930177e-05
 -6.2801379e-01
 -3.5016075e-02
  6.5015869e-05
  3.0184827e-05
 -3.0597353e-02
 -3.1097248e-01
 -1.2768091e-01
 -1.1268054e+00
 -2.8386578e-01
 -1.0811452e+00
  5.1924443e-01
  2.6593262e-01
  1.0784904e+00
 -2.6338693e-01
 -3.6279723e-01
  1.3242257e+00
 -2.2714515e-01
 -7.7693212e-01
  1.9913452e+00
  6.3992107e-01
  2.6618187e-05
 -1.0520934e+00
  5.9698462e-01
  1.2088736e-01
  3.8788876e-01
  6.9154787e-01
  2.7986610e-01
  1.3442476e+00
  1.7214823e-08
  6.6403043e-01
 -3.8638893e-01
 -7.0654130e-01
 -2.5134448e-05
 -5.3948587e-01
  1.6802006e+00
 -6.9556087e-02
  1.1117965e-01
 -2.8788435e-04
  1.7169454e-05
 -6.2257767e-02
 -3.2560760e-01
 -2.4332523e-02
 -4.6758461e-01
 -2.0055988e+00
 -9.0848976e-01
  3.7115246e-01
  1.0405395e+00
  6.3071884e-03
  2.0094183e-05
 -1.1202509e+00
 -5.3900754e-01
  3.2654844e-02
 -1.9071470e-03
  1.4481618e-01
  3.7445882e-01
  1.7124937e-01
  9.4639182e-01
  9.3478340e-01
  2.3493629e+00
  2.1806509e+00
 -1.0760739e+00
  1.4309938e+00
  6.0291447e-02
 -1.5936021e+00
 -7.7254403e-01
  1.2523458e+00
  1.1668953e+00
  4.2506290e-05
  1.3644926e-01
  2.0899640e-06
  1.6508389e+00
 -1.1469670e-05
 -2.8389823e+00
  1.2347192e+00
  2.0461056e-01
 -4.2991292e-01
  9.1971594e-01
  4.9376968e-01
 -2.4461338e-01
 -2.1101797e+00
  1.4703218e-02
  6.1920542e-01
 -1.6370333e+00
  2.2381778e-01
  1.6662252e-01
  2.9495552e-02
  1.0378261e+00
  6.0654032e-01
  2.3718941e+00
  1.8655384e+00
 -1.7164903e-02
  1.0685691e+00
  1.4581140e+00
 -1.4230156e+00
 -8.7196959e-06
  2.1124976e-03
  7.6883888e-01
  2.0354192e-01
  2.0577068e+00
 -9.9612284e-01
  2.7780206e+00
  8.5040189e-02
 -2.5739329e+00
  1.0834143e+00
  2.1215609e-01
 -2.1212969e+00
 -4.4075784e-01
 -1.2550555e-01
 -1.5114737e+00
 -8.7490243e-01
  4.4145548e-01
 -2.4023317e-01
  1.0217317e+00
  1.9080307e+00
  3.1338823e-01
  2.3594581e-01
  7.0595628e-01
 -4.3294901e-01
 -1.9039000e+00
  3.1348529e-01
  2.2639245e-02
  1.6076342e-04
  2.3356694e-01
 -9.9334824e-01
  1.6326097e+00
 -1.6062215e-01
  3.7231430e-01
  4.2194629e-01
  6.7414546e-01
 -2.2053711e+00
 -8.1720122e-05
 -7.6235151e-01
 -1.0221267e+00
  1.2931701e+00
  1.4962189e+00
  1.0491807e+00
  1.2576025e+00
  1.7691530e-01
 -6.4530718e-01
 -1.1435742e+00
 -6.8491483e-01
  1.3252515e+00
 -1.4765111e+00
 -5.9830076e-01
 -4.1908216e-01
 -2.3466611e+00
 -4.1942406e-01
 -4.1554347e-02
 -1.8415247e-01
 -3.3157629e-01
 -4.4424360e-05
 -5.2863735e-01
 -6.3367297e-06
  6.3452649e-01
 -7.6323187e-01
 -5.9106324e-06
  8.6782205e-01
  1.0404814e-04
  3.5444826e-01
 -5.1929832e-01
  8.6366236e-02
 -1.4307724e-02
 -3.2565084e-01
  7.8930128e-01
 -1.8851142e-02
 -1.0447829e+00
 -1.8264308e+00
 -6.3384712e-01
  1.1453081e+00
 -1.0485490e-01
 -2.1949780e+00
  1.3045236e+00
 -3.3855179e-01
 -2.4039009e+00
  6.7141038e-01
 -5.2162915e-01
 -9.3800831e-01
  1.9277778e-01
  9.6405558e-02
 -4.0633142e-01
  7.0324206e-01
  2.8432686e-02
  1.1681467e-04
  9.8329061e-01
 -1.1200837e+00
  6.5477097e-01
 -4.8999947e-01
  3.4903523e-01
 -7.6566058e-01
 -1.4500382e+00
  7.6301978e-03
 -3.1019840e-01
  8.5101075e-02
 -1.1269039e+00
 -1.0332888e-01
 -1.8250854e+00
 -1.5927937e+00
 -2.8311145e+00
 -6.9300145e-01
 -1.9787136e+00
 -8.6776704e-01
  1.9861985e+00
 -1.0132362e+00
 -1.0003107e+00
 -6.9393218e-01
 -8.1433088e-01
 -1.7893107e-01
 -1.3749802e+00
  5.6568599e-01
  4.8268709e-01
 -4.4788596e-01
 -1.7426428e-01
 -1.4271021e+00
  1.8911771e+00
 -1.4353701e+00
 -2.8782460e-01
  6.3055712e-01
  1.1585085e+00
  4.5238072e-01
 -8.4162313e-01
  1.5911884e-06
 -3.1483276e-06
  1.6102764e-05
 -2.1549303e-03
  7.8129924e-06
 -2.2285480e+00
 -6.9236618e-01
 -1.2366328e+00
 -4.9046046e-01
  1.4246888e-05
 -5.3831673e-06
 -6.7461906e-06
  1.1080053e-05
  2.9961745e-06
  5.0933112e-04
 -7.4125364e-07
 -6.9082564e-01
  2.2433092e-05
  1.1050989e-05
 -7.1024701e-06
 -1.5240061e-05
 -3.4722488e-02
  4.4035505e-06
 -1.2777410e+00
  8.5226965e-01
  5.2785420e-01
 -1.2540860e+00
  1.0403725e-05
 -1.1107458e-07
 -1.5908172e-05
 -1.0030371e-05
 -2.2093645e-05
  1.4726360e+00
 -1.0199442e+00
  5.9764582e-01
 -5.7354838e-01
 -1.1879174e-05
 -7.0384016e-07
  3.7947997e-05
 -3.2909669e-03
 -1.8756357e-06
 -5.5174959e-01
  9.0558225e-01
 -4.3333908e-05
 -6.3354796e-01
 -1.0544391e-06
 -1.4396125e-04
 -7.7556606e-06
 -6.5708220e-05
 -3.8076596e-05
 -1.9506252e-01
  6.9819427e-01
  1.0369964e+00
 -8.8533610e-01
 -1.5236274e-07
 -3.7415080e-06
  4.4032599e-06
 -9.1503216e-06
 -5.2109217e-06
  4.0181950e-01
  2.6545483e-01
 -1.7154145e+00
 -6.6326654e-01
  2.0231264e-06
 -1.6265269e-05
  8.0722148e-06
 -9.9751659e-02
 -2.1820067e-06
 -1.5297327e+00
  1.0738145e-01
 -1.6226484e-02
  1.2973230e-01
  2.6700022e-06
  5.6902969e-05
 -2.4920155e-05
 -3.6264615e-07
 -5.5192913e-06
 -2.3951991e-01
  4.9698421e-01
  7.4354333e-01
 -3.7160149e-01
  7.2913164e-05
  6.9020311e-06
 -9.5021534e-07
 -2.7164865e-01
 -1.4027412e-05
  1.2684509e-01
 -7.3275459e-01
  1.3453981e+00
  3.2512896e-02
  3.7334180e-06
 -1.3566329e-05
  1.8083688e-06
 -3.4599941e-06
 -9.4147645e-06
  1.9617116e-01
  4.5500378e-06
  2.8637251e-01
 -1.0904458e-05
  1.0762183e-05
 -2.0676825e-05
  5.1928791e-06
 -2.0945019e-01
  7.2328226e-06
  3.0557191e-01
 -7.1540248e-01
  7.0646220e-01
 -8.5576731e-01
 -1.7964804e-06
 -6.2158861e-06
  3.0188249e-07
 -7.6736620e-07
 -9.0251189e-05
  1.2229944e+00
  3.6685508e-01
 -1.1237382e+00
 -7.2476423e-01
 -2.4022772e-06
  1.3361984e-05
 -2.3388363e-06
 -1.5165356e-04
 -3.6936265e-06
  1.8292714e-04
  5.9768178e-02
  3.2400319e-01
  5.4690224e-01
  5.1639141e-05
  1.8915217e-06
 -1.5383628e-05
 -8.4741478e-06
  1.7065787e-01
  7.5178373e-01
  5.9085464e-01
  2.5641098e+00
 -9.1073775e-01
  6.7467445e-06
  1.1690843e-05
  3.1211272e-05
 -1.4818831e-04
 -1.0111678e-05
  1.6923670e-01
  3.2101452e-02
  2.0140593e-01
 -1.5299690e-01
  1.6439082e-05
 -4.0529812e-06
 -2.6633170e-06
 -4.3357422e-06
  2.4587986e-05
  6.9178981e-01
 -4.7284579e-01
  7.0396376e-01
  8.5951930e-01
  2.1167289e-05
  1.0669431e-05
  1.3001273e-05
 -2.9690541e-06
 -6.8576315e-05
  1.0820170e-01
  1.2846944e-01
 -5.5418295e-01
  3.5597542e-01
 -4.6230275e-06
 -8.5033416e-06
 -1.0300342e+00
 -3.8255405e-01
 -3.5653420e-07
  6.5084857e-01
  5.8939550e-02
 -4.3240395e-01
 -5.8179939e-01
 -3.1656535e-05
 -1.8124678e-05
 -2.2988231e-04
  6.2695006e-05
 -3.5737133e-07
  1.2834154e+00
 -1.0831443e-05
  2.0944863e-06
 -2.3700979e-05
 -1.9335528e-05
 -6.4532342e-06
 -5.1741339e-02
 -2.5314221e-01
 -1.4066162e-06
 -7.0412767e-01
  1.1136313e-01
 -1.8866707e+00
 -5.3017074e-01
 -1.2664360e-05
 -2.3959456e-05
 -8.1388134e-01
 -1.5209107e-06
 -1.7638173e-05
  2.5797498e-01
 -5.2528214e-01
  4.0174133e-01
 -5.1493031e-01
 -6.2694830e-06
  3.2631731e-05
  8.4424231e-05
 -2.1024011e-03
  1.5462063e-05
 -9.3566197e-01
  4.2605558e-01
 -4.6976826e-01
 -1.2722647e+00
  3.7347174e-06
 -4.5751890e-06
 -8.4642887e-01
 -1.2335273e-02
  4.9226946e-06
  3.0853069e-01
  6.4082399e-02
  4.4652370e-01
 -1.1087341e+00
 -5.4182756e-06
  9.7324828e-06
  3.3661760e-05
  3.1398044e-06
  2.2086751e-06
  1.1149981e+00
  3.2948327e-01
 -4.5094448e-01
 -1.1363052e+00
 -8.4542871e-06
 -2.1354707e-04
 -6.0512000e-01
 -3.1939241e-01
  5.7343996e-06
  3.5503548e-01
  5.7016712e-01
 -1.3171979e+00
 -1.3145089e+00
 -2.8772974e-06
 -1.7944374e-05
  2.3630705e-01
  6.1125374e-06
  6.2090417e-05
 -2.9968786e-01
  1.8584074e-01
  6.2151080e-01
 -5.8488381e-01
  4.8735019e-02
  7.9082173e-01
 -1.0596037e+00
 -4.3591639e-01
 -1.4963640e-06
  6.5078288e-01
  8.2277322e-01
  1.0053822e+00
 -6.2894928e-01
  2.7099779e-06
 -3.4469936e-06
 -1.1740665e-05
  3.2863038e-05
  4.1894314e-06
 -1.1754667e-01
  1.0237812e-04
  6.9098663e-01
  3.8808797e-05
  4.1212529e-02
  6.3862783e-01
 -6.4408016e-01
 -3.0830011e-01
  2.9678113e-06
 -1.1113887e+00
  4.2752728e-01
 -8.1353796e-01
 -6.1618555e-01
 -3.7396446e-06
 -1.2584302e-05
 -6.4378554e-01
 -2.8125834e-05
  1.0239506e-05
  7.5157952e-01
 -8.8809215e-02
  8.2206041e-01
  5.2163696e-01
  1.6263217e-02
  3.9099392e-01
  7.7079874e-01
 -2.9545639e-02
 -3.6100690e-05
 -1.8587697e-01
  8.4406918e-01
  2.5451270e-01
  1.2181145e-02
 -1.2983170e-06
 -2.9945858e-07
  1.6603810e-01
 -4.0972080e-02
  4.6587258e-04
 -1.6629697e+00
 -5.0030085e-03
  2.1603231e+00
 -3.7441513e-01
  4.1713571e-05
  1.3326210e-01
 -1.3670684e-01
 -8.0112724e-05
 -2.2864126e-06
 -1.7986125e+00
  4.9119776e-01
  1.4641435e+00
 -2.5230598e-01
 -2.1790880e-05
  2.9009753e-01
 -7.9883075e-01
 -1.4959697e-01
 -2.2817042e-06
 -6.9831061e-01
  3.0326411e-01
 -7.8718230e-02
  1.2962177e-01
  8.5183882e-07
  4.1428639e-06
 -3.5852629e-01
 -6.1825250e-04
 -1.2636352e-06
 -4.4100565e-01
  4.5587105e-01
 -4.7580004e-01
 -1.5466620e-01
  1.4424292e-06
 -1.3813832e-01
 -7.6768208e-01
  1.2041832e+00
 -4.4741806e-05
 -1.3605382e+00
  1.0280336e+00
  7.9280478e-01
 -6.0311943e-01
 -8.7776179e-06
  7.9441843e-06
 -4.3691831e-05
 -8.6787732e-06
 -1.9785541e-06
 -4.0139356e-01
  7.5027752e-01
 -1.9612622e+00
  1.6360834e-06
 -3.2691230e-05
 -3.1008372e-02
 -1.5032911e+00
  6.9869000e-01
 -1.1357945e-05
 -2.2204264e-01
 -3.1240050e-02
  5.0943017e-01
  1.0862799e+00
  1.3193261e-05
 -1.6463355e-05
 -2.6978365e-01
  4.9582452e-01
  7.8288025e-07
 -1.1373496e+00
  9.3502855e-01
 -2.6497713e-01
 -6.0366702e-01
 -3.9238370e-05
 -2.0961884e-06
 -2.9365891e-01
 -5.2810981e-05
  1.5415472e-06
 -1.1669942e+00
 -7.1538979e-01
 -2.7931321e-01
  3.7825581e-01
  2.4838826e-05
 -7.1450480e-04
 -5.4802960e-01
  1.2736971e+00
  1.6688638e-05
  5.3205115e-01
  1.8427500e-01
  5.5218405e-01
 -5.7552103e-02
 -2.0843539e-05
  3.3407732e-06
 -9.2242435e-02
 -1.4911310e-05
  1.6133952e-05
  1.5352459e-01
  2.2420223e+00
 -1.8586448e+00
  4.8450065e-01
  3.3506927e-07
 -5.0919041e-02
 -5.9379798e-01
  8.5106200e-01
 -1.9011837e-06
 -4.1859025e-01
 -1.8567614e-03
  1.9622871e-01
 -4.1996074e-01
 -1.5102756e-06
 -6.9815214e-05
 -5.2065396e-01
  3.8656178e-01
 -2.1439912e-05
  5.8619106e-01
  4.0292320e-01
 -6.5033454e-01
 -7.7936941e-01
  1.2413758e-02
  1.2413758e-02
  1.2413758e-02
  1.2413758e-02
  1.2413758e-02
  6.7241365e-01
  6.7241365e-01
  6.7241365e-01
  6.7241365e-01
  6.7241365e-01
  1.4738771e-01
  1.4738771e-01
  1.4738771e-01
  1.4738771e-01
  1.4738771e-01
  1.0924964e-01
  1.0924964e-01
  1.0924964e-01
  1.0924964e-01
  1.0924964e-01
  1.6452778e-02
  1.6452778e-02
  1.6452778e-02
  1.6452778e-02
  1.6452778e-02
  1.8038879e-01
  1.8038879e-01
  1.8038879e-01
  1.8038879e-01
  1.8038879e-01
