nep4 3 Ba Zr S 
cutoff 8 4 150 20
n_max 4 4
basis_size 8 8
l_max 4 2 0
ANN 30 0
 -1.1894609e-01
 -2.5311435e-06
  1.9877244e-04
 -2.0331130e-05
  1.4134578e-04
  1.4883284e-04
  4.1217550e-05
 -6.7676134e-05
  1.6029416e-04
  2.4837448e-06
  4.4052460e-05
 -2.4810046e-04
  2.4928389e-05
  1.3968120e-04
  1.2354854e-04
  2.1809532e-04
 -4.1557633e-04
 -7.2243565e-05
 -2.2419263e-04
 -2.5686256e-06
 -2.6777723e-01
  1.3209926e-04
 -3.2468812e-04
 -3.7208534e-05
  4.9769256e-05
  4.2973687e-05
  2.3875452e-04
  3.8158461e-05
 -1.0671913e-04
  2.2033285e-04
  5.5554616e-01
  1.9582946e-04
 -3.8918284e-01
 -2.3201703e-01
 -1.8343771e-01
  3.9003767e-02
 -4.3932250e-05
 -7.2712210e-05
 -2.4040903e-04
 -4.9097809e-01
 -9.1919559e-05
 -1.8661724e-04
 -1.6950467e-05
 -2.6864831e-05
  6.3739747e-02
 -3.5988464e-04
  4.4610530e-05
 -1.1030908e-04
  6.5545624e-05
  5.5048873e-05
 -2.9938992e-05
 -3.0863920e-04
  4.7320151e-05
  1.2172222e-04
  1.1017891e-01
  1.3003797e-04
 -1.0488875e-04
  1.7062585e-04
  3.7120280e-05
 -7.3910848e-04
 -1.1704438e-04
 -4.1141855e-05
  1.7331930e-06
  6.7263718e-05
  9.7204815e-05
 -3.2599346e-05
 -1.0197191e-04
 -1.2042085e-05
  4.8880094e-05
  5.1260768e-06
  1.3232332e-04
 -4.6924288e-05
 -1.2568345e-04
  6.9946560e-05
  4.5731189e-04
 -1.5227390e-04
 -1.0143640e-04
  2.0213588e-04
 -1.7784985e-05
  7.9969963e-05
 -8.6220803e-05
 -2.1445981e-06
  1.6630172e-05
  1.1124260e-04
 -2.4277104e-05
 -5.4918120e-05
 -2.8835941e-05
 -2.6476931e-05
  1.3115631e-04
 -8.1586470e-05
  1.4363827e+00
  1.1737422e+00
 -1.3444161e+00
 -1.4742170e-04
 -3.5931429e-01
  2.9065966e-04
 -1.3302057e-04
 -5.6589241e-05
 -2.9184851e-01
 -6.9695270e-01
  2.0358402e-06
 -1.2986733e-05
 -7.8420133e-05
 -6.9910893e-05
  2.5094950e-01
 -9.7309887e-05
 -1.2825290e-04
 -2.4696961e-05
  7.8711092e-02
  6.1592795e-02
  1.1328908e-04
 -1.3436348e-04
  1.3617157e-04
  3.3618715e-02
  3.7685439e-01
  2.1650680e-04
  2.6195363e-05
 -5.4038834e-04
 -8.7076609e-05
  1.3854243e-04
 -9.3560004e-05
  2.0611909e-05
  8.2875995e-05
  6.2011450e-04
  2.8373528e-04
  6.7005308e-06
  4.5778484e-05
 -5.6543271e-05
 -3.0497840e-05
 -2.2255891e-04
  3.7276500e-04
 -6.1142549e-04
 -1.1095835e-05
  2.2394397e-05
  4.1692780e-04
  3.9389770e-06
 -1.7638662e-04
  2.0574578e-06
  1.7955863e-05
 -1.0947433e-04
 -5.0013234e-05
  1.1959236e-04
  1.1582474e-06
 -2.8539707e-05
  1.1190994e-05
  2.4394165e-03
  1.2989229e-04
 -4.6913054e-05
 -1.7337683e-05
  9.0236681e-05
  3.7147001e-05
  2.2037626e-04
  4.1210582e-04
 -2.6103668e-05
  8.6836336e-04
 -1.3257568e-05
 -1.6548363e-05
  5.1393396e-05
 -1.9220972e-05
 -1.3380599e-05
 -6.5124099e-04
 -1.1731350e-04
  1.7596585e-04
 -6.8903821e-05
  2.4811150e-05
 -9.9738376e-05
  6.9779933e-05
  1.1275623e-04
 -6.2335929e-04
 -1.9602934e-04
 -4.3820404e-05
 -4.6745877e-06
  7.0255184e-05
  7.6267715e-05
 -1.9746914e-04
 -1.8119443e-05
  5.3620595e-05
  1.1812107e-05
 -1.9861232e-04
  1.5301392e-05
 -7.9806679e-01
 -6.7820735e-02
  5.1091617e-01
  2.4074863e-04
  3.4422294e-04
 -1.3728045e-03
 -4.9127208e-05
  1.1582455e-04
  1.9235020e-03
  9.8014623e-03
  6.4272717e-05
 -5.7245325e-05
 -5.4330612e-05
  7.7379285e-05
 -3.2273632e-02
 -4.1028008e-05
 -2.0773739e-05
  2.5163565e-05
 -1.8014373e-04
 -1.6475798e-03
 -1.2260389e-04
 -5.4307704e-05
 -1.4787736e-04
 -3.2618540e-04
 -2.8365173e-03
 -2.5838561e-05
  2.0542722e-04
 -4.5629000e-05
  3.3184222e-04
  2.0788409e-04
 -1.8542728e-01
  1.5797330e-05
  3.1265658e-01
  1.4644266e-02
  1.3527914e-03
 -2.9100302e-01
  1.0422447e-04
  1.8116793e-06
  9.9454359e-05
  2.4419865e-02
  5.5817536e-06
 -1.1079894e-04
  9.1783229e-05
  1.3462704e-04
 -1.4846939e-04
  1.2788899e-03
  7.8095490e-04
 -5.3806878e-05
 -8.2362982e-05
 -1.1407597e-04
 -2.3956149e-04
 -2.5037067e-05
  5.6742378e-05
 -7.7231228e-04
 -1.1453675e-02
  1.9012523e-05
 -9.9511271e-05
 -2.8666442e-05
  3.7226418e-05
  6.2751678e-05
  3.1386174e-02
 -3.9547300e-05
 -1.8063876e-01
 -5.7347389e-03
 -4.7328807e-02
 -7.1988077e-05
 -1.0790394e-04
  4.9877028e-05
  7.3402174e-05
  3.2189303e-07
  6.0909020e-05
 -2.1193243e-04
 -3.5163823e-05
 -1.3051169e-04
  4.5858533e-04
 -4.6878816e-03
  1.0181025e-04
 -5.4042735e-05
 -2.3043169e-04
  1.7563053e-04
 -8.0946098e-05
  2.3860461e-05
  7.7608871e-05
  2.9490684e-04
  1.9390609e-02
 -3.3426371e-05
 -4.0945495e-05
 -3.5297788e-05
 -3.0012635e-04
 -8.8807683e-05
  8.4703555e-05
 -1.7389515e-04
 -1.7757249e-01
 -4.0344340e-03
 -6.4810400e-04
  1.5131735e-04
 -1.5283347e-04
 -1.4350613e-04
  2.9701125e-05
  2.2026352e-04
  2.0962818e-05
  2.3707394e-04
 -6.3107973e-06
 -3.4185890e-05
 -2.2489736e-05
  1.0369853e-04
 -1.0129029e-04
 -2.2180528e-04
  6.1371567e-05
  5.9143902e-04
 -6.9247333e-05
 -1.4371594e-04
  1.1457652e-05
  1.7215149e-04
  2.9350359e-02
  7.5066113e-04
 -4.6298774e-05
 -9.7419434e-05
  3.2053966e-05
 -8.7200220e-05
 -8.0610305e-01
 -7.8657735e-04
  4.4185933e-01
  5.3601491e-01
  5.6248534e-01
 -2.3010005e-01
 -1.0672931e-04
  1.1864981e-05
  2.9577917e-01
 -1.8215628e+00
 -7.8663608e-05
 -9.4902294e-05
  2.6538903e-05
 -1.5623517e-04
 -7.0984475e-05
  1.4029532e-02
  9.3340925e-05
  2.2668375e-05
 -2.9663355e-04
 -3.0341655e-02
 -7.8029819e-03
 -6.4681466e-05
 -1.5571275e-04
 -5.4121017e-03
 -3.2086021e-01
 -8.1960010e-05
  7.3628689e-05
  1.1861362e-04
  1.6489055e-04
  1.6929379e-04
  6.2445743e-06
 -3.9514507e-05
  1.2805198e-03
  1.0308866e-04
  1.0440874e-04
 -9.1352087e-04
  5.4314994e-04
 -5.1744922e-07
  1.9247818e-04
  1.2344444e-04
 -8.3413077e-05
  1.4366624e-05
  3.0279862e-05
  3.2348700e-05
 -2.9610045e-04
  4.4617198e-07
 -2.5269639e-04
  1.5260701e-04
  9.8839417e-05
 -1.9192872e-04
 -2.9578537e-04
 -3.7080018e-04
 -1.1018747e-04
 -8.0637787e-05
 -9.5401832e-05
 -1.0534042e-06
 -1.5488202e-05
 -1.1682950e-04
 -5.1354989e-05
  1.1631446e-04
 -1.7856752e-05
 -2.0613630e-05
  1.5310913e-01
  4.9533695e-02
  1.6423078e-02
 -1.0472672e-01
  1.5293741e-04
 -3.5031899e-05
  7.5893878e-04
 -4.3087071e-05
  7.3063511e-06
 -1.6919395e-04
 -7.2491325e-06
 -9.9165656e-05
 -2.1818440e-04
  6.5165671e-04
 -2.1520606e-04
 -1.0615620e-04
 -1.1005416e-04
 -9.3825802e-05
 -5.7794427e-04
 -3.1002659e-05
  3.2058966e-04
 -1.0077219e-04
 -6.0277106e-04
 -3.1887501e-04
  3.4141616e-05
 -6.1823544e-06
  4.0581730e-05
  6.8166162e-05
  1.3379221e-04
  4.4532906e-05
  8.6263193e-05
 -8.9237496e-05
  3.9820810e-05
  1.3724699e-04
  3.8577276e-05
  2.6268795e-05
  2.5929352e-05
  7.6141721e-04
 -4.0563347e-05
  1.4282085e-05
  8.4733329e-05
  3.3653563e-05
 -1.0753666e-04
 -2.8104970e-04
  4.7034802e-05
  8.9488341e-05
 -1.1948985e-04
 -2.1528927e-05
  5.2590131e-05
 -2.4662004e-04
  2.0573149e-05
 -1.5644073e-04
  8.0251004e-05
  4.9238050e-05
  2.4934459e-04
 -2.2999146e-04
 -5.5559907e-05
 -3.7705131e-06
  7.4587119e-01
  7.0834287e-02
 -9.6686006e-01
 -1.0182363e+00
 -1.2770565e+00
 -1.1340693e-01
  3.3612430e-06
  6.4579865e-05
 -9.1997391e-01
 -9.9317086e-01
 -4.3628312e-05
 -3.9371014e-05
  2.3007662e-05
 -4.5260913e-06
  1.2089147e-01
 -3.1197789e-01
  1.4917007e-06
  1.2148064e-04
  1.3197727e-02
  7.4583016e-02
  1.3273333e-01
  4.1295643e-05
 -4.3595818e-04
  9.3821146e-02
  4.5903054e-01
 -3.1234275e-05
 -4.8463269e-05
 -1.2092016e-05
  4.1742169e-05
 -1.0620432e-03
  5.4384585e-05
 -4.7648020e-05
 -4.8523125e-05
 -1.5287887e-06
 -2.4319244e-04
  1.3370639e-05
  5.6520776e-06
 -2.7668799e-04
  7.2515024e-05
  8.7281136e-05
  3.7009176e-04
  2.7580437e-04
  5.3087515e-05
  1.8776918e-04
  9.4773723e-06
 -5.1797659e-05
  1.4211290e-04
 -8.9053749e-05
 -3.9745893e-05
  1.9588051e-05
  3.1697833e-05
  1.8893524e-04
  2.4393206e-05
  2.4777235e-05
  1.1900202e-05
 -4.9742757e-06
 -1.8848684e-04
  1.2503412e-04
  3.2395561e-05
 -2.2109199e-04
 -7.4398363e-01
 -3.1312031e-04
 -2.5894991e-05
  5.8546837e-05
 -4.4871140e-05
 -2.7550518e-04
  2.3258239e-05
  4.8605027e-05
  5.9267350e-05
  7.0410315e-05
  1.7303055e-04
 -2.8396389e-05
 -5.8706679e-05
 -1.2832352e-05
 -3.6951093e-05
  6.0969785e-05
  2.5826334e-05
 -4.0757554e-06
 -1.2544794e-04
 -5.4645533e-04
 -1.0591431e-04
 -1.5655278e-05
  2.0874960e-04
  1.3501149e-04
 -1.9806880e-04
  2.5788017e-06
  2.7233001e-04
  8.4553511e-05
  2.5427298e-05
 -1.2716492e-04
  7.4905052e-05
  2.0641608e-04
 -8.2460887e-05
 -8.3822422e-05
 -7.1524206e-05
 -1.3539917e-05
 -2.3163622e-05
 -4.9144774e-06
  1.4182557e-04
  1.6857850e-05
  1.9215118e-05
  2.4921035e-05
 -3.4626021e-06
  8.0552178e-05
  2.7693011e-04
  4.5256445e-05
  1.3608110e-04
  1.4447844e-04
  9.9448211e-05
 -8.8142988e-05
  2.8768997e-04
 -5.6347162e-05
  1.3299189e-04
 -1.1467874e-04
 -1.7933589e-05
 -2.0622680e-05
 -1.3192557e-05
  7.2235023e-05
  6.8187510e-05
  1.3263299e-04
  1.3072299e+00
 -3.1116953e+00
  1.6285759e+00
  7.8646058e-01
 -4.0198917e+00
  1.7809391e-01
 -3.2764685e-05
  4.4090376e-04
 -6.0475510e-02
  1.8290856e-01
 -3.0897974e-04
  6.4773376e-05
  5.1143237e-05
 -1.6839552e-01
  3.4641267e-05
 -6.7624635e-01
 -6.4300461e-05
 -1.3193113e-04
 -5.3855572e-05
 -4.0653031e-02
  1.6200094e-04
 -3.4376717e-05
  7.9224679e-05
  1.7031547e-04
  5.5724312e-02
  4.1736217e-05
  4.3937547e-05
 -6.7650311e-05
 -4.9560644e-05
 -1.5815848e-04
 -1.7308311e+00
 -7.7856040e-01
  4.0965459e-01
  9.1620296e-01
  6.9625741e-01
 -1.2058570e-01
  3.2342428e-05
  6.5560416e-05
  4.2245948e-01
  1.0927302e-01
 -1.8895456e-05
 -4.7362523e-04
 -2.9832801e-05
 -1.1480456e-04
 -8.0422096e-02
  5.6562543e-01
 -1.2648303e-05
 -8.5207794e-05
 -5.7552093e-01
 -5.9965879e-01
 -3.5533029e-01
 -2.8071443e-07
  1.2341833e-04
 -3.4148705e-01
 -1.0602107e+00
 -1.8756314e-04
 -4.8286896e-05
 -1.8249490e-04
  6.2590832e-04
  8.8266969e-02
  3.9772363e-05
 -6.9813541e-06
 -1.0749784e-05
 -3.0300644e-05
  1.7196366e-05
  1.4033575e-05
 -1.4600094e-04
 -1.0119048e-04
 -2.1403869e-04
  5.9394803e-05
  1.5474990e-04
  4.6182347e-05
 -2.5538318e-06
  1.6205226e-05
 -7.4393024e-06
  1.3917533e-04
  1.6181436e-04
  3.9752049e-04
  1.0816454e-04
  5.4863817e-04
 -1.1831320e-04
 -7.7200915e-05
  6.0468633e-04
 -3.8734212e-05
  1.8863213e-05
 -1.3450361e-04
 -6.9698530e-05
 -3.3606100e-06
  5.8828391e-05
  8.8734741e-06
 -5.0463819e-05
 -2.5702406e-05
 -2.0775462e-04
 -5.9678885e-05
 -2.5201822e-04
 -7.7913515e-05
 -1.7750677e-05
 -8.0059443e-05
  1.4170869e-04
  1.1822692e-05
 -1.9258044e-04
  1.8684634e-06
  9.5840405e-05
 -4.1962098e-06
  9.1498870e-05
 -1.1044284e-04
  6.0203070e-05
  5.1231233e-05
 -6.5439090e-05
 -9.3192888e-05
 -3.8911380e-06
 -7.1133577e-06
  4.4985572e-06
  9.8845696e-05
  5.0631694e-05
  7.0776368e-05
  1.6979205e-04
  6.2341336e-05
  2.2099355e-05
  1.7023846e-04
 -4.9637219e-05
 -2.6690092e-05
 -4.6822235e-05
  3.1951400e-05
 -2.0219492e-04
  1.4022195e-04
 -2.1022553e-05
 -2.8117650e-04
 -1.3798439e-04
  2.2077096e-04
 -7.8366756e-05
  1.0638092e-04
  1.3602740e-04
 -5.7229307e-05
  4.0441391e-05
  8.2516446e-05
 -1.8867688e-05
 -1.3185140e-05
 -1.4214158e-05
  1.2736616e-05
 -1.4948488e-05
 -4.2795407e-05
  1.6654776e-05
  2.6948044e-05
 -5.7776495e-05
 -1.7384607e-05
 -8.3357294e-04
  6.9443928e-04
  8.0251323e-07
 -9.1105385e-06
 -4.5921137e-05
 -2.5047233e-05
  3.1137338e-04
  9.1005088e-05
 -3.5058110e-05
 -2.8614595e-04
 -5.5751199e-05
 -8.4184314e-05
 -3.0404239e-05
 -7.2170228e-06
  1.0333634e-03
  1.4715687e-04
  7.3898067e-05
 -1.0290500e-05
 -1.8670369e-04
 -3.0885367e-05
  5.9763843e-05
 -1.0859979e-05
 -1.1138148e-04
  1.1696624e-04
 -2.1047873e-04
  3.1836124e-05
 -5.3101710e-05
 -6.0014183e-05
  7.7210698e-06
  2.5792508e-05
 -6.0229704e-06
  5.9467842e-05
  4.5910834e-05
  3.4212586e-04
 -1.3451220e-04
 -1.5736261e-04
  2.7689748e-05
 -4.5002849e-05
 -3.9473973e-05
 -1.1027803e-04
  3.5807898e-06
 -4.5118166e-05
 -1.6571315e-04
 -3.5151188e-05
  7.8858924e-05
 -1.1271288e-05
  1.3136618e-04
  1.0666920e-04
  1.5917307e-04
 -1.8178600e-04
 -9.7329314e-05
  5.6513974e-05
 -1.6916018e-04
 -1.5709404e-05
 -1.9464761e-04
  1.7678275e-04
  5.9307738e-05
  1.1234552e-04
  5.5645993e-05
 -2.9915211e-05
 -7.3096358e-05
 -2.2305550e-05
  7.5386175e-05
  4.8401740e-05
 -1.1764083e-04
 -7.4538657e-05
 -1.2627972e-06
  2.4890451e-05
 -2.7861038e-06
 -3.6659036e-05
  1.2251776e-05
  9.0494605e-06
 -6.5240987e-05
 -4.4490313e-05
 -4.9655027e-05
  9.0644658e-05
 -1.5268469e-04
 -9.8701166e-05
  4.2981806e-06
 -2.3334911e-05
 -5.4956963e-05
  2.4421792e-04
  8.5171334e-05
 -2.8315162e-07
  3.2777556e-05
 -2.0535146e-05
 -1.7907836e-04
 -5.0344726e-05
 -5.0487753e-05
 -1.7613932e-04
  1.3104321e-04
 -3.1967382e-05
 -2.8353246e-04
 -1.1319984e-04
 -2.4757008e-01
 -6.4301545e-05
 -2.4075127e-01
 -9.6035093e-01
 -2.5463086e-01
 -1.6438743e-02
 -3.1896758e-05
 -7.1503906e-05
 -9.3798555e-02
  1.8691128e+00
 -5.3824333e-05
 -1.7363760e-04
  1.0306441e-05
 -5.4677370e-05
  6.0192174e-03
 -8.6164284e-05
  5.3292410e-05
 -1.0040660e-04
  3.7618144e-03
  2.1942200e-03
  4.0271998e-04
  1.7090395e-05
  4.1538806e-06
 -2.1603075e-06
  2.1784288e-01
 -3.5862278e-05
 -1.0189311e-04
 -1.8284970e-04
 -4.3285149e-04
 -2.4982553e-04
  8.4955974e-07
 -3.3694847e-05
 -7.0515664e-05
 -4.7358767e-06
  1.6640239e-04
  4.8825208e-05
 -3.8335580e-05
 -8.5409956e-05
  4.6790814e-05
 -3.9233801e-06
 -4.5881588e-05
  2.6798426e-04
 -2.7118472e-06
 -1.1266033e-04
  1.9597639e-05
 -1.3029312e-04
  5.2192594e-05
 -8.8804882e-05
 -1.8596995e-05
  3.6324669e-05
  1.4172297e-04
 -4.8283106e-05
 -3.1101619e-05
 -3.7274992e-07
 -1.2347120e-04
 -3.4496636e-06
 -2.2711980e-05
  1.2136439e-05
  1.8830695e-04
 -1.3232094e-04
 -5.7471043e-05
 -3.5579196e-05
 -1.5676471e-05
 -3.3190576e-04
  1.5847329e-05
 -3.8469043e-05
 -1.4148455e-04
  9.3696763e-05
  8.0461628e-05
  5.4909528e-06
  2.2415229e-04
  3.2623699e-05
 -5.9086547e-06
  2.9347662e-05
 -2.0538326e-04
 -1.2781259e-05
 -1.7301389e-05
  9.5550313e-05
  6.1584187e-06
 -1.7272341e-05
  1.3198984e-04
  1.1505839e-04
  1.6229074e-04
 -1.6000977e-05
  7.8357793e-05
 -9.2992763e-05
 -1.3318357e-05
 -3.2530246e-05
 -4.9342543e-05
  1.1005837e-04
  4.7336867e-05
  8.6767082e-05
 -1.2230542e-01
 -7.2479999e-04
 -2.8197337e-05
 -1.7799866e-05
 -4.2890122e-05
  6.7368004e-05
 -1.6853710e-04
  7.1433383e-06
 -5.0564668e-06
 -1.3806063e-04
  7.5625976e-05
  8.0871411e-07
 -3.1229658e-05
  1.5843565e-04
 -2.1958578e-05
  1.0100458e-05
 -2.8001127e-04
  3.0206371e-04
  1.0952246e-03
 -3.7230962e-05
  2.3198505e-05
  1.4785875e-04
  3.0805863e-04
  1.2128453e-04
 -9.1243375e-05
  3.2066702e-05
 -2.3508357e-04
  2.5691427e-04
  1.1567286e-04
 -2.5101802e-01
 -2.4623485e-04
 -2.2767618e-02
 -5.1876187e-01
 -6.6451508e-01
 -3.1566471e-02
 -2.3649536e-01
 -7.8168219e-01
  1.2175890e+00
  2.2275932e-01
 -3.2316354e-01
 -3.2736716e-01
  2.9318218e-05
 -3.1857136e-01
 -1.2546031e-04
 -2.8404337e-01
  3.2090726e-01
  6.6966802e-01
  3.3970502e-01
  2.6505810e-04
  9.1891134e-01
 -2.7454415e-05
 -7.6910198e-01
 -5.3185700e-05
  9.3678886e-05
  6.7437094e-01
 -5.1434699e-04
  1.7357441e-05
  3.2311720e-01
 -7.1496048e-05
  9.9033505e-01
 -6.2227622e-04
  1.7309184e+00
 -5.6402808e-01
 -7.7401596e-01
 -7.7004933e-01
 -8.4631890e-01
  1.3954753e+00
  2.5770507e+00
 -1.2812963e+00
 -4.6566647e-01
 -7.6723677e-01
 -2.1222990e-04
  2.2803900e+00
 -5.5895402e-05
 -5.3210628e-01
  8.1910871e-02
  3.0382345e+00
 -2.4836731e+00
  1.1645718e-04
  4.8994666e-01
 -2.6355544e-04
 -6.9924170e-01
 -1.3573092e-04
  2.5737559e-04
  1.4579338e+00
 -1.3870627e-01
 -1.6526552e-04
  6.0407048e-01
 -1.1766414e-01
  1.6270715e-03
 -1.0066891e+00
  3.4233097e-05
 -1.3127965e-01
 -4.3630073e-04
  2.6880045e-05
  2.2435598e-03
 -1.6260090e-05
 -1.4763711e-04
  1.1248634e-04
  7.1411103e-04
 -4.6265279e-05
  2.6984117e-05
  3.5775063e-04
 -4.1588137e-05
 -3.1685661e-06
  1.3438167e-01
  3.6601774e-02
 -4.9448594e-05
 -1.0356076e-04
  9.5706040e-05
  2.7112552e-04
  2.7407065e-04
 -5.9738897e-05
 -1.6472793e-04
  1.8980053e-04
  4.9235776e-05
 -7.5078315e-05
  1.1604864e-04
 -8.0280054e-01
  2.3573027e+00
  1.8686833e+00
 -5.6010184e+00
  1.9182671e+00
  1.4369377e+00
 -1.2618476e-01
 -4.1247624e-01
  1.3322454e-04
 -1.5019773e-01
  1.3155647e-03
 -5.6716943e-01
  1.1535046e-01
  4.8888773e-01
  3.7134119e-05
 -1.1123362e-02
 -3.3634726e-04
 -9.6761054e-01
  8.2768613e-01
 -1.2084612e-02
  8.4660951e-06
  5.6246817e-02
  2.5306526e-04
  8.5845357e-03
 -3.2128457e-05
 -7.2462462e-05
 -4.0773596e-04
 -1.3837355e-01
  3.1273910e-01
  5.1305797e-05
  1.4662920e-05
  1.5500584e-05
  5.3563541e-05
 -1.0002265e-04
 -2.8382367e-06
 -2.6191710e-04
 -4.2775459e-06
  9.5201096e-05
 -1.0514321e-04
 -2.1252710e-04
  7.0072158e-05
  3.4664707e-05
 -6.4387081e-05
  1.4974500e-04
  1.4006840e-04
  3.0464501e-04
 -6.0720889e-05
  4.6289939e-04
 -3.9809165e-05
  8.6849846e-05
  6.8751306e-06
 -2.1000640e-04
 -1.2088600e-04
  1.5308487e-05
  5.2632007e-05
 -8.6373992e-05
 -1.1384031e-04
  8.9933746e-07
 -2.4297249e-06
  3.7362272e-05
 -2.0964243e-01
  2.2158453e-04
 -3.6212504e-01
  7.3936440e-05
 -4.8027685e-01
 -3.3767938e-05
 -2.1131777e-06
 -1.6740235e-04
  4.0737490e-05
  1.3328964e-04
  4.9225207e-05
  3.6888458e-05
 -1.1055776e-04
 -2.4501716e-05
  2.5277087e-04
 -2.6766371e-05
  1.9015318e-04
  1.8146628e-04
  5.7222780e-05
 -2.6228231e-06
  8.7986358e-05
  5.7106226e-05
  6.7420336e-07
  1.5257375e-04
  1.4336040e-04
 -2.5339157e-04
 -6.2002291e-05
  1.2509912e-06
  5.8971498e-05
  1.2590738e-04
  7.6414078e-01
 -1.3088789e+00
  1.0640985e+00
 -2.8187988e-02
 -5.3279538e-02
  2.7552515e-02
 -1.8838413e-01
 -2.4975142e-01
 -3.0122741e-05
 -2.8438689e-03
 -4.8403723e-05
 -3.4248900e-01
 -4.7289377e-01
 -1.9788878e-05
 -9.2441805e-05
 -7.9266243e-02
 -6.7062443e-05
 -1.4114675e-01
  7.7864778e-01
 -1.4748233e-03
 -2.9428714e-04
  5.8607407e-02
 -9.7383630e-01
  2.2220199e-03
  9.1068221e-05
 -1.9517995e-04
 -1.4441987e-05
 -1.9548433e-04
  9.5360112e-05
  3.1676598e-05
 -2.7399626e-01
  1.1271975e+00
 -6.6728067e-01
 -1.6592655e-01
 -1.1978024e+00
 -1.5920097e-02
  2.2460352e-01
 -6.8354510e-02
 -2.7482191e-02
  2.0263751e-01
  4.8148474e-01
  4.8813131e-01
  8.2323122e-01
 -3.6949730e-01
  4.5996299e-01
  3.7695816e-01
  8.0289966e-01
  2.0561412e-01
  1.7261012e-01
  1.3983162e-01
  4.1478136e-04
  1.6805776e-03
  2.1697369e+00
  4.4329995e-06
  6.3116750e-05
 -3.0664003e-05
  3.7996046e-04
  5.9699686e-04
 -1.6525574e-03
 -9.0334097e-06
  5.6894761e-01
  9.8921937e-01
  3.4505650e-01
 -2.6738235e-01
 -1.5315321e-02
  1.8907888e-02
 -2.1719825e-04
 -3.4848459e-02
  3.5519723e-05
 -5.3344422e-04
 -6.8253168e-05
 -8.2778940e-03
 -1.3381687e-04
 -2.1155099e-04
  4.3253778e-05
 -8.1429527e-05
 -8.8603878e-03
  1.1019326e-04
 -9.3117345e-04
 -6.1154942e-04
  2.4442967e-05
  6.1072689e-02
 -9.5144118e-05
  3.1682136e-04
  7.6571232e-05
  1.4395527e-04
 -2.1243381e-05
 -2.6243509e-04
  1.7479782e-03
 -1.3381979e-04
  1.1058321e+00
  1.0477718e+00
  1.7553991e+00
 -4.9273742e-05
  5.4117090e-01
  2.2140887e-01
  7.5718318e-04
  1.1074688e-01
 -6.6317974e-05
 -1.9367410e-05
 -2.4236420e-05
 -2.8992253e-03
 -2.2147049e-04
 -4.2047482e-02
 -3.0531275e-05
 -1.0297065e-04
  1.8617100e-04
 -2.0151554e-05
  1.9683041e-04
  1.5107621e-07
 -2.0461083e-04
  1.7259248e-01
 -1.2195396e-04
  1.6789181e-02
  1.9108438e-05
 -4.4279208e-05
  2.2291821e-04
  5.0716495e-05
  1.9480848e-04
  1.5021759e-04
 -1.6972853e-04
  5.1479616e-05
  1.4391685e-05
  6.8947420e-06
  3.8912003e-06
 -2.1032841e-04
 -4.1469397e-05
  1.6193670e-04
 -6.2811348e-05
 -5.9412291e-06
 -5.5888449e-05
  1.3049868e-04
 -8.7519447e-06
  2.0655294e-05
 -2.5852903e-04
  6.3294876e-01
  4.8845839e-05
  4.9396782e-05
  1.8955192e-04
 -1.4496296e-05
 -2.3529427e-04
  3.3299077e-06
 -4.2128035e-05
 -3.3923130e-05
  2.6624034e-06
  3.1101943e-05
  2.3991577e-04
 -6.6021392e-05
 -4.2565803e-06
 -4.3963064e-06
 -1.8414076e-04
 -1.0683302e-04
 -6.4741704e-07
  1.3755365e-04
  5.0010614e-04
  2.8001511e-04
 -3.3335012e-01
  4.8854341e-05
 -4.3245242e-04
  7.6859600e-05
  2.3920915e-05
  3.5093792e-05
  1.8591247e-04
 -1.3688777e-04
 -4.7461326e-05
  3.3855835e-05
 -7.3827738e-05
 -1.7856514e-06
  4.0150357e-05
  8.8978632e-05
  1.7645452e-05
  6.3777174e-05
  6.4073915e-06
 -1.1345303e-04
  7.4952644e-05
  5.7607933e-05
 -1.3092413e-04
  6.3737651e-05
  1.3432554e-04
  7.3905438e-05
 -7.3121703e-01
  3.5689692e+00
 -2.9273924e-01
  1.0338949e-02
 -2.1222918e-01
 -2.3478450e-02
  5.0572276e-01
  1.4672295e+00
 -9.1474488e-02
  3.0217981e-02
  4.0288638e-02
 -4.7627209e-06
  2.6511714e-01
 -3.8239712e-01
  2.5724793e-02
  1.2456395e-01
  3.2760276e-04
  5.7930517e-01
  2.7430864e-02
  4.6515031e-04
 -1.8014167e-04
  4.5359893e-06
  1.3221462e+00
 -3.8184020e-01
  1.8914456e-04
 -1.2021931e-05
  4.6034597e-04
  1.5671298e-02
 -2.4087825e-04
 -1.2211363e-04
  7.4996947e-06
 -2.3517703e-05
  6.9557667e-05
  3.7194703e-05
  6.5903798e-05
  2.4575869e-05
 -3.2730843e-04
  3.0519539e-06
  2.7746332e-04
  3.6814545e-05
 -7.4955926e-05
  6.3385574e-05
 -2.0113644e-05
  9.7857934e-05
  1.8216651e-04
 -9.7158081e-05
 -3.3880133e-05
  8.2339895e-05
  7.0557166e-05
 -5.0848976e-05
 -2.8933119e-04
 -1.4312957e-04
  1.5169101e-05
 -4.3187541e-05
 -4.0029026e-05
 -5.7694706e-06
 -4.2349104e-05
  7.5021147e-05
 -2.2762506e-05
  1.0857934e-05
  8.9709240e-01
 -8.5626743e-05
  3.6321914e-01
  4.9220926e-05
 -1.5492592e+00
  9.1016464e-02
  1.2830568e-04
  1.0911604e-01
  2.9571188e-04
 -3.6048375e-05
  5.3142256e-04
 -1.8897190e-05
  2.2007910e-06
 -1.3206332e-03
  2.5828018e-05
 -1.6411049e-04
  4.8133446e-04
 -4.4760812e-02
  1.1492913e-04
 -4.8103792e-04
 -2.2458748e-04
  1.6554941e-01
  8.9109861e-05
  5.8970944e-04
 -2.0704174e-04
 -8.1566222e-06
 -7.8274214e-05
 -2.0535391e-04
  2.1926500e-04
  7.9332640e-05
  5.4433067e-06
  2.0118403e-04
  2.8585433e-04
 -2.0400072e-05
 -1.2167347e-04
 -1.1618260e-04
  9.7932942e-05
 -4.2202097e-05
  9.2278322e-05
  9.6338859e-05
  3.6018653e-04
  2.6494291e-04
  2.5496481e-04
  5.6138324e-05
  1.2593956e-05
 -7.0649425e-05
 -1.1182234e-04
  1.2518957e-04
  3.6033638e-05
 -1.3589564e-04
 -4.9007074e-05
 -1.5830279e-04
  9.0468149e-07
  2.3463531e-04
 -2.2965379e-04
  7.0372798e-06
  6.5443965e-05
  4.7297763e-06
 -8.2975792e-05
  8.3204861e-05
  1.4055330e+00
 -1.2051621e-01
 -5.9371948e-01
 -1.8840216e+00
 -7.1437174e-01
  3.5116068e-01
 -5.7296580e-01
 -1.6364285e-01
  1.2078314e-03
 -1.6806749e-01
 -9.8239705e-02
 -5.6698960e-01
 -4.4516969e-01
  2.4768012e-04
 -2.0616243e-03
 -1.2464389e-01
 -9.1187261e-02
 -9.3105191e-01
 -2.9210526e-01
 -6.2371697e-02
 -4.8694073e-04
  1.0076421e-01
 -1.6363621e+00
  4.8523173e-03
  6.5218861e-05
  4.1238946e-04
 -2.6904128e-04
 -2.6503891e-05
  4.1338955e-03
  3.5276586e-05
  6.2814796e-01
 -4.1331975e-03
  1.2042592e-01
 -7.8897348e-05
  1.1451255e-05
  1.8857475e-03
 -4.3103909e-03
 -1.0889729e-03
  7.5264492e-05
  3.6616053e-05
 -5.9967508e-05
 -6.2115880e-04
 -2.9429677e-04
 -1.9375719e-05
 -1.2234264e-04
 -3.1522714e-04
 -2.5706837e-04
 -1.2877733e-01
 -6.3346319e-02
 -2.3040474e-04
  1.1534730e-04
  1.4277331e-04
 -2.6114270e-01
  2.2419021e-01
 -3.9113082e-05
  1.8954118e-04
 -1.9435919e-04
  1.2729960e-04
  8.7721863e-05
 -2.0797639e-05
  9.2445314e-01
  3.6213200e-03
  1.0416121e+00
 -2.2098979e-04
 -8.7932271e-01
  2.6614598e-03
 -9.4929812e-05
  1.5686005e-01
  4.5945872e-05
 -2.8778955e-05
 -8.3098013e-05
 -6.4087999e-03
 -3.1384386e-04
 -4.3292827e-04
 -1.6394761e-04
 -7.7615434e-04
  2.0218456e-04
 -2.0652806e-06
 -2.4410081e-04
 -2.6719172e-05
 -3.3217319e-05
  5.1440522e-02
  2.7841676e-04
  8.8803688e-05
  5.3429005e-05
 -1.1845368e-05
 -1.0259005e-04
  1.2021311e-05
  3.8732160e-04
  1.5221404e-04
 -1.1134092e-04
  5.1907267e-05
 -1.1671487e-04
  1.9057554e-05
 -1.1509649e-04
 -1.2993182e-04
 -1.1764471e-04
 -1.0264141e-04
 -2.6657339e-04
  1.3308496e-05
 -1.9042696e-05
  2.0513950e-04
 -1.6702270e-05
  8.4845531e-05
 -3.2911118e-04
  5.2143707e-05
 -2.6767814e-04
  1.0797183e-05
 -7.2207506e-05
  6.9333575e-05
 -1.9069771e-04
  2.7197875e-05
 -6.7139608e-06
  9.5733034e-05
  2.3740622e-04
  6.8758250e-06
 -2.3625566e-05
 -1.1144090e-05
 -4.2194060e-05
  1.1289424e-04
 -1.7024894e-04
  1.1673619e-05
  2.2878723e-05
  7.4621894e-05
 -2.9774723e-04
 -2.0882094e-04
 -1.9056578e-04
 -1.4733303e-04
 -2.3306551e-05
 -6.5577674e-06
  2.7264474e-05
  1.0518821e-04
 -2.4474712e-05
  1.3924489e-05
 -2.9837538e-04
  6.4609776e-05
 -1.4851754e-05
  9.3904906e-05
  1.4709815e-04
  5.1898478e-05
  1.5533077e-04
  4.2497195e-05
 -4.9939175e-05
  7.4221469e-05
 -2.7918747e-06
  2.6705550e-04
 -1.3620895e-04
 -1.4743877e-04
 -3.0072235e-05
 -1.5660944e-04
 -2.6516858e-04
  5.3145068e-05
  4.6551175e-04
 -1.4077798e-04
  1.2182230e-04
 -4.5920094e-03
  6.0355567e-05
  1.3220648e-04
  6.6023917e-05
 -6.9042362e-05
 -3.0537081e-05
  8.5577085e-06
  5.0635874e-05
  2.6079608e-04
 -1.3394291e-05
  2.4493693e-04
 -2.6695494e-05
  5.0697745e-06
  7.7687151e-04
 -4.7993031e-05
  4.7065412e-05
 -6.7041889e-05
  8.2770435e-05
 -5.7031622e-05
 -2.0745874e-05
  3.8851620e-05
 -2.8288501e-04
  2.7097594e-05
 -2.1518157e-05
 -6.5743402e-06
 -2.5204017e-05
 -1.5924621e-05
  4.3021802e-05
  8.3582934e-05
 -4.3110660e-05
 -7.8476878e-05
  7.0280257e-05
  1.9770628e-04
 -1.1516329e-04
 -6.7766938e-05
 -3.3379187e-05
  1.3369836e-06
  1.0074271e-04
  6.8201589e-05
  3.1979296e-05
 -4.1723889e-04
 -5.9601774e-05
 -8.8285160e-05
  1.1509571e-04
 -9.4957082e-05
  1.1760154e-04
 -1.1546137e-04
  2.0788223e-04
 -5.5545384e-05
  3.9417868e-05
  1.5737129e-05
 -8.1366394e-05
  1.9224524e-05
 -4.2426592e-04
 -5.0378108e-05
  2.0342504e-05
  1.7449474e-05
 -5.7443258e-06
  6.0758244e-05
  4.1425639e-05
  1.7806605e-04
 -1.0823362e-05
 -4.4128283e-05
  2.3580942e-05
  2.5681451e-05
  4.6503294e-05
 -5.1776366e-05
  1.1356360e-06
  1.4604024e-04
 -2.5177741e-04
  1.7819955e-05
 -5.6881731e-06
  1.1071302e-04
 -2.3428327e-05
 -3.7085832e-05
 -1.3178277e-04
 -4.5682526e-05
 -4.7875932e-04
  5.3223404e-05
  7.7425560e-05
  2.2492046e-04
 -5.1450665e-05
 -1.5872241e-05
  1.4147256e-04
 -3.4715500e-05
 -6.5628147e-01
  1.4215137e+00
 -4.8868412e-01
  8.7031424e-02
  1.6602987e-02
 -2.2923966e-01
  3.7531082e-02
  1.8968498e-02
 -1.0965340e-03
  2.2237746e-03
  4.8183525e-04
  2.9396203e-01
  3.3075178e-01
  9.0144986e-06
  1.3648054e-04
  5.8207195e-03
  2.8627270e-01
  5.8708459e-02
  7.1441971e-02
  1.5825794e-04
 -6.4425061e-05
  4.4878350e-05
  2.2472246e-01
 -2.7488565e-02
  1.4209148e-04
 -3.0192547e-04
  5.6172525e-05
  4.6819838e-04
 -5.9923367e-04
  9.1708032e-05
 -1.8691191e-05
 -2.8286336e-04
  1.6771455e-04
 -3.9243800e-04
  2.4459778e-05
  1.6412634e-05
 -4.2705909e-05
 -6.2017178e-05
  1.6198379e-04
  9.4267762e-07
 -4.2579390e-04
 -1.0461752e-04
  1.0722754e-04
 -1.6190990e-06
  2.8346958e-05
 -3.4518562e-05
 -1.2477108e-04
  8.0227233e-05
 -3.8116591e-04
 -4.9611012e-04
 -3.0524566e-04
  6.8716661e-05
  1.2374629e-04
  2.5712428e-04
 -4.5143825e-05
  2.6715892e-05
  1.3737945e-04
  2.2028419e-04
  3.1881456e-05
 -1.3644165e-04
  3.1063521e-06
 -8.5318570e-05
 -4.8719292e-05
 -4.4207191e-05
 -6.2292951e-05
  1.7063718e-05
  8.4007479e-06
  1.0071518e-04
  9.1053567e-05
  3.6974921e-05
 -9.2709721e-05
 -1.1028230e-04
 -2.4261881e-05
  3.9138831e-05
 -5.0692288e-05
  3.4833549e-05
 -1.7212695e-04
 -2.5007654e-05
 -2.0463822e-05
 -1.5608665e-06
 -1.8028244e-05
  9.6719914e-06
 -1.2625568e-05
  2.6326550e-05
  6.1087226e-06
  4.6249042e-05
  6.2405488e-05
  1.8897497e-05
  2.0988927e-04
  1.2281755e-04
 -1.0441206e-04
  1.4371908e-05
 -1.4752452e-04
  9.1904207e-05
  2.0782303e-05
 -2.1493409e-04
 -1.3038117e-05
  4.1036817e-04
  6.1494415e-05
  1.2805672e-04
  1.2776307e-05
  4.8275368e-05
  2.3785828e-05
  7.7281980e-04
  7.1708557e-05
 -4.2015457e-05
  1.4487056e-04
  6.7189825e-04
 -7.9213314e-05
  5.2540316e-05
 -9.8148761e-05
 -9.6035707e-05
 -2.0570737e-04
  5.2654272e-05
  4.5388047e-06
  1.8735333e-04
  7.5976328e-05
  2.0458401e-05
 -2.2261078e-04
  3.8798418e-05
 -7.1017854e-02
  7.6605342e-05
 -7.9599604e-06
  1.0633607e-04
  6.5769367e-02
 -2.3240666e-04
  5.1515432e-05
  4.7815120e-05
 -1.0074942e-05
  1.1188506e-04
 -6.5762521e-05
 -6.3117459e-06
  1.6470707e-03
 -1.3167526e-04
  1.8727068e-04
 -5.3975873e-05
  1.3677579e-04
  1.1842196e-04
  3.7489299e-02
 -4.9078262e-05
 -3.7585018e-05
 -4.9626897e-04
  2.8160486e-05
 -1.6161276e-04
 -1.5808780e-06
 -2.0648217e-04
  3.9048487e-04
 -5.8765381e-05
 -1.0419199e-04
 -3.7495105e-05
  8.9985842e-01
 -2.4319198e+00
  1.5900857e+00
  2.5294044e+00
 -1.0232123e+00
  9.1516805e-01
  4.7423604e-01
 -4.9352322e-05
  2.7466165e-05
 -1.2108732e-01
 -3.4203910e-04
 -1.1545365e+00
 -1.0157690e+00
 -5.5904007e-01
 -8.3692648e-06
 -1.1712180e-01
  2.2588116e-01
  7.9659827e-02
  3.9050922e-01
 -1.8874967e-03
  4.7008660e-05
  2.1154803e-01
 -8.3356893e-01
 -5.1145587e-02
 -1.1987419e-04
  2.2590339e-05
  3.3209778e-07
 -4.0448312e-02
  4.4085407e-03
  3.3546683e-05
  1.0563679e+00
  2.7279766e+00
  1.1044761e+00
 -2.9055617e+00
  3.8982081e+00
  2.4621685e-01
  1.1988745e-04
  1.2311083e+00
 -1.3791659e-01
 -3.8011923e-01
 -8.8172856e-05
 -3.4068033e-01
 -5.8343757e-02
  4.3054295e-01
 -2.4985833e-01
 -8.4833376e-04
 -2.7002048e-01
  8.5902941e-01
  4.8293760e-01
 -1.0474728e-01
  1.8038108e-05
  2.8335947e-01
 -3.9777625e-01
  1.9141815e+00
 -4.2797863e-05
  1.9802001e-05
  2.3727645e-05
 -7.7700928e-02
  6.4442128e-02
  1.3171732e-05
 -7.1384902e-06
  6.6328706e-05
 -2.8435403e-04
 -4.2933927e-05
  1.4732204e-01
  7.5536707e-05
 -2.5739733e-05
 -3.0000863e-04
 -3.3552080e-06
  1.2486640e-04
 -7.0341179e-05
 -5.5031378e-05
  1.4009250e-04
 -2.9692249e-04
 -3.8359965e-05
  1.0914968e-04
 -1.8356420e-04
 -1.2587786e-04
 -1.2864797e-04
  8.0099249e-05
 -3.1399049e-05
  1.0889424e-05
  4.6730845e-05
 -4.9815550e-05
  2.1340815e-05
 -4.0949581e-05
 -7.0042515e-05
  5.0287599e-05
 -2.1131618e-04
  2.6992193e-04
 -6.0218966e-01
  3.2028991e-01
  4.8335514e-05
  1.3203261e-04
  3.2172275e-01
  1.0503860e+00
  1.5175304e-01
  2.6734287e-01
 -5.7133300e-05
 -4.7834742e-06
  1.0209819e+00
 -7.1263406e-05
  2.3010856e-01
  7.8443860e-05
  3.0660391e-01
  1.6653085e-01
  2.6573086e-01
  4.2652544e-05
  3.5394063e-05
  1.1470170e-04
 -6.5110318e-05
 -2.7270664e-05
  1.0519129e-02
  3.9063102e-06
 -2.0772840e-04
  1.9883551e-05
  1.2786984e-01
 -1.9258012e-01
 -3.8144720e-01
  5.9593162e-06
  6.6317582e-01
 -3.2673790e+00
  3.2131360e-05
  4.5465520e-05
 -1.7708201e+00
  2.7945144e+00
 -1.1596668e+00
 -1.7532235e+00
  9.4212964e-03
 -1.2151238e-04
  1.9036523e+00
  1.7632643e-03
 -1.4525489e+00
  5.9153517e-05
 -2.1716821e+00
 -9.5286530e-01
 -1.3445807e+00
  1.0790680e-04
  3.3677416e-04
 -2.1119193e-04
 -1.3805123e-04
  2.6482163e-05
  1.6728455e+00
 -4.3610552e-01
  8.2254141e-05
  5.0260096e-05
  8.3193547e-01
 -3.5618474e+00
 -3.1099210e+00
  1.3571842e-01
  2.8249770e-04
 -5.3884286e-02
 -9.3989842e-02
 -2.4373263e-01
  1.4156911e-01
  1.8902713e-01
 -1.1994127e-01
 -4.7133174e-02
 -1.3274038e+00
 -2.4787299e-01
 -8.1182062e-04
  5.2815329e-05
 -4.4968296e-04
 -4.7813764e-01
 -1.8065465e-03
 -7.1080245e-02
 -2.0058016e-01
 -4.6664573e-02
 -4.1133113e-02
 -6.1366409e-05
 -1.8074417e-04
  1.0602036e-04
 -5.9291346e-05
 -1.0650378e-01
 -2.1391435e-05
 -2.5503425e-04
 -7.9861136e-05
  7.3030154e-05
 -4.5277320e-05
  8.2461556e-05
  4.0506452e-01
  4.1472960e-01
  1.4283220e+00
  6.7059916e-01
  3.9456740e-01
  3.3575994e-01
  4.6774361e-02
 -3.7566558e-01
  6.1857271e-01
  3.6316141e-01
  4.2127543e-03
  2.1686321e-02
  6.8869727e-04
 -6.3188320e-01
 -9.5444524e-01
  1.3831042e-02
  5.9150684e-01
  2.0831908e-01
 -1.0225819e-01
 -1.6923340e-01
 -1.9463781e-01
  1.1765195e-06
 -4.5431212e-01
 -1.6417028e-01
 -5.9063828e-01
  5.8411638e-04
  8.0472052e-02
 -3.8779213e-04
  3.8686231e-01
  6.7926347e-05
  1.8238825e-04
 -2.0893967e-04
  1.9329767e-05
  1.3877438e-04
 -1.5379601e-04
  3.9018641e-06
  9.8483351e-06
 -1.9744939e-04
  4.6611454e-05
 -6.8499779e-05
 -5.6172477e-05
  5.3933683e-05
  9.4322437e-05
 -3.5733679e-05
 -3.8241233e-06
  3.1731761e-05
 -7.2181923e-05
  9.5871801e-06
  2.2476705e-04
 -7.2422619e-05
  5.8222511e-05
 -1.8811827e-05
  1.0682389e-04
  1.1162279e-04
 -1.6341004e-06
  8.2985671e-06
 -4.1283485e-05
  4.4855020e-05
  7.9212950e-05
  1.5286445e-04
 -5.3233864e-05
 -1.5664005e-01
  8.5804369e-03
  9.6447278e-05
  1.4751284e-04
  3.0636429e-03
  1.3396868e-02
  3.1062913e-01
  5.6420453e-04
 -9.2034228e-05
  7.8132734e-06
  3.3860825e-04
 -1.0026518e-04
  1.3990971e-02
 -6.7249467e-03
  3.1336618e-04
  2.9629196e-05
 -2.1661667e-04
  8.9031681e-05
 -3.7975478e-05
 -5.5873141e-05
  5.7775564e-05
 -3.2850943e-04
  6.8824398e-03
  5.4809258e-05
 -2.5748269e-04
  3.4420056e-05
 -6.7941050e-06
  2.3746232e-02
 -2.1350455e-05
 -7.1414739e-01
 -3.8151997e-01
  1.1278518e+00
  4.4744045e-02
  3.7356344e-01
 -7.2752529e-01
  3.6741662e-01
  4.1461530e-01
  2.1168949e-01
 -1.0903127e+00
 -3.7732780e-01
  1.0572848e+00
 -6.6196117e-05
 -6.8282694e-02
 -1.1007425e+00
  1.9746964e-05
  1.9318526e-04
  8.7261572e-02
  1.4471687e-01
  3.9018294e-01
 -5.9387687e-05
 -3.6024838e-05
 -3.4114081e-01
 -1.6645790e-04
 -8.8595974e-05
  1.9451688e-01
 -1.9520465e-01
 -8.2132923e-05
  3.4863692e-02
  1.1977235e-04
  4.1125797e-05
  1.4549230e-04
 -1.0385646e-05
  2.1552705e-04
  7.3012110e-05
  4.9547674e-05
  5.0174807e-05
  2.0948921e-04
  4.8602687e-05
 -3.8669055e-05
 -1.1561830e-04
  2.2451920e-04
  6.7475572e-05
  7.3714466e-05
  2.6491485e-04
  5.4971777e-05
 -1.5441109e-04
  8.4656116e-05
  3.3172764e-05
  4.3062540e-05
 -6.1312967e-05
  3.6671161e-04
 -3.5012548e-05
 -3.8154434e-05
  1.2810075e-05
 -5.2269124e-06
 -6.8370980e-05
  1.3651693e-04
 -4.3396303e-05
  1.5698331e-05
 -6.6814078e-05
 -3.1903334e-04
  3.0277331e-05
  1.1499609e-04
 -2.1919710e-05
  6.4684300e-06
  8.4428601e-02
  5.4873599e-05
 -1.3365166e-04
 -1.4571664e-04
  1.5039380e-04
  4.3563883e-05
  2.0367817e-04
  1.7441393e-04
 -1.6678625e-05
  1.1224347e-04
 -1.1791973e-04
 -3.3432132e-04
  1.7177344e-04
  1.6256105e-04
 -5.1829353e-05
  1.6862541e-05
 -9.2160742e-05
 -1.9155192e-04
 -4.4899760e-05
 -4.6961804e-04
  3.5526048e-04
  2.6582985e-04
  7.9101897e-05
  4.1956373e-05
  9.9875420e-01
  2.4818718e+00
 -8.8849247e-01
 -1.2424803e+00
  1.7012298e+00
 -2.6406741e-01
 -2.7491739e-02
 -4.2274496e-01
  3.8645890e-01
 -1.1710256e-01
  5.8885914e-01
 -2.8067148e-01
  4.4126939e-02
  7.3466229e-01
  1.5454344e-01
  7.6377655e-05
 -1.4570065e+00
 -1.8941328e-02
  7.4134225e-01
  8.1020308e-01
  5.2141614e-04
 -4.5752743e-01
  1.6953583e-01
  2.3613556e-01
 -4.1079719e-02
 -1.4850284e-03
 -3.6716726e-02
  6.9276452e-02
 -1.9428897e-01
 -1.0442660e-04
 -6.8769389e-01
 -1.4914503e+00
 -3.5856956e-01
  1.1236943e+00
 -1.0713469e+00
 -1.9972943e-01
 -2.4923460e-01
 -1.2780620e-01
  1.3269999e+00
 -4.9038494e-01
 -4.5741931e-01
  1.2115189e+00
 -5.9996587e-01
  1.0041596e+00
 -5.6232524e-01
  5.9125757e-01
 -5.7249151e-02
  5.3579384e-01
 -4.4178042e-01
  2.1301446e-02
 -3.6654389e-01
  1.4519169e+00
 -1.5446689e+00
 -1.5098115e+00
 -7.5627398e-01
  1.2609329e+00
  1.1601712e-01
  1.1523905e-03
 -2.9312438e-01
  5.0959468e-01
  1.0889058e+00
  3.4671509e-01
 -2.0323351e-01
  3.6376792e-01
  9.8950166e-01
 -7.9205064e-03
  3.0989816e-02
 -3.1254524e-01
 -2.8076777e-01
  3.7946349e-01
  1.0647076e-01
  4.9281543e-01
 -6.2646051e-03
 -4.2081484e-01
 -1.8730424e-01
 -7.2092927e-01
 -3.4417918e-01
  1.2748868e+00
 -1.2627218e+00
  1.1670065e+00
  1.8754105e-01
 -7.0875400e-01
  8.3120465e-01
  7.0023954e-01
  1.1599458e+00
 -1.9364698e-01
  5.7324005e-04
  2.4155785e-04
  3.0304587e-01
 -1.0931066e-02
  3.1215599e-01
 -7.1497858e-01
  4.3500462e-01
  6.7861426e-01
  1.5809609e+00
  3.1356014e-02
 -3.3962539e-01
  2.3542942e-01
  7.1889514e-01
 -1.3578083e-01
  9.7915447e-01
 -1.4030051e-01
  1.4153278e-01
  2.1156812e+00
 -7.3324567e-01
  4.4625384e-01
  1.5864040e+00
 -4.4989750e-02
  7.5662065e-01
  1.6191158e+00
  2.6044028e-05
 -8.1398985e-06
  1.5241607e-01
 -1.5497108e-01
  5.3086782e-01
  5.8634512e-02
  1.0302957e-01
 -3.5727501e-02
 -7.1664110e-02
  1.9664285e-01
 -1.0793953e-05
  7.9651451e-04
 -7.3372554e-05
  2.3570512e-05
 -1.2593149e-04
 -2.7647521e-04
  4.3714399e-04
  8.5308158e-05
 -7.2323835e-01
 -2.8061736e-04
 -5.8237936e-05
  8.3804058e-05
  3.5835287e-04
 -1.7720504e-09
  3.0765828e-04
  2.3394794e-05
  3.0678546e-04
 -1.2393041e-04
  1.4090586e-04
 -3.3578610e-05
  1.0957495e-04
 -2.2167264e-05
 -4.3517456e-04
  3.4017846e-04
 -6.9013854e-06
 -1.3650366e-04
 -5.4801236e-05
  3.5872929e-06
  1.8341551e-04
 -8.5576472e-04
  3.2192838e-04
  3.2062274e-01
  4.2873664e-05
 -9.1751564e-05
 -4.2642998e-05
  8.3273429e-05
 -4.0519685e-02
  9.8659089e-05
  1.3152477e-01
  7.4083987e-04
 -1.0565122e-03
 -6.1461452e-02
 -1.0107050e-04
 -4.6680066e-01
 -8.2981285e-05
 -7.9366118e-06
  1.9890470e-04
 -9.0194835e-06
 -1.0656447e-04
  9.3347749e-05
  2.4109792e-04
 -9.3097144e-05
  5.9711576e-05
 -1.2525551e-04
  3.7221413e-04
 -7.3573457e-05
  2.0040239e-05
 -6.1523424e-05
 -2.2898981e-04
 -8.2334911e-05
  3.1191170e-01
  8.6294547e-02
 -7.2786927e-01
  4.1211510e-01
 -9.9242491e-01
  9.5499717e-02
 -2.5515845e-01
 -1.0250348e+00
  3.1561089e-01
 -2.7407113e-01
  1.1759373e+00
  1.3842571e-01
 -9.9187441e-02
  2.0521931e-01
  6.9029540e-02
 -4.7053784e-02
 -8.7494242e-01
 -1.3311948e-02
  6.6654241e-01
 -1.6827228e+00
  1.4744843e-04
 -1.1183170e-03
  2.9549557e-01
 -3.5408136e-04
  3.5384187e-04
 -4.9837823e-03
  3.9386969e-02
  9.8415033e-04
 -1.4016299e-01
 -8.2330283e-04
  6.2781399e-01
  3.1135258e-01
 -5.5710748e-02
 -8.8537228e-01
 -1.5827355e-03
 -2.4022529e-01
 -1.0120274e-02
 -1.4609926e-02
 -2.4799787e-01
  5.0576556e-01
  4.6643925e-01
 -3.4636304e-01
 -7.5677738e-02
 -9.6638411e-01
 -1.1133608e-02
 -1.3111046e-04
 -1.3762353e-01
 -1.3067057e-04
  2.6281190e-01
  6.7716511e-04
  1.6167558e-04
 -1.7923508e-04
  3.0725996e-04
  6.5738226e-05
  4.1891783e-04
 -1.6135859e-04
 -2.0306242e-04
  3.2646451e-05
 -3.5135180e-04
  8.5779530e-04
 -6.4164306e-05
  6.5053056e-05
 -2.4151075e-05
 -5.2996154e-05
 -9.5034266e-05
 -5.0065126e-05
  1.4500487e-04
  1.8547030e-04
  2.4038820e-06
 -5.1021671e-06
 -1.1144935e-04
  4.4206157e-05
  4.5044926e-05
  5.4648353e-05
  2.7565678e-04
  1.1552200e-04
  3.0068344e-05
 -5.9925202e-05
 -1.4723063e-04
  2.3647248e-04
 -7.1506688e-06
 -7.9268830e-05
  3.7035188e-05
  1.1653466e-05
  1.1730661e-04
 -9.3395087e-05
 -1.1438444e-05
 -2.2806644e-05
 -3.9033580e-06
  1.2089101e-05
 -5.2573469e-05
  1.0196828e-04
  2.9389123e-05
  3.9570292e-05
 -4.8274793e-05
 -1.5317921e-05
 -1.5878372e-04
  7.1423616e-05
 -8.8413808e-06
  1.4657015e-01
  1.1132804e-05
  1.8636791e-05
  2.4502930e-05
 -7.6770026e-05
  4.8583679e-04
  1.7006540e-04
 -3.2540553e-04
  6.5550354e-05
  7.2093646e-04
  1.3089454e-04
  8.9934489e-05
  4.8650239e-05
 -1.5591238e-04
  1.1403933e-03
 -1.5211922e-04
  8.0798694e-05
  4.2209511e-05
  1.3542951e-04
  5.5662575e-05
 -4.3183540e-05
  1.4444966e-04
  1.0549849e-05
  9.2066302e-06
 -1.0467984e-04
 -4.5384728e-05
 -4.2064872e-05
  3.4787357e-04
  1.0595646e-04
  2.9321422e-04
  3.6858211e-04
  6.5748609e-05
  7.3448420e-05
  1.8899901e-04
  2.5727790e-02
 -1.3054783e+00
 -8.7448825e-06
 -8.5248095e-05
  5.4987348e-05
 -3.0087194e-06
 -4.2197778e-05
 -1.1658118e-04
 -1.4154834e-05
 -9.7842103e-06
  2.1910550e-04
  5.8326976e-05
  5.2250038e-05
 -1.2793763e-04
  2.1694288e-04
 -1.8988261e-05
 -4.3150714e-05
  1.4431223e-04
  1.2731823e-04
  1.0300667e-05
 -3.7016012e-05
 -2.0452371e-05
  2.6127652e-04
 -2.2550317e-05
 -1.5803866e-04
  1.9904331e-04
 -2.0453444e-04
  7.5576849e-05
  1.1767139e-04
  3.2092840e-04
 -4.0411451e-05
  3.8354713e-04
  2.0070122e-07
 -3.7621486e-04
  6.8639565e-05
  2.7780031e-04
 -8.2536440e-05
 -2.9135551e-04
 -1.2468525e-04
  7.9601887e-05
  3.0987081e-04
  1.1798054e-04
 -5.8453332e-04
 -1.3066707e-04
  1.2991676e-05
  4.0545707e-04
  2.7746079e-05
 -1.1151026e-05
  5.2998567e-01
 -1.4372425e-04
 -7.5590115e-06
  7.9908583e-05
 -6.8193818e-05
  3.6722677e-06
  1.5387288e-05
 -1.5782593e-04
 -5.0898308e-01
  8.3225183e-05
  1.9833909e-05
 -1.1495185e-04
  6.7889976e-04
  2.1055269e-04
 -6.4070910e-06
  2.6161125e-04
 -1.4330914e-04
  2.7774109e-03
  5.5865206e-05
 -9.5031428e-05
 -1.9456657e-04
 -2.7318152e-05
  1.3684642e-05
 -9.1132788e-05
 -2.4691611e-04
  5.8904436e-05
  4.0973864e-05
 -1.0269082e-03
 -2.3314969e-04
 -3.7964020e-04
 -8.4089935e-01
 -7.4598879e-01
 -8.6770213e-01
 -2.4969590e-06
  3.7219357e-03
 -8.1103855e-01
 -2.2564967e-01
  1.3852128e-01
  8.7200010e-01
 -1.6517848e-05
 -1.2920095e-01
 -4.6293274e-04
  3.5722340e-03
  6.4863883e-02
 -2.2620000e-06
  2.4737974e-04
  5.3392064e-06
 -6.4781658e-02
  2.1953331e-04
  1.7085588e-04
  2.9980363e-05
  3.8052272e-05
 -2.5157923e-02
  3.1844404e-04
  1.4847770e-04
 -6.4104788e-05
  3.5057496e-04
 -2.4949746e-02
  7.2463190e-05
  2.1387529e+00
 -1.8509755e-01
 -5.6311613e-01
 -3.2844090e-01
 -4.3439247e-02
 -1.3686898e-01
 -1.0254326e+00
  5.1387626e-01
 -3.0512023e-03
 -2.4158394e-02
  4.2285898e-01
 -2.9940655e-02
 -3.6241999e-04
 -1.0540065e+00
 -1.2754120e-02
  1.1760542e-04
 -7.3947449e-05
  5.2885607e-02
  3.4907115e-01
  5.1740527e-01
  6.4265367e-04
 -6.5742649e-02
  9.3308427e-06
 -2.0585427e+00
  3.3009419e-01
 -1.0121788e-03
  3.1105960e-02
  1.8488098e-04
  2.3014483e-05
 -2.3932969e-03
  1.3001206e-03
 -1.1695106e+00
 -4.0844822e-01
  2.3876038e+00
 -2.3290315e-05
  3.8082015e-02
 -4.8371276e-01
 -3.0254209e-01
 -3.3793604e-01
  1.1724551e-01
 -9.1402560e-01
  7.4634093e-01
  3.8503605e-01
  2.1627512e+00
 -8.0665153e-01
 -9.7949945e-05
 -2.9373551e-03
  6.3565691e-05
  4.3628484e-01
 -9.1175465e-03
 -3.7484028e-04
  9.9848679e-05
 -2.7993275e-02
  3.1577611e-01
 -1.5498836e-01
 -4.7837588e-05
 -1.0889471e-01
 -5.5205943e-03
  1.5088536e-05
 -4.2155288e-02
 -6.4733350e-01
  2.4837456e-04
  1.3044006e-03
  1.9553682e-04
  4.8820137e-05
  4.6152316e-02
  1.5579872e-02
 -1.1268256e+00
 -4.9245253e-01
 -3.8561843e-02
  2.7243511e-04
  2.0653826e-01
  1.2964504e-04
  1.2816499e-01
 -7.5010308e-03
  3.6991729e-05
  3.3614819e-04
  2.8320803e-05
 -1.4302845e-05
 -3.8820232e-04
 -3.4617810e-04
  1.1982645e-04
 -2.2966575e-04
  2.3459086e-02
 -3.0942520e-04
  2.2682804e-04
 -1.3554555e-04
 -5.2714092e-04
  1.0948419e-03
  3.0143568e-04
  1.2023817e-01
 -2.0581041e-04
 -2.1207763e-02
 -2.9051043e-02
  6.4911092e-06
  4.2962646e-01
 -1.6261585e-01
 -3.0005997e-01
 -3.9138192e-01
  6.3250220e-01
 -3.6676618e-05
 -1.5396892e-05
  3.3192082e-05
  4.2214721e-01
  1.1190831e-02
 -5.6877348e-04
 -1.9754960e-04
 -3.8066073e-04
 -9.8969720e-02
 -4.5886653e-05
  3.4322595e-05
 -2.9659246e-05
 -2.1478325e-05
 -2.6477766e-01
 -4.2517888e-05
 -2.8039719e-04
  3.8962471e-04
 -2.6091517e-04
  1.8898472e-04
  7.6251970e-05
  1.6092794e-04
  3.8591708e-05
 -3.8263141e-05
  2.0473090e-05
  1.3534320e-04
  7.5095020e-05
 -2.6142687e-05
  5.7344755e-06
 -1.7281034e-04
  1.0401981e-05
 -1.2080860e-04
 -8.6977103e-05
  5.2831085e-05
 -5.1938852e-05
 -3.3588207e-05
 -8.6033258e-05
 -1.8470806e-04
  1.1162923e-04
  8.4772299e-05
 -6.6312007e-04
  2.7611412e-04
 -5.1115050e-05
 -9.4078114e-06
  2.7761734e-04
 -5.2601590e-05
  2.1855143e-04
 -1.7574918e-04
 -1.2723151e-04
  1.1260685e-04
  3.1198098e-05
 -1.7381167e-02
 -1.2269788e-02
  7.4667770e-01
  7.3840356e-01
  3.2422696e-03
 -4.2674071e-01
  2.4952191e-01
 -1.7913811e-02
  1.0155189e+00
  4.5454633e-01
 -3.9379057e-01
  1.9835395e+00
  2.5235325e-01
 -6.3456041e-01
  2.4941100e-02
  3.5813281e-01
  1.3227691e-01
 -6.9381183e-01
  6.0092598e-01
  1.5863146e-01
  2.0850147e-04
  5.4388756e-01
 -1.1644565e-01
  1.3997548e+00
 -1.2000079e-05
  1.2290522e-03
 -3.2094711e-01
  3.1967714e-04
 -5.0795406e-01
  3.9797975e-05
  2.2946095e-05
 -1.2179941e-04
 -7.4173346e-05
  3.7999496e-05
 -6.8433408e-05
 -4.8622882e-05
  2.8992492e-06
  6.9357542e-05
 -2.1987880e-04
  2.5763665e-04
  4.9821258e-04
  2.3750626e-04
  2.9286835e-05
  1.6758462e-05
 -2.5922802e-04
  1.5681386e-05
  1.8644283e-05
  1.9020942e-04
  9.8463308e-05
 -1.3843969e-04
 -8.2902761e-06
 -2.9548512e-05
 -1.5652036e-04
  1.4338423e-04
 -2.9647516e-04
 -2.0018138e-04
  1.7530331e-04
 -5.6712768e-05
  2.6356507e-04
 -7.3679985e-05
 -4.8799877e-05
 -1.6766539e-04
 -6.8978630e-02
 -1.0623197e-04
  2.4560190e-04
  8.6596817e-02
  9.7525866e-05
  2.8887726e-04
 -2.3148343e-01
  2.0045155e-01
  7.7435889e-06
  6.0667664e-01
  7.2913185e-06
 -5.2778076e-05
  3.4709163e-05
 -3.1373314e-05
  3.9909387e-04
  6.8294007e-04
  2.5790377e-04
  2.7254368e-05
  1.2794374e-05
  1.0339088e-04
 -6.7381879e-05
  3.7714685e-04
 -6.8268646e-04
  8.1552731e-05
 -3.0625237e-05
 -2.2884760e-06
  8.3181825e-05
  2.6849523e-04
 -6.4871526e-01
 -5.9850574e-01
 -2.8707969e-01
 -7.4313951e-01
  4.0123630e-01
  4.1887817e-01
  6.7133680e-02
 -2.7600744e-01
  3.7371179e-01
  7.6576793e-01
  4.6111972e-04
  4.6256045e-04
  1.7653652e-04
  3.7881620e-02
 -8.8111174e-01
  5.5783996e-03
 -1.4061977e-04
 -6.6395086e-01
  6.1617058e-02
 -3.0659242e-02
  9.8754390e-05
  2.3114058e-04
 -2.1647222e-03
  4.9379822e-05
 -6.0693716e-04
  1.3851633e-04
  7.6551594e-05
  1.0772258e-04
  1.0415406e-02
  2.1762794e-04
  4.5246410e-01
  1.4814254e+00
  1.3683466e-04
  1.4115976e-01
 -5.1421505e-01
  7.8541918e-05
  4.4653450e-05
 -8.0468291e-01
 -4.1968031e-03
  3.8053632e-01
  1.6371564e+00
 -8.7792992e-05
  3.2477499e-05
  8.8289028e-01
  7.7457261e-01
 -2.3444698e-05
  4.8930146e-04
 -1.8387308e-04
 -3.3945475e-05
 -6.0732567e-01
 -7.8285736e-01
 -5.2656734e-01
 -6.5295309e-01
  8.4934337e-03
  1.6933228e-01
 -3.8173553e-06
 -1.0134535e-02
  7.5286545e-05
 -7.3484035e-04
  7.4334621e-01
  5.0131547e-01
 -2.1079307e+00
 -6.8009675e-02
 -4.4919279e-01
 -1.0802346e+00
 -5.9571687e-07
 -7.6898788e-05
  2.5367000e+00
 -1.7207104e+00
  1.5266062e+00
  1.4894234e+00
 -2.7847537e-01
  2.7573940e-01
  1.7143134e+00
  8.0194247e-01
  9.3417502e-06
 -1.7844366e-01
 -2.0462233e-01
 -1.3561250e-04
  3.0748484e-01
  4.5703071e-01
  9.4268042e-01
 -1.1983289e+00
 -4.3387046e-01
  3.7029424e-01
  1.3589530e-04
 -1.1348580e+00
  3.5902282e-05
 -3.0153850e-01
 -8.8451153e-01
 -2.1764555e+00
  7.4358839e-01
  6.6017246e-01
 -6.0036296e-01
 -2.5774542e-02
  1.8291587e-02
 -4.9983296e-01
 -1.0847731e+00
  1.5868080e+00
  3.8243830e-01
  2.5581819e-01
  2.2885293e-02
 -6.4212054e-01
  9.0652211e-05
 -7.9687539e-05
  3.3536100e-01
 -6.2582981e-06
 -7.1244467e-05
  1.4833311e+00
 -9.8636407e-01
 -6.3170642e-01
  8.3975327e-01
  8.3065677e-01
  6.0820937e-01
 -1.0573696e+00
  5.3915435e-01
  4.6172261e-01
 -9.7086579e-01
 -1.7165475e-01
  9.8433807e-02
 -2.4138765e+00
  4.7690290e-01
  1.8585213e-01
 -1.1005880e+00
  1.5552065e+00
  1.5583403e-03
  4.1409131e-02
  3.0579147e-01
  1.0883113e+00
  5.9476453e-01
 -2.2958589e-03
 -5.5337989e-01
  1.3624543e+00
  1.0736346e-04
  1.5612592e-01
  1.5567355e+00
 -1.3092152e+00
 -1.8357873e+00
  1.8327657e+00
  1.0022321e+00
  1.6432533e-01
  1.6700324e+00
 -7.7716970e-01
  1.1261008e+00
  6.4681977e-01
  2.7377779e-02
 -1.3411230e-01
  1.9349477e-01
 -1.1621960e-02
  2.0831887e-01
 -5.0348282e-01
  6.7307132e-01
 -2.8636861e-01
 -1.6585861e+00
  1.0457585e+00
 -7.0533442e-01
 -1.7530572e+00
  9.1828704e-02
 -1.0609779e+00
 -1.2341220e-01
 -4.7753480e-01
  1.7547473e-02
 -1.3204944e+00
  2.6480266e-01
  6.1311328e-01
 -6.7489439e-01
  5.6632864e-01
  1.8236135e-01
  1.8293374e+00
 -8.3395708e-03
  1.3065459e+00
  9.9078864e-01
 -9.8810405e-01
 -1.3292327e+00
  1.1763682e-01
  4.3868059e-01
 -3.4870465e+00
 -1.5037890e-01
 -2.1030660e+00
 -2.5158334e-01
  1.0439953e+00
 -5.6796713e-04
 -7.4571118e-02
 -9.6297491e-04
  1.7158891e-04
 -4.4023329e-03
  1.4480281e+00
 -1.0097914e+00
 -5.2215117e-05
  1.1310164e+00
 -3.7227206e-02
 -9.9048077e-05
  4.7499031e-01
 -1.7175616e-01
 -4.7274888e-01
  4.4551483e-01
  5.0570446e-01
  1.1772081e-01
 -9.7067028e-01
 -5.5655372e-01
 -1.5424099e+00
  6.9906402e-01
 -1.1782446e+00
 -2.6264858e+00
  4.9098587e-01
 -1.0324423e+00
 -7.9352963e-01
  3.1815475e-01
 -7.1579322e-02
 -3.3932069e-01
 -9.5482391e-01
  5.0882646e-04
 -6.3487620e-05
  2.7438712e+00
 -5.8582181e-01
  4.6513211e-02
  1.2538456e+00
 -9.3135320e-02
  1.7992868e-05
  5.9722543e-01
 -6.7343065e-03
 -3.2209033e-01
  1.2718111e+00
  1.1363856e-01
  4.4885978e-01
  3.5597432e-02
 -7.8869599e-01
 -1.6662642e+00
 -1.3207651e-03
 -2.7065587e-01
 -2.8828647e+00
 -5.4786074e-01
  1.3987634e-01
 -4.6640715e-01
 -3.9111322e-01
 -7.7949226e-02
 -5.4622620e-01
  7.4560696e-01
 -1.0271800e-02
  2.8840566e-01
 -9.8384455e-02
 -8.9397395e-01
 -1.3186759e-03
  1.4018618e+00
 -3.6623606e-01
  1.3939525e-01
  8.7725985e-01
 -6.4739734e-02
 -2.2397211e+00
  2.1760139e+00
  9.2203754e-01
  4.1422978e-01
  1.2070912e+00
  5.0410026e-01
  7.8752989e-01
 -8.0075586e-01
  1.1071368e-01
  1.3498213e+00
  1.2190249e+00
  1.4487773e-01
 -9.5436960e-02
 -1.7991287e-01
 -9.0148475e-05
  8.9975940e-05
  7.7538206e-03
 -3.3618719e-04
 -4.9655064e-04
  6.6194254e-01
  3.1119356e-01
  1.8919183e-05
 -9.6818872e-02
  7.1030819e-01
  1.0530361e-01
 -4.0336561e-01
  1.4075994e+00
 -9.4422477e-01
 -8.1989557e-01
 -1.8925305e-01
 -8.7829112e-06
  8.9420909e-01
  2.5418079e-01
  3.9249867e-01
 -3.2833230e-01
 -1.8364570e-01
 -2.5095441e+00
 -1.1815625e+00
  2.0633887e-01
  3.3343229e-01
  1.2905282e+00
  1.3411661e-04
  3.9791597e-05
  2.2116656e+00
  7.8449273e-01
 -6.5520859e-01
  1.8995001e+00
  1.0267065e+00
  9.3295639e-06
 -1.8593692e+00
  1.0217673e+00
  5.0702184e-02
 -5.9434789e-01
  1.2145609e+00
  6.7729837e-01
  1.1720706e+00
  4.4163546e-04
  1.6633339e-03
  1.6677810e-02
  7.8073281e-01
  3.7390077e-01
  1.0415753e-01
  1.8284132e+00
  1.1342968e+00
  3.1152821e-01
 -2.3831128e-01
  2.3726609e-01
  6.9604588e-01
  3.4535443e-04
  2.2279975e-01
 -1.0763863e+00
 -2.0860023e+00
 -1.9754758e+00
  2.4307366e-01
  8.4267700e-01
 -3.1632746e-05
  1.1829021e+00
 -8.1436116e-01
 -9.7014035e-06
 -8.4430951e-01
  4.4115320e-01
 -6.3562259e-02
  9.4770879e-01
  2.9544711e-01
  2.1063127e-01
  1.0317141e+00
  1.4785933e+00
  6.2786743e-02
 -9.7441316e-01
  4.5424122e-01
  4.0635896e-01
 -1.0280340e+00
 -6.1139292e-01
  1.6856118e+00
  1.5075272e+00
 -8.3715186e-06
  2.0654850e-05
  3.4962159e-03
  2.2560885e+00
  3.8835977e-04
 -3.6629255e+00
  5.9217846e-01
  4.6822857e-04
 -4.5181656e-01
  6.2900931e-01
  1.3607569e-01
 -3.1698711e-02
 -2.1393795e+00
  1.3871482e-01
 -1.6432345e-01
 -9.5017451e-01
  1.8438929e-01
  6.5625083e-01
  4.9746819e-02
 -1.2556097e-05
  7.6361015e-02
  2.7502966e+00
  1.9266520e+00
 -6.4219302e-01
  1.6728612e+00
  9.9967587e-01
 -1.5848924e+00
  4.1109302e-05
 -3.2167640e-04
  4.5213815e-02
  5.1370764e-01
  8.6098486e-01
 -1.1442357e+00
  1.4862061e+00
  2.7816693e-04
 -1.4250742e+00
  8.2155222e-01
  1.8935840e-01
 -4.4269666e-02
 -6.6091681e-01
 -2.9772660e-01
 -1.8485112e+00
 -1.2297198e+00
  7.9199296e-01
 -2.4671998e-04
  5.8192909e-01
  1.7429095e-02
 -3.6272308e-05
  3.3658713e-01
  1.7348152e+00
 -5.3544369e-02
 -5.5240148e-01
  2.5778198e-01
 -2.9580656e-01
  5.1459563e-05
  1.3614678e-01
 -8.9983869e-01
  1.3233693e+00
 -7.3761749e-01
  6.2177938e-01
  3.6511469e-01
  1.9344431e-01
 -1.5946699e+00
 -2.3037209e-03
 -4.7016270e-03
 -2.5956652e-01
  1.3989062e+00
  5.4685438e-01
  1.5682768e+00
  1.4480454e-01
  3.9028642e-01
  3.6111763e-01
 -7.4571872e-01
 -8.7027562e-01
  1.4753840e+00
 -2.4645026e+00
 -9.5386785e-01
 -5.6326371e-01
 -1.9248096e+00
  5.0437760e-01
 -3.7759641e-01
 -2.8464508e-01
 -4.8129088e-01
  1.1344260e+00
 -4.3122101e-01
  1.0073312e-04
  1.3448465e+00
 -5.8825219e-05
 -2.4940195e-05
 -7.6239579e-05
 -3.4621160e-02
  3.8589323e-01
  9.9534693e-04
  4.3569510e-03
 -4.1007131e-01
 -1.0316551e+00
  6.2735277e-01
  1.8184423e-01
 -1.4071846e+00
 -2.0531430e+00
 -1.9565085e+00
  9.0874159e-01
 -9.5260769e-02
 -1.6149579e+00
  1.4132450e+00
 -1.7076179e-04
 -1.0124304e+00
  1.5834289e+00
 -7.4966514e-01
 -1.4654387e+00
  3.0254191e-01
  7.9687709e-01
 -3.2356218e-01
  7.9954320e-01
  2.5936362e-01
  4.0809163e-01
  1.0232545e-01
  3.0930296e-01
  1.3538524e+00
 -8.5560316e-01
  2.1447404e-04
 -4.8698789e-01
 -1.4913340e+00
 -5.5751037e-02
  3.2270476e-02
  8.3251619e-01
 -8.1307983e-01
 -3.2259639e-02
 -1.2211671e+00
 -1.4017533e+00
 -1.6078117e+00
 -9.5465547e-01
 -5.2125943e-01
 -2.9877391e-02
  1.4740961e+00
 -1.3109920e+00
 -1.5049884e+00
 -7.1075201e-01
 -7.8398138e-01
  1.2508772e-01
 -1.7081249e+00
  1.2526289e+00
  2.3792240e-01
 -1.0022938e+00
 -5.2367461e-01
 -1.9358720e+00
  1.1699715e+00
 -1.6006048e+00
 -8.3187866e-01
  6.1619663e-01
  1.7967626e+00
  1.9602937e+00
 -1.3118788e+00
  6.6834313e-05
  6.1751075e-02
  1.2442827e-01
 -1.4464204e-01
  6.1115694e-05
 -3.5700229e-01
 -2.2767870e-01
 -1.3302063e+00
 -3.4086007e-01
 -8.0892387e-06
  4.8383167e-06
  1.2681827e-04
 -1.2124476e-04
  1.5133598e-05
  1.2215520e+00
 -7.2727635e-05
 -8.7742025e-01
 -1.4302565e-04
  2.1963111e-04
  1.1486799e-02
  1.3648100e+00
 -9.7122945e-02
 -5.1234507e-05
 -4.6521962e-01
  6.7808115e-01
  4.6811137e-01
 -1.3164048e+00
  3.4331584e-05
 -1.7372060e-05
 -4.2907456e-01
  1.2750563e-04
 -8.3943036e-05
  1.8681322e+00
 -6.9255030e-01
  3.8657099e-01
 -4.0699527e-01
  1.6230250e-04
  9.9713667e-05
  6.7526674e-01
  1.2579399e-05
  5.5768469e-05
 -5.9657711e-01
  1.4916948e+00
  3.6640966e-01
 -1.3648692e+00
 -3.1371248e-05
  2.9603610e-04
  7.4190056e-01
 -3.1207765e-05
  6.4214146e-05
 -1.2600213e+00
  8.2824081e-01
  8.6550099e-01
 -6.1021262e-01
 -1.1599523e-04
  1.0817038e-03
  3.7259144e-01
 -2.9108644e-04
 -6.3008360e-05
 -2.2156848e-01
  3.0949330e-01
 -1.6897924e+00
  2.6061723e-01
 -7.4686944e-03
  8.8244686e-03
  4.1795912e-01
 -1.1306779e-04
  2.7025753e-04
  1.2576295e-01
 -2.1064979e-01
  1.6775167e-01
  2.0321850e-01
  3.7326000e-04
  7.4921765e-05
  7.5308228e-01
 -1.1155182e-04
  9.7862976e-05
  1.0952165e-01
  9.3419254e-02
  7.4702609e-01
 -5.2108437e-01
  3.3180324e-05
 -2.1589528e-04
 -8.2397133e-01
  2.2224579e-02
  3.4845521e-05
  4.0903270e-01
 -6.9726765e-01
  1.1163648e+00
  3.9323461e-01
  2.2736449e-05
 -1.6942092e-04
 -2.3105158e-05
  1.8266188e+00
 -9.2994283e-05
  7.8425408e-05
  2.5250154e-04
 -5.8557017e-04
 -4.2269664e-04
  7.5830740e-06
  5.8372494e-05
 -4.9949795e-05
  4.5861274e-02
 -1.5877142e-04
  8.1996202e-01
 -1.5324510e+00
  1.1071726e+00
  3.4350764e-02
  9.8028422e-06
 -2.8994580e-04
 -1.0583035e-04
  2.2820805e-04
  1.0258488e-04
  8.3513623e-01
  4.6281612e-01
 -1.2651371e+00
 -2.7145499e-01
 -1.6855336e-05
  1.6798571e-04
  5.5813571e-06
  5.5248886e-02
 -3.7044732e-04
  1.6190763e+00
 -2.2485101e-01
 -7.8748226e-06
  1.2286485e+00
 -1.8675093e-04
  1.0038743e-04
 -8.2173930e-05
  1.4966918e-04
  4.1975622e-04
  2.5654492e-01
  6.0252267e-01
  2.3721812e+00
 -3.8501450e-01
  1.0849509e-04
  7.7760951e-06
 -1.2945749e-04
  1.1127981e-03
 -1.9402053e-04
 -2.4137391e-01
 -9.6806660e-02
  3.3373994e-01
  1.0713673e-01
 -1.2076070e-04
 -2.3330485e-05
  1.9870267e-05
 -3.1296950e-05
  1.2355089e-05
  1.7415704e+00
 -4.3247628e-01
  7.0993066e-01
  1.1081706e+00
 -1.8263223e-04
 -2.3415846e-04
 -1.5764152e-04
 -4.5919209e-05
 -1.5883538e-04
  7.8815833e-02
 -1.4462303e-01
 -5.5365592e-01
  7.1401930e-01
 -7.9122829e-06
  4.9340313e-05
  5.3191994e-05
 -1.1221924e+00
  9.7176373e-05
  9.5649052e-01
  2.9843435e-01
  4.9910223e-01
 -1.2516828e+00
  8.0409707e-05
 -1.5609812e-05
  3.0663326e-05
  1.0245413e-04
 -2.4010909e-05
  3.3024144e+00
  4.4819832e-04
  2.5891843e-01
  7.5279146e-05
  3.3384051e-05
  1.1307972e-05
 -3.5136566e-04
 -6.4114010e-01
 -4.0600677e-05
  1.7868024e-01
 -1.9987405e-05
 -2.9653236e-01
 -1.2797655e-01
 -9.2875402e-05
  5.4992728e-05
  2.2808874e-05
 -1.4751089e-01
  1.9188745e-04
 -6.4447695e-01
 -4.8455369e-02
  6.1235505e-01
 -1.0574815e+00
 -4.3502241e-05
  6.0543345e-05
 -1.4176262e-04
 -9.5106877e-02
  8.9778812e-05
  4.5869583e-01
 -2.0356411e-01
  1.0033154e-04
 -1.3825780e+00
 -1.7572635e-05
 -8.4424020e-05
 -4.0270930e-05
 -6.8230808e-01
 -5.6739250e-06
  2.7562770e-01
 -1.3853161e-02
  9.1695583e-01
 -1.1480601e+00
 -1.2364022e-05
 -1.0536781e-04
  1.2352810e-05
  3.8405775e-05
 -1.1578438e-04
  1.2901371e+00
  1.1030737e-01
 -4.1078225e-01
 -1.6836842e+00
  1.7050868e-04
  6.0096962e-05
 -1.5657926e-04
 -1.1759732e+00
 -2.9214013e-07
  5.1452368e-01
 -5.0058059e-04
 -5.9673154e-01
 -9.7430182e-01
 -1.0486456e-04
 -5.4255976e-05
  2.4735247e-04
 -3.0342755e-01
 -2.7107211e-05
 -3.4049198e-01
  2.1689508e-05
  3.7604922e-01
 -4.2282996e-01
  1.0778060e-01
  5.3356600e-01
 -5.8657336e-01
 -1.9625477e-01
 -7.6517834e-05
  5.3615999e-01
  6.6084719e-01
  8.3895618e-01
 -7.2048604e-01
  2.7706399e-05
  2.1446878e-05
 -5.1758683e-04
  3.4866200e-05
 -6.5195495e-06
 -1.0979038e-01
  7.2642804e-05
  6.7156512e-01
 -1.2444922e-04
  8.5686937e-02
  4.4638389e-01
 -1.0279577e+00
 -6.1285656e-02
  7.4845892e-05
 -9.7799045e-01
  5.7153541e-01
  8.0587812e-02
 -1.0047979e+00
  1.3142954e-04
  2.4000283e-05
 -5.1442039e-01
 -1.2732206e-04
  9.7922375e-06
  1.0672786e+00
 -2.5793314e-01
  1.0401433e+00
  1.1071198e+00
  6.1820194e-02
  3.1845739e-01
  5.1246965e-01
 -2.0632055e-04
  1.7870841e-05
 -1.2913902e-04
  9.4580376e-01
 -2.2693035e-01
  3.8674733e-01
 -4.8561196e-05
  5.9063529e-04
  9.5490858e-02
 -7.3535659e-04
 -4.0280524e-05
 -1.6873795e+00
 -2.6264304e-01
  1.7811438e+00
 -3.6128747e-01
  1.0925580e-02
  2.9756662e-02
 -2.0000377e-01
 -3.4728771e-06
 -8.5090564e-05
 -1.8612561e+00
  2.3897721e-01
  1.4482907e+00
 -2.3870747e-01
 -1.9690337e-05
  2.7752727e-01
 -9.1328657e-01
 -1.8456862e-03
  2.6238101e-04
 -7.1402258e-01
  6.0244018e-01
 -2.4948692e-01
  2.3653461e-01
  6.5235776e-04
  5.7460432e-04
 -5.6615037e-01
 -7.9474534e-04
 -6.8364978e-05
 -6.7051476e-01
  6.5021449e-01
 -4.1405123e-01
 -2.4065098e-01
  4.7395504e-05
  4.1227631e-05
 -5.7554251e-01
  1.2655132e-05
  9.5446427e-05
 -4.3388247e-01
  9.6053922e-01
  6.2450153e-01
 -4.4460532e-01
  5.8169575e-05
  1.4071338e-04
 -1.3230706e-03
 -1.3850650e-04
 -1.1342161e-04
 -4.4902951e-01
  8.5250282e-01
 -2.1796446e+00
 -1.2747107e-04
 -7.4627191e-05
  1.9707349e-04
 -3.5706061e-01
 -2.3248307e-04
  9.8897086e-05
 -1.0095679e-04
  5.9968580e-02
  1.2464854e-01
  5.9135908e-01
 -2.3845178e-05
  4.1739848e-05
 -7.5733000e-01
 -5.1934512e-05
 -8.0582606e-05
 -3.4492391e-01
  1.2971673e+00
 -3.5836920e-01
 -6.4734078e-04
 -4.3945736e-05
  1.5163672e-05
 -8.5301585e-02
 -5.8368460e-05
 -6.4473890e-05
 -4.8722860e-01
  3.3444921e-05
 -1.0540430e-01
 -5.7422426e-02
 -3.6018031e-05
  7.8859430e-06
 -4.8874179e-01
  1.1684826e-04
 -2.5238845e-05
  6.4831692e-01
  3.2785916e-01
  4.2705503e-01
 -3.9188500e-02
  1.5454834e-04
 -2.4136792e-05
 -8.7650347e-01
 -1.8049251e-04
  9.1824528e-05
 -4.8753467e-01
  1.9619325e+00
 -1.7534193e+00
  3.7628442e-01
  1.1200261e-04
  1.3255038e-04
 -1.6678464e+00
  1.1712935e-04
  5.2449926e-05
  1.1239590e-03
  1.2200831e-02
  5.4988462e-01
 -5.4888368e-01
 -1.2986907e-05
 -2.4295128e-04
 -4.6092588e-01
  1.8451092e-04
  1.4676243e-05
  4.7079110e-01
  2.0954855e-01
 -6.4699382e-01
 -2.9027802e-01
  1.2413758e-02
  1.2413758e-02
  1.2413758e-02
  1.2413758e-02
  1.2413758e-02
  6.7241365e-01
  6.7241365e-01
  6.7241365e-01
  6.7241365e-01
  6.7241365e-01
  1.4738771e-01
  1.4738771e-01
  1.4738771e-01
  1.4738771e-01
  1.4738771e-01
  1.0924964e-01
  1.0924964e-01
  1.0924964e-01
  1.0924964e-01
  1.0924964e-01
  1.6452778e-02
  1.6452778e-02
  1.6452778e-02
  1.6452778e-02
  1.6452778e-02
  1.8038879e-01
  1.8038879e-01
  1.8038879e-01
  1.8038879e-01
  1.8038879e-01
