nep4 3 Ba Zr S 
cutoff 8 4 150 20
n_max 4 4
basis_size 8 8
l_max 4 2 0
ANN 30 0
 -6.8680320e-06
  1.5054446e-05
  1.5981778e-04
 -5.0760400e-06
 -2.5515578e-06
  1.0063366e-05
  2.9676494e-06
  2.1335465e-05
  9.8206901e-06
  6.8199165e-07
  9.4589022e-06
 -2.3499620e-06
 -8.7108083e-07
 -1.5081168e-08
  5.0816798e-06
  2.3294770e-05
 -3.7463928e-05
 -2.3696542e-05
 -1.0176244e-06
 -1.6295241e-06
  2.8276858e-05
 -3.5583143e-06
 -2.3838777e-05
 -2.2429100e-05
 -3.1011161e-06
 -4.1716326e-06
 -8.6705790e-05
  5.7703714e-06
 -1.1690227e-05
  2.2331424e-04
  5.5554390e-01
 -1.7898054e-05
 -1.8211335e-01
 -1.1535808e-01
 -1.8115242e-01
  1.3229463e-06
  1.7355013e-06
 -1.9087081e-05
 -4.9584276e-05
 -3.8378987e-01
 -8.0951349e-06
 -9.6533927e-07
 -4.6053251e-06
  6.7389126e-05
  6.3745052e-02
 -3.3601387e-05
 -6.8291195e-07
  3.1527863e-05
  1.1087657e-04
  2.2118993e-05
  8.7683316e-07
 -1.1052813e-05
 -2.2672765e-07
  6.8888567e-06
  1.1191731e-01
  4.7199666e-07
  5.3960684e-06
 -1.3401878e-05
 -7.8934412e-05
  5.0624026e-06
  7.3938361e-05
  4.4419985e-06
 -4.9721402e-06
 -1.4814675e-06
 -1.4354375e-05
  3.3299623e-06
 -7.4897016e-06
 -9.7039483e-06
 -1.7619093e-05
 -1.3814689e-05
 -3.2456934e-05
  1.7411677e-06
 -3.6992779e-07
 -3.4723710e-06
 -6.4339483e-06
  4.3634645e-06
 -2.0333307e-05
  7.8271814e-06
 -1.3010604e-05
 -3.8012837e-07
 -5.7439393e-05
  1.9515512e-05
  6.6417620e-06
 -1.2075702e-05
 -2.9296366e-06
 -5.1879074e-06
 -2.0945381e-05
  7.2172878e-07
  2.1191545e-06
  2.9956751e-05
  1.3927687e+00
  1.1736767e+00
 -1.4235399e+00
 -5.7878122e-03
 -2.6194155e-01
  2.8440176e-04
 -1.5949143e-05
 -1.5010634e-04
 -2.4762583e-01
 -6.8895203e-01
 -1.6324158e-05
  6.2492276e-05
 -6.0421426e-05
  3.8212758e-05
  2.5152120e-01
 -5.9110851e-05
  3.1594165e-05
  3.0148796e-05
  7.5749502e-02
  8.0071963e-02
  1.8464244e-04
 -1.2349960e-06
  1.8653278e-05
  5.1161882e-02
  3.7049556e-01
 -1.6881997e-05
 -4.4244669e-05
  2.8343070e-06
  1.1837365e-05
 -6.3920465e-06
  1.4387332e-06
 -8.9008372e-06
  5.1823334e-04
  4.5209432e-05
  2.3483911e-04
 -1.8002651e-05
 -1.1779022e-05
  4.9510618e-05
  1.8350082e-04
  2.5270914e-04
  5.3494491e-06
  7.9656220e-06
  2.5753543e-06
  2.3090759e-05
  4.6892554e-04
 -6.0245529e-06
  1.2687425e-06
 -3.3025713e-06
 -1.0816689e-05
 -3.9523766e-05
  1.7047489e-05
  6.1530727e-06
 -1.1810090e-06
 -1.1679910e-05
 -2.7467229e-05
  1.1301928e-05
  1.7606061e-06
 -4.6171783e-05
 -1.3434622e-05
  5.6611061e-06
 -5.0036801e-05
 -3.0596001e-04
  2.9927524e-04
  1.5164963e-04
  6.9191476e-04
 -3.4019937e-05
  1.2354031e-05
 -3.5329103e-06
  2.2165095e-04
 -4.7062633e-07
 -2.3079285e-06
 -3.7025657e-05
 -5.2723858e-06
  3.6187273e-06
 -2.5924672e-05
  5.8467540e-06
  1.2813384e-05
  4.5959432e-06
 -9.4646539e-06
  1.4088714e-05
 -3.5362979e-04
 -3.8419889e-06
 -7.3692977e-06
 -1.3494751e-07
 -1.9107180e-04
 -1.7860682e-04
  1.1512811e-06
 -5.1527397e-05
  1.5552716e-05
  6.5216377e-06
 -7.9758847e-01
 -5.9667137e-03
  5.0429714e-01
  7.6512201e-04
  2.7631699e-05
 -1.3803109e-03
  8.8020006e-06
 -7.0176452e-06
  1.8537712e-03
  9.0069380e-03
  1.6721179e-06
 -7.7777777e-06
  2.0723471e-06
  6.1470462e-05
 -1.3344041e-04
  5.1907369e-07
 -1.4053707e-06
  2.3254248e-05
 -2.0489277e-04
 -3.1451323e-06
 -7.4149278e-07
  1.7202579e-05
  3.7550221e-06
 -6.1695317e-07
 -5.6501854e-08
 -5.3975459e-06
  4.4921885e-07
  1.1765924e-06
 -2.0354211e-07
 -1.2382691e-05
 -1.4143629e-01
 -1.8890021e-05
  3.1171402e-01
  1.7182421e-05
  9.4918450e-06
 -1.0945794e-05
  1.8240768e-05
  1.6176610e-06
 -7.9732326e-06
  1.5816717e-05
  6.4288088e-06
 -4.4063381e-06
  9.3862262e-05
 -6.8793393e-06
  2.6315645e-05
 -3.8898183e-06
  7.8400300e-04
  1.3385812e-07
 -6.0513230e-06
 -1.8946077e-06
 -1.6955296e-04
 -2.6199559e-05
 -9.0739086e-06
 -9.4490424e-06
 -2.3831890e-05
  1.6231003e-07
  2.5778904e-06
 -1.7811036e-06
  4.4499251e-05
 -4.6854320e-06
  1.9923731e-05
  1.8011275e-06
 -1.5905602e-01
 -3.3237509e-06
  1.5699839e-06
  3.4812484e-07
 -1.5792033e-05
 -2.0168786e-06
  3.8243293e-06
 -1.0773932e-05
 -1.5378261e-06
 -1.0251487e-05
 -1.9376154e-07
 -8.5039401e-06
 -6.7872738e-06
 -1.4148249e-06
 -5.3570875e-06
 -4.0275786e-06
  5.5179989e-06
  1.3352883e-05
  1.2117508e-06
  9.1411147e-07
 -6.2595594e-05
  1.1301656e-05
  4.5245784e-04
  2.8329282e-06
 -1.3747152e-05
 -2.7051679e-05
 -3.3333545e-05
  3.3563942e-06
 -8.4635249e-05
  7.0881790e-05
 -2.7997339e-01
 -3.0118380e-02
 -9.5231697e-04
 -7.4575314e-06
  1.1215031e-05
  3.3529369e-07
 -8.7804437e-07
 -7.5712419e-06
  1.1320304e-05
  4.4294334e-06
 -1.9206058e-05
  9.8516612e-06
  1.7083539e-05
 -3.5518078e-05
  1.0157846e-05
 -2.6659670e-06
  4.5136407e-05
  5.4258748e-04
  4.8317506e-05
  7.9290967e-06
  9.7578986e-06
  4.9412955e-04
  3.6334742e-02
  1.1365168e-05
 -1.3177723e-06
 -8.9871696e-07
 -5.6568251e-06
 -2.1733658e-05
 -6.0191172e-01
 -7.8900193e-04
  4.4198322e-01
  4.1187164e-01
  5.0424576e-01
 -2.2973990e-01
  1.1396321e-05
  4.3764194e-06
  1.4199199e-01
 -1.8200197e+00
  2.1486208e-06
  4.8601719e-06
 -7.3658844e-06
  2.6341455e-04
 -3.6888372e-03
  8.7756445e-05
 -1.2813932e-05
  4.1104644e-07
 -4.1373296e-05
 -4.0408455e-02
 -8.0631096e-03
 -9.2878872e-06
  2.5242385e-05
 -7.4041616e-03
 -3.2805833e-01
 -3.3297874e-06
  2.4152707e-05
 -2.0154214e-06
 -3.9731863e-06
  2.2631235e-05
 -2.7615722e-06
  6.0431148e-06
 -7.4734867e-06
 -1.2157454e-05
  3.3234446e-05
  5.2633927e-06
 -1.7755959e-06
 -4.9627456e-06
 -8.0413956e-06
 -8.3602472e-06
 -3.3369913e-06
 -1.4073879e-05
  5.4776166e-08
 -2.4390217e-06
  3.1535163e-07
 -2.5146030e-05
  5.9881190e-06
 -1.9032104e-05
 -4.6005143e-06
 -4.0953288e-05
  6.7080518e-06
 -8.3614083e-07
 -4.6890245e-06
 -6.8935893e-05
 -1.0176577e-05
  4.0073184e-05
 -1.7265143e-05
  1.9181583e-05
 -3.0128156e-06
  1.7521192e-07
 -4.4566477e-06
 -1.0086955e-04
  1.5131892e-01
  2.0969404e-02
  3.4261270e-06
 -1.0450480e-01
 -1.5603539e-06
 -6.0913849e-06
  6.2652119e-04
 -1.1308293e-06
  6.5677443e-05
 -1.0907112e-05
  9.6672011e-06
 -2.0429105e-04
 -9.3469553e-06
  4.3790517e-04
 -1.0848825e-05
 -9.5508411e-05
 -3.9196904e-05
 -2.5140907e-04
 -8.6057720e-05
 -1.2928672e-05
  1.2741069e-04
 -2.7154530e-05
 -2.1729233e-04
  8.8430585e-07
  4.0471816e-05
  1.8484669e-05
 -8.6232074e-05
  1.5296917e-05
  2.0393127e-05
 -5.3016392e-06
  7.9247577e-05
 -1.6078204e-05
  4.6911418e-06
  2.4966825e-05
  3.6653821e-06
  3.3179025e-05
 -1.1526755e-06
  6.3860112e-05
  3.0680089e-06
 -1.6169370e-05
 -9.4453018e-05
 -6.9614794e-07
 -1.0161359e-04
  1.6943490e-05
  4.0713465e-05
 -2.4246325e-05
  6.2239946e-05
  3.3594151e-06
 -3.5279325e-05
  1.6833759e-05
 -5.0113563e-06
  7.6698961e-06
 -1.6036505e-05
  7.2075059e-06
  1.1581176e-06
  4.8664010e-06
  3.7072862e-06
  6.5600022e-07
  7.4588132e-01
  1.0266891e-01
 -9.7235775e-01
 -9.8507690e-01
 -1.2733786e+00
  5.3689084e-03
 -1.1537060e-05
  1.0163714e-06
 -9.1891003e-01
 -9.9307364e-01
 -1.5403868e-05
  2.9033704e-06
 -2.3545526e-05
  2.1211044e-06
  1.4577240e-01
 -3.1043482e-01
  2.3711746e-05
 -3.4108464e-06
  1.3596012e-02
  8.8012286e-02
  1.3328604e-01
  1.5099276e-06
  8.2582454e-07
  9.5176309e-02
  4.5760459e-01
  2.4533261e-05
 -3.3034355e-06
 -8.2091610e-06
 -2.3095521e-05
 -1.7535605e-05
  1.0794488e-04
 -1.8133542e-05
 -1.8335048e-05
 -1.2602942e-05
 -6.1928286e-06
 -3.5987325e-06
 -7.8301355e-06
  1.4932218e-05
 -5.2861291e-05
 -1.5614881e-06
 -1.6180029e-05
 -5.7572429e-06
 -1.1985093e-04
  8.5368829e-06
 -1.1284903e-06
  1.9571728e-06
  1.1898057e-05
 -1.1850930e-05
 -7.2418959e-07
 -1.2907174e-06
 -2.8400050e-06
 -4.3643874e-07
  3.9219917e-06
 -5.9508443e-06
  1.8376888e-06
 -2.8550565e-05
  7.0211759e-06
  3.4608616e-05
  8.8882865e-05
  1.2777843e-05
 -2.7487738e-05
 -3.1510365e-06
  5.2604701e-05
  3.4600234e-04
  1.6879329e-05
 -1.5281692e-05
 -5.7899492e-06
  5.3058884e-06
  5.4796174e-06
  5.5857477e-06
  2.5216941e-04
  4.9525497e-06
 -6.8723648e-06
  3.4897541e-06
 -1.4095454e-05
  5.7898960e-06
  6.5868257e-06
  4.0219717e-07
  3.5103428e-06
  5.1986958e-06
 -2.4295857e-06
 -1.5239771e-04
  2.0245367e-04
 -5.3010926e-06
 -1.0707477e-05
 -2.0722147e-05
 -3.1718565e-07
  3.8212493e-05
  1.2532580e-06
 -3.7408961e-06
  7.4322728e-05
 -1.8982770e-05
  1.9345167e-05
  2.3414796e-05
  3.8026101e-06
 -1.5311083e-05
 -4.1222875e-06
 -1.3283528e-05
  3.1443778e-06
  2.9529638e-06
  4.1713915e-06
  8.9162899e-07
 -9.1567581e-06
  4.3473974e-06
  1.7695407e-04
  4.0517016e-06
  2.0022549e-06
  2.6262913e-05
  9.0578367e-05
  3.3628492e-06
  1.6843821e-07
 -1.9640622e-05
  7.8929170e-06
  4.5120123e-06
  4.0776340e-06
  1.2146067e-05
  1.0600557e-05
  4.9035089e-06
  9.2971513e-06
  3.1772342e-05
  1.3039328e+00
 -3.0786712e+00
  1.4188780e+00
  6.5167731e-01
 -4.0195708e+00
  1.8078820e-01
  2.7436545e-05
  1.9466006e-06
 -9.1373958e-02
  1.8245639e-01
 -1.5702551e-02
 -7.2710973e-06
  3.1409211e-06
 -1.4593022e-01
 -1.3562875e-05
 -6.7627311e-01
  3.3523902e-05
  1.8255130e-05
  9.8476354e-05
 -4.0656868e-02
  7.6769378e-05
 -8.8877523e-06
  1.3244742e-05
  1.8986195e-06
  1.5110418e-01
 -1.7099418e-06
 -4.6172763e-06
 -2.9332043e-06
  9.5619680e-07
  2.8818315e-06
 -1.7308037e+00
 -7.8312320e-01
  4.1065484e-01
  8.8972074e-01
  6.7740709e-01
 -1.0516765e-01
  4.6100591e-05
  8.4019803e-06
  4.2025471e-01
  1.1466215e-01
  1.8029558e-04
 -4.6905697e-07
 -4.7060239e-06
  1.3926895e-05
 -7.7001140e-02
  5.4239005e-01
  7.5063581e-05
  4.8656680e-06
 -4.9885637e-01
 -5.8532625e-01
 -3.5103780e-01
 -8.3511295e-06
  1.1865820e-06
 -3.4911311e-01
 -1.0383416e+00
 -1.7874598e-05
  2.7096294e-05
  2.5642757e-06
  1.2624412e-04
  8.6665399e-02
  5.9093591e-06
 -4.5601296e-06
  1.5393784e-05
 -7.4028003e-06
  1.8981280e-04
 -2.7068613e-06
  9.7691600e-07
 -2.8906099e-06
 -1.8036569e-04
 -3.5617162e-05
 -1.0214018e-05
  5.0515493e-05
 -1.2098350e-05
  1.1193029e-05
 -3.7050650e-06
  8.9592813e-06
 -2.1948032e-05
 -1.1802730e-05
  1.2821519e-05
 -5.4602265e-06
 -2.1921918e-05
 -1.2035708e-05
 -7.3447036e-06
  1.9966154e-05
 -1.1105101e-05
 -2.3105370e-07
 -1.7020911e-07
  1.6168204e-05
  4.4004819e-06
  7.2758362e-06
 -5.3058870e-06
 -3.2221396e-05
  4.8003840e-06
 -2.4440646e-07
 -1.9282365e-06
 -2.5098245e-06
  1.3409634e-05
 -2.0948812e-05
  2.8624413e-06
 -1.1062060e-05
 -2.9168348e-06
  7.2770069e-07
 -4.2351808e-06
  2.4473256e-05
  1.9252051e-05
 -1.1533866e-05
 -5.9857928e-07
  6.0817506e-06
 -3.7891027e-06
  9.7816530e-07
 -4.3957098e-05
 -2.2444254e-05
  1.5177565e-05
 -2.8146790e-06
 -3.8287874e-07
 -9.0373242e-06
  4.5940997e-06
  3.5597186e-06
  1.7127279e-05
  9.9053761e-07
 -1.2788906e-05
 -9.6018357e-06
 -1.9779112e-05
 -2.1992255e-07
 -3.1127047e-06
 -6.6838584e-06
 -9.9585043e-07
 -3.2850262e-06
  1.4747919e-04
 -1.2667299e-05
  1.6322815e-06
 -3.5745454e-06
  7.1854097e-06
 -2.8378599e-06
 -1.2243457e-05
  6.1966225e-06
 -8.1893745e-08
 -1.0035559e-06
 -5.3212748e-06
  1.1024688e-06
  8.6795870e-07
 -4.9366390e-06
  1.9313100e-05
 -5.3953877e-06
 -4.0099636e-05
  1.9414907e-05
 -4.3336250e-04
  1.5882053e-05
  9.9200597e-06
  9.7278632e-07
  9.2536029e-06
 -1.3300731e-05
  5.7410680e-06
  3.7703146e-06
  5.6339730e-05
 -5.7772654e-06
  5.5026812e-06
  1.4367550e-05
  2.8255037e-05
  5.7464217e-06
 -1.9203312e-06
 -8.0779691e-06
  3.0798153e-06
  5.6990034e-06
 -7.0929646e-06
 -7.9519373e-07
 -1.1714758e-05
 -7.3387787e-06
 -3.6874147e-07
 -1.5726674e-07
 -2.0167256e-05
  4.9509240e-06
 -4.2204883e-06
 -3.0967221e-05
  5.8298306e-06
  7.9857282e-06
 -3.2813161e-05
  8.1202394e-05
 -4.4990866e-06
 -1.3226769e-05
  5.6676586e-06
  2.0397067e-06
 -9.6185049e-06
  1.5358446e-05
 -2.7481344e-06
  9.8652848e-08
 -1.3278208e-04
  3.0896433e-07
  2.0438270e-06
 -1.1250047e-05
  4.2149991e-06
  8.2606111e-06
  1.6861031e-06
 -4.2510375e-05
 -6.5557288e-06
  5.6121547e-07
 -3.5974838e-06
 -1.4260645e-05
 -1.3743502e-05
 -6.6522657e-06
  3.7886921e-06
  1.1348330e-05
 -7.2778089e-06
  9.2649621e-05
 -1.8023527e-05
 -9.7664661e-06
  6.4123055e-06
  6.2383456e-06
  2.2668053e-06
  3.7115595e-05
 -1.7161627e-05
  7.7615005e-06
  1.0580227e-05
 -7.6222364e-05
  8.4412941e-06
 -1.2663357e-05
 -1.2225542e-05
  8.1518210e-06
 -8.2683960e-05
 -8.3247687e-06
  7.2091016e-06
 -7.9855263e-06
  1.5518825e-05
 -1.3908324e-05
 -2.9014105e-05
  4.5579902e-05
  2.8775542e-04
  5.8403532e-07
 -3.5124929e-05
  3.7365132e-06
 -1.3653640e-05
  7.8572511e-06
  1.0504436e-05
  5.8485803e-06
  9.7840598e-07
 -2.7754568e-05
  6.0359616e-06
 -8.0592836e-06
 -2.5341289e-05
  3.0314164e-05
 -2.1581511e-01
 -1.8416562e-05
 -2.8556931e-01
 -9.0803027e-01
 -2.5054485e-01
 -1.4592026e-02
  2.0964722e-05
  2.0150639e-05
 -9.4955817e-02
  1.8691069e+00
 -1.7356184e-04
 -1.8422177e-05
  7.4180075e-06
  1.3699000e-05
  3.9609686e-02
 -1.2675029e-06
  1.1367769e-05
  9.0686291e-07
  7.8036287e-03
  1.1858345e-02
  1.0669080e-05
 -5.3384018e-05
  9.9523722e-06
  3.7357621e-04
  1.8726058e-01
 -8.9564437e-06
 -2.4072086e-05
  5.9155072e-06
 -1.1674456e-05
  6.6928201e-06
  4.1764761e-06
 -1.2950417e-04
 -1.5576101e-04
  8.4218475e-05
  1.1074800e-04
 -1.5399849e-06
  5.1388024e-06
 -1.8947575e-06
  2.3370803e-05
  2.1764825e-05
  1.0595552e-06
  1.3948352e-05
 -5.8016726e-06
 -4.6938614e-05
 -3.9455513e-06
 -8.9305955e-05
  8.9833566e-06
  3.5966008e-05
  4.4198337e-06
  2.3616871e-05
  1.9071942e-06
 -1.7168732e-05
 -1.7693757e-05
  7.9361407e-06
  1.1669409e-06
 -1.1417116e-05
 -5.5317551e-06
  1.4296886e-05
  1.8152942e-04
  7.5189173e-06
 -1.3167928e-05
  1.8556224e-05
  5.6601657e-06
 -3.0774061e-04
  8.4653306e-07
  8.4001786e-06
 -9.4477127e-06
  9.3442559e-06
  1.4745492e-05
 -2.3762711e-06
  1.8471340e-07
 -1.9283996e-06
 -7.1049021e-07
 -2.0214567e-07
 -6.6111784e-06
  5.4975881e-06
 -2.0629130e-05
  2.1358933e-06
 -3.1367599e-05
 -1.3291990e-05
 -2.3223653e-05
  1.9461518e-06
  4.1037410e-06
 -2.8672603e-05
  9.7337024e-06
  9.9633598e-07
 -9.4610386e-06
 -8.9289033e-06
 -2.3379600e-06
  1.1326844e-04
  1.3006425e-04
  1.4485843e-05
 -9.9427558e-02
 -7.0027745e-04
 -2.2261465e-04
  9.0690846e-06
 -1.5209404e-05
  1.2157975e-06
 -3.0681767e-05
 -5.7149894e-04
  8.7596156e-05
  1.6859343e-05
 -1.2547455e-06
  7.1460349e-06
 -8.7807821e-06
 -8.3350000e-07
  7.8748353e-06
 -2.5664654e-05
  1.5803293e-05
  2.8469460e-04
  1.0062758e-03
  3.5856665e-06
 -8.6745958e-06
  1.2916385e-04
  1.3382826e-05
  1.7984308e-06
  1.0333398e-05
  1.1634464e-05
 -1.0042164e-05
  5.6787041e-05
  6.8537406e-06
 -8.2189724e-02
  4.3440514e-06
 -2.2578863e-02
 -5.1524156e-01
 -3.9611042e-01
 -4.0368423e-02
 -1.9218910e-01
 -7.3677045e-01
  1.1402398e+00
  2.1129701e-01
 -3.2023808e-01
 -3.0851051e-01
  3.8578037e-05
 -2.9943472e-01
  1.8699138e-05
 -2.8358477e-01
 -2.0127632e-06
  6.6970354e-01
  2.9033229e-01
 -1.1279375e-07
 -8.3452787e-06
 -2.1959373e-05
  2.5819636e-05
 -1.3052748e-05
 -2.9005469e-06
  6.6272408e-01
 -5.1162567e-04
 -7.3018323e-06
  3.1414139e-01
 -1.0445476e-05
  7.1358573e-01
 -4.9950040e-06
  1.8203717e+00
 -5.3747374e-01
 -7.7401263e-01
 -6.9116867e-01
 -4.0938836e-01
  8.7890327e-02
  2.5623302e+00
 -1.2718407e+00
 -6.5434115e-06
 -7.1134228e-01
 -5.8372361e-06
  2.2782123e+00
 -6.7776878e-06
 -5.1582628e-01
  4.8245920e-06
  3.2385864e+00
 -2.5035965e+00
  1.2125449e-06
  2.0841517e-06
  8.7109656e-06
  2.2959623e-05
 -3.9191086e-06
 -3.3160864e-05
  1.4535817e+00
 -1.3315240e-01
  4.8195457e-06
  6.0389864e-01
 -1.1736335e-01
  1.3142414e-05
 -4.1984090e-01
 -2.5666870e-06
  1.6091835e-06
  8.4675094e-06
  1.2487019e-05
  9.5550597e-05
 -1.2044400e-04
  2.4179566e-05
 -5.0288730e-07
  6.9458055e-04
  6.3778798e-06
 -3.2554362e-05
  2.8404700e-05
  1.4791905e-05
 -1.3654166e-05
  6.4481951e-02
  3.5991743e-02
  3.2956880e-06
 -7.2127200e-06
 -1.8286259e-07
  9.9370482e-05
 -6.4627020e-05
  1.2897322e-05
  3.4018813e-06
  5.7781879e-05
  5.4383304e-07
  1.6039255e-06
  2.1931901e-05
 -7.8614491e-01
  2.3573158e+00
  1.8685468e+00
 -5.4471426e+00
  1.9182676e+00
  1.3200701e+00
 -1.2691769e-01
 -3.9891654e-01
  1.3123480e-04
 -1.9582297e-01
  1.0929938e-04
 -6.5713966e-01
  1.1722617e-01
  4.8209125e-01
 -1.0924290e-05
 -6.2570274e-02
 -7.7264257e-02
 -9.5524073e-01
  8.2688820e-01
 -8.0141807e-03
  7.4158379e-05
  1.3747689e-01
  4.1640460e-04
  1.8354071e-02
  1.2197195e-05
 -1.6566517e-04
 -2.1877114e-04
 -1.1738662e-01
  3.2944530e-01
 -2.8528410e-05
 -2.4090383e-05
  2.5374615e-05
  2.7199649e-05
  3.2456610e-06
  3.8985174e-05
  3.2578760e-06
  2.2893155e-07
  4.5859956e-06
  3.5861456e-05
  1.1722803e-05
  1.9201486e-06
 -3.2501524e-05
  4.6948928e-05
  1.5336464e-04
 -2.9968534e-05
 -7.0107681e-06
 -6.6767352e-06
 -1.4154359e-05
 -3.2064527e-05
 -1.1375387e-06
 -1.5950251e-05
  1.0947856e-07
  9.6763006e-06
  2.1259842e-05
 -1.3058950e-05
 -4.5752035e-06
 -1.5301945e-05
 -6.7418291e-06
  4.7546050e-06
 -6.3266434e-06
  1.0716062e-05
 -1.6227576e-05
 -3.6086792e-01
 -5.2562289e-05
 -4.7748830e-07
  2.6157672e-05
  2.9282108e-05
 -1.4523478e-04
 -1.3251193e-06
  1.6844713e-05
 -1.4572454e-05
  1.5731576e-04
  2.8816423e-05
 -7.2808962e-06
  8.5370693e-06
  3.0123185e-06
 -4.4432522e-06
  5.3910816e-07
 -7.9058742e-07
 -8.3334407e-06
 -3.4641511e-05
 -1.7674391e-05
  1.2333602e-05
  4.9492146e-06
  2.0341722e-05
  2.5382313e-05
 -5.3213556e-05
  1.4015725e-05
 -1.7962844e-05
 -7.6173360e-06
  7.4341512e-01
 -1.3088331e+00
  9.6271038e-01
 -2.1217911e-02
 -4.6483222e-02
  5.6013256e-02
 -1.8333994e-01
 -1.1067298e-01
 -2.6364496e-06
 -5.6454418e-03
 -1.1297964e-04
 -1.1243297e-01
 -4.6512675e-01
  2.2700986e-05
 -2.3593651e-05
 -6.5347344e-02
 -3.3750143e-04
 -1.4156492e-01
  5.5387515e-01
 -1.8793358e-04
 -3.6757276e-06
  5.0499626e-02
 -9.3076646e-01
  2.2029777e-03
  1.1480302e-05
 -9.7800894e-06
 -1.0747110e-05
 -2.1121195e-04
  3.8342318e-05
 -3.6163665e-06
 -2.4300472e-01
  1.1302960e+00
 -6.6455615e-01
 -5.2923065e-02
 -1.1976087e+00
 -3.5146855e-02
  2.3361710e-01
 -6.8352975e-02
 -5.6427866e-02
  2.2528061e-01
  5.1182240e-01
  4.7313643e-01
  7.7996433e-01
 -3.9358932e-01
  4.6378893e-01
  3.7694737e-01
  6.9644356e-01
  2.1311907e-01
  1.8771103e-01
  1.4018601e-01
  2.7577364e-04
  1.1477079e-03
  2.1601510e+00
  5.7438800e-05
 -8.0839109e-06
  1.1227916e-05
  1.6438987e-04
  4.4608655e-04
 -3.6554091e-05
 -7.8544101e-05
  5.6872964e-01
  9.7847903e-01
  3.4658572e-01
  6.9185876e-06
 -4.4187255e-02
  1.8532792e-02
 -4.1824251e-06
 -3.4821950e-02
 -3.2298281e-05
 -2.0474870e-05
  2.4663119e-05
 -8.2649766e-03
  4.9473456e-06
  3.1935394e-06
 -3.5000074e-05
 -1.2960369e-05
  2.1529881e-05
 -3.7353315e-05
 -1.4464671e-03
 -5.9628004e-04
 -1.5135543e-05
  9.0978625e-07
 -7.9726364e-05
  3.0470168e-04
  1.8840119e-05
 -1.8331094e-06
  4.1935100e-06
  1.0194526e-05
  4.8147613e-05
  1.2389661e-05
  1.0358415e+00
  1.1055766e+00
  1.7136259e+00
  4.9266248e-05
 -1.1965155e-03
  2.2196227e-01
 -8.4545306e-08
  3.2820460e-01
  4.2921005e-05
 -1.5366290e-05
  2.5867005e-06
 -2.6982964e-04
 -3.5705966e-06
 -4.3746981e-01
  2.2144546e-05
 -2.2219287e-05
  2.0753524e-04
 -5.7388916e-06
  9.5640891e-05
  5.8270280e-06
 -2.1654401e-05
  1.7223342e-01
 -5.6950379e-05
  2.3838468e-02
  3.8229540e-05
 -3.9764433e-05
 -1.6323227e-05
  9.8565874e-07
 -2.6336605e-07
  1.7963555e-05
  1.0228823e-04
 -5.6162648e-05
 -1.4571442e-04
  5.3677732e-06
  4.5948829e-05
 -1.3790859e-04
 -5.9170634e-06
  1.5967371e-04
  5.2378573e-06
  1.6658998e-05
 -1.7814942e-05
 -1.2283160e-06
  5.9856070e-06
 -1.3251386e-05
  3.6575679e-05
 -2.1285216e-06
  2.8602856e-06
  2.4254099e-05
 -1.2342212e-05
 -7.1740369e-06
  1.4250666e-05
 -1.0673828e-05
 -2.9376049e-05
 -9.8403561e-06
 -1.2366315e-05
  4.0890311e-05
  2.4948255e-04
 -2.4674853e-07
 -1.3740965e-05
 -2.1348797e-05
 -2.3087246e-06
  3.4311997e-05
  7.5562598e-06
  1.3163794e-05
 -2.1197160e-05
 -3.8905593e-05
 -6.9865341e-06
  3.1553733e-05
 -2.8371076e-06
 -4.2318193e-06
 -9.3779354e-06
  3.1899558e-06
  1.8497631e-04
  2.0059104e-05
 -8.4961757e-06
 -1.9182985e-06
 -1.0427179e-06
 -7.5064390e-06
 -5.6539311e-06
 -2.5837571e-06
  1.7829496e-05
  3.2882581e-06
  3.9089177e-06
  1.9842269e-05
 -2.7820453e-05
  9.2568152e-06
 -3.3214890e-06
 -1.5337808e-05
 -2.1792353e-05
  1.7710119e-05
 -7.3066634e-01
  3.5687945e+00
 -2.9436582e-01
  4.6230722e-02
 -2.1223617e-01
 -2.4181711e-02
  4.7995761e-01
  1.4359331e+00
 -1.2578252e-01
  2.3487588e-02
  2.6240107e-02
  3.0864248e-05
  2.2530727e-01
 -6.0257703e-01
  5.3249998e-05
  1.1780264e-01
 -1.5366182e-05
  5.7893378e-01
  2.9523375e-02
  2.4127576e-05
  1.8446099e-05
  8.5459233e-06
  1.2876427e+00
 -3.6561638e-01
  4.2636530e-05
  3.3117585e-06
 -2.2084627e-05
  1.5654230e-02
  3.5724501e-05
  1.7488595e-05
 -6.6289613e-05
  5.7597405e-05
  3.3621984e-06
 -1.7892300e-05
 -3.5506170e-04
 -1.6279802e-06
  4.7341873e-06
 -1.7423892e-05
 -3.3145895e-07
 -1.5529008e-07
 -4.5900703e-07
  2.7681577e-05
  2.3498033e-06
 -1.1741012e-06
  9.1332458e-06
  1.5408934e-05
 -1.1417816e-05
  5.8810565e-05
 -5.6154363e-06
 -3.7642851e-06
 -2.4991482e-04
 -8.4067160e-06
  4.1225371e-06
  1.5832195e-06
 -1.3867922e-05
 -1.5659665e-05
 -4.5829353e-08
  4.6661953e-06
 -6.4341766e-06
  1.0266133e-05
  8.4224623e-01
 -9.2201139e-05
  3.6324671e-01
 -9.9438585e-06
 -1.0762931e+00
  3.1595815e-02
  3.9511157e-05
  4.1066945e-02
  1.7952252e-05
  1.4935111e-04
 -8.5246873e-05
 -3.7628979e-05
 -1.9627754e-05
 -3.5635789e-05
 -6.0667015e-05
 -1.4513537e-04
  2.1930899e-05
 -4.4498440e-02
  2.2047783e-05
 -5.3017928e-05
 -2.3219611e-04
  1.6854887e-01
 -2.0941652e-05
  8.0048392e-04
 -6.1568358e-06
 -1.5286127e-05
 -5.1579609e-05
 -2.1261067e-06
  8.6031578e-06
 -3.7483599e-06
  1.3439043e-05
  1.3605211e-06
  2.8052984e-04
  1.5766989e-06
 -2.0696385e-05
  2.5338608e-05
  1.1430482e-06
  5.9269172e-07
 -4.9597213e-05
  1.7952578e-06
  3.2422602e-05
 -1.4784977e-05
 -1.7750628e-05
  1.6771364e-06
 -1.9109983e-05
  2.4607320e-06
  9.3772032e-06
  8.3337936e-06
  1.1839453e-05
  2.8249342e-05
 -4.7211255e-05
 -9.9565768e-06
 -3.7281311e-06
  2.1440523e-05
 -2.4118894e-04
  8.0299738e-05
  7.8239718e-06
  4.8047955e-06
  9.9388387e-07
 -8.5191408e-05
  1.3686701e+00
 -1.9638665e-01
 -5.4703462e-01
 -1.8836114e+00
 -7.0760143e-01
  3.4998876e-01
 -5.7106674e-01
 -1.6325547e-01
  3.2696407e-04
 -1.6994500e-01
 -9.9721223e-02
 -5.5032212e-01
 -4.4384214e-01
 -5.1027695e-05
 -1.1585116e-04
 -1.7652464e-01
 -9.7095005e-02
 -9.3582541e-01
 -2.9293841e-01
 -4.8676308e-02
 -4.5723302e-04
  8.2844205e-02
 -1.6173023e+00
  4.9282396e-03
 -6.0843872e-06
  6.3453749e-06
 -2.1808119e-05
 -5.2287488e-04
  4.2809290e-03
  7.1287313e-06
  5.9477180e-01
 -1.3497997e-03
  6.8775184e-02
 -1.4120535e-05
  1.3436324e-05
  4.2607622e-05
 -1.4888389e-04
 -2.3917414e-04
  1.1715131e-05
  8.8998570e-07
 -3.0295414e-05
 -3.9926328e-04
  2.6236130e-05
 -3.6230485e-05
 -7.9981891e-07
 -2.5518774e-04
 -2.4354144e-04
 -7.2450705e-02
 -8.4213853e-02
  2.2886095e-05
 -2.4527115e-05
 -6.7500230e-05
 -2.6116055e-01
  7.4889906e-02
  2.2599612e-05
 -1.3668990e-05
 -1.1140782e-05
 -6.6774651e-06
  3.8613256e-05
 -4.8333454e-06
  7.4173284e-01
  4.8456266e-05
  9.1221136e-01
 -2.3086098e-04
 -7.5072294e-01
  5.0073708e-05
 -2.2790114e-06
  8.2570799e-02
  2.3323462e-06
 -3.6538494e-04
 -2.7440203e-05
 -5.6689503e-03
 -1.0952123e-06
 -4.9848791e-04
  1.0495554e-05
 -8.7382086e-04
  2.5356858e-04
  8.9913028e-06
 -9.9231118e-05
 -1.9924319e-05
  2.8091997e-06
  5.1268220e-02
 -9.5042255e-05
  8.9347537e-05
  3.2484051e-05
 -4.5633969e-06
  1.4056878e-05
 -3.6238579e-04
 -4.1944263e-06
 -1.6247810e-06
  3.1385446e-06
  2.4015033e-05
  1.2116928e-05
  1.5307452e-05
  1.8341991e-06
  5.7468133e-06
  6.4299616e-06
  1.6238901e-05
  6.8949789e-06
 -8.6565951e-06
  1.4712904e-05
 -3.0248923e-06
  5.7947338e-05
  5.5378034e-05
  2.3197397e-05
  6.4564588e-06
  1.0494989e-06
 -3.5403020e-05
  2.9909890e-05
  7.4324213e-05
 -8.2615276e-07
 -2.5940548e-07
  3.9460147e-06
  8.7574854e-06
  6.8100976e-06
 -2.2624210e-05
 -4.5003540e-06
  1.2720981e-05
  9.3026028e-05
  2.8935046e-06
 -1.5845502e-04
  1.0201082e-05
 -1.4181649e-08
 -1.9314220e-05
 -4.2142001e-05
 -5.9470090e-06
  1.0880044e-05
 -7.9258598e-06
  2.0260759e-05
 -1.7611697e-05
 -1.0218574e-05
 -2.3622009e-05
  9.8426601e-05
 -2.8710712e-05
  1.8040182e-05
  2.4682779e-06
 -1.8545019e-05
  6.3394464e-06
  7.6049146e-06
 -2.9753815e-05
  3.9620513e-06
  2.6972803e-06
 -1.0065880e-05
  3.0173433e-05
 -1.7395377e-06
  4.8098707e-07
 -3.5208639e-05
  2.1664511e-05
  4.1416242e-05
  6.2831743e-05
  2.2659391e-05
 -7.7046761e-06
 -3.2199150e-05
 -2.8294560e-06
 -7.6726747e-07
  1.6676555e-05
 -1.2975154e-06
  1.5527451e-06
 -5.8204938e-07
 -2.1004455e-05
 -1.6091921e-05
  8.1812613e-07
  1.0612605e-05
  2.9579462e-05
  2.3942649e-04
  2.0690431e-06
  2.1245694e-05
  1.4743078e-05
  8.8480920e-06
 -7.0384453e-06
  1.9188667e-06
 -2.4974566e-05
  4.9907678e-05
  7.9805950e-06
 -7.7381401e-06
 -1.6373915e-05
 -2.8771858e-04
 -6.7544429e-06
  1.6763344e-05
 -7.0237693e-06
 -6.5231598e-06
  6.1481969e-06
 -1.5913211e-05
 -1.0921316e-04
  2.6115755e-05
 -1.6968379e-07
 -1.6471688e-06
  1.1976441e-05
  7.6614342e-06
  1.0222913e-05
 -5.3815447e-06
  3.1532163e-06
 -1.9681820e-06
 -4.4694574e-05
  3.7345096e-06
 -4.0320178e-05
  1.2327604e-05
 -9.6127233e-06
  7.6770175e-06
  8.7712197e-06
 -4.2713913e-05
 -2.3434291e-06
 -3.3229368e-05
  5.0716819e-05
  5.2906148e-06
 -1.0821197e-05
  4.2590364e-06
 -9.4808928e-07
  5.3418762e-06
 -2.6446191e-06
 -1.2097452e-05
 -2.0894697e-05
  7.3595220e-05
 -2.3934985e-05
  2.2988177e-05
  3.8297890e-06
 -1.5691361e-06
  7.2916851e-06
 -4.2004235e-06
 -6.3175971e-06
 -2.7522652e-05
 -2.4619625e-05
  8.8927418e-06
 -9.8986848e-06
 -1.1719440e-05
 -2.1068392e-05
  1.2925916e-05
  1.8086233e-05
  2.7101255e-06
 -9.0826134e-06
 -1.5287771e-05
 -3.6428444e-06
  1.2833862e-05
  2.0359769e-06
  3.1265777e-06
 -1.5412628e-05
 -1.8617353e-05
  3.1516956e-07
  2.5103731e-05
  2.5179139e-05
 -6.3724953e-01
  1.4215126e+00
 -4.8835680e-01
  8.6940959e-02
  1.6574476e-02
 -2.2936727e-01
  1.1604575e-02
  3.5428407e-04
 -8.0766188e-07
  1.9875049e-04
  4.0955341e-04
  2.8880751e-01
  3.0423558e-01
  2.6219548e-05
  5.5315322e-05
  6.1010416e-03
  2.2478762e-01
  5.9198011e-02
  8.4000103e-02
  1.2032621e-04
  5.2602231e-06
 -3.4490024e-06
  2.2143590e-01
 -8.2522035e-03
 -4.2700826e-06
 -1.2964285e-04
  1.7692723e-06
  1.8112526e-04
 -6.3145990e-07
  3.4657839e-06
  1.1407412e-05
 -4.8816050e-06
  5.1358245e-05
  4.4501248e-06
  7.1625305e-05
  3.8456296e-06
  1.4794626e-05
  6.9837824e-07
  4.8151537e-06
  2.9361499e-06
  2.1668428e-05
 -2.1776632e-05
  1.5966041e-06
  8.9593404e-06
 -1.8362300e-06
 -1.8617777e-05
 -8.6483797e-06
  2.7708218e-05
 -2.2642691e-06
 -4.0154755e-06
  1.1169097e-04
  2.4857896e-05
 -5.5248220e-06
  4.2408701e-06
 -3.8574440e-06
  2.3546007e-05
 -2.3622097e-05
  1.5981788e-05
 -8.0275146e-05
  1.9126621e-06
  4.9627073e-07
  1.7390390e-05
  2.4259683e-05
  5.1896336e-07
  1.1955995e-05
  9.4437983e-06
  1.5967951e-05
  4.6113564e-06
 -1.0141661e-05
 -5.3034664e-06
  2.5756794e-06
 -5.3690128e-06
 -1.8400595e-05
 -4.7192611e-06
 -4.2458432e-05
 -2.5684127e-05
  2.1166905e-05
 -8.7724902e-06
  2.1003409e-05
 -1.7556929e-06
 -1.9667439e-06
  2.2015261e-06
  1.8390632e-05
  2.1864753e-05
 -6.1519560e-05
 -6.3059699e-05
 -2.5441891e-06
 -9.0956437e-06
 -2.7617538e-05
 -5.8867849e-06
  8.7265535e-06
  4.6125439e-05
 -6.8037707e-07
  1.3620293e-05
  4.8565283e-07
  4.6155663e-05
 -1.8180503e-05
 -1.8950581e-06
  1.6007534e-06
  1.5580557e-05
 -1.3650798e-05
  2.4112594e-05
 -2.0615418e-05
 -1.5626087e-05
 -1.6526996e-06
 -6.1016578e-07
  1.3002903e-05
 -1.9865818e-06
 -1.3736059e-05
  4.5617371e-06
 -8.2510478e-06
 -4.1670658e-09
 -2.5055488e-06
  6.0599882e-06
 -9.4043462e-06
 -8.1548118e-05
  4.7056492e-05
  1.3716603e-05
  7.4289192e-06
  4.3964437e-06
 -4.2907591e-06
  1.2846712e-04
  1.2368945e-05
  1.9880668e-04
  6.5772243e-02
 -5.2280411e-06
  1.2845600e-05
  7.8985337e-05
 -1.4779861e-05
  1.7407387e-04
 -8.1486640e-09
  9.2452765e-06
  1.3549666e-05
  1.4541648e-06
 -1.8437629e-06
  1.3909845e-04
  5.1568451e-05
  4.7274400e-05
  4.9428303e-02
  3.1025220e-06
  8.0217851e-06
 -6.9793259e-07
  5.2437990e-05
  2.9116622e-06
  1.1408933e-05
 -4.4823873e-06
 -1.1120760e-05
 -2.6246260e-05
 -2.5051397e-05
 -9.3880390e-06
  8.9999628e-01
 -2.4697430e+00
  1.5540433e+00
  2.7402997e+00
 -1.0195823e+00
  9.1522413e-01
  4.8732251e-01
 -1.0583821e-04
 -1.0714831e-02
 -1.2113509e-01
 -2.4347666e-04
 -1.1106378e+00
 -1.0191908e+00
 -5.7206899e-01
 -2.0019430e-05
 -1.2746969e-01
  1.8760283e-01
  1.7996248e-02
  3.8610074e-01
 -1.4261712e-03
 -7.4168288e-06
  1.8142271e-01
 -8.3717996e-01
 -5.3515092e-02
 -4.5122804e-05
 -2.7932192e-06
 -1.0312583e-03
 -6.4812109e-02
  2.8318938e-02
 -1.5333631e-05
  9.9552178e-01
  2.7385383e+00
  1.1038984e+00
 -2.9052985e+00
  3.8981440e+00
  2.4629620e-01
  1.9330833e-05
  9.0587437e-01
 -1.0933201e-01
 -3.8087010e-01
 -3.0733747e-05
 -4.7073990e-01
 -5.8093444e-02
  4.3054190e-01
 -2.4924625e-01
  5.5031989e-05
 -3.1356740e-01
  8.5782290e-01
  4.7225279e-01
 -9.5787838e-02
 -1.4896638e-04
  2.5844976e-01
 -3.9783314e-01
  1.8455867e+00
 -2.2757604e-06
  1.7488757e-05
 -2.6172691e-04
 -7.2786056e-02
  1.1160395e-01
  4.7508889e-05
  2.0849943e-06
 -5.4925854e-06
  3.9619576e-05
 -1.9346130e-06
  1.4379580e-01
  7.4638670e-06
  3.0630017e-06
 -1.8189415e-04
  8.1141361e-06
 -5.5039600e-05
  3.2423428e-05
 -1.8370776e-05
  1.0701715e-04
 -2.4876723e-04
  8.8730274e-05
  7.7770064e-06
  7.1327479e-05
 -3.2037755e-07
 -4.2731572e-06
 -6.1573355e-06
  6.3575840e-06
  7.2748321e-07
  2.2501229e-06
 -3.1719908e-05
  1.4013187e-05
 -3.6601646e-06
  1.7708344e-04
 -5.1037341e-07
  1.6580170e-05
 -4.1192441e-05
 -6.0220021e-01
  3.2143381e-01
  2.0740685e-05
 -2.2036251e-05
  3.1863835e-01
  1.0484980e+00
  1.2891002e-01
  2.6871553e-01
 -5.2404452e-05
  1.0515105e-05
  1.0613155e+00
  9.0544995e-07
  2.3010889e-01
 -2.1332296e-06
  3.1744459e-01
  1.5223996e-01
  2.4420932e-01
  1.2184069e-05
  1.1817673e-05
 -7.2638354e-06
  6.5953573e-06
 -5.4118309e-06
  1.0159893e-02
 -1.3614754e-05
  4.6100933e-05
 -1.1725647e-05
  1.2378494e-01
 -1.9257651e-01
 -3.7934324e-01
  2.0360649e-05
  6.3532531e-01
 -3.2674186e+00
  7.3777619e-06
  3.4476849e-05
 -1.7616496e+00
  2.7956958e+00
 -9.7100490e-01
 -1.7868848e+00
  7.5874734e-03
  1.1261141e-04
  1.9036571e+00
  3.5581335e-05
 -1.4527611e+00
 -1.5757516e-05
 -2.1720006e+00
 -4.7994289e-01
 -1.3379894e+00
 -4.1173621e-06
  9.2177652e-06
 -6.4902028e-06
 -2.9494483e-06
 -5.8149879e-05
  1.6405758e+00
 -4.3609428e-01
  6.1360838e-06
  4.5253901e-06
  8.3073556e-01
 -3.5627139e+00
 -3.1148977e+00
  8.6323321e-02
  6.3155862e-06
 -5.3854458e-02
 -5.5310901e-02
 -2.4371423e-01
  1.4164677e-01
  7.2624326e-02
 -7.3471420e-02
 -7.4068554e-02
 -1.2568812e+00
 -2.4785244e-01
 -8.8606495e-05
  1.8200373e-05
 -7.1946636e-07
 -4.7783142e-01
  5.0503651e-05
 -4.5699384e-02
 -7.5612098e-02
 -5.2529767e-06
 -6.7366712e-02
  3.0705294e-05
  2.7942118e-05
 -2.4208468e-05
  2.7808057e-05
 -1.0889582e-01
  4.8161775e-05
 -4.3225259e-06
 -5.7548873e-06
  6.9281614e-06
 -6.0163654e-04
  8.9608962e-05
  3.9658850e-01
  4.1394827e-01
  1.4527820e+00
  6.6925907e-01
  4.2061332e-01
  2.7445930e-01
  3.6842056e-02
 -3.7051675e-01
  6.1767751e-01
  3.5691655e-01
  8.4661394e-03
 -2.0362947e-02
  9.7969314e-05
 -6.1660910e-01
 -9.0560251e-01
 -3.3392259e-03
  5.7484818e-01
  1.5938951e-01
 -9.9625193e-02
 -1.6838056e-01
 -1.9322549e-01
  4.3569144e-06
 -5.1048678e-01
 -2.9253410e-02
 -6.7887729e-01
  6.9182534e-03
  7.8503206e-02
 -2.1400265e-05
  3.8755956e-01
  8.2506949e-06
 -7.7228015e-06
  3.3748784e-05
 -6.5632862e-06
 -4.5382075e-07
  1.0652244e-05
  2.8180186e-05
 -1.2873201e-06
  5.3559113e-05
 -1.0248005e-05
  3.3732858e-06
 -4.0925411e-06
 -9.3926537e-06
  2.8740742e-06
  2.5310487e-07
 -1.2211238e-05
  7.4800064e-06
  8.7550274e-05
 -4.3683021e-06
  5.0496783e-06
  1.4835119e-05
 -1.8048191e-05
 -1.0278533e-06
  3.7807571e-05
  6.2547506e-06
  1.0464658e-05
  1.7269720e-06
  8.8892766e-06
 -2.4755871e-06
 -1.3845105e-05
 -6.3011962e-06
  9.5014434e-07
 -1.3356374e-01
 -8.0228987e-05
  3.1937954e-05
 -5.6134559e-05
  6.3396321e-05
  1.2045211e-02
  3.1041455e-01
  1.7624499e-05
  4.8079157e-05
  4.7783947e-06
  4.4257886e-05
 -6.2716135e-05
  7.4123433e-03
 -6.6968054e-03
 -8.6467908e-06
  2.1269190e-05
 -3.1803540e-04
 -5.2246502e-05
 -2.6373048e-03
 -2.5172296e-06
  8.4366227e-05
 -1.1905504e-05
  6.9243200e-03
 -1.0298457e-03
  5.9248050e-06
 -1.4366893e-04
  5.2297055e-05
  4.1353568e-02
  1.3577824e-05
 -7.1440488e-01
 -3.8150972e-01
  1.0941788e+00
 -1.7384409e-05
  3.9629242e-01
 -7.2746289e-01
  3.6697292e-01
  4.0811899e-01
  2.1021758e-01
 -1.0059607e+00
 -3.6830497e-01
  9.6778011e-01
  3.9061284e-05
 -8.0220491e-02
 -1.0802433e+00
 -1.3282278e-04
  2.7491527e-05
  8.7567560e-02
  1.3995376e-01
  3.7189597e-01
 -9.4563475e-05
  5.7357167e-05
 -3.4635720e-01
 -1.4401767e-04
 -6.2500374e-05
  9.0930805e-02
 -3.3345971e-01
 -1.6179432e-06
  3.4878787e-02
  4.6205689e-05
  1.3299007e-05
 -3.4477325e-05
  7.4967500e-07
  7.5421674e-08
  7.4952061e-07
  4.6105920e-06
  5.6943868e-06
 -1.4629964e-05
  8.8458204e-05
 -1.7484192e-05
  1.8031553e-05
 -6.6525158e-06
  4.2489032e-06
  1.2795413e-04
 -3.8276157e-06
 -1.5509138e-06
  4.2876914e-06
  1.0294073e-04
  3.7514769e-06
 -3.3675482e-07
 -1.0487700e-05
  2.9653249e-05
 -4.9320879e-06
 -1.1761097e-06
  1.4062905e-06
 -8.4487510e-06
  4.5930051e-06
  1.6647482e-06
 -1.2863868e-05
  4.1528192e-06
  2.7760793e-06
 -4.8913103e-06
  3.1879524e-06
  8.4017984e-06
 -7.7350851e-06
  3.8776852e-06
  8.1263870e-02
  2.3749482e-05
  4.0681371e-06
  6.9503367e-06
  2.4275025e-05
  5.2228729e-06
 -3.0774381e-06
 -1.7195634e-05
  2.2778650e-05
 -1.1458989e-06
 -5.0994149e-06
  1.0482466e-05
  1.2098453e-05
  4.9821060e-06
  7.2031493e-05
 -4.7738598e-05
 -3.2220116e-05
 -9.0781468e-06
 -6.9930252e-06
 -1.2484932e-05
  8.0691432e-05
 -4.8969323e-05
  9.6290323e-06
  4.4614585e-06
  9.9863899e-01
  2.4848979e+00
 -8.8802451e-01
 -1.4581614e+00
  1.7220060e+00
 -2.6440561e-01
 -1.2413568e-02
 -4.2442331e-01
  4.2915601e-01
 -1.1715281e-01
  5.7712752e-01
 -2.6334509e-01
  1.0779217e-01
  7.2961181e-01
  1.4532436e-01
 -5.9851767e-03
 -1.4565037e+00
 -1.8936174e-02
  6.9888252e-01
  8.1046659e-01
  1.0583431e-01
 -4.4445610e-01
  1.7036006e-01
  1.2960710e-01
 -1.0855567e-05
 -1.4888943e-03
 -1.6512445e-01
  1.5968373e-01
 -2.0340519e-01
 -3.6414201e-06
 -7.3272049e-01
 -1.4944830e+00
 -3.6314946e-01
  8.9076918e-01
 -1.0713266e+00
 -1.5265352e-01
 -2.4912950e-01
 -1.3570690e-01
  1.3269463e+00
 -4.8432210e-01
 -3.3998165e-01
  1.2089796e+00
 -5.9320128e-01
  9.7837812e-01
 -5.5668342e-01
  5.8015871e-01
 -3.0935366e-02
  5.3270888e-01
 -4.4179708e-01
  5.0248727e-05
 -3.6380851e-01
  1.3300712e+00
 -1.4351410e+00
 -1.4794368e+00
 -7.0537591e-01
  1.1713390e+00
  1.1545660e-01
  1.7034125e-05
 -2.9301026e-01
  4.4845849e-01
  1.0795221e+00
  3.4670725e-01
 -2.0324677e-01
  2.6279804e-01
  9.5185256e-01
 -8.1350645e-03
  2.2450866e-02
 -3.1254426e-01
 -2.8077608e-01
  3.7964147e-01
  1.0596255e-01
  4.9280480e-01
 -1.4254437e-03
 -4.0266997e-01
 -1.9449119e-01
 -6.4471775e-01
 -3.4418485e-01
  1.2254207e+00
 -1.2592105e+00
  1.1915373e+00
  1.7112555e-01
 -7.0908105e-01
  8.2817197e-01
  6.1724007e-01
  1.1308249e+00
 -1.9504794e-01
  5.3522002e-04
  2.0233513e-04
  3.0305123e-01
 -3.4412236e-03
  2.8949621e-01
 -7.1689171e-01
  4.3206075e-01
  9.5626026e-01
  1.5802836e+00
 -4.7752269e-02
 -2.9371843e-01
  2.3711590e-01
  7.2353762e-01
 -9.1599412e-02
  9.5047808e-01
 -1.4024064e-01
  1.4152053e-01
  2.1095870e+00
 -7.3302400e-01
  4.7113839e-01
  1.5269370e+00
 -3.1043794e-02
  7.5619632e-01
  1.6077902e+00
 -1.0494045e-05
 -5.6710705e-05
  1.4534909e-01
 -1.1205461e-01
  5.4012585e-01
  3.7755337e-02
  1.3814765e-01
 -7.5105704e-02
 -4.8320625e-02
  1.7672488e-01
 -2.5897189e-05
  7.3526804e-05
 -7.0183887e-06
  1.0627020e-05
 -1.1907845e-06
  2.1536569e-05
 -2.1640579e-05
 -1.2110510e-05
 -5.5929923e-01
 -2.1330013e-06
 -9.8442733e-06
  5.0620306e-06
 -4.1634207e-06
 -1.1062529e-05
 -1.0049777e-05
 -1.3524327e-06
 -4.4431005e-07
 -1.2243989e-04
  4.0725088e-05
 -4.6453852e-06
 -7.2772073e-06
 -4.5711167e-05
 -3.3078057e-05
  1.9868204e-04
 -7.5363523e-06
 -1.7282883e-06
 -3.6437155e-05
  8.2126360e-05
  3.6821697e-05
 -8.0523995e-04
  1.8130087e-05
  2.7696240e-06
 -2.1018046e-03
  3.2143696e-05
  7.3594063e-05
 -2.5357589e-05
  2.6966536e-06
  3.0839794e-06
  5.4927152e-02
  7.7513478e-06
 -1.6825655e-04
 -4.3548036e-05
 -4.2953188e-04
 -4.6383533e-01
  1.8775361e-05
 -6.9492802e-05
  1.3296725e-04
  2.0034106e-06
 -2.2651249e-05
  4.6547942e-05
 -2.1365386e-06
 -7.5319767e-05
  5.9076292e-06
  9.0565351e-07
  6.8931554e-06
 -7.8515601e-05
  7.7502737e-05
  2.2798738e-06
 -2.6293594e-07
  5.1813754e-07
  3.5503197e-01
  9.3043327e-02
 -7.1717548e-01
  3.9932990e-01
 -1.0162009e+00
  9.5510542e-02
 -2.6647195e-01
 -9.8852128e-01
  3.1679901e-01
 -2.6324168e-01
  1.1473907e+00
  1.3841912e-01
 -1.3685501e-01
  2.0466423e-01
  6.9030508e-02
 -4.7035892e-02
 -8.5907263e-01
  2.4818105e-04
  6.6603380e-01
 -1.6242640e+00
  5.2666852e-05
 -4.4528615e-02
  3.2892683e-01
  1.8440551e-05
 -1.9668662e-06
 -4.3674954e-03
  1.7470509e-01
  9.3422575e-05
 -1.4003713e-01
 -1.9892607e-02
  4.2858094e-01
  2.9699993e-01
 -5.2143745e-02
 -8.8549602e-01
  4.4533383e-05
 -2.2220749e-01
 -4.1048504e-02
 -4.9989272e-02
 -2.4329859e-01
  4.2394480e-01
 -6.8547579e-06
 -2.3623933e-01
 -7.5718284e-02
 -9.6304417e-01
 -5.3688185e-03
 -2.7938145e-06
 -4.2322678e-03
 -1.1940690e-04
  2.6150158e-01
  3.3709363e-04
 -3.4919065e-06
 -1.9641129e-06
  2.3082724e-04
  8.8051629e-06
  1.3729822e-03
 -2.4670309e-05
 -1.3371359e-05
  6.9232522e-07
 -3.5892642e-04
  2.8213374e-06
 -2.5516840e-06
 -3.9909273e-06
 -8.3940822e-06
  4.7408128e-05
  3.6749018e-06
 -1.1638684e-05
  1.5042099e-04
 -7.3713140e-06
 -4.6013242e-06
 -1.7186354e-05
 -1.2614323e-04
  4.6674272e-06
 -4.9173218e-06
  4.8449160e-06
 -1.5842980e-06
 -1.8367457e-05
  9.9963268e-07
 -6.5563768e-06
  1.1266517e-05
 -6.1886763e-06
 -4.1988507e-05
  2.3927343e-05
 -4.1415475e-05
 -1.1102202e-06
  9.3151939e-06
 -1.3343314e-05
 -4.2492147e-06
  2.1253594e-05
 -3.5870992e-06
 -4.2620837e-07
  1.5318707e-05
  1.1759080e-04
 -3.3312240e-06
  5.2072946e-06
  2.5436455e-05
 -1.4297876e-05
  2.4466293e-05
 -5.2720461e-05
 -3.9793167e-06
  2.0427355e-05
 -3.3931599e-05
 -1.2575664e-05
  6.0716538e-06
 -8.5577463e-05
  4.4514096e-04
  9.1939210e-06
 -3.3790624e-05
  5.2330342e-06
  9.6994472e-06
  4.5580696e-06
  5.4886541e-06
  1.3954753e-05
 -2.0306311e-07
 -9.5478454e-06
 -1.5797376e-04
  4.8717061e-06
  2.2777592e-06
  4.3920343e-05
  9.1111388e-06
 -2.4551506e-05
  1.2085048e-04
 -2.4945506e-05
 -4.3093074e-05
  3.4886572e-05
  2.8578748e-05
 -2.2502130e-05
  2.8700691e-05
 -1.8990402e-05
 -5.9763075e-05
  2.5402210e-04
 -5.9804609e-07
 -9.0002859e-06
  2.9157045e-05
  2.6046171e-05
 -1.3036827e+00
  2.2893124e-05
 -2.0566597e-05
 -3.9247068e-05
 -1.0861232e-05
 -8.4098996e-05
 -4.0408417e-05
  5.6625086e-06
 -1.3634085e-04
  2.9564803e-06
 -5.5518838e-05
  4.8030783e-05
 -4.2914075e-05
  2.1898333e-05
  4.7185731e-06
  6.4673583e-07
  7.8258172e-06
  5.2806963e-06
 -1.2627896e-06
  7.6290457e-06
 -2.9222952e-06
 -2.3501409e-05
 -1.0784830e-06
 -4.4067917e-07
  2.0025522e-05
 -4.5563111e-06
  6.2089259e-07
 -1.6463882e-05
 -3.9598399e-06
 -4.9430764e-06
  3.9038514e-07
 -4.4738149e-06
  1.0435691e-06
  3.0125705e-06
  3.4445213e-07
 -1.0518234e-05
  2.0751640e-06
 -6.5008010e-07
  7.8013991e-06
  3.0651569e-05
  3.3749020e-06
 -8.3969699e-06
  1.5573058e-05
  2.1644277e-05
  1.9899778e-04
  1.7344991e-06
  9.1305683e-06
  5.2973646e-01
  1.7093947e-05
 -2.2925735e-05
  8.8939953e-05
  2.0088106e-05
 -6.3655822e-04
 -4.5545559e-05
 -3.1203526e-05
 -2.1990585e-01
  2.2034794e-06
  1.5542024e-05
  6.8227946e-06
 -1.0051663e-06
  1.8941301e-04
  6.7368455e-06
 -1.4075822e-05
  7.0513917e-05
 -3.0225860e-05
  3.2104599e-05
  1.0951609e-05
 -3.3161916e-05
 -5.8688220e-06
 -4.6282530e-06
  2.4615856e-06
 -7.4611817e-05
 -1.0460748e-06
 -1.0123472e-05
 -6.9446175e-04
  7.6583463e-05
 -4.2956118e-03
 -8.0351293e-01
 -7.4248421e-01
 -5.3659552e-01
  2.0664961e-04
  7.0003239e-03
 -8.0879629e-01
 -1.8514174e-01
  1.3065249e-01
  8.4940851e-01
  3.5084609e-05
 -8.5428655e-02
 -2.4027309e-04
  9.5396535e-03
  2.1043649e-02
 -5.8044670e-06
 -1.1420138e-05
  4.2187028e-05
 -4.3922544e-02
  4.0674304e-06
  5.2022133e-05
 -5.7900583e-05
  1.3654035e-05
 -2.9166556e-05
  1.0968477e-03
  1.0795363e-04
  1.1861721e-05
 -1.0316113e-05
 -2.8592084e-02
 -2.3456505e-06
  1.8655516e+00
 -1.8509075e-01
 -5.2592474e-01
  4.2536746e-07
 -3.5143279e-02
 -1.3657585e-01
 -1.0091982e+00
  5.6150949e-01
 -2.2789836e-03
 -1.8743666e-02
  3.5437527e-01
 -2.9977743e-02
 -3.6884472e-04
 -1.0470804e+00
 -1.0394181e-02
  1.3629222e-04
  3.1169428e-05
  4.5609415e-02
  3.4954515e-01
  4.4431734e-01
  4.9735615e-07
 -6.8269610e-02
  1.9829483e-06
 -2.0201950e+00
  3.5634363e-01
 -9.3099721e-02
  3.1214131e-02
 -8.6523496e-06
 -4.0537277e-03
 -3.2668058e-03
 -1.2624197e-04
 -1.1695117e+00
 -3.6444113e-01
  2.6427102e+00
  1.1981346e-04
  3.8183440e-02
 -3.7855563e-01
 -2.5066152e-01
 -3.0277669e-01
  1.9885714e-01
 -8.9133167e-01
  1.0014597e+00
  3.8605133e-01
  2.1602914e+00
 -8.0646873e-01
 -1.3691171e-05
 -2.2938268e-02
 -4.0684440e-04
  4.3301138e-01
  1.5731325e-04
 -4.3471600e-04
  1.0047495e-01
 -2.8168276e-01
  3.6066830e-01
 -2.9574323e-01
  7.1976334e-05
 -1.1179325e-01
 -5.3432610e-02
  2.1655505e-05
 -4.3485556e-02
 -5.5375636e-01
 -2.2994631e-04
 -1.1828514e-04
  8.9174042e-05
 -8.4725187e-05
  4.6993780e-05
  1.3327359e-02
 -1.1258491e+00
 -3.8702422e-01
 -3.2918502e-02
 -3.8493712e-05
  1.8742865e-06
  2.5333748e-05
  1.2810190e-01
 -7.5197639e-03
 -2.5446714e-06
 -1.8187729e-04
  1.9134783e-05
 -3.2528315e-03
 -8.4131612e-03
 -3.9688230e-04
  2.0085407e-05
 -1.7733937e-04
  5.8918740e-06
 -1.8942262e-04
 -7.4224818e-07
 -7.9557547e-05
  6.5685090e-06
  1.5127434e-03
 -1.4622633e-05
 -1.2070167e-05
  3.4469151e-04
 -1.9090591e-02
 -3.0599001e-03
  1.0936910e-05
  4.2933714e-01
 -8.2444854e-02
 -3.0005199e-01
 -2.2854383e-01
  6.3121080e-01
  3.5659220e-06
 -7.1451382e-06
  4.9675218e-05
  3.8689971e-01
  6.8590348e-03
  3.8846633e-06
 -9.3036379e-06
  2.6285845e-05
 -9.8384783e-02
  9.1252505e-06
  5.3610677e-07
 -1.6190541e-05
 -1.8392820e-05
 -1.9006322e-01
  1.0027019e-05
 -3.0174621e-04
  9.3140798e-06
  8.5892418e-05
  2.0046133e-04
 -2.8788188e-06
  3.3004704e-07
  1.0854404e-06
  4.2420008e-05
 -1.2560813e-05
 -2.4213789e-06
 -8.8385514e-06
  1.3625268e-05
  1.2591924e-04
 -4.9673534e-05
 -4.3311570e-06
 -1.6320020e-05
  3.4937671e-05
  1.8102086e-05
  4.7615190e-06
  5.6383446e-06
 -7.7535951e-06
  2.7284424e-08
  7.7473678e-06
  1.5944211e-06
 -1.4634526e-05
 -3.4004846e-05
 -5.3385484e-05
 -3.1286065e-05
 -3.9430206e-06
 -2.8491768e-06
 -4.0119659e-05
 -7.2345056e-06
  1.7420503e-05
 -1.3190049e-05
 -5.0021295e-06
 -3.1591805e-03
 -4.8364881e-02
  7.5068909e-01
  1.1826978e+00
  3.2541808e-03
 -4.2673966e-01
  2.7701342e-01
 -6.4945738e-03
  1.0153457e+00
  4.8615944e-01
 -1.6232908e-01
  1.9547364e+00
  2.5205436e-01
 -6.0078317e-01
  3.2452442e-02
  4.2628402e-01
  1.2403220e-01
 -7.0619786e-01
  5.9312993e-01
  3.0045646e-01
  8.7777335e-06
  4.7983390e-01
 -1.1646552e-01
  1.3013134e+00
  1.7318025e-05
  6.3173589e-05
 -3.4402668e-01
  4.8234584e-04
 -4.8627323e-01
  2.4430768e-04
  2.1097563e-05
  2.6316038e-05
 -9.9299541e-06
 -1.7059181e-05
 -1.7154095e-04
  6.1330238e-06
 -8.0164831e-08
  6.5288117e-09
 -2.9931206e-07
  1.7720296e-06
 -8.9287164e-07
 -3.3013703e-06
  5.1051902e-06
 -9.8439277e-06
  2.2580775e-07
  4.5984193e-06
  2.0845037e-07
  1.5699766e-07
  2.6502485e-06
  9.7993892e-05
  2.2040163e-05
 -1.8659577e-05
 -7.0110987e-06
  1.3279254e-05
  2.7410846e-07
  1.4740429e-05
 -3.5263731e-06
  4.0656199e-05
  2.6592455e-04
  1.4415714e-05
 -8.1015705e-06
 -3.2152544e-04
 -6.8378918e-02
 -5.6810313e-05
 -1.0485415e-05
  5.3756157e-06
 -2.1232925e-06
  5.0807066e-05
 -2.0789433e-01
  6.4850844e-02
  2.2204672e-08
  5.9640974e-01
 -5.5049786e-05
  7.0303788e-05
  9.4309537e-05
  4.2100605e-06
 -6.8978352e-07
 -1.6407741e-05
  3.1586464e-05
 -7.4008476e-06
 -6.5160407e-06
  1.8027044e-05
 -9.8091121e-05
  8.5856109e-06
 -1.4210577e-04
  6.0987677e-06
 -3.7411552e-05
 -6.2572217e-05
  1.0844653e-04
  2.5851157e-04
 -6.4924651e-01
 -5.5646926e-01
 -2.8640383e-01
 -3.7954795e-01
  3.8836011e-01
  3.4924650e-01
  6.3236237e-02
 -2.7522495e-01
  4.2876297e-01
  7.6718062e-01
 -3.1921354e-05
  5.2092528e-05
  1.9225462e-04
 -1.3204139e-03
 -8.5003984e-01
  1.2067827e-05
  5.7537563e-06
 -5.9105051e-01
 -5.8937812e-04
  3.2932425e-05
 -1.0919906e-06
  7.6462442e-05
 -2.1718256e-03
  3.7734967e-04
 -2.5214948e-04
  5.1370655e-05
 -3.8882990e-05
  1.8725356e-04
  6.6627465e-02
  1.8467737e-04
  4.2465585e-01
  1.4595120e+00
 -5.7993846e-05
  2.8634597e-02
 -4.9657741e-01
 -1.4339857e-06
 -7.1550430e-06
 -8.0468291e-01
  3.6986481e-02
  3.5797673e-01
  1.6369808e+00
 -3.0387102e-05
 -5.2926698e-05
  8.6891443e-01
  7.7131945e-01
  4.8558763e-06
  4.8234244e-07
  3.6595189e-05
  5.3247745e-06
 -4.1815933e-06
 -7.7067816e-01
 -5.2483302e-01
 -4.4286722e-01
  1.7426358e-04
 -6.6323177e-05
 -2.0544561e-04
 -3.6813708e-03
  4.0856639e-06
 -3.7174004e-06
  7.4335098e-01
  5.0132322e-01
 -2.0934758e+00
  1.3347526e-05
 -3.9279085e-01
 -1.0857525e+00
 -3.8246949e-06
  4.1137406e-05
  2.5685303e+00
 -1.7206297e+00
  1.5453312e+00
  1.4957114e+00
 -2.5614917e-01
  1.3442105e-01
  1.7071557e+00
  7.9186487e-01
  7.1154259e-06
 -1.1175138e-05
 -2.0170395e-01
 -8.3830535e-05
  2.8891030e-01
  4.5881110e-01
  9.5862311e-01
 -1.3689066e+00
 -4.3382609e-01
  3.7534058e-01
  1.3774597e-04
 -1.1567367e+00
  1.6127818e-07
 -2.0902164e-01
 -9.0641534e-01
 -2.0965528e+00
  7.3041481e-01
  3.7020329e-01
 -5.9729803e-01
 -2.4337271e-02
  1.7407157e-02
 -4.9968013e-01
 -9.7983247e-01
  1.5741516e+00
  3.8304675e-01
  2.4923596e-01
  9.3647495e-02
 -6.3243550e-01
 -9.5549520e-05
 -2.0188012e-05
  3.1337366e-01
 -1.3140281e-05
  1.4403749e-05
  1.3492225e+00
 -9.8130387e-01
 -6.3367325e-01
  8.3977777e-01
  8.7833554e-01
  6.0806209e-01
 -1.0554512e+00
  5.3903663e-01
  4.6165049e-01
 -9.1708511e-01
 -1.7165561e-01
  9.8004647e-02
 -2.4116747e+00
  4.1327780e-01
  1.8643968e-01
 -1.1004658e+00
  1.5055696e+00
  2.8721958e-02
  3.7006471e-02
  3.1804803e-01
  9.6661079e-01
  5.9475434e-01
 -2.3043538e-03
 -5.5376697e-01
  1.3436311e+00
 -1.5285506e-05
  1.6648482e-01
  1.5567355e+00
 -1.3096970e+00
 -1.8167751e+00
  1.8141062e+00
  1.0022415e+00
  1.6501893e-01
  1.6700324e+00
 -7.7588475e-01
  1.1237328e+00
  6.5137583e-01
  2.3878038e-02
 -1.2844069e-01
  1.9393270e-01
 -4.1397498e-03
  2.1031559e-01
 -5.0322074e-01
  6.5224349e-01
 -1.7099641e-01
 -1.6589586e+00
  1.0414020e+00
 -7.0505661e-01
 -1.7440453e+00
  9.1114715e-02
 -1.0485702e+00
 -1.1929507e-01
 -4.6618325e-01
  7.7432267e-02
 -1.2631825e+00
  2.8992113e-01
  5.8979118e-01
 -6.5918291e-01
  5.6629401e-01
  1.4671890e-01
  1.8176572e+00
 -3.0364525e-03
  1.2800716e+00
  9.8861116e-01
 -9.7282702e-01
 -1.3285756e+00
  1.1232818e-01
  3.9541817e-01
 -3.4866242e+00
 -1.5037465e-01
 -2.0989845e+00
 -2.5166416e-01
  1.0468551e+00
 -7.0003758e-04
 -9.0213448e-02
  1.7050850e-05
  3.2493368e-05
 -2.5603578e-03
  1.3663043e+00
 -1.0063668e+00
 -3.8595339e-05
  8.0786496e-01
 -7.5641364e-02
  2.4236313e-05
  4.4900009e-01
 -2.3559991e-01
 -4.7951317e-01
  5.5556726e-01
  5.0941509e-01
  1.1396618e-01
 -9.1461307e-01
 -5.5052763e-01
 -1.4826095e+00
  6.5101546e-01
 -1.1638114e+00
 -2.6425574e+00
  4.8658490e-01
 -1.0335202e+00
 -8.3088303e-01
  3.8702545e-01
 -1.1404529e-01
 -3.3871216e-01
 -9.5430797e-01
  2.4486282e-03
  4.1802345e-05
  2.7532032e+00
 -7.2654420e-01
  4.2168576e-02
  1.2537953e+00
 -8.6467244e-02
  1.2521354e-04
  9.6197003e-01
 -9.6623339e-03
 -4.4544557e-01
  1.2777225e+00
  6.3101880e-02
  4.4876990e-01
  7.1702339e-02
 -7.4395269e-01
 -1.4863418e+00
 -9.2706475e-03
 -2.3786354e-01
 -2.8738012e+00
 -5.4769778e-01
  1.2903666e-01
 -4.6461794e-01
 -3.4038970e-01
 -9.9912614e-02
 -5.6396967e-01
  7.4542367e-01
  2.8967456e-04
  2.9760969e-01
 -9.8362312e-02
 -8.7113118e-01
 -1.6697995e-02
  1.3872403e+00
 -2.1858038e-01
  3.2039461e-04
  6.7764908e-01
 -1.2525024e-05
 -2.0960112e+00
  2.1164591e+00
  8.3412153e-01
  4.1424203e-01
  1.2404470e+00
  5.8550388e-01
  7.3683411e-01
 -7.9899704e-01
  1.1123098e-01
  1.3492161e+00
  1.2190183e+00
  1.4617485e-01
 -9.1216825e-02
 -1.7874216e-01
 -1.2405058e-05
  6.5666711e-05
  7.5495052e-03
 -2.4608928e-05
  3.3457411e-05
  6.4743555e-01
  2.1290740e-01
  8.7112094e-06
 -4.8524603e-02
  6.8957794e-01
  1.0663015e-01
 -4.0363947e-01
  1.4282992e+00
 -9.4417042e-01
 -8.1974614e-01
 -1.8440381e-01
  7.3352639e-06
  8.6430854e-01
  2.4835335e-01
  3.9224291e-01
 -2.5538498e-01
 -1.7900728e-01
 -2.5091712e+00
 -1.1814947e+00
  2.0625758e-01
  3.3358967e-01
  1.2785501e+00
 -4.9370719e-05
 -3.0647539e-06
  2.2106848e+00
  3.4501460e-01
 -6.5658021e-01
  1.8995095e+00
  1.0458361e+00
  3.9702001e-05
 -1.8593373e+00
  8.2223874e-01
  7.7360077e-05
 -6.2244087e-01
  1.2183753e+00
  6.7517191e-01
  1.1721392e+00
 -1.8011578e-04
  1.6214047e-03
 -2.0733509e-02
  7.3641229e-01
  3.7392822e-01
  1.0375527e-01
  1.8232933e+00
  1.1342852e+00
  3.1077978e-01
 -2.1069314e-01
  2.3584367e-01
  7.2643805e-01
  3.4781048e-04
  1.7848735e-01
 -1.0131129e+00
 -1.9240183e+00
 -1.9655507e+00
  2.4315734e-01
  8.4234887e-01
  3.8400824e-05
  1.1667204e+00
 -5.0550830e-01
  7.0431106e-06
 -8.4432918e-01
  4.4115049e-01
 -6.3538551e-02
  9.4705313e-01
  3.0684802e-01
  1.8123473e-01
  1.0282445e+00
  1.4570265e+00
  6.2066201e-02
 -9.4642872e-01
  4.5024928e-01
  4.1737625e-01
 -1.0282778e+00
 -5.6785822e-01
  1.6867003e+00
  1.4798242e+00
  1.6472848e-07
  5.1723118e-06
  4.0294020e-07
  2.1179585e+00
  3.2267071e-02
 -3.5546868e+00
  6.0384160e-01
  6.4112939e-04
 -6.1759645e-01
  6.0921329e-01
  6.0020678e-02
 -3.1932201e-02
 -2.1359355e+00
  1.1962692e-01
 -1.6873477e-01
 -9.6551114e-01
  1.7333262e-01
  6.5667063e-01
  5.1921349e-02
 -4.2175251e-04
  6.8796277e-02
  2.7316263e+00
  1.9202001e+00
 -6.4195937e-01
  1.6679708e+00
  1.0000254e+00
 -1.5866642e+00
 -5.2955579e-07
 -2.0746418e-05
  4.0021792e-02
  5.1468813e-01
  9.7160393e-01
 -1.1618155e+00
  1.6103609e+00
  9.6312848e-05
 -1.4236166e+00
  8.1942135e-01
  6.0576807e-05
 -3.5051573e-02
 -6.7326838e-01
 -2.9772803e-01
 -1.8473092e+00
 -1.2291087e+00
  8.1456935e-01
 -7.6651158e-05
  5.5998236e-01
  3.6326193e-03
 -9.3930365e-05
  3.3157653e-01
  1.7378745e+00
 -5.4138247e-02
 -5.5707181e-01
  2.5744036e-01
 -2.9876083e-01
 -5.9663267e-05
  7.8990437e-02
 -8.9951825e-01
  1.3163679e+00
 -7.3691577e-01
  6.2176287e-01
  3.6682183e-01
  2.2186475e-01
 -1.2532057e+00
 -1.0785272e-02
  1.0287913e-05
 -2.4745186e-01
  1.4006246e+00
  5.4690772e-01
  1.5674610e+00
  1.9190763e-01
  4.5765522e-01
  2.4036841e-01
 -7.4111843e-01
 -9.0221781e-01
  1.4656260e+00
 -2.4641702e+00
 -9.5391917e-01
 -5.6327236e-01
 -1.4771430e+00
  4.5746389e-01
 -3.5617584e-01
 -2.6952422e-01
 -4.8311055e-01
  1.0780153e+00
 -4.1985983e-01
 -7.3647272e-04
  1.3448313e+00
  3.0166790e-05
  1.7820435e-05
  6.0622915e-05
  1.3685767e-02
  3.8491645e-01
 -2.9912577e-03
  8.8472636e-03
 -4.0985745e-01
 -1.0316553e+00
  5.4835577e-02
  9.6414688e-06
 -1.2319623e+00
 -1.9858005e+00
 -1.8775762e+00
  8.9026886e-01
 -9.9445447e-02
 -1.6147220e+00
  1.4132255e+00
 -3.9320574e-03
 -1.0123210e+00
  1.4739934e+00
 -7.5013906e-01
 -1.4647136e+00
  3.0241996e-01
  5.3194106e-01
 -3.2538128e-01
  7.9952317e-01
  2.5960931e-01
  2.9791075e-01
  5.8928814e-02
  3.2974139e-01
  1.3521113e+00
 -8.1260008e-01
  1.1271111e-05
 -4.7118157e-01
 -1.4913044e+00
 -5.4810699e-02
  3.3032790e-02
  8.2617623e-01
 -7.9571205e-01
 -3.4768343e-02
 -1.2181530e+00
 -1.3607695e+00
 -1.6058698e+00
 -9.5465016e-01
 -5.4985261e-01
 -3.5245758e-02
  1.4740034e+00
 -1.3030936e+00
 -1.4913193e+00
 -7.0388293e-01
 -7.7542233e-01
  1.0532829e-01
 -1.7081236e+00
  1.2520485e+00
  1.3442321e-01
 -8.3801699e-01
 -5.2487439e-01
 -1.8795151e+00
  1.1629198e+00
 -1.5851604e+00
 -9.6602583e-01
  6.1617661e-01
  1.7675650e+00
  1.4334245e+00
 -1.3931421e+00
 -4.2297350e-07
  4.7982443e-02
  1.2617111e-01
 -1.4444487e-01
 -6.3950915e-06
 -2.9789671e-01
 -2.2843561e-01
 -1.3284158e+00
 -3.4985077e-01
  1.4508688e-06
 -8.7003773e-06
  6.8759473e-05
  1.6866594e-05
  4.6884497e-06
  1.2212218e+00
  2.1666697e-06
 -7.1450031e-01
  5.5125383e-06
  7.7191635e-06
  8.7041566e-03
  1.3501829e+00
 -1.3759892e-01
  1.2622564e-05
 -4.9223682e-01
  6.7309397e-01
  4.6952069e-01
 -1.3088574e+00
  8.7268427e-07
 -4.9480239e-08
 -4.2787352e-01
 -5.8355863e-06
 -3.3738655e-05
  1.8975424e+00
 -6.9046986e-01
  3.8656735e-01
 -4.0867051e-01
  1.2982993e-05
  3.0744345e-06
  6.7996365e-01
 -8.8777626e-03
 -2.1176863e-06
 -6.2441862e-01
  1.3824730e+00
  7.1706384e-02
 -1.2027421e+00
  2.3391212e-05
  5.3101970e-04
  7.4166155e-01
 -4.2777142e-06
 -1.6587992e-05
 -1.2301726e+00
  7.6492649e-01
  8.6555243e-01
 -6.1044598e-01
  3.6231744e-05
 -6.7655928e-06
  3.7234843e-01
 -2.0188210e-05
 -8.7864482e-06
 -2.2152552e-01
  3.0606240e-01
 -1.6843829e+00
 -3.4810483e-04
 -4.9225916e-03
  5.3409948e-03
  4.1732517e-01
 -1.9864686e-07
  3.3928769e-05
  1.2568969e-01
 -2.1065052e-01
  2.6017031e-01
  1.3157489e-02
  1.3320145e-05
 -1.2272893e-05
  7.4272579e-01
 -2.2315582e-07
 -1.6215681e-06
  6.6040598e-02
  9.3695424e-02
  7.4702609e-01
 -5.1064652e-01
 -1.6730593e-05
  1.3048929e-06
  4.1189483e-06
  5.5258725e-02
 -5.5711084e-06
  4.2394146e-01
 -6.8761629e-01
  1.1197708e+00
  3.8885459e-01
  1.1226534e-05
 -1.7179160e-06
  2.5922693e-05
 -2.1628719e-06
 -1.3035677e-05
  1.0519920e-05
  1.0897462e-04
 -5.4943142e-05
  4.6537036e-05
 -1.9266172e-06
  1.4845335e-05
  2.6588314e-06
  1.6116226e-01
  2.5614494e-05
  8.2664382e-01
 -1.5244462e+00
  1.1085044e+00
  3.4527026e-02
  2.1438278e-05
  1.0103628e-05
  8.1857625e-06
 -1.7950399e-06
  8.2488705e-06
  8.3045441e-01
  4.6291023e-01
 -1.2651342e+00
 -2.7166378e-01
 -1.3674714e-05
 -1.9767599e-06
  5.7352909e-06
  9.8962463e-02
  2.2373499e-05
  1.5567309e+00
 -2.5165671e-01
  8.7036082e-05
  1.2286495e+00
 -5.6107692e-05
  1.2515354e-05
 -1.5498468e-05
  2.2885249e-06
  4.1687227e-04
  2.9029191e-01
  6.0250789e-01
  2.3824692e+00
 -3.8501620e-01
  5.7161474e-06
  9.7307766e-06
  5.7061607e-05
  2.7037868e-03
  6.5929844e-06
 -2.1388839e-01
 -5.7157259e-02
  3.3374426e-01
  6.3953787e-02
 -1.4260002e-05
 -4.8454017e-06
  3.3341175e-06
  1.2180598e-05
  2.0339573e-06
  1.7497044e+00
 -4.3111685e-01
  7.2428113e-01
  1.1052772e+00
  6.4990904e-06
  3.2823318e-06
  7.0691776e-06
  3.5907804e-05
 -1.7610177e-05
  5.4446023e-02
 -1.5913014e-01
 -5.4109842e-01
  6.8382519e-01
 -2.0422960e-05
  2.7337235e-06
 -7.6015353e-06
 -1.1148467e+00
  1.6224947e-05
  9.6886528e-01
  1.9038883e-01
  5.4078883e-01
 -1.2488470e+00
 -1.0240508e-06
 -7.2007533e-05
 -7.2740229e-05
 -1.6382448e-06
  1.7772192e-05
  3.2978389e+00
  1.2229581e-04
  1.2567107e-04
 -4.9399137e-06
  3.3223678e-06
  4.2201253e-05
  1.5961448e-05
 -6.4113009e-01
 -6.9432383e-05
  1.8954875e-01
 -3.7169524e-05
 -2.0613259e-01
 -1.5689220e-01
  2.4754106e-06
  4.2631086e-06
 -3.0287370e-06
 -1.9483130e-01
 -2.7968452e-05
 -5.9136611e-01
 -2.7324477e-02
  6.1285067e-01
 -1.0181829e+00
  6.3054763e-06
  6.4997017e-05
 -1.8232560e-06
 -9.5104665e-02
  4.9067352e-05
  5.0216377e-01
 -2.0095237e-01
  2.0072817e-07
 -1.3461050e+00
 -9.8132705e-06
 -4.4433709e-06
 -2.2737809e-06
 -6.8230546e-01
  4.3270629e-06
  2.7606389e-01
 -3.1678244e-02
  8.8249469e-01
 -1.1473337e+00
 -6.4663259e-06
  1.3043143e-05
 -2.8736845e-06
 -1.4521340e-04
 -2.1881967e-06
  1.2940366e+00
  7.0455201e-02
 -4.1073370e-01
 -1.6698060e+00
 -2.5997915e-06
  8.9804223e-07
 -2.0614482e-06
 -1.1029172e+00
  3.1627900e-05
  5.1284474e-01
 -3.3348654e-03
 -5.7567811e-01
 -9.7301924e-01
 -2.0635243e-05
 -4.0528935e-06
  2.3505138e-04
 -3.0673561e-01
  6.3851635e-06
 -3.4018964e-01
  7.4286407e-05
  3.7671116e-01
 -4.5491794e-01
  1.0492177e-01
  5.5375642e-01
 -5.8776206e-01
 -1.4940351e-01
 -1.0677545e-05
  3.4372723e-01
  6.5731043e-01
  8.5567993e-01
 -7.1453661e-01
  1.1631369e-06
 -8.6224176e-08
 -4.7502684e-04
  3.0106705e-05
 -3.0796033e-05
 -1.0941270e-01
 -1.6808963e-05
  4.7861099e-01
  1.9306626e-05
  1.0792372e-01
  4.6165505e-01
 -1.0272925e+00
 -1.4722015e-04
 -1.5072131e-05
 -9.5051318e-01
  5.7441980e-01
  1.7630026e-01
 -9.9297756e-01
 -1.2457913e-06
 -6.9420444e-06
 -5.3422123e-01
 -3.2461798e-05
 -1.7128270e-06
  1.0171475e+00
 -2.3492837e-01
  1.0407535e+00
  1.1045214e+00
  7.7381149e-02
  2.6244152e-01
  4.7822562e-01
 -1.8221501e-05
  5.2968753e-06
  2.2103557e-05
  9.4585896e-01
 -5.5168141e-02
  3.8118762e-01
 -1.1843732e-06
  4.7108070e-03
 -9.9736676e-03
 -5.1667809e-04
  1.4717852e-05
 -1.7081383e+00
 -2.5507501e-01
  1.7823374e+00
 -3.6389673e-01
  1.2238713e-02
  2.2822320e-03
 -2.4971908e-01
 -4.0154559e-05
 -1.0234966e-04
 -1.8612759e+00
  2.4705936e-01
  1.4457012e+00
 -2.3858526e-01
 -2.1559559e-05
  2.3876892e-01
 -8.9825356e-01
 -1.6746806e-03
 -3.9202159e-06
 -7.0804620e-01
  6.0317081e-01
 -2.4297246e-01
  2.0021020e-01
  1.3412382e-04
  1.2880690e-05
 -5.4161674e-01
  2.4232847e-06
  7.4113796e-06
 -6.7911166e-01
  6.4436418e-01
 -4.1305342e-01
 -2.4063021e-01
  1.0147556e-05
  1.1550076e-05
 -5.8488226e-01
  7.4803752e-06
  3.4630896e-06
 -3.4053406e-01
  9.6399778e-01
  6.2363660e-01
 -4.2652896e-01
  1.1597495e-05
  1.4604673e-04
 -9.5452633e-05
  1.9282539e-05
  5.2310852e-06
 -2.4122944e-04
  8.5236812e-01
 -2.1796203e+00
  4.4449607e-06
 -2.3431767e-06
 -4.3322243e-06
 -4.5286137e-01
 -4.5883480e-05
 -1.1258291e-05
 -3.5890207e-07
  4.9969263e-02
  1.2444241e-01
  5.9080231e-01
  4.4047115e-06
 -8.0725513e-06
 -7.5825322e-01
  3.9028528e-06
 -2.9519899e-06
 -3.4491307e-01
  1.3448014e+00
 -3.5873434e-01
 -6.4895704e-04
 -5.5551649e-05
  3.4376029e-05
 -7.3958233e-02
  1.2142488e-05
  6.6434477e-06
 -3.9923552e-01
 -2.8821389e-05
 -9.3902595e-02
 -6.5087506e-06
 -5.2942041e-06
  8.6969440e-06
 -4.8902839e-01
 -2.3913706e-05
 -2.3122007e-05
  6.5566099e-01
  3.2867789e-01
  3.9433837e-01
 -3.9717931e-02
 -2.8981391e-05
  7.8158782e-06
 -8.5448414e-01
 -6.4986693e-07
 -4.3929222e-06
 -4.8970637e-01
  1.9833169e+00
 -1.7568927e+00
  4.0714011e-01
  1.3691326e-06
  7.3856036e-06
 -1.6124911e+00
 -5.9163585e-06
 -1.7733784e-05
  1.2152291e-05
  1.3651629e-02
  5.1740724e-01
 -5.5029577e-01
  3.9405750e-06
  1.9363040e-05
 -4.6085998e-01
  1.5004896e-04
 -2.7916791e-05
  4.2331317e-01
  1.8767931e-01
 -6.4696771e-01
 -2.6438010e-01
  1.2413758e-02
  1.2413758e-02
  1.2413758e-02
  1.2413758e-02
  1.2413758e-02
  6.7241365e-01
  6.7241365e-01
  6.7241365e-01
  6.7241365e-01
  6.7241365e-01
  1.4738771e-01
  1.4738771e-01
  1.4738771e-01
  1.4738771e-01
  1.4738771e-01
  1.0924964e-01
  1.0924964e-01
  1.0924964e-01
  1.0924964e-01
  1.0924964e-01
  1.6452778e-02
  1.6452778e-02
  1.6452778e-02
  1.6452778e-02
  1.6452778e-02
  1.8038879e-01
  1.8038879e-01
  1.8038879e-01
  1.8038879e-01
  1.8038879e-01
