nep4 3 Ba Zr S 
cutoff 8 4 150 20
n_max 4 4
basis_size 8 8
l_max 4 2 0
ANN 30 0
 -1.4502278e-01
 -1.7977756e-02
  8.8413768e-03
  2.0654046e-03
  2.7145080e-02
  4.9208687e-04
  3.6897309e-04
 -9.4281352e-04
  7.4711390e-04
 -1.0282964e-01
  2.0009758e-04
  3.1861497e-04
 -5.3584547e-04
  5.2106136e-04
 -1.3605464e-03
  4.3588050e-05
  5.8518781e-04
 -2.3247079e-04
  2.8333085e-04
 -6.9406023e-04
 -2.8183517e-01
  2.7821003e-04
  9.5637442e-05
  4.6987971e-04
 -3.2305994e-04
  9.2584552e-04
 -9.8368973e-06
 -5.8006501e-04
  2.9843979e-04
  4.0636881e-04
  5.7530046e-01
 -7.5005213e-05
 -3.9425778e-01
 -4.1567105e-01
 -2.5906935e-01
  4.8190050e-02
  1.2395353e-02
 -3.4266364e-04
  4.5634314e-04
 -6.8782282e-01
 -1.1287977e-04
  9.3852985e-04
  3.1510374e-04
  1.1131451e-02
  7.8695826e-02
 -1.7835461e-03
  3.3571367e-04
 -3.3852039e-04
  3.5569936e-04
  7.6095440e-04
  3.1428796e-04
  1.8871714e-04
 -2.7277417e-04
  3.6547027e-04
  1.0249963e-01
 -8.9551817e-05
 -4.6976572e-03
  2.2788535e-04
 -4.2107041e-04
 -9.9871063e-04
  5.1367155e-04
 -5.1117223e-04
  6.9518443e-05
  5.2908150e-04
 -3.8088587e-04
  3.6871241e-04
 -1.0567374e-03
 -1.7498285e-04
  1.0152163e-04
  1.2025576e-03
  1.1902235e-03
  3.8518306e-04
  7.0170914e-05
 -1.2892795e-04
 -8.5403945e-04
 -4.4489661e-04
 -1.7068197e-04
  1.9884773e-03
 -7.2384404e-04
  3.3503689e-04
  1.0868612e-04
  1.7432056e-04
 -4.9045804e-04
  1.0131297e-03
 -7.4139032e-05
 -1.0724005e-04
  1.7579329e-03
  5.0555903e-04
  7.5168842e-05
 -5.1294686e-04
  1.6974158e+00
  1.1753997e+00
 -1.2534325e+00
 -1.2681563e-03
 -5.9540975e-01
  2.1061790e-03
 -7.8427111e-04
 -2.9041656e-04
 -3.2984960e-01
 -7.8093714e-01
  2.9650083e-04
  2.0112777e-04
 -2.0500994e-04
  4.5466027e-03
  1.3769114e-01
 -5.3091923e-04
 -8.7081041e-04
  1.9405131e-03
  1.7231337e-03
  1.4606816e-02
  2.7137593e-04
  2.3926843e-04
 -3.3422298e-04
  2.6598165e-03
  3.7247968e-01
  1.8550169e-04
 -1.0526931e-03
  8.1429840e-05
 -5.6750447e-05
 -1.2556878e-04
 -1.0014713e-04
 -3.4195618e-04
  3.2740771e-03
 -3.3064530e-04
 -2.0014707e-04
 -4.3557552e-04
 -5.6603167e-04
  4.2023079e-05
 -1.8942408e-04
  5.7760137e-04
  6.8279705e-06
  3.5354454e-04
  1.7336864e-04
  4.7866142e-05
 -1.4994465e-03
  1.5318892e-02
  1.0018281e-04
 -9.4562047e-04
 -1.5347840e-04
 -3.3537013e-05
 -1.4265301e-05
  8.1080441e-05
 -1.1434767e-03
 -7.5599196e-04
  1.7217109e-03
  2.4853393e-03
 -8.9626497e-05
  6.3960419e-05
 -4.0926874e-04
 -1.0838820e-04
 -2.6143100e-03
 -7.6163968e-04
  2.1741356e-04
  6.6116318e-04
  1.3098984e-03
 -1.8522792e-04
  8.1337331e-04
  3.9973023e-04
  9.4285386e-04
  1.1123443e-03
 -3.2349778e-04
 -9.5474563e-04
 -2.0849898e-04
  7.2641845e-04
 -5.7174000e-03
 -2.7260793e-04
  6.6700348e-05
 -1.7547061e-05
  4.0878647e-05
 -3.7779790e-04
 -6.5557247e-06
 -1.7227876e-04
 -1.0457227e-03
  5.7883596e-04
 -6.7633204e-04
 -3.4322916e-04
  1.4128980e-04
 -3.3864335e-04
  7.0999435e-04
  7.0595701e-04
 -8.5194165e-01
 -1.5328003e-01
  5.1794827e-01
  2.5507568e-03
  1.4408767e-04
 -5.1250908e-04
 -2.6960796e-04
 -4.9807376e-04
  1.7597862e-03
  9.7829169e-03
  2.4838795e-04
  3.6864931e-04
  7.9187099e-04
 -4.9308856e-04
 -1.0753379e-01
  1.1834622e-03
 -3.1141361e-04
  2.4802197e-04
 -5.9474865e-04
 -7.2366360e-04
 -1.7748117e-04
  9.0000511e-05
 -3.0292309e-05
  1.4379575e-04
 -2.4092134e-02
 -6.3413411e-04
 -1.1757756e-04
  4.4105365e-04
 -3.4719196e-04
  4.1387614e-04
 -2.3399957e-01
 -2.2155038e-01
  3.8099042e-01
  7.0093080e-02
  4.2738657e-02
 -3.4199733e-01
  9.9707057e-04
  2.4704795e-04
  2.5713677e-03
  7.3091708e-02
 -2.9890472e-05
  4.9755431e-04
 -7.5941783e-04
 -6.2962784e-04
  1.5708691e-04
  2.2827485e-04
 -1.9092750e-04
  1.0418912e-06
 -1.4559979e-03
 -2.6533229e-03
 -2.2491671e-03
 -1.8554289e-03
  2.0561852e-04
 -8.9133173e-06
 -2.0284781e-02
 -3.3768648e-04
 -4.0735846e-04
 -8.1331069e-05
 -1.3633689e-04
 -2.7414740e-04
  5.5377752e-02
  3.4190554e-04
 -1.7386782e-01
 -1.4471942e-02
 -6.0632810e-02
  1.0285556e-03
  5.1488052e-04
  9.0194690e-06
 -8.6376013e-04
 -9.2521664e-03
  2.2204156e-04
 -4.2358032e-04
 -7.5414241e-04
 -2.5825788e-05
  7.7003492e-03
 -6.0891486e-03
  2.3463623e-04
 -1.9924990e-03
  2.4724126e-04
  4.5173585e-01
  1.7966914e-03
  3.7086970e-04
 -7.3335518e-04
 -1.7904755e-04
  1.5843783e-02
 -1.9308219e-04
 -1.4483071e-03
  2.6473519e-04
 -5.7234738e-05
 -4.1925642e-03
  6.8156252e-04
  1.1677294e-03
 -1.3426617e-01
 -3.4892464e-03
 -1.3040261e-02
 -1.6294321e-04
 -7.8899140e-04
 -2.6629213e-03
  4.4892416e-03
 -2.3806517e-05
 -2.6730970e-05
  3.0148693e-04
 -2.3258758e-04
  8.4228232e-04
  2.1306702e-03
 -3.9165595e-04
  7.5147761e-04
 -2.4951296e-04
  1.8234739e-04
 -9.0471745e-05
  1.3143301e-04
 -1.8067802e-04
  6.7978595e-05
  4.2948753e-04
  8.2320739e-03
  3.6283513e-04
  2.3535328e-04
  2.5389841e-04
 -4.5698127e-04
  3.9371813e-04
 -8.3808392e-01
 -3.4495542e-04
  3.0067876e-01
  5.6074935e-01
  7.0754230e-01
 -2.9615667e-01
  1.1218453e-04
 -4.2984404e-05
  3.8721061e-01
 -1.8537905e+00
 -1.3120852e-03
 -4.8664151e-04
 -1.7626956e-04
 -1.2874185e-02
 -2.6039662e-02
  7.8799456e-02
 -3.9122507e-04
 -2.4263382e-04
 -1.3775459e-02
  4.3142963e-06
 -4.8764070e-04
  8.3832804e-04
 -2.4831537e-04
 -5.6642696e-04
 -5.1603043e-01
  4.3020977e-04
  1.3953945e-04
 -1.0011944e-05
  8.3231082e-04
 -4.8406696e-04
 -1.4236804e-04
 -1.5403730e-03
  2.7547147e-02
 -8.6254629e-05
  3.1638416e-04
  2.7237469e-01
 -4.1090013e-04
 -1.3766477e-04
  1.1778480e-04
  8.4557585e-02
 -3.1884716e-04
  2.3474923e-04
  4.3510582e-04
 -2.4160891e-04
 -2.1533738e-03
  2.1852707e-04
 -6.0666265e-04
 -8.6398992e-05
 -1.4196336e-04
 -6.1642961e-04
 -2.2254120e-04
 -1.4701808e-03
 -3.0987179e-05
 -9.3938643e-04
 -9.4854116e-04
 -4.1018844e-05
 -8.1281312e-04
  6.3000487e-05
  5.4862082e-04
 -1.9549437e-04
 -3.3537665e-04
 -1.4316761e-04
  1.4799558e-01
  4.4590455e-01
  3.3931336e-01
 -1.0835980e-01
 -5.1709579e-04
  1.7454819e-04
 -6.7937635e-02
 -5.2328009e-02
  4.7364426e-04
  2.7664311e-04
  3.5805857e-05
 -4.3576197e-03
 -1.4143311e-03
 -1.7332974e-04
 -2.2373251e-05
  9.3084775e-05
 -2.9757153e-04
 -1.8557321e-04
 -6.4931536e-04
 -1.2402733e-04
 -3.8174499e-04
 -1.2825379e-03
 -2.3052709e-02
 -6.4263894e-04
 -7.1216916e-04
  9.8848854e-05
 -8.2002720e-05
 -1.6842257e-03
  1.7784407e-05
 -2.5235076e-04
  1.8746212e-04
  2.5123416e-04
  3.1242085e-05
 -5.5138889e-04
  3.7165146e-04
  5.9605180e-05
  4.5900626e-04
 -4.6373179e-04
  3.9289103e-04
  2.5270259e-04
  7.2963681e-05
  3.6854603e-04
  9.0995243e-05
  1.0806943e-03
 -6.3595980e-05
  1.9900789e-04
 -8.6375294e-05
 -2.5677317e-04
 -2.7470916e-04
 -5.7130877e-04
  1.2320024e-03
 -2.4221394e-04
  3.1377588e-04
 -3.1055126e-05
  5.1320810e-04
  1.0304544e-03
  9.6462481e-04
 -2.9383754e-04
  7.3286051e-01
  1.8245741e-04
 -9.9277568e-01
 -1.0839388e+00
 -1.3039497e+00
 -1.3208741e-01
 -2.2083565e-05
  1.0599000e-04
 -9.5542860e-01
 -1.0052863e+00
 -5.0896069e-04
 -5.0448300e-05
  1.9123174e-04
  1.6785972e-03
  7.4901752e-02
 -3.1146196e-01
  1.7801842e-04
  7.2041218e-04
  5.4592779e-03
  2.8939122e-02
  2.6287803e-02
 -6.4432638e-04
 -4.2263450e-04
  1.8647352e-02
  4.7994396e-01
  4.0423864e-04
 -5.9545593e-04
 -1.2668966e-04
  6.7951291e-06
 -2.1494648e-03
 -5.2979548e-04
  2.8756229e-04
  1.1745507e-03
  2.5028614e-03
  4.0617737e-04
  2.9345701e-04
  9.5618208e-04
  1.0773779e-03
  5.6441751e-04
 -3.2252324e-04
 -1.0471601e-04
  2.8137502e-01
 -2.8959411e-04
 -3.8621886e-04
 -1.0583994e-03
  5.9822033e-04
  5.9480437e-05
 -2.1044308e-04
 -4.3344221e-04
  7.0251938e-04
  3.9753079e-04
 -4.1294689e-04
 -7.5607182e-04
  4.4473945e-05
 -3.5850109e-05
 -2.5766187e-05
 -1.5677075e-04
  5.2615356e-05
 -3.5750255e-04
 -2.3667855e-04
 -7.5342357e-01
 -5.0142693e-04
  3.4694271e-03
 -6.6533405e-01
  3.4461060e-04
 -2.8804917e-04
 -1.1805129e-04
  2.1120671e-02
  1.9254838e-04
  1.9625609e-01
  6.0546783e-05
  4.4662264e-04
  5.4358003e-05
 -3.7372217e-04
 -5.3062063e-04
  1.2718892e-04
  1.3642431e-04
  1.3316375e-03
 -7.0847373e-04
 -1.9407632e-04
 -4.2145533e-04
 -7.4100133e-04
  3.2246369e-04
 -5.9220276e-04
 -1.1852574e-04
 -9.6958400e-05
  2.6089349e-04
  5.9734393e-05
 -6.1798969e-04
 -4.1035327e-04
  7.6017797e-02
 -3.2087194e-04
 -7.9602584e-02
 -5.7103130e-04
 -1.0697736e-03
 -3.5315499e-04
  2.3547973e-04
 -1.7920978e-04
 -7.6998003e-05
  2.8489690e-04
  2.1316414e-04
 -5.8177509e-04
 -4.0458559e-05
 -1.6424901e-04
  2.8123221e-04
  1.7576664e-05
 -1.6809894e-04
  2.9354329e-05
 -7.5408992e-05
  3.6000281e-05
 -2.2015497e-04
 -9.7621261e-05
  1.3131212e-04
  6.6344166e-04
  5.0091159e-05
 -3.5467709e-04
 -9.9558802e-04
  1.3695035e-05
 -3.4620982e-04
  5.1829341e-04
  1.3236878e+00
 -3.3926852e+00
  1.6976645e+00
  1.3547741e+00
 -4.0210304e+00
  1.4937340e-01
 -7.2907115e-04
 -4.5363288e-04
 -2.2704858e-02
  2.0165914e-01
 -1.0656979e-04
  9.4594521e-05
 -5.2253267e-04
 -1.6810563e-01
  1.7594321e-03
 -8.3813703e-01
 -8.2299410e-04
 -6.1678700e-04
 -3.8082656e-02
 -4.1571558e-02
  4.2546800e-04
  2.8320006e-04
 -6.0553793e-05
  1.1036988e-04
  9.8834060e-02
  6.7971589e-04
 -2.3931380e-04
  6.0034513e-06
  1.7555764e-04
  1.4404763e-04
 -1.7321627e+00
 -6.0694152e-01
  3.7880477e-01
  1.0110998e+00
  7.4476928e-01
 -1.2356415e-01
  4.1653773e-05
 -5.6574203e-04
  4.2818493e-01
  1.1332016e-01
  5.3355945e-03
  9.5580122e-05
 -2.7040008e-04
 -2.3280077e-02
 -7.0412084e-02
  5.8456457e-01
  4.5620938e-04
  5.6809338e-04
 -6.1630863e-01
 -6.0897303e-01
 -2.1578079e-01
 -6.7601650e-04
  1.1315234e-05
 -3.3683115e-01
 -1.1056722e+00
 -9.0257602e-04
 -4.1042520e-05
  2.5879638e-04
  1.9692404e-03
  6.6333070e-02
  1.5891565e-04
 -8.1302982e-04
 -1.4086942e-04
  1.3818521e-03
  6.4497901e-05
 -5.5385026e-04
 -7.2562916e-04
 -2.8954825e-04
 -1.9713462e-04
 -1.1206877e-03
 -5.2161839e-05
  4.8125267e-01
  8.8913344e-05
  7.3728705e-04
  1.7306766e-04
  2.7795113e-05
  4.1813336e-04
 -1.7094771e-04
 -1.3540176e-04
  4.2092812e-04
 -5.0349941e-04
  4.8001058e-04
  6.5754278e-04
 -2.2710899e-04
 -7.2379777e-04
  2.6544949e-04
 -2.7645630e-04
 -8.3244691e-04
 -2.5160451e-04
 -1.8155380e-04
  6.3543231e-04
 -1.0366854e-04
 -1.5496647e-03
 -3.5652811e-05
 -4.4303283e-04
 -1.7333604e-04
  8.2544814e-04
  3.3153268e-04
 -1.6915138e-03
 -6.6943589e-04
 -4.9267028e-04
  1.4209644e-04
  2.4021938e-04
 -1.5493145e-04
 -6.2910942e-05
  1.4914121e-04
  1.4587518e-04
  6.6902110e-04
  6.1441213e-04
 -3.1030888e-04
 -4.9076148e-04
 -5.5775081e-04
  5.4171111e-04
  1.8428753e-03
 -2.6465932e-04
 -1.1931011e-04
 -8.7099464e-04
  4.2243261e-04
  1.0527470e-04
 -2.5240428e-04
 -4.2370324e-05
 -6.3657935e-05
  3.8382760e-04
 -6.6052034e-04
 -3.6664738e-04
 -1.9581367e-03
 -1.9811673e-04
  3.1667293e-04
 -3.5052992e-05
  2.3742659e-04
 -1.0888333e-04
  3.2216628e-04
  6.3156575e-04
  2.0977863e-05
 -5.2414584e-04
 -4.4947432e-04
 -4.7130536e-04
  8.4412156e-04
 -8.3994026e-05
  3.4711027e-04
 -3.3448439e-04
  1.2033675e-03
  1.7565743e-04
  3.0270900e-04
 -8.2822045e-04
  2.5148588e-04
  2.1543459e-03
 -6.5415812e-04
 -1.2879584e-03
 -4.0311745e-04
 -1.2815106e-03
 -8.4217248e-04
  1.9647572e-04
 -4.5839103e-04
  2.5740787e-03
 -1.7274746e-03
  2.4773731e-04
  8.3239365e-04
  4.3373686e-04
  4.0215123e-04
  1.0516582e-03
  3.0614130e-04
 -3.1921250e-04
 -1.1252592e-04
 -5.6635411e-03
  2.4264865e-03
  8.6864697e-05
 -2.6842885e-04
  2.0042443e-04
 -1.6380286e-04
 -1.6708949e-04
  5.7362278e-05
  2.6522117e-05
  6.6002220e-02
 -8.4128966e-05
 -5.1638891e-04
 -3.9128896e-05
  8.1058004e-04
  2.5775857e-04
 -9.2840150e-05
 -1.0374578e-03
 -9.1106223e-05
  7.7222404e-04
  8.3131698e-04
 -1.9985443e-04
  1.2604034e-04
  6.8533648e-04
 -2.7220725e-04
 -7.5899181e-04
 -5.2916206e-05
 -2.3336260e-04
 -1.0128484e-04
  4.1970652e-05
 -5.2051945e-04
  1.5450451e-04
 -3.1471180e-04
 -2.0656639e-04
 -3.5066516e-04
  5.1912962e-04
  8.1719198e-05
 -3.0937657e-04
  6.1752304e-04
  2.0252907e-04
 -1.0178733e-04
  6.5436860e-04
  6.4782903e-04
 -3.0531693e-04
  1.9822469e-04
  1.6827563e-04
 -3.8303362e-04
 -4.6963544e-04
 -6.2340015e-04
 -1.6981397e-04
  1.1671453e-03
  3.3675940e-04
  6.6932065e-05
  6.0269260e-04
  1.4314358e-04
 -1.2802328e-04
 -5.8094534e-04
 -3.4947676e-05
 -2.1590354e-04
  1.0144669e-03
 -1.0415764e-04
 -1.2069304e-01
 -1.0313478e-04
  9.0889211e-05
 -8.9297583e-04
  3.9568491e-05
 -2.4067482e-05
  6.1997422e-04
  4.5625775e-04
 -1.2739240e-03
  4.7686804e-04
 -7.5036054e-04
  2.8700504e-04
  2.6124002e-05
 -4.3465939e-04
 -7.3534634e-04
  2.5866914e-04
 -2.4544100e-01
  4.9671927e-04
 -7.0066094e-02
 -9.6530861e-01
 -3.0582428e-01
 -3.2889929e-02
 -1.2678875e-03
 -3.5443608e-04
 -9.4314568e-02
  1.8748128e+00
  7.2782743e-04
  9.8444056e-04
  4.8967212e-04
  7.3575749e-05
  1.5652044e-02
 -3.5607945e-02
  2.3210597e-04
  2.7453196e-05
  7.9651149e-03
  4.7349851e-04
  5.7375414e-04
  3.8685571e-04
 -1.7957042e-04
  9.2011731e-04
  2.6344949e-01
 -5.3788612e-05
 -9.2603348e-04
 -4.5473033e-04
 -3.2640962e-04
  4.4111343e-04
 -2.9176005e-04
  2.1687688e-04
 -1.0230227e-05
 -8.8366593e-04
  4.9531687e-04
 -1.6298950e-04
 -1.4660365e-04
  3.9897682e-04
  7.3856179e-05
  3.2299070e-04
 -3.9143706e-04
 -2.7347091e-04
 -1.3045109e-03
 -1.5328260e-03
 -6.5193191e-05
  5.3232204e-04
 -1.3852066e-04
 -4.5310892e-04
 -6.2480837e-04
 -1.1006669e-03
 -5.2124262e-04
 -3.4643817e-04
  1.6964768e-04
  6.1305553e-05
 -2.7345816e-04
 -9.2196955e-05
  5.5317191e-04
  7.8217743e-04
 -4.6270702e-04
 -1.8760160e-04
  6.4811065e-05
 -6.9001057e-05
  3.8487810e-06
 -3.3057298e-04
  1.5788695e-05
 -2.2902101e-04
 -7.6044067e-05
  4.4372445e-04
  5.7678472e-04
 -3.6138549e-04
  1.7163928e-03
 -4.6782405e-04
 -9.5439755e-05
  1.6694496e-04
 -1.0567109e-04
 -1.0095509e-03
  6.9348468e-04
 -2.3303906e-05
 -5.0976151e-04
  6.6554517e-04
 -1.3015638e-04
 -5.4304153e-05
  2.6617784e-04
 -1.9016264e-04
  4.0109229e-04
  2.8624665e-04
 -1.1151137e-04
 -3.8582552e-04
  1.4664241e-04
  9.1811395e-05
  5.9534088e-03
 -2.8936012e-04
 -1.2391391e-01
 -2.2274768e-03
 -2.1665546e-04
  4.1163032e-04
 -1.0102946e-04
  3.0866626e-04
 -4.4157889e-04
  1.6929042e-04
  3.9414026e-05
  3.6274776e-04
 -1.3922822e-03
  9.8413002e-05
  1.5063257e-02
 -1.2212574e-03
  2.2023708e-04
 -6.1026885e-04
  1.0983973e-03
 -7.8879502e-06
 -9.5127951e-05
  1.8919482e-04
 -8.2824455e-04
  5.8864331e-04
  2.1985154e-04
  1.3510085e-05
 -4.9955357e-04
 -7.6165679e-04
  1.1656035e-06
 -3.9808170e-04
  2.3975694e-01
 -2.9603380e-01
 -1.7058785e-04
 -1.4355710e-03
 -5.8842731e-01
 -7.2405571e-01
 -4.9575172e-02
 -2.3757751e-01
 -8.7352395e-01
  1.3035624e+00
  2.3100328e-01
 -4.3185219e-01
 -3.3161736e-01
  7.1790637e-05
 -3.6389792e-01
 -1.8619561e-04
 -3.3383551e-01
  3.4768340e-01
  6.6521746e-01
  3.5984749e-01
 -1.9905687e-04
  9.2144227e-01
  7.3652460e-05
 -8.0810422e-01
  1.8464180e-03
  1.6529491e-04
  6.7953748e-01
 -3.7144723e-03
  4.3503914e-04
  4.3116799e-01
 -4.6517599e-01
  1.0205858e+00
  2.7731625e-02
  1.6335325e+00
 -6.5607989e-01
 -7.7673310e-01
 -9.9116218e-01
 -9.2519474e-01
  1.5834360e+00
  2.6031497e+00
 -1.2896230e+00
 -5.8508462e-01
 -7.8799278e-01
 -5.4079399e-04
  2.2698734e+00
 -1.1083784e-02
 -5.6848550e-01
  4.0343618e-01
  2.5990937e+00
 -2.4651539e+00
 -8.1509054e-02
  5.2401227e-01
 -7.6235466e-02
 -7.8509986e-01
 -5.3372056e-05
 -1.3270079e-01
  1.4652735e+00
 -1.3950077e-01
  2.7857115e-04
  6.0682571e-01
 -1.0617463e-01
  5.0946075e-02
 -1.0111259e+00
  2.6752171e-03
 -1.4757916e-01
 -1.0606968e-04
 -1.2994731e-04
  1.0357235e-03
 -1.7536213e-04
  3.8984613e-04
  5.5448059e-04
 -4.6852714e-04
  1.5601164e-03
 -7.0117827e-04
 -3.0397993e-04
  1.7546116e-03
 -1.9310199e-04
  1.6405134e-01
  1.5725298e-02
  1.5284536e-04
 -7.9779845e-04
 -2.7353162e-04
  3.0559553e-02
 -6.9241220e-04
  5.1417217e-05
 -1.9041287e-05
  2.2422544e-04
  2.8464771e-04
 -9.0048753e-04
  4.3046591e-04
 -8.1890410e-01
  2.3167620e+00
  1.8674400e+00
 -5.6940131e+00
  1.9217212e+00
  1.8387176e+00
 -1.1780309e-01
 -3.9978904e-01
 -4.1434348e-02
 -1.1997540e-01
  4.7898591e-03
 -3.6443582e-01
  5.0808113e-02
  4.6764538e-01
  1.6077372e-04
 -1.3457622e-05
 -2.0099015e-04
 -1.1069119e+00
  1.0318882e+00
 -9.7267088e-03
  8.5006061e-04
  4.6394640e-04
 -1.2142980e-02
 -3.0625220e-02
  4.8143396e-04
  1.0093215e-03
 -3.2308869e-04
 -6.6764243e-02
  3.7657954e-03
 -1.0795267e-03
  9.6007842e-01
 -6.8239927e-01
 -9.5693164e-02
 -1.6436895e-04
  3.5158595e-05
 -3.7937891e-02
 -2.2127517e-04
  1.5601850e-01
 -9.5370458e-04
  5.7092856e-04
  2.2072742e-04
 -1.9781906e-03
 -4.3160052e-04
  5.1725536e-05
 -6.8804616e-04
 -4.5859491e-05
 -9.4342045e-05
 -6.7555072e-04
 -4.7777669e-04
  6.3408725e-04
 -2.0244163e-04
  3.2366652e-04
  1.7838170e-04
 -8.2654093e-04
  1.9388291e+00
  5.3139797e-06
  1.4903229e-04
 -4.5714222e-04
  3.8018410e-05
  2.0699680e-04
 -2.1599545e-01
  1.8954983e-03
 -4.6416309e-01
  1.1956220e-03
 -5.1222748e-01
 -9.7385757e-02
  6.6534127e-03
  1.3584230e-04
 -2.1735457e-04
  5.7508709e-04
  1.0789017e-03
  1.1219230e-02
  3.0382202e-04
 -5.1528204e-04
  3.5698473e-04
 -3.6760501e-04
 -3.3636199e-04
  7.9754293e-02
  1.5998579e-03
  4.8500928e-04
 -2.3798578e-04
  4.8562721e-04
  2.5502738e-01
 -4.8853853e-04
  1.3951858e-04
  2.1823869e-05
  3.1521270e-04
  9.5891912e-05
 -4.1305475e-04
  6.2986321e-05
  8.0581552e-01
 -1.3093904e+00
  1.1180525e+00
 -4.5301367e-02
 -9.1992117e-02
  1.7193882e-02
 -1.9192959e-01
 -2.4737231e-01
 -3.0289814e-04
 -1.6433510e-04
 -1.1604743e-04
 -3.3610103e-01
 -7.0539534e-01
  9.1683143e-04
  2.3697921e-04
 -1.0204493e-02
 -2.3341431e-04
 -1.3861842e-01
  7.8878272e-01
 -9.6020248e-04
 -2.6357756e-04
  6.5280735e-02
 -1.0110612e+00
 -1.2825312e-04
 -3.2657941e-04
 -2.8199426e-04
  1.7082228e-04
 -5.6427037e-03
 -2.0453712e-04
 -2.0999918e-04
 -2.8512964e-01
  1.0704918e+00
 -6.8895423e-01
 -1.9665334e-01
 -1.1989846e+00
 -2.6621856e-04
  1.6582748e-01
 -7.4507833e-02
 -1.7146189e-02
  1.4030983e-01
  4.8820087e-01
  5.1880360e-01
  7.7324784e-01
 -4.1506943e-01
  4.5412999e-01
  3.9287257e-01
  8.0859804e-01
  2.0331517e-01
  9.9744059e-02
  6.2123969e-02
  7.4856699e-04
  1.2953683e-03
  2.1974764e+00
  2.0424782e-03
  7.9688069e-04
 -8.4140332e-04
  1.0405413e-04
  5.0708335e-03
 -6.8273002e-06
  2.0022743e-04
  5.6851470e-01
  1.7932658e+00
  2.9763550e-01
 -1.0242217e+00
  1.3198580e-01
  1.6553663e-03
 -3.0741137e-01
 -3.4640141e-02
  4.9605116e-04
 -4.0731104e-03
 -5.1928957e-05
 -1.4691425e-02
 -5.7280122e-04
 -3.3329081e-04
  9.5295552e-05
  2.9456208e-04
 -1.6535755e-02
 -2.0778258e-04
 -2.5827493e-04
 -1.6947888e-03
 -1.5446653e-04
  3.9827108e-04
 -2.0937512e-03
 -8.7510976e-05
 -1.6763245e-04
 -1.1780100e-03
  3.9246056e-04
  2.2394648e-04
  2.5458371e-03
  4.5405052e-04
  1.1033487e+00
  1.0353640e+00
  1.7559052e+00
  8.7137456e-04
  5.4585779e-01
  1.8325864e-01
  6.1792869e-04
  1.0415509e-01
  1.7508019e-04
 -2.5030534e-04
 -5.4363144e-04
 -1.4569518e-02
  8.0654172e-05
 -1.5218587e-03
 -7.3407061e-04
 -5.2743772e-04
  1.8485351e-03
  8.7322615e-04
  7.5169248e-03
  2.7142622e-04
  2.6941003e-04
  1.2867221e-01
 -2.2820737e-03
  2.2495431e-03
  4.4905616e-04
 -7.7830511e-04
 -1.4455081e-04
 -7.1601622e-05
  1.7824739e-01
 -6.6461012e-05
  2.2428236e-05
  2.1447796e-04
  1.4954301e-03
  1.3479131e+00
 -3.1822890e-01
  2.7281807e-05
  5.2261876e-04
  1.5795266e-03
  3.9078243e-04
  9.2408492e-04
 -1.2573391e-06
  3.3924607e-05
  4.8277213e-04
 -8.6887485e-05
  4.4059681e-04
  6.4569044e-01
 -5.2502489e-01
  6.8094007e-05
 -2.9111590e-04
  6.5240776e-04
  6.5090635e-04
 -4.2519200e-06
 -9.0086146e-04
 -4.7768652e-05
 -4.5172189e-04
 -2.3975750e-04
  3.8081146e-04
 -1.2837981e-03
  1.2686690e-03
  1.1314843e-04
 -2.6539178e-04
  1.9305483e-04
 -1.9053695e-06
  1.2417859e-04
 -5.9072056e-05
  1.4012499e-04
 -3.3463153e-01
  8.0603769e-04
 -6.9003529e-04
 -6.6051194e-05
  1.3364505e-04
 -5.2503706e-04
  2.1587776e-04
  3.2322314e-05
  3.9935705e-05
  1.2880447e-04
 -2.8180037e-04
 -4.1152325e-05
  3.7839741e-04
  9.1065172e-05
 -2.0698676e-04
 -4.7163921e-04
 -2.9051770e-04
  2.2906257e-04
 -8.4152399e-04
 -1.8486998e-04
 -2.5988020e-05
  1.5452760e-04
 -1.1773343e-04
 -2.2525068e-04
 -7.7376521e-01
  3.6283689e+00
 -3.3040604e-01
  1.2928762e-02
 -2.2326747e-01
 -5.5637042e-04
  6.2483096e-01
  1.5268137e+00
 -5.8327671e-03
  5.5120541e-03
  4.8268314e-02
  7.9425240e-01
  4.8110703e-01
 -2.5814676e-01
  1.2243417e-02
  9.1494583e-02
  1.0845513e-03
  5.7671624e-01
  7.5136428e-03
  9.2701660e-03
  6.8058871e-04
  9.4299880e-04
  1.3891450e+00
 -1.6178554e+00
 -1.5166333e-04
  4.4239245e-04
  3.5796815e-04
  1.5305937e-02
 -7.5932068e-04
  3.1954314e-05
 -4.6963029e-04
  2.2606009e-04
 -5.2846754e-05
  1.4696669e-04
  1.5108423e-04
  3.3235227e-04
 -2.5497060e-04
 -6.6951266e-06
 -5.7097921e-05
  3.9191594e-04
  4.5514540e-04
  2.1153320e-04
  1.0664662e-03
 -3.2847669e-04
 -5.0765986e-04
  2.2165172e-04
  1.4798749e-04
 -1.1812768e-04
  7.7177025e-04
 -2.4366993e-04
 -1.8732249e-03
 -1.3142362e-01
  2.1133971e-04
 -1.7840245e-04
  8.4087864e-04
 -6.2284002e-04
  5.3451065e-05
  4.5830529e-04
 -3.5417028e-04
  7.5303135e-04
  9.3555534e-01
  4.2985345e-04
  3.6311132e-01
  1.0624464e-02
 -1.7434137e+00
  1.8797417e-01
  5.4214011e-05
  1.3394202e-01
 -1.4038358e-04
 -7.2611532e-05
 -2.0357520e-05
 -3.3206032e-03
 -1.2595407e-03
 -1.0673554e-04
  3.2489793e-04
 -1.7554336e-04
  2.1694636e-03
 -5.8986966e-02
 -5.8332941e-04
  4.6536443e-04
  4.3726865e-05
  4.7192167e-02
 -3.1488251e-03
 -6.3791526e-06
 -3.0005723e-04
  2.3220510e-04
 -7.0857699e-05
 -6.0028012e-04
  1.1151376e-04
  2.6924902e-04
  7.0034206e-04
 -9.7277982e-04
  1.3306209e-04
 -3.2541351e-04
 -2.1304282e-04
 -1.1110280e-03
 -1.3017895e-04
  8.1739703e-04
 -4.6885226e-04
 -2.1742040e-03
  9.4844442e-04
  1.7282682e-05
 -5.8005535e-04
  8.9177454e-05
  4.9772116e-05
  4.0274914e-04
 -5.2313018e-04
 -3.9492839e-04
 -5.6148797e-06
 -1.9406436e-04
  1.6224843e-04
 -2.3419540e-04
 -2.2159208e-04
 -1.2838343e-04
  5.5016886e-04
  1.3087902e-04
  4.1828374e-04
  4.6282032e-04
 -2.8111579e-04
 -3.9484919e-05
  1.4906560e+00
 -1.0602011e-01
 -6.5365171e-01
 -1.9729598e+00
 -7.1901810e-01
  4.1414317e-01
 -5.8288652e-01
 -1.6211241e-01
  3.5779048e-03
 -1.4057249e-01
 -1.1518774e-01
 -5.9049767e-01
 -4.4904265e-01
  1.2369341e-03
 -3.0427190e-04
 -9.6167512e-02
 -1.3505539e-01
 -9.3248856e-01
 -2.5496352e-01
 -1.0472105e-01
 -9.2487368e-05
  6.6385724e-02
 -1.7823858e+00
 -3.9569151e-02
  4.6158084e-04
  1.3567455e-04
 -1.0634795e-03
 -5.7655964e-02
  1.7325357e-03
  5.4830616e-05
  8.2794058e-01
 -9.5103355e-03
  1.5348142e-01
 -6.7664933e-04
 -1.7564507e-03
  8.4074592e-04
 -7.0252970e-02
 -2.4956600e-03
  3.8655875e-05
 -3.7406528e-04
 -2.4138369e-04
 -1.9957252e-04
 -2.0232222e-03
 -2.7398689e-04
  2.2292808e-04
 -1.0399792e-03
  4.1312025e-05
 -1.8410657e-01
 -1.8951572e-03
  2.9167518e-04
 -2.3607479e-03
 -5.0049293e-04
 -2.9627746e-01
  4.4953981e-01
 -3.4066229e-04
 -1.6365085e-04
  2.3976251e-04
 -9.0401043e-04
  1.8559846e-03
  5.6570809e-04
  1.0059298e+00
  3.0768683e-04
  1.0956582e+00
 -3.2917771e-05
 -9.0402400e-01
  2.6839788e-03
 -1.3340631e-05
  1.2353518e-01
 -4.8211135e-04
 -3.1605770e-05
  4.0776463e-04
 -8.2907465e-04
 -9.8069815e-04
  3.7909762e-04
  1.4421080e-03
  3.7227309e-04
  1.5676374e-04
 -5.4691534e-04
 -1.8641987e-04
 -2.2220241e-03
  9.1212423e-04
  2.7595462e-02
 -1.3116201e-03
 -3.6201626e-04
  3.0429594e-05
 -7.3434894e-05
  1.6384129e-04
 -5.1276496e-04
  9.7849243e-04
  7.1001617e-05
 -2.8442597e-04
  1.5040841e-04
 -6.3724606e-04
 -5.4962153e-04
  2.5486885e-04
 -7.1510801e-04
  1.1592070e-03
  1.4286967e-03
 -4.8840657e-04
 -4.5815188e-05
  3.6362640e-04
  1.0063650e-04
  8.0435639e-05
  9.4732322e-04
 -2.6017384e-05
  1.1568948e-03
 -2.1211477e-05
 -1.1407147e-04
  1.4017966e-03
  5.2918232e-04
  1.8884845e-04
  9.9401395e-06
  6.9553335e-04
 -9.7081596e-01
 -3.2166502e-04
  1.7233685e-03
  1.4889825e-04
  8.2499010e-04
  3.4582592e-04
 -6.3252346e-06
 -3.2121601e-04
  2.4161933e-04
  9.3597127e-04
 -1.1336067e-03
  4.3381890e-04
 -3.0915864e-04
 -1.8493322e-04
  6.9253170e-04
 -6.6675857e-04
  1.0111802e-03
 -3.3433872e-04
  1.5325432e-02
  2.5074833e-04
  1.1002659e-04
 -2.9470766e-04
  9.4447652e-04
  1.1536133e-04
  4.8238298e-04
  6.1604776e-05
  1.8847082e-04
 -2.3224979e-04
  3.3990308e-04
  1.5058076e-04
  1.5164213e-05
  3.0227688e-05
  2.1696030e-04
 -1.2047973e-04
 -2.8025610e-05
 -2.0981055e-04
  1.6046139e-04
  4.8533831e-05
  5.8254710e-04
 -3.3134141e-04
 -5.0368271e-04
  3.4227557e-04
 -4.2211753e-03
 -1.7422459e-04
 -8.6094631e-05
 -2.3227646e+00
  4.4887702e-04
 -2.9315348e-04
  3.8870584e-04
  4.5037184e-05
 -4.0722813e-04
 -1.6228191e-04
  8.5118215e-04
 -7.1896828e-04
  1.2023614e-04
  4.3267949e-04
  8.5233747e-05
  2.2077687e-04
  2.9796109e-04
 -3.6945086e-05
 -2.7739411e-04
  3.0677012e-01
 -5.9175632e-05
  1.1862376e-03
  4.8531793e-04
  2.5161332e-04
  2.0519385e-04
 -3.1188443e-05
 -2.8059035e-04
 -7.4684492e-04
  1.5674916e-04
 -3.9356228e-04
 -3.3053680e-04
 -8.7389600e-04
 -1.6364242e-03
  8.7398599e-04
 -2.2516772e-03
  6.0058990e-04
  2.1748799e-04
 -1.1748723e-04
 -7.5135387e-05
 -3.4034878e-01
 -2.3273332e-04
 -3.2051799e-03
 -1.0077255e-03
  5.2904332e-04
 -9.2280656e-04
 -3.5207442e-04
 -3.1723295e-04
  9.3936443e-04
 -1.6373744e-05
  3.4392302e-04
  2.0547437e-03
 -1.6499338e-04
  2.7179485e-04
  3.6647392e-04
  2.5571846e-05
  8.3732727e-04
  1.6183765e-03
  7.8261731e-04
  4.8093652e-04
  5.6794350e-04
  4.3733901e-04
  4.1960235e-04
  2.3409628e-05
  8.0843235e-04
 -3.4280715e-04
 -1.9484686e-03
 -6.3769039e-05
  1.1363943e-04
 -3.4910918e-04
 -7.6062688e-06
  3.4619813e-04
  2.2790294e-04
  2.9753224e-04
 -4.8229046e-04
  2.5572017e-04
  2.4923496e-04
 -4.0090241e-04
  5.7900022e-04
 -8.5760112e-05
  6.8280235e-04
  1.6105533e-04
 -8.2814158e-04
  1.7816985e-04
  5.2922894e-04
 -9.8170910e-04
 -6.5486908e-01
  1.4296738e+00
 -4.9980015e-01
  1.2019984e-01
  3.3104368e-02
 -2.4408554e-01
  2.7342429e-02
  7.0892728e-04
 -7.0675917e-04
  3.7315974e-03
  3.9117383e-03
  3.5264671e-01
  6.3248599e-01
 -1.6103617e-04
  5.5500423e-04
  1.5339002e-02
  4.5939365e-01
  4.9684554e-02
  3.2001715e-03
  2.0526734e-03
 -3.3349870e-04
 -2.1298796e-04
  1.7565338e-01
 -4.3136528e-04
  9.3387143e-04
 -3.0375712e-04
  2.0035456e-03
  1.2517420e-03
 -3.8035322e-04
 -6.0174672e-04
  9.1830199e-04
 -4.7394345e-04
 -1.6461570e-03
  3.0548301e-05
 -1.1087647e-03
  4.6131681e-04
 -9.6267635e-05
 -7.5561542e-04
  7.5239666e-05
 -5.5826280e-05
 -1.2783668e-03
 -1.6717536e-03
  8.0787067e-05
 -7.5380129e-05
  3.0402810e-04
 -2.6674606e-04
  6.2834355e-05
 -1.2681215e-03
 -1.0388123e-03
 -3.6438543e-04
 -2.9385768e-04
  3.1281257e-04
 -1.1686022e-04
  2.8172048e-05
 -2.2676297e-05
 -1.3404529e-04
 -6.5558992e-04
  2.5479260e-04
  9.7876508e-04
 -8.3206520e-05
  7.0387393e-02
 -2.3890146e-04
  6.1076263e-04
 -1.1369430e-03
 -1.7985071e-04
 -5.7998026e-04
  6.2542131e-05
 -4.3749221e-04
  3.4927769e-05
 -1.2952257e-04
 -8.1072627e-05
 -2.2968249e-03
 -1.4783346e-04
  3.7782226e-04
 -2.4070994e-04
  3.5058192e-04
 -1.4745397e-03
 -8.7866734e-04
  5.3590767e-05
 -7.4269559e-04
  5.9668708e-04
 -2.6638637e-04
  2.2157514e-04
  1.3178180e-04
  9.6976932e-05
  8.2898950e-05
 -2.6466992e-06
  2.1074562e-04
 -9.0478221e-04
  1.0117989e-04
 -2.7617862e-04
  4.0182949e-04
  1.6958088e-04
  1.4448669e-04
  1.9714015e-04
  4.6157438e-05
  1.4434825e-04
  3.4181870e-04
  8.0856535e-04
  1.7821669e-04
 -6.9083256e-04
  5.1233527e-04
 -4.6567884e-04
  2.3522698e-04
 -4.8916940e-05
 -4.7150071e-04
  4.6009092e-05
 -1.3321624e-04
  7.0702175e-05
 -2.1486076e-05
 -5.5659475e-04
 -5.7732366e-04
  1.4997718e-04
  6.3512253e-04
  1.3159895e-04
  2.4844700e-05
  8.7191473e-04
  6.7691057e-05
 -3.5611088e-03
  1.2591392e-04
 -5.1965959e-02
  2.2958746e-02
 -9.1094809e-04
  3.1211373e-04
  6.7822285e-02
 -1.1009690e-03
 -4.9913418e-05
  3.0921857e-04
 -1.4042461e-03
  6.0528971e-04
  3.2001952e-04
  2.2914325e-04
  1.7273829e-03
 -3.9289769e-04
 -2.6143878e-04
  2.4635627e-04
 -8.1586448e-04
  4.9782082e-02
  4.5402865e-03
  4.0405244e-03
 -4.6473870e-04
  9.9541183e-05
  2.2024762e-02
 -3.5725106e-04
  6.7035743e-04
  7.2597619e-04
  9.4923147e-05
  1.2865607e-05
 -2.9858097e-03
 -3.4582347e-04
  8.5490263e-01
 -2.4344499e+00
  1.7428732e+00
  2.2108531e+00
 -1.0491501e+00
  8.9801049e-01
  5.3972048e-01
 -1.7525527e-01
  3.0907488e-03
 -3.0794525e-01
 -2.1261818e-04
 -1.0031135e+00
 -9.3974024e-01
 -5.2283704e-01
 -3.5812502e-04
 -5.4562284e-04
  2.3304898e-01
  2.1098165e-01
  6.4545488e-01
 -2.0816909e-04
 -9.8612072e-05
  1.8202329e-01
 -8.2278609e-01
 -7.6039910e-02
 -3.7901342e-04
  3.6447667e-04
 -3.0721264e-04
 -3.0846132e-03
  4.4758327e-04
 -1.5127132e-04
  1.1063199e+00
  2.7407353e+00
  1.1275047e+00
 -2.9184947e+00
  3.8982630e+00
  8.0277897e-02
 -2.0540189e-02
  1.2341766e+00
 -5.0234780e-02
 -3.5937694e-01
 -8.1171497e-04
 -3.3512175e-01
 -4.0527649e-02
  4.3093121e-01
 -2.1469434e-01
 -2.6902029e-05
 -2.9887652e-01
  9.0050209e-01
  5.6008476e-01
 -1.5460747e-01
 -8.6675584e-03
  4.6791941e-01
 -3.7315911e-01
  2.1254184e+00
 -3.3198850e-04
  2.8167640e-05
  5.0438906e-04
 -2.6756953e-02
 -3.3049044e-04
  2.4013429e-04
  1.3950243e-04
  1.8443556e-03
 -3.4738833e-04
  3.2767490e-04
  2.3082028e-01
 -3.1510711e-04
  1.1658965e-03
 -5.1389227e-04
  3.6004439e-04
  2.1027264e-04
 -1.3516795e-04
  7.5997459e-04
  4.9539009e-04
 -4.4761904e-04
 -6.6550514e-05
 -2.2344786e-04
 -3.7396807e-04
 -9.2170259e-05
 -7.4254483e-04
  1.1853031e-04
  2.3791898e-04
 -1.0686275e-03
  2.3235090e-03
  7.0952886e-04
  2.3658370e-04
 -5.1612791e-04
 -2.4234453e-04
  2.0561401e-04
 -1.3577949e-03
 -6.5877779e-05
 -6.2846094e-01
  3.2117867e-01
  7.7356622e-02
 -2.3015050e-02
  3.3739406e-01
  1.0598496e+00
  1.8567926e-01
  2.6789704e-01
 -2.0780344e-04
 -7.5472746e-04
  1.0202100e+00
  6.7534209e-05
  2.2855020e-01
 -2.0206359e-04
  3.0864629e-01
  1.7755702e-01
  2.8483588e-01
 -3.2303251e-05
  4.8281488e-04
 -1.8113219e-04
  5.0030171e-04
  7.6201613e-05
  1.1556893e-02
 -4.0844944e-01
  1.7952600e-03
 -1.0265145e-04
  1.7373435e-01
 -2.3943141e-01
 -3.8694346e-01
  2.2256171e-04
  8.3009899e-01
 -3.0810299e+00
 -4.5784175e-01
  8.8405252e-01
 -1.7659415e+00
  2.7498484e+00
 -1.3018889e+00
 -1.7209984e+00
  2.8592946e-02
 -1.0221433e-03
  1.8022177e+00
  2.9142393e-02
 -1.4495080e+00
  5.4548529e-04
 -2.1542680e+00
 -1.0572859e+00
 -1.3438063e+00
  1.7378750e-01
 -2.6162711e-04
  7.5408362e-02
 -2.9290971e-04
  2.2150027e-05
  1.6492914e+00
 -4.4901711e-01
 -1.4943263e-01
  1.1066532e-03
  8.7389541e-01
 -3.5331059e+00
 -3.1005509e+00
  2.0003419e-01
 -2.9791645e-03
 -1.4310443e-01
 -2.3531376e-01
 -4.1930708e-01
  1.4461793e-01
  3.4289435e-01
 -1.7740798e-01
 -4.0975336e-02
 -1.3920963e+00
 -2.5098336e-01
  1.5110771e-04
 -1.6952242e-03
 -3.3564258e-02
 -5.5326259e-01
 -5.9966291e-03
 -6.9791719e-02
 -1.7238867e-01
 -3.5134381e-01
 -1.4682809e-02
 -1.8709780e-01
  4.1842210e-04
 -3.7111191e-03
 -2.2033410e-04
 -8.9674152e-02
  2.5952281e-03
  3.5828294e-04
 -5.2452111e-04
 -2.1985889e-04
  4.2913939e-04
 -1.6513727e-04
  4.0880653e-01
  4.1958016e-01
  1.4113650e+00
  8.2020527e-01
  3.6974090e-01
  3.3682156e-01
  3.9144948e-02
 -4.2793629e-01
  6.4020890e-01
  4.2618623e-01
 -3.0059126e-04
  3.6783099e-02
  7.9775192e-03
 -6.3096428e-01
 -9.7549969e-01
  1.4452923e-02
  5.8284706e-01
  2.0642033e-01
 -1.5748328e-01
 -1.6253094e-01
 -2.4807137e-01
  8.1365096e-04
 -4.7344187e-01
 -1.2486581e+00
 -4.7169495e-01
  2.5752136e-03
  1.7515038e-01
  8.1443548e-05
  2.4038003e-01
  8.2536340e-03
 -2.8932805e-04
 -3.4420689e-06
  1.1030822e-03
 -1.3303662e-03
  2.5656109e-04
  1.8405853e-04
 -2.8641307e-04
 -1.9550203e-04
  6.7199886e-01
  4.7734421e-04
 -3.5686750e-02
  1.8350322e-04
  7.3221099e-04
 -1.4440685e-04
 -7.1741328e-05
  8.6543569e-04
  1.4016679e-03
  3.0594986e-04
  2.9034581e-04
 -2.5998137e-04
 -3.7042508e-04
 -1.9072361e-04
  8.1516868e-05
  8.1628578e-04
 -1.0641722e-03
 -3.1510452e-04
 -4.2124544e-04
  7.4838194e-05
  3.0677803e-04
  1.8103689e-01
  4.7314682e-04
 -2.0807822e-01
  2.0962618e-03
 -5.2918482e-04
 -8.2745391e-06
  1.6567981e-02
 -5.7579466e-05
  3.1797892e-01
 -2.7677003e-02
  1.1393609e-04
  2.9496341e-05
  4.3767720e-02
  8.9098862e-04
  1.6927510e-02
 -6.4329379e-03
  1.3583680e-03
  1.5495683e-03
  8.9533872e-04
  2.9803210e-05
 -8.2577066e-04
 -2.1286169e-04
 -1.7624667e-04
  8.1949512e-04
 -3.5000974e-04
 -3.0378424e-04
  5.6936209e-05
 -9.3843875e-04
 -9.5697134e-05
  7.4866517e-03
  5.4480572e-04
 -7.1417969e-01
 -3.8475549e-01
  1.1409118e+00
  1.1658467e-01
  3.1979915e-01
 -7.1982831e-01
  4.1939324e-01
  5.0751197e-01
  2.5615084e-01
 -1.1534834e+00
 -4.7793710e-01
  1.2140300e+00
  2.7409263e-03
 -5.9645053e-02
 -1.1349820e+00
 -3.1624807e-04
  6.4305228e-04
  6.6755839e-02
  1.1365719e-01
  3.9298308e-01
 -2.8179627e-04
  3.9101733e-04
 -4.1338560e-01
 -1.9523090e-03
 -2.6499477e-04
  2.0831420e-01
 -1.3922977e-01
 -1.4551354e-04
  1.1662713e-01
  6.6847017e-05
  9.5055664e-05
  4.8343162e-03
  1.6572386e-04
  1.5955350e-04
  1.4034849e-04
 -5.0435448e-04
  4.7448266e-02
 -5.2934553e-04
 -2.9830047e-05
  4.6930034e-04
 -1.6907147e-04
  7.9958892e-04
  8.1223150e-04
  2.2506476e-03
 -7.3303599e-03
  8.3021040e-04
  5.7006167e-04
  7.2108844e-05
 -2.0436023e-03
 -4.6702457e-04
  9.7263767e-04
 -4.6724308e-05
 -1.1477525e-06
 -4.8313636e-04
  1.8456619e-04
  3.5077805e-04
 -1.5938384e-04
 -5.5754517e-05
  4.9544759e-03
 -9.5667905e-04
 -4.2908618e-04
  1.1849801e-01
  1.2651962e-03
 -2.2527378e-04
 -8.2683282e-06
 -2.8536559e-04
  8.4644787e-02
 -3.4630593e-05
 -1.0221372e-01
 -2.5324424e-04
  2.1055295e-05
  1.4098479e-03
  1.3576671e-04
  1.2375769e-03
  3.4573066e-04
  5.2572646e-05
  3.0762283e-04
  3.3865668e-04
  4.6369646e-04
 -4.2579483e-04
  6.6489336e-04
 -5.1103147e-05
  2.0213048e-04
 -5.1643763e-04
  4.8470800e-05
  1.2046051e-03
  2.0575509e-04
  3.6913343e-04
  8.7682974e-06
 -8.7078835e-04
  1.0003133e+00
  2.4685245e+00
 -8.6383855e-01
 -1.1869987e+00
  1.6657618e+00
 -2.6154694e-01
 -4.7582589e-02
 -3.6643767e-01
  1.3903253e-01
 -1.0746183e-01
  6.0767484e-01
 -3.0670479e-01
  2.4155250e-02
  7.8599870e-01
  1.6502644e-01
 -6.4956635e-04
 -1.5301856e+00
 -1.7644862e-02
  1.0417753e+00
  8.3754718e-01
  4.8584631e-03
 -5.4525208e-01
  1.6131109e-01
  6.3181263e-01
 -1.0132188e-01
 -2.4538573e-03
  4.8924810e-01
 -3.6827134e-04
 -7.8742048e-03
  1.5530245e-04
 -6.5918005e-01
 -1.4852539e+00
 -3.0188408e-01
  1.1469049e+00
 -1.0789795e+00
 -2.5916460e-01
 -2.5148198e-01
 -1.2316027e-01
  1.3365546e+00
 -5.1930624e-01
 -6.0220689e-01
  1.3983350e+00
 -5.6201917e-01
  1.0546014e+00
 -5.6460583e-01
  6.2902176e-01
 -6.8021506e-02
  6.4506257e-01
 -4.3791267e-01
  1.0474795e-01
 -7.4062681e-01
  1.5046111e+00
 -1.5786368e+00
 -1.5120492e+00
 -8.6693162e-01
  1.3194170e+00
  1.2899177e-01
  4.0933621e-04
 -2.9780126e-01
  6.2220222e-01
  1.1096070e+00
  3.4679598e-01
 -2.0466197e-01
  7.6633573e-01
  1.0143622e+00
 -1.0096236e-02
  8.5375592e-02
 -3.1272516e-01
 -2.8076628e-01
  3.7538397e-01
  1.2328309e-01
  5.0178087e-01
 -6.6144943e-02
 -4.3572888e-01
 -1.9018097e-01
 -7.3421514e-01
 -3.4814176e-01
  1.4599384e+00
 -1.2716986e+00
  1.1794214e+00
  3.3817616e-01
 -9.1225529e-01
  8.7535977e-01
  7.0440102e-01
  1.4122415e+00
 -1.9148508e-01
 -2.6160076e-03
  3.9770061e-05
  3.2137376e-01
 -2.1563759e-02
  3.4654656e-01
 -7.0680475e-01
  4.3229425e-01
  1.7256020e-01
  1.6297966e+00
  2.5782540e-01
 -5.0051302e-01
  2.7306131e-01
  7.0048058e-01
 -1.6254379e-01
  1.0327998e+00
 -1.6002896e-01
  1.5392575e-01
  2.1498940e+00
 -7.5982481e-01
  3.4593469e-01
  1.6421067e+00
 -5.9957769e-02
  8.0896217e-01
  1.6721106e+00
 -7.9246856e-05
 -3.1041013e-04
  3.0318063e-01
 -1.5790921e-01
  6.2646556e-01
  1.4085174e-01
  8.7592646e-02
  6.8664178e-04
 -1.5993674e-01
  3.4332645e-01
 -2.7983934e-03
  2.4331502e-04
 -4.4626759e-05
 -3.1479742e-04
 -3.1999892e-04
  2.5657276e-02
 -6.4420295e-03
 -5.2159913e-02
 -1.1643990e+00
 -8.8204880e-04
 -1.8246239e-04
  1.3443367e-01
 -4.4317314e-04
  1.3552589e-03
 -2.0998929e-02
 -6.6287575e-05
 -6.0789032e-05
 -1.6752425e-04
 -1.4382637e-01
 -1.2107126e-03
  8.6457777e-04
 -4.1966210e-04
 -4.1198463e-04
 -9.7803166e-04
  5.0295918e-04
 -3.6166699e-04
 -4.0297891e-04
 -4.6340210e-04
 -2.7198816e-04
  4.9437321e-04
  1.0377229e-03
  3.3490762e-01
 -1.6264843e-03
 -7.5207412e-05
  3.4028114e-04
 -9.7983261e-04
 -1.6556032e-01
 -6.2323577e-04
  2.8458974e-01
  1.0683320e-03
  2.4167406e-04
 -7.3118135e-02
  1.2323505e-04
 -8.3054656e-01
  6.1414955e-04
 -7.2124653e-04
 -2.4883139e-01
 -2.2347707e-03
  7.0634222e-04
  2.7638738e-04
 -1.8353983e-03
 -1.5601935e-03
  3.9298547e-04
 -1.0518637e-04
 -8.0487999e-04
  1.7169715e-04
  4.0908399e-04
  9.4076747e-04
  1.1650837e-04
 -8.7592506e-04
  2.9697075e-01
  8.5035324e-02
 -7.6947016e-01
  7.8939730e-01
 -9.3383527e-01
  9.4753146e-02
 -1.7211896e-01
 -1.0344898e+00
  3.1382927e-01
 -2.8230739e-01
  1.2378212e+00
  1.6483216e-01
 -1.0281003e-03
  1.9503707e-01
  7.5507119e-02
 -1.9457075e-01
 -9.8366880e-01
 -4.6632562e-02
  6.7229694e-01
 -1.7324008e+00
  8.1449898e-04
 -7.5077252e-03
  2.7811861e-01
 -1.8423216e-02
  1.7714580e-03
 -1.2078875e-04
  2.1460382e-03
 -1.1936305e-04
 -1.5872389e-01
 -4.7582918e-04
  6.8258619e-01
  3.2085678e-01
 -2.3793949e-02
 -9.0046281e-01
  2.8716758e-04
 -2.4518907e-01
 -4.6413570e-05
  3.5440759e-04
 -4.1347018e-01
  5.2341890e-01
  7.9167366e-01
 -3.5415182e-01
 -1.7221285e-01
 -9.9276000e-01
  5.1368497e-02
 -2.2415213e-04
 -1.4955066e-01
 -1.3438893e-04
  2.8776893e-01
 -5.2087376e-04
  8.8149990e-04
 -1.1334508e-03
  1.2596899e-04
 -1.0928300e-03
  1.8360353e-03
 -2.2939371e-04
  6.9422752e-04
 -3.6509018e-04
  6.1891990e-04
 -1.7234826e-04
  2.6393720e-04
  8.3231729e-01
 -5.9710559e-04
 -3.8032435e-04
  6.1729993e-04
  8.1867598e-05
  5.0314033e-05
  6.6650641e-04
  2.8835278e-04
  6.3167507e-04
  2.1239140e-04
  4.7248547e-04
  6.3238287e-04
  1.7827150e-04
 -7.2222296e-04
  1.6375494e-04
  2.3826027e-05
  5.4970081e-04
  4.1828802e-04
  4.2140594e-04
  4.6902528e-04
 -3.9319583e-04
 -3.0706578e-05
 -3.8438276e-04
 -6.0630200e-04
  5.7897106e-04
  7.2584971e-04
  3.6459113e-04
 -2.7903786e-04
  8.0532242e-05
  3.4465932e-04
  5.8717781e-04
  3.2124974e-04
  1.3886414e+00
 -2.5975713e-04
  1.0841318e-03
  1.0211440e-03
 -9.1267208e-04
 -3.4887524e-04
  1.9971159e-01
  6.3571677e-04
  1.6636310e-02
  3.5914060e-04
  9.0767562e-02
 -2.9626215e-04
  1.6390812e-04
 -9.1940579e-05
 -1.6637732e-03
  2.1812879e-03
  2.1234683e-04
 -1.6954463e-04
 -4.2420067e-04
 -4.7888342e-02
  1.6257493e-03
 -1.9275791e-05
 -2.8285445e-04
 -3.7011062e-04
  1.3602381e-04
  7.7839196e-04
  3.8619901e-04
  1.2645019e-04
  5.2091521e-03
  1.4859593e-03
  5.0326827e-04
  5.7096586e-05
 -2.4332167e-04
  3.9672907e-04
 -7.2474772e-04
 -7.9965329e-04
  1.2913794e-04
  9.8892581e-04
  7.8389369e-04
  4.4755021e-04
  2.7530001e-02
 -1.3604366e+00
  4.5443044e-04
 -1.5491714e-04
 -8.8329974e-04
 -1.0866098e-04
  2.0881309e-04
 -1.9185482e-04
  7.8753824e-04
 -1.2349173e-04
  4.6758979e-04
 -3.0087711e-02
  4.1656132e-04
  2.9883299e-06
  4.5056216e-04
  1.9591466e-04
  7.0582971e-04
  3.5457534e-04
 -4.2174329e-04
 -1.1762080e-04
 -6.0191721e-04
  1.0641212e-04
 -1.1654448e-03
  2.2091216e-04
  8.8107347e-04
 -2.1987618e-04
  5.4167307e-05
  1.1832739e-04
 -4.9543934e-04
  1.0205179e-04
 -5.2035237e-05
 -6.1304669e-04
 -1.4856791e-04
  8.6878217e-04
  3.8251188e-04
  5.1122050e-05
 -4.6066698e-04
  1.1902066e-04
 -3.0514886e-04
  7.8506826e-04
  3.5711119e-04
  1.0889412e-03
  4.7728780e-04
 -3.9138872e-04
  5.8573193e-04
  5.8803347e-05
 -6.6600484e-04
  3.8932092e-03
  5.4201573e-01
 -1.5077561e-04
  1.1438914e-03
  3.4477087e-04
 -9.0560614e-05
 -1.2877508e-03
  7.1748324e-02
  5.1086891e-04
 -7.9648143e-01
 -1.8184710e-05
  1.4358008e-04
  5.0597289e-04
  3.5149299e-03
 -9.9884026e-05
  4.5401391e-01
 -2.0645588e-04
 -3.2049915e-04
  2.7489255e-03
  2.3219617e-04
 -1.2934528e-04
  1.2036257e-03
  2.2307564e-04
 -4.7180722e-05
  4.8542034e-04
  1.7468800e-04
 -7.1303238e-04
 -1.9275871e-04
 -1.5545725e-03
 -3.7263546e-04
 -1.8411992e-02
 -9.6503961e-01
 -7.5152373e-01
 -9.2788869e-01
  2.5756892e-03
  7.1157992e-04
 -9.0186417e-01
 -2.7769813e-01
  1.7685458e-01
  8.8313276e-01
  1.2486203e-03
 -1.7171626e-01
 -1.2300647e-04
 -3.1160871e-03
  9.7929545e-02
  7.0744648e-04
 -8.2641907e-02
 -8.7099813e-04
 -4.9923252e-02
  4.7392867e-04
  1.9056787e-03
 -7.0274767e-04
 -8.3692640e-04
  3.0090690e-05
  8.7613135e-04
 -6.5054766e-05
 -1.9438252e-04
  8.8786997e-04
 -1.3329687e-03
 -5.0181570e-04
  2.2262809e+00
 -1.7704529e-01
 -5.9483618e-01
 -4.4195071e-01
 -5.8025435e-02
 -1.6045228e-01
 -1.0261408e+00
  4.0781221e-01
  4.3364690e-04
 -7.0835918e-02
  5.6875825e-01
 -2.8640406e-02
  1.3863151e-02
 -1.0543742e+00
  3.4976017e-03
  4.5020212e-03
 -4.5817799e-04
  1.5442716e-01
  3.4726697e-01
  5.5239159e-01
  8.3828002e-04
 -1.1340411e-02
 -7.4247684e-05
 -2.0849030e+00
  2.2012953e-01
  9.6490765e-03
  1.8129522e-03
 -9.9057215e-05
  2.8551340e-02
 -5.2549362e-06
  5.0766135e-05
 -1.1728742e+00
 -5.1700640e-01
  2.0567849e+00
  2.3179449e-04
  8.2991719e-03
 -6.6299176e-01
 -4.2550513e-01
 -3.5034010e-01
  2.9421164e-04
 -1.0418482e+00
  5.5083579e-01
  6.3184154e-01
  2.2532725e+00
 -8.1316715e-01
  6.5040011e-05
 -1.2494315e-04
 -1.3840598e-01
  4.4129604e-01
 -4.6948519e-02
 -3.4925980e-03
  1.4566157e-03
 -8.6559303e-05
  1.9977456e-01
 -3.3687083e-03
  7.2411221e-04
 -6.7143477e-02
  7.2511809e-04
 -2.9939990e-03
 -7.3778674e-02
 -7.6834881e-01
  2.7969797e-04
  1.9017838e-01
  1.5777462e-04
 -4.5775608e-04
  1.5891279e-01
 -3.2843549e-05
 -1.1748831e+00
 -5.5961013e-01
 -7.0314944e-02
 -1.8007121e-04
  3.1380296e-01
  3.3554900e-03
  1.4065030e-01
 -1.2888631e-02
  3.3899694e-04
  1.1779641e-04
 -1.9148093e-04
 -2.6938797e-03
 -1.1997150e-03
  2.7897625e-04
  1.9993817e-03
  5.6420901e-04
  2.1957427e-02
 -6.8775723e-03
 -2.1207663e-04
 -2.9817978e-03
 -1.8658424e-04
  6.5275986e-04
  1.3554566e-06
  2.5154996e-01
 -2.0029466e-04
 -2.1441510e-02
 -7.8165129e-02
 -1.6214280e-01
  5.0223130e-01
 -2.1722522e-01
 -4.0900743e-01
 -5.3384507e-01
  7.1257430e-01
  9.8398502e-04
 -6.6207987e-03
  9.8500313e-06
  4.5814258e-01
  1.3240485e-01
 -2.1384344e-03
 -1.9035014e-04
 -4.0676929e-03
 -1.0458113e-01
 -3.4148164e-02
  7.9256116e-04
 -6.1490067e-04
  2.6566672e-04
 -2.9536551e-01
  1.6199257e-03
 -8.8764913e-04
 -9.5244467e-02
  2.5473809e-04
 -2.1140941e-03
  4.4442428e-04
 -2.6708050e-04
 -2.5741308e-04
 -3.3302768e-04
 -3.6793679e-04
 -1.0905606e-03
 -6.9473324e-05
 -8.2074381e-05
  3.6771024e-05
  4.5473228e-04
 -1.1215149e-04
  1.6415775e-05
  1.2716305e-05
 -1.5192117e-04
 -6.0767791e-04
 -8.2703984e-05
 -1.4103352e-04
 -2.3615448e-04
  7.9379388e-04
  3.6809783e-04
  8.6652179e-04
 -5.2347395e-04
  5.4717031e-05
 -5.5080054e-06
 -7.5390752e-05
 -6.9993112e-04
  1.2643632e-03
 -1.1482726e-04
  1.6737693e-05
 -1.6850528e-04
 -3.7337657e-05
  9.3338322e-03
 -1.1639763e-02
  8.0175310e-01
  9.2631534e-02
  2.9174695e-03
 -4.4724941e-01
  2.2579885e-01
 -3.6253568e-02
  1.0026670e+00
  3.8864747e-01
 -4.0520397e-01
  2.0749755e+00
  4.4471253e-02
 -8.4425646e-01
 -3.4345133e-04
  1.5057719e-01
  7.9191245e-02
 -6.9560343e-01
  6.4382756e-01
 -4.0473118e-01
 -1.2671716e-04
  6.5054327e-01
 -1.2645622e-01
  1.4758457e+00
 -2.3985973e-03
  5.8951305e-04
 -1.9797117e-01
 -1.8891931e-04
 -6.2063569e-01
 -4.1101282e-04
 -1.5299101e-04
 -4.5844969e-05
  4.5628197e-04
  3.1882522e-04
 -3.2658494e-04
  5.9753911e-05
  1.7351552e-04
 -6.9850838e-01
 -9.5719297e-04
 -5.8724872e-05
  2.8254345e-04
  1.3883029e-04
  7.1384618e-04
  2.9903610e-04
 -2.6446581e-04
 -1.7293591e-04
 -6.5934681e-04
  5.4087129e-04
  1.9490486e-04
  3.1629478e-04
 -1.6356258e-04
 -2.1812960e-04
 -9.2047834e-05
  3.7444747e-04
  1.0061291e-03
  7.6732883e-04
  1.5999428e-04
 -9.5432595e-05
  8.8923547e-04
 -1.4565574e-04
 -5.5569987e-04
  1.4252780e-03
 -2.2534524e-01
  9.4717887e-04
 -4.7392660e-04
  4.5226300e-01
 -1.3510094e-03
  1.7151664e-04
 -5.0880456e-01
  3.6893126e-01
 -1.7900025e-02
  6.3231462e-01
  5.5074570e-04
  2.6066026e-02
 -2.5621497e-03
  1.2688177e-03
  1.7334782e-03
  1.8370326e-03
  1.4144245e-04
 -1.0056542e-04
  1.8493281e-04
  5.9589575e-04
 -9.0153865e-04
  3.1675829e-04
  2.3771882e-04
  4.3581164e-04
  1.1518078e-04
 -3.8156033e-04
  5.4361759e-04
 -2.4678833e-05
 -5.0313491e-01
 -7.0695049e-01
 -3.5316652e-01
 -1.1063389e+00
  4.3158695e-01
  5.2357149e-01
  7.8955069e-02
 -2.6256260e-01
  3.6809927e-01
  6.8526554e-01
 -3.9554051e-01
  7.7175826e-02
  1.1314337e-01
  6.3705690e-02
 -9.6915811e-01
  2.2530554e-02
  3.1405231e-01
 -7.6263505e-01
  1.6034484e-01
 -2.7293169e-01
 -8.3137063e-05
  3.7219837e-02
 -7.7427464e-04
  4.1169557e-03
  2.8645236e-04
  3.6087011e-03
  7.1206421e-05
 -3.6773999e-04
  2.1548785e-01
 -4.6117511e-04
  4.5828745e-01
  1.4935277e+00
  4.9895071e-04
  5.5824530e-01
 -5.3531057e-01
  1.4922213e-04
  7.1364653e-01
 -8.0781591e-01
 -4.6918020e-02
  4.3090668e-01
  1.6518927e+00
 -4.9754983e-01
  4.8839184e-04
  8.9812791e-01
  8.6685270e-01
  1.1313881e+00
 -5.6928333e-02
 -1.7040022e-04
 -5.1666715e-04
 -7.0808250e-01
 -7.9549640e-01
 -5.2058607e-01
 -7.9904127e-01
 -2.9771257e-04
  4.1588199e-01
  7.6563374e-05
 -5.1476102e-02
 -1.1153265e-03
 -1.0093291e-02
  7.4715948e-01
  4.9746570e-01
 -2.1336448e+00
 -9.8351873e-02
 -6.6387427e-01
 -1.0283737e+00
 -1.4973567e-01
 -2.3599231e-01
  2.5260203e+00
 -1.7269611e+00
  1.5331761e+00
  1.4608636e+00
 -2.9468623e-01
  2.8746045e-01
  1.6970314e+00
  7.9902434e-01
  8.4939180e-03
 -2.7616218e-01
 -2.1427289e-01
  2.0862969e-04
  3.2944039e-01
  4.3944347e-01
  9.1049361e-01
 -5.2063471e-01
 -4.3594244e-01
  3.5821044e-01
 -2.1573716e-04
 -1.1037557e+00
 -8.0281263e-03
 -3.1091261e-01
 -8.5341460e-01
 -2.0208020e+00
  7.4970686e-01
  7.1379083e-01
 -6.0045171e-01
 -3.0423081e-01
  1.6553026e-02
 -5.0049835e-01
 -1.1424004e+00
  1.6066160e+00
  3.7927949e-01
  4.2928055e-01
  2.6554279e-02
 -6.5856069e-01
 -2.4657621e-04
  9.7086461e-04
  3.5065246e-01
  2.8058190e-05
  2.1410898e-04
  1.5712049e+00
 -1.0070856e+00
 -6.3639283e-01
  8.5583019e-01
  8.0330396e-01
  6.5735173e-01
 -1.0641423e+00
  5.3973407e-01
  4.1052586e-01
 -1.1986060e+00
 -1.7961840e-01
  3.5557187e-01
 -2.4232783e+00
  5.0691533e-01
  1.1680411e-01
 -1.1132656e+00
  1.6183398e+00
  1.7987584e-03
  4.4993717e-02
  4.2417520e-01
  1.2113439e+00
  6.1411631e-01
  9.3913730e-03
 -5.3767490e-01
  1.4167114e+00
 -4.3255591e-04
  4.5454331e-02
  1.5572993e+00
 -1.3109809e+00
 -2.7673559e+00
  1.9688026e+00
  9.8418766e-01
  1.2406544e-01
  1.6700237e+00
 -8.0405015e-01
  1.1715120e+00
  6.1163169e-01
  5.7021979e-02
 -1.4346452e-01
  1.9482498e-01
 -1.1934659e-01
  1.9635002e-01
 -4.9634510e-01
  7.0445567e-01
 -3.0383301e-01
 -1.6585168e+00
  1.0821416e+00
 -8.3598447e-01
 -1.7705348e+00
  8.8882305e-02
 -1.1544808e+00
 -1.2686235e-01
 -6.1427897e-01
 -1.5949619e-01
 -1.3975563e+00
  2.2989278e-01
  6.7030454e-01
 -6.8870479e-01
  6.2313384e-01
  2.7737302e-01
  1.8316468e+00
 -1.9056194e-02
  1.3669677e+00
  1.0289501e+00
 -9.8923022e-01
 -1.3602093e+00
  1.1288229e-01
  5.8641309e-01
 -3.4984841e+00
 -1.5143463e-01
 -2.1110001e+00
 -3.0453375e-01
  1.0073527e+00
  7.5481110e-04
 -8.4070385e-02
 -1.8739827e-04
  5.1449228e-04
 -1.0330220e-02
  1.6415550e+00
 -1.0663934e+00
 -1.0748652e-02
  1.1961895e+00
 -2.6518585e-02
  2.9564343e-04
  4.8965552e-01
 -1.4446805e-01
 -4.3566179e-01
  2.4152184e-01
  4.7277135e-01
  4.2462397e-01
 -9.7727966e-01
 -5.8528572e-01
 -1.6761272e+00
  7.0994925e-01
 -1.3153864e+00
 -2.6208606e+00
  5.2613366e-01
 -1.0490371e+00
 -5.9283566e-01
  2.1962249e-01
 -1.0070025e-01
 -3.8177860e-01
 -9.5541966e-01
  5.7077959e-02
  8.9625514e-04
  2.7174077e+00
 -4.7130579e-01
  2.1795090e-01
  1.2565541e+00
 -9.7189493e-02
  9.2206482e-04
  4.9457783e-01
  8.0170876e-01
 -1.9203363e-01
  1.2845154e+00
  4.2846687e-02
  5.0950956e-01
  3.1022299e-03
 -8.5767376e-01
 -1.9147476e+00
 -3.0431716e-05
 -2.9718563e-01
 -2.9377315e+00
 -5.5158281e-01
  1.5219592e-01
 -4.9639902e-01
 -4.8430434e-01
 -8.4811956e-02
 -5.0631756e-01
  7.4904358e-01
 -2.7314905e-02
  3.3978316e-01
 -1.1903679e-01
 -8.9024246e-01
  6.9062740e-02
  1.4091864e+00
 -4.5945135e-01
  2.6703358e-01
  1.0139573e+00
 -2.0433503e-01
 -2.6213648e+00
  2.3207326e+00
  1.1095666e+00
  4.2398891e-01
  1.1314644e+00
  4.6777323e-01
  8.7527823e-01
 -8.2703871e-01
  1.3593007e-02
  1.3779857e+00
  1.2243828e+00
  1.4464897e-01
 -1.5022905e-01
 -1.8131723e-01
  6.6995060e-05
 -1.5386973e-04
  4.0835496e-02
 -1.4270372e-03
  4.3453780e-05
  7.3100799e-01
  4.0526909e-01
  1.3226595e-03
 -4.6018353e-01
  7.3204321e-01
  1.0016795e-01
 -4.1140312e-01
  8.9464110e-01
 -9.9418813e-01
 -8.1544709e-01
 -1.9761251e-01
  1.0257996e-04
  9.6496737e-01
  2.6487970e-01
  3.2203254e-01
 -4.2882884e-01
 -1.9197312e-01
 -2.5222857e+00
 -1.1851692e+00
  2.0669316e-01
  2.8320682e-01
  1.3410995e+00
  9.0424119e-06
 -7.5529463e-04
  2.9567318e+00
  1.4023305e+00
 -6.3510454e-01
  1.9430963e+00
  9.8565805e-01
 -2.1831684e-01
 -1.9148369e+00
  1.2110709e+00
 -3.8263257e-04
 -5.6850111e-01
  1.1976365e+00
  6.6779071e-01
  1.1746274e+00
 -6.0474433e-02
  6.9569162e-04
  7.0134923e-02
  8.2979316e-01
  3.3816737e-01
  3.5337117e-01
  1.9135282e+00
  1.1358629e+00
  3.8762709e-01
 -2.0838542e-01
  2.6260030e-01
  6.7559671e-01
  2.2186163e-04
  2.5517142e-01
 -1.2105472e+00
 -2.5205905e+00
 -2.1763561e+00
  2.4397804e-01
  8.4456497e-01
 -2.0268572e-02
  1.1728176e+00
 -1.3069772e+00
 -1.2590243e-04
 -9.2052782e-01
  4.4219977e-01
 -6.1313104e-02
  9.5422220e-01
  2.8713527e-01
  1.9166464e-01
  1.1506208e+00
  1.6801739e+00
  1.0714372e-02
 -9.7699922e-01
  4.5204544e-01
  4.0529260e-01
 -1.0266855e+00
 -7.9066026e-01
  1.7975193e+00
  1.6806483e+00
 -6.4567180e-04
  1.6219224e-04
  4.1893069e-03
  2.8005393e+00
 -3.2226395e-02
 -3.8092589e+00
  2.3788093e-01
  7.5431779e-04
 -3.5122761e-01
  6.2548506e-01
  1.8615544e-01
 -2.2095580e-02
 -2.2646604e+00
  1.5412530e-01
 -1.6406754e-01
 -8.9887077e-01
  1.8765265e-01
  5.1325321e-01
  2.8127681e-02
  1.1385830e-02
  8.6929724e-02
  2.7715681e+00
  1.9534475e+00
 -6.4775962e-01
  1.7141333e+00
  9.8986727e-01
 -1.5888323e+00
  5.3373858e-04
  1.3338601e-03
  1.7731396e-02
  4.7620940e-01
  8.3833009e-01
 -1.0908390e+00
  9.3212360e-01
  3.6753278e-04
 -1.4253256e+00
  8.5289651e-01
  2.2364300e-01
 -5.8530502e-02
 -4.7622392e-01
 -2.7809322e-01
 -1.8502983e+00
 -1.2514336e+00
  8.1083745e-01
 -6.5825142e-02
  5.9282500e-01
  1.7553207e-02
 -3.1426892e-04
  3.1041044e-01
  1.7745847e+00
 -6.3394256e-02
 -4.8029017e-01
  2.0445068e-01
 -1.3545260e-01
  5.2862061e-04
  1.3097413e-01
 -9.3573070e-01
  1.3507695e+00
 -8.3995569e-01
  6.2298137e-01
  3.4089100e-01
  2.6895797e-01
 -2.2070117e+00
 -2.2685686e-03
  1.9614698e-02
 -2.8832394e-01
  1.4067085e+00
  5.4361778e-01
  1.5690882e+00
  1.8039528e-01
  2.3715326e-01
  3.8404042e-01
 -7.5449955e-01
 -9.0567464e-01
  1.4865761e+00
 -2.4983296e+00
 -9.5223546e-01
 -5.6862032e-01
 -2.0502343e+00
  6.2049514e-01
 -4.2070103e-01
 -3.4984773e-01
 -6.7808127e-01
  2.0157139e+00
 -4.3449289e-01
 -9.0576842e-04
  1.3882428e+00
  2.2181387e-01
 -3.3867467e-04
  1.7361560e-01
 -5.4814186e-02
  3.4550768e-01
 -1.2586308e-03
  5.6973612e-03
 -4.8530746e-01
 -1.0415970e+00
  7.5917363e-01
  3.1365260e-01
 -1.4106346e+00
 -2.1050839e+00
 -2.1935525e+00
  9.4044375e-01
 -5.7156947e-02
 -1.6488779e+00
  1.4366335e+00
 -6.0316571e-04
 -1.0374591e+00
  1.6971163e+00
 -7.4944019e-01
 -1.6127211e+00
  3.1060457e-01
  1.4477366e+00
 -1.5253714e-01
  7.9273462e-01
  2.8192198e-01
  4.8884639e-01
  1.4618666e-01
  3.0565399e-01
  1.5571041e+00
 -8.6274004e-01
  1.3925215e-02
 -6.2725884e-01
 -1.4924158e+00
 -3.3153731e-01
  8.6534001e-02
  8.3681774e-01
 -8.4278506e-01
  1.0808972e-01
 -1.2367458e+00
 -1.4252299e+00
 -1.7170272e+00
 -9.5650065e-01
 -5.3266001e-01
 -2.3137813e-02
  1.4825466e+00
 -1.3636570e+00
 -1.5347782e+00
 -7.1106738e-01
 -8.2825577e-01
  1.5731387e-01
 -1.7201018e+00
  1.2462147e+00
  3.6267444e-01
 -1.0265059e+00
 -5.1685423e-01
 -2.1347446e+00
  1.1729727e+00
 -1.6223226e+00
 -7.6660419e-01
  6.3091946e-01
  1.8712015e+00
  1.9984238e+00
 -1.3040456e+00
  1.1817500e-03
  1.3139702e-01
 -7.9772806e-01
 -1.4417420e-01
  3.5047528e-04
 -5.2663743e-01
 -2.8235817e-01
 -1.3328862e+00
 -2.9475489e-01
 -8.8408386e-05
  1.9778151e-04
 -2.2102210e-04
  5.3862616e-04
 -1.0489526e-04
  1.9490402e+00
 -1.7560930e-03
 -1.0356883e+00
  1.2899104e-04
  3.1861276e-03
  2.5147395e-02
  1.6115131e+00
 -9.1070041e-02
  1.3645696e-04
 -2.7120152e-01
  6.9725025e-01
  4.7351459e-01
 -1.3294730e+00
 -8.3653576e-06
 -9.0473308e-04
 -7.0487821e-01
 -2.4184787e-05
 -4.4638658e-05
  1.7752292e+00
 -6.9278735e-01
  4.0158609e-01
 -2.8236851e-01
  3.2825701e-04
  2.0399303e-03
  6.0684550e-01
 -6.9874346e-02
 -4.8452637e-01
 -5.7930297e-01
  1.5666838e+00
  8.0569619e-01
 -1.4217229e+00
  4.9912243e-04
  3.7210286e-03
  1.6350582e+00
  3.0226441e-04
 -7.9463708e-04
 -1.3001711e+00
  9.1027206e-01
  8.7112159e-01
 -6.0963684e-01
 -2.9692406e-04
 -1.7138715e-04
  1.4701304e+00
 -6.5107226e-02
  3.1363539e-04
 -2.3863715e-01
  2.9601112e-01
 -1.6957350e+00
  3.9857602e-01
 -8.8490145e-03
  2.1951919e-02
  4.6859425e-01
 -1.1374801e-03
 -2.0531091e-04
  1.2579182e-01
 -2.2935544e-01
  1.0822810e-01
  2.0356718e-01
  3.1199970e-04
  9.5060277e-05
  6.1975682e-01
 -7.8786927e-04
 -4.4060458e-04
  1.3169082e-01
  1.5166233e-01
  7.4702185e-01
 -5.4773766e-01
 -2.1478170e-04
 -1.3084602e-04
 -8.3552372e-01
  2.4367703e-02
 -6.0716365e-04
  3.4932247e-01
 -6.8544787e-01
  1.1020479e+00
  4.1197130e-01
  7.4217230e-04
 -5.1791740e-05
 -5.3390441e-04
  1.8364887e+00
 -7.8714947e-04
 -1.0051256e-01
 -6.2184183e-05
 -2.0681340e-03
 -3.4611780e-04
  4.5441679e-04
  4.9645104e-04
  3.5521286e-04
  1.0455807e-01
 -1.9621992e-04
  7.4286002e-01
 -1.5354362e+00
  1.0133008e+00
  1.4843035e-02
  1.4233330e-04
  3.5859041e-05
 -9.7866796e-05
 -1.6167449e-05
 -1.2863278e-04
  8.2554305e-01
  4.7442627e-01
 -1.2651294e+00
 -2.3462176e-01
 -1.6678151e-04
 -9.0172041e-05
 -5.1215617e-04
  1.2998116e-01
  1.0025252e-03
  1.6098413e+00
 -2.0676984e-01
  1.2864296e-04
  1.2326128e+00
 -1.7903598e-05
 -1.9328104e-04
  1.8735866e-04
 -7.6004327e-04
  3.0132625e-04
  2.2277413e-01
  6.0290712e-01
  2.3677928e+00
 -3.9008725e-01
 -4.9026124e-04
 -1.2450911e-04
 -1.6814683e-03
  1.1227306e-03
  1.8175505e-03
 -2.9789591e-01
 -1.2100694e-01
  3.5083172e-01
  1.2823227e-01
 -3.7130638e-04
  2.2943548e-04
  1.8436037e-04
  1.4256079e-04
  3.3066676e-03
  1.6790053e+00
 -4.3260425e-01
  6.4781618e-01
  1.1302797e+00
  2.8328676e-04
 -9.9226745e-05
 -2.4370629e-01
  1.2341246e-04
  1.2213762e-04
  1.0996003e-01
 -1.1670470e-01
 -5.5549800e-01
  7.5992483e-01
  3.4112265e-05
  3.0900785e-05
  6.0358580e-04
 -1.1175007e+00
  1.5806599e-04
  9.3085361e-01
  3.0296886e-01
  4.7354457e-01
 -1.2440590e+00
  2.1560163e-04
 -5.8644579e-04
  7.9080182e-06
 -4.4858761e-04
  2.0666225e-04
  3.3074770e+00
 -4.4384963e-04
  1.0561253e+00
  1.0731401e-04
 -8.8002387e-05
  2.3521659e-04
 -8.9375884e-05
 -6.1671221e-01
 -1.1428091e-03
  1.7134535e-01
 -6.5290114e-05
 -8.6832803e-01
  5.5416721e-01
  7.9688238e-05
  5.4330134e-04
 -1.5925303e-04
 -1.4625989e-01
 -5.3208601e-05
 -7.0594996e-01
 -1.7640723e-01
  5.8950782e-01
 -1.1517719e+00
 -2.5568882e-04
 -5.8557958e-05
  1.3195012e-04
 -9.5952578e-02
  2.2526378e-05
  4.2488712e-01
 -2.3624814e-01
 -6.7974077e-05
 -1.4386457e+00
  1.5571724e-05
  2.9990473e-05
 -6.3823996e-04
 -6.4193946e-01
  1.6191250e-04
  2.7601710e-01
 -1.8761914e-02
  9.2831117e-01
 -1.2023282e+00
 -1.3032455e-04
 -3.1462175e-04
  9.4421921e-05
 -7.3110120e-04
  5.0602999e-04
  1.2443731e+00
  2.8691909e-01
 -5.5984151e-01
 -1.7588577e+00
 -6.0506016e-05
 -1.2574988e-04
 -3.7401574e-04
 -1.2139561e+00
  4.6346145e-04
  5.3460050e-01
  1.1449301e-02
 -6.1601508e-01
 -1.1620218e+00
  1.2950567e-04
  4.6977311e-04
  3.2479249e-04
 -1.5458034e-01
  1.0679079e-03
 -3.4573478e-01
 -4.2544844e-04
  3.7435195e-01
 -3.8033488e-01
  8.1209391e-02
  5.7983905e-01
 -5.7560289e-01
 -4.2451975e-01
  1.0239102e-04
  8.1910998e-01
  6.5046799e-01
  8.3773440e-01
 -7.2067720e-01
 -4.7767779e-04
 -1.8849754e-04
 -3.5333951e-04
 -2.4622568e-04
 -1.3794260e-03
 -1.2827732e-01
 -5.1352754e-04
  8.1647205e-01
 -1.3530845e-03
  1.4305800e-01
  4.2917958e-01
 -1.0573729e+00
 -3.0475262e-01
  1.3123090e-04
 -1.0300132e+00
  5.1510137e-01
 -5.1059473e-01
 -1.0554657e+00
  4.3534455e-04
  2.3134819e-03
 -4.7414926e-01
  3.8323103e-04
 -5.6338776e-04
  1.1829113e+00
 -2.6196876e-01
  1.0421349e+00
  1.1814430e+00
  5.6017127e-02
  3.7169409e-01
  6.5561563e-01
 -6.7580618e-02
  1.3966219e-03
  5.5021333e-04
  9.4257778e-01
 -2.7720198e-01
  4.3629706e-01
  4.9091544e-04
  6.2961280e-03
  2.3521867e-01
 -8.3102268e-04
  7.1426004e-04
 -1.6811706e+00
 -2.9071292e-01
  1.7739015e+00
 -3.6404851e-01
  1.7252043e-02
  8.8048197e-04
 -3.2722604e-01
 -3.1567397e-04
  2.2408756e-04
 -1.8595051e+00
  1.9745208e-01
  1.4553454e+00
 -2.4819447e-01
  5.1089749e-04
  2.7285245e-01
 -9.2193031e-01
 -4.7689285e-03
 -2.1801384e-04
 -7.2367179e-01
  5.9932530e-01
 -2.3782420e-01
  2.4563660e-01
  2.7762221e-03
  5.7715632e-04
 -6.1276716e-01
 -1.0265440e-04
  4.0059313e-04
 -6.6916364e-01
  6.5898895e-01
 -4.1504472e-01
 -2.4276298e-01
  1.2805737e-03
  1.4591812e-04
 -5.6678885e-01
  1.9764587e-04
  2.0183394e-04
 -4.4952878e-01
  9.4970173e-01
  6.6849989e-01
 -4.6445295e-01
  7.6744502e-05
  1.1077342e-03
 -8.4801074e-03
 -4.3000642e-04
  1.0286141e-04
 -5.0203687e-01
  9.6134251e-01
 -2.2462082e+00
 -2.0848941e-04
 -7.7807478e-04
  1.1792111e-04
 -2.4881825e-01
 -3.1448997e-04
  1.7134897e-05
 -1.8085560e-04
  7.0796475e-02
  1.5201791e-01
  7.4885994e-01
 -3.6236265e-04
  2.6221757e-04
 -7.2261542e-01
  7.5493372e-05
 -3.2686543e-01
 -3.5955957e-01
  1.2208991e+00
 -3.5746515e-01
 -1.9269342e-04
 -6.2354951e-04
  1.1585480e-04
 -7.0392393e-02
 -6.0736336e-04
 -2.7420302e-04
 -3.6907947e-01
 -1.6162112e-01
 -1.9209027e-01
 -3.6259642e-01
 -3.0215239e-04
 -4.4720771e-04
 -4.7211391e-01
  7.4071383e-01
 -3.2967547e-04
  6.4621294e-01
  3.2899055e-01
  4.7565749e-01
 -1.0237976e-02
  4.4918660e-04
  1.0796250e-04
 -1.1845767e+00
 -3.3257509e-04
  3.7170283e-04
 -4.6376097e-01
  1.9472663e+00
 -1.7141542e+00
  3.1025329e-01
 -7.2004521e-05
 -6.9427618e-04
 -1.7461379e+00
  1.6220019e-05
 -1.8409664e-04
  4.5606498e-02
 -5.5264262e-03
  6.1282587e-01
 -5.5977422e-01
  1.0583415e-03
 -8.4554231e-05
 -4.6979845e-01
  2.0379124e-03
 -5.8219797e-05
  5.9700429e-01
  2.5606808e-01
 -6.4333051e-01
 -3.0269441e-01
  1.2413758e-02
  1.2413758e-02
  1.2413758e-02
  1.2413758e-02
  1.2413758e-02
  6.7241365e-01
  6.7241365e-01
  6.7241365e-01
  6.7241365e-01
  6.7241365e-01
  1.4738771e-01
  1.4738771e-01
  1.4738771e-01
  1.4738771e-01
  1.4738771e-01
  1.0924964e-01
  1.0924964e-01
  1.0924964e-01
  1.0924964e-01
  1.0924964e-01
  1.6452778e-02
  1.6452778e-02
  1.6452778e-02
  1.6452778e-02
  1.6452778e-02
  1.8038879e-01
  1.8038879e-01
  1.8038879e-01
  1.8038879e-01
  1.8038879e-01
