nep4 3 Ba Zr S 
cutoff 8 4 150 20
n_max 4 4
basis_size 8 8
l_max 4 2 0
ANN 30 0
  4.0988743e-06
 -3.9355012e-07
 -8.8579518e-06
  5.0217191e-06
 -6.2348258e-06
  1.4993098e-05
 -2.7674731e-05
  1.3774560e-05
  3.0288016e-05
  3.5746509e-06
  1.1783910e-05
 -1.7098058e-05
 -8.3529249e-06
  2.2882596e-05
 -5.6910335e-06
  4.7765356e-05
  1.8174846e-05
  7.7347904e-06
  3.3373016e-07
 -1.1043102e-05
  5.6830954e-06
  1.3248701e-05
 -1.1959567e-05
  1.4073392e-04
  3.2487833e-06
 -8.1994931e-06
  1.7044979e-06
  3.3009961e-05
  3.3637757e-06
  2.0281403e-05
  4.2606987e-02
 -1.8027014e-06
  2.0339949e-06
  2.9631474e-06
 -4.8713502e-02
  6.8165991e-04
  4.8157541e-05
 -6.0000337e-05
  1.0758628e-04
  3.8130569e-01
  7.3119186e-02
 -3.2782405e-05
 -9.0318545e-06
  6.4848487e-06
  3.0658676e-04
  1.2416303e-05
 -2.0797622e-06
  1.4593118e-05
  1.4537953e-02
 -7.2044536e-02
 -5.0971898e-06
 -7.3757228e-06
 -5.2180694e-05
  1.2084887e-01
  7.7798240e-06
  7.8919729e-06
  6.4780825e-06
  5.3994091e-07
 -1.0931480e-05
 -2.4309456e-05
 -5.0457561e-04
 -1.5312458e-04
  1.8999144e-06
 -2.2455986e-05
 -4.0586801e-06
  2.2396620e-05
 -3.0243671e-05
 -7.9967303e-06
  1.5315089e-05
 -4.3322993e-06
  2.3600145e-05
  1.2967347e-06
 -5.9289346e-06
 -4.1102496e-05
 -6.1769815e-06
 -3.6451180e-05
 -3.3614429e-05
  2.3735658e-06
  7.4851678e-06
 -1.4136364e-05
 -1.0194107e-05
  1.2915045e-05
 -3.9055306e-04
 -2.4091853e-06
 -7.0149554e-06
  1.4708563e-05
 -1.0119489e-06
  6.4347892e-06
 -9.2963319e-06
 -7.6720098e-06
  2.2119406e-01
  6.7999467e-06
 -9.1313450e-06
 -5.4166634e-07
 -1.6336983e-01
  2.2310922e-01
  9.4121991e-05
  3.3077808e-06
 -9.7794183e-02
  6.5849448e-04
  3.9281062e-05
  3.8386937e-05
  4.5236625e-06
 -3.2101376e-05
 -1.5430342e-06
  2.8199340e-05
  1.6147800e-05
  2.6935084e-05
  4.0925308e-05
  2.5527534e-06
  1.2358737e-06
 -3.1918759e-09
 -3.4296440e-07
  8.5983074e-06
  6.6795051e-06
 -1.2652379e-05
  4.8936933e-08
  3.3854860e-05
 -2.0148451e-05
 -2.2279928e-04
  8.5023958e-06
 -1.1832222e-05
 -5.4044209e-05
  2.7530430e-05
 -1.1465342e-07
 -6.7654000e-06
 -1.5991711e-05
  5.9990671e-06
  2.3065844e-05
 -9.5017604e-06
  2.4639747e-05
 -1.6082383e-07
  2.1918448e-05
  5.6293720e-05
 -7.3439915e-06
 -3.0342630e-08
  5.9262447e-06
 -1.2041183e-05
  2.8624170e-06
  2.1519816e-05
  2.7926006e-05
  6.0910570e-06
  6.9619489e-07
 -2.9262640e-06
 -1.9689141e-06
 -2.4168278e-06
  5.4184483e-07
 -1.9699688e-05
 -1.1143140e-05
 -3.1983463e-06
  3.6278946e-06
 -2.3779735e-06
  1.9065388e-05
 -1.2111791e-06
 -1.8138583e-06
 -2.4751298e-06
 -9.2372261e-07
  1.9661500e-06
  3.4722168e-06
 -3.2913317e-06
  1.1501750e-06
  2.1015581e-05
 -1.6389902e-05
 -1.3446695e-05
  2.0144205e-06
 -6.2163504e-06
  9.1548800e-06
  3.9855440e-05
  1.0389668e-05
  1.1280178e-05
 -2.8267743e-05
 -6.3188651e-07
 -3.8350904e-06
 -1.0932003e-05
 -1.7929275e-04
  1.9326389e-07
  1.0216037e-05
  1.1715809e-04
 -3.5521080e-05
 -6.9806342e-06
 -1.4091953e+00
  1.0098398e-06
  5.4419847e-06
 -4.8032090e-01
  1.5855129e+00
  1.0390168e-05
  6.7858732e-06
 -9.5762538e-05
  1.7478034e-03
 -2.4340475e-04
 -3.2785378e-02
  2.2009408e-06
 -1.7782211e-06
 -1.9930047e-04
 -5.9162489e-06
 -3.5854150e-04
 -3.5406317e-06
 -6.0806451e-06
 -3.5606434e-03
  4.8583716e-02
 -2.4359120e-05
  2.3867195e-05
 -8.3567675e-06
 -7.8702062e-02
 -1.0826414e-04
  4.8115789e-06
  9.3641120e-06
 -5.3068153e-08
  5.6372213e-05
 -8.7471744e-06
 -7.5252259e-01
 -3.3772509e-03
 -8.7621724e-05
 -6.2289625e-02
  7.7564055e-01
 -1.6729411e-02
 -3.7633729e-06
  1.4660704e-05
  1.1429912e-04
 -1.9995722e-01
 -1.0482427e-01
 -9.0122185e-06
  1.1737622e-05
 -2.1403929e-02
  5.2533205e-06
 -9.3898907e-02
  3.4063853e-06
 -7.8991127e-07
 -2.2100380e-02
  7.9549134e-02
 -2.8792676e-04
 -2.8060991e-05
  3.1422605e-05
 -1.6563253e-01
 -2.5947943e-02
  2.3985027e-07
  1.8759380e-05
  1.8325218e-05
  1.1320690e-05
  7.3094811e-06
  2.3814967e-02
  8.4339308e-06
 -2.5046891e-05
 -4.9004539e-06
  6.7356508e-05
  4.0822590e-05
 -4.3463234e-07
  1.2416620e-05
  1.0596761e-04
  7.6523963e-03
  1.4509867e-05
  1.2075262e-06
  7.0964684e-06
  5.9617474e-07
 -4.3204953e-05
  8.5569773e-06
 -1.4685956e-05
  3.6125791e-06
  9.2714268e-05
 -3.6746416e-05
  8.5049403e-05
  3.2249045e-07
  3.3175558e-05
  7.1854105e-05
 -2.5728765e-05
  2.2268480e-06
 -5.7188035e-06
  3.1271275e-06
  1.7044001e-06
  9.2389973e-06
  1.2490368e-02
  9.0554586e-06
 -2.4308538e-05
 -5.3375338e-06
  3.8094715e-06
  4.4596248e-04
  4.5072139e-04
 -6.8515783e-06
  1.4003273e-02
  4.6918523e-03
 -4.5995932e-07
  2.6229532e-07
 -1.0255859e-05
 -5.5444536e-07
  2.4776894e-04
 -6.6761146e-07
  2.5032508e-05
 -9.5919368e-06
 -4.1990748e-05
 -1.2998666e-04
  9.7985758e-06
  5.5621745e-06
 -7.3782604e-07
  7.8056895e-05
  5.5373357e-06
  3.3177119e-05
  1.8953773e-05
 -3.3289682e-05
 -1.2112411e-04
 -1.1365358e-05
 -4.0181923e-01
 -4.7225653e-06
  1.2752159e-06
 -4.7629496e-06
  1.4247288e-05
  2.1614785e-06
 -6.6329976e-06
  2.6839889e-06
  1.0477640e-06
 -1.6258997e-01
 -6.4596902e-06
  9.6986178e-06
 -1.4086731e-05
  2.4913638e-06
  1.0815385e-05
 -8.8202331e-05
  4.1512476e-06
 -8.7563003e-06
 -5.5759127e-05
  8.0226653e-04
  4.6955862e-05
 -4.6724847e-07
  2.1748044e-06
 -3.4719524e-05
  1.4494305e-05
 -1.1246009e-05
 -2.8475017e-06
  9.7563611e-07
 -2.0937396e-05
 -4.8069378e-06
 -8.6644841e-06
 -3.9498536e-06
  2.1516063e-05
 -5.9149112e-05
 -8.0733575e-05
  6.0472735e-07
  3.5689295e-06
 -1.3215138e-04
 -5.0719450e-06
  1.7863628e-06
  1.4398201e-05
  3.3715100e-06
 -2.5663236e-05
 -2.1934298e-05
  2.5650899e-05
 -2.0094272e-05
  3.3341519e-05
 -5.0951567e-06
 -4.7948324e-06
 -3.7621178e-06
  2.8670820e-06
  8.6711716e-06
 -1.8609363e-06
 -1.1008185e-05
  1.7656109e-06
 -1.5211230e-05
  7.8710934e-07
  1.0079143e-05
  1.0031482e-08
 -2.7632032e-04
  7.2615976e-06
 -1.9693609e-05
 -2.7646879e-06
 -2.1345570e-06
 -7.4977293e-06
 -4.1068320e-06
  2.3454428e-05
 -4.8240627e-06
 -2.8150396e-05
  4.7622689e-06
  5.6954123e-06
  3.4784445e-01
 -1.9880219e-06
 -3.6495032e-06
  8.9513139e-07
  1.1943425e-05
 -2.9808576e-05
 -2.8298031e-05
  5.3671654e-05
  1.6471000e-07
  1.8011082e-05
 -1.6815784e-04
  6.6242944e-07
 -6.5919876e-06
  1.3166369e-05
  2.6875932e-06
  4.1165922e-06
 -6.9103216e-06
  7.7009772e-06
  3.7307925e-06
  7.5195212e-06
 -8.1130383e-06
 -4.5981569e-06
 -1.2903154e-05
  6.2947578e-07
  1.5734299e-04
  2.3050488e-06
 -1.3562633e-06
 -1.9498791e-06
  1.4238757e-05
 -3.3319097e-06
  1.7207690e-06
 -2.9868233e-05
  6.9866539e-05
 -2.6074049e-04
 -1.8529887e-05
 -1.1560281e-05
 -2.4342660e-05
  2.6419066e-06
 -1.1599057e-04
 -8.4044495e-06
  1.8209386e-07
 -1.7234750e-06
 -8.6165355e-06
  5.7131688e-06
  2.6548942e-06
  8.8016031e-06
 -8.5897627e-06
  9.9825729e-06
  1.1775494e-05
  2.9911134e-01
  7.6666135e-01
  4.2497102e-02
 -6.3831240e-01
 -8.5032463e-01
  5.7017767e-01
 -1.0835937e-06
  2.1526048e-06
 -9.3152040e-01
  1.4492539e-02
  3.1301302e-01
 -3.8031436e-07
  4.5372044e-06
 -2.6054734e-01
 -3.0654651e-04
  1.6732965e-01
  1.4148181e-05
  3.2820803e-04
  1.3521705e-03
 -3.4638476e-01
  2.4833246e-01
  1.0811630e-05
  3.3591594e-05
  7.1652371e-01
  2.3997276e-01
  5.4357179e-06
 -1.9681429e-06
 -1.2859523e-05
 -5.9689328e-02
 -6.1115794e-02
 -3.1783329e-05
  3.6956073e-05
  1.5181894e-05
 -1.2386816e-05
 -1.6779664e-05
 -5.0738279e-05
  8.0879981e-06
  1.9508898e-06
 -3.8988401e-05
 -1.2582047e-06
 -2.0654454e-06
  5.9425392e-06
  9.5782643e-06
  1.1398048e-05
  1.7115268e-05
 -4.4934321e-05
  1.9867556e-07
  6.7153909e-05
  6.8187190e-05
 -1.3128125e-05
 -1.1170796e-05
  3.3458859e-05
  8.7614426e-06
  2.2128053e-05
  1.0357749e-05
  2.0389255e-06
  8.4408157e-06
 -3.5987400e-06
 -3.0541811e-05
  2.9022892e-06
 -7.8439039e-01
 -4.7703433e-01
  3.7259713e-06
  9.7671538e-08
  2.6655796e-05
 -1.0871285e+00
  6.5581985e-06
  2.2443446e-05
 -6.9288529e-02
 -1.0771809e-01
 -1.4964572e-01
  2.4177660e-05
 -1.2287360e-06
 -2.8217408e-05
  1.1120538e-05
 -6.1262008e-02
 -2.3411415e-06
  1.4131363e-05
 -5.4113969e-02
  4.9891938e-02
 -4.1261412e-02
  6.5795803e-06
 -1.1230833e-05
 -2.9736942e-01
 -2.7112294e-02
 -5.0849038e-05
 -4.8021607e-06
 -1.2277143e-05
  9.3849922e-05
 -1.7793902e-05
  1.5782269e-05
 -1.3626262e-06
  2.8357003e-05
 -3.2992852e-05
  1.3845106e-06
  5.1972866e-06
 -6.4609558e-06
  9.7452457e-06
 -1.1655230e-05
  1.8276558e-05
  3.7881451e-05
  1.2758030e-05
  7.8365508e-07
 -2.6301377e-06
 -1.4512116e-05
  1.1962282e-05
 -3.6248753e-06
 -1.9414515e-06
  1.1987325e-03
 -7.2601642e-06
  2.3134206e-05
 -3.1042538e-05
 -8.6679432e-04
  9.5168133e-07
  7.0433630e-06
 -2.3635370e-05
  1.9184869e-05
  8.2490787e-06
 -2.3177918e-06
  1.1143569e-06
  4.4558188e-01
 -2.1798503e-02
 -1.8955709e-01
  2.6702399e+00
 -2.8197544e+00
  1.0902376e-01
  5.8902366e-05
 -2.7131378e-05
 -2.0898946e-03
  2.3747627e-01
  1.3812903e-01
  9.8206629e-06
 -3.2542698e-07
  2.1318483e-05
  1.6977454e-02
  4.6027612e-02
  7.0514687e-07
  7.2693160e-06
  5.0849874e-05
 -1.1749016e-04
  1.4044450e-01
 -4.4455273e-06
 -2.5384459e-06
  4.2510581e-01
  7.5431958e-02
 -2.1349546e-05
  4.1811977e-06
 -1.4834283e-05
 -2.3706575e-04
  9.7321223e-05
 -2.9762030e+00
 -5.8889035e-02
  1.2173208e+00
  2.2101290e+00
  4.9625844e-01
  3.5222396e-01
  5.2023474e-06
  1.0912054e-05
  4.1188103e-01
  1.8932861e-01
 -3.5607669e-01
 -7.0292131e-06
  6.3577813e-06
  9.6851774e-03
  4.4940607e-05
 -1.4279656e-01
 -4.1360385e-05
 -1.3356446e-06
 -2.4633490e-02
  2.4870406e-01
 -1.2280168e-01
 -6.3590255e-06
 -1.1608548e-05
 -4.7429588e-01
 -1.4437790e-01
 -2.4003055e-05
  1.4712946e-05
  4.2157935e-06
  3.5059638e-02
  6.0539762e-03
  5.4469600e-04
 -2.8046195e-06
  1.6948363e-05
 -9.0240355e-06
 -1.2775389e-05
  2.1773712e-05
  2.9051844e-06
  7.8445810e-06
  1.9667313e-07
  8.3180175e-06
 -1.3021320e-05
 -1.4178446e-05
 -3.0611391e-06
 -4.1982380e-06
 -9.2433976e-07
 -4.5171623e-06
 -1.3086519e-05
 -5.0318104e-06
  1.4357038e-06
  6.7002208e-07
  2.6736964e-04
  2.3046885e-06
  4.1759547e-04
  4.4327735e-06
 -1.0342980e-05
 -2.1991814e-06
  1.5981929e-06
  1.9762445e-05
 -4.8161775e-05
 -4.7484818e-06
 -1.6432154e-05
 -6.7391625e-06
  1.3331764e-05
  5.4436082e-06
 -1.9169702e-06
  2.0161798e-07
 -8.8388770e-06
 -1.7472919e-05
 -2.4900834e-05
 -2.7163598e-05
  9.8686405e-06
  4.9682208e-06
  1.7517356e-06
  1.5303913e-05
 -4.3421966e-05
  1.5791755e-06
 -2.0140947e-06
  4.1486896e-06
 -8.9393239e-07
 -2.7259490e-05
  1.3826884e-05
 -4.9043047e-06
  1.1164586e-05
  3.9664596e-06
 -2.1338297e-05
  5.0144791e-07
 -8.6746359e-06
  4.1295643e-05
  2.9251883e-06
 -5.9065735e-04
 -7.6227361e-06
 -1.3495011e-05
  6.4862365e-06
  1.3590780e-04
 -6.5610904e-05
  1.1618745e-05
 -1.1170329e-06
  2.0805553e-06
  1.1226662e-05
 -1.4916011e-05
 -8.8128655e-07
 -5.4248808e-06
 -4.7465310e-06
 -1.4135159e-04
 -3.5084307e-05
  6.3742468e-06
  3.6534689e-06
 -1.7135628e-05
 -1.3736161e-05
 -5.7272214e-06
 -3.5873607e-05
 -7.4284217e-06
  6.2003664e-06
 -1.9213819e-07
 -7.9525089e-05
  4.9724630e-08
  3.8987846e-06
 -8.0835334e-06
  1.5398633e-05
  4.1190015e-06
 -7.8719443e-01
 -8.4332013e-01
 -7.8610860e-02
  1.8347440e+00
 -9.0335202e-01
 -1.4291819e-02
 -7.8097419e-06
 -8.2240731e-06
 -1.0751385e-02
 -6.2360350e-02
 -1.2976012e-01
  3.9304782e-06
  7.0128885e-06
  3.4460000e-04
  1.2541091e-04
 -1.2041166e-01
 -4.1676900e-05
 -2.0886191e-05
 -5.9614992e-01
  1.5040433e-01
 -1.0064901e-02
  1.5806396e-05
 -6.3654028e-05
 -3.2217008e-01
 -3.2947451e-02
 -1.8499310e-05
 -2.6379959e-05
  1.2013363e-06
  7.9530338e-04
  1.9077594e-05
 -1.0973700e-05
  1.2758872e-05
  1.1214519e-05
  1.1317356e-05
 -7.0986916e-06
  3.4222871e-06
  1.1237415e-06
  2.1059745e-06
 -5.4411584e-07
 -1.2974167e-06
  2.0358259e-05
 -1.3825053e-05
  3.3712145e-06
  2.4655234e-05
  5.1725947e-05
 -4.5636847e-05
  1.3365657e-06
 -1.5756870e-06
 -1.2827029e-05
  2.8127947e-06
  1.8509478e-05
  8.2887258e-05
  1.5647576e-05
 -1.8590296e-06
 -3.1073665e-05
  4.0852534e-05
  4.3434020e-06
 -3.1453499e-05
 -6.4586502e-06
  1.1180326e-05
 -5.6806770e-05
 -5.0940881e-03
  8.7379531e-06
 -1.0844108e-04
 -6.0411367e-06
 -5.3562004e-02
  1.0363102e-06
 -1.2404876e-06
 -2.0677400e-05
 -1.6921911e-01
 -1.3171781e-05
 -5.9488921e-06
  7.2499975e-06
 -1.3912008e-05
 -3.6186004e-06
 -6.6993030e-04
  2.2124615e-05
 -5.3936692e-05
 -1.1230226e-05
  1.3188572e-04
 -3.5986349e-07
 -6.9779555e-05
  1.4150180e-05
 -5.3271146e-06
 -9.5538849e-07
  3.3329643e-06
 -7.9785050e-06
  8.6669945e-07
  8.1103817e-06
  9.0045269e-06
  1.4011280e-03
  6.6898718e-07
 -2.4083977e-06
  5.5978671e-06
 -1.3330538e-06
  3.8057035e-05
  1.8838371e-05
  6.8830701e-08
  1.4856079e-05
  1.3198672e-03
 -4.3764849e-06
 -8.2661827e-06
  4.7113431e-06
 -9.8143410e-06
 -5.0790622e-05
  4.8866201e-05
 -1.8469438e-05
 -1.2738074e-05
  6.6666698e-06
 -9.6192762e-06
  9.3378985e-06
  3.7573028e-04
  5.1757361e-06
 -1.8044717e-05
  6.5189309e-04
  4.9997639e-06
 -1.5511851e-06
 -1.3416587e-06
  3.7341069e-06
  1.4645094e-05
 -4.4775665e-01
 -4.0802024e-02
  2.0632506e-06
 -1.0879392e-06
  5.4397993e-02
 -4.1013736e-02
  3.1151456e-05
  9.7272709e-07
  4.2938930e-07
 -2.2647294e-01
 -1.3744856e-04
 -6.8754853e-06
  2.6429425e-06
  4.2810398e-06
 -1.9044983e-06
 -3.6482095e-05
 -3.3616163e-06
  3.5469806e-05
 -2.1486332e-01
  3.7141237e-04
 -5.3023337e-04
 -1.2546804e-05
  6.9891223e-07
 -1.6493705e-01
 -5.1443093e-03
 -1.4951703e-06
 -2.3203224e-06
 -2.1004998e-05
  1.9570481e-04
  1.7514197e-03
 -2.1453843e-01
 -7.1583563e-06
 -1.3122861e-05
 -1.1730776e-06
 -1.3571969e-04
 -3.4233071e-05
 -8.1446723e-07
  1.3156221e-06
 -1.9549578e-04
 -5.0869234e-02
  7.6844888e-05
 -1.8405501e-06
 -4.1239782e-05
 -3.6877789e-06
 -9.5232344e-06
 -3.9856102e-05
  7.7205107e-07
  2.0839279e-06
  1.6935059e-05
  4.2223242e-06
  4.0287605e-06
 -4.2703407e-05
 -6.8619202e-06
 -1.1514963e-03
 -3.6750404e-05
 -5.1690208e-06
  5.6757999e-06
  1.0170500e-07
  2.0598613e-05
 -8.7217850e-05
  6.2949844e-02
 -6.4947012e-06
 -3.4630386e-05
  5.8535579e-06
 -1.2113901e-05
  1.1479241e-02
 -3.0439332e-06
  1.4280286e-05
  4.4892222e-05
  1.8116243e-02
  2.9021371e-03
  1.5398971e-05
 -3.1789257e-06
  1.5112216e-05
 -2.3526757e-06
  2.0231873e-06
  6.8558745e-07
 -1.2374703e-05
 -1.3075251e-07
 -2.9315073e-05
  1.2441498e-06
  2.2096532e-05
 -2.5198977e-05
  1.8652798e-04
  2.6335321e-05
 -9.5761902e-07
  1.7075447e-05
  8.5886958e-04
 -2.7413280e-06
 -7.0846800e-06
  2.3862864e-07
  1.2457252e-01
 -1.5566646e-05
 -9.2412997e-03
  1.7673981e-04
 -1.9527744e-05
 -3.1246248e-01
 -3.2709619e-01
 -7.7028251e-01
  1.1439960e+00
  1.4760749e-06
  1.3808384e-05
 -7.2822266e-05
  9.0550038e-06
 -2.7653050e-01
 -2.7724986e-05
  1.0196543e-01
 -1.0954861e-05
  7.8512698e-01
 -4.4012807e-02
  5.7165283e-01
 -8.2138549e-06
  1.3082540e-07
 -3.4188208e-01
 -3.3049662e-05
 -2.2302879e-06
  4.7307235e-01
 -8.6699627e-02
  3.3687130e-02
  4.5717171e-01
 -7.1660608e-08
  5.2651912e-01
  6.2846580e-06
  4.9980548e-01
 -1.6329455e-05
  7.5762978e-07
 -1.3999183e+00
 -1.3562309e+00
  1.3717291e+00
  1.6309742e+00
 -1.5000734e-01
 -3.1991247e-05
 -5.5539572e-06
 -3.4450004e-05
  2.4834096e+00
 -1.6759876e-05
 -1.2686465e+00
 -7.5193077e-07
  2.5620446e+00
 -3.1682358e+00
  3.8047794e-01
  6.9296475e-06
 -2.3303462e-06
 -1.7472773e+00
 -2.4032331e-06
 -2.4253464e-01
  4.7604421e-01
 -9.3108624e-01
 -4.9352393e-01
  8.2780427e-01
 -1.0425039e-05
  1.1611286e-04
 -3.0442683e-05
 -8.6334530e-06
 -8.7964772e-06
  5.2073516e-05
  6.6652774e-06
  2.0677124e-05
  5.3295425e-06
  3.6824600e-05
 -1.0860873e-06
 -9.5004416e-06
  4.9664908e-05
 -4.8891975e-06
 -7.9737954e-05
  5.0276803e-06
 -1.0031455e-06
  1.6200775e-05
  1.4389462e-05
  8.0660766e-06
  1.2349566e-03
  7.8192443e-06
  1.0672543e-05
 -4.7289068e-06
 -4.5175617e-05
 -1.9833323e-04
 -3.8550056e-06
  1.4376310e-05
 -5.4730262e-06
  1.4946179e-05
 -2.9786155e-01
  1.5416495e+00
  2.1882184e+00
 -5.6526937e+00
  2.7401943e+00
 -3.4324253e-01
 -2.3802751e-01
 -9.1618218e-02
  5.1416606e-02
 -2.3006484e-02
 -2.6633108e-01
 -4.4393007e-02
  1.3409658e-01
  1.0412378e+00
 -3.7215246e-05
 -2.6092079e-01
 -2.5791693e-01
 -2.3352142e-01
  2.5362971e-01
 -1.7066655e-01
 -9.5262729e-02
  1.0773553e-01
 -6.8031770e-01
  4.6989322e-03
 -3.6692303e-03
  2.7093377e-02
 -4.8400203e-04
 -2.3018163e-05
  6.3230975e-05
  6.9513015e-07
  1.0697585e+00
 -2.0044130e-01
  2.3902115e-01
 -4.4165602e-01
 -3.3819011e-01
 -9.9991180e-04
  1.8410689e-01
  4.1044898e-02
  1.0410300e-06
 -3.2075372e-02
 -4.1349755e-05
 -4.0839463e-05
 -8.9473724e-06
 -1.6664742e-01
  1.3870314e-05
  1.2572908e-01
  1.1308955e-04
 -1.9250441e-03
 -1.3412630e-02
 -3.1510797e-05
  5.6407326e-01
 -9.5347099e-07
 -1.0793980e-05
  5.3979609e-02
 -5.5698263e-07
 -6.1354508e-06
  1.5507134e-05
 -1.7207596e-05
  6.0196497e-05
  1.1382233e-05
 -9.8132223e-02
  3.4276924e-01
 -2.1137053e-01
  2.4201414e-02
 -1.1190073e-01
  1.2787228e+00
 -1.2767682e-05
  2.2002682e-04
  4.8835370e-01
 -9.1853035e-05
  6.3155675e-01
  9.9855676e-02
  1.6665086e-05
 -5.3183362e-06
  2.6072768e-05
  3.8335213e-01
  2.3364738e-02
  1.1838684e-02
  5.2260709e-01
  1.9600716e-07
  3.5110447e-03
 -4.5769793e-05
  1.3946141e-05
 -1.2819041e-01
 -5.9441099e-06
 -1.9449266e-05
 -3.6395384e-05
 -7.7698915e-06
 -5.9512709e-06
  6.4718779e-06
 -1.0017292e+00
 -1.1022526e+00
  1.5892249e+00
 -4.1467509e-01
  4.0467569e-01
  2.2477126e-01
  1.4964745e-02
 -7.2154093e-01
  1.6654445e-03
 -2.6037786e-03
 -1.8080842e-04
 -9.5262326e-02
 -5.4959357e-03
 -5.7342225e-01
  9.1240217e-06
  7.8005068e-02
 -1.8022467e-05
 -6.8398509e-03
  3.4359583e-01
 -7.8818128e-02
 -1.5598133e-01
 -1.0189188e-05
  6.4864039e-06
 -5.9328049e-01
  1.5334153e-05
  4.4055007e-05
  3.5618734e-05
  6.1475944e-06
 -4.1936451e-05
  2.4844569e-06
 -1.5613732e+00
  3.5883625e+00
  7.6425701e-02
 -8.8349134e-01
  2.4714363e-01
 -1.5351856e-01
  1.0734718e-01
 -1.5992378e-01
 -2.0599325e-01
  7.9752123e-01
  8.3141655e-01
  7.5627834e-01
  6.2560129e-01
 -1.3750633e-04
  3.3968445e-03
  1.9773128e-02
  6.1058706e-01
  2.6514569e-01
 -3.6679992e-01
  3.0342022e-01
  1.9222739e-01
 -1.9886911e-01
  1.9763813e+00
  3.3640677e-01
  1.7910872e-01
 -8.3901483e-08
  3.1124015e-05
  4.8473771e-06
  2.8276729e-05
 -8.7227482e-07
 -4.4853243e-01
 -5.1849014e-01
 -4.7895786e-01
 -4.7741781e-04
  2.5902903e-02
  6.8951722e-06
 -4.6761601e-05
 -4.0365680e-06
  3.9383464e-02
 -4.6455004e-04
 -5.9998936e-05
 -1.3013746e-02
 -2.6323016e-06
 -6.0934262e-06
 -5.7032325e-06
 -7.6191704e-04
 -2.9389288e-05
 -8.1635353e-06
 -3.8922407e-02
 -1.1849336e-04
 -4.3492857e-01
 -9.9476836e-07
 -6.5334319e-07
 -3.0590793e-02
  3.7026100e-05
  6.1570513e-06
 -2.7484297e-05
 -9.1100401e-06
  1.0353214e-05
 -3.1863235e-06
  1.1372738e+00
 -6.9351983e-01
  1.2276496e+00
 -5.3753924e-01
  1.0782651e+00
  8.2120874e-05
  7.4978876e-01
 -1.9566213e-04
 -5.9372637e-02
 -2.2552165e-03
  8.4117401e-06
 -4.0861793e-02
 -2.9779880e-03
 -1.1624451e-05
 -4.2447558e-05
 -4.1523647e-01
 -4.6807560e-03
 -1.3142063e-04
 -4.7814600e-02
 -2.6452338e-04
 -6.6905082e-03
 -4.4334115e-07
 -5.0866956e-01
  2.4352444e-04
 -6.7422781e-07
  1.0668060e-04
  7.2807200e-07
  4.6637379e-06
 -9.4442630e-06
  1.0818229e-05
 -1.7958399e-05
  3.5317553e-05
  1.4648634e-05
  4.0265353e-05
 -5.5029395e-06
  1.2597847e-06
 -3.1161002e-05
 -6.1650653e-06
 -7.7189526e-07
  3.2585929e-05
 -2.1898566e-05
  2.2151323e-06
 -3.6584197e-07
 -4.8714028e-06
  4.7090675e-06
  4.7056997e-06
 -9.0860067e-06
 -5.1921129e-06
 -1.7559571e-05
 -7.0704311e-07
  6.0403922e-06
 -5.2149030e-06
  1.9103756e-05
 -1.5083300e-05
 -1.3886814e-06
  9.8083583e-05
  1.8708808e-04
 -2.8104465e-05
 -9.4994764e-05
 -1.4578058e-04
 -1.6405341e-01
 -4.6076494e-01
  7.0550072e-01
  3.5051526e-05
  5.0959837e-01
 -1.0488553e-01
  8.5722715e-02
 -9.4669349e-06
 -7.8110759e-05
 -5.4737396e-04
 -4.7045631e-08
 -2.5367324e-04
 -1.6986012e-05
 -3.3237583e-08
 -3.1480566e-05
 -2.2971769e-01
 -1.5490236e-02
 -6.9901871e-06
 -3.1752661e-01
 -3.5226517e-04
 -1.3060251e-03
 -5.1052430e-06
 -1.3407292e-05
  4.7976297e-05
  3.0096271e-06
  6.2062595e-06
 -1.8987928e-05
  3.3324442e-05
 -3.1325515e-06
 -5.8073583e-06
 -1.1981738e+00
  3.3267882e+00
  2.6013854e-01
 -8.9180315e-01
 -9.1575913e-02
  1.5531460e-02
  6.0380042e-01
 -2.3094004e-04
 -3.0871365e-02
  9.0833189e-04
 -1.9706592e-01
  1.5327121e-01
  3.9283276e-01
 -2.7239279e-05
  7.4259260e-05
  2.1089366e-01
  6.7497045e-02
  9.6682437e-02
  4.8972401e-01
  7.1366958e-02
  5.9584570e-01
 -3.2087723e-06
  4.0214297e-01
  2.0092675e-02
  1.3827353e-05
  3.5067427e-05
  1.3764694e-05
 -3.8228027e-05
 -3.6465315e-06
 -9.7428256e-06
  3.1319639e-06
 -9.5037567e-06
 -5.6356221e-06
  1.0174326e-05
 -5.0218050e-06
  2.0178447e-06
 -1.0076936e-04
 -3.0889398e-05
 -1.2408531e-05
 -7.8597277e-06
  4.7171079e-07
  2.5753574e-05
  1.8528503e-05
 -3.1480170e-06
  1.7786848e-05
 -2.4249784e-06
 -7.2396560e-06
  6.8206631e-05
 -2.0644977e-06
 -2.1978031e-04
 -8.7892926e-07
 -7.7043233e-06
  6.4611409e-06
 -2.2540964e-05
 -6.7349083e-06
 -1.7700504e-05
 -4.2387790e-05
  2.1711438e-05
  2.8995140e-05
 -1.4694567e-05
  1.6502265e-06
 -1.4270040e-06
 -1.2283246e-07
  5.0548001e-06
  4.2732509e-06
  4.2664838e-06
 -7.0086289e-06
  5.3225976e-05
  6.9810318e-05
 -6.9129760e-07
  1.0495903e-05
 -2.0327070e-05
 -1.5094353e-05
 -1.3245656e-06
  3.6714728e-06
 -3.9446968e-06
  4.2286782e-05
 -9.0799676e-06
 -9.7523061e-06
 -8.6884129e-06
  1.3071433e-05
  2.5076588e-05
 -8.4675637e-05
  1.3473826e-05
 -2.1386620e-06
  3.6878043e-07
  8.6088639e-06
 -6.1623844e-08
 -7.7953774e-07
  1.1394933e-05
 -1.7768863e-06
  2.9481236e-05
  5.4748656e-05
  2.6151147e-06
 -2.8531225e-05
 -1.1232893e-05
 -5.1718080e-06
  2.8144917e-05
 -1.5407163e-06
 -2.8360046e-06
 -8.5484986e-05
 -2.7593613e-05
 -1.0408769e-05
 -1.6442344e-04
  1.7563148e-06
 -4.2223324e-05
 -5.2035793e-06
 -4.4163662e-06
  4.3150467e-05
 -1.5518221e-05
 -4.5687540e-07
 -2.6526802e-06
 -1.6643271e-05
 -2.2335903e-06
 -1.4257829e-05
 -4.1702402e-05
 -8.3249579e-06
  2.0999289e-05
  6.7123619e-06
 -5.4944598e-05
  3.2169810e-01
 -5.6486380e-01
 -4.9363151e-01
 -1.9403005e-01
 -6.7234731e-01
 -1.3782443e-04
 -4.4585951e-05
 -9.2228880e-04
 -1.1754575e-04
 -2.4584547e-04
 -6.2540770e-05
 -1.3042566e-04
 -6.8760775e-05
  9.2788159e-06
 -2.5156194e-05
 -1.2908526e-05
 -1.8810881e-04
 -2.8363915e-05
 -5.0489813e-02
 -1.8022545e-05
 -1.4210334e-01
  1.9032348e-06
 -1.6883081e-02
  5.0973260e-01
 -7.4316000e-07
 -3.5721325e-06
 -1.1447852e-07
 -7.5034150e-06
 -1.3012433e-04
  7.2367227e-05
 -2.7107770e-05
 -2.0988471e-05
 -1.4765893e-05
  5.5911719e-06
  2.0700706e-04
  9.5740625e-06
 -1.5542387e-06
  1.1674156e-06
 -7.3801607e-06
  1.3780880e-05
  1.9164188e-05
  3.7176760e-06
  3.0637249e-05
  3.1665859e-05
 -1.4688271e-06
 -3.4768643e-06
  7.8850218e-07
  9.7791153e-06
  1.9318337e-05
  4.8287206e-06
 -4.6581031e-06
 -4.3044779e-06
 -1.8680354e-05
  1.0791347e-04
  2.4055544e-06
 -4.7077783e-06
  7.0190972e-06
  1.7172069e-05
  9.2667133e-06
  5.7632548e-07
  1.0337052e+00
 -1.7205834e-01
  5.5704349e-01
  7.8784221e-01
 -7.2816104e-02
  3.6442872e-02
  5.8023262e-01
 -2.3591995e-02
 -3.6525576e-05
 -1.3505276e-04
 -9.1590810e-01
 -2.8298002e-05
  2.0089078e-04
  1.8060209e-05
 -1.0886140e-05
  2.0110430e-01
 -1.4071519e-03
 -3.0407118e-05
  1.2309519e+00
 -1.5136605e-05
 -1.7903574e-05
  2.2607273e-05
 -4.1616899e-03
  6.5852195e-02
 -1.1546702e-04
  7.1303410e-05
 -3.4650855e-06
 -6.6453649e-06
 -1.5364759e-06
 -2.6815376e-06
 -1.1193272e-04
  1.9209700e-05
 -5.8254855e-06
  1.2296990e-05
  8.0865109e-05
  1.4538457e-05
 -1.3727032e-06
  1.3908364e-05
 -3.2189544e-06
 -1.3704986e-05
  9.9234256e-08
 -4.6254577e-06
  3.3479915e-05
  2.2046930e-04
 -1.5815083e-05
  3.1653349e-06
  7.8798021e-06
  5.0933850e-06
  8.3560313e-05
  7.0025126e-05
 -1.5215089e-05
  2.5771729e-07
 -4.3914206e-06
  8.5103793e-06
 -2.4560466e-05
 -2.3249053e-05
  1.8415256e-05
 -7.7740395e-07
 -2.2800223e-05
 -7.9615520e-06
  1.2728684e-05
 -1.2019162e-04
  2.0608788e-05
 -4.9917089e-06
 -4.3847958e-05
 -1.1860475e-06
  7.7246632e-06
  3.3648030e-06
  6.3586590e-06
 -1.4428396e-05
  1.4137939e-05
  1.6047985e-06
  2.0932481e-05
  1.4517169e-06
  9.7746677e-05
  4.9043156e-05
 -5.4419284e-06
 -4.3813793e-06
 -9.5352634e-06
 -4.8291386e-06
  2.6586513e-06
 -7.3301344e-08
 -3.7707014e-06
  9.2695343e-05
  3.0318834e-06
 -1.5609858e-05
  6.5174743e-07
 -1.6496020e-05
  5.9977315e-06
  4.5708275e-06
  2.3766746e-05
 -1.4985652e-05
  8.2231363e-06
 -1.6737380e-04
  3.3958229e-06
 -1.6336237e-06
  2.0572502e-06
  3.1339032e-06
  7.4567579e-06
 -1.3612043e-05
  1.5701866e-05
  4.3644290e-05
 -1.5329632e-06
  5.1264075e-04
  3.7294154e-05
 -4.4008294e-07
 -4.0248301e-06
  3.4498220e-04
 -1.5695919e-06
  1.4769798e-04
  1.0246044e-03
 -2.2218603e-05
  7.9285155e-06
 -1.5768604e-05
 -5.5030596e-05
 -2.1264791e-06
  1.3423136e-05
 -1.3794082e-04
 -1.5876967e-05
 -1.1199303e-05
 -1.4314433e-05
  1.9237364e-06
  1.6047175e-06
  2.3024213e-05
  1.7554399e-07
 -2.4773896e-04
 -2.0051044e-07
  2.0628968e-05
  4.3869464e-04
  3.6445242e-06
 -8.7712385e-04
 -9.1220527e-06
  2.2851991e-05
 -3.0298481e-06
 -3.9623304e-05
 -3.5788817e-05
  4.6899809e-06
 -1.9620436e-05
 -1.2322165e-06
  1.0401883e-05
 -3.8035980e-06
 -3.2853454e-06
 -1.9674264e-05
 -3.1279669e-05
 -3.3389138e-06
  1.5626705e-05
  3.9985680e-06
 -2.7121596e-06
  3.0504956e-05
 -9.3546505e-06
 -4.6549731e-06
 -6.7436685e-07
  2.4206747e-05
 -5.2655159e-06
  3.9234779e-05
 -9.4063535e-06
 -1.1189954e-05
  9.3628241e-06
  4.1289959e-06
  4.2432789e-06
 -1.1307288e-05
  4.6624723e-06
 -3.2359054e-05
  8.8004725e-08
  6.9488786e-02
 -9.9633316e-06
  1.8264142e-05
 -2.1875574e-05
  2.6228429e-06
  2.6402288e-06
 -9.4791954e-05
 -3.5275157e-06
 -2.7525020e-06
 -4.5196230e-06
  1.3318354e-05
 -8.0286036e-06
 -1.4305481e-05
 -5.9140795e-05
  9.3598483e-06
 -1.7246273e-05
  1.9695686e-05
  3.2910259e-04
  2.7812222e-01
  1.9492514e-05
 -7.9107321e-07
 -4.2480237e-06
 -2.0716647e-05
 -2.1810714e-05
  4.3436517e-06
  2.3003431e-05
  7.3895544e-06
 -9.4972938e-06
  8.2383140e-06
 -5.3244125e-06
  3.8295300e-07
 -2.0580897e-05
 -5.2345304e-06
  9.4794659e-06
  1.1321071e-05
 -1.9389807e-05
  1.2971529e-07
 -2.4806710e-05
 -8.7481385e-06
 -2.4523408e-06
 -2.2310594e-05
 -8.7634926e-06
  8.4245894e-06
 -2.2553348e-05
  2.2234837e-05
 -1.3799992e-06
 -7.3350038e-06
 -1.2929335e-05
 -1.0539843e-05
  3.9660281e-05
  1.2145771e-05
  5.8590449e-06
 -1.3446842e-05
  4.8906852e-05
 -3.3023593e-06
  2.4005405e-05
 -3.5256664e-06
 -2.3206643e-05
 -1.5950347e-04
 -3.2088710e-06
 -2.5101397e-05
  1.6448153e-05
 -1.6116759e-06
  3.6894995e-05
 -7.2309917e-06
 -5.0162075e-06
  1.9271054e-05
 -2.9807723e-05
  3.0728555e-04
  1.5566670e-04
 -5.2122955e-06
  1.9523355e-05
 -2.0970185e-05
  3.2951168e-05
  9.1234497e-06
 -1.7254973e-06
  6.4225669e-06
 -4.4868687e-01
 -6.6087268e-05
  3.1869149e-05
 -1.8252315e-02
 -4.7175729e-04
 -1.0545903e-01
 -2.2873060e-04
 -8.3361292e-06
 -3.9907736e-05
 -3.3153829e-05
 -2.0051548e-05
 -2.7252177e-05
  6.9677888e-05
  4.2999553e-05
 -4.1459922e-02
 -1.4613831e-04
 -6.4383181e-05
 -2.3920950e-01
 -6.7319770e-06
 -6.8625130e-02
 -9.2848240e-06
 -1.2847626e-05
  3.1628540e-05
  1.0314953e-05
 -1.3536467e-06
 -2.6469463e-06
  5.8564510e-06
  3.1341191e-05
 -1.8187480e-05
  1.6216381e-05
 -8.7970533e-05
 -5.3412114e-06
 -9.9287245e-06
  1.6405793e-05
  3.5073742e-06
 -2.5565043e-04
 -2.5104712e-06
 -1.2582552e-04
  1.2717425e-05
 -5.2594627e-05
  3.2447144e-06
 -3.3013787e-06
 -4.6044956e-05
  1.4549366e-05
  3.0116609e-05
  1.1473388e-04
  4.3251898e-06
  1.9369831e-05
  1.5976320e-05
  6.0600819e-06
 -1.0502685e-05
 -2.0890695e-05
  6.4774572e-06
 -3.5204303e-05
 -7.2750867e-05
  6.6585567e-06
  9.1916590e-06
  4.1191947e-06
  5.0012245e-06
  5.4480879e-06
 -1.5681660e-05
  1.4222970e-05
 -5.2615592e-06
  1.8655707e-06
  1.8877401e-05
 -2.6443397e-05
 -2.7703383e-05
 -3.1045890e-06
  3.9929905e-06
  4.9713176e-09
  2.5332840e-06
  3.4391778e-06
 -6.4695168e-06
  6.0630356e-07
 -8.4343601e-06
 -1.5546172e-07
 -2.9089365e-06
 -7.6963779e-06
  4.7162152e-06
  4.2271204e-06
  1.7731454e-05
  1.3891000e-05
  1.1636650e-05
  2.1577998e-06
  1.8294097e-05
 -6.1644153e-07
  2.5202305e-06
 -1.3249143e-05
  1.5413145e-05
  8.9742237e-01
 -3.4310988e-01
  3.3202363e-05
  6.8289082e-05
 -2.4640076e-01
  3.5467547e-06
 -4.5079137e-06
  4.7478843e-03
 -2.7612434e-06
 -1.9592584e-05
  2.5919501e-06
 -1.8359216e-05
 -1.8700553e-06
 -3.4494412e-01
 -2.5079094e-06
  1.4014590e-01
  2.9573075e-06
 -2.8470422e-05
 -2.0006837e-02
  6.6056277e-06
  4.2939371e-01
  4.0646533e-05
  8.0019920e-05
  7.8277226e-04
 -1.3981763e-06
  6.7539688e-05
 -4.0284272e-06
  6.3970328e-06
 -3.3066392e-06
 -1.9334675e-05
  1.2901491e+00
  2.6107881e+00
  7.5966430e-01
 -2.7255206e+00
  3.5487120e+00
 -1.5217064e-01
 -5.6311123e-02
  1.3876197e+00
  1.8137716e-01
 -2.4822882e-01
 -4.0331379e-01
 -2.2559693e-02
  5.1758485e-04
  1.4357688e-01
 -3.8244361e-01
 -4.6058774e-02
 -1.4954793e-02
  3.6574912e-01
  4.3541324e-01
 -2.1742922e-01
 -1.0947243e+00
  6.4257419e-01
 -2.8559443e-01
  2.0292618e+00
 -4.8517128e-03
  2.3058400e-01
 -1.6084388e-04
 -4.5157496e-05
  2.2567636e-01
  2.1266200e-05
 -6.8070170e-07
  4.8927313e-06
  3.5443617e-07
 -1.3925909e-05
  2.0988984e-06
  1.2532333e-05
  3.0468243e-05
  1.4320352e-05
  9.7874427e-06
  1.7084540e-06
 -7.9020851e-05
 -1.3647773e-06
  1.7235610e-05
 -1.7201015e-05
  1.5038253e-04
  2.1020916e-05
  8.6888467e-06
 -2.0673966e-05
  4.9707864e-06
  8.0642967e-06
  2.6351014e-05
  2.4601344e-05
  1.5958223e-05
 -1.5257743e-06
 -5.8935337e-05
 -8.1882885e-05
  2.2416176e-05
 -3.4568816e-07
 -1.3484280e-05
 -1.4298548e-05
 -7.6698831e-07
 -8.6368106e-02
  4.2921329e-01
 -7.7442682e-01
  2.3455931e-01
  3.2669091e-01
 -4.2619359e-01
  3.7375501e-01
  1.6976014e-06
  2.8987578e-01
  7.4851072e-01
  1.6890773e-04
  8.7306698e-06
  3.5074365e-06
  2.6864916e-01
  3.3482513e-05
 -4.4709665e-01
 -4.4396597e-06
  1.5875508e-05
 -5.0404632e-01
  1.5275875e-05
 -2.3621965e-06
 -5.8070386e-06
 -1.3420403e-05
 -2.2739542e-01
 -1.4464850e-05
 -1.6089831e-05
 -4.1135257e-01
 -3.0364108e-01
 -3.0572401e-04
  4.0749732e-01
 -3.3042977e+00
 -1.3122240e+00
  2.2375488e+00
 -1.5359092e+00
  3.3716576e+00
 -1.0370964e+00
 -1.4611906e+00
 -4.3713607e-07
 -1.0948321e+00
  1.8312348e+00
  1.3393844e-06
  1.7992394e-06
 -4.3433720e-05
 -1.1543994e+00
  5.4942712e-04
 -2.0582838e+00
  1.6753203e-05
 -4.1261483e-06
  7.8095816e-02
  2.7223443e-06
 -4.4496355e-06
  7.4912823e-05
  3.7716802e-06
 -7.8376371e-01
 -2.3262169e-06
 -5.8118740e-06
 -1.6247635e+00
 -3.1884832e+00
  1.9481045e-05
  3.8048437e-01
 -9.9571759e-01
  1.3324347e-05
  4.8083748e-05
  9.0670824e-01
  9.3556203e-02
  2.7522516e-01
 -1.5414868e-01
 -8.4161907e-01
 -1.5590651e+00
  1.4044457e-05
 -2.4613512e-01
  9.5269509e-02
 -1.3275530e+00
 -5.8432471e-04
  7.6306424e-06
  6.3386537e-06
  3.1884358e-04
 -1.7247243e-02
 -2.1344371e-01
 -4.8797583e-06
 -2.5613562e-03
  3.8884507e-05
 -1.5762906e-01
  2.1262489e-04
  8.2788411e-06
  3.7371454e-05
 -4.6672849e-05
  5.0721354e-07
  7.5575639e-07
  2.9298478e-01
  1.6232382e+00
  2.6800495e-02
  1.0921593e-05
  3.5787159e-01
  2.4404375e-01
  1.8123209e+00
 -6.3700628e-01
  1.7056774e-01
 -2.4998114e-01
  2.7246244e-06
 -2.9303381e-05
 -4.0085220e-06
 -1.4315824e-01
 -8.0915469e-01
 -2.7328160e-01
  1.6705288e-05
 -2.0160589e-01
  5.1144427e-01
 -9.4879843e-02
 -3.4057111e-03
 -8.3841216e-03
 -7.3717147e-02
 -6.6086330e-05
 -3.1541574e-01
 -6.6352829e-02
 -7.3204516e-05
 -6.5861541e-06
  1.9350623e-01
 -1.4259282e-01
 -1.6028898e-05
 -1.3881173e-05
 -1.4445493e-05
 -1.4240147e-06
  3.0807441e-05
 -1.7887740e-05
 -5.7571810e-06
  8.7399485e-06
 -9.5334253e-06
 -2.3030319e-05
  1.8804957e-06
  1.7616332e-05
  9.4536551e-07
  4.9198548e-05
  5.2513948e-05
 -4.4411731e-06
 -2.4335891e-06
  1.6145350e-05
  7.4447225e-06
  1.1234879e-05
 -2.0232674e-05
  1.0148106e-04
 -1.5761414e-04
  3.7940140e-06
 -6.0489469e-06
 -1.0733652e-06
  1.9189920e-05
 -6.7091560e-07
 -7.1200961e-06
  1.8671163e-06
  2.6589294e-05
  1.5718688e-06
  4.7194590e-05
 -4.9780965e-06
 -7.4615518e-06
  1.2078838e-05
 -4.5396350e-06
 -3.4774573e-06
  6.4450403e-05
 -3.1553800e-04
 -2.1606563e-06
 -1.2892203e-05
  5.9635631e-06
  3.3919537e-06
 -4.3237982e-05
 -1.3970654e-06
 -1.9614838e-05
 -1.2073497e-05
  2.6924305e-05
 -8.1640781e-07
  4.3837295e-05
 -7.5244469e-07
  2.7003352e-05
 -9.1746961e-07
  2.6655591e-06
 -3.1032003e-05
  3.0452020e-06
  8.0199852e-06
  8.4426283e-06
  9.2645678e-06
 -4.3853337e-01
 -2.1895283e-01
  1.7970984e+00
  6.5069050e-01
 -9.0707615e-02
 -7.5020498e-01
  4.8785079e-02
 -3.0439478e-01
  4.9002680e-01
 -5.1155686e-01
 -1.1345904e-06
  8.7325895e-01
  3.0358289e-03
 -4.2007798e-01
 -3.3997726e-02
 -1.3693364e-04
  8.8546760e-05
 -4.6366203e-01
 -8.0836314e-01
 -3.5009503e-02
 -1.1409424e-01
  5.6369456e-05
 -1.2095343e-01
 -4.8941398e-05
 -2.4328972e-01
 -6.7319325e-03
 -8.4595359e-04
  1.8112833e-03
  1.7022367e+00
 -1.2338121e-04
  5.1145937e-04
 -1.7821703e-03
  1.4457491e-06
  5.6110439e-06
  9.0686037e-05
 -2.3214846e-04
 -2.4800322e-05
 -1.2724327e-06
  1.3517859e-05
 -2.9286126e-05
 -1.2669455e-05
  5.3591768e-05
  1.9129355e-05
 -1.2268471e-04
 -7.1520265e-03
  9.2346418e-06
  3.3472763e-06
 -5.2354162e-06
 -6.6217029e-01
 -1.2014631e-05
 -4.1332733e-05
 -1.1599117e-05
 -4.8388270e-04
 -1.4097185e-05
 -2.4308058e-04
 -6.6852526e-06
  1.5490566e-06
  4.5336095e-05
  4.7727957e-07
  6.6550224e-06
 -7.1239037e-06
 -1.0737263e-05
 -4.9580199e-06
 -1.0331643e-05
 -3.6032441e-05
  1.5864183e-06
  2.2944218e-05
 -6.0949465e-06
 -9.1794109e-06
  1.9517005e-05
 -4.0350637e-06
  2.4769445e-06
  1.9744801e-05
 -7.0930928e-02
 -2.8763554e-04
 -4.0063347e-05
  9.7465900e-06
  7.1720235e-05
 -1.8562097e-05
  1.3514318e-06
 -3.0009136e-05
 -4.0805673e-05
 -2.0768941e-05
 -1.6709948e-05
  6.6044172e-06
 -1.4157165e-04
 -4.5004695e-06
 -5.6922677e-06
  2.9632798e-05
 -6.2757562e-07
  2.3476746e+00
  4.8744035e-01
 -1.0695404e-02
 -1.5972774e+00
  2.9392557e+00
 -2.7347314e-01
  1.6960423e-02
 -1.1374646e-01
  3.5073808e-01
 -8.0781564e-02
  4.2633861e-01
  4.7537500e-01
 -1.2817889e-01
  1.1650053e+00
  2.3155922e-01
  3.2306248e-01
 -2.8285587e+00
 -4.7493729e-01
  6.2587094e-01
  3.0285156e-01
  5.5075172e-02
  1.7576862e-05
  3.4831622e-01
  1.0031261e+00
 -1.4300091e-05
 -7.1382933e-06
 -1.8743725e-01
 -3.7967038e-01
 -6.2263143e-01
 -4.8078460e-04
 -1.0122508e+00
 -1.4625055e+00
 -9.3695544e-02
  7.7567816e-01
 -1.0668796e+00
 -7.6017283e-02
 -1.1114150e-01
 -5.3278025e-04
  1.3516352e+00
 -4.9800494e-01
 -5.2914917e-01
  2.4221568e+00
 -7.9769857e-02
  1.0333245e-01
 -1.9856477e-01
 -1.5707380e-06
 -6.1796468e-01
 -9.1848485e-03
 -8.8075787e-02
 -2.7872261e-01
 -1.6398282e+00
 -4.2642910e-02
 -1.2417001e+00
 -1.0377241e+00
 -9.8718673e-01
 -9.9966407e-04
 -2.2218595e-01
  3.4324232e-01
 -1.0742545e+00
  6.0300016e-01
  1.1309942e+00
 -1.6570863e-01
  8.7854909e-03
  4.4455168e-01
  1.0019835e+00
 -6.7888379e-01
  5.2349651e-01
  2.2810681e-01
 -6.2071788e-01
 -7.1282424e-02
 -2.3117518e-01
  6.7507327e-01
  2.5761476e-01
 -1.1626886e+00
  5.3452766e-01
 -1.2203588e+00
  2.9350206e-01
  3.3105674e-01
 -5.3947330e-01
  1.5253469e+00
  1.7759397e-05
 -7.4912004e-06
  6.0916495e-02
  3.7781394e-01
  9.6658427e-01
  4.9388078e-03
  7.0928442e-01
 -1.1707122e-03
  1.0014906e+00
  1.0776885e-06
  3.2180287e-05
 -1.2865959e-06
 -5.8868195e-06
  1.2223011e-05
 -9.7435704e-06
  4.3618338e-06
  6.2189279e-06
  4.1935468e-06
 -2.1966009e-06
  2.7412923e-06
 -2.3731896e-05
 -5.6958047e-06
  7.6572078e-06
  7.5668186e-07
  5.6920794e-06
 -3.2863045e-05
  1.5036715e-05
 -1.1682604e-05
 -1.8948254e-05
  1.2950105e-06
 -1.3950498e-05
 -8.1103435e-06
 -1.6550814e-06
 -2.8936087e-05
 -4.3120140e-06
  1.1422483e-07
  2.5223038e-05
 -3.9996862e-06
  3.3115853e-06
  7.7122297e-07
  3.0150122e-05
 -8.2244042e-05
  1.1504861e-04
  3.1011317e-02
 -7.4512541e-06
 -1.5549240e-05
  3.2630771e-07
  3.2785792e-05
 -1.9880431e-06
  3.7145066e-05
 -6.4294500e-07
  3.9414490e-06
  8.2236955e-05
  3.8208272e-03
  2.8292162e-03
  3.6476054e-06
 -4.9419195e-05
  1.2069620e-06
 -1.3784184e+00
  3.7307618e-05
 -2.2153597e-06
 -1.1956145e-06
 -9.2711053e-07
 -3.6874260e-06
 -2.3095648e-05
 -6.8584231e-05
  2.5103841e-07
 -4.3051376e-05
 -5.0028193e-06
 -1.8350491e-05
  1.0431981e-01
  1.2287616e+00
  5.0099745e-05
  3.2050372e-04
 -2.3920384e-04
  9.7777873e-02
  7.9027241e-06
 -3.2334141e-05
  2.8401436e-02
  4.9087430e-06
  9.0718895e-05
 -2.6957846e-07
  1.8176819e-01
 -1.2909410e+00
  6.9214858e-02
  8.5857500e-06
  1.1624740e-05
  1.1546853e-06
  4.1782674e-01
 -1.9843625e-04
  2.8409946e-05
  2.1645328e-05
  1.7516368e-05
  1.4997281e-04
  1.7116641e-05
 -1.8034629e-05
  6.6219589e-05
  1.1292273e-05
 -5.7744280e-02
 -6.6366219e-06
 -5.3584206e-01
 -8.6995226e-01
 -6.7854553e-01
  2.6900160e+00
 -3.5927144e-01
 -2.0565420e-01
 -7.7588535e-03
 -3.1925014e-01
  1.2732706e+00
 -1.5654698e-01
  1.0208656e+00
  9.0676045e-01
 -3.2235777e-01
  2.1886458e+00
 -2.8331140e-01
 -2.1008829e-02
 -3.3833581e-01
  5.3018922e-01
  9.9003381e-01
 -1.7465849e-01
  5.1676625e-01
  3.5909761e-02
  2.1623378e-04
 -5.3180116e-01
  8.2270932e-01
  3.1066380e-02
  2.5768735e-04
 -1.3912602e-06
 -1.9816819e-03
  1.1419782e-02
  4.5845634e-01
 -9.2653781e-02
  6.9794886e-02
 -9.5519775e-01
  3.3029974e-01
 -6.0879294e-02
 -1.1547343e-01
  6.3222116e-01
 -2.1344952e-01
  3.9716277e-01
 -8.7979993e-07
 -5.1444571e-04
 -3.2991510e-02
 -1.2107121e+00
  6.7227697e-01
  4.6152648e-02
  1.4699998e-02
  1.2496641e-03
  1.1667397e+00
  2.4694169e-01
  1.3546545e-04
  4.2927459e-07
  3.6058648e-04
 -7.6204196e-02
  9.5479824e-02
  8.2136087e-02
 -1.1894537e-05
  1.2010084e-04
 -8.3385408e-03
  2.3168893e-01
 -6.5271115e-07
  5.6666398e-01
  1.0134012e-01
  3.1515330e-05
 -9.7121308e-03
  2.4436815e-07
 -5.5714252e-05
 -2.7822024e-01
 -2.2410794e-01
  4.8183963e-01
  6.0940157e-03
  2.4153793e-04
  1.2672022e-06
  5.3677845e-01
  8.1563216e-01
 -4.2514380e-06
  1.8507907e-04
 -9.0547997e-05
 -4.0585226e-01
  8.9969181e-02
 -3.3452309e-06
  5.4706152e-07
 -1.7012862e-05
  9.9351200e-05
  7.5611155e-05
  4.3693572e-06
 -1.4871172e-05
 -7.0829292e-06
 -1.7290239e-04
  1.6712432e-04
 -2.3068986e-05
 -5.7718407e-06
 -1.4768792e-05
  1.4059009e-05
 -2.1546625e-06
  1.4527199e-05
  4.1690469e-06
 -2.9082180e-06
  1.1963112e-05
 -3.9888532e-06
 -1.1386949e-05
 -9.1873773e-07
  6.6658545e-06
 -1.4736551e-05
 -2.7788004e-05
 -1.9271123e-05
 -3.2227297e-05
  3.1838226e-05
 -1.8002287e-05
 -1.3534058e-07
  1.2531671e-05
 -3.2245334e-05
 -9.2288474e-06
 -1.3034020e-05
 -2.5062659e-04
 -1.3173159e-04
 -2.1383195e-05
  4.3294244e-06
 -3.4047989e-05
 -2.8802839e-05
 -1.2989824e-05
 -1.1843797e-03
 -1.3988926e-05
 -1.3156809e-05
 -2.7004399e-04
  4.1827948e-06
  9.0558451e-06
 -1.0721327e-05
 -1.9511117e-05
 -2.8996387e-01
 -2.3725061e-05
  3.0176665e-04
 -2.5541678e-05
 -1.8455811e-06
 -2.9181262e-02
 -2.4493207e-05
 -2.6660937e-05
 -1.3116420e-05
  7.2313577e-01
 -3.3739769e-05
 -6.5758031e-06
 -2.5094150e-05
  9.9882918e-06
 -9.8202239e-05
 -3.3399971e-05
 -6.2405911e-06
  5.5252201e-07
 -6.1915453e-06
  2.7822475e-06
 -2.0405794e-05
 -2.0076091e-05
 -8.3198574e-05
  1.1155274e-05
 -1.0317367e-05
 -2.7494170e-07
  1.1642874e-05
  1.0093784e-06
 -7.3564101e-05
 -4.1485173e-06
 -8.8473535e-05
  1.7043006e-07
 -8.0936106e-06
 -2.2157888e-05
 -1.2472949e-05
  3.5924677e-04
  9.0993826e-06
 -1.2293859e-05
  1.9460247e-08
 -5.2694918e-06
  1.2350072e-06
 -4.8353099e-06
 -1.1956868e-05
  1.2916930e-05
  4.6116252e-06
 -4.7285225e-06
  2.2576496e-06
  1.1414772e-05
  2.8682616e-05
  3.9797110e-06
  3.0795069e-05
 -1.7927418e-05
 -6.6677865e-07
 -1.3068050e-06
 -5.0457176e-05
 -5.1823343e-05
  1.8593830e-05
  1.4497159e-06
  1.9097413e-06
 -2.8967070e-05
  2.1469092e-05
  2.1125306e-05
  4.8032763e-07
  2.3951445e-06
 -5.0337658e-06
  1.5774302e-05
 -1.2115556e-05
  1.3331213e-06
 -1.1994911e-05
  8.4994454e-06
 -2.5242832e-06
  1.6467213e-05
 -6.7991009e-06
 -2.2869515e-06
 -6.9496155e-06
 -1.9332794e-05
  8.3421837e-06
  3.3087699e-06
 -5.5803007e-06
 -2.5308515e-05
 -1.4029156e-06
  1.1692977e-05
 -2.4987582e-07
 -1.7160613e-06
  2.0432168e-05
  5.8264392e-05
  2.3628118e-05
  1.6802302e-05
 -3.4801967e-06
 -8.8679180e-06
 -7.9546762e-06
 -5.5999935e-06
  6.0098000e-06
 -1.3269258e-05
 -1.0196414e-05
  8.1896962e-07
  6.8295469e-07
 -1.4042633e-05
 -1.0040073e-05
 -2.4194841e-07
 -1.8781096e-06
  1.2877605e-05
 -1.1749679e-06
  1.4497214e-05
 -3.8914027e-06
 -8.7041180e-06
 -6.1303977e-06
  3.3988626e-06
  9.9572026e-06
  2.2296458e-06
  1.6434018e-05
  2.2429037e+00
  1.1892495e-01
  2.8568971e-01
 -4.7963339e-01
 -2.9225536e-02
  3.2106346e-01
  2.6374770e-02
 -1.2195444e+00
  1.4377546e-01
 -2.6509745e-02
  8.4915441e-01
  7.6339417e-04
  1.8923517e-01
 -1.3241471e+00
  5.0459251e-02
  3.0600739e-01
  3.6188904e-02
  1.5673131e-02
  6.8054413e-03
  1.1639187e+00
  1.4722461e-03
  7.7700943e-06
  3.8169529e-02
 -4.6843924e-02
  1.7420286e-02
  4.5898804e-03
 -3.8756519e-07
 -1.0764442e-04
  5.1028594e-05
 -2.4929381e-04
  4.7277925e-05
 -1.3421419e+00
  1.3903199e-01
  9.8056823e-01
  2.9722668e-02
  3.1908169e-01
  1.0699009e-01
 -1.0780293e+00
 -1.0791447e+00
  1.6904373e-06
 -1.1884979e+00
  1.2257017e-05
 -1.3996817e-05
  1.4899318e+00
 -6.2682837e-01
 -1.6153634e-01
  1.7962044e-05
 -7.9878427e-02
  9.7935772e-01
 -1.8744456e-06
  2.9180230e-06
 -1.1323900e-05
 -7.1193640e-06
 -1.0700146e-04
 -1.0769438e-03
 -2.1915184e-01
  2.9865095e-07
  6.0441816e-05
  4.7594350e-02
 -3.5069636e-01
 -2.5221992e+00
  9.4905818e-01
  1.2806709e+00
  3.1910448e+00
 -7.2534988e-03
  2.0205379e-01
  2.4406332e-01
  1.8415964e-01
  4.1344348e-01
 -3.9851865e-01
 -2.1196615e-02
  2.0855348e+00
  1.9514328e-01
  1.8607925e+00
  8.7163642e-02
  1.1815584e-01
  7.8787667e-01
 -3.2904312e-02
  9.6599877e-01
  1.5249715e+00
 -1.4583880e-04
  5.4298733e-05
 -3.2502037e-01
  2.8581965e-01
  4.4927536e-05
 -3.5017769e-05
 -2.5244591e-01
  1.4417167e-01
 -4.6995765e-01
 -5.3809035e-06
  1.2667425e-05
  3.1646663e-01
  4.6070168e-06
  3.4731222e-04
 -1.1085569e-06
 -3.9798433e-05
  4.4596280e-05
  2.4381100e-06
 -1.0306520e-06
 -3.7547632e-04
  1.2912694e-05
 -3.5274381e-06
 -1.5843620e-05
 -1.0023979e-05
  1.1569393e-03
  1.1888710e-05
  4.3576038e-05
  5.3542495e-05
 -1.6860571e-04
  5.7144380e-06
 -2.7795879e-06
  1.0037543e-05
  4.0251157e-06
  6.8363552e-06
 -1.4583712e-06
  6.7613575e-05
 -6.6283078e-06
  5.1810125e-06
  3.8162393e-06
  2.7231677e-04
 -6.2549874e-02
  8.0870569e-02
 -2.0556886e-08
 -1.3375982e+00
  1.2388802e+00
  1.2191826e-01
 -1.1669316e+00
 -3.7901162e-03
  1.3203312e-01
 -9.2338462e-04
  2.2602059e-07
  7.5508580e-02
 -2.3826090e-01
  5.1101249e-01
  3.5676658e-05
  1.9728564e-01
 -1.2178609e-05
  1.7774282e-01
 -1.1929672e+00
  1.6529119e-01
 -2.9222526e-06
  2.8981385e-05
  4.2621946e-06
  7.1577549e-02
  9.0470709e-02
  2.2589999e-04
 -8.7812869e-06
 -1.2332631e-05
 -2.2600387e-01
  1.2963030e-01
 -7.0274097e-01
 -1.4441183e-01
  6.2215753e-02
 -8.4560409e-02
  2.4545802e-01
 -9.6448421e-01
  1.2215047e-05
  3.4285814e-01
  7.5681990e-01
 -1.3991985e-01
  3.0429184e-01
  1.1341431e+00
  1.1169262e-01
 -7.4343008e-01
 -1.6697577e-01
  1.8685685e-04
 -5.5201002e-03
  6.8986692e-06
  4.3306372e-01
 -4.5324311e-01
 -2.1768930e-05
 -5.7260084e-05
 -1.2828301e-04
  3.1079978e-01
  6.8840059e-06
 -1.9127472e-05
 -1.6322201e-01
  4.3926127e-07
  1.4933923e+00
 -2.2506289e-05
  4.1974698e-05
 -1.1835850e-05
 -7.3964288e-06
 -9.4687375e-06
  5.6276604e-06
  1.2799469e-05
  8.3639770e-07
  2.6946398e-06
 -1.9042164e-06
  3.2686556e-05
  1.0409231e-05
  4.5221568e-06
  4.1943770e-07
 -2.1330734e-06
 -4.8971873e-05
 -4.1488388e-06
  8.4546418e-06
  7.5577195e-06
  2.3375102e-05
  1.2275342e-04
  1.0814410e-04
 -1.5214955e-05
 -3.6543547e-06
  1.6764527e-05
  3.8676625e-08
  7.4672507e-06
  6.2124116e-07
 -9.7130342e-06
 -1.0791793e-05
  1.2540205e-06
 -1.1111591e-02
 -4.3160973e-05
 -5.4095167e-06
  6.6407874e-02
  2.2191887e-06
 -4.0078969e-03
  4.3575283e-06
  1.8605001e-02
  4.4629041e-02
  6.1727440e-01
 -4.2823784e-04
  2.6641673e-01
  1.4589180e-04
  3.0039540e-01
 -1.7981973e-05
 -7.5908389e-07
 -1.4904446e-05
 -2.7511775e-05
 -2.1756281e-05
  1.2556375e-05
 -2.0379496e-04
 -1.0914857e-04
 -1.6910146e-05
  3.4119612e-06
 -5.3583597e-05
 -2.0124828e-05
 -4.5050219e-05
  3.3270973e-07
 -2.6139451e-06
 -1.9986812e-05
 -1.2397316e-04
 -1.0237011e+00
 -1.4377356e-05
 -9.5037790e-03
  3.3656412e-05
 -2.6855629e-02
 -1.0094644e-05
 -6.6534503e-06
 -3.1214886e-04
  2.5305027e-01
 -5.8887290e-05
  9.5969308e-06
 -4.3878616e-05
  5.7268000e-01
 -9.8505234e-03
  1.3698179e-05
 -2.0862908e-05
 -7.4046175e-06
  1.7344941e-01
 -3.5113290e-02
 -7.4050099e-06
 -5.1669749e-06
 -1.9685655e-04
  4.3354839e-06
 -1.6588120e-04
 -9.4062761e-06
 -8.5741660e-05
  8.9498271e-06
 -4.3620259e-02
  8.4052554e-05
 -1.8352833e-01
  1.0479468e+00
  8.0795662e-06
  8.8201232e-06
 -1.3077055e-01
 -1.1631511e-04
 -2.7290457e-06
 -8.5247707e-01
  2.0190371e-02
  3.9770645e-01
  6.2734231e-05
 -1.1420366e+00
 -2.2198553e-01
  6.0670620e-01
  8.4562546e-01
  1.2351469e+00
 -1.8470564e-05
  3.6823636e-05
 -1.0853520e-05
 -3.9285001e-06
 -3.6487934e-05
 -5.3740531e-01
 -9.4994152e-01
  3.1463328e-01
 -1.3606671e-06
 -4.4052309e-01
 -3.3140948e-01
 -1.0418892e-04
 -1.7434353e-01
  3.9159298e-01
  5.6580484e-01
 -8.6524397e-01
 -5.7371926e-06
 -4.7464678e-06
 -8.7260199e-01
 -3.4467307e-01
 -1.6108738e-01
  2.5737648e+00
 -2.1904111e+00
  1.8995240e+00
 -1.3053579e-05
 -4.8105898e-01
  4.8787388e-01
  1.8479902e+00
  1.0035378e+00
  5.4428798e-01
 -9.4104522e-05
 -2.9304186e-01
  6.7244946e-07
 -9.7958646e-06
  4.2090601e-06
  7.8558999e-01
 -6.3671035e-01
 -1.9858277e+00
  2.6011166e-01
  7.8212845e-01
 -8.4067464e-01
 -1.8196992e-05
 -5.5620599e-01
 -6.8939441e-01
 -1.9267408e+00
  6.7095321e-01
 -4.9961975e-05
 -6.6381317e-01
  7.6675427e-01
 -8.6492950e-01
 -5.4033899e-01
 -1.4383314e+00
  5.0400269e-01
  3.5375482e-01
  7.3322290e-01
  1.6019323e-01
  3.8823061e-02
  6.2633910e-05
 -1.1294943e-04
  1.0903238e-02
 -1.4851409e-01
 -2.4469575e-01
  1.9230846e+00
 -1.7831894e+00
 -7.4049824e-01
  1.7401648e+00
  1.2205813e+00
  8.5443026e-01
  5.7195574e-01
  8.5566807e-01
  8.5566118e-02
 -1.0005471e+00
 -2.3573078e-01
  4.1954890e-01
 -2.1208091e+00
  2.4018696e-01
  4.7322398e-01
 -1.1184185e+00
  1.1039792e+00
 -1.1223824e+00
  2.6597700e-01
  1.2116873e+00
  1.3927034e+00
  2.5790054e-01
 -9.4349496e-02
 -5.9574533e-01
  1.8085672e+00
 -2.0597491e+00
 -2.7721816e-01
  2.5738764e+00
 -1.5931237e+00
 -1.7455245e+00
  1.5704845e+00
  4.0339234e-01
 -1.1318319e+00
  1.1543301e+00
 -9.4308233e-01
  5.1894271e-01
  8.7407637e-01
 -1.2139390e-01
 -4.6133515e-01
  3.5140485e-01
  1.3578096e-01
  1.0641057e+00
 -8.0060017e-01
 -4.0921500e-01
 -9.2178702e-02
 -1.7741181e+00
  1.4792616e+00
 -8.4836632e-01
 -1.5486648e+00
 -6.8918942e-04
 -1.4229484e-01
  4.4937238e-01
 -1.5325459e+00
 -3.9150992e-01
 -1.3222998e+00
  2.6546067e-01
  6.0021621e-01
 -4.2089853e-01
  1.8286107e-02
 -1.0514324e-02
  2.4068689e+00
  5.6133556e-01
  1.2565005e-01
  9.6936160e-01
 -2.8236529e-01
 -4.0111132e-05
  2.1746729e-02
 -4.6853617e-01
 -4.3269835e+00
 -7.5954877e-02
  3.6502819e-04
  6.5324736e-01
  1.0235339e+00
  9.1640222e-06
  3.9538590e-05
  1.8081575e-06
  2.6561038e-05
 -2.2610083e-01
  9.8711544e-01
  1.0630752e-05
 -2.2262116e-06
  2.8637261e-04
 -5.1408035e-01
  1.4143624e-06
  1.8045474e-05
 -6.9183797e-01
 -4.9240315e-01
  5.3535628e-01
  6.4207654e-04
  2.3493442e-01
 -1.2444589e-01
  1.6159231e-03
 -1.9614868e-06
  2.1914445e-01
 -1.0915140e+00
 -1.6907617e+00
  2.2966377e-01
  3.3335999e-02
  2.7896979e-01
  4.5660359e-01
  6.6981942e-05
  3.3739705e-03
  1.8781882e-02
  1.2507740e-01
  2.9767001e-01
  2.3159337e+00
  1.0188969e+00
  2.5283366e-01
  9.6590355e-02
 -2.3683545e-01
 -9.8279095e-04
 -5.7975467e-06
 -2.5848821e-02
 -9.5761913e-01
  1.1284537e+00
  1.6169468e-05
  5.6152970e-01
  6.6812539e-01
  1.0520493e-04
 -1.1819571e-06
  3.6373196e-05
 -6.0908437e-01
 -3.7877688e+00
  1.7911628e-01
  1.0441428e-01
 -2.2157230e-05
 -5.3882730e-01
  7.9426045e-06
 -3.6214049e-05
  1.1520270e+00
  3.6871603e-01
  5.8381230e-01
  3.0757821e-01
  1.3508411e-01
  5.2126467e-01
  1.2295359e+00
  1.5987359e-01
  1.7345570e+00
 -1.8391748e-01
 -9.9434918e-01
 -2.0213931e+00
  1.9740816e+00
  5.5917513e-01
  1.7013586e+00
  3.8629513e-02
 -9.3967634e-01
 -4.8489291e-08
 -7.6605076e-01
 -3.6142790e-01
  1.0624340e+00
  9.1058785e-01
  1.6407207e-01
 -2.3593865e-01
 -5.9803981e-01
 -4.5871802e-05
  8.1627441e-06
  4.2017811e-07
 -1.7052270e-01
  9.6508129e-06
  2.0519666e-01
  3.9380384e-06
  2.1747742e-06
  5.7939242e-06
  6.3817017e-05
  3.9579706e-07
 -3.6661170e-02
  1.0050849e+00
 -6.3061081e-03
 -7.2806382e-01
 -5.8548624e-04
 -7.9607336e-05
  2.9405441e-02
 -5.1219117e-02
  4.5462737e-05
 -6.7438856e-02
 -1.2915984e+00
 -7.8710341e-01
 -1.2175747e+00
 -6.7869260e-05
 -3.2840634e-04
  1.0089371e+00
 -1.1798596e-05
 -3.5025252e-05
  8.1589642e-06
 -1.4308634e-01
 -6.9207883e-01
  2.3528681e+00
  4.3223965e-01
 -3.2602933e-05
 -4.3493623e-01
  1.1512038e-04
 -2.0554878e-06
 -7.1797863e-02
  7.2857940e-01
  7.3314011e-01
  1.1569492e+00
 -5.9243388e-02
  3.1099042e-01
 -7.9964072e-01
 -1.5153761e-02
  5.1976890e-06
 -1.0064134e-02
  1.5347748e+00
 -3.7485673e-04
  3.5850886e-01
 -5.5018023e-05
 -3.2802768e-02
  7.9207736e-01
 -1.7660507e-03
 -4.7132028e-07
  3.0867398e-01
 -1.5760679e+00
 -8.7943304e-01
  2.4978772e-01
  6.2821135e-02
 -1.4575908e-01
  2.9683599e-01
 -1.0422324e-01
  1.2324708e-05
  3.9396036e-02
  6.0274536e-03
  3.6888269e-01
  2.7133250e-01
 -3.8275371e-05
  6.0981429e-01
  9.7451073e-01
  1.1527456e+00
  1.3017132e+00
 -1.4736109e+00
  1.0902950e+00
  4.2350227e-01
 -1.6098753e+00
 -7.0017809e-01
  7.7654874e-01
  1.5066608e+00
  3.7018360e-06
  1.2995793e-02
 -1.1685206e-05
  1.8146347e+00
  2.1267822e-05
 -3.0771716e+00
  9.6044654e-01
  1.7732900e-01
 -2.1012923e-01
  4.0462911e-01
  1.5512976e-03
 -1.6977890e-01
 -1.7964723e+00
  5.8632702e-01
  9.3772298e-01
 -1.4787273e+00
  1.4950770e-02
  2.8934991e-01
  2.0649597e-01
  1.3650866e+00
 -5.6636106e-02
  2.1201272e+00
  1.5216117e+00
 -8.7020129e-02
  1.0005971e+00
  1.5512151e+00
 -1.3761780e+00
  1.5744414e-05
  3.2398701e-01
  5.0771287e-06
  7.2882003e-01
  1.2968855e+00
 -1.1180180e+00
  3.2968647e+00
  4.4484955e-01
 -2.2728631e+00
  4.1756061e-01
 -7.5575399e-06
 -1.3492785e+00
 -3.3635321e-01
 -2.4378613e-01
 -1.9990709e+00
 -1.2435389e+00
  8.9400578e-01
 -7.0350605e-01
  8.1073290e-01
  1.9700716e+00
  8.6897004e-01
  1.3435212e-01
  1.1077943e+00
 -3.3687741e-01
 -1.8700869e+00
  2.1161717e-01
  9.8188482e-03
  4.2104335e-03
  4.2981151e-01
 -6.5368146e-01
  1.3131052e+00
 -8.1295174e-01
  3.4696823e-01
 -2.3300195e-01
  2.1100876e-01
 -1.7922246e+00
 -7.6539165e-01
 -3.9799130e-01
 -5.8234286e-01
  1.0835258e+00
  1.3827505e+00
  1.1784768e+00
  1.6419443e+00
  3.1772107e-01
 -7.1288437e-02
 -1.8893857e+00
 -7.4558777e-01
  1.0488433e+00
 -1.4967171e+00
 -1.2068918e+00
 -2.2208412e-01
 -2.5159595e+00
 -3.7541941e-02
 -7.8145333e-02
 -2.2484140e-01
 -3.1387720e-01
 -1.5319005e-06
 -8.6146975e-01
 -1.6220943e-04
  1.0292170e+00
 -1.2341192e-01
 -1.2812846e-05
  8.6415994e-01
  1.1105853e-01
  3.2128745e-01
 -3.1458493e-02
  3.8934776e-01
  4.0531926e-02
 -6.1487442e-01
  9.0242141e-01
 -4.9657194e-04
 -1.7968326e+00
 -1.9342637e+00
 -7.2910213e-01
  1.0079309e+00
 -9.2325136e-02
 -2.8342929e+00
  1.2846014e+00
 -6.4052862e-01
 -1.5737801e+00
  1.3493257e+00
 -8.6372316e-01
 -9.4940215e-01
 -1.6946305e-01
 -8.1632800e-02
 -8.1614947e-01
  1.0931133e+00
  8.2928789e-01
  2.5872388e-01
  8.8568455e-01
 -9.0158594e-01
  6.1851478e-01
  9.3667004e-03
  2.9110059e-01
 -3.5958675e-01
 -1.4986045e+00
 -4.1064200e-01
 -8.3894503e-01
  9.4635673e-02
 -1.0176735e+00
 -6.9533646e-01
 -1.2753792e+00
 -1.5640043e+00
 -2.5968647e+00
 -8.8826895e-01
 -1.5051874e+00
 -5.6996495e-01
  1.6460637e+00
 -3.5468501e-01
 -6.4979929e-01
 -4.7835407e-01
 -7.7483410e-01
 -9.6133101e-01
 -1.5306771e+00
  7.0444494e-01
  8.8178968e-01
 -8.3498913e-01
 -3.7888896e-01
 -9.7506344e-01
  1.7192258e+00
 -7.5929934e-01
 -6.7640048e-01
  7.3666894e-01
  1.4469355e+00
  8.5617268e-01
 -1.1497377e+00
  1.0703641e-05
  3.2382154e-01
  3.6825773e-01
  9.9722147e-01
 -1.8622710e-05
 -2.0469341e+00
 -6.8524486e-01
 -1.2382619e+00
 -3.7050503e-01
 -4.3109987e-09
 -1.1814681e-05
  4.2614243e-05
  2.2503218e-05
  5.3340382e-06
 -2.8568226e-01
  1.4542575e-05
 -5.0649089e-01
  3.2773514e-06
  3.7716463e-06
  1.8336803e-01
  3.4921834e-01
  3.3533323e-01
  2.5687572e-05
 -4.3045223e-01
  7.8152996e-01
  2.0238428e-01
 -1.8154809e+00
  6.5525077e-05
 -1.2457818e-04
  9.9523228e-01
  3.7979469e-01
 -3.1919291e-05
  1.6147606e-01
 -3.6505616e-01
  7.0930916e-01
 -9.4788873e-01
 -1.6726412e-06
  1.0636979e-01
  3.5117742e-02
 -8.9932252e-07
  3.8086789e-06
 -1.9334060e+00
  1.4274882e+00
 -4.6684793e-03
 -8.0176705e-01
  6.7080318e-06
  8.8904177e-05
  4.8541000e-01
  1.2418563e+00
 -5.1827483e-06
 -1.3162086e+00
  6.6993797e-01
  9.0405083e-01
 -1.0682508e+00
  1.3517824e-06
  4.7621960e-04
  2.8296185e-01
  5.3999931e-05
 -3.2238199e-06
 -1.1471326e-01
  4.5168638e-01
 -1.6281707e+00
 -8.5378563e-01
 -3.0845183e-07
  3.9582088e-04
  1.1017587e+00
  6.1167270e-01
  5.2435145e-05
 -8.7673932e-01
  7.7717453e-02
 -1.4478384e-01
  1.2814629e-01
  4.5779825e-06
  7.0182497e-05
  2.2298649e-02
  4.8237577e-01
 -7.2682460e-06
  4.1906103e-01
  4.7513840e-01
  8.2884616e-01
 -3.9075080e-01
 -3.5996702e-06
  1.5114956e-05
 -1.1732920e-04
  6.9625628e-07
  5.4010448e-05
  6.2171090e-02
 -1.0993454e+00
  1.3799645e+00
  3.1333482e-01
  3.8762191e-06
  1.9034837e-06
  1.2722353e-07
 -1.2560073e-06
 -8.7659573e-06
  3.4393925e-06
 -9.4367107e-07
  3.2660243e-01
  4.7731083e-07
  1.6816465e-07
 -1.1990693e-05
  1.8465665e-06
 -6.3261996e-06
 -1.3790322e-04
  9.4547457e-01
 -3.6342290e-01
  9.6317619e-01
 -1.4845893e+00
 -3.4139765e-07
  7.6759088e-06
  1.2664505e-05
 -1.3019466e-04
  7.9172032e-06
 -2.1156382e-05
  1.4971204e-01
 -1.2163625e+00
 -3.7582338e-01
 -1.0639227e-06
  2.2274007e-06
  6.6924863e-06
 -2.0121837e-05
  1.1974099e-05
  2.0662998e-01
  1.0128835e-01
  2.9658565e-01
  9.7310436e-01
  2.9770807e-05
  1.8337476e-05
 -1.0637083e-06
  4.9110786e-05
  3.0515862e-06
  1.0077279e+00
  6.2274885e-01
  2.3639328e+00
 -1.0716164e+00
  8.8952820e-06
 -7.1679133e-06
  3.2169988e-05
 -1.1574186e-04
 -2.1990293e-06
 -2.5067109e-01
  6.0130842e-02
  1.3510184e-01
 -3.0067074e-01
 -1.3791067e-05
  1.0639677e-06
  2.4720975e-06
  7.3172605e-06
 -1.2672821e-04
  1.5277964e+00
 -1.9576594e-01
  5.1726758e-01
  9.8508406e-01
 -9.1615738e-07
 -1.6294081e-05
 -8.2161154e-07
 -3.1872073e-04
  8.1054292e-05
 -4.4078884e-01
  1.7897122e-01
 -6.1539423e-01
  5.0196558e-01
 -3.7767052e-06
  4.3220643e-06
  7.8680287e-06
 -9.7559877e-02
  1.8737704e-06
  5.5762851e-01
 -5.0489079e-02
 -9.1544694e-01
 -9.2600197e-01
 -5.3159642e-06
 -1.0607887e-06
  1.6108432e-05
 -4.9329913e-07
  7.5880234e-06
  1.9827273e+00
  1.6818316e-04
  1.6809019e-05
 -1.9182087e-05
  9.6581334e-06
 -2.4765156e-06
  4.1013853e-05
 -1.7258059e-05
  3.1003176e-06
 -5.8903611e-01
  5.5480427e-01
 -1.8514401e+00
 -6.7483658e-01
 -4.9029882e-06
  3.0171591e-06
  2.6990718e-05
 -2.4530709e-05
 -1.2931391e-05
  8.9141568e-03
  1.2039113e-04
  4.4508564e-01
 -3.6495379e-01
 -7.7551465e-07
 -9.9619147e-06
  6.5904965e-07
  4.4548538e-06
 -4.7191652e-06
 -3.5961232e-01
  4.2575544e-01
 -1.5530449e-01
 -1.5040842e+00
 -1.9870395e-06
  1.3384964e-04
 -7.2191947e-06
 -2.9349884e-01
 -1.1786403e-06
 -2.4847226e-02
  5.1875398e-02
  5.8198340e-02
 -7.5711417e-01
 -5.0181670e-06
  2.4060790e-05
  7.1548802e-06
  1.0838118e-05
 -1.5687315e-06
  1.5422326e+00
  2.7731854e-02
 -2.5796694e-01
 -7.7789891e-01
 -1.0960562e-06
  1.0196096e-04
  3.9228125e-05
 -3.5276020e-01
  4.7079804e-05
  4.1209239e-01
  1.5237001e-01
 -1.3643297e+00
 -1.2999572e+00
 -8.7197577e-06
 -1.3433591e-05
  2.4114931e-06
  6.0084385e-06
 -3.0894651e-06
 -4.8130441e-01
  2.9817256e-01
  9.7495121e-01
 -8.5982341e-01
  6.8681210e-02
  6.0218805e-01
 -9.6125978e-01
 -8.2611486e-02
 -1.0794265e-05
  9.6253850e-02
  5.7886875e-01
  1.0209185e+00
 -6.0235345e-01
  2.9819214e-05
  6.4830051e-06
 -3.4272627e-05
  4.3869500e-06
 -2.4254143e-06
 -6.1680257e-01
  1.8665702e-05
  3.8104078e-01
 -1.2397776e-04
  5.5887740e-02
  6.3206249e-01
 -8.9072418e-01
 -6.1475468e-05
  5.1132986e-07
 -1.1469226e+00
  1.8101688e-01
 -6.7005014e-01
 -7.7564323e-01
 -2.2332599e-06
 -1.4906044e-05
 -9.2409897e-01
 -1.2861286e-05
 -4.5039051e-06
  9.8134619e-01
 -8.2625754e-02
  9.7269523e-01
  8.3853465e-01
  5.5997968e-02
  3.5394248e-01
  2.6680911e-01
 -1.7405216e-06
 -1.2719904e-06
  4.1447438e-05
  8.4930331e-01
  5.2664727e-01
  1.5351750e-01
 -1.8098566e-06
  2.0534298e-04
 -2.6142504e-02
 -6.4569962e-05
 -1.4478780e-06
 -2.1611257e+00
 -1.9377272e-01
  2.0113108e+00
 -5.9357697e-01
  5.3187949e-03
  8.4560998e-02
  8.2774633e-05
 -6.1553619e-05
 -1.3213132e-05
 -1.8733567e+00
  2.8823611e-01
  1.2857765e+00
 -2.4913107e-01
  3.3761817e-06
  3.3063278e-01
 -9.3183750e-01
 -1.6108749e-04
  1.1962046e-05
  3.5022848e-07
  5.3642243e-01
  8.6831890e-02
  3.3640298e-01
  1.6285427e-05
  1.3317035e-04
 -4.1815808e-01
 -1.5280822e-03
 -4.3357068e-06
 -4.9148259e-01
  5.6378663e-01
 -3.0895057e-01
 -1.3377443e-01
  4.6461002e-05
 -3.8725282e-03
 -7.0509690e-01
  2.7738852e-05
  1.7205020e-05
 -1.0527774e+00
  1.1981201e+00
  8.0943733e-01
 -4.1903695e-01
  5.2795189e-05
  5.6326212e-06
 -3.0771769e-06
  1.8697107e-06
 -6.0248585e-06
  7.3422725e-06
  9.6432340e-01
 -2.2231431e+00
  1.6284328e-05
  6.2193442e-07
  9.2185937e-06
 -1.8537695e+00
  5.1535186e-05
 -4.4909057e-06
 -3.4803373e-01
 -1.0359823e-02
  3.1686267e-01
  7.1452439e-01
  2.2315911e-05
 -3.0721156e-05
 -7.3882821e-04
  1.5905236e-05
 -4.6101900e-06
 -6.6879773e-01
  1.1444489e+00
 -2.3251037e-01
 -6.6146213e-01
 -2.8025088e-05
  4.3077952e-07
 -4.8498547e-01
  1.6725315e-05
  1.3690728e-05
 -8.8854212e-01
 -1.7514855e-01
 -4.9429253e-01
  4.4591841e-01
  2.7823589e-06
  1.7926819e-05
 -3.3020999e-02
 -7.9606989e-06
  1.1115769e-06
  8.4474444e-01
  2.4181052e-01
  4.9299836e-01
  1.3444409e-02
 -3.8627408e-05
  2.6582808e-05
 -2.0810504e-02
  1.8494371e-05
 -2.7319006e-06
 -1.7078026e-01
  2.0946085e+00
 -1.7541142e+00
  5.6250405e-01
 -2.1167205e-06
 -4.5880844e-04
 -2.3045784e-01
  4.9911421e-05
  1.8285866e-06
 -7.3562511e-03
 -1.2945578e-01
  5.3782481e-01
 -4.9801821e-01
 -1.6228421e-05
 -1.3179142e-05
 -7.7957147e-01
 -7.2164430e-06
 -2.5336717e-06
  8.0639714e-01
  3.7589088e-01
 -6.6854316e-01
 -6.6400319e-01
  1.2413758e-02
  1.2413758e-02
  1.2413758e-02
  1.2413758e-02
  1.2413758e-02
  6.7241365e-01
  6.7241365e-01
  6.7241365e-01
  6.7241365e-01
  6.7241365e-01
  1.4738771e-01
  1.4738771e-01
  1.4738771e-01
  1.4738771e-01
  1.4738771e-01
  1.0924964e-01
  1.0924964e-01
  1.0924964e-01
  1.0924964e-01
  1.0924964e-01
  1.6452778e-02
  1.6452778e-02
  1.6452778e-02
  1.6452778e-02
  1.6452778e-02
  1.8038879e-01
  1.8038879e-01
  1.8038879e-01
  1.8038879e-01
  1.8038879e-01
