nep4 3 Ba Zr S 
cutoff 8 4 150 20
n_max 4 4
basis_size 8 8
l_max 4 2 0
ANN 30 0
 -2.4302315e-07
 -5.2619498e-06
 -1.8155134e-06
 -1.9139395e-06
 -7.2687021e-06
 -2.1360161e-06
 -3.0416900e-06
  7.6244596e-06
  3.8706738e-05
  1.0352697e-05
 -4.7074850e-06
 -1.7861397e-05
 -8.3190139e-07
  2.2717913e-05
 -1.3701413e-06
  2.1930380e-06
 -6.5884769e-06
  5.3292467e-07
  2.5711952e-06
  2.9421778e-06
  7.0807891e-06
  1.3469235e-05
  5.4605930e-06
  1.4073425e-04
  2.2032154e-07
  8.7647177e-06
  8.3032333e-05
 -1.2260991e-06
 -4.9622298e-07
  2.3011251e-05
  4.2607058e-02
 -1.2874268e-06
  2.2346630e-06
  4.4612011e-06
 -4.8712976e-02
  6.8173773e-04
  1.1217396e-04
 -6.6126398e-05
  1.0972356e-04
  3.8130498e-01
  7.3119186e-02
 -6.9048944e-08
 -8.9230125e-06
  3.3166436e-06
  3.2358835e-04
  1.0388648e-05
 -7.5922003e-06
  2.7908600e-06
  1.4533732e-02
 -7.2046891e-02
  2.8521413e-06
  2.3715991e-05
 -4.6039731e-05
  1.2086422e-01
 -4.2325746e-06
 -4.7734602e-06
  4.9212181e-06
 -1.3508850e-06
  6.7574369e-06
  1.4655714e-06
 -5.0457561e-04
 -1.5226891e-04
 -3.4978936e-04
 -1.0265909e-05
 -4.6734713e-06
 -1.1501218e-05
 -3.0243671e-05
  7.3252363e-06
  4.4357948e-05
  4.1883259e-06
  2.4689904e-05
  9.9287927e-06
  2.0087070e-06
  1.5659099e-06
  1.6854733e-06
  8.1286425e-06
 -9.4208794e-08
 -4.9937058e-05
  3.9818824e-06
  3.9492438e-06
  6.3932207e-06
  4.4721169e-06
 -3.8941405e-04
 -8.9301517e-07
 -2.2859347e-06
  8.1346225e-06
 -2.0389759e-06
  1.6355272e-05
  5.0529366e-06
 -3.5186727e-05
  2.2119406e-01
  4.4842009e-06
 -8.9289597e-06
 -1.0354676e-06
 -1.6337061e-01
  2.2310904e-01
  9.4180592e-05
 -6.7244270e-07
 -9.7797461e-02
  6.6081749e-04
  4.6128127e-05
  1.2355142e-04
 -3.4679070e-07
 -3.5645880e-05
 -8.7309769e-07
  3.7156395e-05
  1.6797576e-05
 -7.8629193e-07
  4.7468937e-05
  5.0903827e-07
  8.3525210e-06
 -1.1532708e-07
 -1.8939681e-06
  6.0405505e-06
 -3.0177525e-06
  1.2997504e-05
  6.1794640e-07
  2.9789211e-05
 -5.2723572e-06
 -2.2263573e-04
  1.2260879e-06
 -7.1836462e-07
  5.8737642e-05
  2.0497989e-06
 -3.9836791e-06
  2.0082196e-06
  8.9405094e-06
  3.8511826e-06
  1.2906844e-06
 -1.8566901e-05
 -6.9345396e-07
  2.3159359e-05
  7.7272971e-06
  8.5819429e-06
 -6.9673169e-06
  5.0422858e-07
 -8.7482758e-06
  4.3240393e-06
  4.4574151e-07
  2.2484858e-06
  4.0921100e-06
 -6.8217275e-07
  5.9025808e-07
  7.7204294e-07
 -9.9143072e-06
  2.7479575e-06
  3.1718810e-06
 -2.2915736e-05
 -3.8890448e-06
 -1.4086131e-06
  3.6297658e-06
  6.4767091e-06
  3.9142155e-06
 -1.4014897e-05
 -1.3432871e-06
 -2.9934642e-06
 -6.4879413e-07
  1.4923501e-06
  4.2638530e-05
  3.7726702e-06
 -4.2480497e-06
  2.4965069e-05
 -1.6077254e-05
  2.9175476e-06
  1.4736233e-06
  1.8047250e-07
  1.4152645e-06
  3.9089042e-05
  2.1092585e-07
  1.9925295e-05
  7.1864042e-07
 -6.1862829e-07
 -1.0488982e-05
  1.3283665e-04
 -1.8406892e-04
  9.1674938e-06
 -6.7236283e-06
  1.0299424e-04
 -3.5417008e-05
 -3.5300013e-06
 -1.4091953e+00
  1.0244670e-06
  5.3233907e-06
 -4.8032090e-01
  1.5855129e+00
  9.0478752e-06
  5.3062428e-07
 -9.5748532e-05
  1.7475961e-03
 -2.4342818e-04
 -3.2785501e-02
  4.9151577e-06
 -1.2383773e-05
 -1.9913184e-04
 -6.0528168e-06
 -3.5875410e-04
  3.2442267e-07
 -3.1598865e-06
 -3.5606741e-03
  4.8583884e-02
 -2.9180461e-05
  1.3963747e-06
 -8.3132045e-06
 -7.8698695e-02
 -1.1136959e-04
 -7.8864805e-06
  4.3944401e-06
  5.3533699e-06
  5.8454512e-05
  8.9446121e-06
 -7.5252259e-01
 -3.3771822e-03
 -8.7597742e-05
 -6.2289625e-02
  7.7564055e-01
 -1.6729845e-02
 -6.7403339e-06
 -1.5946605e-06
  1.1413823e-04
 -1.9995722e-01
 -1.0481821e-01
  1.3055997e-05
  1.9366826e-06
 -2.1405023e-02
  4.6062287e-06
 -9.3898393e-02
  3.2505595e-06
 -9.3519361e-07
 -2.2101529e-02
  7.9549357e-02
 -2.8750661e-04
  1.0942421e-04
  2.0276875e-05
 -1.6563258e-01
 -2.5947943e-02
  3.9784377e-06
  3.4332591e-06
  1.3665119e-05
  1.5539674e-05
  1.5902042e-05
  2.3814969e-02
  8.6715299e-06
 -2.5079737e-05
 -5.5846222e-06
  6.7431378e-05
  4.0859351e-05
  8.2863280e-06
  1.5958147e-05
  1.0582091e-04
  7.6526674e-03
  1.4440850e-05
 -2.3459593e-06
  3.5725775e-06
  3.3119244e-07
 -4.2762396e-05
  8.6935452e-06
 -9.3210447e-06
  1.0776258e-05
  9.2816052e-05
 -3.9461269e-05
  8.4269450e-05
  3.3834006e-06
  3.3180157e-05
  8.1749022e-05
 -2.6975069e-05
  4.2301954e-06
 -2.8323311e-07
  3.1154541e-06
 -3.9221804e-06
 -1.7338667e-06
  1.2490408e-02
  8.9775140e-06
 -2.4348772e-05
 -5.5012847e-06
  3.6713207e-06
  4.4775388e-04
  6.2349392e-04
  2.2501185e-07
  1.4003273e-02
  4.6918523e-03
 -1.2663544e-06
 -2.5810962e-06
  8.5614083e-06
 -1.9364850e-06
  2.4947463e-04
  3.8846548e-07
  2.4547728e-05
 -1.2724887e-06
 -4.0850162e-05
 -1.2944933e-04
  6.6770617e-06
  2.3185476e-06
 -2.4284634e-06
  7.7968682e-05
  1.1891972e-05
  9.5277292e-06
 -7.1136370e-08
  3.8965804e-06
 -1.2351839e-04
 -2.2690688e-04
 -4.0181884e-01
 -2.5570232e-06
  1.0379230e-06
 -4.9104051e-06
  1.4679810e-05
  3.9659690e-06
  2.0702682e-06
  9.1070200e-07
  6.4637311e-07
 -1.6258997e-01
 -9.6424928e-06
  8.1976013e-06
 -4.8274746e-06
  1.5147353e-06
  1.4701026e-05
 -8.3282575e-05
  4.1188327e-06
  4.0003215e-06
 -5.3778931e-05
  8.0833747e-04
  4.7582093e-05
  4.4090039e-06
  2.5150194e-07
 -4.6585181e-05
  1.3674307e-06
  4.2438182e-06
 -4.8081597e-06
 -4.9291129e-06
  1.4546121e-06
 -5.1213829e-06
 -2.5641153e-04
 -1.9903286e-05
 -4.1426733e-06
  1.5197552e-05
 -9.5140647e-05
  3.3983181e-06
 -9.9583667e-07
 -1.3038029e-04
  4.2172037e-06
 -2.1750297e-07
 -1.5830330e-05
  2.8743914e-06
 -2.5603582e-05
 -1.7116020e-06
  2.5518533e-05
 -1.9999958e-05
  1.1234480e-06
 -1.2101394e-05
  4.1819690e-06
 -4.7677427e-06
  5.5345040e-06
  8.2157258e-06
  1.5605257e-05
  5.2015689e-06
  1.1441444e-05
 -1.4800034e-05
 -5.8862395e-07
 -8.2888455e-06
 -3.1257275e-06
 -2.7361806e-04
 -5.7625002e-05
 -3.9954750e-07
  1.0311845e-06
 -2.2984755e-06
 -7.4689183e-06
 -1.2921086e-05
  2.4715015e-05
  6.8897941e-07
 -3.7309324e-05
  6.5412119e-06
  6.1232408e-06
  3.4809622e-01
 -8.1982120e-07
  3.0826309e-06
 -9.4255629e-06
  1.1400167e-05
 -2.8512828e-05
  2.3262808e-06
  5.3999007e-05
  3.7618522e-06
  2.0938036e-05
 -2.7516004e-04
  5.0987143e-07
 -2.6825744e-06
 -1.5010925e-06
  2.1710471e-06
 -1.1682286e-05
  5.9263897e-07
 -6.6494908e-06
  8.7358785e-06
  6.8038178e-05
 -8.0911977e-06
 -7.2833650e-06
  1.8572056e-05
 -3.9985798e-06
  1.5686727e-04
  1.1300879e-06
  1.2863158e-06
 -3.8073968e-06
 -2.5335783e-05
  2.5787271e-05
 -3.7311260e-05
 -3.1253276e-05
  6.9637666e-05
 -2.6413958e-04
 -1.4885536e-05
  3.3419390e-06
 -1.6438767e-05
  5.1147190e-06
 -1.4724898e-04
 -1.5566877e-05
  9.1945304e-07
  2.3686980e-05
  3.2184348e-06
  8.3728883e-06
  6.0338057e-06
 -1.2588164e-06
  3.9692463e-06
  1.4901328e-05
 -1.8037304e-05
  2.9911134e-01
  7.6666135e-01
  4.2497102e-02
 -6.3831240e-01
 -8.5032463e-01
  5.7017767e-01
  1.1508801e-04
  1.0261136e-05
 -9.3152040e-01
  1.4492701e-02
  3.1301358e-01
  1.9609877e-06
  1.9564799e-05
 -2.6054737e-01
 -3.0673464e-04
  1.6732943e-01
 -3.4417637e-06
  3.3628737e-04
  1.3522157e-03
 -3.4638476e-01
  2.4833210e-01
  1.9274383e-05
  3.9751285e-05
  7.1652371e-01
  2.3997401e-01
  7.2683406e-06
  1.1298000e-06
 -3.7924895e-06
 -5.9666947e-02
 -6.1098639e-02
 -3.1903503e-05
  9.5054100e-05
 -2.3594495e-07
  8.3911000e-06
 -1.6632128e-05
 -5.0211464e-05
  2.4139727e-06
 -1.2039269e-05
 -2.5435613e-05
  3.2929629e-06
 -1.1173382e-06
  9.8758619e-07
  1.0337342e-05
  2.7050615e-07
  1.7840836e-04
  1.6701857e-06
  5.1733531e-07
  6.7157358e-05
  7.0644528e-05
 -2.9535690e-06
 -1.6937223e-06
  4.8765291e-06
 -1.0992537e-05
 -5.2097926e-07
  1.0271190e-05
 -1.0839083e-05
 -9.0999138e-06
  3.0997389e-06
  1.8728449e-06
 -4.3793389e-06
 -7.8439039e-01
 -4.7703433e-01
  3.6504239e-06
  2.7211124e-07
  2.6596574e-05
 -1.0871285e+00
 -5.9392873e-06
 -3.3133163e-06
 -6.9288529e-02
 -1.0771730e-01
 -1.4964572e-01
 -1.7853322e-06
  1.2560387e-06
 -2.7953478e-05
  1.1043576e-05
 -6.1263498e-02
 -4.2900242e-06
  4.4124477e-06
 -5.4113347e-02
  4.9892530e-02
 -4.1257642e-02
  1.0598128e-06
  1.8471799e-05
 -2.9737046e-01
 -2.7112477e-02
 -6.0853694e-05
  1.1371328e-06
 -2.5425041e-05
  1.0299914e-04
 -1.5843692e-05
  2.4375506e-06
 -2.3483817e-06
 -4.6046191e-07
 -4.1975327e-05
  8.8344757e-07
 -4.4905730e-05
  1.1135769e-05
  5.6005980e-08
  4.9015166e-06
 -3.7307827e-06
  3.7884925e-05
  1.3519000e-06
 -3.5622368e-06
 -7.0194244e-07
 -1.4488201e-05
  4.0566529e-06
 -3.5432297e-06
  4.5572979e-06
  1.2208348e-03
 -2.8079996e-06
 -7.8966550e-06
 -2.2000664e-04
 -8.7075232e-04
  3.4963618e-06
  1.0555268e-06
  1.3413509e-06
  8.5855127e-06
  5.6761855e-06
 -3.8576500e-06
 -1.5659709e-09
  4.4558188e-01
 -2.1798501e-02
 -1.8955705e-01
  2.6702399e+00
 -2.8197544e+00
  1.0902511e-01
 -2.9866237e-06
 -3.5796106e-06
 -2.0897277e-03
  2.3747624e-01
  1.3812914e-01
  1.0116972e-06
 -3.4704811e-07
  2.2106111e-05
  1.6978500e-02
  4.6027135e-02
  1.0455634e-05
 -4.9109944e-06
  5.1248182e-05
 -1.1750504e-04
  1.4044441e-01
 -1.0377835e-06
  9.5872574e-06
  4.2510596e-01
  7.5430498e-02
  4.2746633e-06
 -1.7413689e-06
 -1.1039666e-05
 -2.3315502e-04
  9.8081422e-05
 -2.9762030e+00
 -5.8889069e-02
  1.2173208e+00
  2.2101290e+00
  4.9625844e-01
  3.5222393e-01
  8.9714631e-06
 -1.3141088e-06
  4.1188100e-01
  1.8932886e-01
 -3.5607672e-01
 -3.4145219e-06
 -3.0537863e-06
  9.6848784e-03
  4.5154113e-05
 -1.4279668e-01
 -4.3153577e-05
 -1.6436362e-06
 -2.4632506e-02
  2.4870412e-01
 -1.2280116e-01
  1.1119007e-06
 -1.3127370e-05
 -4.7429588e-01
 -1.4437692e-01
 -1.1591274e-05
 -6.9098794e-05
 -2.5047511e-05
  3.5059620e-02
  6.0541825e-03
  5.4451858e-04
 -2.6522132e-06
  1.7090781e-05
 -9.5576497e-06
 -1.2409650e-05
  1.9965702e-05
  1.9728309e-06
  1.4111891e-06
 -5.0014859e-07
  8.1850412e-06
 -1.0671934e-05
 -1.2133232e-05
 -8.8435354e-07
 -2.8198840e-06
 -9.5285111e-07
 -6.6730436e-06
 -4.0454711e-06
  9.8465198e-06
 -4.4906056e-07
  6.6966123e-07
  2.6736935e-04
  1.1074189e-07
  4.1762073e-04
  8.2127519e-07
 -7.2719704e-06
 -4.0889195e-06
  9.8098224e-07
  4.6516595e-07
 -4.8158046e-05
  8.2217930e-06
  4.2951683e-06
 -3.6651247e-06
  1.2513233e-05
  5.7474790e-06
 -1.3148085e-05
  6.1921628e-06
 -1.1019917e-05
 -1.7616148e-05
 -2.5918045e-05
  9.6403483e-07
  2.4541983e-05
 -3.0606864e-06
 -1.2735761e-07
 -5.8914998e-06
 -5.9651584e-06
  2.7269907e-06
 -1.1828838e-05
 -5.3994199e-07
 -2.9819241e-06
  3.6931979e-07
  5.4880900e-05
 -1.4226453e-05
 -5.2484302e-06
  1.2026296e-05
  1.2223552e-07
  4.9107371e-06
 -9.8360841e-05
  4.0728592e-05
  5.2216628e-06
 -5.8944215e-04
  1.8819719e-06
 -1.2187970e-05
  6.0070824e-06
  1.3590728e-04
 -6.3827385e-05
  1.4459880e-06
  2.5699185e-06
 -1.7954535e-05
 -1.7019302e-05
  2.3102591e-07
  1.4765785e-05
 -4.2717518e-05
 -6.7448300e-06
 -1.4196819e-04
 -1.5679784e-06
  1.7490321e-06
 -3.9457100e-06
 -1.7658381e-06
  9.3984943e-07
 -7.1983336e-06
 -4.2685639e-05
  5.2523992e-06
 -1.1662838e-04
 -1.7937619e-07
 -7.9389531e-05
 -7.3815340e-07
 -1.5377179e-04
  1.1519543e-05
 -1.5086156e-05
  4.1163325e-06
 -7.8719443e-01
 -8.4332013e-01
 -7.8610785e-02
  1.8347440e+00
 -9.0335202e-01
 -1.4291462e-02
 -4.0902537e-06
 -7.8472640e-06
 -1.0751511e-02
 -6.2360235e-02
 -1.2976012e-01
 -1.8739944e-05
  3.5575274e-06
  3.4458918e-04
  1.2575800e-04
 -1.2041193e-01
 -4.1618991e-05
 -6.9150551e-06
 -5.9615058e-01
  1.5040502e-01
 -1.0065464e-02
  1.3726039e-05
 -1.3872213e-05
 -3.2216951e-01
 -3.2948360e-02
 -5.9663580e-07
 -1.0927342e-05
 -1.2318467e-06
  7.9637015e-04
  1.5175171e-05
 -1.0334279e-05
  9.9455360e-07
  4.7403449e-07
 -3.1254888e-06
 -1.2306451e-05
  2.3443047e-07
 -1.6500887e-06
  6.7492658e-07
 -1.0392014e-07
 -3.6972716e-07
  1.6573626e-04
 -1.5023010e-05
 -4.5548004e-06
  2.4760047e-05
  4.9718379e-05
  1.4129364e-05
 -4.2817574e-06
 -1.8608413e-06
  4.8266479e-06
  5.7026241e-06
  4.8107836e-06
  8.2466679e-05
 -1.4783153e-07
 -2.2961683e-06
  1.9636216e-06
  6.6217524e-07
  8.4689891e-06
 -7.4098316e-06
  1.3430426e-06
  5.6305571e-06
 -5.6630946e-05
 -5.0940737e-03
  8.8080587e-06
 -1.0881199e-04
 -6.4110941e-06
 -5.3562079e-02
  5.3196641e-06
  5.6172253e-06
 -2.0541302e-05
 -1.6922002e-01
 -1.5437428e-05
  2.7355566e-06
 -7.4372388e-06
 -1.0671383e-05
  3.9902825e-06
 -6.7216071e-04
  5.2274208e-06
 -5.6602887e-05
 -1.1264275e-05
  1.3188325e-04
 -2.2625576e-08
 -6.9495472e-05
 -1.0169345e-05
 -2.9641619e-06
 -3.0349042e-06
  5.1033317e-06
  2.5263071e-06
  2.2782083e-04
  2.1944315e-05
 -5.7988841e-06
  1.4011957e-03
  6.7171487e-07
 -2.4348356e-06
  5.6008871e-06
 -1.4657137e-06
  3.8022405e-05
  1.6416711e-06
  8.5017739e-08
  1.3454885e-05
  1.3193957e-03
 -2.6785144e-06
  7.8633735e-07
  4.9211167e-06
 -9.9426088e-06
 -5.0904357e-05
  4.8899255e-05
 -1.8765197e-05
 -4.2886248e-07
  6.1406058e-06
 -7.3664169e-06
  1.9811971e-06
  3.7560178e-04
  2.8872837e-06
 -1.8019720e-05
  6.4776564e-04
 -6.7048376e-07
  5.2028217e-06
  2.8465392e-06
  5.1255294e-05
 -4.8711036e-07
 -4.4775665e-01
 -4.0802024e-02
  2.1641049e-06
 -1.2525182e-06
  5.4397993e-02
 -4.1013289e-02
 -2.7750616e-06
  1.5056245e-06
  1.2094192e-06
 -2.2647312e-01
 -1.3848691e-04
  2.4047217e-06
 -1.3235075e-06
  6.9276348e-06
 -2.2277484e-06
 -3.6481641e-05
 -2.3757891e-06
  1.3503188e-04
 -2.1486332e-01
  3.7169430e-04
 -5.2920537e-04
 -7.3607794e-06
  5.0472504e-06
 -1.6493832e-01
 -5.1447665e-03
 -5.1661700e-06
 -1.5306730e-06
  3.2123523e-06
  1.9082664e-04
  1.7519229e-03
 -2.1453843e-01
 -7.1569611e-06
 -1.3093249e-05
 -1.5300875e-06
 -1.3538521e-04
 -3.4122000e-05
 -1.7783776e-05
  8.4146239e-07
 -1.9535942e-04
 -5.0870396e-02
  7.4718111e-05
 -2.7045994e-06
 -4.1247411e-05
 -2.0566558e-06
 -7.5933949e-06
 -4.0294912e-05
 -3.9360284e-06
 -1.8416574e-06
  1.5934698e-05
  5.6264807e-06
  1.8151253e-06
 -4.6924135e-05
  6.1215218e-07
 -1.1372357e-03
 -4.4869692e-05
 -5.1280049e-06
  5.7068846e-06
 -5.8729500e-05
  1.1221726e-05
 -9.2104252e-05
  6.2949844e-02
 -6.4239516e-06
 -3.4668181e-05
  6.0021498e-06
 -1.2199402e-05
  1.1478743e-02
  2.5317638e-06
  2.0078793e-05
  4.6813988e-05
  1.8116251e-02
  2.9019855e-03
 -1.9469610e-06
 -7.5042749e-06
  1.4859620e-05
 -3.5873463e-06
  1.7808683e-06
 -9.5622659e-07
  6.0611746e-06
 -5.7703562e-07
 -2.8721464e-05
  1.0569153e-06
  1.4051370e-06
  1.1114353e-06
  1.8670972e-04
  2.7595757e-05
 -2.6782755e-06
  4.3993577e-06
  8.5699494e-04
 -6.1381943e-06
  3.0675162e-06
 -3.0761812e-06
  1.2457252e-01
  6.7796861e-04
 -9.2413332e-03
  1.7526915e-04
 -5.4718098e-06
 -3.1246248e-01
 -3.2709619e-01
 -7.7028251e-01
  1.1439960e+00
  1.4665636e-06
 -3.0716008e-06
 -7.3095413e-05
  1.0180744e-06
 -2.7653050e-01
  2.4672723e-05
  1.0196543e-01
 -5.4156703e-07
  7.8512698e-01
 -4.4012807e-02
  5.7165283e-01
  3.5690725e-06
 -1.8614847e-06
 -3.4188208e-01
 -7.1134691e-06
 -2.2508923e-06
  4.7307235e-01
 -8.6699627e-02
  3.3687130e-02
  4.5717171e-01
 -1.7587859e-05
  5.2651912e-01
 -6.2496218e-07
  4.9980658e-01
  7.8447420e-06
 -5.9635140e-06
 -1.3999183e+00
 -1.3562309e+00
  1.3717291e+00
  1.6309742e+00
 -1.5000734e-01
 -8.6305132e-05
 -5.7124789e-06
 -1.1383357e-05
  2.4834096e+00
 -7.9173820e-05
 -1.2686465e+00
 -2.4751562e-06
  2.5620446e+00
 -3.1682358e+00
  3.8047794e-01
  3.3655717e-06
 -2.5591183e-07
 -1.7472773e+00
  4.9509259e-07
 -2.4253516e-01
  4.7604421e-01
 -9.3108624e-01
 -4.9352396e-01
  8.2780427e-01
 -1.0238284e-05
  1.1612369e-04
 -3.0512912e-05
 -8.7905091e-06
 -8.8560237e-06
  5.2739193e-05
  5.9458303e-06
  1.8947994e-05
  5.3806793e-06
  1.8617809e-05
  1.0568253e-06
 -1.0236000e-05
  6.2208674e-05
 -2.5895736e-06
 -1.2307243e-04
  5.5671730e-06
 -1.0166817e-06
  1.5648890e-05
  1.4156184e-05
  1.2880328e-05
  1.2349435e-03
  7.7365885e-06
  1.5015461e-05
 -5.8013693e-06
 -4.2721727e-05
 -1.9833323e-04
  5.7889547e-06
 -3.9724773e-06
  2.8790037e-05
  6.9775768e-07
 -2.9786155e-01
  1.5416495e+00
  2.1882184e+00
 -5.6526937e+00
  2.7401943e+00
 -3.4324253e-01
 -2.3802759e-01
 -9.1618404e-02
  5.1416114e-02
 -2.3003858e-02
 -2.6633105e-01
 -4.4393230e-02
  1.3409658e-01
  1.0412378e+00
 -3.5223980e-05
 -2.6092079e-01
 -2.5791696e-01
 -2.3352140e-01
  2.5362971e-01
 -1.7066599e-01
 -9.5262729e-02
  1.0773553e-01
 -6.8031770e-01
  4.6989573e-03
 -3.6692303e-03
  2.7093114e-02
 -4.8407578e-04
 -3.2341803e-05
  6.4270491e-05
 -5.9182953e-06
  1.0697585e+00
 -2.0044132e-01
  2.3902115e-01
 -4.4165605e-01
 -3.3819011e-01
 -9.9928665e-04
  1.8410689e-01
  4.1044705e-02
  1.6831860e-06
 -3.2078840e-02
 -4.1981697e-05
 -3.9897444e-05
 -8.8785000e-06
 -1.6664742e-01
  1.3922428e-05
  1.2572908e-01
  1.1126062e-04
 -1.9251691e-03
 -1.3412850e-02
 -4.0005976e-05
  5.6407326e-01
 -1.0724384e-06
 -1.0798093e-05
  5.3979609e-02
 -1.2995569e-06
 -6.6651028e-06
  1.1680809e-05
 -1.7031432e-05
  6.0353792e-05
 -3.4629886e-06
 -9.8132208e-02
  3.4276924e-01
 -2.1137053e-01
  2.4201440e-02
 -1.1190073e-01
  1.2787228e+00
 -1.3593299e-05
  2.1993071e-04
  4.8835394e-01
 -9.1853719e-05
  6.3155693e-01
  9.9855430e-02
  1.7256445e-05
 -5.3149865e-06
  2.6904896e-05
  3.8335213e-01
  2.3366313e-02
  1.1838738e-02
  5.2260727e-01
  2.7112125e-07
  3.5109955e-03
 -4.6618516e-05
  1.3643458e-05
 -1.2819041e-01
 -5.3406484e-06
 -1.9362142e-05
 -1.5813244e-05
 -8.2312245e-06
 -1.4660048e-07
 -6.2338018e-05
 -1.0017292e+00
 -1.1022526e+00
  1.5892249e+00
 -4.1467509e-01
  4.0467569e-01
  2.2477135e-01
  1.4964799e-02
 -7.2154021e-01
  1.6638086e-03
 -2.6080746e-03
 -1.7818864e-04
 -9.5260933e-02
 -5.4968609e-03
 -5.7342219e-01
 -4.8968059e-06
  7.8004986e-02
 -1.5138727e-05
 -6.8400130e-03
  3.4359583e-01
 -7.8818120e-02
 -1.5598133e-01
 -1.0140982e-05
  6.0669236e-06
 -5.9328049e-01
  1.5244435e-05
  2.7499165e-05
  3.5628615e-05
  1.2001912e-05
 -1.9480882e-05
  2.1877274e-06
 -1.5613732e+00
  3.5883625e+00
  7.6425701e-02
 -8.8349134e-01
  2.4714363e-01
 -1.5351894e-01
  1.0734680e-01
 -1.5992378e-01
 -2.0599329e-01
  7.9751593e-01
  8.3141649e-01
  7.5627834e-01
  6.2560129e-01
 -1.3744974e-04
  3.3967660e-03
  1.9773118e-02
  6.1058491e-01
  2.6514569e-01
 -3.6679992e-01
  3.0341890e-01
  1.9222739e-01
 -1.9886911e-01
  1.9763813e+00
  3.3640677e-01
  1.7910872e-01
  1.5110362e-06
  3.3505636e-05
  4.4329699e-06
  2.4387158e-05
 -1.2777171e-05
 -4.4853243e-01
 -5.1849014e-01
 -4.7895786e-01
 -4.7739860e-04
  2.5902903e-02
  7.0522915e-06
 -4.7665424e-05
 -2.2937348e-07
  3.9380956e-02
 -4.6599380e-04
 -5.9573456e-05
 -1.3017547e-02
 -2.5285490e-06
 -8.2722145e-06
  3.5091580e-06
 -7.6188718e-04
 -4.5245688e-05
 -6.3410907e-06
 -3.8922139e-02
 -1.1849336e-04
 -4.3492857e-01
 -1.0161805e-06
 -5.3647676e-07
 -3.0590784e-02
  3.6492253e-05
  1.0624920e-05
  9.9330955e-06
 -9.0098678e-07
  1.0349338e-05
 -5.5139626e-06
  1.1372738e+00
 -6.9351983e-01
  1.2276496e+00
 -5.3753924e-01
  1.0782651e+00
  8.2189086e-05
  7.4978900e-01
 -1.9510528e-04
 -5.9372079e-02
 -2.2563362e-03
  8.8724073e-06
 -4.0861871e-02
 -2.9739325e-03
 -1.1749244e-05
 -5.2627660e-05
 -4.1523641e-01
 -4.6783113e-03
 -1.3024948e-04
 -4.7814559e-02
 -2.6575720e-04
 -6.6905119e-03
 -5.5203520e-07
 -5.0866956e-01
  2.4355411e-04
  4.5484162e-06
  1.0639362e-04
  7.3585113e-07
  2.6021267e-05
 -6.9244334e-06
  1.2749511e-05
 -5.5066362e-06
  1.2068157e-05
  5.2463356e-06
  4.0318810e-05
 -7.4627786e-07
  1.4517117e-05
 -1.3910042e-05
 -2.0291043e-05
 -3.7584377e-07
  3.2783220e-05
 -1.1135808e-06
  1.3210806e-05
  1.5254755e-05
  7.6717324e-06
 -2.5758294e-05
 -9.9820441e-05
 -2.2422077e-05
 -8.5125148e-06
  3.3511333e-07
 -8.7577507e-07
  1.7335511e-06
 -2.9206123e-05
  5.5553141e-05
  4.4753938e-06
 -2.9004388e-05
 -1.6379450e-05
  1.8729336e-04
  5.1643474e-06
 -9.4981144e-05
 -1.4578398e-04
 -1.6405341e-01
 -4.6076494e-01
  7.0550072e-01
  3.4886016e-05
  5.0959837e-01
 -1.0488451e-01
  8.5723661e-02
 -1.0335817e-05
 -7.8320772e-05
 -5.7012762e-04
 -1.9438844e-06
 -2.6171762e-04
 -1.6020384e-05
 -2.4996830e-06
 -3.0265748e-05
 -2.2971740e-01
 -1.5493304e-02
 -1.0843050e-05
 -3.1752676e-01
 -3.5860518e-04
 -1.3060259e-03
 -5.3015478e-06
 -1.4556828e-05
  4.7999500e-05
  3.5802293e-06
 -1.2098206e-05
 -1.7013277e-05
  3.3478038e-05
 -3.5912735e-06
 -2.3978650e-06
 -1.1981738e+00
  3.3267882e+00
  2.6013854e-01
 -8.9180315e-01
 -9.1575913e-02
  1.5531482e-02
  6.0380042e-01
 -2.3195191e-04
 -3.0872386e-02
  8.9661614e-04
 -1.9706513e-01
  1.5327191e-01
  3.9283302e-01
 -2.7760407e-05
  7.2204850e-05
  2.1089366e-01
  6.7500673e-02
  9.6682876e-02
  4.8972401e-01
  7.1352325e-02
  5.9584570e-01
 -2.8223865e-06
  4.0214297e-01
  2.0092653e-02
  1.4240030e-05
  3.5119967e-05
  1.6868835e-05
 -4.8939323e-06
 -1.0943460e-05
  1.9474475e-05
 -5.6050139e-06
 -4.0689210e-06
 -1.3046753e-06
 -1.1436669e-05
 -8.6910732e-06
  1.9875747e-06
 -1.0076966e-04
 -7.7102661e-05
  2.2951899e-05
  1.1072096e-05
  2.0714091e-05
 -1.3680843e-05
 -1.8237792e-05
 -6.9458713e-07
  5.7049178e-06
 -2.5138677e-06
  1.1120696e-05
  6.8209127e-05
  7.8584717e-06
 -2.2013293e-04
  3.2608004e-06
 -8.3936339e-07
 -4.4487160e-06
 -3.4017089e-06
  6.7810051e-06
  2.2006682e-06
 -4.2481668e-05
 -3.5777123e-08
  2.8640390e-05
  3.6506512e-07
  1.7028304e-05
 -5.1397551e-06
  1.6924661e-06
 -2.9184323e-06
 -1.1473504e-06
  1.1178145e-06
 -1.5607071e-06
  6.4369233e-05
  6.8734094e-05
 -5.0711259e-07
  1.1805578e-05
 -3.6871047e-06
 -1.5245526e-05
 -1.2046461e-06
 -2.6554961e-04
  6.8852178e-06
  4.2154050e-05
  6.0661514e-06
 -1.0884496e-05
 -2.5569177e-06
 -1.7740980e-05
 -4.8318557e-06
 -8.4657528e-05
  6.0447924e-06
  1.5893342e-05
 -1.9248995e-05
  1.4756028e-05
 -3.0777137e-06
  1.8681567e-05
  1.4468032e-05
 -7.7882496e-06
 -1.3329909e-06
  7.9712299e-05
  8.9236555e-06
 -2.4397907e-05
  1.1486335e-05
  6.8486159e-05
 -9.9000026e-06
 -5.8929359e-06
 -8.0014579e-06
 -9.0449219e-05
 -2.2668395e-05
  2.0974026e-05
 -2.0554567e-04
  3.6636965e-07
  2.6069625e-05
 -5.1373486e-06
  1.6859891e-06
  8.7903849e-05
  8.4012827e-06
 -6.0903147e-07
 -8.1682151e-07
  3.7516709e-06
  1.3555558e-06
 -7.5515976e-07
 -4.1678912e-05
  1.0354480e-06
 -6.8981394e-06
 -5.5994969e-06
 -5.7085672e-05
  3.2169810e-01
 -5.6486380e-01
 -4.9363151e-01
 -1.9403005e-01
 -6.7234731e-01
 -1.3773527e-04
 -4.5266712e-05
 -9.2224521e-04
 -1.1449162e-04
 -2.5957843e-04
 -6.1820079e-05
 -1.3101587e-04
 -6.8481851e-05
  9.0782360e-06
 -1.0180222e-05
 -1.2779857e-05
 -1.8802017e-04
 -3.0188876e-05
 -5.0490100e-02
 -1.7043982e-05
 -1.4210336e-01
  2.5485917e-06
 -1.6883081e-02
  5.0973260e-01
 -1.4341338e-06
  7.0569895e-06
  7.6415859e-07
 -7.4634045e-07
 -1.3118495e-04
  7.7150238e-05
 -2.3563842e-05
 -2.5227862e-05
  1.5776560e-06
 -6.5929066e-06
  2.0936203e-04
 -5.3567423e-06
  5.1526740e-06
 -1.0871231e-04
 -4.7735625e-06
 -1.0879623e-05
  1.8843177e-05
  3.7254076e-06
  3.7600752e-05
  7.0371907e-06
 -1.8262340e-06
 -1.6445110e-06
 -7.4767959e-05
 -1.5612297e-05
  2.4628998e-05
  1.0877782e-06
 -2.8018974e-05
  6.3806442e-06
  3.5852955e-07
  1.0934992e-04
  5.4800225e-06
  5.6255449e-06
  3.2952896e-06
  4.5338811e-06
 -3.4093398e-05
  1.0131245e-06
  1.0337052e+00
 -1.7205834e-01
  5.5704349e-01
  7.8784221e-01
 -7.2816104e-02
  3.6443144e-02
  5.8023268e-01
 -2.3592936e-02
 -3.6474292e-05
 -1.3656699e-04
 -9.1590810e-01
 -2.8081191e-05
  2.0088653e-04
  1.8277922e-05
 -9.2860773e-06
  2.0110431e-01
 -1.4070565e-03
 -3.0317451e-05
  1.2309519e+00
 -4.5208685e-07
 -1.7906852e-05
  2.2411550e-05
 -4.1617253e-03
  6.5852195e-02
 -1.1593632e-04
  7.6259428e-05
 -4.3224545e-06
 -3.2763837e-06
 -8.8387242e-06
 -5.8600826e-06
 -1.1194240e-04
  5.5962046e-06
 -5.8656619e-06
 -3.6385456e-06
  7.9848804e-05
 -5.9693042e-07
 -2.1645636e-05
  1.3804328e-05
 -3.8540114e-07
  1.0662126e-04
  1.2321168e-07
 -8.2092602e-06
 -3.7183481e-06
  2.2079737e-04
 -8.8061364e-07
 -2.2276481e-06
 -1.1341726e-05
 -1.4174292e-05
  3.3749791e-05
  7.0020615e-05
 -1.1882234e-04
 -6.6528253e-07
 -4.6270229e-06
 -9.8898852e-07
 -4.8526487e-04
  8.8090601e-06
  1.5587029e-05
 -8.3531313e-06
 -5.4761349e-06
 -6.0662851e-06
  1.2830537e-05
 -1.1177959e-04
  2.6841177e-05
  8.4632111e-06
  8.6996974e-05
  6.1619852e-07
 -1.0809449e-05
  2.8323598e-06
  1.9794634e-06
  4.3357815e-07
  1.4151236e-05
  1.6172999e-06
 -8.5589022e-07
 -7.4074742e-06
  9.8435652e-05
  4.9636819e-05
 -5.0991584e-05
  1.2281280e-05
 -9.5683818e-06
 -4.9522943e-05
  4.7948206e-06
 -1.5571090e-05
  3.6771476e-06
  9.2707509e-05
  9.9406780e-06
 -6.8570466e-06
  3.0827778e-06
 -3.8881182e-05
  4.4029548e-05
  2.4480272e-05
  2.3604603e-05
 -1.5074595e-05
  1.0064077e-05
 -1.6675841e-04
  3.8575199e-06
  1.1218332e-05
  1.3514684e-06
  1.2123252e-06
  6.3760194e-06
  1.0411113e-05
  5.3822555e-06
  7.7103832e-05
 -1.6214182e-06
  5.1508931e-04
 -2.5649175e-05
  1.0353582e-06
  5.2732084e-06
  3.4346804e-04
  8.0156570e-07
  2.1737751e-04
  1.0244778e-03
 -2.0344158e-05
  8.0444588e-06
 -1.6374375e-05
 -4.4273882e-05
 -4.2715546e-06
 -2.9009132e-06
 -1.3802419e-04
 -1.8220811e-05
  1.6976475e-05
  1.6826347e-05
  2.3125787e-05
 -3.0532042e-06
 -1.2619687e-07
 -1.9299619e-05
 -2.5780013e-04
 -1.9113850e-05
  1.5251352e-05
  4.3866393e-04
 -5.4919947e-06
 -1.2825559e-03
 -2.5008896e-05
  1.3344447e-04
  9.2249132e-07
  5.2644887e-06
 -4.1610970e-06
  4.6595337e-06
  1.0577879e-04
 -8.8509742e-06
  9.2952878e-06
  1.0571500e-05
  3.0394853e-07
  1.3185704e-06
 -3.1312411e-05
 -2.7808417e-06
  3.2355429e-06
 -1.0901082e-05
 -5.1758584e-06
  3.0876065e-05
 -2.3031678e-05
 -1.3863519e-05
  1.0594580e-05
  1.8366876e-05
 -1.1340216e-05
 -1.6063570e-05
  3.6185559e-06
 -1.4635772e-06
  6.5889589e-07
  2.0316841e-06
 -1.3618996e-05
 -4.8670604e-06
  5.2879877e-06
 -3.9927079e-05
 -4.4624445e-05
  7.0002720e-02
  1.2531858e-04
 -3.4968780e-06
 -8.4570429e-06
 -2.6951073e-05
 -8.3153082e-06
 -9.3962248e-05
 -3.2949678e-04
 -2.4711177e-05
  2.9502501e-06
  3.5025148e-06
 -9.9976512e-07
  6.0717014e-07
 -5.9140351e-05
  1.1186956e-04
 -5.2516445e-08
 -1.2314220e-05
  3.2430998e-04
  2.7812481e-01
  1.9349303e-05
  1.7134049e-05
  2.4698320e-04
 -2.0400121e-05
 -2.1520344e-05
  2.5508480e-04
 -5.8078469e-05
  4.3606456e-06
  3.6425831e-08
  8.5173888e-06
 -8.0749614e-06
  6.6273583e-06
 -3.9318496e-05
 -3.1826146e-06
  1.1721248e-06
  1.2198761e-05
 -2.2929153e-05
 -3.7812661e-05
  6.7384276e-06
  2.6531899e-04
 -1.8759811e-06
 -6.3806135e-07
  2.2748909e-06
  1.0141283e-06
  2.2723575e-06
  2.6155036e-05
 -1.5309362e-06
  1.5412845e-06
  2.4880842e-07
 -3.2671574e-05
  3.9505841e-05
  8.7054159e-06
 -2.5572668e-05
  5.5364494e-06
  8.4615276e-05
  2.8637438e-05
  6.1140836e-06
 -7.7367777e-06
 -2.2842645e-05
 -1.5950255e-04
  5.4007392e-06
 -5.0737049e-06
  1.1612927e-06
  1.0507674e-05
 -1.7435332e-05
  6.2854756e-06
 -8.0208456e-06
  5.6684821e-06
 -1.2970664e-05
  3.1165336e-04
  1.5270968e-04
 -4.9537657e-06
 -1.9532229e-06
  4.3113523e-06
  3.4239234e-05
 -9.1653574e-06
  6.0591778e-06
  6.5249278e-06
 -4.4868687e-01
 -6.6077431e-05
  3.2121970e-05
 -1.8252399e-02
 -4.7191026e-04
 -1.0545923e-01
 -2.3001927e-04
 -7.5548655e-06
 -3.8747796e-05
 -3.1406769e-05
 -1.7902910e-05
 -2.6632673e-05
  7.0778071e-05
  4.2051935e-05
 -4.1459884e-02
 -1.4613527e-04
 -6.2930398e-05
 -2.3920952e-01
 -1.0382591e-05
 -6.8625130e-02
 -9.3127383e-06
 -1.3167912e-05
  3.1719283e-05
  3.4662260e-06
 -3.9017382e-06
 -1.0208016e-06
  3.9833435e-06
  3.0217436e-06
  3.4319798e-06
 -1.4349028e-05
 -8.2937069e-05
  1.2761453e-06
  5.7816501e-06
  1.6476750e-05
  3.7696066e-06
 -2.6179865e-04
 -1.1974656e-05
 -1.2602561e-04
  1.4122887e-05
 -6.4933811e-05
  2.5272215e-05
 -7.7843390e-07
  1.4140490e-05
 -4.9117830e-06
  7.8020385e-06
  2.0940471e-04
  1.7136409e-06
 -1.2693220e-06
  2.3609765e-04
  2.6592984e-06
  5.8530118e-06
  5.0355657e-06
 -1.0426988e-05
 -3.6294554e-05
 -6.8627873e-05
  4.2997522e-06
 -4.4242743e-06
 -1.4880618e-06
  3.3443928e-06
 -5.2575983e-06
 -4.3070867e-07
 -5.9234403e-06
 -6.0478408e-07
  7.4943418e-06
  9.3916157e-08
  3.4679938e-06
 -1.1119660e-05
 -1.2454449e-05
  6.2362406e-06
 -4.4487429e-06
  4.6481446e-06
 -1.7663300e-06
 -1.0495787e-06
  1.5478925e-05
  8.7515849e-07
 -2.0260445e-06
 -1.8962070e-05
  2.3174385e-05
 -2.1164449e-06
 -1.2769059e-05
  3.5157318e-05
 -7.4328949e-05
 -1.2297942e-05
  7.2483840e-06
 -9.9017752e-06
 -2.7700371e-06
  4.1427729e-06
  5.2603909e-06
 -1.7542331e-07
  8.9742237e-01
 -3.4310991e-01
  3.3203069e-05
  6.8279536e-05
 -2.4640076e-01
  3.4669367e-06
 -5.8912133e-06
  4.7429344e-03
 -3.1697489e-06
 -3.0163290e-05
  2.8442407e-06
 -1.4346262e-05
 -4.4731088e-08
 -3.4494460e-01
 -4.2555748e-06
  1.4014590e-01
  2.5188754e-06
 -2.8727098e-05
 -2.0006817e-02
 -3.6667307e-06
  4.2939371e-01
  4.0414656e-05
  8.0040583e-05
  7.8280439e-04
 -1.6320095e-06
  6.7098161e-05
  1.9393142e-06
 -1.3837588e-05
 -6.0240041e-07
 -1.9937015e-05
  1.2901491e+00
  2.6107881e+00
  7.5966430e-01
 -2.7255206e+00
  3.5487120e+00
 -1.5217064e-01
 -5.6310970e-02
  1.3876200e+00
  1.8137716e-01
 -2.4822876e-01
 -4.0331385e-01
 -2.2559820e-02
  5.1714480e-04
  1.4357686e-01
 -3.8244396e-01
 -4.6058495e-02
 -1.4953611e-02
  3.6574912e-01
  4.3541324e-01
 -2.1742922e-01
 -1.0947243e+00
  6.4257419e-01
 -2.8559443e-01
  2.0292618e+00
 -4.8530954e-03
  2.3058830e-01
 -1.6772072e-04
  1.0188503e-05
  2.2567616e-01
 -7.1205081e-06
  3.5889876e-05
  2.1892829e-05
  7.2678249e-06
 -6.3555410e-05
 -3.3411759e-06
 -5.2519765e-05
 -4.3376695e-05
  1.4510400e-05
 -1.1416033e-05
 -1.7205192e-06
 -7.9017605e-05
  3.7101358e-06
 -4.0486057e-06
 -1.6767868e-05
  1.5284723e-04
  7.0587480e-06
 -8.1023591e-06
 -4.1391645e-06
  4.9180644e-06
  9.2565031e-08
  2.6369771e-05
  2.5389183e-05
 -4.2028687e-06
 -1.0889406e-06
 -5.8911875e-05
 -1.4522971e-04
  3.1989200e-07
 -2.2458928e-06
  3.6484346e-07
 -2.0681875e-06
 -6.8076400e-07
 -8.6368106e-02
  4.2921329e-01
 -7.7442682e-01
  2.3455931e-01
  3.2669091e-01
 -4.2619359e-01
  3.7375501e-01
  4.4400016e-07
  2.8987578e-01
  7.4851072e-01
  1.6857064e-04
 -1.1188895e-06
 -9.7907750e-06
  2.6864916e-01
  3.2492455e-05
 -4.4709665e-01
  2.8426043e-06
 -1.1263266e-05
 -5.0404632e-01
  1.7613023e-04
 -3.7154564e-06
 -5.6017366e-06
 -1.2043032e-05
 -2.2739542e-01
 -2.2658777e-04
 -5.4439120e-06
 -4.1135257e-01
 -3.0364108e-01
 -3.0670039e-04
  4.0784201e-01
 -3.3042977e+00
 -1.3122240e+00
  2.2375488e+00
 -1.5359092e+00
  3.3716576e+00
 -1.0370964e+00
 -1.4611906e+00
 -2.7879641e-06
 -1.0948321e+00
  1.8312348e+00
  2.2005461e-06
  1.8839143e-06
 -4.3250351e-05
 -1.1543994e+00
  5.6087080e-04
 -2.0582838e+00
  3.3646604e-06
  3.5075236e-06
  7.8095816e-02
  2.7756016e-06
  1.4997901e-06
  7.4921983e-05
  4.2630641e-06
 -7.8376371e-01
  1.3157321e-05
  3.7860039e-07
 -1.6247635e+00
 -3.1884832e+00
  1.9532670e-05
  3.8048437e-01
 -9.9571759e-01
  1.3274187e-05
  4.8353588e-05
  9.0670830e-01
  9.3556114e-02
  2.7522516e-01
 -1.5414868e-01
 -8.4161872e-01
 -1.5590651e+00
  1.4115918e-05
 -2.4613512e-01
  9.5269486e-02
 -1.3275530e+00
 -5.8415352e-04
  7.6893502e-06
  6.4490137e-06
  3.1883668e-04
 -1.7247725e-02
 -2.1344350e-01
 -5.4406391e-06
 -2.5624351e-03
  3.9118248e-05
 -1.5762906e-01
  2.1079318e-04
  1.3048188e-05
  3.7373768e-05
 -4.5683020e-05
  5.4279121e-07
  2.1750179e-06
  2.9298478e-01
  1.6232382e+00
  2.6800450e-02
  1.0859982e-05
  3.5787174e-01
  2.4404325e-01
  1.8123209e+00
 -6.3700628e-01
  1.7056774e-01
 -2.4998114e-01
  3.4907348e-06
 -2.9332199e-05
 -3.9937554e-06
 -1.4315824e-01
 -8.0915469e-01
 -2.7328166e-01
  1.6974274e-05
 -2.0160642e-01
  5.1144427e-01
 -9.4880015e-02
 -3.4055633e-03
 -8.3844578e-03
 -7.3716119e-02
 -6.6083921e-05
 -3.1541571e-01
 -6.6352613e-02
 -7.3093986e-05
 -6.4979977e-06
  1.9350624e-01
 -1.4259277e-01
  2.3297232e-06
 -4.7389890e-06
 -1.1389364e-05
 -8.0415211e-06
  3.4045112e-05
 -1.2392650e-05
  2.1683547e-06
  9.8968603e-06
 -2.6350358e-06
  3.1726445e-06
 -1.2855539e-05
  1.5761456e-05
  2.9358462e-06
  5.0286446e-05
  5.3434076e-05
  1.3964682e-05
 -3.6189039e-08
 -2.2914894e-06
  4.1175699e-06
  1.1138829e-05
 -1.9954310e-05
  9.5406445e-05
 -1.5761414e-04
 -5.4061722e-05
  2.6773208e-05
 -1.3934797e-05
  5.9830254e-06
 -1.2581248e-05
 -2.8210052e-06
  1.8219565e-05
  2.2419568e-05
 -3.6535832e-06
  4.6423356e-05
 -1.4160099e-05
  2.9943280e-06
  1.1276742e-05
  1.3331945e-04
 -6.0932798e-06
  6.0088943e-05
 -3.1523345e-04
 -2.9234261e-05
 -1.4446166e-05
 -5.7298826e-06
  3.3766621e-06
 -4.3067477e-05
 -8.5189658e-06
 -2.0876665e-05
  4.0954806e-06
  2.6898037e-05
 -6.9068238e-07
  4.3476080e-05
  7.1610434e-06
 -1.2700239e-05
  1.7293883e-06
  2.2299312e-07
 -5.4764078e-06
  3.3266967e-06
  3.5252851e-05
  4.1874915e-05
 -6.9743299e-07
 -4.3853337e-01
 -2.1895283e-01
  1.7970984e+00
  6.5069050e-01
 -9.0707570e-02
 -7.5020498e-01
  4.8785094e-02
 -3.0439478e-01
  4.9002680e-01
 -5.1155686e-01
 -1.7652857e-06
  8.7325895e-01
  3.0360015e-03
 -4.2007798e-01
 -3.3997260e-02
 -1.3897097e-04
  8.8554320e-05
 -4.6366090e-01
 -8.0836314e-01
 -3.5010617e-02
 -1.1409632e-01
  5.6369532e-05
 -1.2095725e-01
 -4.8955553e-05
 -2.4329144e-01
 -6.7319488e-03
 -8.4600144e-04
  1.8113011e-03
  1.7022367e+00
 -1.2303714e-04
  5.1145937e-04
 -1.7821153e-03
  1.1228576e-06
  5.2593191e-06
  8.3307321e-05
 -2.3369298e-04
 -2.5525802e-05
 -2.5855647e-06
  1.4336681e-05
 -2.6772426e-05
 -1.2638722e-05
  5.3628679e-05
  1.9042842e-05
 -1.2297493e-04
 -7.1527981e-03
  9.9360377e-06
  1.3667014e-06
 -5.2562582e-06
 -6.6217029e-01
 -1.2613118e-05
 -4.7930083e-05
 -8.6115924e-06
 -4.9248931e-04
 -1.4510310e-05
 -2.4252482e-04
 -1.0809978e-05
  1.4846663e-06
  4.6080189e-05
  3.2605868e-07
  3.7333139e-06
 -6.1576052e-06
 -1.0762849e-05
 -4.2432116e-06
 -1.1364845e-05
 -2.7288354e-05
 -5.1796906e-06
  2.2796163e-05
 -7.0584238e-06
 -1.0925886e-05
  1.6152269e-05
 -6.0711895e-06
  2.7117271e-06
  1.5315201e-05
 -7.0930950e-02
 -2.8228600e-04
 -4.6645655e-05
  1.8477262e-05
  7.2845549e-05
 -1.8351011e-05
  6.8176155e-06
  2.7008602e-07
 -3.9904662e-05
 -6.2203953e-06
 -1.5756139e-05
 -1.7954193e-05
 -1.4156586e-04
 -1.1114487e-05
 -8.5499696e-06
  2.9349658e-05
  7.7461351e-07
  2.3476746e+00
  4.8744035e-01
 -1.0695404e-02
 -1.5972774e+00
  2.9392557e+00
 -2.7347299e-01
  1.6959997e-02
 -1.1374648e-01
  3.5073808e-01
 -8.0781534e-02
  4.2633861e-01
  4.7537500e-01
 -1.2817889e-01
  1.1650053e+00
  2.3155920e-01
  3.2306239e-01
 -2.8285587e+00
 -4.7493637e-01
  6.2587094e-01
  3.0285156e-01
  5.5075072e-02
  1.7109451e-05
  3.4831610e-01
  1.0031261e+00
 -1.3193330e-05
 -1.0508204e-05
 -1.8743725e-01
 -3.7967038e-01
 -6.2263143e-01
 -4.8064956e-04
 -1.0122508e+00
 -1.4625055e+00
 -9.3695544e-02
  7.7567816e-01
 -1.0668796e+00
 -7.6017283e-02
 -1.1114150e-01
 -5.3281710e-04
  1.3516352e+00
 -4.9800488e-01
 -5.2914917e-01
  2.4221568e+00
 -7.9769857e-02
  1.0333245e-01
 -1.9856477e-01
 -1.8399096e-06
 -6.1796468e-01
 -9.1847982e-03
 -8.8075787e-02
 -2.7872258e-01
 -1.6398282e+00
 -4.2642891e-02
 -1.2417001e+00
 -1.0377241e+00
 -9.8718673e-01
 -9.9940877e-04
 -2.2218595e-01
  3.4324232e-01
 -1.0742545e+00
  6.0300040e-01
  1.1309942e+00
 -1.6570863e-01
  8.7853568e-03
  4.4455168e-01
  1.0019835e+00
 -6.7888379e-01
  5.2349645e-01
  2.2810681e-01
 -6.2071788e-01
 -7.1282424e-02
 -2.3117520e-01
  6.7507327e-01
  2.5761476e-01
 -1.1626886e+00
  5.3452766e-01
 -1.2203588e+00
  2.9350203e-01
  3.3105674e-01
 -5.3947330e-01
  1.5253469e+00
  1.8069934e-05
 -8.2092956e-06
  6.0917307e-02
  3.7781394e-01
  9.6658862e-01
  4.9400711e-03
  7.0928442e-01
 -1.1704370e-03
  1.0014906e+00
  1.1765761e-06
 -4.3524827e-07
 -9.5511950e-06
 -1.5742215e-05
  1.3237609e-05
  3.4886109e-06
  1.4660230e-06
  6.2140248e-06
 -9.6605800e-06
  1.7124190e-04
  3.8782423e-06
  1.5755020e-05
  1.6841344e-05
 -4.7408139e-06
  3.1516251e-05
  5.2005744e-06
 -3.6503538e-05
  1.1116097e-05
  2.1422234e-06
 -1.9655017e-05
 -2.6392807e-05
  6.6289103e-06
 -2.4370381e-06
  4.3419826e-05
 -2.5117823e-05
 -6.0518928e-06
 -5.2075634e-08
  4.2158649e-06
 -1.3456667e-05
 -5.3640815e-06
  1.7920495e-06
  3.0192361e-05
 -8.2521481e-05
  1.1478157e-04
  3.1008903e-02
 -5.1452107e-06
 -7.7295199e-06
  1.0932041e-06
  3.2875701e-05
 -2.4423437e-06
  3.4483488e-05
 -2.4910455e-06
  3.9923598e-06
  8.2712395e-05
  3.8207595e-03
  2.8298169e-03
  2.5389108e-06
 -5.0215451e-05
 -3.9112683e-06
 -1.3784183e+00
  3.7650327e-05
 -6.5730268e-07
 -3.5114747e-06
 -5.4711904e-07
 -3.8361172e-06
 -1.5123643e-05
 -6.8579109e-05
 -1.9099250e-06
 -4.2966323e-05
 -5.3494541e-06
 -1.6252652e-05
  1.0431971e-01
  1.2287616e+00
  5.0061826e-05
  3.2047194e-04
 -2.3921834e-04
  9.7777806e-02
  7.4949207e-06
 -3.2299144e-05
  2.8401434e-02
  5.5929759e-06
  9.0358648e-05
 -2.6274711e-07
  1.8176819e-01
 -1.2909410e+00
  6.9215097e-02
  8.4502926e-06
  1.1669911e-05
  1.2199187e-06
  4.1782674e-01
 -1.9844288e-04
  2.7167109e-05
  2.2035019e-05
  1.8573761e-05
  1.5006454e-04
  1.5136847e-05
 -2.0098372e-05
  6.7039531e-05
  1.2513814e-05
 -5.7744127e-02
 -6.6087910e-06
 -5.3584206e-01
 -8.6995226e-01
 -6.7854553e-01
  2.6900160e+00
 -3.5927144e-01
 -2.0565420e-01
 -7.7590202e-03
 -3.1925014e-01
  1.2732706e+00
 -1.5654685e-01
  1.0208656e+00
  9.0676045e-01
 -3.2235777e-01
  2.1886458e+00
 -2.8331140e-01
 -2.1008732e-02
 -3.3833581e-01
  5.3018922e-01
  9.9003381e-01
 -1.7465779e-01
  5.1676625e-01
  3.5909947e-02
  2.1222621e-04
 -5.3180116e-01
  8.2270986e-01
  3.1067271e-02
  2.5759498e-04
 -2.1019287e-06
 -1.9817194e-03
  1.1419856e-02
  4.5845634e-01
 -9.2653781e-02
  6.9795109e-02
 -9.5519775e-01
  3.3030000e-01
 -6.0878959e-02
 -1.1547371e-01
  6.3222116e-01
 -2.1344952e-01
  3.9716277e-01
 -1.2011235e-06
 -5.1446381e-04
 -3.2991536e-02
 -1.2107121e+00
  6.7227697e-01
  4.6150386e-02
  1.4699830e-02
  1.2496042e-03
  1.1667397e+00
  2.4694167e-01
  1.3634044e-04
 -5.3700539e-08
  3.6060615e-04
 -7.6204248e-02
  9.5484972e-02
  8.2132667e-02
 -1.2064913e-05
  1.2009808e-04
 -8.3385753e-03
  2.3168674e-01
 -6.5533857e-07
  5.6666398e-01
  1.0133933e-01
  3.1489995e-05
 -9.7125303e-03
 -5.7903014e-07
 -5.5764893e-05
 -2.7822050e-01
 -2.2410783e-01
  4.8183963e-01
  6.0945526e-03
  2.4125369e-04
  1.6619824e-06
  5.3677845e-01
  8.1563216e-01
 -1.0143478e-05
  1.8491085e-04
 -7.9639707e-05
 -4.0585223e-01
  8.9969173e-02
 -2.3449502e-06
  1.6648848e-06
 -1.6279599e-05
  9.9390643e-05
  7.5582946e-05
  1.5754869e-05
 -1.4836201e-05
 -6.5085701e-06
 -1.7243401e-04
  1.6726888e-04
 -4.1970598e-05
 -4.0477184e-06
 -1.6944030e-06
  7.3035793e-05
  1.4615104e-05
 -2.3663235e-05
 -3.1099324e-05
 -3.3712965e-07
  2.0752288e-05
  5.1583782e-05
 -8.2234901e-06
 -6.3031143e-06
  4.2452644e-05
 -9.2549972e-06
 -3.2043063e-05
 -1.9241734e-05
 -3.1871092e-05
  1.1263513e-05
  1.5132875e-05
  6.9305966e-06
  2.4331359e-05
 -5.4680186e-08
 -9.4308371e-06
 -1.7195875e-05
 -2.4982487e-04
 -1.3070616e-04
 -2.2749058e-05
  1.8790144e-05
  1.4800300e-05
  1.4898601e-06
 -1.2792691e-05
 -1.1843991e-03
 -1.5074124e-05
 -1.3164584e-05
 -2.7011035e-04
  6.0679213e-06
  6.8068744e-06
 -1.1200972e-05
 -1.8880148e-05
 -2.8996396e-01
 -2.3758565e-05
  3.0175145e-04
 -2.3901814e-05
 -1.9196636e-06
 -2.9181248e-02
 -2.2964598e-05
 -2.6804080e-05
 -1.2985085e-05
  7.2313577e-01
 -3.4256245e-05
 -1.8254530e-05
 -2.2205986e-05
  2.3029765e-05
 -9.8100492e-05
 -1.0357942e-05
 -1.1482913e-05
 -2.2148458e-07
 -1.1752559e-05
  2.3773746e-06
 -2.2857150e-05
 -2.3169450e-05
 -1.0486486e-04
 -8.9783380e-06
  9.1730926e-06
  1.5781570e-06
 -6.2722861e-06
  3.7955280e-05
 -9.0288551e-05
 -1.9180770e-05
 -8.8508204e-05
 -3.8598841e-06
 -2.9666874e-06
  4.2652414e-06
  7.8670528e-06
  3.6060036e-04
 -2.0373782e-06
 -7.4524414e-06
  4.9752966e-06
  4.4247545e-06
  1.4898214e-05
 -1.3422733e-04
 -9.4313015e-07
  1.8265573e-04
 -2.3954719e-06
  2.1152588e-05
  2.1949334e-06
 -5.3999524e-06
  2.7455999e-05
 -2.2631886e-05
  1.4391402e-06
 -7.8314224e-06
 -1.3890068e-06
 -2.7402331e-05
 -5.0482846e-05
 -7.6087978e-05
  3.0934953e-05
  7.0340061e-06
 -7.7063742e-06
  3.4961980e-05
 -9.4307041e-05
  9.0243266e-05
  5.8090626e-07
 -4.6504369e-06
 -8.2540228e-06
  6.2232307e-06
  3.7980801e-05
  1.2548520e-06
 -9.3046407e-07
 -3.0536621e-06
 -1.1121685e-04
  1.1092893e-05
 -6.9297394e-06
 -4.1833764e-06
 -5.1173488e-06
 -1.9474644e-05
 -7.7736581e-07
  3.2980652e-06
  6.3652355e-06
 -2.8122391e-05
  7.5430466e-06
 -1.5591104e-04
  9.8246019e-05
 -1.1755952e-05
  2.5014069e-05
  5.7102825e-05
  1.1003507e-05
  6.5639519e-08
  1.4517782e-06
 -8.8059587e-06
 -7.6696642e-07
  8.8081418e-07
  2.1673168e-05
  1.7537863e-06
 -3.7318807e-06
  2.0148359e-06
  7.1125955e-06
 -4.4350170e-05
 -3.7502873e-06
 -3.6576987e-06
 -1.9219212e-06
 -6.1489804e-06
  1.1023380e-06
  2.1946325e-06
  4.4386197e-06
  2.6491080e-05
 -6.5774395e-07
  2.1958763e-06
  4.7542803e-06
 -3.9336473e-06
  3.9735723e-06
  2.2429037e+00
  1.1892495e-01
  2.8568974e-01
 -4.7963339e-01
 -2.9226793e-02
  3.2106292e-01
  2.6374830e-02
 -1.2195444e+00
  1.4377546e-01
 -2.6509788e-02
  8.4915441e-01
  7.6346716e-04
  1.8923520e-01
 -1.3241471e+00
  5.0458953e-02
  3.0600780e-01
  3.6188833e-02
  1.5673121e-02
  6.8054413e-03
  1.1639187e+00
  1.4740388e-03
  7.7798859e-06
  3.8169708e-02
 -4.6844319e-02
  1.7419156e-02
  4.5904629e-03
 -3.8836083e-07
 -1.0717542e-04
  5.0926792e-05
 -2.4916721e-04
  4.7130256e-05
 -1.3421419e+00
  1.3903199e-01
  9.8056823e-01
  2.9722657e-02
  3.1908122e-01
  1.0699027e-01
 -1.0780293e+00
 -1.0791447e+00
  1.8933197e-06
 -1.1884979e+00
  1.2288139e-05
 -1.3806334e-05
  1.4899318e+00
 -6.2682837e-01
 -1.6153710e-01
  1.7810382e-05
 -7.9878442e-02
  9.7935772e-01
 -2.1332944e-06
 -1.0554853e-06
 -1.1354013e-05
 -7.9757592e-06
 -1.0698487e-04
 -1.0737792e-03
 -2.1914966e-01
  2.4188225e-07
  6.0775383e-05
  4.7594350e-02
 -3.5069636e-01
 -2.5221992e+00
  9.4905818e-01
  1.2806709e+00
  3.1910448e+00
 -7.2535500e-03
  2.0205373e-01
  2.4406329e-01
  1.8415914e-01
  4.1344348e-01
 -3.9851865e-01
 -2.1196172e-02
  2.0855348e+00
  1.9514325e-01
  1.8607925e+00
  8.7163642e-02
  1.1815535e-01
  7.8787667e-01
 -3.2904055e-02
  9.6599877e-01
  1.5249715e+00
 -1.4593951e-04
  5.4505537e-05
 -3.2502022e-01
  2.8581965e-01
  4.4756907e-05
 -3.1707277e-05
 -2.5244591e-01
  1.4417167e-01
 -4.6995765e-01
 -5.3417721e-06
  1.2308004e-05
  3.1646663e-01
  4.6714849e-06
  3.4765591e-04
 -1.0705307e-06
 -4.0024879e-05
  4.4387849e-05
  5.4624629e-06
 -2.6112464e-06
 -3.7612455e-04
  1.2964923e-05
 -3.5452383e-06
 -1.5132403e-05
 -1.0008982e-05
  1.1568347e-03
  1.1581848e-05
  4.3528147e-05
  4.6365054e-05
 -1.6860220e-04
  3.9172660e-06
 -2.4482446e-07
  9.9263452e-06
  4.1308413e-06
  6.8613276e-06
  8.8274220e-07
  6.7894805e-05
 -7.4534441e-06
  7.1060022e-06
  4.2694328e-06
  2.7199360e-04
 -6.2549807e-02
  8.0870651e-02
 -4.6562061e-08
 -1.3375982e+00
  1.2388802e+00
  1.2191657e-01
 -1.1669316e+00
 -3.7900414e-03
  1.3203312e-01
 -9.2326058e-04
  2.9694871e-07
  7.5508572e-02
 -2.3826076e-01
  5.1101249e-01
  3.5630055e-05
  1.9728605e-01
 -1.1339102e-05
  1.7773896e-01
 -1.1929672e+00
  1.6529067e-01
 -2.9282189e-06
  2.9200301e-05
  4.0914738e-06
  7.1577527e-02
  9.0468183e-02
  2.2662536e-04
 -8.7003245e-06
 -1.4131822e-05
 -2.2600387e-01
  1.2962833e-01
 -7.0274097e-01
 -1.4441183e-01
  6.2215697e-02
 -8.4560409e-02
  2.4545680e-01
 -9.6448421e-01
  1.2120069e-05
  3.4285814e-01
  7.5681990e-01
 -1.3992000e-01
  3.0429178e-01
  1.1341431e+00
  1.1169273e-01
 -7.4343008e-01
 -1.6697557e-01
  1.8935355e-04
 -5.5207317e-03
  6.4609276e-06
  4.3306372e-01
 -4.5324311e-01
 -2.1882466e-05
 -5.8545997e-05
 -1.3020271e-04
  3.1079978e-01
  7.4656568e-06
 -2.0107262e-05
 -1.6322201e-01
  4.4829457e-07
  1.4933923e+00
 -2.2491651e-05
  4.5577777e-05
 -1.1054304e-05
 -2.9806934e-05
 -1.2226010e-03
  5.5675605e-06
  9.5872829e-06
  3.2018593e-06
  2.0746063e-05
  4.2998399e-05
  1.2803540e-05
 -2.0291764e-06
 -6.9753237e-06
  9.5104660e-06
 -1.6009121e-06
 -5.0086514e-05
  2.1681963e-06
 -1.2540407e-06
  4.7802500e-06
  2.1778535e-05
  1.2274610e-04
  1.0813982e-04
  2.6076033e-05
  2.1274680e-05
  1.6739918e-05
  3.9862866e-06
  7.9946758e-06
  7.4003748e-07
 -9.6786134e-06
  3.6457220e-06
 -3.5029669e-07
 -1.1111608e-02
 -4.3187338e-05
 -5.4946859e-06
  6.6407867e-02
  2.3121327e-06
 -4.0072598e-03
  4.7590274e-06
  1.8604932e-02
  4.4629041e-02
  6.1727488e-01
 -4.2751481e-04
  2.6641673e-01
  1.4588302e-04
  3.0039540e-01
 -1.7630180e-05
 -5.0433027e-07
 -1.4971493e-05
 -2.7177732e-05
 -2.1747141e-05
  1.1027450e-05
 -2.0576973e-04
 -1.0814353e-04
 -1.6357699e-05
  3.3180249e-06
 -5.3553635e-05
 -2.1082857e-05
 -4.4879620e-05
  2.1766469e-07
 -2.4668377e-06
 -2.4049630e-05
 -1.2351318e-04
 -1.0237011e+00
 -1.4442599e-05
 -9.5036095e-03
  3.3535929e-05
 -2.6856592e-02
 -9.9928857e-06
 -5.3591484e-06
 -3.1215986e-04
  2.5305048e-01
 -5.8803722e-05
  9.6366675e-06
 -4.4070086e-05
  5.7268000e-01
 -9.8506771e-03
  1.6662412e-05
 -2.2326964e-05
 -6.6774787e-06
  1.7344941e-01
 -3.5113838e-02
 -4.9097066e-06
 -4.5882298e-06
 -1.9656056e-04
  4.3995369e-06
 -1.6728461e-04
 -9.2962327e-06
 -8.5726599e-05
  8.6878135e-06
 -4.3620434e-02
  8.5024862e-05
 -1.8352833e-01
  1.0479468e+00
  2.4561819e-05
  6.8078730e-06
 -1.3077055e-01
 -1.1632058e-04
 -2.2692770e-06
 -8.5247707e-01
  2.0190371e-02
  3.9770645e-01
  6.3255888e-05
 -1.1420366e+00
 -2.2198553e-01
  6.0670620e-01
  8.4562546e-01
  1.2351469e+00
  2.5640384e-06
  3.6733600e-05
 -1.2378802e-05
  5.1122461e-06
 -1.8541741e-05
 -5.3740531e-01
 -9.4994152e-01
  3.1463328e-01
 -1.3557373e-06
 -4.4052309e-01
 -3.3140948e-01
 -1.0143662e-04
 -1.7434353e-01
  3.9159298e-01
  5.6580484e-01
 -8.6524397e-01
  5.8015476e-06
 -1.4367565e-05
 -8.7260199e-01
 -3.4467307e-01
 -1.6108738e-01
  2.5737648e+00
 -2.1904111e+00
  1.8995240e+00
 -5.6514718e-06
 -4.8105898e-01
  4.8787388e-01
  1.8479902e+00
  1.0035378e+00
  5.4428798e-01
 -9.4192088e-05
 -2.9304186e-01
 -6.3875552e-07
 -2.0120517e-05
 -2.9201849e-05
  7.8558999e-01
 -6.3671035e-01
 -1.9858277e+00
  2.6011166e-01
  7.8212845e-01
 -8.4067464e-01
 -1.8246143e-05
 -5.5620599e-01
 -6.8939441e-01
 -1.9267408e+00
  6.7095321e-01
 -4.9961156e-05
 -6.6381317e-01
  7.6675427e-01
 -8.6492950e-01
 -5.4033899e-01
 -1.4383314e+00
  5.0400269e-01
  3.5375482e-01
  7.3322296e-01
  1.6019322e-01
  3.8823061e-02
  6.2644365e-05
 -1.1296181e-04
  1.0903235e-02
 -1.4851409e-01
 -2.4469577e-01
  1.9230846e+00
 -1.7831894e+00
 -7.4049824e-01
  1.7401648e+00
  1.2205813e+00
  8.5443026e-01
  5.7195574e-01
  8.5566807e-01
  8.5566118e-02
 -1.0005471e+00
 -2.3573078e-01
  4.1954890e-01
 -2.1208091e+00
  2.4018696e-01
  4.7322398e-01
 -1.1184185e+00
  1.1039792e+00
 -1.1223824e+00
  2.6597700e-01
  1.2116873e+00
  1.3927034e+00
  2.5790054e-01
 -9.4349474e-02
 -5.9574533e-01
  1.8085672e+00
 -2.0597491e+00
 -2.7721816e-01
  2.5738764e+00
 -1.5931237e+00
 -1.7455245e+00
  1.5704845e+00
  4.0339234e-01
 -1.1318319e+00
  1.1543301e+00
 -9.4308233e-01
  5.1894271e-01
  8.7407637e-01
 -1.2139390e-01
 -4.6133515e-01
  3.5140485e-01
  1.3578096e-01
  1.0641057e+00
 -8.0060017e-01
 -4.0921500e-01
 -9.2178702e-02
 -1.7741181e+00
  1.4792616e+00
 -8.4836632e-01
 -1.5486648e+00
 -6.8916631e-04
 -1.4229484e-01
  4.4937238e-01
 -1.5325459e+00
 -3.9150992e-01
 -1.3222998e+00
  2.6546067e-01
  6.0021621e-01
 -4.2089853e-01
  1.8286107e-02
 -1.0514324e-02
  2.4068689e+00
  5.6133556e-01
  1.2565005e-01
  9.6936160e-01
 -2.8236529e-01
 -4.0379640e-05
  2.1746727e-02
 -4.6853617e-01
 -4.3269835e+00
 -7.5954877e-02
  3.6495968e-04
  6.5324736e-01
  1.0235339e+00
  9.5857549e-06
  3.9659015e-05
  2.0083835e-06
  2.6559914e-05
 -2.2610083e-01
  9.8711544e-01
  1.0582477e-05
 -2.2708252e-06
  2.8639179e-04
 -5.1408035e-01
  7.2605758e-07
  1.8058920e-05
 -6.9183797e-01
 -4.9240315e-01
  5.3535628e-01
  6.4204121e-04
  2.3493442e-01
 -1.2444590e-01
  1.6159745e-03
 -2.0423099e-06
  2.1914445e-01
 -1.0915140e+00
 -1.6907617e+00
  2.2966377e-01
  3.3336014e-02
  2.7896979e-01
  4.5660359e-01
  6.6838649e-05
  3.3747377e-03
  1.8781858e-02
  1.2507740e-01
  2.9767001e-01
  2.3159337e+00
  1.0188969e+00
  2.5283366e-01
  9.6590370e-02
 -2.3683548e-01
 -9.8275556e-04
 -5.7804377e-06
 -2.5848828e-02
 -9.5761913e-01
  1.1284537e+00
  1.6247743e-05
  5.6152970e-01
  6.6812539e-01
  1.0533025e-04
 -8.3581835e-07
  3.6471156e-05
 -6.0908437e-01
 -3.7877688e+00
  1.7911628e-01
  1.0441428e-01
 -2.2103079e-05
 -5.3882730e-01
  8.0320378e-06
 -3.5374029e-05
  1.1520270e+00
  3.6871603e-01
  5.8381230e-01
  3.0757821e-01
  1.3508411e-01
  5.2126467e-01
  1.2295359e+00
  1.5987357e-01
  1.7345570e+00
 -1.8391745e-01
 -9.9434918e-01
 -2.0213931e+00
  1.9740816e+00
  5.5917513e-01
  1.7013586e+00
  3.8629517e-02
 -9.3967634e-01
 -1.5978523e-08
 -7.6605076e-01
 -3.6142790e-01
  1.0624340e+00
  9.1058785e-01
  1.6407207e-01
 -2.3593865e-01
 -5.9803981e-01
 -4.5753830e-05
  7.6663637e-06
  6.3327144e-07
 -1.7052270e-01
  9.6548911e-06
  2.0519666e-01
  3.7336838e-06
  2.1409953e-06
  5.8464789e-06
  6.3834996e-05
 -5.3097370e-08
 -3.6661170e-02
  1.0050849e+00
 -6.3060313e-03
 -7.2806382e-01
 -5.8536936e-04
 -7.9221478e-05
  2.9405447e-02
 -5.1219091e-02
  4.5521236e-05
 -6.7438856e-02
 -1.2915984e+00
 -7.8710341e-01
 -1.2175747e+00
 -6.7865032e-05
 -3.2834444e-04
  1.0089371e+00
 -1.0127218e-05
 -3.5464564e-05
  8.1284543e-06
 -1.4308633e-01
 -6.9207883e-01
  2.3528681e+00
  4.3223965e-01
 -3.2635238e-05
 -4.3493623e-01
  1.1521608e-04
 -2.7116710e-06
 -7.1797870e-02
  7.2857940e-01
  7.3314011e-01
  1.1569492e+00
 -5.9243411e-02
  3.1099039e-01
 -7.9964072e-01
 -1.5153676e-02
  5.4275688e-06
 -1.0063999e-02
  1.5347748e+00
 -3.7485600e-04
  3.5850886e-01
 -5.4952332e-05
 -3.2803848e-02
  7.9207736e-01
 -1.7667897e-03
 -2.8503129e-07
  3.0867398e-01
 -1.5760679e+00
 -8.7943304e-01
  2.4978772e-01
  6.2821135e-02
 -1.4575908e-01
  2.9683599e-01
 -1.0422351e-01
  1.2542196e-05
  3.9396036e-02
  6.0274545e-03
  3.6888269e-01
  2.7133250e-01
 -3.8294784e-05
  6.0981429e-01
  9.7451073e-01
  1.1527456e+00
  1.3017132e+00
 -1.4736109e+00
  1.0902950e+00
  4.2350227e-01
 -1.6098753e+00
 -7.0017809e-01
  7.7654874e-01
  1.5066608e+00
  3.7236437e-06
  1.2995801e-02
 -1.1691442e-05
  1.8146347e+00
  2.1289652e-05
 -3.0771716e+00
  9.6044654e-01
  1.7732900e-01
 -2.1012923e-01
  4.0462911e-01
  1.5512984e-03
 -1.6977890e-01
 -1.7964723e+00
  5.8632702e-01
  9.3772298e-01
 -1.4787273e+00
  1.4950774e-02
  2.8934991e-01
  2.0649597e-01
  1.3650866e+00
 -5.6636106e-02
  2.1201272e+00
  1.5216117e+00
 -8.7020129e-02
  1.0005971e+00
  1.5512151e+00
 -1.3761780e+00
  1.5537422e-05
  3.2398716e-01
  5.0770504e-06
  7.2882003e-01
  1.2968855e+00
 -1.1180180e+00
  3.2968647e+00
  4.4484955e-01
 -2.2728631e+00
  4.1756061e-01
 -7.5167359e-06
 -1.3492785e+00
 -3.3635321e-01
 -2.4378613e-01
 -1.9990709e+00
 -1.2435389e+00
  8.9400578e-01
 -7.0350605e-01
  8.1073290e-01
  1.9700716e+00
  8.6897004e-01
  1.3435212e-01
  1.1077943e+00
 -3.3687741e-01
 -1.8700869e+00
  2.1161717e-01
  9.8188482e-03
  4.2104507e-03
  4.2981151e-01
 -6.5368146e-01
  1.3131052e+00
 -8.1295174e-01
  3.4696823e-01
 -2.3300195e-01
  2.1100876e-01
 -1.7922246e+00
 -7.6539165e-01
 -3.9799127e-01
 -5.8234286e-01
  1.0835258e+00
  1.3827505e+00
  1.1784768e+00
  1.6419443e+00
  3.1772107e-01
 -7.1288437e-02
 -1.8893857e+00
 -7.4558777e-01
  1.0488433e+00
 -1.4967171e+00
 -1.2068918e+00
 -2.2208412e-01
 -2.5159595e+00
 -3.7541956e-02
 -7.8145333e-02
 -2.2484139e-01
 -3.1387720e-01
 -1.5152582e-06
 -8.6146975e-01
 -1.6221451e-04
  1.0292170e+00
 -1.2341192e-01
 -1.2737605e-05
  8.6415994e-01
  1.1105853e-01
  3.2128745e-01
 -3.1458493e-02
  3.8934776e-01
  4.0531926e-02
 -6.1487442e-01
  9.0242141e-01
 -4.9657124e-04
 -1.7968326e+00
 -1.9342637e+00
 -7.2910213e-01
  1.0079309e+00
 -9.2325136e-02
 -2.8342929e+00
  1.2846014e+00
 -6.4052862e-01
 -1.5737801e+00
  1.3493257e+00
 -8.6372316e-01
 -9.4940215e-01
 -1.6946305e-01
 -8.1632800e-02
 -8.1614947e-01
  1.0931133e+00
  8.2928789e-01
  2.5872388e-01
  8.8568455e-01
 -9.0158594e-01
  6.1851478e-01
  9.3667386e-03
  2.9110059e-01
 -3.5958675e-01
 -1.4986045e+00
 -4.1064200e-01
 -8.3894503e-01
  9.4635673e-02
 -1.0176735e+00
 -6.9533646e-01
 -1.2753792e+00
 -1.5640043e+00
 -2.5968647e+00
 -8.8826895e-01
 -1.5051874e+00
 -5.6996495e-01
  1.6460637e+00
 -3.5468501e-01
 -6.4979929e-01
 -4.7835407e-01
 -7.7483410e-01
 -9.6133101e-01
 -1.5306771e+00
  7.0444494e-01
  8.8178968e-01
 -8.3498913e-01
 -3.7888896e-01
 -9.7506344e-01
  1.7192258e+00
 -7.5929934e-01
 -6.7640048e-01
  7.3666894e-01
  1.4469355e+00
  8.5617268e-01
 -1.1497377e+00
  1.1928028e-05
  3.2381594e-01
  3.6825773e-01
  9.9722147e-01
  3.4245188e-06
 -2.0469341e+00
 -6.8524486e-01
 -1.2382619e+00
 -3.7050503e-01
 -7.1416598e-06
  1.1497923e-05
  4.2566986e-05
  3.0125506e-05
 -8.4026979e-06
 -2.8568226e-01
  1.3184271e-05
 -5.0649101e-01
  3.2071896e-06
 -1.8005386e-06
  1.8337297e-01
  3.4921834e-01
  3.3533290e-01
  4.0020868e-07
 -4.3045223e-01
  7.8152996e-01
  2.0238428e-01
 -1.8154809e+00
  6.5669818e-05
 -3.1350920e-04
  9.9523228e-01
  3.7979242e-01
  5.5828965e-05
  1.6147606e-01
 -3.6505634e-01
  7.0930916e-01
 -9.4788873e-01
 -9.3371409e-07
  1.0637642e-01
  3.5117805e-02
 -1.1564251e-06
 -3.3672331e-06
 -1.9334060e+00
  1.4274882e+00
 -4.6684640e-03
 -8.0176705e-01
 -8.9087700e-07
  9.0065347e-05
  4.8541000e-01
  1.2418563e+00
 -2.1085360e-05
 -1.3162086e+00
  6.6993797e-01
  9.0405083e-01
 -1.0682508e+00
  4.0805667e-06
  4.7920417e-04
  2.8296185e-01
  5.4992321e-05
 -7.1394406e-06
 -1.1471326e-01
  4.5168665e-01
 -1.6281707e+00
 -8.5378563e-01
 -1.8948576e-07
  3.9863493e-04
  1.1017587e+00
  6.1167735e-01
 -1.1896747e-05
 -8.7673932e-01
  7.7717356e-02
 -1.4478379e-01
  1.2814629e-01
  6.1396327e-06
  6.5627828e-05
  2.2298878e-02
  4.8237866e-01
 -2.0153630e-06
  4.1906103e-01
  4.7513881e-01
  8.2884616e-01
 -3.9075086e-01
 -2.0064639e-05
 -1.7456870e-08
 -1.1773586e-04
 -3.9609422e-06
  5.6956342e-05
  6.2171090e-02
 -1.0993454e+00
  1.3799645e+00
  3.1333482e-01
  6.8505547e-06
  1.3297408e-05
 -1.5447849e-06
  7.7241521e-06
 -1.4999640e-06
  3.4967129e-06
 -9.6089843e-07
  3.2660243e-01
 -1.0106869e-07
  1.6206656e-06
 -4.4373746e-06
 -3.0811614e-06
 -1.1806662e-07
 -1.3791880e-04
  9.4547451e-01
 -3.6342290e-01
  9.6317619e-01
 -1.4845893e+00
 -1.2329306e-05
 -6.1556176e-07
 -4.8739271e-06
 -1.2593690e-04
  1.5438256e-06
 -2.1175016e-05
  1.4971204e-01
 -1.2163625e+00
 -3.7582338e-01
 -2.8985999e-06
 -5.7221683e-07
 -3.3972984e-07
 -1.7795828e-05
  6.8134057e-07
  2.0662992e-01
  1.0128836e-01
  2.9658568e-01
  9.7310436e-01
  4.6079102e-05
  5.7265157e-07
  3.4759089e-06
  5.2122017e-05
  3.5010064e-06
  1.0077279e+00
  6.2274885e-01
  2.3639328e+00
 -1.0716164e+00
 -6.6884058e-07
 -5.5961664e-06
 -7.1891776e-07
 -1.1497381e-04
 -2.1259619e-05
 -2.5067109e-01
  6.0130842e-02
  1.3510184e-01
 -3.0067074e-01
 -4.1623429e-05
  1.0858635e-06
  3.6794700e-06
 -4.6939845e-06
 -1.2964197e-04
  1.5277964e+00
 -1.9576594e-01
  5.1726758e-01
  9.8508406e-01
 -2.2860088e-06
  1.3362442e-06
 -3.6261881e-06
 -3.2725171e-04
  8.1064056e-05
 -4.4078884e-01
  1.7897122e-01
 -6.1539423e-01
  5.0196558e-01
 -7.5562207e-07
  1.3781199e-05
 -3.7238144e-06
 -9.7557038e-02
  7.0080860e-06
  5.5762851e-01
 -5.0488938e-02
 -9.1544694e-01
 -9.2600197e-01
  2.9068389e-05
  1.7878534e-05
  2.3829373e-06
  3.2696362e-06
 -7.4742724e-07
  1.9827273e+00
  1.6910545e-04
  1.6959122e-05
 -1.9580762e-05
 -1.8995133e-06
 -1.7335113e-06
 -3.6354238e-06
 -1.7080041e-05
  3.1166828e-06
 -5.8903611e-01
  5.5480427e-01
 -1.8514401e+00
 -6.7483658e-01
  3.1638372e-06
 -4.7665721e-06
  5.1795364e-06
 -3.6374261e-06
  1.4250681e-05
  8.9141568e-03
  1.2033641e-04
  4.4508564e-01
 -3.6495379e-01
 -1.1674210e-05
 -9.9919753e-06
  4.6352187e-07
  4.8863712e-06
  1.6883423e-05
 -3.5961270e-01
  4.2575544e-01
 -1.5530272e-01
 -1.5040842e+00
 -5.6314391e-05
  1.3727634e-04
  2.0487050e-06
 -2.9349360e-01
  7.8160360e-07
 -2.4847219e-02
  5.1875241e-02
  5.8198325e-02
 -7.5711417e-01
  1.0120716e-06
 -6.7652019e-07
  5.7360491e-08
  8.8283587e-06
 -1.3567374e-05
  1.5422326e+00
  2.7730433e-02
 -2.5796694e-01
 -7.7789891e-01
  8.6488744e-06
  1.0187415e-04
  4.5573335e-05
 -3.5276383e-01
  3.0177691e-05
  4.1209239e-01
  1.5237001e-01
 -1.3643297e+00
 -1.2999572e+00
 -3.1429809e-07
  2.6152768e-05
 -7.1812688e-06
  7.0493525e-06
 -3.0401418e-06
 -4.8130441e-01
  2.9817253e-01
  9.7495121e-01
 -8.5982341e-01
  6.8674780e-02
  6.0217732e-01
 -9.6125978e-01
 -8.2605898e-02
  4.2749649e-05
  9.6253850e-02
  5.7886875e-01
  1.0209185e+00
 -6.0235345e-01
 -5.2985870e-06
  3.9844172e-06
 -3.3645832e-05
 -3.0096149e-07
  4.4316690e-05
 -6.1680257e-01
  1.8818901e-05
  3.8104078e-01
 -1.2389336e-04
  5.5873472e-02
  6.3206351e-01
 -8.9072418e-01
 -6.1708000e-05
 -2.5749378e-05
 -1.1469226e+00
  1.8101688e-01
 -6.7005014e-01
 -7.7564323e-01
 -2.3887446e-06
  1.2173880e-05
 -9.2409897e-01
  1.0121928e-05
 -1.5848829e-05
  9.8134619e-01
 -8.2625754e-02
  9.7269523e-01
  8.3853465e-01
  5.6012422e-02
  3.5394278e-01
  2.6680908e-01
 -5.9637352e-07
 -6.5695161e-08
  4.1742212e-05
  8.4930331e-01
  5.2664727e-01
  1.5351750e-01
 -2.9266782e-06
  2.0534650e-04
 -2.6142713e-02
 -8.0508995e-05
  6.3000458e-05
 -2.1611257e+00
 -1.9377272e-01
  2.0113108e+00
 -5.9357697e-01
  5.2560815e-03
  8.4562168e-02
  8.2029896e-05
 -6.7318644e-05
 -5.7212687e-06
 -1.8733567e+00
  2.8823611e-01
  1.2857765e+00
 -2.4913107e-01
  2.0979200e-05
  3.3063278e-01
 -9.3183750e-01
 -1.6123448e-04
 -2.4907280e-07
  3.8584687e-07
  5.3642243e-01
  8.6831890e-02
  3.3640298e-01
  5.7858808e-05
  1.3882089e-04
 -4.1815808e-01
 -1.5294367e-03
 -9.1623142e-06
 -4.9148259e-01
  5.6378663e-01
 -3.0895057e-01
 -1.3377443e-01
  4.6102243e-05
 -3.8504566e-03
 -7.0509690e-01
  3.5413525e-06
  1.7695785e-06
 -1.0527775e+00
  1.1981201e+00
  8.0943733e-01
 -4.1903695e-01
 -3.9547831e-06
 -8.4768169e-07
 -1.5408787e-07
  3.1392231e-06
 -1.4294859e-05
  7.2946450e-06
  9.6432340e-01
 -2.2231431e+00
  1.5345033e-05
 -1.1175074e-05
 -5.9967174e-06
 -1.8537695e+00
  1.1320921e-05
 -5.9068975e-07
 -3.4803370e-01
 -1.0359955e-02
  3.1686267e-01
  7.1452439e-01
 -4.4416331e-07
 -2.8309030e-06
 -7.3894410e-04
 -4.8510838e-06
 -4.5852289e-06
 -6.6879773e-01
  1.1444489e+00
 -2.3251037e-01
 -6.6146213e-01
 -2.0491959e-06
 -2.0365001e-06
 -4.8498547e-01
  1.3886432e-05
  8.9044252e-06
 -8.8854212e-01
 -1.7514855e-01
 -4.9429250e-01
  4.4591841e-01
  2.8867487e-06
 -3.4500988e-06
 -3.3020988e-02
  2.1583179e-05
 -6.6841289e-06
  8.4474444e-01
  2.4181052e-01
  4.9299836e-01
  1.3444375e-02
  1.7941442e-05
  1.6617865e-05
 -2.0809837e-02
  2.6196331e-05
  4.1359222e-06
 -1.7078026e-01
  2.0946085e+00
 -1.7541142e+00
  5.6250405e-01
 -2.2654076e-05
 -5.5776304e-04
 -2.3045751e-01
  5.1743486e-05
 -1.4877067e-07
 -7.3572574e-03
 -1.2945578e-01
  5.3782481e-01
 -4.9801821e-01
 -1.0347414e-05
 -4.0346407e-07
 -7.7957225e-01
  5.0362410e-06
  4.0280720e-06
  8.0639714e-01
  3.7589088e-01
 -6.6854316e-01
 -6.6400319e-01
  1.2413758e-02
  1.2413758e-02
  1.2413758e-02
  1.2413758e-02
  1.2413758e-02
  6.7241365e-01
  6.7241365e-01
  6.7241365e-01
  6.7241365e-01
  6.7241365e-01
  1.4738771e-01
  1.4738771e-01
  1.4738771e-01
  1.4738771e-01
  1.4738771e-01
  1.0924964e-01
  1.0924964e-01
  1.0924964e-01
  1.0924964e-01
  1.0924964e-01
  1.6452778e-02
  1.6452778e-02
  1.6452778e-02
  1.6452778e-02
  1.6452778e-02
  1.8038879e-01
  1.8038879e-01
  1.8038879e-01
  1.8038879e-01
  1.8038879e-01
