nep4 3 Ba Zr S 
cutoff 8 4 150 20
n_max 4 4
basis_size 8 8
l_max 4 2 0
ANN 30 0
  3.8903472e-06
  1.5932666e-06
 -1.5764186e-05
  5.2253622e-06
 -5.9222907e-06
  3.0846066e-05
 -1.0714007e-05
  2.2878171e-06
  3.0904172e-05
 -2.7853051e-07
 -7.4693271e-06
 -1.7323611e-05
 -3.1018706e-06
  2.2958760e-05
 -1.4239582e-06
  4.8822335e-06
 -6.7508486e-06
  1.2060766e-06
  2.4459600e-06
 -2.9946855e-06
 -1.4189629e-06
  1.3334729e-05
  3.8590697e-06
  1.4073422e-04
  3.2644382e-06
 -8.2990000e-06
  9.0835711e-06
 -2.7264359e-06
  5.6259541e-06
  2.4638501e-05
  4.2606987e-02
 -1.8346570e-06
  2.0340451e-06
  3.3423221e-06
 -4.8713483e-02
  6.8326219e-04
  9.5293144e-05
 -6.0568644e-05
  1.0839516e-04
  3.8130569e-01
  7.3119186e-02
  3.8075336e-06
 -9.0711565e-06
  5.9898243e-06
  3.2166406e-04
  1.2292582e-05
 -2.0755738e-06
 -1.8554761e-07
  1.4536239e-02
 -7.2046541e-02
 -6.2041772e-06
  6.7828391e-06
 -2.0675476e-05
  1.2084901e-01
  7.7911300e-06
  2.2368235e-05
  6.5984750e-06
  2.4223651e-05
  5.5123801e-06
 -7.3305209e-06
 -5.0457561e-04
 -1.5235969e-04
 -3.4439896e-04
 -1.9264331e-05
  9.5206569e-06
 -6.2308600e-06
 -3.0243671e-05
 -2.0402273e-05
  4.4677690e-05
  3.2365285e-06
  2.3493298e-05
  1.6824899e-05
 -1.0114816e-06
  4.8262837e-06
 -8.2179022e-06
 -3.1724546e-06
  1.0320987e-05
 -3.9421237e-05
  6.5002962e-07
 -1.3646526e-05
  6.8006129e-06
 -4.3116383e-06
 -3.8937788e-04
  5.1511847e-07
 -1.5375975e-06
  1.5367381e-06
 -1.7849937e-06
  8.5543688e-06
 -6.5124045e-06
 -8.1229737e-06
  2.2119406e-01
  4.4786007e-06
 -9.1719794e-06
 -1.0202301e-06
 -1.6336983e-01
  2.2310922e-01
  9.4200885e-05
  3.1294617e-06
 -9.7797409e-02
  6.6142605e-04
  3.9279210e-05
  3.9821171e-06
  4.4481390e-06
 -3.2239735e-05
 -1.5366944e-06
  3.0939333e-05
  1.5984338e-05
 -3.6046849e-06
  4.7695961e-05
  3.1855875e-06
  1.2439991e-06
 -1.9600398e-07
 -1.8520770e-05
  8.5684187e-06
  6.6831835e-06
 -4.0621167e-06
  6.5279778e-07
  2.9228539e-05
 -1.2748053e-05
 -2.2271943e-04
 -1.1129132e-05
 -9.2403998e-06
  2.4198518e-05
  5.0704712e-06
  1.5227996e-06
  8.4322373e-06
  7.6435646e-07
  5.6673439e-06
 -3.3192484e-06
  1.8046600e-05
  1.7164723e-05
  4.2835036e-06
 -3.9568881e-06
  3.2157848e-05
 -7.3363194e-06
 -1.5330319e-06
  2.7509595e-06
 -1.1930934e-05
  1.8328780e-06
 -2.4201059e-05
  2.1686688e-05
  6.0914390e-06
  6.9704254e-07
  8.2124174e-08
 -1.9645368e-06
 -3.3149402e-07
  5.8645088e-07
 -2.0111685e-05
 -1.4051481e-05
 -4.2509560e-06
  3.6283539e-06
  1.2662568e-05
  6.6080156e-06
 -4.0539530e-07
  1.7998077e-06
  2.3370371e-06
 -6.8918706e-07
 -7.7712975e-06
  7.5991643e-06
 -2.6231087e-06
 -3.7169150e-07
  9.6080958e-06
 -1.6409102e-05
  1.4754697e-06
  2.5558363e-06
 -5.3519034e-06
 -6.5103040e-06
  3.9856688e-05
 -2.0458985e-05
  8.2210299e-06
 -7.0587698e-06
  6.8239378e-06
 -1.4264405e-05
  2.2361335e-06
 -1.8203298e-04
  5.1657764e-07
  1.1430459e-05
  1.0981504e-04
 -3.5685243e-05
  1.6057357e-06
 -1.4091953e+00
  1.0096820e-06
  5.4583984e-06
 -4.8032090e-01
  1.5855129e+00
  9.7589418e-06
  5.5171307e-07
 -9.5762181e-05
  1.7480348e-03
 -2.4340567e-04
 -3.2785378e-02
  4.8066440e-06
 -4.3465325e-06
 -1.9931873e-04
 -5.9379609e-06
 -3.5853701e-04
 -8.4480342e-07
 -6.7320076e-07
 -3.5605610e-03
  4.8583142e-02
 -2.8012297e-05
  1.2046592e-05
 -8.3572368e-06
 -7.8699984e-02
 -1.0817112e-04
 -9.6789572e-06
 -1.0753975e-05
  3.1215825e-06
  5.6208279e-05
  3.7128286e-06
 -7.5252259e-01
 -3.3772509e-03
 -8.7622211e-05
 -6.2289625e-02
  7.7564055e-01
 -1.6729226e-02
 -1.1580992e-06
 -6.2592512e-06
  1.1390381e-04
 -1.9995722e-01
 -1.0481825e-01
 -5.6432377e-06
 -5.3359968e-06
 -2.1404523e-02
  4.2820666e-06
 -9.3898907e-02
  3.4116979e-06
  8.2722539e-07
 -2.2101292e-02
  7.9549134e-02
 -2.8778584e-04
 -2.1550295e-06
  1.2754423e-05
 -1.6563258e-01
 -2.5947943e-02
  2.3940808e-07
  1.9016396e-05
  2.7575941e-06
  1.2104760e-05
  9.0503290e-06
  2.3814967e-02
  8.7086155e-06
 -2.5035033e-05
 -4.9006576e-06
  6.7357651e-05
  4.0823437e-05
 -4.3468918e-07
  1.2727554e-05
  1.0600585e-04
  7.6527297e-03
  1.4507270e-05
  2.5834856e-06
 -9.6009092e-07
  1.0312068e-06
 -4.3186315e-05
  8.5581541e-06
 -1.4070370e-05
 -2.5236142e-07
  9.2620896e-05
 -3.5860972e-05
  8.5467967e-05
  2.4079696e-05
  3.3180761e-05
  7.5775046e-05
 -2.5705271e-05
  2.1562573e-06
 -5.7135067e-06
  3.1271275e-06
  1.3327578e-06
  1.0696414e-06
  1.2490383e-02
  9.0488056e-06
 -2.4331703e-05
 -5.3899216e-06
  3.8092637e-06
  4.4782154e-04
  4.4954277e-04
 -2.1360722e-06
  1.4003273e-02
  4.6918523e-03
 -4.1186513e-07
 -5.7672310e-07
  1.0273047e-05
 -6.3083962e-06
  2.4964564e-04
  4.5124048e-07
  2.4604176e-05
 -2.4997910e-06
 -4.1758954e-05
 -1.2910590e-04
  1.0946042e-05
  5.5126825e-06
 -4.5536859e-07
  7.2562412e-05
  1.0557237e-05
  1.2818544e-05
  2.9014138e-06
 -1.0949509e-05
 -1.2287340e-04
 -2.2818992e-04
 -4.0181914e-01
 -3.4696714e-06
  1.2952935e-06
 -4.7674785e-06
  1.4243023e-05
 -1.8907023e-06
 -7.0032847e-06
  8.6699711e-06
  9.9122701e-07
 -1.6258997e-01
 -6.0969514e-06
  9.7797983e-06
 -1.7510460e-05
  2.5404377e-06
  1.0819137e-05
 -8.6014792e-05
  4.2336137e-06
  1.4879211e-05
 -5.5055451e-05
  8.0532063e-04
  4.6966878e-05
 -5.8973893e-07
  1.9641113e-06
 -3.4193567e-05
  4.8804241e-06
 -7.4322347e-06
  6.1633068e-06
 -2.8011802e-06
 -1.0031292e-05
 -4.7632934e-06
  1.6459744e-07
 -2.0541715e-05
  1.4489674e-05
  1.4612255e-05
 -8.0811726e-05
  5.4068059e-06
 -1.1648441e-05
 -1.3065590e-04
  4.5594156e-06
  4.0780233e-06
 -1.0424669e-05
  2.4901296e-06
 -2.5629472e-05
 -1.1519098e-05
  2.5551482e-05
 -2.0102516e-05
  2.5770150e-06
 -5.0846552e-06
 -2.7841922e-06
 -3.9115630e-06
  2.8521574e-06
  8.6712116e-06
 -1.6726783e-06
 -1.1203193e-05
  8.1522821e-06
 -1.4842441e-05
  1.7821030e-05
  9.8143491e-06
 -2.1583104e-05
 -2.7642673e-04
  1.8323524e-05
  1.8006795e-05
 -1.0217102e-05
 -6.3596285e-06
 -7.4954742e-06
  4.8227885e-06
  2.6206608e-05
 -7.2315838e-06
 -3.0242123e-05
  3.8811036e-06
  6.0780048e-06
  3.4808159e-01
 -5.5409801e-06
 -3.6625936e-06
  1.3316982e-07
  1.8086766e-05
 -2.9562214e-05
  3.2708812e-07
  5.3653886e-05
  5.4197085e-06
  1.8996674e-05
 -1.6813976e-04
  3.3672525e-06
  2.2132544e-07
 -1.8115131e-06
  2.7032347e-06
  4.1185826e-06
  2.5853146e-07
 -5.0866247e-06
  4.4040480e-06
 -6.5348177e-06
 -8.0905738e-06
 -7.8130137e-07
 -1.4736285e-05
  8.1586848e-07
  1.5715498e-04
  2.2133888e-06
 -1.3773381e-06
 -1.8727740e-06
  9.1451548e-06
  1.1050453e-05
 -6.1158703e-06
 -2.9453649e-05
  6.9631744e-05
 -2.6085900e-04
 -1.8552180e-05
 -6.8425256e-06
 -1.6425825e-05
  1.8484694e-06
 -1.2235981e-04
 -1.2509337e-05
  4.6976868e-07
  2.0330008e-05
 -5.7110481e-07
  6.0712741e-06
  6.3011739e-06
 -2.4293829e-06
  2.4688757e-06
 -5.3890426e-06
 -8.4118683e-06
  2.9911134e-01
  7.6666135e-01
  4.2497106e-02
 -6.3831240e-01
 -8.5032463e-01
  5.7017767e-01
  9.9066827e-05
  1.6955377e-05
 -9.3152040e-01
  1.4492461e-02
  3.1301302e-01
 -6.5927061e-06
 -3.5533526e-06
 -2.6054734e-01
 -3.0650623e-04
  1.6732967e-01
  1.3333699e-06
  3.2883944e-04
  1.3524264e-03
 -3.4638476e-01
  2.4833192e-01
  2.0665315e-05
  3.4603941e-05
  7.1652371e-01
  2.3997276e-01
  5.5282358e-06
  8.9400992e-06
 -2.2246425e-06
 -5.9671909e-02
 -6.1116118e-02
 -3.1820473e-05
  9.1925132e-05
  2.2782779e-06
 -9.1748843e-06
 -1.2986935e-06
 -5.0735634e-05
  5.9153544e-06
 -2.4096259e-06
 -4.5329616e-06
  2.5085819e-06
 -3.8837316e-06
 -9.0000731e-06
  3.8746853e-06
  1.2987084e-05
  1.4293812e-05
 -4.6254088e-05
  2.5839734e-07
  6.7153909e-05
  7.2878589e-05
  1.7568829e-05
 -7.0871624e-06
  2.5263214e-06
  1.1034320e-05
  8.9225678e-06
  1.0225633e-05
 -1.0908218e-05
 -7.8770842e-07
 -3.3476861e-06
  1.1996585e-05
  3.8286089e-06
 -7.8439039e-01
 -4.7703433e-01
  3.7253262e-06
  2.2657375e-07
  2.6655704e-05
 -1.0871285e+00
  3.6805395e-06
  4.2513957e-06
 -6.9288507e-02
 -1.0771809e-01
 -1.4964572e-01
 -2.2821096e-06
 -1.6988618e-06
 -2.8208189e-05
  8.6746786e-06
 -6.1262012e-02
 -2.3472596e-06
  1.1217561e-05
 -5.4113347e-02
  4.9892504e-02
 -4.1258499e-02
  6.5692479e-06
 -9.9900162e-06
 -2.9736909e-01
 -2.7112227e-02
 -4.5862027e-05
  5.6658600e-06
 -1.2276368e-05
  9.3824623e-05
 -1.7361632e-05
 -5.7490124e-06
 -5.8143019e-06
  6.3554207e-06
 -4.5351007e-05
 -1.5495847e-06
  1.5789872e-05
 -4.9972896e-06
  1.1340232e-05
  2.4246829e-06
  1.7275734e-05
  3.7872484e-05
  1.0844473e-05
 -2.3319961e-05
 -2.6275976e-07
 -1.4508292e-05
 -3.0520066e-06
 -3.6395350e-06
 -1.9360639e-06
  1.2021229e-03
 -2.8169516e-06
  1.5431666e-06
  2.9464374e-05
 -8.7064924e-04
  1.3565438e-05
  1.6315007e-06
 -3.3634992e-06
  2.0647747e-05
  1.6486532e-06
  7.7494968e-07
 -2.4539067e-06
  4.4558188e-01
 -2.1798503e-02
 -1.8955705e-01
  2.6702399e+00
 -2.8197544e+00
  1.0902438e-01
  4.1638787e-06
 -2.4125477e-05
 -2.0899952e-03
  2.3747627e-01
  1.3812903e-01
  3.3544842e-05
 -3.2610157e-07
  2.2180480e-05
  1.6977577e-02
  4.6027504e-02
  2.9057182e-06
  3.0591393e-05
  5.0854112e-05
 -1.1749544e-04
  1.4044552e-01
 -1.6148410e-06
 -2.3430744e-06
  4.2510581e-01
  7.5429283e-02
  5.0040949e-06
 -1.7421364e-07
 -8.3345731e-06
 -2.2674003e-04
  9.7315147e-05
 -2.9762030e+00
 -5.8889046e-02
  1.2173208e+00
  2.2101290e+00
  4.9625844e-01
  3.5222393e-01
  5.2110845e-06
  1.9566542e-06
  4.1188103e-01
  1.8932886e-01
 -3.5607672e-01
 -2.9173414e-06
 -8.9088126e-06
  9.6850861e-03
  4.4942411e-05
 -1.4279668e-01
 -4.1360625e-05
 -9.0864927e-07
 -2.4632469e-02
  2.4870406e-01
 -1.2280123e-01
 -2.8532464e-05
 -1.1976987e-05
 -4.7429588e-01
 -1.4437814e-01
 -1.8453064e-05
 -6.7256376e-05
 -3.1056481e-06
  3.5059620e-02
  6.0539762e-03
  5.4457935e-04
 -2.7852470e-06
  1.6647286e-05
 -9.0218546e-06
 -1.2784551e-05
  1.7766060e-05
  8.4780922e-06
  7.6829383e-06
  1.4590803e-07
  7.8813337e-06
 -1.2881979e-05
 -5.4668453e-06
 -2.4525821e-06
 -4.1983640e-06
 -9.1969486e-07
 -6.6031980e-06
  2.2486133e-06
  3.5222452e-06
 -5.8010039e-07
  6.6988076e-07
  2.6736982e-04
  3.1047539e-06
  4.1762073e-04
  4.4777776e-06
 -6.9472821e-06
 -1.7324545e-06
  1.5976309e-06
  4.2598408e-06
 -4.8161775e-05
 -5.0632248e-06
 -3.7490129e-06
 -6.6356934e-06
  1.2228978e-05
  5.4432417e-06
  1.0207440e-06
  1.1902300e-05
 -5.5525802e-06
 -1.7465334e-05
 -2.4868727e-05
 -4.5514935e-06
  2.4580946e-05
 -4.2683996e-06
  3.6197312e-06
 -1.1939727e-05
  2.9983379e-05
  7.9018937e-06
 -6.3283333e-06
  4.1366548e-06
  7.8289236e-07
  2.1015941e-05
  5.5351687e-05
  9.2173912e-07
  1.1153058e-05
 -7.3878614e-06
  9.6541513e-08
  8.9066071e-07
 -9.3139615e-06
  4.1072151e-05
  2.9915132e-06
 -5.8950717e-04
  5.9066397e-06
 -1.2098173e-05
  6.6023199e-06
  1.3590803e-04
 -6.5924964e-05
 -5.2475639e-06
 -1.4395899e-05
 -1.7300317e-05
  1.0067874e-05
 -1.4951091e-05
  2.1547110e-05
 -5.4080183e-06
 -1.1508672e-05
 -1.4018940e-04
 -2.0111258e-05
  6.6569760e-06
  1.0135860e-06
 -1.7200189e-05
  5.5260631e-07
  1.9502897e-05
 -4.2675776e-05
 -6.4852011e-06
 -1.6997114e-06
 -1.9209455e-07
 -7.9418038e-05
  4.9286228e-08
 -6.6159853e-05
  7.3969845e-06
 -1.8524644e-05
  4.1481744e-06
 -7.8719443e-01
 -8.4332013e-01
 -7.8610845e-02
  1.8347440e+00
 -9.0335202e-01
 -1.4291800e-02
 -1.1499907e-05
 -8.4738631e-06
 -1.0751375e-02
 -6.2360421e-02
 -1.2976012e-01
  6.1228411e-06
  5.4988172e-06
  3.4471456e-04
  1.2556199e-04
 -1.2041096e-01
 -4.1667830e-05
 -2.3745059e-05
 -5.9615058e-01
  1.5040433e-01
 -1.0064913e-02
  1.5770160e-05
 -1.4732780e-05
 -3.2216927e-01
 -3.2945190e-02
 -5.7747638e-06
 -8.2520974e-06
  1.2622979e-06
  7.9490064e-04
  1.4261934e-05
 -1.0974940e-05
  2.0028085e-06
 -2.5267518e-05
  1.0064018e-06
 -7.1038621e-06
  1.6936127e-06
  1.1896333e-06
 -6.5401184e-07
 -9.1508191e-08
 -7.3314851e-07
  1.6524560e-04
 -1.3825149e-05
  3.3383922e-06
  2.4677091e-05
  5.2206105e-05
  1.9600616e-07
  8.5186571e-07
 -1.5431752e-06
 -1.5710893e-06
  5.1209327e-06
  7.7448931e-06
  8.2485894e-05
  3.7380028e-07
 -2.2330116e-06
 -1.3585708e-05
  4.6141049e-06
 -6.5687063e-06
  3.3041892e-06
  2.7904773e-07
  4.2239071e-07
 -5.6770637e-05
 -5.0940881e-03
  8.7383369e-06
 -1.0855812e-04
 -6.1403043e-06
 -5.3562071e-02
  6.6568947e-07
 -1.2243979e-06
 -2.0677611e-05
 -1.6921911e-01
 -1.3150832e-05
 -4.5882075e-06
  5.0783005e-06
 -1.0603382e-05
  7.8272258e-08
 -6.7154906e-04
  1.2326786e-05
 -5.3809392e-05
 -1.1125617e-05
  1.3188944e-04
 -3.6042485e-07
 -6.9779715e-05
  1.2338851e-05
 -5.6278800e-06
 -4.2658567e-07
  3.3408219e-06
 -7.9916290e-06
  8.3635176e-05
  3.3672834e-06
  7.4165923e-06
  1.4011818e-03
  6.7007051e-07
 -2.4098645e-06
  5.3086214e-06
 -1.3245102e-06
  3.7492577e-05
  9.8040873e-06
  7.0536409e-08
  1.4855278e-05
  1.3197047e-03
 -3.8669655e-06
 -4.0368409e-06
  4.8347301e-06
 -9.8200326e-06
 -5.2320178e-05
  4.8777674e-05
 -1.8475012e-05
 -2.6936082e-06
  6.3447101e-06
 -9.4112420e-06
  1.0127575e-05
  3.7566072e-04
  3.1699317e-06
 -1.8054145e-05
  6.5217784e-04
  3.8687358e-06
  3.5779954e-06
 -1.3159445e-06
  7.3985698e-06
  7.1983418e-06
 -4.4775665e-01
 -4.0802024e-02
  2.1917408e-06
 -1.0878564e-06
  5.4397993e-02
 -4.1013271e-02
 -2.4949179e-05
  9.9315002e-06
  1.0843628e-06
 -2.2647294e-01
 -1.3976049e-04
 -1.2292831e-05
 -1.3194197e-07
  6.9316020e-06
 -1.8303157e-06
 -3.6481495e-05
 -2.0686231e-05
  1.3207881e-04
 -2.1486332e-01
  3.7171718e-04
 -5.3043576e-04
 -2.9652769e-05
 -1.0627673e-06
 -1.6493700e-01
 -5.1443474e-03
 -4.1255322e-07
 -2.4377039e-06
 -3.2549838e-07
  1.9566102e-04
  1.7514275e-03
 -2.1453843e-01
 -7.1583563e-06
 -1.3136136e-05
 -1.0890923e-06
 -1.3566784e-04
 -3.4032302e-05
  3.6624431e-06
 -8.0496902e-06
 -1.9555524e-04
 -5.0869226e-02
  7.4539101e-05
  4.1816151e-09
 -4.1234660e-05
 -9.2977513e-07
 -9.5129872e-06
 -3.9833863e-05
  9.0248989e-07
  2.7188521e-06
  1.6847756e-05
  4.3989680e-06
  8.7413332e-07
 -4.2859567e-05
  1.7521083e-06
 -1.1381727e-03
 -4.4815803e-05
 -8.9968944e-06
 -1.1802124e-06
 -1.8635028e-06
  8.7785165e-06
 -9.2125018e-05
  6.2949844e-02
 -6.5242548e-06
 -3.4649343e-05
  5.8546839e-06
 -1.2104260e-05
  1.1479777e-02
 -2.3833484e-06
  1.9661360e-05
  4.5876572e-05
  1.8116243e-02
  2.9020719e-03
  3.9707543e-06
 -6.1216983e-06
  1.5001821e-05
 -1.6151147e-06
  1.8517106e-06
 -1.8256777e-06
 -1.1692760e-05
 -3.7405866e-07
 -2.9108705e-05
  1.2364263e-06
  2.2343998e-05
  2.0212171e-06
  1.8677159e-04
  2.5815281e-05
 -7.2096890e-07
 -6.3284588e-06
  8.5886742e-04
 -1.5615904e-06
 -7.0793544e-06
  3.4122061e-06
  1.2457252e-01
  6.6934730e-04
 -9.2412997e-03
  1.7677137e-04
  6.5049840e-06
 -3.1246248e-01
 -3.2709619e-01
 -7.7028251e-01
  1.1439960e+00
  1.4768642e-06
  4.3426649e-06
 -7.2822040e-05
 -1.1569385e-07
 -2.7653050e-01
  6.4619198e-06
  1.0196543e-01
 -6.4271958e-06
  7.8512698e-01
 -4.4012807e-02
  5.7165283e-01
  3.9033645e-07
 -4.0111493e-07
 -3.4188208e-01
 -7.5243970e-06
 -2.2372803e-06
  4.7307235e-01
 -8.6699627e-02
  3.3687130e-02
  4.5717171e-01
 -3.8817074e-08
  5.2651912e-01
  3.8506537e-06
  4.9980661e-01
  1.1805987e-06
  9.2969676e-06
 -1.3999183e+00
 -1.3562309e+00
  1.3717291e+00
  1.6309742e+00
 -1.5000734e-01
 -2.9133971e-05
 -5.5842288e-06
  5.7775219e-06
  2.4834096e+00
 -1.6746648e-05
 -1.2686465e+00
 -8.4395481e-07
  2.5620446e+00
 -3.1682358e+00
  3.8047794e-01
  6.9404568e-06
 -2.2432143e-06
 -1.7472773e+00
 -1.9723429e-06
 -2.4253464e-01
  4.7604421e-01
 -9.3108624e-01
 -4.9352396e-01
  8.2780427e-01
 -1.0192552e-05
  1.1611306e-04
 -3.0445239e-05
 -8.5314368e-06
 -8.8778115e-06
  5.2110310e-05
  6.6160742e-06
  1.8539538e-05
  5.2430123e-06
  3.6824400e-05
  5.8794751e-07
 -8.6341270e-06
  5.0662886e-05
 -2.8141289e-06
 -9.4522213e-05
  5.0289750e-06
 -9.8642340e-07
  1.6284324e-05
  1.5082042e-05
  9.7181755e-06
  1.2349376e-03
  7.8157263e-06
  1.1394438e-05
 -4.8998613e-06
 -4.5543151e-05
 -1.9833323e-04
  5.0667491e-06
 -7.4739100e-06
 -7.3461492e-06
  7.7820123e-06
 -2.9786155e-01
  1.5416495e+00
  2.1882184e+00
 -5.6526937e+00
  2.7401943e+00
 -3.4324253e-01
 -2.3802759e-01
 -9.1618419e-02
  5.1416360e-02
 -2.3006517e-02
 -2.6633108e-01
 -4.4393007e-02
  1.3409658e-01
  1.0412378e+00
 -3.7256970e-05
 -2.6092079e-01
 -2.5791693e-01
 -2.3352142e-01
  2.5362971e-01
 -1.7066458e-01
 -9.5262729e-02
  1.0773553e-01
 -6.8031770e-01
  4.6989322e-03
 -3.6692303e-03
  2.7093517e-02
 -4.8417208e-04
 -2.3156103e-05
  6.1535058e-05
  8.4060822e-08
  1.0697585e+00
 -2.0044130e-01
  2.3902115e-01
 -4.4165605e-01
 -3.3819011e-01
 -9.9887780e-04
  1.8410689e-01
  4.1044917e-02
  9.0764303e-07
 -3.2075137e-02
 -4.1350471e-05
 -4.0939896e-05
 -8.8916831e-06
 -1.6664742e-01
  1.3949028e-05
  1.2572908e-01
  1.1308955e-04
 -1.9252189e-03
 -1.3412896e-02
 -3.8425169e-05
  5.6407326e-01
 -1.0927092e-06
 -1.0794039e-05
  5.3979609e-02
 -1.6065781e-06
 -6.2679005e-06
  4.4449134e-06
 -1.7368227e-05
  6.0206152e-05
 -4.5610122e-06
 -9.8132208e-02
  3.4276924e-01
 -2.1137053e-01
  2.4201421e-02
 -1.1190073e-01
  1.2787228e+00
 -1.2770623e-05
  2.1999984e-04
  4.8835370e-01
 -9.1852984e-05
  6.3155675e-01
  9.9854782e-02
  1.6674852e-05
 -5.3183157e-06
  2.6076057e-05
  3.8335213e-01
  2.3366252e-02
  1.1838720e-02
  5.2260727e-01
  1.9626546e-07
  3.5110374e-03
 -4.6524652e-05
  1.3873899e-05
 -1.2819041e-01
 -6.8489553e-06
 -1.9445943e-05
 -2.2467633e-05
 -5.7175234e-06
  1.0693274e-05
  4.8441707e-06
 -1.0017292e+00
 -1.1022526e+00
  1.5892249e+00
 -4.1467509e-01
  4.0467569e-01
  2.2477126e-01
  1.4963554e-02
 -7.2154021e-01
  1.6646574e-03
 -2.6043805e-03
 -1.7974332e-04
 -9.5259689e-02
 -5.4959725e-03
 -5.7342225e-01
  9.1093925e-06
  7.8004971e-02
 -1.6518225e-05
 -6.8398691e-03
  3.4359583e-01
 -7.8818128e-02
 -1.5598133e-01
 -1.0143317e-05
  6.2010445e-06
 -5.9328049e-01
  1.5337482e-05
  4.9385464e-05
  3.5841251e-05
  5.4028628e-06
 -4.1421274e-05
  2.1650574e-06
 -1.5613732e+00
  3.5883625e+00
  7.6425701e-02
 -8.8349134e-01
  2.4714363e-01
 -1.5351893e-01
  1.0734718e-01
 -1.5992378e-01
 -2.0599329e-01
  7.9752123e-01
  8.3141667e-01
  7.5627834e-01
  6.2560129e-01
 -1.3755317e-04
  3.3968638e-03
  1.9773128e-02
  6.1058706e-01
  2.6514569e-01
 -3.6679992e-01
  3.0342016e-01
  1.9222739e-01
 -1.9886911e-01
  1.9763813e+00
  3.3640677e-01
  1.7910872e-01
 -6.4687242e-08
  3.1157124e-05
  5.5771020e-06
  2.4455181e-05
 -8.8499559e-07
 -4.4853243e-01
 -5.1849014e-01
 -4.7895786e-01
 -4.7741740e-04
  2.5902903e-02
  6.8234790e-06
 -4.6756209e-05
  2.2888628e-07
  3.9383464e-02
 -4.6466623e-04
 -5.9999686e-05
 -1.3017810e-02
 -2.6320481e-06
 -8.9325595e-06
 -5.9178765e-06
 -7.6191791e-04
 -3.5848767e-05
 -8.1681137e-06
 -3.8922224e-02
 -1.1849336e-04
 -4.3492857e-01
 -1.0305963e-06
 -6.4580490e-07
 -3.0590808e-02
  3.7082122e-05
  3.6901072e-06
 -2.4930148e-05
 -9.1296852e-06
  1.0353217e-05
 -3.1888194e-06
  1.1372738e+00
 -6.9351983e-01
  1.2276496e+00
 -5.3753924e-01
  1.0782651e+00
  8.2139952e-05
  7.4978882e-01
 -1.9560635e-04
 -5.9373211e-02
 -2.2552540e-03
  1.0626120e-05
 -4.0861696e-02
 -2.9727954e-03
 -1.1615401e-05
 -4.2444859e-05
 -4.1523647e-01
 -4.6784207e-03
 -1.3112881e-04
 -4.7814559e-02
 -2.6462943e-04
 -6.6905087e-03
 -5.1433574e-07
 -5.0866956e-01
  2.4351690e-04
  4.1787330e-06
  1.0661895e-04
  7.2821149e-07
  3.7075165e-06
 -8.1111530e-06
  1.0132449e-05
 -5.8623972e-09
 -1.6305718e-05
  7.6057545e-06
  4.0265353e-05
  1.7635770e-05
 -2.3851549e-06
 -3.1168544e-05
 -1.5255176e-06
 -5.0285104e-07
  3.3079254e-05
  2.5577990e-06
 -5.7345989e-07
  4.4501239e-06
 -4.8912793e-06
  1.3228591e-05
  8.5904423e-05
 -3.7636380e-06
 -1.6392585e-07
 -1.7690845e-05
 -6.5999558e-07
  6.0075558e-06
 -5.1980446e-06
 -5.1243111e-05
  1.9234680e-05
  2.4492179e-05
 -2.2020818e-06
  1.8707970e-04
 -7.6691595e-06
 -9.4994961e-05
 -1.4578059e-04
 -1.6405341e-01
 -4.6076494e-01
  7.0550072e-01
  3.5056240e-05
  5.0959837e-01
 -1.0488510e-01
  8.5722715e-02
 -7.8841322e-06
 -7.8108162e-05
 -5.6196493e-04
 -2.6350455e-07
 -2.5578446e-04
 -1.7004728e-05
 -2.5738168e-06
 -3.1424130e-05
 -2.2971772e-01
 -1.5490172e-02
 -8.8549659e-06
 -3.1752676e-01
 -3.5136938e-04
 -1.3060047e-03
 -5.1353245e-06
 -1.4750950e-05
  4.7943900e-05
  4.4257722e-06
 -7.6263295e-06
 -1.7854041e-05
  3.3324843e-05
 -3.3418778e-06
 -1.6495176e-05
 -1.1981738e+00
  3.3267882e+00
  2.6013854e-01
 -8.9180315e-01
 -9.1575913e-02
  1.5531460e-02
  6.0380042e-01
 -2.2983400e-04
 -3.0871304e-02
  9.0506295e-04
 -1.9706592e-01
  1.5327102e-01
  3.9283276e-01
 -2.7238975e-05
  7.3489158e-05
  2.1089366e-01
  6.7497045e-02
  9.6682422e-02
  4.8972401e-01
  7.1354136e-02
  5.9584570e-01
 -3.1887039e-06
  4.0214297e-01
  2.0092675e-02
  1.3819938e-05
  3.5063338e-05
  1.3791940e-05
 -3.8127877e-05
  2.0001437e-06
 -8.7058424e-06
 -7.4592008e-06
 -9.7933671e-06
 -3.9414049e-06
 -1.2802919e-05
 -9.7056782e-06
  2.0178788e-06
 -1.0076995e-04
 -3.3001559e-06
 -1.2005642e-05
 -1.9530694e-06
  8.5575157e-06
 -5.2471728e-06
 -6.3491370e-06
  4.2060960e-06
 -1.2975501e-06
 -2.3702764e-06
  4.0137595e-05
  6.8207250e-05
 -1.6170965e-06
 -2.2005354e-04
  1.1699937e-05
  1.8586044e-07
 -1.1193615e-06
 -1.5696745e-05
 -1.0139915e-05
 -2.9981445e-06
 -4.2545314e-05
  1.9181191e-05
  2.8994084e-05
 -1.3766343e-05
  3.7435243e-06
 -2.0463480e-05
  7.3919921e-07
  7.0668843e-06
  2.6228915e-06
  4.2615320e-06
 -2.5606350e-06
  5.4944318e-05
  6.9843540e-05
 -6.7513105e-07
  1.1409114e-05
  6.1464443e-06
 -1.5085576e-05
 -1.3268231e-06
  3.3675076e-06
 -1.1564648e-05
  4.2159234e-05
 -9.4619345e-06
 -3.4086140e-06
  6.6832890e-06
 -3.9205141e-05
 -2.2036533e-05
 -8.4675485e-05
 -1.6981492e-05
  1.5935323e-06
  8.4091096e-07
 -7.3404653e-06
 -7.3185461e-08
  2.0278128e-06
  1.1375464e-05
 -2.5993269e-05
 -1.0273460e-05
  5.5976823e-05
 -1.4579068e-05
 -2.4955560e-05
  1.5234399e-05
 -6.8523846e-06
  1.6306865e-05
 -5.8326459e-06
  4.9686469e-06
 -8.5600383e-05
 -2.4977366e-05
  2.0116015e-05
 -2.0596293e-04
  1.7602689e-06
  1.7321684e-06
 -5.1022412e-06
 -2.5292870e-06
  7.2147435e-05
 -1.4920587e-05
 -5.5003682e-07
  1.7482170e-06
 -1.3192684e-05
  3.5988055e-06
  1.2832957e-05
 -4.1702340e-05
 -5.8709720e-06
 -6.7973917e-07
 -5.5001260e-06
 -5.5004984e-05
  3.2169810e-01
 -5.6486380e-01
 -4.9363151e-01
 -1.9403005e-01
 -6.7234731e-01
 -1.3780895e-04
 -4.4687687e-05
 -9.2228875e-04
 -1.1583741e-04
 -2.4922035e-04
 -6.1799648e-05
 -1.3083991e-04
 -6.8762361e-05
  9.2486362e-06
 -2.4450568e-05
 -1.2946777e-05
 -1.8812202e-04
 -2.9534360e-05
 -5.0489813e-02
 -1.7894265e-05
 -1.4210336e-01
  2.2441154e-06
 -1.6883081e-02
  5.0973260e-01
 -1.3706047e-06
  8.2658844e-06
  2.3095754e-06
 -5.9428899e-06
 -1.3012574e-04
  7.2233874e-05
 -2.7177841e-05
 -2.8428487e-06
  7.9992624e-06
  1.6119127e-05
  2.0723831e-04
  1.4702536e-06
 -1.6034457e-05
 -1.0448924e-04
 -7.3808396e-06
  7.6694005e-06
  1.9741892e-05
  3.7181953e-06
  4.2309406e-05
 -5.0835943e-06
 -1.4612964e-06
 -1.6624315e-06
 -9.2254077e-06
 -1.9455367e-05
  2.2210043e-05
  1.3846613e-06
 -3.5962115e-05
 -4.3071877e-06
 -1.4162402e-05
  1.0787199e-04
  1.7866067e-06
 -4.6921182e-06
  2.2636229e-06
  2.1628371e-06
  1.0129393e-05
  7.9571464e-06
  1.0337052e+00
 -1.7205834e-01
  5.5704349e-01
  7.8784221e-01
 -7.2816104e-02
  3.6442872e-02
  5.8023262e-01
 -2.3592984e-02
 -3.6525576e-05
 -1.3593338e-04
 -9.1590810e-01
 -2.9063744e-05
  2.0130725e-04
  1.8606223e-05
 -1.3298391e-05
  2.0110430e-01
 -1.4071474e-03
 -3.0268504e-05
  1.2309519e+00
 -1.1469471e-05
 -1.7906172e-05
  2.2564673e-05
 -4.1618110e-03
  6.5852195e-02
 -1.1665172e-04
  7.1261289e-05
 -4.3940850e-06
 -6.5637801e-06
 -1.6210837e-06
 -2.5123609e-06
 -1.1193422e-04
  1.9631692e-05
 -2.1961123e-06
 -3.5320001e-05
  8.0901540e-05
  1.4749380e-05
 -1.4981679e-05
  1.3925172e-05
  3.7870193e-06
  9.7130644e-05
  9.9264120e-08
  1.5415571e-05
 -9.8291011e-06
  2.2043929e-04
 -1.2324006e-05
 -5.9258678e-06
 -4.4711251e-07
 -1.8500252e-05
  8.3472180e-05
  7.0027309e-05
 -1.6870577e-05
 -2.8812852e-07
  4.6342711e-06
 -9.0263247e-06
 -4.8298718e-04
 -2.3321432e-05
 -3.1693551e-05
  3.0873211e-06
 -3.7638308e-06
 -1.7570030e-06
  1.2726710e-05
 -1.2011944e-04
  2.0473108e-05
 -6.2571612e-06
 -1.8474984e-06
 -8.8418921e-07
  7.7465584e-06
  9.7639429e-07
  2.2303461e-06
  5.6136009e-06
  1.4145990e-05
  1.6043238e-06
  1.3176048e-05
 -1.4271764e-06
  9.7503929e-05
  4.9044396e-05
 -6.3236462e-06
  7.6072906e-06
 -9.5352962e-06
  6.9005218e-06
  2.5991778e-06
  8.3069972e-06
 -3.6240597e-06
  9.2697199e-05
  3.1922273e-06
 -1.7001428e-05
  6.1829115e-07
 -3.5093683e-05
  3.7175832e-06
  2.1889817e-05
  2.3768922e-05
 -1.4986087e-05
  8.2875467e-06
 -1.6728978e-04
  3.3984363e-06
  4.8719613e-07
 -2.9950056e-06
  3.1346933e-06
  1.2522997e-05
 -1.4462969e-06
  6.2217287e-06
  7.7096687e-05
 -1.2899577e-06
  5.1459146e-04
  3.6740163e-05
 -4.2430909e-07
  4.0781702e-06
  3.4364348e-04
 -1.9630563e-06
  2.1709080e-04
  1.0246648e-03
 -2.1420203e-05
  7.8562243e-06
 -1.6015449e-05
 -4.9821057e-05
 -4.5264328e-06
 -1.7408864e-05
 -1.3794082e-04
 -1.5660387e-05
  1.8063703e-05
 -1.9391473e-05
 -1.9373050e-05
  2.3807532e-05
 -2.6861280e-05
 -1.4822938e-05
 -2.5798962e-04
  2.0411690e-07
  2.0591946e-05
  4.3865692e-04
  1.1811529e-06
 -1.2629163e-03
  1.3847348e-05
  3.5751598e-06
 -3.8781971e-07
 -3.6502788e-05
  2.7833421e-06
  4.6898249e-06
 -1.3820104e-05
 -8.2776423e-06
  1.0402033e-05
  5.1631690e-05
 -6.2439885e-06
 -9.2760985e-07
 -3.1295622e-05
 -2.6876955e-06
  1.5843252e-05
  3.5861922e-06
 -4.0098071e-06
  3.0450516e-05
 -1.4731353e-07
  1.7808803e-05
  1.7452228e-06
 -1.0663539e-05
  5.1502411e-06
 -1.6187896e-05
  5.7286188e-06
 -1.0719314e-05
  1.4116464e-06
  2.0685473e-05
  2.5083236e-06
 -9.8637311e-06
  5.3606555e-06
 -3.2659733e-05
  5.9782715e-06
  6.9499403e-02
  1.4644991e-05
  1.1991370e-06
 -2.1911470e-05
  2.7544611e-06
  2.4822716e-06
 -9.2426570e-05
  1.4802401e-05
  5.4326165e-06
  1.0659288e-05
  2.8472009e-06
  3.5435147e-07
  1.1391266e-07
 -5.9141625e-05
  8.0091093e-05
  1.8662489e-06
 -2.2332320e-06
  3.2637294e-04
  2.7813983e-01
  1.9498608e-05
 -2.8765708e-05
 -5.6195145e-06
 -2.0681806e-05
 -2.1809539e-05
 -1.6718037e-05
 -5.7863916e-05
  7.3062170e-06
 -1.0563572e-05
 -1.2537978e-05
  8.1193626e-05
  7.9740494e-06
 -2.0628808e-05
  5.9762865e-06
  1.0298935e-05
  1.1305836e-05
 -2.3742970e-05
 -3.6349222e-06
 -2.3562698e-05
  2.6780201e-04
 -2.4454550e-06
  2.5190229e-06
 -8.8055012e-06
  8.3100822e-06
  9.0337589e-06
  2.6048538e-05
 -1.6829009e-06
 -9.1358083e-07
 -1.2277857e-05
  1.7713697e-05
  3.9656938e-05
  9.8339087e-06
  5.3515528e-06
  7.3243464e-06
  8.4490588e-05
  4.1556837e-07
 -2.6579178e-06
 -6.6077173e-06
 -2.2981891e-05
 -1.5950308e-04
 -3.7034795e-06
 -1.2689310e-05
 -1.8365849e-05
 -1.6007842e-06
  1.3415304e-05
 -6.9502062e-06
 -8.1371554e-06
  1.2144410e-05
 -2.9989156e-05
  3.1151337e-04
  1.5597444e-04
 -5.2068426e-06
 -6.4686869e-06
  2.0273035e-05
  3.3385983e-05
 -4.4023886e-06
 -2.2541059e-05
  6.5265581e-06
 -4.4868687e-01
 -6.6087268e-05
  3.1869149e-05
 -1.8252313e-02
 -4.7190857e-04
 -1.0545904e-01
 -2.2855707e-04
 -7.9023848e-06
 -4.0827545e-05
 -3.3153567e-05
 -1.7251010e-05
 -2.7240725e-05
  7.1491042e-05
  3.2238579e-05
 -4.1459899e-02
 -1.4613802e-04
 -6.2935840e-05
 -2.3920952e-01
 -6.5035529e-06
 -6.8625130e-02
 -9.2968248e-06
 -1.2847612e-05
  3.1625474e-05
  7.9925530e-06
 -2.1966221e-06
 -1.8744620e-06
  5.8050887e-06
  2.1432124e-05
 -1.7439725e-05
  4.3283144e-06
 -8.8236397e-05
 -1.3649091e-05
  3.9278962e-06
  1.6403523e-05
  3.3807448e-06
 -2.5978810e-04
 -2.9464616e-05
 -1.2578422e-04
  7.6297620e-06
 -5.2698018e-05
 -1.5663258e-05
  2.5401398e-06
  1.3815394e-05
 -3.0838200e-05
 -1.0746926e-06
  1.3269414e-04
  4.5290853e-06
 -7.7056740e-07
  1.0798939e-05
  4.3170330e-06
  3.2416553e-06
 -2.6907281e-05
  3.5228425e-06
 -3.5322948e-05
 -6.8590940e-05
  6.7045266e-06
 -2.6050977e-05
 -9.6682584e-07
 -1.5663574e-05
  1.5078740e-08
 -1.4527792e-06
 -6.2967570e-06
 -1.2503532e-05
  1.1915058e-05
 -1.2798321e-07
 -2.2713712e-05
 -7.3455230e-06
 -1.6852242e-05
  4.0406749e-06
  1.1995948e-05
  2.9945836e-06
 -1.9790377e-06
 -4.1020962e-06
 -7.8357225e-06
  5.5236419e-06
 -2.4383780e-06
 -2.8349882e-06
 -7.2907033e-06
  1.1488697e-05
  5.0646436e-06
  2.1441883e-05
 -9.3079834e-06
 -9.2132832e-06
  1.1384061e-07
  5.4915254e-06
 -4.2843394e-06
  2.4424478e-06
 -8.4694705e-08
  1.5401125e-05
  8.9742237e-01
 -3.4310988e-01
  3.3204618e-05
  6.8289082e-05
 -2.4640076e-01
  3.5341434e-06
 -4.4165786e-06
  4.7475118e-03
 -2.8132818e-06
 -1.9597039e-05
  2.8028489e-06
 -1.8672492e-05
 -1.2073432e-06
 -3.4494412e-01
 -4.9302780e-06
  1.4014590e-01
  2.9557643e-06
 -2.8454258e-05
 -2.0006742e-02
  9.0659778e-06
  4.2939371e-01
  4.0486564e-05
  8.0146747e-05
  7.8277074e-04
 -1.0888746e-06
  6.7538633e-05
 -4.2308075e-06
 -1.5188054e-05
 -2.4552324e-07
 -1.9263522e-05
  1.2901491e+00
  2.6107881e+00
  7.5966430e-01
 -2.7255206e+00
  3.5487120e+00
 -1.5217064e-01
 -5.6310970e-02
  1.3876200e+00
  1.8137716e-01
 -2.4822874e-01
 -4.0331379e-01
 -2.2559693e-02
  5.1759847e-04
  1.4357688e-01
 -3.8244361e-01
 -4.6058778e-02
 -1.4954373e-02
  3.6574912e-01
  4.3541324e-01
 -2.1742922e-01
 -1.0947243e+00
  6.4257419e-01
 -2.8559443e-01
  2.0292618e+00
 -4.8517315e-03
  2.3058400e-01
 -1.6777102e-04
 -1.8061930e-05
  2.2567637e-01
  2.0745438e-06
 -1.0706029e-05
 -8.3141713e-06
  2.9794492e-07
 -6.2759143e-05
  2.4305541e-06
  1.8423256e-05
  1.9507874e-05
  1.4323471e-05
 -2.6134157e-06
  1.7070836e-06
 -7.9020501e-05
 -5.3279077e-06
 -6.2647823e-06
 -1.7195056e-05
  1.5275538e-04
  2.9979788e-05
 -3.9769748e-06
  4.1847963e-07
  4.9789492e-06
  1.0264196e-05
  2.6359601e-05
  2.4612797e-05
 -9.3056806e-06
 -1.3858972e-06
 -5.8910624e-05
 -1.2983358e-04
  4.9399830e-08
 -9.2579630e-06
 -9.6736285e-06
 -5.2308510e-06
 -7.0334346e-07
 -8.6368106e-02
  4.2921329e-01
 -7.7442682e-01
  2.3455931e-01
  3.2669091e-01
 -4.2619359e-01
  3.7375501e-01
  1.4446523e-06
  2.8987578e-01
  7.4851072e-01
  1.6891146e-04
 -9.8106216e-07
  1.4055286e-05
  2.6864916e-01
  3.5922651e-05
 -4.4709665e-01
  1.5343957e-06
 -7.7023406e-06
 -5.0404632e-01
  7.5879892e-05
 -2.3935520e-06
 -5.8060250e-06
  4.8877164e-06
 -2.2739542e-01
 -1.7113956e-04
 -1.6063976e-05
 -4.1135257e-01
 -3.0364108e-01
 -3.0665647e-04
  4.0760013e-01
 -3.3042977e+00
 -1.3122240e+00
  2.2375488e+00
 -1.5359092e+00
  3.3716576e+00
 -1.0370964e+00
 -1.4611906e+00
 -4.6410125e-07
 -1.0948321e+00
  1.8312348e+00
  2.4426922e-06
  1.7993517e-06
 -4.3189902e-05
 -1.1543994e+00
  5.4735254e-04
 -2.0582838e+00
  5.1144292e-07
  1.1347612e-06
  7.8095816e-02
  2.7195135e-06
 -1.5840465e-05
  7.4912823e-05
  3.7931977e-06
 -7.8376371e-01
 -4.3478133e-07
 -1.4996222e-05
 -1.6247635e+00
 -3.1884832e+00
  1.9481045e-05
  3.8048437e-01
 -9.9571759e-01
  1.3345861e-05
  4.8362963e-05
  9.0670830e-01
  9.3556203e-02
  2.7522516e-01
 -1.5414868e-01
 -8.4161907e-01
 -1.5590651e+00
  1.4037794e-05
 -2.4613512e-01
  9.5269509e-02
 -1.3275530e+00
 -5.8418047e-04
  7.7128543e-06
  6.3742095e-06
  3.1883561e-04
 -1.7247221e-02
 -2.1344371e-01
 -4.8908769e-06
 -2.5613753e-03
  3.8413735e-05
 -1.5762906e-01
  2.1262509e-04
  8.1974640e-06
  3.7371454e-05
 -4.6653015e-05
  5.0973557e-07
 -2.4012866e-07
  2.9298478e-01
  1.6232382e+00
  2.6800495e-02
  1.0915652e-05
  3.5787165e-01
  2.4404375e-01
  1.8123209e+00
 -6.3700628e-01
  1.7056774e-01
 -2.4998114e-01
  2.7213923e-06
 -2.9307168e-05
 -3.9609868e-06
 -1.4315824e-01
 -8.0915469e-01
 -2.7328163e-01
  1.6593665e-05
 -2.0160593e-01
  5.1144427e-01
 -9.4880126e-02
 -3.4057028e-03
 -8.3841216e-03
 -7.3716529e-02
 -6.6093460e-05
 -3.1541473e-01
 -6.6352688e-02
 -7.3191899e-05
 -6.5777658e-06
  1.9350623e-01
 -1.4259282e-01
 -6.8910293e-07
  4.2051091e-05
 -1.4281174e-05
 -3.0585336e-06
  3.3784119e-05
  3.4403795e-06
  2.3343780e-06
  8.6385844e-06
  1.1611292e-05
  3.1089704e-07
 -3.0958869e-05
  1.5795566e-05
  9.5964515e-07
  4.9534105e-05
  5.2764346e-05
 -4.3865130e-05
 -6.0039156e-06
  2.3517539e-06
 -2.8936681e-06
  1.1013058e-05
 -2.0227588e-05
  1.0217188e-04
 -1.5761414e-04
 -5.1126352e-07
 -6.0803181e-06
  1.1542709e-05
  1.4382296e-05
  2.0503014e-05
  3.8236794e-06
 -2.4438314e-06
  2.6633243e-05
 -8.0793188e-06
  4.7193891e-05
 -5.1581528e-06
 -7.0909655e-06
  1.2074172e-05
  7.2871399e-07
 -1.0895965e-05
  6.7107161e-05
 -3.1510578e-04
 -2.6205262e-06
 -1.4266289e-05
 -1.2177641e-05
  3.3815459e-06
 -4.3276697e-05
  1.8838620e-06
 -1.5942411e-05
 -1.2069884e-05
  2.6924305e-05
 -8.1637563e-07
  4.3836575e-05
 -3.3835680e-05
  9.8356677e-06
 -9.1047764e-07
  3.2621642e-06
 -2.9143039e-05
  3.0296064e-06
  5.6331346e-06
  9.8048158e-06
  8.5862957e-06
 -4.3853337e-01
 -2.1895283e-01
  1.7970984e+00
  6.5069050e-01
 -9.0707630e-02
 -7.5020498e-01
  4.8784930e-02
 -3.0439478e-01
  4.9002680e-01
 -5.1155686e-01
 -1.1458299e-06
  8.7325895e-01
  3.0358287e-03
 -4.2007798e-01
 -3.3997726e-02
 -1.3720572e-04
  8.8518915e-05
 -4.6366203e-01
 -8.0836314e-01
 -3.5009414e-02
 -1.1409430e-01
  5.6369423e-05
 -1.2095343e-01
 -4.8934784e-05
 -2.4328972e-01
 -6.7309458e-03
 -8.4595371e-04
  1.8112870e-03
  1.7022367e+00
 -1.2342002e-04
  5.1145937e-04
 -1.7821698e-03
  1.4592596e-06
  5.6489994e-06
  9.0408670e-05
 -2.3222834e-04
 -2.4530593e-05
 -1.2713247e-06
  1.3562148e-05
 -2.9453411e-05
 -1.2669007e-05
  5.3596450e-05
  1.9148665e-05
 -1.2266230e-04
 -7.1518999e-03
  9.2347973e-06
  3.4237012e-06
 -5.2446958e-06
 -6.6217029e-01
 -1.2180037e-05
 -4.1397609e-05
 -1.1599055e-05
 -4.8467086e-04
 -1.3943899e-05
 -2.4430690e-04
 -7.4767113e-06
  1.5309005e-06
  4.5413384e-05
  4.1043447e-07
  6.6667744e-06
 -6.5229610e-06
 -1.0737267e-05
 -5.0089488e-06
 -1.0365758e-05
 -3.4474371e-05
  1.2699552e-06
  2.2944354e-05
 -6.0947773e-06
 -9.1800093e-06
  1.9685123e-05
 -4.8812922e-06
  2.4540261e-06
  1.9506208e-05
 -7.0930831e-02
 -2.8763837e-04
 -4.0615916e-05
  8.4899903e-06
  7.2724004e-05
 -1.8607896e-05
  1.4036901e-06
 -3.0462139e-05
 -4.0815914e-05
 -2.0871827e-05
 -1.6449914e-05
  7.1101445e-06
 -1.4156825e-04
 -4.4078943e-06
 -5.6734339e-06
  2.9244762e-05
 -1.7873018e-06
  2.3476746e+00
  4.8744035e-01
 -1.0695404e-02
 -1.5972774e+00
  2.9392557e+00
 -2.7347314e-01
  1.6960358e-02
 -1.1374646e-01
  3.5073808e-01
 -8.0781564e-02
  4.2633861e-01
  4.7537500e-01
 -1.2817889e-01
  1.1650053e+00
  2.3155922e-01
  3.2306245e-01
 -2.8285587e+00
 -4.7493708e-01
  6.2587094e-01
  3.0285156e-01
  5.5075172e-02
  1.7590439e-05
  3.4831622e-01
  1.0031261e+00
 -1.3186771e-05
 -6.7662131e-06
 -1.8743725e-01
 -3.7967038e-01
 -6.2263143e-01
 -4.8078396e-04
 -1.0122508e+00
 -1.4625055e+00
 -9.3695544e-02
  7.7567816e-01
 -1.0668796e+00
 -7.6017283e-02
 -1.1114150e-01
 -5.3278141e-04
  1.3516352e+00
 -4.9800494e-01
 -5.2914917e-01
  2.4221568e+00
 -7.9769857e-02
  1.0333245e-01
 -1.9856477e-01
 -1.5931349e-06
 -6.1796468e-01
 -9.1848485e-03
 -8.8075787e-02
 -2.7872264e-01
 -1.6398282e+00
 -4.2642910e-02
 -1.2417001e+00
 -1.0377241e+00
 -9.8718673e-01
 -9.9961879e-04
 -2.2218595e-01
  3.4324232e-01
 -1.0742545e+00
  6.0300016e-01
  1.1309942e+00
 -1.6570863e-01
  8.7854899e-03
  4.4455168e-01
  1.0019835e+00
 -6.7888379e-01
  5.2349651e-01
  2.2810681e-01
 -6.2071788e-01
 -7.1282424e-02
 -2.3117520e-01
  6.7507327e-01
  2.5761476e-01
 -1.1626886e+00
  5.3452766e-01
 -1.2203588e+00
  2.9350203e-01
  3.3105674e-01
 -5.3947330e-01
  1.5253469e+00
  1.7814660e-05
 -7.4235754e-06
  6.0916651e-02
  3.7781394e-01
  9.6658421e-01
  4.9397009e-03
  7.0928442e-01
 -1.1705463e-03
  1.0014906e+00
  1.1499470e-06
 -6.3375330e-07
 -1.0767634e-06
  1.0161103e-05
  1.2304912e-05
  4.5400275e-06
  7.6538045e-06
  6.2179711e-06
 -1.2827998e-05
  1.1392628e-06
  1.9986276e-06
 -3.2373248e-06
  9.1536758e-06
  1.9962458e-06
 -1.6696323e-06
  5.6955773e-06
 -3.2864420e-05
  1.5070883e-05
 -6.8147347e-06
 -1.6036198e-05
 -1.4089696e-05
  1.3893466e-05
  2.4647343e-06
  4.3309396e-05
 -3.1857198e-05
  1.5198274e-05
  9.9651679e-08
  1.3110719e-05
  8.4034509e-06
 -1.5509903e-06
 -4.7028893e-06
  3.0154511e-05
 -8.2249004e-05
  1.1521608e-04
  3.1011188e-02
 -7.3846818e-06
 -1.4915394e-05
  1.9140626e-07
  3.2796270e-05
 -2.0776893e-06
  3.7255453e-05
 -6.4539398e-07
  3.9415822e-06
  8.1838814e-05
  3.8207399e-03
  2.8292856e-03
  3.4886759e-06
 -4.9565457e-05
 -1.3944732e-07
 -1.3784184e+00
  3.7410151e-05
 -6.4543474e-07
 -1.3955641e-06
 -4.9179351e-07
 -3.7836796e-06
 -2.2460919e-05
 -6.8807989e-05
  2.0377020e-07
 -4.2975353e-05
 -5.1297989e-06
 -1.8289536e-05
  1.0431981e-01
  1.2287616e+00
  5.0012273e-05
  3.2048972e-04
 -2.3920230e-04
  9.7777873e-02
  7.9057945e-06
 -3.2336677e-05
  2.8401436e-02
  4.9320975e-06
  9.0586123e-05
 -2.6948399e-07
  1.8176819e-01
 -1.2909410e+00
  6.9214903e-02
  8.8521974e-06
  1.1655850e-05
  1.6496639e-07
  4.1782674e-01
 -1.9844150e-04
  2.8392606e-05
  2.1636264e-05
  1.7683851e-05
  1.5003109e-04
  1.7309703e-05
 -1.6229325e-05
  6.6088425e-05
  1.1613311e-05
 -5.7744280e-02
 -6.6438279e-06
 -5.3584206e-01
 -8.6995226e-01
 -6.7854553e-01
  2.6900160e+00
 -3.5927144e-01
 -2.0565420e-01
 -7.7588502e-03
 -3.1925014e-01
  1.2732706e+00
 -1.5654698e-01
  1.0208656e+00
  9.0676045e-01
 -3.2235777e-01
  2.1886458e+00
 -2.8331140e-01
 -2.1008829e-02
 -3.3833581e-01
  5.3018922e-01
  9.9003381e-01
 -1.7465849e-01
  5.1676625e-01
  3.5909761e-02
  2.1622509e-04
 -5.3180116e-01
  8.2270932e-01
  3.1066380e-02
  2.5766925e-04
 -1.3719769e-06
 -1.9817131e-03
  1.1419782e-02
  4.5845634e-01
 -9.2653781e-02
  6.9794886e-02
 -9.5519775e-01
  3.3029974e-01
 -6.0879275e-02
 -1.1547339e-01
  6.3222116e-01
 -2.1344952e-01
  3.9716277e-01
 -8.7369199e-07
 -5.1444926e-04
 -3.2991510e-02
 -1.2107121e+00
  6.7227697e-01
  4.6152584e-02
  1.4699997e-02
  1.2496623e-03
  1.1667397e+00
  2.4694169e-01
  1.3513041e-04
  1.8402532e-07
  3.6060586e-04
 -7.6204196e-02
  9.5479771e-02
  8.2136020e-02
 -1.1901395e-05
  1.2011446e-04
 -8.3385482e-03
  2.3168893e-01
 -6.4068979e-07
  5.6666398e-01
  1.0134012e-01
  3.1634765e-05
 -9.7121764e-03
  8.7608996e-08
 -5.5763965e-05
 -2.7822024e-01
 -2.2410791e-01
  4.8183963e-01
  6.0940101e-03
  2.4153353e-04
  1.2723365e-06
  5.3677845e-01
  8.1563216e-01
 -4.1839453e-06
  1.8507795e-04
 -8.9794565e-05
 -4.0585223e-01
  8.9969181e-02
 -2.8598843e-06
  2.7879850e-07
 -1.6777247e-05
  9.9350844e-05
  7.5624877e-05
  4.3934169e-06
 -1.4967564e-05
 -7.3517813e-06
 -1.7292351e-04
  1.6731469e-04
 -2.7408074e-05
 -5.9965737e-06
  1.9688678e-05
  3.8290968e-06
 -3.6151293e-06
  1.9494153e-05
  3.3060227e-05
 -1.3766818e-06
  1.1487658e-05
 -1.0547451e-06
  7.8382764e-06
 -6.9596576e-06
  5.6896661e-06
 -1.3442802e-05
 -2.8132788e-05
 -1.9621441e-05
 -3.2215230e-05
  4.1645249e-06
  4.7506005e-06
  2.3929854e-06
  1.2691985e-05
 -3.7904661e-06
 -9.2354530e-06
  1.3892051e-06
 -2.5048948e-04
 -1.3048211e-04
 -2.1482165e-05
  3.2697659e-05
 -1.7314987e-05
 -8.2225642e-07
 -1.3032101e-05
 -1.1844102e-03
 -1.3938504e-05
 -1.3190825e-05
 -2.7004708e-04
  4.4926169e-06
  8.9484774e-06
 -1.0525097e-05
 -1.9301315e-05
 -2.8996378e-01
 -2.3725101e-05
  3.0176633e-04
 -2.5718886e-05
 -1.8467744e-06
 -2.9181262e-02
 -2.4591762e-05
 -2.6715332e-05
 -1.3116435e-05
  7.2313577e-01
 -3.3568627e-05
 -6.6285129e-06
 -2.4771090e-05
  1.1236832e-05
 -9.8184180e-05
 -3.3966582e-05
 -6.6655566e-06
  4.3071532e-07
 -6.4320348e-06
  2.7787000e-06
 -2.1275519e-05
 -2.0101890e-05
 -8.7604654e-05
  4.1337389e-06
 -1.1971550e-05
 -9.3131445e-07
 -1.7082250e-05
 -1.2554192e-05
 -8.4043444e-05
  4.8479774e-06
 -8.8473535e-05
  2.3798677e-06
 -1.0673467e-05
 -2.3706349e-05
  8.9931928e-06
  3.6060056e-04
  6.4949809e-06
 -1.2298775e-05
 -3.5657501e-06
  1.3033327e-05
  1.5013105e-06
 -2.2722072e-06
  7.9887068e-06
  1.7708701e-04
  6.4269543e-06
  6.9198545e-06
 -2.3725524e-06
  1.1333394e-05
  2.8244442e-05
 -1.8819599e-05
  3.2575266e-05
 -3.3148831e-06
 -2.0117837e-05
 -2.7000062e-05
 -5.0457176e-05
 -7.6442353e-05
  3.0462721e-05
  3.0322460e-06
  3.2907662e-06
  7.1198690e-07
  1.7243654e-05
  2.3363824e-05
 -1.4505609e-05
  5.5203914e-06
 -4.2639890e-06
  1.3002334e-05
  2.6434609e-05
  8.5565665e-07
 -2.0920164e-05
  8.4967833e-06
 -1.5446923e-06
  1.6486756e-05
 -9.3692561e-06
  1.6470573e-05
 -8.9100477e-06
 -1.9395311e-05
 -5.9969357e-06
  3.3091508e-06
  5.4086308e-06
 -2.5503672e-05
 -6.0950092e-06
  1.2259123e-05
 -1.6551302e-06
 -1.7205824e-06
 -3.9653992e-06
  6.2069419e-05
  2.9147228e-05
 -1.3796726e-05
  2.8874014e-05
 -8.8729630e-06
 -1.0223433e-05
  2.4100316e-05
  1.2904437e-05
  2.6778305e-05
 -1.0084826e-05
  6.9726134e-06
 -1.0903169e-06
 -4.0428975e-05
 -3.2949863e-06
  2.3003997e-06
 -1.8871792e-06
  3.3234933e-06
 -5.7651241e-06
 -2.4572807e-06
  1.0122453e-07
 -1.0561584e-05
 -5.9998079e-06
  3.1419293e-06
 -1.1080124e-05
  2.4104843e-06
  1.6434769e-05
  2.2429037e+00
  1.1892495e-01
  2.8568974e-01
 -4.7963339e-01
 -2.9225539e-02
  3.2106346e-01
  2.6374830e-02
 -1.2195444e+00
  1.4377546e-01
 -2.6509745e-02
  8.4915441e-01
  7.6339301e-04
  1.8923517e-01
 -1.3241471e+00
  5.0459202e-02
  3.0600739e-01
  3.6188919e-02
  1.5673423e-02
  6.8054413e-03
  1.1639187e+00
  1.4723678e-03
  7.7693403e-06
  3.8169529e-02
 -4.6843924e-02
  1.7420037e-02
  4.5904485e-03
 -3.8756582e-07
 -1.0764442e-04
  5.1029027e-05
 -2.4927000e-04
  4.7255427e-05
 -1.3421419e+00
  1.3903199e-01
  9.8056823e-01
  2.9722672e-02
  3.1908160e-01
  1.0699009e-01
 -1.0780293e+00
 -1.0791447e+00
  1.6946241e-06
 -1.1884979e+00
  1.2250443e-05
 -1.3992578e-05
  1.4899318e+00
 -6.2682837e-01
 -1.6153632e-01
  1.7977085e-05
 -7.9878427e-02
  9.7935772e-01
 -1.8207531e-06
  2.8921943e-06
 -1.1324342e-05
 -7.1338345e-06
 -1.0697361e-04
 -1.0760651e-03
 -2.1915184e-01
  3.0686672e-07
  6.0464117e-05
  4.7594350e-02
 -3.5069636e-01
 -2.5221992e+00
  9.4905818e-01
  1.2806709e+00
  3.1910448e+00
 -7.2534988e-03
  2.0205379e-01
  2.4406332e-01
  1.8415964e-01
  4.1344348e-01
 -3.9851865e-01
 -2.1196911e-02
  2.0855348e+00
  1.9514325e-01
  1.8607925e+00
  8.7163642e-02
  1.1815586e-01
  7.8787667e-01
 -3.2904312e-02
  9.6599877e-01
  1.5249715e+00
 -1.4583180e-04
  5.4489938e-05
 -3.2502064e-01
  2.8581965e-01
  4.4858007e-05
 -3.5493766e-05
 -2.5244591e-01
  1.4417167e-01
 -4.6995765e-01
 -6.2082190e-06
  1.2660026e-05
  3.1646663e-01
  4.6071987e-06
  3.4734909e-04
 -1.1095601e-06
 -4.0079118e-05
  4.4468074e-05
  2.4290905e-06
 -1.0121851e-06
 -3.7508539e-04
  1.2749424e-05
 -3.5412140e-06
 -1.5756908e-05
 -9.9959107e-06
  1.1569468e-03
  1.1827941e-05
  4.3617281e-05
  5.3736985e-05
 -1.6861733e-04
  5.7195807e-06
 -2.7773656e-06
  1.0036906e-05
  4.0245159e-06
  6.8327895e-06
 -2.5054069e-06
  6.7822730e-05
 -6.6453322e-06
  5.6245158e-06
  3.8164599e-06
  2.7285801e-04
 -6.2549874e-02
  8.0870569e-02
  2.5210012e-09
 -1.3375982e+00
  1.2388802e+00
  1.2191827e-01
 -1.1669316e+00
 -3.7900959e-03
  1.3203312e-01
 -9.2340505e-04
  2.0737951e-07
  7.5508580e-02
 -2.3826090e-01
  5.1101249e-01
  3.5627789e-05
  1.9728522e-01
 -1.2119355e-05
  1.7774275e-01
 -1.1929672e+00
  1.6529119e-01
 -2.9340920e-06
  2.9030669e-05
  5.5377900e-06
  7.1577556e-02
  9.0469502e-02
  2.2589983e-04
 -8.7824710e-06
 -1.2270144e-05
 -2.2600387e-01
  1.2962900e-01
 -7.0274097e-01
 -1.4441183e-01
  6.2215790e-02
 -8.4560409e-02
  2.4545802e-01
 -9.6448421e-01
  1.2219616e-05
  3.4285811e-01
  7.5681990e-01
 -1.3991985e-01
  3.0429178e-01
  1.1341431e+00
  1.1169262e-01
 -7.4343008e-01
 -1.6697577e-01
  1.8694792e-04
 -5.5200900e-03
  6.9174421e-06
  4.3306372e-01
 -4.5324311e-01
 -2.1406186e-05
 -5.7260950e-05
 -1.2827449e-04
  3.1079978e-01
  7.1225022e-06
 -1.9207026e-05
 -1.6322201e-01
  4.5875424e-07
  1.4933923e+00
 -2.2662811e-05
  4.1958367e-05
  8.9299945e-08
 -1.2590202e-05
  4.3088912e-06
  5.6276422e-06
  1.1603966e-05
  1.5369649e-06
  1.0919479e-05
  2.4573412e-06
 -9.5752621e-06
  1.2893860e-05
  1.3338738e-05
 -1.0738932e-05
 -2.1339554e-06
 -4.8786675e-05
 -1.1430804e-05
 -1.6662449e-07
  4.5338552e-06
  2.3361306e-05
  1.2273408e-04
  1.0814390e-04
 -8.7518483e-06
 -4.2888601e-06
  1.6743434e-05
  2.7898077e-06
 -4.4619383e-06
  9.1955699e-06
 -9.7158236e-06
 -3.6142092e-06
  1.2431177e-06
 -1.1111591e-02
 -4.3161803e-05
 -5.4076304e-06
  6.6407874e-02
  2.2184545e-06
 -4.0078000e-03
  4.3575401e-06
  1.8604930e-02
  4.4629041e-02
  6.1727440e-01
 -4.2825475e-04
  2.6641673e-01
  1.4589360e-04
  3.0039540e-01
 -1.7998364e-05
 -7.6322027e-07
 -1.4908611e-05
 -2.7506960e-05
 -2.1765751e-05
  1.2242889e-05
 -2.0337827e-04
 -1.0912767e-04
 -1.6914739e-05
  3.4378838e-06
 -5.3559554e-05
 -1.9484341e-05
 -4.5043980e-05
  1.5769966e-07
 -2.5752474e-06
 -2.0959835e-05
 -1.2398874e-04
 -1.0237011e+00
 -1.4379156e-05
 -9.5037790e-03
  3.3656786e-05
 -2.6855396e-02
 -1.0094643e-05
 -6.6413895e-06
 -3.1214862e-04
  2.5305027e-01
 -5.8881840e-05
  9.5970699e-06
 -4.3878612e-05
  5.7268000e-01
 -9.8505234e-03
  1.4098542e-05
 -2.0881485e-05
 -7.7763389e-06
  1.7344941e-01
 -3.5114191e-02
 -7.3919705e-06
 -5.0501008e-06
 -1.9680572e-04
  4.3245691e-06
 -1.6579959e-04
 -6.6902103e-06
 -8.5707397e-05
  9.1751917e-06
 -4.3620259e-02
  8.4494022e-05
 -1.8352833e-01
  1.0479468e+00
  2.4281231e-05
  3.5672022e-07
 -1.3077055e-01
 -1.1631470e-04
 -2.7301396e-06
 -8.5247707e-01
  2.0190371e-02
  3.9770645e-01
  6.2754923e-05
 -1.1420366e+00
 -2.2198553e-01
  6.0670620e-01
  8.4562546e-01
  1.2351469e+00
 -2.1029309e-05
  3.6824047e-05
 -1.3477264e-05
 -3.9473816e-06
 -3.6156143e-05
 -5.3740531e-01
 -9.4994152e-01
  3.1463328e-01
 -1.3580064e-06
 -4.4052309e-01
 -3.3140948e-01
 -1.0419091e-04
 -1.7434353e-01
  3.9159298e-01
  5.6580484e-01
 -8.6524397e-01
 -5.9853296e-06
 -1.3339583e-05
 -8.7260199e-01
 -3.4467307e-01
 -1.6108738e-01
  2.5737648e+00
 -2.1904111e+00
  1.8995240e+00
  1.8294184e-05
 -4.8105898e-01
  4.8787388e-01
  1.8479902e+00
  1.0035378e+00
  5.4428798e-01
 -9.3888528e-05
 -2.9304186e-01
  6.7329728e-07
  8.4909323e-07
 -6.5690024e-06
  7.8558999e-01
 -6.3671035e-01
 -1.9858277e+00
  2.6011166e-01
  7.8212845e-01
 -8.4067464e-01
 -1.8301373e-05
 -5.5620599e-01
 -6.8939441e-01
 -1.9267408e+00
  6.7095321e-01
 -4.9961982e-05
 -6.6381317e-01
  7.6675427e-01
 -8.6492950e-01
 -5.4033899e-01
 -1.4383314e+00
  5.0400269e-01
  3.5375482e-01
  7.3322290e-01
  1.6019323e-01
  3.8823061e-02
  6.2642495e-05
 -1.1295125e-04
  1.0903238e-02
 -1.4851409e-01
 -2.4469575e-01
  1.9230846e+00
 -1.7831894e+00
 -7.4049824e-01
  1.7401648e+00
  1.2205813e+00
  8.5443026e-01
  5.7195574e-01
  8.5566807e-01
  8.5566118e-02
 -1.0005471e+00
 -2.3573078e-01
  4.1954890e-01
 -2.1208091e+00
  2.4018696e-01
  4.7322398e-01
 -1.1184185e+00
  1.1039792e+00
 -1.1223824e+00
  2.6597700e-01
  1.2116873e+00
  1.3927034e+00
  2.5790054e-01
 -9.4349474e-02
 -5.9574533e-01
  1.8085672e+00
 -2.0597491e+00
 -2.7721816e-01
  2.5738764e+00
 -1.5931237e+00
 -1.7455245e+00
  1.5704845e+00
  4.0339234e-01
 -1.1318319e+00
  1.1543301e+00
 -9.4308233e-01
  5.1894271e-01
  8.7407637e-01
 -1.2139390e-01
 -4.6133515e-01
  3.5140485e-01
  1.3578096e-01
  1.0641057e+00
 -8.0060017e-01
 -4.0921500e-01
 -9.2178702e-02
 -1.7741181e+00
  1.4792616e+00
 -8.4836632e-01
 -1.5486648e+00
 -6.8918942e-04
 -1.4229484e-01
  4.4937238e-01
 -1.5325459e+00
 -3.9150992e-01
 -1.3222998e+00
  2.6546067e-01
  6.0021621e-01
 -4.2089853e-01
  1.8286107e-02
 -1.0514324e-02
  2.4068689e+00
  5.6133556e-01
  1.2565005e-01
  9.6936160e-01
 -2.8236529e-01
 -4.0241845e-05
  2.1746729e-02
 -4.6853617e-01
 -4.3269835e+00
 -7.5954877e-02
  3.6502819e-04
  6.5324736e-01
  1.0235339e+00
  9.1504962e-06
  3.9537452e-05
  2.0585728e-06
  2.6562549e-05
 -2.2610083e-01
  9.8711544e-01
  1.0576119e-05
 -2.3094449e-06
  2.8637261e-04
 -5.1408035e-01
  1.3571228e-06
  1.8051345e-05
 -6.9183797e-01
 -4.9240315e-01
  5.3535628e-01
  6.4204464e-04
  2.3493442e-01
 -1.2444589e-01
  1.6160146e-03
 -2.0001621e-06
  2.1914445e-01
 -1.0915140e+00
 -1.6907617e+00
  2.2966377e-01
  3.3335999e-02
  2.7896979e-01
  4.5660359e-01
  6.7082117e-05
  3.3739521e-03
  1.8781858e-02
  1.2507740e-01
  2.9767001e-01
  2.3159337e+00
  1.0188969e+00
  2.5283366e-01
  9.6590370e-02
 -2.3683545e-01
 -9.8290481e-04
 -5.7810071e-06
 -2.5848828e-02
 -9.5761913e-01
  1.1284537e+00
  1.6169468e-05
  5.6152970e-01
  6.6812539e-01
  1.0520515e-04
 -9.5648306e-07
  3.6485366e-05
 -6.0908437e-01
 -3.7877688e+00
  1.7911628e-01
  1.0441428e-01
 -2.2174399e-05
 -5.3882730e-01
  7.9510310e-06
 -3.5966041e-05
  1.1520270e+00
  3.6871603e-01
  5.8381230e-01
  3.0757821e-01
  1.3508411e-01
  5.2126467e-01
  1.2295359e+00
  1.5987359e-01
  1.7345570e+00
 -1.8391748e-01
 -9.9434918e-01
 -2.0213931e+00
  1.9740816e+00
  5.5917513e-01
  1.7013586e+00
  3.8629513e-02
 -9.3967634e-01
 -4.9059842e-08
 -7.6605076e-01
 -3.6142790e-01
  1.0624340e+00
  9.1058785e-01
  1.6407207e-01
 -2.3593865e-01
 -5.9803981e-01
 -4.5854857e-05
  8.1561893e-06
  6.2459981e-07
 -1.7052270e-01
  9.6498570e-06
  2.0519666e-01
  3.9075012e-06
  2.1754213e-06
  5.7831021e-06
  6.3817686e-05
 -8.9751302e-07
 -3.6661170e-02
  1.0050849e+00
 -6.3060867e-03
 -7.2806382e-01
 -5.8549875e-04
 -7.9668294e-05
  2.9405441e-02
 -5.1219117e-02
  4.5462897e-05
 -6.7438856e-02
 -1.2915984e+00
 -7.8710341e-01
 -1.2175747e+00
 -6.7869260e-05
 -3.2840457e-04
  1.0089371e+00
 -1.1798345e-05
 -3.5018675e-05
  8.1497619e-06
 -1.4308633e-01
 -6.9207883e-01
  2.3528681e+00
  4.3223965e-01
 -3.2569969e-05
 -4.3493623e-01
  1.1519841e-04
 -2.1223207e-06
 -7.1797863e-02
  7.2857940e-01
  7.3314011e-01
  1.1569492e+00
 -5.9243388e-02
  3.1099039e-01
 -7.9964072e-01
 -1.5153761e-02
  5.4885163e-06
 -1.0064065e-02
  1.5347748e+00
 -3.7485673e-04
  3.5850886e-01
 -5.5018023e-05
 -3.2802772e-02
  7.9207736e-01
 -1.7660505e-03
 -4.5355861e-07
  3.0867398e-01
 -1.5760679e+00
 -8.7943304e-01
  2.4978772e-01
  6.2821135e-02
 -1.4575908e-01
  2.9683599e-01
 -1.0422324e-01
  1.2325378e-05
  3.9396036e-02
  6.0274545e-03
  3.6888269e-01
  2.7133250e-01
 -3.8270606e-05
  6.0981429e-01
  9.7451073e-01
  1.1527456e+00
  1.3017132e+00
 -1.4736109e+00
  1.0902950e+00
  4.2350227e-01
 -1.6098753e+00
 -7.0017809e-01
  7.7654874e-01
  1.5066608e+00
  3.7018531e-06
  1.2995793e-02
 -1.1670323e-05
  1.8146347e+00
  2.1267622e-05
 -3.0771716e+00
  9.6044654e-01
  1.7732900e-01
 -2.1012923e-01
  4.0462911e-01
  1.5512976e-03
 -1.6977890e-01
 -1.7964723e+00
  5.8632702e-01
  9.3772298e-01
 -1.4787273e+00
  1.4950770e-02
  2.8934991e-01
  2.0649597e-01
  1.3650866e+00
 -5.6636106e-02
  2.1201272e+00
  1.5216117e+00
 -8.7020129e-02
  1.0005971e+00
  1.5512151e+00
 -1.3761780e+00
  1.5750307e-05
  3.2398701e-01
  5.0771514e-06
  7.2882003e-01
  1.2968855e+00
 -1.1180180e+00
  3.2968647e+00
  4.4484955e-01
 -2.2728631e+00
  4.1756061e-01
 -7.5513881e-06
 -1.3492785e+00
 -3.3635321e-01
 -2.4378613e-01
 -1.9990709e+00
 -1.2435389e+00
  8.9400578e-01
 -7.0350605e-01
  8.1073290e-01
  1.9700716e+00
  8.6897004e-01
  1.3435212e-01
  1.1077943e+00
 -3.3687741e-01
 -1.8700869e+00
  2.1161717e-01
  9.8188482e-03
  4.2104302e-03
  4.2981151e-01
 -6.5368146e-01
  1.3131052e+00
 -8.1295174e-01
  3.4696823e-01
 -2.3300195e-01
  2.1100876e-01
 -1.7922246e+00
 -7.6539165e-01
 -3.9799127e-01
 -5.8234286e-01
  1.0835258e+00
  1.3827505e+00
  1.1784768e+00
  1.6419443e+00
  3.1772107e-01
 -7.1288437e-02
 -1.8893857e+00
 -7.4558777e-01
  1.0488433e+00
 -1.4967171e+00
 -1.2068918e+00
 -2.2208412e-01
 -2.5159595e+00
 -3.7541941e-02
 -7.8145333e-02
 -2.2484139e-01
 -3.1387720e-01
 -1.5129174e-06
 -8.6146975e-01
 -1.6221160e-04
  1.0292170e+00
 -1.2341192e-01
 -1.2794138e-05
  8.6415994e-01
  1.1105853e-01
  3.2128745e-01
 -3.1458493e-02
  3.8934776e-01
  4.0531926e-02
 -6.1487442e-01
  9.0242141e-01
 -4.9656985e-04
 -1.7968326e+00
 -1.9342637e+00
 -7.2910213e-01
  1.0079309e+00
 -9.2325136e-02
 -2.8342929e+00
  1.2846014e+00
 -6.4052862e-01
 -1.5737801e+00
  1.3493257e+00
 -8.6372316e-01
 -9.4940215e-01
 -1.6946305e-01
 -8.1632800e-02
 -8.1614947e-01
  1.0931133e+00
  8.2928789e-01
  2.5872388e-01
  8.8568455e-01
 -9.0158594e-01
  6.1851478e-01
  9.3667004e-03
  2.9110059e-01
 -3.5958675e-01
 -1.4986045e+00
 -4.1064200e-01
 -8.3894503e-01
  9.4635673e-02
 -1.0176735e+00
 -6.9533646e-01
 -1.2753792e+00
 -1.5640043e+00
 -2.5968647e+00
 -8.8826895e-01
 -1.5051874e+00
 -5.6996495e-01
  1.6460637e+00
 -3.5468501e-01
 -6.4979929e-01
 -4.7835407e-01
 -7.7483410e-01
 -9.6133101e-01
 -1.5306771e+00
  7.0444494e-01
  8.8178968e-01
 -8.3498913e-01
 -3.7888896e-01
 -9.7506344e-01
  1.7192258e+00
 -7.5929934e-01
 -6.7640048e-01
  7.3666894e-01
  1.4469355e+00
  8.5617268e-01
 -1.1497377e+00
  1.5989533e-06
  3.2381582e-01
  3.6825773e-01
  9.9722147e-01
 -1.1104697e-05
 -2.0469341e+00
 -6.8524486e-01
 -1.2382619e+00
 -3.7050503e-01
  2.4902448e-07
 -2.6156490e-06
  4.2711879e-05
  2.1056603e-05
  1.0996164e-05
 -2.8568226e-01
  1.4552634e-05
 -5.0649089e-01
  3.1128152e-06
  3.7841364e-06
  1.8336806e-01
  3.4921834e-01
  3.3533323e-01
  6.1638133e-07
 -4.3045223e-01
  7.8152996e-01
  2.0238428e-01
 -1.8154809e+00
  6.5465028e-05
 -2.3303735e-04
  9.9523228e-01
  3.7979588e-01
 -3.5998905e-06
  1.6147606e-01
 -3.6505616e-01
  7.0930916e-01
 -9.4788873e-01
 -2.3612090e-06
  1.0637212e-01
  3.5117742e-02
 -9.5410519e-07
  2.0262012e-06
 -1.9334060e+00
  1.4274882e+00
 -4.6684220e-03
 -8.0176705e-01
  3.2272229e-07
  7.6512741e-05
  4.8541000e-01
  1.2418563e+00
 -2.0171914e-05
 -1.3162086e+00
  6.6993797e-01
  9.0405083e-01
 -1.0682508e+00
  2.0305277e-05
  4.7640063e-04
  2.8296185e-01
  5.3357271e-05
 -2.5119889e-06
 -1.1471326e-01
  4.5168638e-01
 -1.6281707e+00
 -8.5378563e-01
 -1.3521127e-06
  3.9857326e-04
  1.1017587e+00
  6.1167347e-01
  4.2192325e-05
 -8.7673932e-01
  7.7717446e-02
 -1.4478384e-01
  1.2814629e-01
  2.1708971e-05
  7.0727707e-05
  2.2298638e-02
  4.8237577e-01
  1.6258427e-05
  4.1906103e-01
  4.7513840e-01
  8.2884616e-01
 -3.9075080e-01
 -2.7423607e-06
  1.7420642e-05
 -1.1808650e-04
  2.6627856e-06
  5.4019303e-05
  6.2171090e-02
 -1.0993454e+00
  1.3799645e+00
  3.1333482e-01
  4.0983405e-06
  4.1694420e-06
  1.2971677e-07
 -6.5662766e-06
 -1.0932740e-05
  3.4896839e-06
 -9.3550341e-07
  3.2660243e-01
  4.7536517e-07
  1.9348096e-07
 -2.7204273e-06
 -3.4597995e-06
 -4.8350284e-06
 -1.3790504e-04
  9.4547451e-01
 -3.6342290e-01
  9.6317619e-01
 -1.4845893e+00
 -2.4935716e-06
  7.5144571e-06
  5.1174429e-06
 -1.2517378e-04
  7.8076737e-06
 -2.1156291e-05
  1.4971204e-01
 -1.2163625e+00
 -3.7582338e-01
  3.7935286e-05
  6.0684793e-06
  4.7860158e-06
 -2.0626710e-05
 -9.8510372e-06
  2.0662998e-01
  1.0128835e-01
  2.9658565e-01
  9.7310436e-01
  3.4967263e-05
  6.3488733e-06
 -3.4696207e-06
  4.5348937e-05
  3.4257098e-06
  1.0077279e+00
  6.2274885e-01
  2.3639328e+00
 -1.0716164e+00
  8.7455946e-06
  1.8891842e-05
  5.0297244e-06
 -1.1500021e-04
  2.5878679e-05
 -2.5067109e-01
  6.0130842e-02
  1.3510184e-01
 -3.0067074e-01
 -1.3533742e-05
  1.0868858e-06
  3.7192133e-06
  9.3888630e-06
 -1.2951525e-04
  1.5277964e+00
 -1.9576594e-01
  5.1726758e-01
  9.8508406e-01
  9.9948849e-08
  1.6735457e-07
 -1.1791709e-06
 -3.2724845e-04
  8.1054437e-05
 -4.4078884e-01
  1.7897122e-01
 -6.1539423e-01
  5.0196558e-01
  9.3903992e-07
  2.7489361e-06
 -3.4063801e-06
 -9.7559877e-02
  2.1270268e-06
  5.5762851e-01
 -5.0489079e-02
 -9.1544694e-01
 -9.2600197e-01
 -1.1885639e-06
  1.2846623e-07
  1.6188773e-05
 -7.0576704e-07
  6.0640459e-06
  1.9827273e+00
  1.6817596e-04
  1.6809301e-05
 -1.9289293e-05
  4.2322267e-06
 -2.4794376e-06
  7.2102753e-06
 -1.7260889e-05
  3.0978836e-06
 -5.8903611e-01
  5.5480427e-01
 -1.8514401e+00
 -6.7483658e-01
 -2.3505905e-05
  7.8565736e-06
 -8.7921771e-06
 -4.2523725e-06
 -3.4358331e-05
  8.9141568e-03
  1.2039844e-04
  4.4508564e-01
 -3.6495379e-01
 -1.7454216e-06
 -9.9642521e-06
 -1.5811871e-06
  4.7881040e-06
  6.1296916e-05
 -3.5961252e-01
  4.2575544e-01
 -1.5530449e-01
 -1.5040842e+00
 -2.0037785e-06
  1.3485808e-04
 -7.0164942e-06
 -2.9350349e-01
  8.5595286e-07
 -2.4847215e-02
  5.1875398e-02
  5.8198307e-02
 -7.5711417e-01
 -1.7661847e-05
 -1.9038436e-05
  6.9535213e-06
  9.4213865e-06
  1.3182639e-06
  1.5422326e+00
  2.7731854e-02
 -2.5796694e-01
 -7.7789891e-01
 -3.6600422e-06
  1.0194167e-04
  3.6931058e-05
 -3.5276172e-01
  4.2880445e-05
  4.1209239e-01
  1.5237001e-01
 -1.3643297e+00
 -1.2999572e+00
 -3.4928980e-06
 -1.3518134e-05
  8.4920492e-07
  6.0160319e-06
 -3.1246477e-06
 -4.8130441e-01
  2.9817256e-01
  9.7495121e-01
 -8.5982341e-01
  6.8680651e-02
  6.0218799e-01
 -9.6125978e-01
 -8.2611486e-02
  5.5950682e-06
  9.6253850e-02
  5.7886875e-01
  1.0209185e+00
 -6.0235345e-01
 -3.4373445e-06
 -1.0176452e-06
 -3.4273220e-05
 -6.1959940e-07
  2.0160795e-05
 -6.1680257e-01
  1.8762021e-05
  3.8104078e-01
 -1.2397797e-04
  5.5876184e-02
  6.3205761e-01
 -8.9072418e-01
 -6.1475388e-05
  2.4729654e-05
 -1.1469226e+00
  1.8101688e-01
 -6.7005014e-01
 -7.7564323e-01
 -2.2319989e-06
  9.3123890e-06
 -9.2409897e-01
 -1.2961747e-05
 -1.4945764e-05
  9.8134619e-01
 -8.2625754e-02
  9.7269523e-01
  8.3853465e-01
  5.5997625e-02
  3.5394448e-01
  2.6680911e-01
 -6.5363815e-07
 -2.0199730e-06
  4.1494081e-05
  8.4930331e-01
  5.2664727e-01
  1.5351750e-01
 -1.2501404e-06
  2.0534600e-04
 -2.6142504e-02
 -6.4681473e-05
 -8.3500879e-07
 -2.1611257e+00
 -1.9377272e-01
  2.0113108e+00
 -5.9357697e-01
  5.2467654e-03
  8.4566124e-02
  8.2183840e-05
 -6.2770108e-05
 -1.3173141e-05
 -1.8733567e+00
  2.8823611e-01
  1.2857765e+00
 -2.4913107e-01
  1.2664431e-05
  3.3063278e-01
 -9.3183750e-01
 -1.6124680e-04
  4.6444898e-06
  3.9178573e-07
  5.3642243e-01
  8.6831890e-02
  3.3640298e-01
  3.4213806e-06
  1.3261744e-04
 -4.1815808e-01
 -1.5281723e-03
 -8.3434288e-06
 -4.9148259e-01
  5.6378663e-01
 -3.0895057e-01
 -1.3377443e-01
  4.6114859e-05
 -3.8486246e-03
 -7.0509690e-01
  3.0370361e-06
  2.2997565e-06
 -1.0527774e+00
  1.1981201e+00
  8.0943733e-01
 -4.1903695e-01
 -5.6298154e-06
  5.0454955e-06
 -3.0772123e-06
  1.8713253e-06
 -6.0504153e-06
  7.3474821e-06
  9.6432340e-01
 -2.2231431e+00
  1.5271113e-05
 -3.7165896e-06
  9.2430382e-06
 -1.8537695e+00
  8.4205181e-05
 -6.8195499e-05
 -3.4803370e-01
 -1.0359823e-02
  3.1686267e-01
  7.1452439e-01
  2.0025309e-06
 -1.2470159e-06
 -7.3881360e-04
  2.3678855e-05
 -4.6245264e-06
 -6.6879773e-01
  1.1444489e+00
 -2.3251037e-01
 -6.6146213e-01
  8.9332971e-06
  4.2119748e-07
 -4.8498547e-01
  1.6736885e-05
  1.9025332e-05
 -8.8854212e-01
 -1.7514855e-01
 -4.9429250e-01
  4.4591841e-01
 -3.6900246e-07
 -4.1568860e-06
 -3.3020999e-02
 -1.8888983e-06
 -8.1757653e-06
  8.4474444e-01
  2.4181052e-01
  4.9299836e-01
  1.3444409e-02
  3.3572069e-05
  1.6919212e-06
 -2.0809960e-02
  1.8638098e-05
 -5.3545568e-06
 -1.7078026e-01
  2.0946085e+00
 -1.7541142e+00
  5.6250405e-01
 -1.3204024e-05
 -5.5585447e-04
 -2.3045751e-01
  1.5385485e-05
  2.3843417e-05
 -7.3566460e-03
 -1.2945578e-01
  5.3782481e-01
 -4.9801821e-01
 -8.9858149e-06
 -1.8020397e-05
 -7.7957225e-01
  1.2918289e-05
 -2.2036397e-06
  8.0639714e-01
  3.7589088e-01
 -6.6854316e-01
 -6.6400319e-01
  1.2413758e-02
  1.2413758e-02
  1.2413758e-02
  1.2413758e-02
  1.2413758e-02
  6.7241365e-01
  6.7241365e-01
  6.7241365e-01
  6.7241365e-01
  6.7241365e-01
  1.4738771e-01
  1.4738771e-01
  1.4738771e-01
  1.4738771e-01
  1.4738771e-01
  1.0924964e-01
  1.0924964e-01
  1.0924964e-01
  1.0924964e-01
  1.0924964e-01
  1.6452778e-02
  1.6452778e-02
  1.6452778e-02
  1.6452778e-02
  1.6452778e-02
  1.8038879e-01
  1.8038879e-01
  1.8038879e-01
  1.8038879e-01
  1.8038879e-01
